~o
<STREAMINFO> 1 39
<VECSIZE> 39<NULLD><MFCC_D_A_0><DIAGC>
~h "d"
<BEGINHMM>
<NUMSTATES> 5
<STATE> 2
<MEAN> 39
 -1.900472e+000 -5.927392e-001 1.265561e+000 -1.594663e+000 9.583308e-001 2.035553e+000 3.631745e+000 -3.480391e+000 7.326342e-001 2.552936e+000 -2.226483e+000 1.248341e-001 4.955043e+001 -2.639129e-002 -3.255123e-002 -3.474983e-003 1.155378e-002 2.493633e-002 -1.799216e-002 1.288724e-002 2.446118e-002 2.333103e-002 -8.614942e-004 7.896496e-003 7.145164e-003 1.715253e-002 1.901461e-004 -1.033558e-004 -9.391941e-004 -2.575924e-004 4.993296e-004 1.600827e-005 -7.353205e-004 2.134255e-004 -5.132139e-004 -9.609114e-004 7.784243e-004 -6.943546e-004 9.066802e-006
<VARIANCE> 39
 2.219520e+001 1.464825e+001 1.097515e+001 4.730693e+001 2.001922e+001 2.688713e+001 2.627951e+001 2.895235e+001 3.628064e+001 2.477564e+001 2.998860e+001 1.794788e+001 3.850577e+001 6.199886e-001 5.224687e-001 6.145948e-001 1.401605e+000 1.075570e+000 1.358913e+000 1.670451e+000 1.777547e+000 1.717736e+000 1.636598e+000 1.680772e+000 1.213193e+000 7.614092e-001 1.000659e-001 9.619880e-002 1.151363e-001 2.265420e-001 2.044799e-001 2.568707e-001 3.322646e-001 3.384571e-001 3.274665e-001 3.201714e-001 3.240567e-001 2.412072e-001 1.263539e-001
<GCONST> 9.474747e+001
<STATE> 3
<MEAN> 39
 -2.026232e+000 -7.612995e-001 1.243186e+000 -1.524495e+000 1.102370e+000 1.962813e+000 3.681967e+000 -3.368445e+000 8.523778e-001 2.553922e+000 -2.175054e+000 1.550827e-001 4.962452e+001 -2.431434e-002 -3.335480e-002 -6.520475e-003 1.300596e-002 2.762414e-002 -1.748099e-002 9.513325e-003 2.174642e-002 2.214306e-002 -2.631905e-003 9.853629e-003 4.131895e-003 1.698415e-002 7.450256e-004 7.475050e-005 -6.142004e-004 4.926383e-005 7.047546e-004 2.866000e-004 -1.174864e-003 -5.536934e-004 -1.027922e-003 -5.559708e-004 5.184360e-004 -7.592649e-004 2.677699e-004
<VARIANCE> 39
 2.162372e+001 1.434023e+001 1.127047e+001 4.514377e+001 1.921304e+001 2.748443e+001 2.521869e+001 2.902384e+001 3.478695e+001 2.425786e+001 3.028027e+001 1.837380e+001 3.887841e+001 6.364536e-001 5.365087e-001 6.283072e-001 1.397937e+000 1.088056e+000 1.396435e+000 1.650825e+000 1.806825e+000 1.711353e+000 1.626774e+000 1.702834e+000 1.241686e+000 7.861288e-001 1.044013e-001 9.962671e-002 1.170585e-001 2.276474e-001 2.081377e-001 2.630250e-001 3.295622e-001 3.442895e-001 3.286681e-001 3.177837e-001 3.283638e-001 2.475878e-001 1.288224e-001
<GCONST> 9.497957e+001
<STATE> 4
<MEAN> 39
 -1.822254e+000 -9.827005e-001 1.113798e+000 -1.772831e+000 1.253925e+000 1.658783e+000 3.529543e+000 -3.050156e+000 8.718219e-001 2.487515e+000 -2.150554e+000 1.347026e-001 5.036616e+001 -1.438569e-002 -3.282392e-002 -4.003318e-003 1.393460e-002 2.471405e-002 -1.441506e-002 1.266484e-002 1.777152e-002 1.705284e-002 -3.503733e-003 -8.171717e-005 2.099189e-003 1.956309e-002 1.314049e-003 2.595227e-004 -4.980750e-005 -9.295479e-004 -3.375149e-004 2.416760e-005 -4.241413e-004 6.293449e-005 -1.399295e-003 -7.171347e-004 -7.651211e-004 -5.455655e-004 1.246758e-003
<VARIANCE> 39
 2.312963e+001 1.613128e+001 1.339442e+001 4.714096e+001 2.014424e+001 3.156611e+001 2.495647e+001 3.041154e+001 3.402928e+001 2.451456e+001 3.366091e+001 2.082341e+001 4.726814e+001 7.019226e-001 5.964092e-001 6.971453e-001 1.477247e+000 1.152262e+000 1.536715e+000 1.665276e+000 1.903224e+000 1.711499e+000 1.647773e+000 1.820902e+000 1.336529e+000 9.270666e-001 1.157086e-001 1.084856e-001 1.249864e-001 2.371452e-001 2.190308e-001 2.832526e-001 3.285063e-001 3.573751e-001 3.278004e-001 3.205383e-001 3.443395e-001 2.610621e-001 1.431111e-001
<GCONST> 9.757788e+001
<TRANSP> 5
 0.000000e+000 1.000000e+000 0.000000e+000 0.000000e+000 0.000000e+000
 0.000000e+000 7.952295e-001 2.047705e-001 0.000000e+000 0.000000e+000
 0.000000e+000 0.000000e+000 7.952289e-001 2.047711e-001 0.000000e+000
 0.000000e+000 0.000000e+000 0.000000e+000 9.307685e-001 6.923147e-002
 0.000000e+000 0.000000e+000 0.000000e+000 0.000000e+000 0.000000e+000
<ENDHMM>
~h "f"
<BEGINHMM>
<NUMSTATES> 5
<STATE> 2
<MEAN> 39
 -7.007813e-001 -1.657882e+000 -6.881508e-001 -4.200735e+000 9.650418e-001 1.333685e+000 2.812033e+000 -2.353455e+000 7.194007e-001 3.200946e-001 -2.682037e+000 -1.777211e+000 5.460531e+001 5.386016e-003 -4.446831e-004 -1.617676e-002 -2.138768e-002 8.141547e-003 4.262234e-003 -1.257819e-002 1.829764e-002 -4.119863e-003 -4.334125e-003 8.000772e-003 -5.862812e-003 2.616775e-002 3.340293e-004 2.171800e-004 2.215421e-004 -1.320419e-004 -1.565373e-004 4.012319e-004 -3.451914e-004 -3.454149e-004 -7.346902e-005 -2.490157e-004 -3.716164e-004 -6.536114e-004 3.828417e-004
<VARIANCE> 39
 4.025080e+001 2.686908e+001 3.137395e+001 8.926539e+001 3.145371e+001 4.643623e+001 2.367158e+001 3.190901e+001 3.138173e+001 3.366772e+001 2.781585e+001 3.482118e+001 7.180470e+001 1.386626e+000 9.166868e-001 1.107845e+000 2.204506e+000 1.399755e+000 1.767619e+000 1.534151e+000 1.940150e+000 1.760180e+000 1.675312e+000 1.554829e+000 1.534668e+000 8.084241e-001 1.899889e-001 1.362781e-001 1.639855e-001 2.880558e-001 2.298816e-001 2.912572e-001 2.900595e-001 3.418457e-001 3.119003e-001 2.952738e-001 2.843921e-001 2.701978e-001 9.785717e-002
<GCONST> 1.044987e+002
<STATE> 3
<MEAN> 39
 -6.691729e-001 -1.656962e+000 -7.569194e-001 -4.306124e+000 9.994341e-001 1.354956e+000 2.745081e+000 -2.275905e+000 7.040800e-001 2.987132e-001 -2.651618e+000 -1.811469e+000 5.474472e+001 6.960609e-003 5.414023e-004 -1.382922e-002 -2.197879e-002 6.435191e-003 5.186577e-003 -1.429872e-002 1.552595e-002 -2.485496e-003 -4.427829e-003 5.648248e-003 -7.584134e-003 2.837576e-002 3.556727e-004 1.114957e-004 5.454271e-004 -1.592524e-004 -4.383622e-004 9.795514e-005 -3.901812e-004 -6.715196e-004 4.263275e-004 5.565773e-005 -4.885632e-004 -2.516611e-004 4.468450e-004
<VARIANCE> 39
 4.085110e+001 2.704785e+001 3.145677e+001 9.088935e+001 3.164089e+001 4.633090e+001 2.379450e+001 3.194606e+001 3.175333e+001 3.377347e+001 2.782165e+001 3.495959e+001 7.137653e+001 1.424868e+000 9.274522e-001 1.115197e+000 2.258627e+000 1.409958e+000 1.770358e+000 1.549188e+000 1.947530e+000 1.766555e+000 1.686368e+000 1.558774e+000 1.541698e+000 8.161716e-001 1.956278e-001 1.385313e-001 1.652706e-001 2.940388e-001 2.318547e-001 2.911387e-001 2.927978e-001 3.430260e-001 3.124786e-001 2.974062e-001 2.846864e-001 2.709131e-001 9.903609e-002
<GCONST> 1.048026e+002
<STATE> 4
<MEAN> 39
 -6.691316e-001 -1.590909e+000 -7.436518e-001 -4.294961e+000 1.108409e+000 1.414982e+000 2.605146e+000 -2.232097e+000 6.809372e-001 3.783615e-001 -2.647494e+000 -1.753875e+000 5.484580e+001 1.032701e-002 4.549919e-003 -4.209237e-003 -2.435315e-002 1.652508e-003 -2.668528e-003 -1.767376e-002 1.004927e-002 -7.147172e-003 -1.688723e-003 -2.553527e-003 -8.967180e-003 3.948476e-002 3.047122e-004 2.652182e-004 7.027102e-004 -1.377490e-004 -4.307667e-004 -6.095935e-004 -3.248211e-004 -5.394710e-004 -2.927504e-004 2.897475e-004 -6.094771e-004 -6.736432e-005 5.867787e-004
<VARIANCE> 39
 4.114083e+001 2.671568e+001 3.110098e+001 9.133514e+001 3.151151e+001 4.507355e+001 2.435040e+001 3.255602e+001 3.282771e+001 3.353672e+001 2.874246e+001 3.387881e+001 7.001405e+001 1.459519e+000 9.344268e-001 1.096265e+000 2.295350e+000 1.422638e+000 1.742814e+000 1.597012e+000 1.970164e+000 1.764640e+000 1.696310e+000 1.583782e+000 1.526155e+000 8.173066e-001 2.009891e-001 1.419624e-001 1.634893e-001 2.983761e-001 2.364185e-001 2.861381e-001 3.020867e-001 3.484541e-001 3.131347e-001 3.002944e-001 2.859227e-001 2.682517e-001 9.883537e-002
<GCONST> 1.049956e+002
<TRANSP> 5
 0.000000e+000 1.000000e+000 0.000000e+000 0.000000e+000 0.000000e+000
 0.000000e+000 7.949505e-001 2.050495e-001 0.000000e+000 0.000000e+000
 0.000000e+000 0.000000e+000 7.949523e-001 2.050476e-001 0.000000e+000
 0.000000e+000 0.000000e+000 0.000000e+000 9.300469e-001 6.995313e-002
 0.000000e+000 0.000000e+000 0.000000e+000 0.000000e+000 0.000000e+000
<ENDHMM>
~h "k"
<BEGINHMM>
<NUMSTATES> 5
<STATE> 2
<MEAN> 39
 -2.319139e+000 -1.105597e+000 2.203590e-001 -2.254476e+000 7.677702e-001 -1.206405e+000 3.636098e+000 -2.005678e+000 1.461287e+000 1.553874e+000 -1.421839e+000 -5.399415e-001 5.434222e+001 -5.946226e-003 -8.168608e-003 -2.221578e-003 1.448155e-003 6.313460e-003 -1.914956e-002 -1.003377e-002 9.279685e-003 1.222672e-002 3.985486e-003 2.649159e-003 -6.847485e-003 6.875830e-003 9.066891e-005 -7.217201e-004 2.716403e-004 -5.078514e-005 4.672022e-004 1.724291e-004 -1.630637e-004 -8.252598e-004 -4.732946e-004 -5.610506e-004 -1.131640e-004 -3.099567e-004 6.809888e-005
<VARIANCE> 39
 4.771064e+001 2.309228e+001 2.902744e+001 4.296259e+001 4.106910e+001 6.373227e+001 2.487531e+001 3.006739e+001 3.395660e+001 3.127805e+001 2.717832e+001 2.983610e+001 6.692980e+001 1.564957e+000 8.943283e-001 1.294005e+000 1.507018e+000 1.676314e+000 1.958251e+000 1.546384e+000 1.882328e+000 1.974791e+000 1.570014e+000 1.561728e+000 1.482402e+000 8.092948e-001 1.955980e-001 1.257621e-001 1.971055e-001 2.246546e-001 2.530258e-001 3.224375e-001 2.924061e-001 3.411244e-001 3.455871e-001 2.887338e-001 2.814782e-001 2.757587e-001 1.046798e-001
<GCONST> 1.044370e+002
<STATE> 3
<MEAN> 39
 -2.340860e+000 -1.162615e+000 2.081519e-001 -2.256489e+000 8.144132e-001 -1.298034e+000 3.582962e+000 -1.977845e+000 1.503232e+000 1.560076e+000 -1.415568e+000 -5.767250e-001 5.439000e+001 -4.913921e-003 -1.201271e-002 -1.788346e-003 9.498529e-004 8.782933e-003 -1.818268e-002 -1.010097e-002 5.500291e-003 8.712177e-003 2.441478e-003 2.483528e-003 -6.938732e-003 8.051726e-003 1.654586e-004 -6.707148e-004 7.419239e-006 -1.609314e-004 5.730825e-004 4.544636e-004 -5.049998e-006 -8.415236e-004 -7.580865e-004 -3.384726e-004 -1.177033e-005 1.502285e-004 2.038008e-004
<VARIANCE> 39
 4.763760e+001 2.316507e+001 2.922981e+001 4.265180e+001 4.133987e+001 6.341284e+001 2.483192e+001 2.979681e+001 3.396264e+001 3.127803e+001 2.684280e+001 2.985721e+001 6.614264e+001 1.569515e+000 9.049894e-001 1.309706e+000 1.512957e+000 1.691313e+000 1.970765e+000 1.562943e+000 1.890999e+000 1.985606e+000 1.586908e+000 1.566861e+000 1.479007e+000 8.279201e-001 1.963375e-001 1.277540e-001 2.002735e-001 2.260876e-001 2.550524e-001 3.244805e-001 2.953674e-001 3.440213e-001 3.473523e-001 2.924106e-001 2.826047e-001 2.740594e-001 1.078357e-001
<GCONST> 1.046267e+002
<STATE> 4
<MEAN> 39
 -2.306750e+000 -1.359087e+000 5.594797e-002 -2.383767e+000 9.662895e-001 -1.162543e+000 3.553474e+000 -1.927379e+000 1.624999e+000 1.644494e+000 -1.289092e+000 -4.832016e-001 5.434941e+001 3.445970e-003 -1.113393e-002 -3.221792e-003 -8.501984e-003 1.314595e-002 -1.353074e-002 -1.215386e-002 1.167415e-003 -1.906035e-003 -3.499880e-003 7.596657e-004 -5.048293e-003 1.909853e-002 4.634060e-004 2.203240e-004 -1.482043e-004 -5.963674e-004 1.950500e-004 7.384183e-004 4.368490e-005 -3.394247e-004 -6.603008e-004 -3.230632e-004 -8.353828e-005 2.676677e-004 5.192117e-004
<VARIANCE> 39
 4.532509e+001 2.313065e+001 2.892325e+001 4.353737e+001 4.054587e+001 5.968998e+001 2.478363e+001 2.910753e+001 3.413161e+001 3.094787e+001 2.611595e+001 2.975385e+001 6.372286e+001 1.480780e+000 8.978386e-001 1.297593e+000 1.499611e+000 1.671336e+000 1.947335e+000 1.594369e+000 1.910425e+000 1.976389e+000 1.616577e+000 1.563486e+000 1.480627e+000 8.808564e-001 1.873057e-001 1.291696e-001 2.036424e-001 2.239954e-001 2.560025e-001 3.259200e-001 3.031369e-001 3.527549e-001 3.466558e-001 2.997535e-001 2.846678e-001 2.723618e-001 1.178411e-001
<GCONST> 1.045463e+002
<TRANSP> 5
 0.000000e+000 1.000000e+000 0.000000e+000 0.000000e+000 0.000000e+000
 0.000000e+000 7.903069e-001 2.096931e-001 0.000000e+000 0.000000e+000
 0.000000e+000 0.000000e+000 7.903063e-001 2.096938e-001 0.000000e+000
 0.000000e+000 0.000000e+000 0.000000e+000 9.249479e-001 7.505205e-002
 0.000000e+000 0.000000e+000 0.000000e+000 0.000000e+000 0.000000e+000
<ENDHMM>
~h "l"
<BEGINHMM>
<NUMSTATES> 5
<STATE> 2
<MEAN> 39
 -7.379832e-003 -2.022883e+000 1.479036e+000 -6.382324e+000 1.618395e+000 -1.291442e+000 1.508894e+000 -2.888858e+000 -9.847087e-001 1.983810e+000 -4.026880e+000 -1.214460e+000 5.718003e+001 4.490079e-002 6.308168e-003 1.298762e-002 -7.990317e-002 -1.192124e-002 -4.090861e-002 -2.665010e-002 -1.812285e-002 -4.111128e-002 -3.800872e-002 -2.614947e-002 -2.467206e-002 9.209699e-002 -8.568225e-004 7.816482e-004 -6.552014e-004 4.790649e-004 6.262543e-004 2.162392e-003 1.623049e-003 3.176016e-004 6.867273e-004 -2.367136e-004 1.299205e-003 5.230617e-004 -1.412183e-003
<VARIANCE> 39
 3.435110e+001 2.601020e+001 5.215608e+001 8.103358e+001 3.442375e+001 6.786726e+001 4.519334e+001 3.907513e+001 5.349746e+001 3.454193e+001 4.691500e+001 3.711992e+001 8.316497e+001 1.226465e+000 9.292938e-001 1.243387e+000 1.982586e+000 1.634864e+000 2.449816e+000 1.934981e+000 2.235708e+000 2.089410e+000 1.884708e+000 2.074163e+000 1.878307e+000 1.274600e+000 1.784476e-001 1.463622e-001 1.777980e-001 2.779180e-001 2.679984e-001 3.884592e-001 3.496163e-001 3.905505e-001 3.540845e-001 3.428616e-001 3.543249e-001 3.209300e-001 1.736315e-001
<GCONST> 1.113781e+002
<STATE> 3
<MEAN> 39
 1.938874e-001 -1.974118e+000 1.535999e+000 -6.768101e+000 1.566321e+000 -1.452938e+000 1.400651e+000 -2.975748e+000 -1.177027e+000 1.787556e+000 -4.127366e+000 -1.321314e+000 5.759557e+001 3.948520e-002 9.883072e-003 1.024459e-002 -7.590995e-002 -9.205535e-003 -2.899482e-002 -1.818600e-002 -1.538890e-002 -3.689935e-002 -3.899692e-002 -1.855254e-002 -2.126922e-002 8.306290e-002 -1.217913e-003 7.133684e-004 -8.481754e-004 1.051820e-003 6.052151e-004 2.653338e-003 1.717836e-003 6.396308e-004 1.125683e-003 -1.784206e-004 1.521223e-003 6.399759e-004 -1.913812e-003
<VARIANCE> 39
 3.423646e+001 2.690534e+001 5.729606e+001 8.368864e+001 3.596942e+001 7.065669e+001 4.621031e+001 3.905537e+001 5.459001e+001 3.581653e+001 4.598496e+001 3.792860e+001 8.258395e+001 1.224709e+000 9.511658e-001 1.270909e+000 2.016550e+000 1.666169e+000 2.487831e+000 1.943306e+000 2.255910e+000 2.113096e+000 1.896717e+000 2.055824e+000 1.897790e+000 1.299521e+000 1.780612e-001 1.480327e-001 1.783975e-001 2.804321e-001 2.703127e-001 3.920242e-001 3.494643e-001 3.936296e-001 3.563496e-001 3.424089e-001 3.523116e-001 3.230957e-001 1.744831e-001
<GCONST> 1.118963e+002
<STATE> 4
<MEAN> 39
 6.566910e-001 -1.544400e+000 1.502446e+000 -7.660840e+000 1.493396e+000 -1.329922e+000 1.328711e+000 -3.184939e+000 -1.464063e+000 1.473339e+000 -4.075720e+000 -1.346515e+000 5.826037e+001 2.232532e-002 1.627926e-002 5.243572e-003 -5.459430e-002 -6.521882e-003 -8.524804e-005 5.625003e-004 -5.622733e-003 -2.042774e-002 -3.921259e-002 5.315179e-004 -1.006673e-002 4.773650e-002 -1.583409e-003 3.397440e-004 -6.525432e-004 2.563412e-003 1.355334e-004 2.492076e-003 1.655206e-003 1.129218e-003 1.657194e-003 2.089174e-004 1.509427e-003 9.294198e-004 -3.010846e-003
<VARIANCE> 39
 3.364508e+001 2.846627e+001 6.758651e+001 9.200887e+001 3.837616e+001 7.316403e+001 4.842614e+001 3.865228e+001 5.634314e+001 3.911310e+001 4.406477e+001 3.751783e+001 7.971368e+001 1.161943e+000 9.641376e-001 1.306593e+000 2.067664e+000 1.679404e+000 2.403645e+000 1.910277e+000 2.230666e+000 2.101374e+000 1.885956e+000 1.973107e+000 1.856246e+000 1.277347e+000 1.662376e-001 1.472703e-001 1.776313e-001 2.776564e-001 2.677353e-001 3.762433e-001 3.384811e-001 3.881667e-001 3.526121e-001 3.334048e-001 3.400655e-001 3.159049e-001 1.673128e-001
<GCONST> 1.119073e+002
<TRANSP> 5
 0.000000e+000 1.000000e+000 0.000000e+000 0.000000e+000 0.000000e+000
 0.000000e+000 7.935703e-001 2.064297e-001 0.000000e+000 0.000000e+000
 0.000000e+000 0.000000e+000 7.935687e-001 2.064313e-001 0.000000e+000
 0.000000e+000 0.000000e+000 0.000000e+000 9.291620e-001 7.083800e-002
 0.000000e+000 0.000000e+000 0.000000e+000 0.000000e+000 0.000000e+000
<ENDHMM>
~h "n"
<BEGINHMM>
<NUMSTATES> 5
<STATE> 2
<MEAN> 39
 5.007172e-001 -1.376225e+000 8.906839e-001 -4.793987e+000 4.484635e-001 -1.237903e+000 2.088675e+000 -3.155456e+000 -8.027148e-001 3.951014e-001 -4.027890e+000 -2.446182e+000 5.659619e+001 4.202568e-003 4.847043e-003 5.108979e-003 -5.729789e-003 -2.832875e-003 -7.084946e-003 -8.675326e-004 -8.558056e-004 -1.401690e-002 3.030820e-003 -1.116381e-002 -7.732431e-003 1.279993e-002 -2.022579e-004 6.446856e-005 -2.735891e-004 -6.406949e-005 -1.183663e-004 5.467237e-004 -2.124764e-005 3.001425e-005 3.301803e-004 2.990824e-004 1.529440e-004 1.455563e-004 -4.465525e-004
<VARIANCE> 39
 4.552139e+001 3.083439e+001 4.108222e+001 7.325983e+001 3.541522e+001 5.902330e+001 3.037746e+001 4.086806e+001 4.028420e+001 3.798443e+001 4.346707e+001 3.643875e+001 6.857459e+001 1.461599e+000 1.158404e+000 1.441146e+000 2.149074e+000 1.636426e+000 2.063639e+000 1.759191e+000 2.457958e+000 1.923439e+000 1.973219e+000 1.957413e+000 1.656802e+000 1.036796e+000 1.942068e-001 1.575833e-001 1.891165e-001 2.968216e-001 2.585721e-001 3.220554e-001 3.207379e-001 4.127354e-001 3.213010e-001 3.367594e-001 3.226704e-001 2.745470e-001 1.224018e-001
<GCONST> 1.098938e+002
<STATE> 3
<MEAN> 39
 5.221174e-001 -1.346601e+000 9.143412e-001 -4.833376e+000 4.285615e-001 -1.269907e+000 2.079152e+000 -3.164636e+000 -8.729120e-001 4.136632e-001 -4.082219e+000 -2.482378e+000 5.666077e+001 3.413402e-003 5.182581e-003 4.105167e-003 -6.305100e-003 -3.735117e-003 -4.863438e-003 -1.004108e-003 -1.013670e-003 -1.221057e-002 4.058745e-003 -1.014725e-002 -6.775646e-003 1.044367e-002 -1.607967e-004 -2.083143e-005 -6.000582e-004 -2.144194e-004 -1.199125e-004 7.745380e-004 -4.441146e-005 -1.917681e-004 7.517957e-004 3.317158e-004 3.491060e-004 1.192971e-004 -4.997663e-004
<VARIANCE> 39
 4.558319e+001 3.096309e+001 4.144693e+001 7.381349e+001 3.556696e+001 5.915155e+001 3.054255e+001 4.108039e+001 4.058303e+001 3.836797e+001 4.417617e+001 3.643578e+001 6.830166e+001 1.461516e+000 1.155838e+000 1.449948e+000 2.152009e+000 1.639365e+000 2.063007e+000 1.758769e+000 2.459253e+000 1.932997e+000 1.979403e+000 1.978290e+000 1.657990e+000 1.036293e+000 1.939469e-001 1.569370e-001 1.895986e-001 2.957681e-001 2.583979e-001 3.211390e-001 3.203040e-001 4.124756e-001 3.225306e-001 3.372650e-001 3.248505e-001 2.743947e-001 1.219382e-001
<GCONST> 1.099839e+002
<STATE> 4
<MEAN> 39
 5.417621e-001 -1.165330e+000 9.375903e-001 -4.953973e+000 3.674234e-001 -1.183511e+000 2.019248e+000 -3.258312e+000 -1.039104e+000 5.020748e-001 -4.181291e+000 -2.454978e+000 5.667731e+001 3.251288e-003 7.102326e-003 3.049807e-003 -1.019242e-002 -6.262085e-003 -2.227208e-003 -1.298328e-003 -3.337011e-003 -9.334139e-003 3.344167e-003 -7.311411e-003 -3.839910e-003 6.821552e-003 -2.318187e-004 -2.091831e-005 -6.375934e-004 -9.183504e-005 2.151106e-005 7.880529e-004 2.069970e-004 -2.478691e-005 8.765658e-004 -3.211404e-005 6.782493e-004 2.517419e-004 -6.875114e-004
<VARIANCE> 39
 4.545736e+001 3.073235e+001 4.243085e+001 7.650156e+001 3.589775e+001 5.854765e+001 3.141050e+001 4.138689e+001 4.143008e+001 3.872578e+001 4.613433e+001 3.538361e+001 6.773933e+001 1.438298e+000 1.112154e+000 1.434287e+000 2.141391e+000 1.627497e+000 2.025763e+000 1.765208e+000 2.419432e+000 1.933932e+000 1.957685e+000 2.027235e+000 1.625315e+000 1.006428e+000 1.907584e-001 1.520257e-001 1.875060e-001 2.913790e-001 2.564302e-001 3.143958e-001 3.210767e-001 4.060672e-001 3.225967e-001 3.341448e-001 3.291988e-001 2.695105e-001 1.177222e-001
<GCONST> 1.097938e+002
<TRANSP> 5
 0.000000e+000 1.000000e+000 0.000000e+000 0.000000e+000 0.000000e+000
 0.000000e+000 7.905273e-001 2.094727e-001 0.000000e+000 0.000000e+000
 0.000000e+000 0.000000e+000 7.905268e-001 2.094731e-001 0.000000e+000
 0.000000e+000 0.000000e+000 0.000000e+000 9.254329e-001 7.456712e-002
 0.000000e+000 0.000000e+000 0.000000e+000 0.000000e+000 0.000000e+000
<ENDHMM>
~h "r"
<BEGINHMM>
<NUMSTATES> 5
<STATE> 2
<MEAN> 39
 -7.019714e-002 -1.282025e+000 1.096638e+000 -4.256691e+000 -6.521655e-001 -2.897663e+000 1.997406e+000 -2.638214e+000 -2.496460e-001 7.793708e-002 -2.378982e+000 -1.693560e+000 5.748098e+001 8.539876e-003 -1.815701e-003 3.736900e-003 -6.790169e-003 -1.092794e-002 1.610855e-003 1.499003e-003 -1.457567e-003 -1.884096e-003 2.331525e-004 -8.216853e-004 8.364433e-004 1.538304e-004 -2.823681e-004 1.927442e-004 1.198982e-004 -1.577956e-004 4.098360e-004 4.508050e-004 2.232086e-004 9.978232e-005 7.351241e-007 -1.520415e-004 -2.154328e-004 6.364520e-007 -4.799236e-004
<VARIANCE> 39
 6.089312e+001 3.345307e+001 5.008977e+001 6.060495e+001 5.374462e+001 7.229752e+001 3.110014e+001 3.999957e+001 3.872191e+001 3.283463e+001 3.313799e+001 3.543541e+001 6.407485e+001 1.895831e+000 1.233560e+000 1.580117e+000 2.107374e+000 1.965819e+000 2.250576e+000 1.773076e+000 2.438983e+000 2.037715e+000 1.873528e+000 1.785581e+000 1.790435e+000 9.171140e-001 2.227263e-001 1.590479e-001 2.028783e-001 2.952895e-001 2.857618e-001 3.409062e-001 3.249013e-001 4.075907e-001 3.303056e-001 3.208153e-001 3.082943e-001 2.949488e-001 1.061100e-001
<GCONST> 1.111100e+002
<STATE> 3
<MEAN> 39
 -3.085119e-002 -1.291087e+000 1.113670e+000 -4.290697e+000 -7.003821e-001 -2.890393e+000 2.005200e+000 -2.647136e+000 -2.603024e-001 7.699782e-002 -2.385305e+000 -1.692955e+000 5.748171e+001 7.173739e-003 -9.044908e-004 3.924292e-003 -7.402322e-003 -8.986767e-003 3.971386e-003 2.582905e-003 -1.069452e-003 -1.826116e-003 -5.753333e-004 -1.704720e-003 7.237260e-004 -2.051424e-003 -3.552915e-004 1.875994e-004 9.211690e-006 -5.577984e-005 5.223334e-004 4.218914e-004 1.940507e-004 1.106375e-004 5.567825e-005 -1.391801e-004 -1.796621e-004 -5.249133e-005 -4.181848e-004
<VARIANCE> 39
 6.062274e+001 3.335104e+001 5.057610e+001 6.076805e+001 5.366134e+001 7.259369e+001 3.095850e+001 3.996798e+001 3.868016e+001 3.285887e+001 3.316178e+001 3.548230e+001 6.385247e+001 1.888188e+000 1.230480e+000 1.573741e+000 2.103189e+000 1.958010e+000 2.235788e+000 1.762451e+000 2.437377e+000 2.033234e+000 1.871135e+000 1.781969e+000 1.784040e+000 9.127383e-001 2.218435e-001 1.585044e-001 2.017891e-001 2.945190e-001 2.846108e-001 3.378643e-001 3.230216e-001 4.070918e-001 3.291062e-001 3.196104e-001 3.070620e-001 2.936148e-001 1.055244e-001
<GCONST> 1.110097e+002
<STATE> 4
<MEAN> 39
 -3.327453e-003 -1.266313e+000 1.067675e+000 -4.369665e+000 -7.432454e-001 -2.800572e+000 2.049164e+000 -2.678006e+000 -2.916225e-001 2.868073e-002 -2.379174e+000 -1.686432e+000 5.739569e+001 5.228706e-003 -5.250610e-004 1.720753e-003 -7.538379e-003 -5.218960e-003 6.791920e-003 3.817932e-003 -1.356678e-003 -1.807141e-003 -2.048085e-003 -2.973113e-003 -1.085135e-003 -3.685977e-003 -3.061707e-004 1.119018e-004 -2.357361e-004 7.340898e-005 5.879462e-004 4.707982e-004 1.604817e-004 1.043297e-004 1.257071e-004 -1.003763e-004 -1.352218e-004 -1.704717e-004 -3.036339e-004
<VARIANCE> 39
 5.996338e+001 3.302478e+001 5.076149e+001 6.221878e+001 5.272408e+001 7.164101e+001 3.032309e+001 3.973565e+001 3.877435e+001 3.273511e+001 3.291888e+001 3.541564e+001 6.229200e+001 1.858736e+000 1.216730e+000 1.554220e+000 2.098722e+000 1.934436e+000 2.193964e+000 1.734451e+000 2.423316e+000 2.030363e+000 1.860793e+000 1.768929e+000 1.771000e+000 9.060625e-001 2.187645e-001 1.572020e-001 2.000138e-001 2.922100e-001 2.815697e-001 3.313179e-001 3.179904e-001 4.047179e-001 3.277546e-001 3.177880e-001 3.055839e-001 2.912233e-001 1.045770e-001
<GCONST> 1.106775e+002
<TRANSP> 5
 0.000000e+000 1.000000e+000 0.000000e+000 0.000000e+000 0.000000e+000
 0.000000e+000 7.870985e-001 2.129015e-001 0.000000e+000 0.000000e+000
 0.000000e+000 0.000000e+000 7.870988e-001 2.129012e-001 0.000000e+000
 0.000000e+000 0.000000e+000 0.000000e+000 9.199616e-001 8.003834e-002
 0.000000e+000 0.000000e+000 0.000000e+000 0.000000e+000 0.000000e+000
<ENDHMM>
~h "s"
<BEGINHMM>
<NUMSTATES> 5
<STATE> 2
<MEAN> 39
 -1.364834e+000 -1.102486e+000 1.294956e-001 -3.857314e+000 8.724394e-001 -2.522663e+000 2.376965e+000 -1.891926e+000 3.270627e-001 7.520295e-001 -2.647199e+000 -1.847298e+000 5.726056e+001 -6.147477e-005 5.778867e-003 -1.428900e-003 -1.359411e-002 2.302564e-003 -1.226829e-002 -8.425079e-003 2.532891e-003 -8.012832e-003 1.129098e-003 -9.717045e-004 -6.219909e-003 2.285129e-002 -3.662239e-005 7.800959e-005 3.993728e-005 -7.981808e-005 -9.280635e-005 4.138005e-004 -9.714410e-005 -1.899618e-004 -7.756324e-005 -4.544125e-004 1.217130e-004 1.890534e-004 -4.009798e-004
<VARIANCE> 39
 6.125602e+001 2.988762e+001 3.602422e+001 6.248069e+001 4.547110e+001 6.449812e+001 2.840295e+001 3.800760e+001 4.102681e+001 3.259797e+001 3.691891e+001 3.462294e+001 6.423773e+001 2.096500e+000 1.127405e+000 1.447395e+000 2.029266e+000 1.925340e+000 2.260374e+000 1.806236e+000 2.319975e+000 2.260155e+000 1.799761e+000 1.987192e+000 1.692891e+000 1.127294e+000 2.617197e-001 1.550135e-001 2.118239e-001 2.876187e-001 2.894226e-001 3.604174e-001 3.367058e-001 4.012693e-001 3.774915e-001 3.212744e-001 3.376945e-001 2.974150e-001 1.425476e-001
<GCONST> 1.113473e+002
<STATE> 3
<MEAN> 39
 -1.360156e+000 -1.073858e+000 1.293434e-001 -3.920622e+000 8.781840e-001 -2.576132e+000 2.334872e+000 -1.884791e+000 2.846369e-001 7.542028e-001 -2.652069e+000 -1.874061e+000 5.736203e+001 3.731462e-005 6.053646e-003 -9.554622e-004 -1.366313e-002 1.690797e-003 -1.050615e-002 -8.819768e-003 1.483689e-003 -8.303196e-003 -8.179927e-004 -7.316406e-004 -5.319220e-003 2.052047e-002 1.760583e-004 2.466215e-005 1.450598e-004 1.304610e-005 -1.554224e-004 3.374375e-004 -1.654143e-004 -3.095952e-004 -6.885283e-005 -4.198104e-004 2.618594e-006 1.835688e-004 -6.040158e-004
<VARIANCE> 39
 6.193815e+001 2.987663e+001 3.651736e+001 6.318978e+001 4.585800e+001 6.458391e+001 2.853006e+001 3.815508e+001 4.134024e+001 3.259576e+001 3.725548e+001 3.472932e+001 6.385889e+001 2.121462e+000 1.129594e+000 1.462193e+000 2.049842e+000 1.927276e+000 2.268577e+000 1.805621e+000 2.326373e+000 2.274263e+000 1.804333e+000 1.999106e+000 1.698614e+000 1.128822e+000 2.645732e-001 1.555122e-001 2.139781e-001 2.902989e-001 2.894576e-001 3.621532e-001 3.363596e-001 4.012949e-001 3.794630e-001 3.220708e-001 3.387193e-001 2.981797e-001 1.426481e-001
<GCONST> 1.115268e+002
<STATE> 4
<MEAN> 39
 -1.327286e+000 -9.963688e-001 1.319236e-001 -4.022599e+000 8.845927e-001 -2.536820e+000 2.251135e+000 -1.930323e+000 1.620147e-001 7.159863e-001 -2.671154e+000 -1.864552e+000 5.742407e+001 2.640336e-003 5.363202e-003 2.294825e-003 -1.219460e-002 -1.065401e-003 -8.175405e-003 -9.730984e-003 -1.306662e-003 -8.366729e-003 -2.514117e-003 -1.424082e-003 -3.155764e-003 1.436995e-002 3.283858e-004 -1.290694e-004 2.209712e-004 1.231284e-004 -2.103444e-004 2.038591e-004 -1.712415e-004 -3.853503e-004 2.956465e-005 -2.505490e-004 -8.333750e-005 1.374576e-004 -6.756526e-004
<VARIANCE> 39
 6.244919e+001 2.970950e+001 3.703716e+001 6.442111e+001 4.638152e+001 6.351408e+001 2.889164e+001 3.852366e+001 4.183926e+001 3.264761e+001 3.807766e+001 3.446792e+001 6.273303e+001 2.103056e+000 1.111267e+000 1.455883e+000 2.068695e+000 1.915841e+000 2.232804e+000 1.790558e+000 2.323626e+000 2.258746e+000 1.802871e+000 2.012536e+000 1.684246e+000 1.112707e+000 2.622049e-001 1.541035e-001 2.130534e-001 2.939860e-001 2.883355e-001 3.584500e-001 3.325128e-001 3.982503e-001 3.766539e-001 3.214553e-001 3.385630e-001 2.961921e-001 1.409762e-001
<GCONST> 1.114429e+002
<TRANSP> 5
 0.000000e+000 1.000000e+000 0.000000e+000 0.000000e+000 0.000000e+000
 0.000000e+000 7.873927e-001 2.126073e-001 0.000000e+000 0.000000e+000
 0.000000e+000 0.000000e+000 7.873915e-001 2.126084e-001 0.000000e+000
 0.000000e+000 0.000000e+000 0.000000e+000 9.212438e-001 7.875613e-002
 0.000000e+000 0.000000e+000 0.000000e+000 0.000000e+000 0.000000e+000
<ENDHMM>
~h "t"
<BEGINHMM>
<NUMSTATES> 5
<STATE> 2
<MEAN> 39
 -4.880016e-001 -1.766457e+000 5.504481e-001 -5.289421e+000 9.061325e-001 -1.108600e+000 2.183722e+000 -2.230649e+000 -4.437089e-001 -1.910729e-001 -3.149570e+000 -1.649641e+000 5.728634e+001 5.793893e-003 1.012740e-002 3.457888e-004 -1.503459e-002 4.288601e-003 1.043876e-003 -8.395338e-003 -1.875936e-003 -7.156996e-003 -7.250630e-004 -4.537336e-003 -3.104578e-003 1.753896e-002 -8.924823e-005 -1.134995e-004 5.649113e-004 9.841423e-004 -2.344595e-004 -4.337696e-004 8.469140e-005 -5.204612e-004 -5.897073e-005 -5.796612e-005 1.356100e-006 -7.667002e-006 -7.422933e-004
<VARIANCE> 39
 5.058487e+001 3.439548e+001 4.193985e+001 7.701759e+001 3.737826e+001 5.846053e+001 3.168415e+001 3.797817e+001 4.380974e+001 3.522484e+001 3.887542e+001 3.488717e+001 7.006992e+001 1.794267e+000 1.234016e+000 1.455936e+000 2.485925e+000 1.734438e+000 2.213982e+000 1.844659e+000 2.356749e+000 2.181146e+000 1.910975e+000 2.039184e+000 1.741186e+000 1.691696e+000 2.432026e-001 1.853824e-001 2.162708e-001 3.583054e-001 2.824451e-001 3.563946e-001 3.382955e-001 4.039485e-001 3.583424e-001 3.353956e-001 3.418825e-001 3.017193e-001 2.259113e-001
<GCONST> 1.131005e+002
<STATE> 3
<MEAN> 39
 -4.625305e-001 -1.719416e+000 5.641641e-001 -5.347283e+000 9.210650e-001 -1.111096e+000 2.140367e+000 -2.246021e+000 -4.812296e-001 -1.949994e-001 -3.169096e+000 -1.662098e+000 5.736032e+001 5.606264e-003 9.206006e-003 3.014112e-003 -1.061589e-002 3.088309e-003 -1.529497e-003 -8.071539e-003 -4.028317e-003 -7.381782e-003 -9.877413e-004 -4.449564e-003 -3.000591e-003 1.405310e-002 -5.575400e-005 -1.594421e-004 6.553067e-004 1.000245e-003 -3.717548e-004 -5.511686e-004 -9.643058e-006 -5.678362e-004 -5.357734e-005 -2.569768e-005 1.387898e-004 7.249306e-005 -8.555599e-004
<VARIANCE> 39
 5.115334e+001 3.465591e+001 4.186764e+001 7.726406e+001 3.761679e+001 5.817037e+001 3.197798e+001 3.834276e+001 4.424900e+001 3.525383e+001 3.930784e+001 3.493996e+001 6.953806e+001 1.807074e+000 1.237151e+000 1.463354e+000 2.498988e+000 1.740294e+000 2.209352e+000 1.846025e+000 2.356568e+000 2.186992e+000 1.922255e+000 2.050035e+000 1.744577e+000 1.699091e+000 2.438532e-001 1.863373e-001 2.177386e-001 3.602426e-001 2.831695e-001 3.554350e-001 3.375842e-001 4.022913e-001 3.582761e-001 3.371310e-001 3.420321e-001 3.024294e-001 2.283240e-001
<GCONST> 1.132307e+002
<STATE> 4
<MEAN> 39
 -4.168765e-001 -1.608907e+000 5.443951e-001 -5.331637e+000 9.880930e-001 -1.052507e+000 2.101866e+000 -2.384974e+000 -5.515837e-001 -2.082260e-001 -3.169377e+000 -1.667151e+000 5.737704e+001 5.364074e-003 6.758853e-003 6.972561e-003 -3.110846e-003 2.352838e-004 -5.851937e-003 -7.854841e-003 -7.340021e-003 -7.701315e-003 -7.715033e-004 -3.125266e-003 -2.010484e-003 6.797034e-003 2.698280e-005 -1.435112e-004 3.384323e-004 7.709324e-004 -3.771652e-004 -3.259859e-004 3.531963e-005 -5.152723e-004 1.095684e-004 7.431208e-005 2.018502e-004 7.106645e-005 -8.614069e-004
<VARIANCE> 39
 5.167931e+001 3.496515e+001 4.146505e+001 7.689079e+001 3.770906e+001 5.676379e+001 3.244745e+001 3.870399e+001 4.471872e+001 3.537119e+001 3.961909e+001 3.476456e+001 6.866908e+001 1.780974e+000 1.224638e+000 1.452370e+000 2.458557e+000 1.731647e+000 2.161602e+000 1.844643e+000 2.344229e+000 2.169674e+000 1.925384e+000 2.024630e+000 1.726473e+000 1.652002e+000 2.384709e-001 1.840482e-001 2.157784e-001 3.540381e-001 2.811702e-001 3.471600e-001 3.363552e-001 3.985838e-001 3.539311e-001 3.365324e-001 3.370869e-001 2.989323e-001 2.222994e-001
<GCONST> 1.129311e+002
<TRANSP> 5
 0.000000e+000 1.000000e+000 0.000000e+000 0.000000e+000 0.000000e+000
 0.000000e+000 7.909017e-001 2.090983e-001 0.000000e+000 0.000000e+000
 0.000000e+000 0.000000e+000 7.909020e-001 2.090980e-001 0.000000e+000
 0.000000e+000 0.000000e+000 0.000000e+000 9.247447e-001 7.525529e-002
 0.000000e+000 0.000000e+000 0.000000e+000 0.000000e+000 0.000000e+000
<ENDHMM>
~h "v"
<BEGINHMM>
<NUMSTATES> 5
<STATE> 2
<MEAN> 39
 2.042664e-002 -1.684300e+000 2.395664e-001 -4.977551e+000 7.108231e-001 -1.638589e+000 1.699157e+000 -2.529854e+000 -4.193674e-001 3.911327e-001 -3.836159e+000 -2.403522e+000 5.769496e+001 1.236452e-002 3.365462e-003 1.025939e-002 7.544407e-003 -1.111235e-002 -1.090308e-002 -3.579567e-003 -1.109592e-002 -3.973867e-003 -5.951806e-003 -6.049078e-003 8.047046e-004 -1.156061e-002 1.389168e-004 5.462155e-004 -1.508238e-004 2.657832e-004 9.788707e-005 5.323283e-004 4.220521e-004 -1.285298e-004 1.136946e-004 2.477212e-006 2.158046e-005 -2.126819e-004 -8.364521e-004
<VARIANCE> 39
 4.985422e+001 3.144544e+001 4.664739e+001 7.067162e+001 3.326723e+001 6.321796e+001 3.056502e+001 3.915812e+001 3.934212e+001 3.325687e+001 3.753532e+001 3.959835e+001 6.634930e+001 1.810044e+000 1.119213e+000 1.429153e+000 2.205877e+000 1.579233e+000 2.132274e+000 1.690825e+000 2.272899e+000 1.869042e+000 1.802971e+000 1.915725e+000 1.688954e+000 1.162750e+000 2.475836e-001 1.578281e-001 1.953751e-001 3.014807e-001 2.536848e-001 3.334285e-001 3.036200e-001 3.749160e-001 3.105133e-001 3.186337e-001 3.116306e-001 2.859136e-001 1.452782e-001
<GCONST> 1.101263e+002
<STATE> 3
<MEAN> 39
 7.712937e-002 -1.663723e+000 2.852048e-001 -4.934920e+000 6.604751e-001 -1.679205e+000 1.686283e+000 -2.582747e+000 -4.355367e-001 3.628002e-001 -3.861214e+000 -2.400999e+000 5.762943e+001 1.247016e-002 6.145693e-003 8.892303e-003 8.752296e-003 -1.032375e-002 -7.388062e-003 -1.340789e-003 -1.186751e-002 -3.489983e-003 -5.843692e-003 -5.524095e-003 -2.202941e-004 -1.569872e-002 -4.353620e-005 6.559833e-004 -1.522526e-004 4.140846e-004 1.850016e-004 6.633718e-004 5.099566e-004 -9.675663e-005 1.709119e-004 9.193682e-005 7.618457e-005 -9.366422e-005 -9.779419e-004
<VARIANCE> 39
 4.903879e+001 3.142671e+001 4.688742e+001 6.967816e+001 3.301032e+001 6.351592e+001 3.086817e+001 3.897078e+001 3.940117e+001 3.332500e+001 3.712201e+001 3.946264e+001 6.630695e+001 1.766828e+000 1.119445e+000 1.424981e+000 2.164923e+000 1.567764e+000 2.120224e+000 1.686060e+000 2.260260e+000 1.861038e+000 1.801058e+000 1.896939e+000 1.674507e+000 1.146956e+000 2.421313e-001 1.574664e-001 1.934720e-001 2.958497e-001 2.518525e-001 3.320985e-001 3.030499e-001 3.730858e-001 3.094060e-001 3.176906e-001 3.091779e-001 2.831907e-001 1.430259e-001
<GCONST> 1.098753e+002
<STATE> 4
<MEAN> 39
 1.540334e-001 -1.545901e+000 3.749836e-001 -4.753616e+000 5.374860e-001 -1.643973e+000 1.712510e+000 -2.737484e+000 -4.882437e-001 2.971254e-001 -3.901885e+000 -2.297328e+000 5.729773e+001 8.667634e-003 1.072002e-002 4.549077e-003 1.125650e-002 -7.112833e-003 4.001904e-003 3.708826e-003 -1.186291e-002 -1.932980e-003 -4.906490e-003 -1.242909e-003 -7.160527e-005 -2.442138e-002 -3.071183e-004 4.847668e-004 -3.351796e-004 1.808028e-004 3.522710e-004 9.195522e-004 5.773135e-004 -1.158398e-004 1.341445e-004 2.203086e-004 2.265960e-004 1.350442e-004 -8.390521e-004
<VARIANCE> 39
 4.716704e+001 3.147133e+001 4.532180e+001 6.776819e+001 3.284221e+001 6.298142e+001 3.142212e+001 3.867966e+001 3.952231e+001 3.327059e+001 3.688651e+001 3.784872e+001 6.628748e+001 1.629948e+000 1.102772e+000 1.375863e+000 2.047143e+000 1.541132e+000 2.075936e+000 1.689523e+000 2.230416e+000 1.846984e+000 1.804355e+000 1.862983e+000 1.636544e+000 1.100738e+000 2.227882e-001 1.539062e-001 1.860164e-001 2.811745e-001 2.476735e-001 3.253748e-001 3.040537e-001 3.687882e-001 3.076071e-001 3.192019e-001 3.046539e-001 2.776766e-001 1.359999e-001
<GCONST> 1.090742e+002
<TRANSP> 5
 0.000000e+000 1.000000e+000 0.000000e+000 0.000000e+000 0.000000e+000
 0.000000e+000 7.918266e-001 2.081734e-001 0.000000e+000 0.000000e+000
 0.000000e+000 0.000000e+000 7.918255e-001 2.081745e-001 0.000000e+000
 0.000000e+000 0.000000e+000 0.000000e+000 9.266469e-001 7.335309e-002
 0.000000e+000 0.000000e+000 0.000000e+000 0.000000e+000 0.000000e+000
<ENDHMM>
~h "w"
<BEGINHMM>
<NUMSTATES> 5
<STATE> 2
<MEAN> 39
 1.685857e+000 -9.812721e-001 3.748744e-001 -6.359372e+000 -7.309029e-001 -1.797150e+000 1.443859e+000 -3.363859e+000 -1.560558e+000 -4.469196e-001 -3.694636e+000 -2.509451e+000 5.766151e+001 2.115629e-002 2.105496e-002 1.880274e-003 -2.819567e-002 -2.312787e-002 -3.103748e-003 -1.648756e-002 -1.161274e-002 -2.506314e-002 -1.223287e-002 -7.325551e-003 -1.268330e-002 2.500391e-003 -1.089968e-003 1.542936e-004 3.703895e-004 1.915715e-003 5.048049e-004 1.929163e-004 8.850341e-004 -1.244538e-004 6.601530e-004 1.233438e-005 5.547245e-004 6.060982e-004 -1.824240e-003
<VARIANCE> 39
 4.841296e+001 3.589626e+001 3.845235e+001 8.496489e+001 4.241517e+001 6.259364e+001 3.298130e+001 3.724588e+001 4.280375e+001 3.673560e+001 4.201780e+001 3.499718e+001 6.495538e+001 1.447026e+000 1.226893e+000 1.451988e+000 2.314953e+000 1.700282e+000 2.333872e+000 1.914989e+000 2.308258e+000 2.054816e+000 2.162712e+000 2.148758e+000 1.769328e+000 1.283840e+000 1.969321e-001 1.587535e-001 1.985320e-001 3.144420e-001 2.653502e-001 3.600555e-001 3.418083e-001 3.839798e-001 3.343414e-001 3.786216e-001 3.534200e-001 2.922623e-001 1.488412e-001
<GCONST> 1.119223e+002
<STATE> 3
<MEAN> 39
 1.768297e+000 -8.717995e-001 3.857583e-001 -6.467516e+000 -8.362363e-001 -1.798473e+000 1.375046e+000 -3.418100e+000 -1.670317e+000 -5.064822e-001 -3.714782e+000 -2.559582e+000 5.763622e+001 1.533726e-002 2.090627e-002 3.187330e-003 -1.875018e-002 -1.976008e-002 -1.745229e-003 -1.193007e-002 -1.124578e-002 -2.099548e-002 -1.192182e-002 -3.889609e-003 -9.435306e-003 -5.627867e-003 -1.426415e-003 -2.537053e-004 3.764365e-004 2.302299e-003 8.305000e-004 2.210466e-004 1.043348e-003 2.225369e-004 1.021391e-003 1.732733e-004 9.480251e-004 8.148822e-004 -1.754870e-003
<VARIANCE> 39
 4.858004e+001 3.624554e+001 3.824185e+001 8.525575e+001 4.254237e+001 6.157595e+001 3.344836e+001 3.696650e+001 4.370137e+001 3.675780e+001 4.189093e+001 3.486020e+001 6.399020e+001 1.433850e+000 1.226532e+000 1.447182e+000 2.311138e+000 1.707558e+000 2.305903e+000 1.927121e+000 2.296273e+000 2.067673e+000 2.173861e+000 2.151505e+000 1.765952e+000 1.272609e+000 1.933262e-001 1.581434e-001 1.973656e-001 3.145482e-001 2.655288e-001 3.553953e-001 3.436370e-001 3.815764e-001 3.346932e-001 3.799353e-001 3.549550e-001 2.916037e-001 1.486370e-001
<GCONST> 1.118708e+002
<STATE> 4
<MEAN> 39
 1.683736e+000 -5.931140e-001 4.413364e-001 -6.320593e+000 -8.828132e-001 -1.651986e+000 1.308165e+000 -3.490384e+000 -1.763960e+000 -5.937365e-001 -3.617349e+000 -2.455104e+000 5.717458e+001 1.609943e-003 1.696169e-002 2.129048e-003 -1.555916e-003 -8.862700e-003 6.179704e-003 -2.402273e-003 -5.498575e-003 -8.607340e-003 -1.022302e-002 6.565829e-003 -2.302988e-003 -1.941361e-002 -1.558559e-003 -9.523788e-004 1.896279e-004 2.198757e-003 1.331043e-003 3.719217e-004 1.085176e-003 6.076308e-004 1.438356e-003 4.798106e-004 9.792767e-004 8.010051e-004 -1.116227e-003
<VARIANCE> 39
 4.816444e+001 3.621291e+001 3.654466e+001 8.498045e+001 4.183206e+001 5.867226e+001 3.415598e+001 3.628429e+001 4.462070e+001 3.630487e+001 4.031554e+001 3.360144e+001 6.251536e+001 1.380536e+000 1.188919e+000 1.391598e+000 2.266429e+000 1.685728e+000 2.202577e+000 1.936880e+000 2.250260e+000 2.056753e+000 2.169718e+000 2.097512e+000 1.719247e+000 1.247313e+000 1.838319e-001 1.546429e-001 1.910043e-001 3.110292e-001 2.628157e-001 3.425856e-001 3.468075e-001 3.755618e-001 3.318476e-001 3.807900e-001 3.479623e-001 2.864871e-001 1.502432e-001
<GCONST> 1.111751e+002
<TRANSP> 5
 0.000000e+000 1.000000e+000 0.000000e+000 0.000000e+000 0.000000e+000
 0.000000e+000 7.945916e-001 2.054084e-001 0.000000e+000 0.000000e+000
 0.000000e+000 0.000000e+000 7.945895e-001 2.054104e-001 0.000000e+000
 0.000000e+000 0.000000e+000 0.000000e+000 9.288720e-001 7.112791e-002
 0.000000e+000 0.000000e+000 0.000000e+000 0.000000e+000 0.000000e+000
<ENDHMM>
~h "y"
<BEGINHMM>
<NUMSTATES> 5
<STATE> 2
<MEAN> 39
 6.805763e-001 -1.043821e+000 5.246382e+000 -7.932082e+000 1.321677e+000 -5.440736e+000 -9.939560e-001 -3.309953e+000 -4.019853e+000 1.563106e-001 -5.445028e+000 -4.488086e-001 6.142635e+001 7.251062e-002 -2.023229e-002 -5.493546e-002 -4.211654e-002 7.277336e-003 2.777875e-002 2.057055e-002 -6.710527e-002 -1.670430e-002 -2.994424e-002 -5.948357e-002 -3.148253e-002 1.188690e-002 -2.273732e-003 2.379671e-004 -5.274190e-003 1.309349e-003 3.470915e-003 6.897727e-003 3.855354e-003 -1.554301e-004 8.893310e-004 9.131250e-004 -7.426908e-005 -1.750051e-003 -3.854349e-003
<VARIANCE> 39
 3.176674e+001 2.589749e+001 1.229181e+002 6.312628e+001 4.492538e+001 7.663998e+001 4.586855e+001 4.492936e+001 4.909054e+001 2.894780e+001 4.132223e+001 3.579021e+001 5.578992e+001 1.130301e+000 1.275060e+000 3.368406e+000 1.893020e+000 1.891233e+000 2.308560e+000 1.934228e+000 2.527361e+000 2.352405e+000 1.789793e+000 2.398886e+000 2.135826e+000 1.324140e+000 1.679872e-001 1.868483e-001 3.281515e-001 2.564886e-001 2.898508e-001 3.471856e-001 3.348231e-001 4.179348e-001 3.728392e-001 3.135779e-001 3.768052e-001 3.375313e-001 1.747019e-001
<GCONST> 1.141800e+002
<STATE> 3
<MEAN> 39
 9.954334e-001 -1.133522e+000 4.938897e+000 -8.112275e+000 1.390252e+000 -5.251362e+000 -8.477260e-001 -3.639511e+000 -4.089356e+000 2.563553e-002 -5.721920e+000 -6.059378e-001 6.143983e+001 6.127126e-002 -1.949858e-002 -7.680377e-002 -3.310720e-002 2.177121e-002 5.859824e-002 3.872125e-002 -6.693836e-002 -1.145009e-002 -2.446362e-002 -5.725135e-002 -3.818321e-002 -8.717038e-003 -2.440322e-003 -9.535857e-005 -4.633582e-003 2.280097e-003 2.700477e-003 6.582788e-003 3.822742e-003 5.179991e-004 1.346425e-003 1.587543e-003 5.620029e-004 -1.353990e-003 -4.569146e-003
<VARIANCE> 39
 2.834742e+001 2.640742e+001 1.242878e+002 6.378093e+001 4.336212e+001 7.716808e+001 4.702045e+001 4.487643e+001 4.845972e+001 2.886716e+001 4.129221e+001 3.741135e+001 5.708207e+001 9.904395e-001 1.254566e+000 3.312438e+000 1.801941e+000 1.884264e+000 2.218004e+000 1.901375e+000 2.550638e+000 2.342168e+000 1.766562e+000 2.403112e+000 2.176045e+000 1.181604e+000 1.459365e-001 1.783651e-001 3.092819e-001 2.388915e-001 2.867461e-001 3.316868e-001 3.274422e-001 4.209844e-001 3.691997e-001 3.063373e-001 3.739784e-001 3.392841e-001 1.524974e-001
<GCONST> 1.132155e+002
<STATE> 4
<MEAN> 39
 1.168119e+000 -1.042338e+000 3.805186e+000 -7.703046e+000 1.809683e+000 -3.664021e+000 1.099656e-001 -4.504328e+000 -3.996959e+000 1.008271e-001 -6.199783e+000 -8.362263e-001 6.037246e+001 2.816070e-002 -1.325201e-002 -8.383642e-002 9.684564e-003 3.375354e-002 8.800999e-002 6.833643e-002 -5.486394e-002 1.067621e-002 -9.466150e-003 -2.842975e-002 -2.939627e-002 -5.951731e-002 -1.926672e-003 6.561264e-005 -2.300118e-003 3.491840e-003 9.994456e-004 4.694166e-003 2.752296e-003 1.062512e-003 2.043511e-003 2.055149e-003 1.577657e-003 -4.466023e-004 -4.857616e-003
<VARIANCE> 39
 2.548822e+001 2.506047e+001 1.145608e+002 7.167823e+001 3.937661e+001 7.486502e+001 4.895492e+001 4.277914e+001 4.834492e+001 2.811021e+001 4.536017e+001 3.636084e+001 6.754149e+001 7.506323e-001 1.086027e+000 2.861916e+000 1.598205e+000 1.810276e+000 1.937633e+000 1.815836e+000 2.457807e+000 2.218395e+000 1.694318e+000 2.402839e+000 2.052206e+000 8.493412e-001 1.055105e-001 1.452806e-001 2.503106e-001 2.084354e-001 2.734854e-001 2.861095e-001 3.139415e-001 4.093623e-001 3.436251e-001 2.942721e-001 3.580386e-001 3.231767e-001 1.022569e-001
<GCONST> 1.099851e+002
<TRANSP> 5
 0.000000e+000 1.000000e+000 0.000000e+000 0.000000e+000 0.000000e+000
 0.000000e+000 7.955563e-001 2.044437e-001 0.000000e+000 0.000000e+000
 0.000000e+000 0.000000e+000 7.955565e-001 2.044434e-001 0.000000e+000
 0.000000e+000 0.000000e+000 0.000000e+000 9.349307e-001 6.506930e-002
 0.000000e+000 0.000000e+000 0.000000e+000 0.000000e+000 0.000000e+000
<ENDHMM>
~h "z"
<BEGINHMM>
<NUMSTATES> 5
<STATE> 2
<MEAN> 39
 6.407009e-001 -1.068831e+000 4.395201e-001 -4.445615e+000 -1.076764e+000 -2.309518e+000 2.094482e+000 -3.104568e+000 -2.404079e-001 2.614271e-002 -2.395072e+000 -2.168498e+000 5.754200e+001 -1.642762e-003 -3.666216e-004 -6.978893e-005 1.008360e-002 -5.215676e-004 4.995076e-004 4.724934e-003 9.590979e-004 5.658590e-003 7.613977e-003 7.326877e-003 3.401180e-003 -7.728023e-003 1.624425e-004 -5.210461e-004 -6.292556e-004 -3.264813e-004 -1.024995e-004 3.938365e-005 6.799686e-005 1.240105e-004 2.074622e-004 1.161113e-004 1.967228e-005 -3.706618e-004 6.390215e-004
<VARIANCE> 39
 5.324127e+001 3.449294e+001 4.552889e+001 6.229175e+001 5.463728e+001 7.225763e+001 3.024335e+001 3.823192e+001 3.965997e+001 3.317115e+001 3.445151e+001 3.675047e+001 6.765115e+001 1.537103e+000 1.247690e+000 1.559928e+000 2.035236e+000 1.904189e+000 2.340351e+000 1.707199e+000 2.233248e+000 2.045772e+000 1.805620e+000 1.791128e+000 1.808865e+000 8.895531e-001 1.878482e-001 1.538557e-001 1.943308e-001 2.669544e-001 2.682911e-001 3.474873e-001 3.126658e-001 3.710308e-001 3.267041e-001 3.044879e-001 3.095521e-001 2.940880e-001 9.990248e-002
<GCONST> 1.099838e+002
<STATE> 3
<MEAN> 39
 6.341854e-001 -1.074548e+000 4.370971e-001 -4.406181e+000 -1.072398e+000 -2.309879e+000 2.118419e+000 -3.097653e+000 -2.134772e-001 6.317411e-002 -2.364985e+000 -2.156888e+000 5.751328e+001 -7.312961e-004 -2.496632e-003 -2.735396e-003 8.317497e-003 -1.073540e-003 4.018563e-004 4.963780e-003 1.506750e-003 6.423493e-003 7.976667e-003 7.290310e-003 1.758831e-003 -4.603252e-003 2.546287e-004 -4.446009e-004 -6.831865e-004 -5.234029e-004 -1.765565e-004 1.789574e-004 8.172257e-005 9.882356e-005 1.251738e-004 2.342600e-005 -2.239035e-005 -3.823169e-004 6.498675e-004
<VARIANCE> 39
 5.329988e+001 3.451751e+001 4.559550e+001 6.165005e+001 5.503590e+001 7.248344e+001 3.017004e+001 3.845088e+001 3.932159e+001 3.322510e+001 3.446145e+001 3.669458e+001 6.798543e+001 1.531517e+000 1.249915e+000 1.566859e+000 2.032035e+000 1.909454e+000 2.338844e+000 1.706436e+000 2.241124e+000 2.043004e+000 1.800735e+000 1.788510e+000 1.808620e+000 8.896436e-001 1.864327e-001 1.540131e-001 1.952437e-001 2.668097e-001 2.685102e-001 3.473122e-001 3.124319e-001 3.722864e-001 3.268038e-001 3.035973e-001 3.084957e-001 2.938393e-001 9.980932e-002
<GCONST> 1.099806e+002
<STATE> 4
<MEAN> 39
 5.313351e-001 -1.083886e+000 3.124978e-001 -4.341608e+000 -1.016267e+000 -2.231188e+000 2.196063e+000 -3.029338e+000 -1.455449e-001 8.925699e-002 -2.267575e+000 -2.115948e+000 5.741694e+001 6.852599e-004 -3.999394e-003 -4.589475e-003 3.392305e-003 -3.938318e-004 -3.294284e-004 4.929827e-003 2.406609e-003 6.126905e-003 7.846118e-003 5.875879e-003 -3.264371e-004 -1.360115e-004 2.317370e-004 -2.090164e-004 -5.126402e-004 -5.400727e-004 -2.531469e-004 2.187014e-004 4.928233e-005 9.910158e-005 3.560399e-005 -1.242812e-004 -3.769098e-005 -2.593717e-004 4.787027e-004
<VARIANCE> 39
 5.405304e+001 3.439240e+001 4.488742e+001 6.143490e+001 5.608473e+001 7.123296e+001 2.936524e+001 3.880825e+001 3.899489e+001 3.304157e+001 3.382177e+001 3.645364e+001 6.671371e+001 1.538802e+000 1.237308e+000 1.540243e+000 2.037485e+000 1.922000e+000 2.288764e+000 1.698907e+000 2.262116e+000 2.041435e+000 1.779115e+000 1.776728e+000 1.797176e+000 8.801791e-001 1.851604e-001 1.535065e-001 1.936467e-001 2.665058e-001 2.681381e-001 3.403697e-001 3.103007e-001 3.759389e-001 3.260450e-001 3.012044e-001 3.067372e-001 2.914656e-001 9.859518e-002
<GCONST> 1.097564e+002
<TRANSP> 5
 0.000000e+000 1.000000e+000 0.000000e+000 0.000000e+000 0.000000e+000
 0.000000e+000 7.866596e-001 2.133404e-001 0.000000e+000 0.000000e+000
 0.000000e+000 0.000000e+000 7.866589e-001 2.133410e-001 0.000000e+000
 0.000000e+000 0.000000e+000 0.000000e+000 9.194624e-001 8.053764e-002
 0.000000e+000 0.000000e+000 0.000000e+000 0.000000e+000 0.000000e+000
<ENDHMM>
~h "ah"
<BEGINHMM>
<NUMSTATES> 5
<STATE> 2
<MEAN> 39
 1.463589e+000 -1.444002e+000 9.306671e-001 -6.305932e+000 4.833982e-002 -2.109615e+000 1.732963e+000 -3.689998e+000 -1.654191e+000 -8.536403e-001 -4.112175e+000 -2.512427e+000 5.833067e+001 1.180460e-003 -3.975637e-003 -2.133263e-002 1.795683e-002 7.611569e-003 2.737117e-002 2.129427e-002 -9.612007e-003 4.144481e-003 2.761073e-003 -7.291209e-003 -1.344004e-002 -2.679407e-002 -9.582157e-004 9.817843e-005 -3.522967e-005 2.357794e-003 1.975161e-004 1.070195e-003 7.269288e-004 4.649417e-004 1.094731e-003 1.083053e-003 6.619276e-004 4.607256e-004 -2.326074e-003
<VARIANCE> 39
 4.446822e+001 3.260332e+001 6.013797e+001 7.905997e+001 4.218781e+001 6.523457e+001 3.325694e+001 3.768325e+001 4.076812e+001 3.465692e+001 4.078265e+001 3.875987e+001 6.567588e+001 1.298238e+000 1.260898e+000 1.878631e+000 2.037138e+000 1.785161e+000 2.172890e+000 1.733714e+000 2.351908e+000 2.082236e+000 2.038350e+000 2.165882e+000 1.920223e+000 1.068559e+000 1.707903e-001 1.565194e-001 2.163274e-001 2.827618e-001 2.723882e-001 3.251825e-001 3.104496e-001 3.920024e-001 3.397888e-001 3.495301e-001 3.530619e-001 3.072570e-001 1.222892e-001
<GCONST> 1.114145e+002
<STATE> 3
<MEAN> 39
 1.452915e+000 -1.462865e+000 8.294151e-001 -6.196940e+000 8.908252e-002 -1.968210e+000 1.843507e+000 -3.727674e+000 -1.617011e+000 -8.311866e-001 -4.134189e+000 -2.567346e+000 5.817839e+001 -3.146317e-003 -3.511115e-003 -2.060972e-002 2.859329e-002 8.198529e-003 3.184696e-002 2.427442e-002 -7.020881e-003 9.447513e-003 7.628909e-003 -4.459852e-003 -1.100164e-002 -3.701514e-002 -9.392317e-004 4.588572e-004 4.275148e-004 2.428473e-003 6.745133e-005 9.275171e-004 5.792495e-004 4.202107e-004 1.086717e-003 1.135449e-003 7.520340e-004 7.159704e-004 -2.403323e-003
<VARIANCE> 39
 4.424694e+001 3.235699e+001 5.817370e+001 7.876868e+001 4.160633e+001 6.420046e+001 3.275190e+001 3.751665e+001 4.059957e+001 3.458558e+001 4.085458e+001 3.885429e+001 6.566512e+001 1.279241e+000 1.244540e+000 1.838283e+000 2.001107e+000 1.781110e+000 2.145067e+000 1.710714e+000 2.331174e+000 2.068788e+000 2.025177e+000 2.165608e+000 1.911334e+000 1.031961e+000 1.666605e-001 1.530742e-001 2.118120e-001 2.782269e-001 2.718997e-001 3.200589e-001 3.064054e-001 3.897876e-001 3.377086e-001 3.473193e-001 3.516856e-001 3.065002e-001 1.169084e-001
<GCONST> 1.109717e+002
<STATE> 4
<MEAN> 39
 1.135719e+000 -1.369709e+000 6.706849e-001 -5.592616e+000 3.504841e-001 -1.433277e+000 2.239591e+000 -3.842948e+000 -1.387367e+000 -7.217925e-001 -4.068804e+000 -2.404809e+000 5.739473e+001 -1.249220e-002 -1.525257e-003 -1.350682e-002 4.370064e-002 6.910099e-003 3.361621e-002 2.714559e-002 4.493245e-004 1.992109e-002 1.361758e-002 3.321555e-003 -2.385937e-003 -5.152154e-002 -9.131287e-004 6.702893e-004 1.145837e-003 1.949773e-003 -2.868633e-004 2.059444e-004 2.438199e-004 5.767661e-004 9.056192e-004 9.390973e-004 6.302005e-004 1.034114e-003 -1.905395e-003
<VARIANCE> 39
 4.360447e+001 3.058665e+001 5.245014e+001 7.827889e+001 3.980721e+001 6.013223e+001 3.138807e+001 3.664106e+001 3.891612e+001 3.375927e+001 4.065960e+001 3.758215e+001 6.667736e+001 1.212415e+000 1.157669e+000 1.684466e+000 1.891513e+000 1.702239e+000 2.016074e+000 1.648820e+000 2.253485e+000 1.985131e+000 1.949970e+000 2.086674e+000 1.825454e+000 9.437398e-001 1.566596e-001 1.428340e-001 1.976804e-001 2.644289e-001 2.626207e-001 3.039698e-001 2.982994e-001 3.825330e-001 3.266303e-001 3.363837e-001 3.366500e-001 2.979646e-001 1.060913e-001
<GCONST> 1.092091e+002
<TRANSP> 5
 0.000000e+000 1.000000e+000 0.000000e+000 0.000000e+000 0.000000e+000
 0.000000e+000 7.916123e-001 2.083877e-001 0.000000e+000 0.000000e+000
 0.000000e+000 0.000000e+000 7.916117e-001 2.083883e-001 0.000000e+000
 0.000000e+000 0.000000e+000 0.000000e+000 9.265899e-001 7.341012e-002
 0.000000e+000 0.000000e+000 0.000000e+000 0.000000e+000 0.000000e+000
<ENDHMM>
~h "ao"
<BEGINHMM>
<NUMSTATES> 5
<STATE> 2
<MEAN> 39
 2.026099e-001 -6.768703e-001 -1.242594e+000 -6.911373e+000 8.819850e-001 2.096936e+000 2.950650e+000 -2.446555e+000 3.201695e-001 3.688529e-001 -2.402086e+000 -1.514330e+000 5.491905e+001 -1.537839e-003 -1.000132e-003 -1.835033e-002 -1.873910e-002 1.241739e-002 9.930366e-003 8.624000e-003 1.474490e-002 1.250735e-002 -2.425387e-002 8.806960e-003 -2.066152e-003 6.176643e-003 9.001182e-006 6.267055e-004 9.742889e-004 1.891265e-003 -9.225256e-005 -5.436222e-004 -3.195612e-004 -3.239333e-004 -7.913592e-004 5.396278e-004 -1.092939e-004 2.803937e-004 -2.215893e-004
<VARIANCE> 39
 3.910876e+001 2.460910e+001 3.523238e+001 1.251740e+002 3.399545e+001 4.389746e+001 2.872729e+001 3.461171e+001 3.618492e+001 4.372609e+001 3.082343e+001 3.039985e+001 6.361457e+001 1.147648e+000 8.430333e-001 1.108276e+000 2.235994e+000 1.356484e+000 1.671444e+000 1.516170e+000 1.891122e+000 1.746521e+000 1.745093e+000 1.485321e+000 1.413131e+000 7.274196e-001 1.550452e-001 1.278224e-001 1.639386e-001 2.683433e-001 2.218847e-001 2.784232e-001 2.776967e-001 3.399684e-001 3.076028e-001 2.941422e-001 2.662019e-001 2.481695e-001 9.100359e-002
<GCONST> 1.040887e+002
<STATE> 3
<MEAN> 39
 1.979381e-001 -6.704074e-001 -1.327097e+000 -6.992713e+000 9.433677e-001 2.144540e+000 2.998942e+000 -2.378527e+000 3.704987e-001 2.467310e-001 -2.361263e+000 -1.525939e+000 5.495256e+001 -1.240918e-003 2.361562e-003 -1.323536e-002 -9.301419e-003 1.160744e-002 7.000635e-003 7.077063e-003 1.295432e-002 8.395960e-003 -2.035554e-002 7.495729e-003 -1.764362e-003 5.234628e-003 2.189490e-004 6.586455e-004 1.014974e-003 1.756757e-003 -1.353727e-004 -7.776131e-004 -3.440230e-004 -4.865071e-004 -1.088635e-003 9.387410e-004 -3.701875e-004 -2.200235e-005 -1.382560e-005
<VARIANCE> 39
 3.893591e+001 2.495683e+001 3.562057e+001 1.267847e+002 3.437806e+001 4.360615e+001 2.823220e+001 3.426232e+001 3.572594e+001 4.395893e+001 3.000397e+001 3.057324e+001 6.350691e+001 1.151495e+000 8.485501e-001 1.111211e+000 2.249982e+000 1.365701e+000 1.674226e+000 1.528849e+000 1.893823e+000 1.766981e+000 1.745347e+000 1.483655e+000 1.432799e+000 7.611960e-001 1.558787e-001 1.287817e-001 1.652419e-001 2.686514e-001 2.237912e-001 2.793995e-001 2.813204e-001 3.418777e-001 3.111461e-001 2.942330e-001 2.678179e-001 2.513988e-001 9.610767e-002
<GCONST> 1.043133e+002
<STATE> 4
<MEAN> 39
 3.635120e-001 -4.801691e-001 -1.500403e+000 -7.396490e+000 1.115925e+000 2.162574e+000 3.092311e+000 -2.414257e+000 3.017392e-001 1.620601e-001 -2.297227e+000 -1.462015e+000 5.527266e+001 -2.564987e-004 7.551352e-003 -1.108236e-003 3.680831e-003 9.048987e-003 8.302808e-004 5.335586e-003 6.336436e-003 -2.593106e-003 -1.073987e-002 2.940761e-003 -4.201656e-003 4.777337e-003 9.272783e-005 2.819129e-004 1.204686e-003 1.405705e-003 -1.024982e-004 -1.061205e-003 -5.083429e-004 -7.144814e-004 -1.203427e-003 1.684474e-003 -5.463742e-004 -1.654029e-004 1.312810e-004
<VARIANCE> 39
 3.823560e+001 2.535231e+001 3.806091e+001 1.297849e+002 3.470728e+001 4.332046e+001 2.928304e+001 3.390987e+001 3.686282e+001 4.474637e+001 2.932251e+001 3.102349e+001 6.441288e+001 1.126004e+000 8.611026e-001 1.139151e+000 2.243802e+000 1.390651e+000 1.671399e+000 1.562539e+000 1.900686e+000 1.834801e+000 1.755955e+000 1.494315e+000 1.483334e+000 8.352306e-001 1.518732e-001 1.319447e-001 1.701105e-001 2.649132e-001 2.283888e-001 2.795999e-001 2.880153e-001 3.438705e-001 3.206793e-001 2.966102e-001 2.734888e-001 2.587703e-001 1.075171e-001
<GCONST> 1.049831e+002
<TRANSP> 5
 0.000000e+000 1.000000e+000 0.000000e+000 0.000000e+000 0.000000e+000
 0.000000e+000 7.969759e-001 2.030241e-001 0.000000e+000 0.000000e+000
 0.000000e+000 0.000000e+000 7.969755e-001 2.030245e-001 0.000000e+000
 0.000000e+000 0.000000e+000 0.000000e+000 9.319750e-001 6.802502e-002
 0.000000e+000 0.000000e+000 0.000000e+000 0.000000e+000 0.000000e+000
<ENDHMM>
~h "ax"
<BEGINHMM>
<NUMSTATES> 5
<STATE> 2
<MEAN> 39
 -1.668370e+000 -3.108594e+000 5.360563e-001 -2.739794e+000 2.213814e+000 7.293647e-001 3.801545e+000 -2.421432e+000 1.541856e+000 1.789050e+000 -2.888011e+000 -1.368172e+000 5.273430e+001 2.329470e-002 -1.499705e-002 -1.122080e-002 -2.621346e-002 1.797618e-002 5.642332e-003 -6.965995e-003 1.514726e-002 -3.007187e-003 -2.109360e-002 -2.204869e-002 -2.451191e-002 6.643986e-002 -6.335788e-004 4.776968e-004 -3.747363e-005 5.515084e-006 -1.558041e-003 7.225689e-004 9.729106e-004 3.701760e-005 4.625711e-004 -2.595323e-003 -6.393387e-004 4.796547e-004 8.623784e-004
<VARIANCE> 39
 2.310588e+001 1.851173e+001 2.271947e+001 4.440704e+001 1.939308e+001 4.553854e+001 2.470599e+001 3.267840e+001 2.416140e+001 2.566710e+001 3.570562e+001 3.983347e+001 7.612106e+001 7.005062e-001 7.720329e-001 9.085833e-001 1.311147e+000 1.226118e+000 2.080347e+000 1.597563e+000 2.032146e+000 1.603728e+000 1.674861e+000 1.787523e+000 1.762601e+000 1.106714e+000 1.172735e-001 1.257182e-001 1.413878e-001 2.037104e-001 2.208144e-001 3.454740e-001 2.973310e-001 3.708877e-001 3.082585e-001 3.183432e-001 3.322236e-001 3.036208e-001 1.360672e-001
<GCONST> 1.009110e+002
<STATE> 3
<MEAN> 39
 -1.562269e+000 -3.172995e+000 5.051911e-001 -2.873325e+000 2.267585e+000 7.296404e-001 3.776358e+000 -2.352370e+000 1.511081e+000 1.676619e+000 -3.015036e+000 -1.463141e+000 5.306044e+001 2.042711e-002 -1.216395e-002 -1.063763e-002 -2.791723e-002 1.056064e-002 5.078807e-003 -4.070096e-003 1.504379e-002 -3.063335e-003 -3.105934e-002 -2.543949e-002 -2.160907e-002 7.100813e-002 -5.030016e-004 9.686640e-004 2.331117e-004 -9.434378e-004 -1.859568e-003 -3.320561e-004 6.373292e-004 -2.391108e-004 -5.794897e-004 -3.080777e-003 -3.117872e-004 5.787362e-004 1.348260e-003
<VARIANCE> 39
 2.366673e+001 1.959934e+001 2.343841e+001 4.654887e+001 2.017036e+001 4.643343e+001 2.529214e+001 3.292632e+001 2.416957e+001 2.625620e+001 3.620766e+001 4.056233e+001 7.975845e+001 7.418544e-001 8.073625e-001 9.474056e-001 1.382424e+000 1.250117e+000 2.200097e+000 1.617159e+000 2.092125e+000 1.591977e+000 1.675616e+000 1.810917e+000 1.808472e+000 1.176166e+000 1.233616e-001 1.272959e-001 1.442756e-001 2.111783e-001 2.218489e-001 3.603217e-001 2.998638e-001 3.796981e-001 3.041709e-001 3.144233e-001 3.343705e-001 3.086798e-001 1.409296e-001
<GCONST> 1.018984e+002
<STATE> 4
<MEAN> 39
 -1.223804e+000 -3.241652e+000 4.304668e-001 -3.309019e+000 2.222678e+000 6.285846e-001 3.735905e+000 -2.226720e+000 1.431799e+000 1.433680e+000 -3.277092e+000 -1.548458e+000 5.398749e+001 1.438832e-002 -2.507341e-003 -2.612961e-003 -3.438382e-002 -4.673317e-003 -1.246226e-002 -4.127159e-003 1.157512e-002 -1.337020e-002 -3.493321e-002 -2.677514e-002 -1.043008e-002 7.505156e-002 -2.535408e-004 1.293116e-003 4.449790e-004 -1.368549e-003 -1.415230e-003 -1.791612e-003 -3.405722e-004 -6.805162e-004 -1.452061e-003 -1.232363e-003 -2.647209e-005 4.781267e-004 1.444509e-003
<VARIANCE> 39
 2.577901e+001 2.248851e+001 2.587238e+001 5.228411e+001 2.293094e+001 4.968917e+001 2.711308e+001 3.367608e+001 2.535063e+001 2.821558e+001 3.779413e+001 4.047082e+001 8.781783e+001 8.214296e-001 8.827201e-001 1.021217e+000 1.526215e+000 1.302070e+000 2.349870e+000 1.637910e+000 2.176105e+000 1.591376e+000 1.644411e+000 1.848578e+000 1.822973e+000 1.285674e+000 1.318752e-001 1.301299e-001 1.472453e-001 2.254748e-001 2.206385e-001 3.794552e-001 2.998725e-001 3.889854e-001 2.995385e-001 3.035467e-001 3.352307e-001 3.077201e-001 1.489647e-001
<GCONST> 1.037527e+002
<TRANSP> 5
 0.000000e+000 1.000000e+000 0.000000e+000 0.000000e+000 0.000000e+000
 0.000000e+000 7.866195e-001 2.133805e-001 0.000000e+000 0.000000e+000
 0.000000e+000 0.000000e+000 7.866191e-001 2.133809e-001 0.000000e+000
 0.000000e+000 0.000000e+000 0.000000e+000 9.213758e-001 7.862432e-002
 0.000000e+000 0.000000e+000 0.000000e+000 0.000000e+000 0.000000e+000
<ENDHMM>
~h "ay"
<BEGINHMM>
<NUMSTATES> 5
<STATE> 2
<MEAN> 39
 -5.490084e-001 -2.307373e+000 3.383773e-001 -3.986138e+000 1.151174e+000 -2.680378e-001 2.858481e+000 -2.756650e+000 2.715167e-001 5.302330e-001 -3.478795e+000 -2.144891e+000 5.539756e+001 8.403911e-003 -1.461903e-002 -1.269934e-002 -1.357593e-002 9.115677e-003 -5.497319e-003 -4.025429e-003 1.717314e-003 -3.354381e-004 -1.244004e-002 -5.472546e-003 -1.731367e-002 2.522206e-002 3.811106e-004 1.033188e-004 1.246125e-004 -2.177716e-004 -2.119058e-004 3.552578e-004 2.330761e-004 3.470511e-004 -1.317613e-004 -2.654142e-004 2.616240e-005 -2.401365e-004 3.065670e-004
<VARIANCE> 39
 3.893033e+001 2.938312e+001 3.652145e+001 6.359168e+001 3.086134e+001 5.459306e+001 2.621438e+001 3.740321e+001 3.257120e+001 3.553517e+001 3.796569e+001 3.790638e+001 7.573767e+001 1.244962e+000 1.037760e+000 1.265305e+000 1.862734e+000 1.480140e+000 1.942235e+000 1.638564e+000 2.280170e+000 1.760193e+000 1.825262e+000 1.763170e+000 1.666805e+000 1.023075e+000 1.744605e-001 1.502270e-001 1.734507e-001 2.644429e-001 2.376882e-001 3.076692e-001 3.029520e-001 3.910663e-001 3.119026e-001 3.187128e-001 3.076489e-001 2.819045e-001 1.317611e-001
<GCONST> 1.069433e+002
<STATE> 3
<MEAN> 39
 -5.042692e-001 -2.372222e+000 2.829476e-001 -4.053117e+000 1.189180e+000 -2.981035e-001 2.842480e+000 -2.745246e+000 2.725043e-001 4.740907e-001 -3.510947e+000 -2.226955e+000 5.552164e+001 1.034785e-002 -1.389204e-002 -1.231006e-002 -1.467909e-002 7.669133e-003 -4.238865e-003 -2.691770e-003 2.760798e-003 -5.611262e-004 -1.338108e-002 -5.871265e-003 -1.875667e-002 2.675093e-002 3.772185e-004 1.861812e-004 2.270179e-004 -9.922653e-005 -3.445930e-004 1.732144e-004 2.378422e-004 4.315814e-004 -8.989523e-005 -1.222004e-004 -6.160192e-005 -2.296851e-004 2.365861e-004
<VARIANCE> 39
 3.897861e+001 2.972506e+001 3.685516e+001 6.355361e+001 3.109009e+001 5.467757e+001 2.619051e+001 3.743456e+001 3.236172e+001 3.565875e+001 3.808579e+001 3.860523e+001 7.596224e+001 1.247289e+000 1.047402e+000 1.277098e+000 1.865039e+000 1.492640e+000 1.963899e+000 1.644750e+000 2.296137e+000 1.757719e+000 1.836694e+000 1.762761e+000 1.689946e+000 1.036667e+000 1.755777e-001 1.514539e-001 1.743970e-001 2.640896e-001 2.396923e-001 3.097705e-001 3.030922e-001 3.940437e-001 3.111640e-001 3.204217e-001 3.078250e-001 2.843095e-001 1.328460e-001
<GCONST> 1.071405e+002
<STATE> 4
<MEAN> 39
 -3.683856e-001 -2.446023e+000 1.304463e-001 -4.220012e+000 1.230412e+000 -2.744742e-001 2.831802e+000 -2.687658e+000 2.986734e-001 3.618336e-001 -3.560982e+000 -2.351021e+000 5.579576e+001 1.221584e-002 -9.158094e-003 -9.696870e-003 -1.389881e-002 3.608503e-003 -4.675639e-003 -1.202144e-003 1.887899e-003 -3.958560e-004 -1.273273e-002 -8.458750e-003 -1.880021e-002 2.725130e-002 1.579853e-004 4.000729e-004 2.505087e-004 1.865139e-004 -3.611369e-004 1.730504e-004 1.063121e-004 1.426956e-004 -1.069761e-004 6.836956e-006 -9.773708e-006 8.389916e-007 -4.836239e-005
<VARIANCE> 39
 3.902106e+001 3.061589e+001 3.748770e+001 6.511693e+001 3.191629e+001 5.515881e+001 2.646931e+001 3.710086e+001 3.203959e+001 3.581586e+001 3.813836e+001 3.946641e+001 7.661554e+001 1.247841e+000 1.058795e+000 1.285857e+000 1.864432e+000 1.506369e+000 2.021923e+000 1.660802e+000 2.306339e+000 1.749830e+000 1.822300e+000 1.758748e+000 1.708094e+000 1.067665e+000 1.755211e-001 1.511692e-001 1.742270e-001 2.607240e-001 2.397276e-001 3.159564e-001 3.035879e-001 3.962592e-001 3.079860e-001 3.168621e-001 3.073686e-001 2.840137e-001 1.335763e-001
<GCONST> 1.073638e+002
<TRANSP> 5
 0.000000e+000 1.000000e+000 0.000000e+000 0.000000e+000 0.000000e+000
 0.000000e+000 7.883476e-001 2.116524e-001 0.000000e+000 0.000000e+000
 0.000000e+000 0.000000e+000 7.883472e-001 2.116528e-001 0.000000e+000
 0.000000e+000 0.000000e+000 0.000000e+000 9.227983e-001 7.720173e-002
 0.000000e+000 0.000000e+000 0.000000e+000 0.000000e+000 0.000000e+000
<ENDHMM>
~h "eh"
<BEGINHMM>
<NUMSTATES> 5
<STATE> 2
<MEAN> 39
 -4.393802e-001 -1.265804e+000 4.033242e-001 -4.046831e+000 6.059172e-001 -1.871862e+000 2.101814e+000 -2.464249e+000 -3.906101e-002 9.888648e-001 -3.941556e+000 -2.339782e+000 5.627405e+001 4.764777e-003 4.651755e-003 -5.047838e-003 5.318249e-004 -4.083334e-003 -4.437719e-003 -7.992152e-004 -1.634268e-003 5.524831e-004 3.935936e-003 -4.731993e-003 9.988893e-004 -2.393574e-003 5.502796e-004 2.936682e-004 -4.347318e-005 -4.610445e-004 -2.166184e-005 3.709488e-004 -1.316988e-004 -5.837721e-004 -1.818284e-004 3.225179e-004 -1.954574e-004 -4.447875e-005 -3.605543e-004
<VARIANCE> 39
 5.165315e+001 2.896425e+001 2.717373e+001 6.270838e+001 2.852988e+001 5.481158e+001 3.062944e+001 4.264370e+001 3.781870e+001 3.060528e+001 3.902709e+001 3.608200e+001 6.469106e+001 1.847230e+000 1.142587e+000 1.114159e+000 1.997175e+000 1.503823e+000 2.006752e+000 1.662601e+000 2.432117e+000 1.881435e+000 1.762742e+000 1.963780e+000 1.593274e+000 9.845696e-001 2.377052e-001 1.568478e-001 1.685949e-001 2.858745e-001 2.488348e-001 3.313861e-001 2.995797e-001 4.088840e-001 3.111146e-001 3.145525e-001 3.212554e-001 2.771219e-001 1.232010e-001
<GCONST> 1.080507e+002
<STATE> 3
<MEAN> 39
 -4.078421e-001 -1.247425e+000 3.848320e-001 -4.050532e+000 5.864422e-001 -1.890974e+000 2.095940e+000 -2.476674e+000 -4.056809e-002 1.006938e+000 -3.970471e+000 -2.336755e+000 5.626429e+001 7.154389e-003 5.557166e-003 -5.121274e-003 -1.312528e-003 -3.939488e-003 -2.749264e-003 -1.361056e-003 -4.241577e-003 -9.670114e-005 5.250326e-003 -5.798106e-003 4.521213e-004 -3.832635e-003 4.901935e-004 2.799005e-004 -7.024410e-006 -4.357484e-004 1.110202e-004 4.377456e-004 -1.034257e-004 -6.078334e-004 -2.102613e-004 3.193221e-004 -2.156944e-004 -1.881428e-004 -3.533806e-004
<VARIANCE> 39
 5.167873e+001 2.869156e+001 2.677915e+001 6.340786e+001 2.822892e+001 5.507704e+001 3.080561e+001 4.267103e+001 3.803180e+001 3.052237e+001 3.939021e+001 3.579005e+001 6.453603e+001 1.847627e+000 1.133991e+000 1.110099e+000 2.017931e+000 1.498565e+000 2.005409e+000 1.663899e+000 2.419080e+000 1.878578e+000 1.759269e+000 1.974153e+000 1.584376e+000 9.849250e-001 2.387214e-001 1.560566e-001 1.681355e-001 2.880463e-001 2.494089e-001 3.321977e-001 3.001550e-001 4.060053e-001 3.104654e-001 3.148383e-001 3.216338e-001 2.762339e-001 1.240914e-001
<GCONST> 1.080351e+002
<STATE> 4
<MEAN> 39
 -3.326358e-001 -1.165943e+000 3.491670e-001 -3.998430e+000 5.261367e-001 -1.831494e+000 2.121196e+000 -2.624135e+000 -6.370817e-002 9.988964e-001 -4.014987e+000 -2.326331e+000 5.608686e+001 9.354374e-003 4.381042e-003 -3.021966e-003 -2.130900e-003 -2.955248e-003 7.932712e-005 -1.328551e-003 -7.697356e-003 -1.059326e-003 5.412358e-003 -7.381232e-003 -9.295219e-004 -4.990688e-003 7.424406e-005 2.078608e-004 6.215648e-005 2.679121e-005 2.096447e-004 4.662677e-004 1.024685e-004 -4.903796e-004 -1.123336e-004 1.903598e-004 -3.032959e-005 -2.718793e-004 -4.347126e-004
<VARIANCE> 39
 5.067695e+001 2.804464e+001 2.611428e+001 6.375048e+001 2.798649e+001 5.477411e+001 3.113188e+001 4.279760e+001 3.838676e+001 3.055894e+001 3.975658e+001 3.510374e+001 6.423663e+001 1.774522e+000 1.098717e+000 1.088533e+000 2.005396e+000 1.491732e+000 1.973008e+000 1.656791e+000 2.399590e+000 1.891167e+000 1.752853e+000 1.963591e+000 1.570311e+000 9.682521e-001 2.313475e-001 1.515999e-001 1.650068e-001 2.869612e-001 2.506439e-001 3.285760e-001 3.000358e-001 4.020588e-001 3.130651e-001 3.149151e-001 3.192121e-001 2.752458e-001 1.232558e-001
<GCONST> 1.077004e+002
<TRANSP> 5
 0.000000e+000 1.000000e+000 0.000000e+000 0.000000e+000 0.000000e+000
 0.000000e+000 7.888403e-001 2.111597e-001 0.000000e+000 0.000000e+000
 0.000000e+000 0.000000e+000 7.888406e-001 2.111594e-001 0.000000e+000
 0.000000e+000 0.000000e+000 0.000000e+000 9.224109e-001 7.758914e-002
 0.000000e+000 0.000000e+000 0.000000e+000 0.000000e+000 0.000000e+000
<ENDHMM>
~h "ey"
<BEGINHMM>
<NUMSTATES> 5
<STATE> 2
<MEAN> 39
 -2.395285e-001 -2.400492e+000 1.001707e-001 -5.005600e+000 5.940472e-001 -1.523831e+000 2.582795e+000 -2.235501e+000 -1.312321e-001 -4.376666e-001 -3.630596e+000 -1.872933e+000 5.748813e+001 -2.018603e-003 4.510212e-004 2.165769e-003 -4.390399e-003 -8.168533e-003 -8.075059e-003 -7.730925e-004 2.535708e-003 -1.721687e-003 -1.201181e-002 -1.760356e-003 5.739416e-003 9.059655e-003 -5.377036e-004 3.409512e-004 2.002980e-004 8.311904e-004 1.740594e-004 5.982346e-004 -7.100432e-005 5.132663e-005 4.789389e-004 1.817220e-004 6.693383e-004 2.599390e-004 -9.735207e-004
<VARIANCE> 39
 4.844096e+001 3.621109e+001 3.866670e+001 6.978370e+001 3.574048e+001 5.803355e+001 3.076757e+001 3.834480e+001 3.661008e+001 3.799440e+001 4.310220e+001 3.552988e+001 7.232968e+001 1.688042e+000 1.241822e+000 1.402784e+000 2.141265e+000 1.683576e+000 2.244289e+000 1.789555e+000 2.222327e+000 1.965383e+000 1.947244e+000 2.017901e+000 1.660459e+000 1.608309e+000 2.321926e-001 1.754688e-001 2.094902e-001 2.988525e-001 2.759420e-001 3.586754e-001 3.259625e-001 3.832872e-001 3.357857e-001 3.381031e-001 3.272228e-001 2.848838e-001 1.977206e-001
<GCONST> 1.116533e+002
<STATE> 3
<MEAN> 39
 -2.521099e-001 -2.397221e+000 1.129512e-001 -5.017581e+000 5.547896e-001 -1.561170e+000 2.578505e+000 -2.221740e+000 -1.361377e-001 -4.965470e-001 -3.631554e+000 -1.843083e+000 5.752241e+001 -4.478940e-003 2.037148e-003 2.862453e-003 -5.109917e-004 -7.085881e-003 -4.968181e-003 -1.228803e-003 2.924883e-003 5.098523e-004 -1.123762e-002 1.435881e-003 6.630477e-003 4.617649e-003 -3.832151e-004 3.135944e-004 4.479271e-005 7.637585e-004 2.848378e-004 6.915781e-004 2.653128e-005 9.726254e-006 3.760405e-004 1.579517e-004 5.901713e-004 4.696497e-005 -8.643261e-004
<VARIANCE> 39
 4.873905e+001 3.647585e+001 3.855644e+001 6.954391e+001 3.582619e+001 5.870580e+001 3.101834e+001 3.847950e+001 3.664884e+001 3.804048e+001 4.299176e+001 3.544517e+001 7.228676e+001 1.693780e+000 1.247833e+000 1.408548e+000 2.141602e+000 1.684899e+000 2.268586e+000 1.798199e+000 2.219447e+000 1.967124e+000 1.954037e+000 2.017316e+000 1.655966e+000 1.622667e+000 2.336767e-001 1.762703e-001 2.108416e-001 2.992169e-001 2.753934e-001 3.620286e-001 3.267923e-001 3.827756e-001 3.361906e-001 3.392663e-001 3.268256e-001 2.846973e-001 1.994697e-001
<GCONST> 1.117592e+002
<STATE> 4
<MEAN> 39
 -1.962494e-001 -2.253907e+000 1.584351e-001 -5.008024e+000 4.894385e-001 -1.559501e+000 2.502105e+000 -2.339173e+000 -2.475865e-001 -5.281683e-001 -3.639184e+000 -1.742789e+000 5.747649e+001 -5.843565e-003 3.955110e-003 3.080820e-003 4.360928e-003 -5.082141e-003 8.209686e-005 -2.460622e-003 3.259854e-003 1.572906e-003 -1.025503e-002 6.712920e-003 5.760463e-003 -2.315498e-003 -1.390337e-004 3.582962e-004 -1.226287e-004 5.013655e-004 3.217848e-004 7.843858e-004 5.927807e-005 -9.665619e-005 9.885347e-005 1.858178e-004 4.268654e-004 -2.120235e-004 -7.141128e-004
<VARIANCE> 39
 4.835697e+001 3.685166e+001 3.808762e+001 7.023476e+001 3.605086e+001 5.972934e+001 3.133183e+001 3.863777e+001 3.672555e+001 3.767799e+001 4.286656e+001 3.450256e+001 7.232420e+001 1.652993e+000 1.232873e+000 1.389831e+000 2.133542e+000 1.655837e+000 2.285428e+000 1.805159e+000 2.196324e+000 1.942141e+000 1.956449e+000 2.023206e+000 1.629978e+000 1.604775e+000 2.294068e-001 1.743565e-001 2.085452e-001 2.980002e-001 2.699963e-001 3.633849e-001 3.261485e-001 3.781734e-001 3.320109e-001 3.412417e-001 3.268698e-001 2.826144e-001 1.958391e-001
<GCONST> 1.115475e+002
<TRANSP> 5
 0.000000e+000 1.000000e+000 0.000000e+000 0.000000e+000 0.000000e+000
 0.000000e+000 7.956572e-001 2.043428e-001 0.000000e+000 0.000000e+000
 0.000000e+000 0.000000e+000 7.956578e-001 2.043423e-001 0.000000e+000
 0.000000e+000 0.000000e+000 0.000000e+000 9.299417e-001 7.005838e-002
 0.000000e+000 0.000000e+000 0.000000e+000 0.000000e+000 0.000000e+000
<ENDHMM>
~h "ia"
<BEGINHMM>
<NUMSTATES> 5
<STATE> 2
<MEAN> 39
 7.459605e-001 -1.294906e+000 1.196436e+000 -4.684191e+000 -1.269063e+000 -2.858463e+000 1.768079e+000 -3.107933e+000 -6.509094e-001 4.189690e-001 -2.479553e+000 -1.879797e+000 5.798730e+001 2.239142e-003 -1.452580e-002 4.098525e-003 2.765751e-003 -1.058288e-002 -1.842431e-002 9.590571e-003 1.638030e-002 6.656960e-003 -4.618743e-003 1.022072e-002 7.956595e-003 7.190203e-003 3.140028e-004 -1.591831e-004 -1.531426e-003 -1.222395e-003 4.325071e-004 8.663359e-004 6.714251e-004 8.411289e-004 2.444130e-004 -1.412921e-004 -4.883387e-004 -3.777642e-004 6.858817e-005
<VARIANCE> 39
 5.393084e+001 3.299700e+001 5.442194e+001 6.072823e+001 5.426763e+001 7.784584e+001 3.333619e+001 3.948133e+001 4.292271e+001 3.325697e+001 3.657985e+001 3.751261e+001 6.770557e+001 1.748110e+000 1.243564e+000 1.604121e+000 2.190849e+000 1.917262e+000 2.502587e+000 1.827196e+000 2.303952e+000 2.168886e+000 1.825742e+000 1.879390e+000 1.852092e+000 9.941161e-001 2.176751e-001 1.614970e-001 2.013881e-001 3.022806e-001 2.721455e-001 3.740504e-001 3.343966e-001 3.824545e-001 3.421862e-001 3.130567e-001 3.201669e-001 3.014297e-001 1.207442e-001
<GCONST> 1.119809e+002
<STATE> 3
<MEAN> 39
 7.585620e-001 -1.356695e+000 1.199909e+000 -4.681987e+000 -1.306741e+000 -2.932883e+000 1.815878e+000 -3.033982e+000 -6.180790e-001 4.052322e-001 -2.444387e+000 -1.852379e+000 5.801866e+001 3.152543e-003 -1.456778e-002 -2.463788e-003 -1.737589e-003 -9.101992e-003 -1.416436e-002 1.251146e-002 1.898336e-002 7.967549e-003 -5.083258e-003 7.752054e-003 6.401652e-003 6.735252e-003 1.010815e-004 9.735743e-005 -1.462711e-003 -1.054985e-003 6.244817e-004 1.029265e-003 6.846915e-004 6.882643e-004 3.556897e-004 -1.123924e-005 -7.853393e-004 -2.972249e-004 -3.072366e-004
<VARIANCE> 39
 5.400702e+001 3.316395e+001 5.517744e+001 6.000545e+001 5.465725e+001 7.889709e+001 3.305172e+001 3.952930e+001 4.240388e+001 3.311530e+001 3.624348e+001 3.759405e+001 6.789410e+001 1.733930e+000 1.243208e+000 1.609857e+000 2.173965e+000 1.915738e+000 2.497133e+000 1.810540e+000 2.295334e+000 2.147551e+000 1.810176e+000 1.869251e+000 1.845539e+000 9.908593e-001 2.155313e-001 1.614915e-001 2.015317e-001 2.996645e-001 2.702757e-001 3.734219e-001 3.309141e-001 3.804469e-001 3.404073e-001 3.101349e-001 3.176195e-001 2.997645e-001 1.202450e-001
<GCONST> 1.118481e+002
<STATE> 4
<MEAN> 39
 6.747371e-001 -1.379143e+000 9.650736e-001 -4.639685e+000 -1.236223e+000 -2.835580e+000 2.015665e+000 -2.873454e+000 -4.408871e-001 3.588621e-001 -2.356185e+000 -1.809288e+000 5.788079e+001 1.423985e-003 -1.087899e-002 -1.034925e-002 -4.390049e-003 -5.015243e-003 -5.187883e-003 1.506318e-002 1.693527e-002 1.031186e-002 -2.643581e-003 2.791758e-003 3.339163e-003 2.025087e-003 -2.891625e-004 2.919839e-004 -1.018095e-003 -4.501332e-004 5.073225e-004 1.076277e-003 5.283902e-004 2.833744e-004 4.703256e-004 4.122133e-005 -6.335100e-004 -1.094774e-004 -6.534843e-004
<VARIANCE> 39
 5.420872e+001 3.321191e+001 5.346988e+001 6.029918e+001 5.500000e+001 7.803709e+001 3.137576e+001 3.930050e+001 4.092117e+001 3.274247e+001 3.520366e+001 3.755636e+001 6.682045e+001 1.670731e+000 1.222937e+000 1.575636e+000 2.118459e+000 1.904546e+000 2.387449e+000 1.757076e+000 2.274388e+000 2.095964e+000 1.768846e+000 1.836754e+000 1.823537e+000 9.590746e-001 2.048972e-001 1.580954e-001 1.985424e-001 2.865857e-001 2.654549e-001 3.567902e-001 3.202863e-001 3.762723e-001 3.348261e-001 3.021468e-001 3.133977e-001 2.954543e-001 1.147836e-001
<GCONST> 1.110151e+002
<TRANSP> 5
 0.000000e+000 1.000000e+000 0.000000e+000 0.000000e+000 0.000000e+000
 0.000000e+000 7.845620e-001 2.154380e-001 0.000000e+000 0.000000e+000
 0.000000e+000 0.000000e+000 7.845616e-001 2.154384e-001 0.000000e+000
 0.000000e+000 0.000000e+000 0.000000e+000 9.175849e-001 8.241506e-002
 0.000000e+000 0.000000e+000 0.000000e+000 0.000000e+000 0.000000e+000
<ENDHMM>
~h "ih"
<BEGINHMM>
<NUMSTATES> 5
<STATE> 2
<MEAN> 39
 -1.628904e+000 -1.071680e+000 -9.176867e-002 -4.161660e+000 8.120976e-001 -3.304377e+000 2.241863e+000 -1.527616e+000 2.156204e-001 3.621881e-001 -2.369671e+000 -1.773286e+000 5.844152e+001 -6.910589e-003 5.505282e-003 4.323362e-003 -8.980272e-004 -4.692222e-003 -3.482320e-002 -9.633164e-003 5.247929e-003 -4.092354e-003 -2.014246e-003 -5.219662e-004 -9.833360e-004 2.629935e-002 -1.648668e-004 5.782947e-005 9.904618e-004 1.454433e-003 -4.722418e-004 -5.473532e-004 -1.279872e-004 -2.990919e-004 3.327850e-004 6.595692e-004 3.503018e-004 6.290841e-004 -1.637294e-003
<VARIANCE> 39
 6.815063e+001 3.180229e+001 4.035104e+001 7.139729e+001 5.219735e+001 7.360003e+001 2.856381e+001 3.583065e+001 4.358513e+001 3.274721e+001 3.342160e+001 3.283631e+001 6.074469e+001 2.333749e+000 1.186678e+000 1.629633e+000 2.319021e+000 2.077622e+000 2.561296e+000 1.848304e+000 2.183626e+000 2.410434e+000 1.798811e+000 1.907872e+000 1.757327e+000 1.162537e+000 2.895305e-001 1.614992e-001 2.316130e-001 3.092729e-001 2.989198e-001 3.993390e-001 3.427224e-001 3.793007e-001 3.958149e-001 3.226613e-001 3.345172e-001 3.134472e-001 1.483552e-001
<GCONST> 1.130363e+002
<STATE> 3
<MEAN> 39
 -1.661463e+000 -1.044347e+000 -5.759376e-002 -4.147987e+000 7.858781e-001 -3.467710e+000 2.193035e+000 -1.509203e+000 2.009127e-001 3.609274e-001 -2.370307e+000 -1.769134e+000 5.854161e+001 -7.350645e-003 5.714798e-003 9.118002e-003 5.259517e-003 -6.630007e-003 -3.735154e-002 -1.055076e-002 3.586093e-003 -2.806607e-003 1.071613e-003 7.825166e-004 1.753732e-003 1.861252e-002 -2.812692e-005 7.115035e-005 1.051991e-003 1.271661e-003 -3.604761e-004 -3.747135e-004 -1.847748e-004 -4.267774e-004 1.374348e-004 7.466640e-004 2.853467e-004 5.458333e-004 -1.740460e-003
<VARIANCE> 39
 6.878387e+001 3.185172e+001 4.089517e+001 7.051053e+001 5.277306e+001 7.429776e+001 2.905628e+001 3.571021e+001 4.350729e+001 3.278745e+001 3.353170e+001 3.296589e+001 5.992388e+001 2.362156e+000 1.191016e+000 1.650440e+000 2.317921e+000 2.100542e+000 2.582535e+000 1.848260e+000 2.177759e+000 2.407174e+000 1.801934e+000 1.911536e+000 1.759100e+000 1.150653e+000 2.924759e-001 1.619752e-001 2.343177e-001 3.106800e-001 3.008726e-001 3.993226e-001 3.423932e-001 3.778626e-001 3.963335e-001 3.232166e-001 3.347984e-001 3.142899e-001 1.466057e-001
<GCONST> 1.131384e+002
<STATE> 4
<MEAN> 39
 -1.749591e+000 -1.007774e+000 1.345363e-002 -4.020013e+000 7.372667e-001 -3.644495e+000 2.123395e+000 -1.519687e+000 2.138574e-001 3.575702e-001 -2.343168e+000 -1.683296e+000 5.852420e+001 -5.204429e-003 5.874722e-003 1.780839e-002 1.114903e-002 -8.278001e-003 -3.599590e-002 -1.292683e-002 -1.158527e-003 -2.995444e-003 4.783109e-003 1.248184e-003 5.507241e-003 4.727132e-003 2.657006e-004 2.625526e-005 9.529864e-004 5.506496e-004 -2.199497e-004 1.293974e-004 -1.743169e-004 -5.149741e-004 -2.695780e-004 4.405122e-004 1.091296e-004 3.193401e-004 -1.468505e-003
<VARIANCE> 39
 6.845569e+001 3.174246e+001 4.166057e+001 6.710307e+001 5.404867e+001 7.406435e+001 3.022847e+001 3.552603e+001 4.296143e+001 3.292771e+001 3.341338e+001 3.276543e+001 5.817735e+001 2.315940e+000 1.174668e+000 1.647770e+000 2.253788e+000 2.132489e+000 2.543331e+000 1.825487e+000 2.155311e+000 2.363790e+000 1.797821e+000 1.901417e+000 1.740187e+000 1.122620e+000 2.858364e-001 1.606921e-001 2.352532e-001 3.068903e-001 3.043492e-001 3.897673e-001 3.374145e-001 3.731159e-001 3.917595e-001 3.220203e-001 3.336763e-001 3.113759e-001 1.428480e-001
<GCONST> 1.128260e+002
<TRANSP> 5
 0.000000e+000 1.000000e+000 0.000000e+000 0.000000e+000 0.000000e+000
 0.000000e+000 7.864805e-001 2.135194e-001 0.000000e+000 0.000000e+000
 0.000000e+000 0.000000e+000 7.864796e-001 2.135204e-001 0.000000e+000
 0.000000e+000 0.000000e+000 0.000000e+000 9.195974e-001 8.040259e-002
 0.000000e+000 0.000000e+000 0.000000e+000 0.000000e+000 0.000000e+000
<ENDHMM>
~h "iy"
<BEGINHMM>
<NUMSTATES> 5
<STATE> 2
<MEAN> 39
 -4.898292e-001 -7.071282e-001 3.860705e+000 -5.233536e+000 -3.448554e-001 -3.738513e+000 6.828815e-001 -2.768939e+000 -1.915130e+000 1.549379e-001 -3.006959e+000 -8.782220e-001 5.799951e+001 -1.750533e-003 -1.641928e-003 1.040902e-002 2.394914e-002 -5.407351e-003 2.736915e-002 2.256620e-002 -5.050160e-003 1.795514e-002 -1.107732e-002 6.695459e-003 -9.566805e-005 -3.235206e-002 2.243466e-004 -1.145570e-003 -2.969131e-003 1.015521e-003 1.029160e-003 1.662550e-003 9.315994e-004 7.785509e-004 1.981188e-003 1.051623e-003 -4.436753e-004 -8.477760e-004 -9.410580e-004
<VARIANCE> 39
 5.404251e+001 3.022957e+001 7.922972e+001 6.460424e+001 5.009506e+001 7.430981e+001 3.842990e+001 3.874156e+001 5.198368e+001 3.356887e+001 3.500734e+001 3.371976e+001 5.924824e+001 1.917448e+000 1.133418e+000 1.703964e+000 2.164237e+000 1.957326e+000 2.208283e+000 1.748953e+000 2.418243e+000 2.072345e+000 1.937330e+000 1.913929e+000 1.755067e+000 1.040486e+000 2.360473e-001 1.581009e-001 2.187767e-001 3.164801e-001 3.011812e-001 3.337888e-001 3.158404e-001 4.098620e-001 3.319634e-001 3.405097e-001 3.224377e-001 2.978608e-001 1.282953e-001
<GCONST> 1.125161e+002
<STATE> 3
<MEAN> 39
 -4.978529e-001 -7.265202e-001 3.869976e+000 -5.103282e+000 -3.558434e-001 -3.577256e+000 8.097593e-001 -2.786230e+000 -1.799479e+000 1.117392e-001 -2.974104e+000 -8.875583e-001 5.782288e+001 -1.798136e-004 -7.350903e-003 -4.755492e-003 2.801825e-002 -2.514723e-004 3.478330e-002 2.662188e-002 -1.319920e-003 2.667465e-002 -5.642189e-003 4.241544e-003 -4.514117e-003 -3.609562e-002 5.532163e-004 -1.298415e-003 -2.913363e-003 3.364881e-004 7.952556e-004 8.717662e-004 5.547872e-004 7.298242e-004 1.325457e-003 1.006184e-003 -6.455683e-004 -9.265846e-004 -3.513145e-004
<VARIANCE> 39
 5.321224e+001 3.032686e+001 7.888776e+001 6.353748e+001 4.881001e+001 7.371095e+001 3.723194e+001 3.877133e+001 5.041908e+001 3.351825e+001 3.433009e+001 3.347071e+001 5.963899e+001 1.882313e+000 1.138865e+000 1.732731e+000 2.144450e+000 1.913978e+000 2.207585e+000 1.728579e+000 2.418477e+000 2.059052e+000 1.924109e+000 1.888692e+000 1.733786e+000 1.044147e+000 2.328323e-001 1.584532e-001 2.210078e-001 3.145472e-001 2.951815e-001 3.329935e-001 3.123015e-001 4.109568e-001 3.302857e-001 3.376921e-001 3.191025e-001 2.941009e-001 1.284037e-001
<GCONST> 1.122155e+002
<STATE> 4
<MEAN> 39
 -4.533257e-001 -7.405754e-001 3.764126e+000 -4.902825e+000 -3.872199e-001 -3.098734e+000 1.042956e+000 -2.834466e+000 -1.563486e+000 1.167768e-001 -2.965631e+000 -9.172395e-001 5.736084e+001 2.945678e-003 -1.668288e-002 -3.354251e-002 3.255628e-002 8.518796e-003 4.471669e-002 3.408799e-002 3.289271e-003 3.759110e-002 2.562298e-003 8.858162e-004 -1.195980e-002 -4.218705e-002 5.796042e-004 -8.647050e-004 -2.151641e-003 -3.943044e-004 3.260935e-004 -3.336308e-004 1.681611e-004 3.275404e-004 7.524696e-005 5.059938e-004 -6.412957e-004 -6.764325e-004 2.969742e-004
<VARIANCE> 39
 5.042938e+001 3.031948e+001 7.685014e+001 6.269341e+001 4.555972e+001 7.262892e+001 3.610703e+001 3.843719e+001 4.793433e+001 3.422062e+001 3.360574e+001 3.229382e+001 6.056757e+001 1.740599e+000 1.127841e+000 1.731097e+000 2.065455e+000 1.815145e+000 2.157230e+000 1.694310e+000 2.359690e+000 2.008925e+000 1.892229e+000 1.844149e+000 1.674404e+000 1.015628e+000 2.177725e-001 1.558506e-001 2.178150e-001 3.015169e-001 2.810430e-001 3.252916e-001 3.062921e-001 4.019375e-001 3.253490e-001 3.317240e-001 3.149424e-001 2.837054e-001 1.238337e-001
<GCONST> 1.111799e+002
<TRANSP> 5
 0.000000e+000 1.000000e+000 0.000000e+000 0.000000e+000 0.000000e+000
 0.000000e+000 7.902504e-001 2.097497e-001 0.000000e+000 0.000000e+000
 0.000000e+000 0.000000e+000 7.902511e-001 2.097489e-001 0.000000e+000
 0.000000e+000 0.000000e+000 0.000000e+000 9.239982e-001 7.600182e-002
 0.000000e+000 0.000000e+000 0.000000e+000 0.000000e+000 0.000000e+000
<ENDHMM>
~h "jh"
<BEGINHMM>
<NUMSTATES> 5
<STATE> 2
<MEAN> 39
 -8.228154e-001 -1.791930e+000 -2.246004e-001 -5.389798e+000 2.322348e+000 2.099787e+000 2.034502e+000 -2.431524e+000 -3.146434e-001 4.319289e+000 -2.209483e+000 -1.497204e+000 5.665519e+001 1.296460e-001 5.247600e-002 1.439812e-003 -2.708291e-001 -6.954963e-002 -6.728492e-002 -9.674554e-002 -6.497911e-002 -1.870036e-001 4.811370e-002 -1.128115e-001 -1.094002e-001 2.679690e-001 3.795559e-003 6.479481e-004 6.758437e-003 -1.177213e-003 -6.641243e-003 -4.940856e-003 -5.307138e-003 -3.872294e-003 -3.756378e-003 1.625797e-003 -4.363001e-003 8.813944e-004 -4.277412e-003
<VARIANCE> 39
 4.502823e+001 1.219104e+001 2.464677e+001 9.869760e+001 2.836649e+001 2.699935e+001 3.335406e+001 3.490227e+001 5.010487e+001 2.389139e+001 4.696965e+001 3.899518e+001 7.475397e+001 1.926093e+000 6.316403e-001 1.097675e+000 3.001735e+000 1.385856e+000 1.808129e+000 1.906362e+000 2.002595e+000 2.573836e+000 1.962738e+000 2.206327e+000 1.837894e+000 1.393178e+000 2.814830e-001 1.141164e-001 1.834105e-001 3.881323e-001 2.505537e-001 2.980115e-001 3.525659e-001 3.439978e-001 4.352908e-001 3.779160e-001 3.440017e-001 3.096926e-001 1.963696e-001
<GCONST> 1.089385e+002
<STATE> 3
<MEAN> 39
 -2.542127e-001 -1.574919e+000 -1.295086e-001 -6.478450e+000 1.974200e+000 1.749404e+000 1.596258e+000 -2.785661e+000 -1.111770e+000 4.507035e+000 -2.734580e+000 -1.916399e+000 5.768688e+001 1.367824e-001 5.190917e-002 3.402577e-002 -2.560809e-001 -9.424538e-002 -8.927844e-002 -1.143543e-001 -8.220784e-002 -1.960078e-001 5.056483e-002 -1.291211e-001 -9.580453e-002 2.390921e-001 1.184945e-003 -3.149590e-005 9.093015e-003 5.302119e-003 -5.994701e-003 -5.614284e-003 -4.208242e-003 -4.403026e-003 -1.859603e-003 2.207367e-004 -3.717888e-003 3.805883e-003 -7.549482e-003
<VARIANCE> 39
 4.890882e+001 1.258029e+001 2.945073e+001 1.046056e+002 3.042311e+001 3.129230e+001 3.690879e+001 3.789230e+001 5.573949e+001 2.474420e+001 5.411061e+001 4.072953e+001 7.329079e+001 2.122958e+000 6.605113e-001 1.174986e+000 3.244481e+000 1.422772e+000 2.027404e+000 2.027304e+000 2.088993e+000 2.689034e+000 2.021949e+000 2.406646e+000 1.892933e+000 1.478930e+000 3.062976e-001 1.199084e-001 1.891204e-001 4.205849e-001 2.551995e-001 3.264890e-001 3.744045e-001 3.511237e-001 4.369249e-001 3.797367e-001 3.663473e-001 3.160880e-001 2.094247e-001
<GCONST> 1.113703e+002
<STATE> 4
<MEAN> 39
 7.361540e-001 -1.130206e+000 5.509565e-001 -7.615653e+000 9.400375e-001 8.848867e-001 1.147330e+000 -3.612471e+000 -2.198416e+000 4.809317e+000 -3.615875e+000 -2.025401e+000 5.888464e+001 1.041039e-001 3.235542e-002 9.453610e-002 -1.588962e-001 -1.075409e-001 -1.259215e-001 -1.156322e-001 -9.823872e-002 -1.634778e-001 2.324479e-002 -1.213097e-001 -3.868238e-002 1.641918e-001 -3.585818e-003 -1.771344e-003 9.214447e-003 1.172337e-002 -3.073593e-003 -5.281237e-003 -1.177723e-003 -1.711901e-003 2.430864e-003 -2.602774e-003 8.263681e-004 6.690887e-003 -8.084140e-003
<VARIANCE> 39
 5.253633e+001 1.384423e+001 4.152542e+001 1.024063e+002 3.413292e+001 4.170506e+001 4.291622e+001 4.190358e+001 6.062208e+001 2.653323e+001 6.595844e+001 4.126618e+001 6.771852e+001 2.407979e+000 7.503779e-001 1.281867e+000 3.382439e+000 1.524318e+000 2.476861e+000 2.253419e+000 2.218462e+000 2.802140e+000 2.137754e+000 2.787426e+000 1.938975e+000 1.683165e+000 3.393105e-001 1.360543e-001 1.961460e-001 4.452478e-001 2.689717e-001 3.940679e-001 4.189313e-001 3.635582e-001 4.286391e-001 3.858701e-001 4.134977e-001 3.280098e-001 2.432953e-001
<GCONST> 1.150287e+002
<TRANSP> 5
 0.000000e+000 1.000000e+000 0.000000e+000 0.000000e+000 0.000000e+000
 0.000000e+000 7.658438e-001 2.341561e-001 0.000000e+000 0.000000e+000
 0.000000e+000 0.000000e+000 7.658440e-001 2.341560e-001 0.000000e+000
 0.000000e+000 0.000000e+000 0.000000e+000 8.984022e-001 1.015978e-001
 0.000000e+000 0.000000e+000 0.000000e+000 0.000000e+000 0.000000e+000
<ENDHMM>
~h "ng"
<BEGINHMM>
<NUMSTATES> 5
<STATE> 2
<MEAN> 39
 1.359632e+000 -1.402565e+000 1.265936e+000 -5.404719e+000 2.596184e+000 2.536034e-001 3.085665e+000 -5.246518e+000 -2.337995e+000 8.287559e-001 -6.005836e+000 -1.626912e+000 5.612186e+001 -2.723760e-002 2.817727e-002 -4.616223e-002 1.639872e-001 -1.110450e-002 1.741685e-001 1.063280e-001 -6.233172e-003 9.060765e-002 7.723835e-002 2.567339e-002 1.269002e-003 -2.246442e-001 -4.874451e-003 3.649808e-003 8.785719e-003 6.528838e-003 -4.046601e-003 -4.440185e-003 3.651727e-004 2.786674e-003 2.898876e-003 8.740303e-004 2.941860e-003 5.031314e-003 -4.209522e-003
<VARIANCE> 39
 1.837011e+001 1.995038e+001 7.128953e+001 6.651319e+001 2.597106e+001 5.286359e+001 3.655651e+001 3.612971e+001 4.183964e+001 2.295462e+001 4.675856e+001 3.881383e+001 7.987932e+001 2.831782e-001 6.651478e-001 1.827976e+000 1.027667e+000 1.449157e+000 1.397516e+000 1.398170e+000 2.053929e+000 1.733434e+000 1.344943e+000 2.241170e+000 1.778866e+000 3.240015e-001 3.744034e-002 7.922684e-002 1.567451e-001 1.510482e-001 2.220816e-001 1.972995e-001 2.322671e-001 3.694530e-001 2.760061e-001 2.444318e-001 3.119334e-001 2.985580e-001 2.922698e-002
<GCONST> 9.728210e+001
<STATE> 3
<MEAN> 39
 1.184799e+000 -1.265871e+000 1.137407e+000 -4.587125e+000 2.503386e+000 1.008047e+000 3.570807e+000 -5.219660e+000 -1.876723e+000 1.204154e+000 -5.856144e+000 -1.564042e+000 5.502575e+001 -4.995711e-002 4.175055e-002 -8.194541e-003 1.897805e-001 -2.852894e-002 1.510199e-001 1.046745e-001 8.302297e-003 1.048199e-001 7.963468e-002 3.899234e-002 2.480543e-002 -2.396066e-001 -5.228281e-003 2.402395e-003 9.258982e-003 4.753413e-003 -3.681518e-003 -6.613491e-003 -1.094544e-003 4.988250e-003 3.754052e-003 -5.987018e-004 2.207176e-003 5.251101e-003 -1.946905e-003
<VARIANCE> 39
 1.824436e+001 1.809224e+001 5.960530e+001 6.331550e+001 2.354837e+001 4.460272e+001 3.249641e+001 3.475380e+001 4.152211e+001 2.217153e+001 4.650388e+001 3.667166e+001 7.604251e+001 2.554790e-001 5.906963e-001 1.584266e+000 9.535742e-001 1.320901e+000 1.301682e+000 1.378070e+000 1.889695e+000 1.623466e+000 1.310735e+000 2.135443e+000 1.656433e+000 2.801299e-001 3.323728e-002 7.078527e-002 1.441535e-001 1.438730e-001 2.067159e-001 1.889948e-001 2.316950e-001 3.444673e-001 2.627162e-001 2.444649e-001 2.978619e-001 2.867807e-001 2.488446e-002
<GCONST> 9.446568e+001
<STATE> 4
<MEAN> 39
 -5.058570e-002 -8.655850e-001 1.323462e+000 -2.360347e+000 2.364336e+000 1.939476e+000 4.617540e+000 -4.900510e+000 -7.888027e-001 1.700199e+000 -4.829731e+000 -5.748289e-001 5.233883e+001 -6.958397e-002 3.075563e-002 2.433007e-002 1.699075e-001 -3.958764e-002 8.648342e-002 6.950104e-002 3.770115e-002 1.064406e-001 6.151405e-002 5.642208e-002 5.081534e-002 -2.044150e-001 -2.930898e-003 9.087613e-005 3.322477e-003 2.119402e-004 -9.518674e-004 -5.018885e-003 -1.843949e-003 3.996203e-003 1.967326e-003 -2.444814e-003 2.464327e-003 3.061485e-003 1.640901e-003
<VARIANCE> 39
 1.902191e+001 1.284837e+001 3.827457e+001 5.356127e+001 1.838882e+001 2.985881e+001 2.483714e+001 2.920599e+001 3.569481e+001 1.954116e+001 4.328249e+001 3.076745e+001 6.239694e+001 2.045349e-001 4.459517e-001 1.118146e+000 8.373355e-001 1.085242e+000 1.123868e+000 1.317944e+000 1.630299e+000 1.447594e+000 1.262326e+000 1.789036e+000 1.392840e+000 2.046412e-001 2.782424e-002 5.973821e-002 1.210916e-001 1.349539e-001 1.822940e-001 1.797183e-001 2.340573e-001 3.084528e-001 2.501637e-001 2.437912e-001 2.672604e-001 2.583167e-001 1.875320e-002
<GCONST> 8.799709e+001
<TRANSP> 5
 0.000000e+000 1.000000e+000 0.000000e+000 0.000000e+000 0.000000e+000
 0.000000e+000 7.955248e-001 2.044752e-001 0.000000e+000 0.000000e+000
 0.000000e+000 0.000000e+000 7.955248e-001 2.044751e-001 0.000000e+000
 0.000000e+000 0.000000e+000 0.000000e+000 9.348335e-001 6.516643e-002
 0.000000e+000 0.000000e+000 0.000000e+000 0.000000e+000 0.000000e+000
<ENDHMM>
~h "ow"
<BEGINHMM>
<NUMSTATES> 5
<STATE> 2
<MEAN> 39
 -2.363122e-001 -1.046009e+000 2.003001e-001 -4.135156e+000 -1.040955e-001 1.387446e-002 2.643730e+000 -2.726313e+000 4.965129e-001 6.573215e-001 -2.328854e+000 -1.532997e+000 5.478897e+001 9.200756e-003 8.161576e-003 -1.850229e-003 -3.019058e-002 -4.738012e-004 1.196967e-003 -1.452757e-002 1.181575e-002 -7.331741e-003 4.674947e-004 -1.245490e-003 -7.993943e-003 3.270089e-002 3.775232e-004 4.817534e-004 2.068273e-004 -3.511736e-004 2.937281e-004 -8.397284e-005 -3.884990e-004 -8.715293e-004 -9.398548e-004 3.633237e-004 -4.686478e-004 -5.096335e-004 9.381710e-004
<VARIANCE> 39
 4.604148e+001 2.636389e+001 3.432324e+001 7.944233e+001 4.292788e+001 5.822834e+001 2.601958e+001 3.491877e+001 3.472291e+001 3.290915e+001 3.307947e+001 3.304890e+001 6.941416e+001 1.304427e+000 9.651070e-001 1.272314e+000 2.019347e+000 1.628609e+000 1.827006e+000 1.669564e+000 2.087981e+000 1.865916e+000 1.725888e+000 1.701470e+000 1.606894e+000 8.505234e-001 1.677246e-001 1.365677e-001 1.767324e-001 2.773982e-001 2.511297e-001 2.823311e-001 3.157126e-001 3.632902e-001 3.252209e-001 3.011422e-001 2.968193e-001 2.758525e-001 1.013197e-001
<GCONST> 1.064108e+002
<STATE> 3
<MEAN> 39
 -1.808565e-001 -9.972111e-001 1.978475e-001 -4.295584e+000 -1.087549e-001 1.044227e-002 2.564352e+000 -2.680243e+000 4.352920e-001 6.661083e-001 -2.349325e+000 -1.581751e+000 5.497896e+001 1.109663e-002 1.060212e-002 -8.116915e-004 -3.222026e-002 7.102028e-004 5.608689e-004 -1.653695e-002 7.540760e-003 -1.302150e-002 2.249610e-003 -3.952739e-003 -1.030763e-002 3.735022e-002 3.667487e-004 4.869689e-004 1.600979e-004 -2.439369e-004 3.225231e-004 1.021665e-005 -2.827954e-004 -9.552831e-004 -1.228043e-003 3.312272e-004 -5.841213e-004 -4.391374e-004 9.457523e-004
<VARIANCE> 39
 4.688582e+001 2.648855e+001 3.448007e+001 8.168944e+001 4.296232e+001 5.826624e+001 2.630360e+001 3.522606e+001 3.566945e+001 3.332941e+001 3.403217e+001 3.326694e+001 6.866200e+001 1.350632e+000 9.729252e-001 1.276622e+000 2.085291e+000 1.641702e+000 1.830039e+000 1.687378e+000 2.104954e+000 1.884619e+000 1.742813e+000 1.731208e+000 1.615167e+000 8.740926e-001 1.741533e-001 1.382020e-001 1.774762e-001 2.844851e-001 2.533731e-001 2.824975e-001 3.183600e-001 3.658494e-001 3.271432e-001 3.038681e-001 3.001970e-001 2.760486e-001 1.042279e-001
<GCONST> 1.068862e+002
<STATE> 4
<MEAN> 39
 -1.148329e-001 -8.104336e-001 3.292412e-001 -4.572118e+000 1.912323e-002 1.278391e-002 2.302746e+000 -2.714960e+000 6.636181e-002 8.727500e-001 -2.573402e+000 -1.591233e+000 5.534642e+001 1.917409e-002 1.576333e-002 4.250991e-003 -4.286060e-002 -4.197281e-003 -7.413864e-003 -2.380595e-002 -3.431447e-003 -3.000991e-002 5.972251e-003 -1.508029e-002 -1.460761e-002 5.097343e-002 3.374334e-004 3.477435e-004 2.821899e-004 -4.061137e-004 -1.034967e-004 -2.483978e-004 -3.330959e-004 -8.593407e-004 -9.991208e-004 1.387513e-004 -6.585470e-004 -1.618677e-004 4.446178e-004
<VARIANCE> 39
 4.785574e+001 2.598380e+001 3.514480e+001 8.645356e+001 4.165023e+001 5.652110e+001 2.782010e+001 3.680912e+001 3.942260e+001 3.420359e+001 3.840617e+001 3.253975e+001 6.734534e+001 1.435015e+000 9.536810e-001 1.259739e+000 2.227355e+000 1.643447e+000 1.810620e+000 1.739520e+000 2.130357e+000 1.923535e+000 1.785143e+000 1.849921e+000 1.593848e+000 9.053650e-001 1.869662e-001 1.383778e-001 1.762915e-001 2.994728e-001 2.573343e-001 2.832167e-001 3.261589e-001 3.706705e-001 3.309950e-001 3.124439e-001 3.140770e-001 2.725209e-001 1.078793e-001
<GCONST> 1.077444e+002
<TRANSP> 5
 0.000000e+000 1.000000e+000 0.000000e+000 0.000000e+000 0.000000e+000
 0.000000e+000 7.939079e-001 2.060921e-001 0.000000e+000 0.000000e+000
 0.000000e+000 0.000000e+000 7.939073e-001 2.060926e-001 0.000000e+000
 0.000000e+000 0.000000e+000 0.000000e+000 9.290180e-001 7.098199e-002
 0.000000e+000 0.000000e+000 0.000000e+000 0.000000e+000 0.000000e+000
<ENDHMM>
~h "th"
<BEGINHMM>
<NUMSTATES> 5
<STATE> 2
<MEAN> 39
 -9.775267e-001 -1.302179e+000 1.577472e+000 -4.067027e+000 1.227689e-001 -3.171385e+000 1.853875e+000 -2.226667e+000 -3.210744e-001 -1.217164e-001 -2.512062e+000 -1.363056e+000 5.728769e+001 5.769672e-003 2.708393e-003 1.556230e-002 3.410094e-003 -1.388356e-002 -1.767095e-002 -6.872849e-003 -2.491778e-003 -5.615711e-003 1.863990e-004 1.203113e-003 1.016886e-002 6.743484e-003 6.291112e-004 -2.633488e-004 2.311786e-004 -2.822886e-004 -3.253369e-004 2.853521e-004 -1.179782e-004 -3.835421e-004 -8.534019e-005 3.318000e-004 -2.337962e-004 -2.819858e-004 -2.980668e-004
<VARIANCE> 39
 6.481515e+001 3.313506e+001 4.838913e+001 6.287515e+001 4.909362e+001 6.825579e+001 3.189086e+001 3.932362e+001 3.996463e+001 3.219001e+001 3.158931e+001 3.367381e+001 6.166989e+001 2.187094e+000 1.227732e+000 1.576287e+000 2.201126e+000 2.002909e+000 2.308317e+000 1.860437e+000 2.563897e+000 2.073297e+000 1.947139e+000 1.803932e+000 1.828419e+000 1.000283e+000 2.572858e-001 1.653500e-001 2.112316e-001 3.214116e-001 3.042330e-001 3.621341e-001 3.438206e-001 4.342370e-001 3.409094e-001 3.431352e-001 3.208442e-001 3.094243e-001 1.187482e-001
<GCONST> 1.122454e+002
<STATE> 3
<MEAN> 39
 -9.454847e-001 -1.293562e+000 1.649912e+000 -4.053689e+000 5.635237e-002 -3.252256e+000 1.819862e+000 -2.242304e+000 -3.476285e-001 -1.167157e-001 -2.510198e+000 -1.320154e+000 5.731617e+001 8.923970e-003 1.108589e-003 1.648695e-002 1.569206e-003 -1.515249e-002 -1.626903e-002 -7.345887e-003 -4.326490e-003 -6.188826e-003 1.543860e-003 -1.408257e-004 8.485762e-003 5.687495e-003 6.147230e-004 -3.208296e-004 1.855725e-004 -4.129578e-004 -2.248901e-004 3.524172e-004 -4.554346e-005 -3.919307e-004 -1.245351e-004 2.692305e-004 -2.603586e-004 -3.701319e-004 -2.474732e-004
<VARIANCE> 39
 6.501350e+001 3.299962e+001 4.914416e+001 6.239874e+001 4.935046e+001 6.871301e+001 3.205241e+001 3.944982e+001 3.995573e+001 3.210710e+001 3.154715e+001 3.352834e+001 6.142350e+001 2.195520e+000 1.228952e+000 1.575656e+000 2.195475e+000 2.003285e+000 2.292043e+000 1.861101e+000 2.570874e+000 2.064407e+000 1.958359e+000 1.806615e+000 1.816958e+000 9.868619e-001 2.575497e-001 1.652762e-001 2.102531e-001 3.214206e-001 3.045508e-001 3.598496e-001 3.435320e-001 4.353522e-001 3.386023e-001 3.449239e-001 3.205269e-001 3.070726e-001 1.172761e-001
<GCONST> 1.122108e+002
<STATE> 4
<MEAN> 39
 -7.880770e-001 -1.239835e+000 1.708840e+000 -4.120702e+000 -1.428276e-001 -3.279251e+000 1.785874e+000 -2.341925e+000 -4.083197e-001 -1.406382e-001 -2.498290e+000 -1.275928e+000 5.728901e+001 1.234360e-002 -1.903677e-003 1.521345e-002 -2.515163e-003 -1.438208e-002 -1.252379e-002 -6.531329e-003 -6.936148e-003 -7.499983e-003 1.751991e-003 -3.001740e-003 4.119969e-003 4.448304e-003 3.756733e-004 -2.267565e-004 -1.503372e-005 -4.519081e-004 2.693151e-005 5.142332e-004 1.485740e-004 -3.078192e-004 -1.344463e-004 1.128403e-005 -2.056537e-004 -4.158459e-004 -1.833688e-004
<VARIANCE> 39
 6.471573e+001 3.271769e+001 5.043769e+001 6.266459e+001 4.935942e+001 6.880103e+001 3.212714e+001 3.973967e+001 4.014510e+001 3.200022e+001 3.151297e+001 3.322566e+001 6.022298e+001 2.159198e+000 1.221901e+000 1.565604e+000 2.182462e+000 1.981696e+000 2.244766e+000 1.846831e+000 2.559055e+000 2.048862e+000 1.962851e+000 1.801063e+000 1.790294e+000 9.714695e-001 2.523063e-001 1.642944e-001 2.073344e-001 3.191479e-001 3.015603e-001 3.526128e-001 3.404192e-001 4.321603e-001 3.339912e-001 3.447665e-001 3.184138e-001 3.012391e-001 1.151557e-001
<GCONST> 1.119404e+002
<TRANSP> 5
 0.000000e+000 1.000000e+000 0.000000e+000 0.000000e+000 0.000000e+000
 0.000000e+000 7.874959e-001 2.125041e-001 0.000000e+000 0.000000e+000
 0.000000e+000 0.000000e+000 7.874945e-001 2.125054e-001 0.000000e+000
 0.000000e+000 0.000000e+000 0.000000e+000 9.204237e-001 7.957627e-002
 0.000000e+000 0.000000e+000 0.000000e+000 0.000000e+000 0.000000e+000
<ENDHMM>
~h "uh"
<BEGINHMM>
<NUMSTATES> 5
<STATE> 2
<MEAN> 39
 3.002151e+000 2.545057e+000 8.678744e-001 -8.628950e+000 -2.654374e+000 -1.441595e+000 -1.126554e+000 -3.954246e+000 -4.480788e+000 4.489857e-001 -3.822297e+000 -1.650752e+000 5.536697e+001 -4.481169e-002 1.369843e-002 5.961061e-003 5.360877e-002 3.081043e-002 4.954333e-002 3.422576e-002 -7.182036e-004 3.742007e-002 -9.917203e-003 6.895850e-002 3.738077e-002 -9.898224e-002 -5.572309e-003 -5.770986e-003 7.857108e-004 7.266316e-003 5.816738e-003 2.238579e-003 3.887442e-003 2.757318e-003 6.484762e-003 2.700780e-003 2.844774e-003 2.154196e-003 -1.664059e-003
<VARIANCE> 39
 4.205815e+001 3.275790e+001 1.738735e+001 9.302023e+001 3.913346e+001 4.352671e+001 4.521920e+001 3.569126e+001 6.505548e+001 3.428468e+001 4.571442e+001 2.365469e+001 5.034460e+001 1.123973e+000 9.260746e-001 8.575252e-001 2.754067e+000 1.599481e+000 2.042941e+000 2.723365e+000 2.157596e+000 2.368621e+000 2.306409e+000 2.327230e+000 1.430331e+000 1.595697e+000 1.511860e-001 1.444232e-001 1.442402e-001 3.701214e-001 2.585094e-001 3.550040e-001 4.779117e-001 3.723767e-001 3.503085e-001 4.199063e-001 4.022245e-001 2.624084e-001 2.414603e-001
<GCONST> 1.105024e+002
<STATE> 3
<MEAN> 39
 2.728155e+000 2.569990e+000 8.950984e-001 -8.302768e+000 -2.443292e+000 -1.156232e+000 -9.103614e-001 -3.928366e+000 -4.231711e+000 4.179190e-001 -3.446507e+000 -1.448074e+000 5.485191e+001 -7.223963e-002 -1.567108e-002 1.004343e-002 9.051296e-002 5.868308e-002 6.015698e-002 5.381421e-002 1.226602e-002 7.068255e-002 5.164279e-003 7.946224e-002 4.731296e-002 -1.074428e-001 -4.980685e-003 -5.371426e-003 6.396531e-004 7.263549e-003 4.767847e-003 2.152587e-003 3.855432e-003 2.242255e-003 6.640514e-003 2.762668e-003 9.969211e-004 1.449498e-003 -1.870353e-003
<VARIANCE> 39
