~o
<STREAMINFO> 1 39
<VECSIZE> 39<NULLD><MFCC_D_A_0><DIAGC>
~s "silst"
<MEAN> 39
 -3.402574e+000 -1.139593e+000 1.680347e+000 1.492179e+000 2.552803e+000 3.217320e+000 5.047451e+000 -4.271759e+000 1.143170e+000 1.900385e+000 -2.578136e+000 4.045681e-001 4.700097e+001 -3.544062e-002 -2.041752e-002 -3.709770e-002 1.257179e-002 -2.121042e-003 3.033317e-003 2.786336e-002 -1.032933e-002 1.567842e-002 2.942125e-002 3.232227e-002 4.307886e-002 -4.351880e-002 7.241574e-003 8.838833e-003 3.926466e-003 -1.371699e-002 -3.216059e-003 -1.441867e-002 -8.407705e-003 1.150125e-002 -9.806133e-004 -8.412841e-003 1.270836e-003 -5.968596e-003 1.680430e-002
<VARIANCE> 39
 5.022462e+000 6.864995e+000 7.800471e+000 8.523064e+000 1.130031e+001 1.500763e+001 1.524071e+001 2.021104e+001 1.827940e+001 1.818638e+001 1.918165e+001 1.320030e+001 4.552237e+000 1.575566e-001 3.169634e-001 4.863573e-001 6.283066e-001 8.549983e-001 1.077270e+000 1.263373e+000 1.500345e+000 1.464992e+000 1.450102e+000 1.340136e+000 1.169744e+000 1.043084e-001 2.995354e-002 5.745567e-002 9.316333e-002 1.259903e-001 1.751124e-001 2.211685e-001 2.582197e-001 3.011884e-001 3.063290e-001 2.974322e-001 2.716150e-001 2.394022e-001 1.812625e-002
<GCONST> 7.269783e+001
~h "d"
<BEGINHMM>
<NUMSTATES> 5
<STATE> 2
<MEAN> 39
 -2.034691e+000 -7.476250e-001 6.814784e-001 6.644047e-001 6.239509e-001 3.381530e+000 5.830845e+000 -2.535455e+000 4.549591e+000 4.868306e+000 -1.332112e-001 2.225940e+000 4.703224e+001 -4.458241e-001 -2.773861e-001 -2.867049e-001 1.202305e-001 1.620097e-001 5.115322e-001 5.122265e-001 2.452787e-001 1.887117e-001 -7.231902e-002 1.422074e-001 2.076966e-001 -3.917330e-001 7.347468e-002 6.950954e-002 7.121797e-002 -2.433426e-001 1.214630e-001 -2.690791e-001 -3.713606e-001 -1.090110e-001 -4.313428e-001 -2.219200e-001 -1.993744e-001 -1.232770e-001 3.807571e-001
<VARIANCE> 39
 5.889606e+000 4.551553e+000 6.198794e+000 9.409513e+000 1.092571e+001 1.744578e+001 1.630641e+001 2.408766e+001 1.516815e+001 1.671837e+001 1.698403e+001 1.754059e+001 4.892709e+000 6.169624e-001 5.801338e-001 6.427300e-001 9.245774e-001 1.146436e+000 1.364144e+000 2.021942e+000 2.190389e+000 1.929271e+000 1.699442e+000 1.710729e+000 1.531337e+000 7.183443e-001 1.027300e-001 9.311735e-002 1.478818e-001 1.923554e-001 2.128061e-001 3.207433e-001 3.822082e-001 4.272515e-001 2.384913e-001 3.710170e-001 3.486823e-001 2.512631e-001 1.323003e-001
<GCONST> 8.569437e+001
<STATE> 3
<MEAN> 39
 -4.757743e+000 -7.643007e-002 2.450372e+000 1.388909e+000 2.373811e+000 1.808017e+000 5.275850e+000 -4.650018e+000 -2.588724e-001 3.743706e-001 -2.869253e+000 7.392116e-002 4.705195e+001 3.219367e-005 -2.927687e-002 3.359209e-003 -7.686228e-003 7.547867e-002 1.134594e-002 -4.738566e-002 -1.841536e-002 -7.669302e-002 -7.403708e-002 -2.486756e-002 1.298910e-002 1.299399e-002 8.703548e-003 -6.251855e-002 -4.711789e-002 -1.480663e-001 -2.341606e-002 -1.554016e-001 -9.545814e-002 1.075107e-001 2.166694e-002 -1.253962e-002 3.415065e-002 2.248556e-002 2.068804e-001
<VARIANCE> 39
 5.087541e+000 5.295419e+000 5.743515e+000 8.015766e+000 9.657932e+000 1.370033e+001 1.362956e+001 1.705459e+001 1.920568e+001 1.833429e+001 1.815265e+001 1.311640e+001 2.861631e+000 2.809021e-001 5.091622e-001 6.067524e-001 7.361624e-001 9.954549e-001 1.259594e+000 1.366741e+000 1.653294e+000 1.660933e+000 1.876722e+000 1.531105e+000 1.477065e+000 1.870807e-001 7.752863e-002 1.204249e-001 1.314004e-001 2.313650e-001 2.134899e-001 3.428274e-001 3.190863e-001 3.856346e-001 4.032686e-001 4.126157e-001 3.681104e-001 3.210202e-001 2.147635e-001
<GCONST> 8.174554e+001
<STATE> 4
<MEAN> 39
 -5.234363e+000 -2.506775e+000 9.513354e-001 -2.901100e+000 2.229742e+000 5.235418e-001 2.425384e+000 -5.046560e-001 2.348849e+000 1.436353e+000 -3.554248e-001 2.347644e+000 5.231917e+001 3.618407e-001 -4.118305e-001 -2.032787e-001 -1.573510e+000 8.819678e-002 -2.197782e+000 -1.087919e+000 1.269875e+000 -3.500568e-001 -6.527491e-001 -6.876353e-001 -3.707087e-001 2.670544e+000 5.031281e-001 -7.385942e-002 2.406969e-002 -1.607279e-001 5.527164e-002 -2.790062e-001 -3.147695e-002 1.348577e-001 -1.456208e-002 9.685452e-002 -5.791372e-001 -4.903466e-001 3.713517e-001
<VARIANCE> 39
 2.221373e+001 1.281318e+001 1.559487e+001 3.545044e+001 1.800193e+001 3.336301e+001 2.381437e+001 3.694978e+001 2.020461e+001 2.332583e+001 2.221044e+001 1.245030e+001 4.794326e+001 4.207620e+000 1.613583e+000 2.081831e+000 4.128935e+000 2.300795e+000 4.746041e+000 2.553198e+000 4.005164e+000 2.670079e+000 2.620032e+000 3.944630e+000 2.266614e+000 6.082685e+000 6.483269e-001 3.223539e-001 3.801244e-001 5.928904e-001 4.418174e-001 8.032882e-001 4.605311e-001 7.778429e-001 4.701589e-001 5.403053e-001 5.914903e-001 5.249866e-001 1.015746e+000
<GCONST> 1.195504e+002
<TRANSP> 5
 0.000000e+000 1.000000e+000 0.000000e+000 0.000000e+000 0.000000e+000
 0.000000e+000 5.072305e-001 4.927695e-001 0.000000e+000 0.000000e+000
 0.000000e+000 0.000000e+000 8.360888e-001 1.639112e-001 0.000000e+000
 0.000000e+000 0.000000e+000 0.000000e+000 7.581666e-001 2.418334e-001
 0.000000e+000 0.000000e+000 0.000000e+000 0.000000e+000 0.000000e+000
<ENDHMM>
~h "f"
<BEGINHMM>
<NUMSTATES> 5
<STATE> 2
<MEAN> 39
 -1.338626e+000 -8.988279e-001 1.077483e+000 1.178021e+000 3.189559e+000 3.369716e+000 3.592277e+000 -1.540564e+000 1.799314e+000 1.520302e+000 -1.446292e+000 -1.318894e-001 5.176809e+001 -7.315265e-001 -3.237537e-001 4.794853e-002 7.110633e-001 6.827945e-001 2.171825e-001 -1.331431e-001 7.356093e-001 3.357567e-001 4.758152e-002 3.608699e-001 -1.273656e-002 7.756839e-001 -2.125862e-001 -1.164303e-001 -2.944317e-002 -8.758803e-002 -5.102787e-002 -1.031496e-001 -6.494685e-002 1.086819e-001 -1.201460e-003 4.060455e-002 5.779078e-002 6.913795e-002 2.336594e-001
<VARIANCE> 39
 1.835507e+001 1.183332e+001 1.367424e+001 1.609353e+001 1.707669e+001 2.106129e+001 2.016494e+001 2.419995e+001 2.256635e+001 2.158840e+001 1.869633e+001 1.669748e+001 3.442567e+001 2.552949e+000 1.140535e+000 1.301007e+000 2.597314e+000 1.871175e+000 2.255043e+000 1.785770e+000 2.654350e+000 2.288667e+000 1.941482e+000 2.040837e+000 1.507443e+000 1.561491e+000 2.450212e-001 1.651312e-001 1.927379e-001 2.952194e-001 3.258061e-001 3.708001e-001 3.670661e-001 4.278048e-001 3.706355e-001 3.685620e-001 3.110593e-001 2.958681e-001 1.701036e-001
<GCONST> 1.021550e+002
<STATE> 3
<MEAN> 39
 -9.635501e+000 -4.358809e+000 -5.016835e-001 3.140913e+000 3.738883e+000 3.141504e+000 2.123398e+000 3.258983e+000 3.155847e+000 1.794202e+000 5.275825e-001 3.626180e-001 6.061857e+001 -3.388148e-001 -3.063601e-001 -3.426496e-001 -1.084339e-001 -1.148588e-001 3.269705e-002 -3.779283e-002 1.551422e-001 6.922323e-002 9.670139e-002 6.416102e-002 6.129555e-002 2.297647e-001 4.581601e-001 1.597049e-001 -6.169264e-003 -2.859563e-001 -9.579822e-002 -6.064278e-002 -4.639992e-002 -2.160348e-001 -1.359838e-001 -3.411765e-002 -1.091833e-001 -1.439756e-001 -9.200478e-002
<VARIANCE> 39
 9.919563e+000 1.290062e+001 1.373731e+001 1.427475e+001 1.465522e+001 1.469805e+001 1.649925e+001 1.461825e+001 1.637090e+001 1.537573e+001 1.427703e+001 1.388330e+001 1.353999e+001 1.861120e+000 9.147233e-001 9.485337e-001 1.311468e+000 1.429361e+000 1.536724e+000 1.774743e+000 1.675082e+000 1.754106e+000 1.707324e+000 1.641829e+000 1.605526e+000 1.041400e+000 3.236423e-001 2.014000e-001 2.013024e-001 3.962098e-001 3.363192e-001 3.240705e-001 3.844759e-001 3.621917e-001 3.850128e-001 3.637908e-001 3.241128e-001 3.531296e-001 1.198552e-001
<GCONST> 9.512048e+001
<STATE> 4
<MEAN> 39
 1.047112e-001 -1.781871e+000 -2.779834e+000 -5.033147e+000 1.780939e+000 2.725490e+000 1.234317e-002 -4.717853e-001 1.862343e-001 1.927446e+000 -1.283628e+000 -3.588785e+000 6.109945e+001 4.464077e+000 1.629470e+000 -1.412694e+000 -4.832709e+000 -1.323532e+000 5.469378e-001 -1.401760e+000 -1.832535e+000 -1.557961e+000 3.625408e-001 -3.380748e-001 -2.000055e+000 7.924064e-001 -2.181220e-001 -1.322793e-001 -3.993434e-001 -5.543807e-001 -1.183343e-001 3.882790e-001 -3.950939e-002 7.455343e-002 -4.736733e-002 2.521934e-002 1.280318e-001 -1.018106e-001 3.134037e-001
<VARIANCE> 39
 5.937597e+001 1.798382e+001 1.562499e+001 6.525679e+001 1.636653e+001 1.327780e+001 1.716083e+001 2.364327e+001 2.121063e+001 1.904495e+001 1.570663e+001 2.210187e+001 1.267031e+001 1.593889e+000 1.598038e+000 2.178783e+000 4.215421e+000 1.836284e+000 2.384794e+000 1.800330e+000 1.591913e+000 1.976755e+000 2.919716e+000 2.176677e+000 2.849989e+000 8.300723e-001 1.369659e+000 4.587512e-001 2.573790e-001 1.189163e+000 4.135289e-001 3.207438e-001 4.526870e-001 4.965895e-001 4.436810e-001 4.054908e-001 3.304735e-001 4.468469e-001 1.070831e-001
<GCONST> 1.094056e+002
<TRANSP> 5
 0.000000e+000 1.000000e+000 0.000000e+000 0.000000e+000 0.000000e+000
 0.000000e+000 8.060361e-001 1.939638e-001 0.000000e+000 0.000000e+000
 0.000000e+000 0.000000e+000 9.098079e-001 9.019216e-002 0.000000e+000
 0.000000e+000 0.000000e+000 0.000000e+000 6.973292e-001 3.026708e-001
 0.000000e+000 0.000000e+000 0.000000e+000 0.000000e+000 0.000000e+000
<ENDHMM>
~h "k"
<BEGINHMM>
<NUMSTATES> 5
<STATE> 2
<MEAN> 39
 -7.441927e+000 5.601428e-001 -4.605020e+000 2.366804e+000 7.198526e+000 -5.071043e+000 2.996469e+000 -2.888181e+000 3.022617e+000 2.820859e+000 -8.174226e-001 -9.779512e-001 5.588803e+001 -1.797062e+000 -3.998989e-002 -9.360666e-001 1.383819e-001 9.827224e-001 1.210832e+000 1.006862e-001 2.064959e-001 1.624274e+000 1.588525e-001 6.434496e-001 2.001953e-001 3.165931e-001 1.196493e-001 -1.669692e-002 3.687094e-001 -1.596978e-001 -4.072915e-001 -3.524535e-001 -3.827421e-002 2.066799e-001 -4.054174e-001 -2.496744e-002 7.503524e-002 -3.281480e-002 2.561537e-001
<VARIANCE> 39
 3.458084e+001 1.183606e+001 3.325731e+001 2.124916e+001 3.206976e+001 4.228425e+001 2.049568e+001 2.603017e+001 4.082696e+001 2.062451e+001 2.601429e+001 1.854536e+001 2.802563e+001 1.684902e+000 1.180630e+000 6.171161e+000 2.825197e+000 4.153057e+000 5.338019e+000 2.609021e+000 3.389495e+000 5.613914e+000 2.291857e+000 2.370239e+000 2.088866e+000 2.118964e+000 3.617505e-001 2.827111e-001 9.299299e-001 6.601345e-001 6.401166e-001 7.376071e-001 5.171649e-001 6.074088e-001 8.568138e-001 4.796111e-001 5.327374e-001 4.077077e-001 3.793390e-001
<GCONST> 1.196595e+002
<STATE> 3
<MEAN> 39
 -1.413840e+001 3.980480e+000 -3.911836e+000 2.618469e+000 9.177893e+000 -2.827754e+000 3.234552e+000 -2.382435e-001 5.290152e+000 2.999124e+000 1.121758e+000 -1.442763e+000 5.696786e+001 1.966496e-001 1.830048e-001 8.492609e-002 -1.574907e-001 -1.351747e-001 1.227298e-001 1.108755e-001 -3.642919e-002 -1.275265e-001 -9.040769e-002 -9.146576e-002 -1.009266e-001 -1.968575e-001 1.280394e-001 -5.084156e-002 9.390732e-004 -4.308271e-002 -1.341711e-002 1.378696e-002 1.205609e-002 -6.630482e-002 -5.692577e-002 -2.976245e-002 -3.727891e-002 5.203480e-003 -5.879806e-002
<VARIANCE> 39
 1.403805e+001 8.699563e+000 9.767234e+000 1.901933e+001 1.884350e+001 1.861154e+001 1.729561e+001 1.640113e+001 2.003485e+001 1.526517e+001 1.691459e+001 1.527887e+001 2.159194e+001 4.092031e-001 5.545008e-001 6.102309e-001 7.789411e-001 9.764386e-001 1.421502e+000 1.341199e+000 1.474758e+000 1.604267e+000 1.481301e+000 1.296025e+000 1.356432e+000 3.040318e-001 6.938930e-002 7.820418e-002 1.044302e-001 1.455255e-001 2.149674e-001 3.015248e-001 2.946382e-001 2.848266e-001 3.384655e-001 3.194873e-001 2.715017e-001 2.872593e-001 3.361933e-002
<GCONST> 8.380125e+001
<STATE> 4
<MEAN> 39
 -4.066635e+000 -2.835584e+000 -8.805358e-001 2.996686e-001 3.639982e+000 9.731752e-001 4.812900e+000 -3.107573e-001 4.964917e+000 3.807137e+000 3.366683e-001 1.400118e+000 5.055641e+001 1.013443e-001 2.616620e-002 3.471241e-003 3.286277e-002 -3.212208e-002 6.176637e-002 4.201431e-002 3.622524e-002 -1.065197e-001 2.514259e-002 -7.837322e-002 4.697056e-003 -3.827394e-002 -2.914836e-003 1.462162e-002 1.301042e-002 -1.227577e-002 5.508773e-002 -8.002621e-003 -8.428503e-003 -5.692140e-003 -1.169624e-002 -2.048157e-002 -9.807260e-004 -5.814190e-003 1.012871e-002
<VARIANCE> 39
 1.926006e+001 1.646575e+001 8.896452e+000 1.037726e+001 1.863116e+001 1.839004e+001 1.722580e+001 1.918126e+001 1.681917e+001 2.166849e+001 1.417855e+001 1.286376e+001 1.755512e+001 3.253696e-001 4.025973e-001 4.738704e-001 6.564107e-001 9.472408e-001 1.235822e+000 1.505047e+000 1.490317e+000 1.315051e+000 1.589105e+000 1.201327e+000 1.050472e+000 2.533575e-001 5.817825e-002 6.477666e-002 1.039832e-001 1.337724e-001 1.846029e-001 2.314888e-001 3.172309e-001 2.928709e-001 2.691461e-001 3.257436e-001 2.496366e-001 2.227274e-001 3.494212e-002
<GCONST> 8.086748e+001
<TRANSP> 5
 0.000000e+000 1.000000e+000 0.000000e+000 0.000000e+000 0.000000e+000
 0.000000e+000 8.228287e-001 1.771713e-001 0.000000e+000 0.000000e+000
 0.000000e+000 0.000000e+000 8.164024e-001 1.835976e-001 0.000000e+000
 0.000000e+000 0.000000e+000 0.000000e+000 8.049605e-001 1.950395e-001
 0.000000e+000 0.000000e+000 0.000000e+000 0.000000e+000 0.000000e+000
<ENDHMM>
~h "l"
<BEGINHMM>
<NUMSTATES> 5
<STATE> 2
<MEAN> 39
 7.119117e-001 -2.389158e+000 3.297742e+000 -6.114100e+000 2.196144e+000 -7.076309e+000 -3.311217e+000 -3.492882e+000 -2.793621e-001 4.088212e+000 -6.228920e+000 2.441588e-001 6.122504e+001 -3.900577e-001 -4.387401e-001 -1.319609e-001 -3.189098e-001 2.730380e-001 -5.073801e-001 -6.422615e-001 5.180259e-001 9.822866e-001 -2.140305e-001 -9.272178e-002 -1.080061e-001 1.038227e+000 6.657348e-002 -1.626031e-002 -9.105565e-002 -1.598169e-001 2.418888e-002 2.600244e-001 2.713353e-001 3.018516e-002 -1.411536e-001 -1.297950e-001 9.316968e-002 -1.796889e-001 -3.865601e-002
<VARIANCE> 39
 3.077133e+001 2.500586e+001 5.368703e+001 4.178980e+001 3.258476e+001 5.604874e+001 6.868779e+001 6.883162e+001 8.347151e+001 4.362891e+001 4.765960e+001 2.720681e+001 4.621271e+001 7.692378e-001 1.800954e+000 3.130756e+000 2.715578e+000 2.964950e+000 4.281393e+000 4.049376e+000 3.602922e+000 3.938823e+000 3.944901e+000 3.861811e+000 3.095040e+000 4.239654e+000 1.678584e-001 2.908069e-001 5.123947e-001 4.339362e-001 5.531383e-001 8.264866e-001 7.773311e-001 6.565984e-001 9.830051e-001 6.779429e-001 6.657298e-001 6.684115e-001 7.305822e-001
<GCONST> 1.280595e+002
<STATE> 3
<MEAN> 39
 2.202758e+000 -5.767610e+000 -1.417337e+000 -1.152017e+001 5.910416e+000 -4.642532e+000 1.628815e+000 -1.160881e+000 5.405041e-001 1.282751e+000 -5.757137e+000 -6.518573e+000 6.580365e+001 1.280234e+000 5.946375e-001 -5.940655e-001 -1.661937e+000 1.331485e-001 8.116180e-001 1.537735e-001 -1.476431e+000 -1.706522e+000 3.914324e-001 -1.783108e-001 -1.068926e+000 3.758636e-001 -4.415309e-002 1.502233e-001 8.012923e-003 -7.322194e-002 -2.181759e-001 2.530874e-002 -1.667379e-001 -1.447524e-001 -1.138631e-001 1.186198e-001 1.765158e-002 3.855439e-001 3.196953e-003
<VARIANCE> 39
 2.619502e+001 1.916789e+001 6.266449e+001 3.646395e+001 4.887996e+001 7.527270e+001 4.859099e+001 3.996638e+001 5.063467e+001 3.491206e+001 4.095986e+001 4.769870e+001 9.027371e+000 2.113435e+000 2.180648e+000 2.057911e+000 2.559113e+000 3.095082e+000 3.212960e+000 3.728306e+000 3.451063e+000 4.304974e+000 3.122631e+000 2.488416e+000 5.209382e+000 8.444942e-001 4.442247e-001 3.937015e-001 2.331906e-001 3.782445e-001 3.702551e-001 4.776203e-001 5.273071e-001 8.593056e-001 7.967023e-001 5.352450e-001 5.350069e-001 6.080236e-001 1.310498e-001
<GCONST> 1.209965e+002
<STATE> 4
<MEAN> 39
 6.135802e+000 -1.488877e+000 -2.087393e+000 -1.958078e+001 3.565682e+000 -3.202412e+000 -1.578421e+000 -6.031410e+000 -5.557139e+000 2.857231e+000 -7.343539e+000 -3.715243e+000 6.606738e+001 -3.973369e-003 4.050739e-001 -1.134632e-002 4.840643e-002 -9.856933e-002 3.126779e-001 -7.970912e-002 -3.047066e-001 -1.272779e-001 -1.535608e-001 2.131182e-001 3.138132e-001 -3.066918e-001 -8.068919e-002 -1.948086e-002 2.658181e-002 2.613083e-001 1.907463e-002 6.949588e-003 7.673288e-002 1.110481e-001 9.782533e-002 -6.033204e-002 2.041595e-002 -3.660415e-002 -5.057516e-002
<VARIANCE> 39
 6.523997e+000 2.671132e+001 7.824742e+001 5.029448e+001 3.991753e+001 8.589576e+001 3.686516e+001 3.204069e+001 3.764251e+001 3.388393e+001 3.311832e+001 3.388450e+001 1.448501e+001 2.158564e-001 7.813069e-001 1.170631e+000 1.958079e+000 1.386441e+000 1.961518e+000 1.564815e+000 1.844690e+000 1.803291e+000 1.766764e+000 1.534649e+000 1.574773e+000 3.956032e-001 7.206714e-002 1.157511e-001 1.357701e-001 2.328282e-001 1.975020e-001 2.462839e-001 2.200616e-001 3.233722e-001 2.673617e-001 2.632555e-001 2.283297e-001 2.588021e-001 5.288054e-002
<GCONST> 9.707199e+001
<TRANSP> 5
 0.000000e+000 1.000000e+000 0.000000e+000 0.000000e+000 0.000000e+000
 0.000000e+000 7.319259e-001 2.680742e-001 0.000000e+000 0.000000e+000
 0.000000e+000 0.000000e+000 5.686417e-001 4.313582e-001 0.000000e+000
 0.000000e+000 0.000000e+000 0.000000e+000 8.822309e-001 1.177691e-001
 0.000000e+000 0.000000e+000 0.000000e+000 0.000000e+000 0.000000e+000
<ENDHMM>
~h "n"
<BEGINHMM>
<NUMSTATES> 5
<STATE> 2
<MEAN> 39
 4.361769e+000 -5.419416e+000 5.856422e+000 -8.479081e+000 -4.634290e+000 -9.985106e+000 5.131673e+000 -5.220716e-001 -5.994895e+000 -4.628491e+000 -8.697870e+000 -1.315458e+000 6.323402e+001 -4.174315e-002 1.382836e+000 1.728183e+000 3.258534e-001 -8.421145e-001 -4.788992e-001 -6.388776e-001 -6.712027e-001 -8.739624e-001 7.888819e-001 4.069364e-001 7.884370e-001 -8.647510e-001 2.661599e-004 2.210836e-001 -2.089020e-001 1.393945e-001 3.074683e-001 2.756526e-001 -3.708475e-001 -3.934602e-001 1.717731e-001 1.438888e-001 6.161721e-003 -3.236607e-001 -1.052829e-001
<VARIANCE> 39
 8.732113e+000 2.612369e+001 3.047000e+001 2.586734e+001 2.357209e+001 3.386101e+001 2.942997e+001 3.537753e+001 2.366707e+001 5.201807e+001 2.948333e+001 3.051226e+001 2.595440e+001 3.597288e-001 1.068994e+000 1.221852e+000 9.804545e-001 1.910753e+000 1.983266e+000 2.694603e+000 2.635579e+000 1.720147e+000 1.915360e+000 2.107134e+000 1.702162e+000 4.355545e-001 6.815506e-002 1.206903e-001 2.841666e-001 1.955256e-001 3.247216e-001 2.881291e-001 3.513697e-001 3.769854e-001 2.897148e-001 3.283896e-001 3.367577e-001 3.269022e-001 5.894351e-002
<GCONST> 9.926569e+001
<STATE> 3
<MEAN> 39
 4.513850e+000 2.245460e+000 9.561172e+000 -5.458127e+000 -3.775918e+000 -7.676620e+000 -7.867448e-001 -7.087083e+000 -8.145817e+000 2.790037e-001 -6.839889e+000 -2.652372e+000 5.787817e+001 2.646651e-001 1.214326e+000 -1.606888e-001 1.559801e+000 3.996014e-001 1.422165e-001 -7.246896e-001 -1.822064e+000 5.520877e-001 1.204552e+000 -5.442684e-001 -9.533752e-001 -9.905417e-001 -3.348269e-002 -3.048708e-001 -3.452355e-001 6.131377e-002 -7.913286e-003 2.647715e-004 3.249502e-001 1.361429e-001 3.830604e-001 -4.121777e-002 -1.183282e-001 -6.474438e-002 1.159828e-001
<VARIANCE> 39
 1.072818e+001 1.335006e+001 2.641884e+001 3.440801e+001 2.132195e+001 4.133952e+001 3.468227e+001 3.797039e+001 2.666505e+001 5.107291e+001 3.704750e+001 3.299268e+001 2.076708e+001 9.510176e-001 1.168328e+000 2.568608e+000 2.024657e+000 1.750353e+000 3.671744e+000 2.961422e+000 3.229299e+000 2.178503e+000 1.967153e+000 2.541402e+000 2.313518e+000 1.142547e+000 1.352891e-001 1.817811e-001 3.056365e-001 3.736660e-001 2.751401e-001 4.312465e-001 4.465894e-001 4.921161e-001 3.999963e-001 3.772220e-001 3.890594e-001 3.925804e-001 9.575547e-002
<GCONST> 1.083716e+002
<STATE> 4
<MEAN> 39
 6.007476e+000 4.198928e+000 7.337120e+000 -2.074407e+000 -3.120654e+000 -7.355110e+000 -1.344672e+000 -1.350002e+001 -6.282425e+000 6.740182e+000 -1.438429e+001 -5.767109e+000 5.654664e+001 -3.089187e-001 -8.746484e-003 -1.479460e-001 4.777547e-001 3.013784e-001 5.277534e-001 3.370200e-001 1.425793e-001 5.764496e-001 -5.595430e-002 2.204840e-001 5.796765e-002 -3.702161e-001 -1.527845e-001 -1.833106e-001 -1.557298e-001 -1.732475e-001 1.327412e-001 1.614939e-001 6.504007e-002 4.310958e-001 7.362342e-003 -2.161974e-001 2.962264e-001 1.180357e-001 6.077013e-002
<VARIANCE> 39
 5.923234e+000 6.564332e+000 8.789374e+000 3.054053e+001 1.879616e+001 3.173736e+001 3.206374e+001 2.984958e+001 2.211230e+001 3.983884e+001 4.854723e+001 1.986934e+001 1.579955e+001 5.314397e-001 6.399311e-001 9.019958e-001 1.199021e+000 1.302542e+000 2.170827e+000 1.634967e+000 2.397160e+000 1.428745e+000 1.919526e+000 2.564628e+000 1.407191e+000 4.517457e-001 1.069943e-001 1.134986e-001 1.857309e-001 2.071898e-001 2.463492e-001 3.005905e-001 3.085149e-001 3.978155e-001 2.537826e-001 3.839651e-001 3.699220e-001 2.634815e-001 6.505648e-002
<GCONST> 9.374235e+001
<TRANSP> 5
 0.000000e+000 1.000000e+000 0.000000e+000 0.000000e+000 0.000000e+000
 0.000000e+000 6.304862e-001 3.695138e-001 0.000000e+000 0.000000e+000
 0.000000e+000 0.000000e+000 6.023462e-001 3.976538e-001 0.000000e+000
 0.000000e+000 0.000000e+000 0.000000e+000 8.325611e-001 1.674389e-001
 0.000000e+000 0.000000e+000 0.000000e+000 0.000000e+000 0.000000e+000
<ENDHMM>
~h "r"
<BEGINHMM>
<NUMSTATES> 5
<STATE> 2
<MEAN> 39
 1.057696e+001 -6.585455e+000 -5.662606e-001 9.309375e-001 -9.313950e+000 -8.309747e+000 -2.452090e+000 -8.276375e+000 -1.305293e-002 5.579466e+000 -1.886150e+000 -7.249501e+000 6.214522e+001 1.002382e+000 -6.625145e-001 -7.463164e-001 8.579692e-001 -1.119370e+000 -6.719714e-001 8.107912e-001 -5.704451e-001 -1.627493e+000 3.614646e-001 9.254357e-001 2.790656e-001 -2.557161e-001 -5.035579e-001 3.283551e-001 1.704286e-001 -5.951120e-001 6.373352e-001 1.088159e-001 -1.065436e-001 5.848554e-001 2.013416e-001 -3.836628e-001 -6.708700e-002 2.942728e-001 6.590011e-002
<VARIANCE> 39
 5.913958e+000 7.047780e+000 3.997315e+001 1.626421e+001 1.177186e+001 2.815546e+001 1.546972e+001 1.871529e+001 1.277698e+001 1.399490e+001 2.498745e+001 1.156627e+001 8.588825e+000 6.459805e-001 1.100987e+000 1.149435e+000 2.841954e+000 1.553480e+000 2.277327e+000 1.272451e+000 1.586780e+000 1.214818e+000 1.183644e+000 1.198122e+000 1.187764e+000 2.120400e-001 1.620515e-001 1.074210e-001 2.404688e-001 2.903711e-001 3.626722e-001 3.042023e-001 2.754445e-001 3.809562e-001 2.718285e-001 2.194347e-001 3.173330e-001 1.884989e-001 3.641788e-002
<GCONST> 8.821373e+001
<STATE> 3
<MEAN> 39
 1.203216e+001 -7.117084e+000 -3.831976e+000 -1.380206e+000 -1.117732e+001 -6.474677e+000 -1.607378e+000 -9.521332e+000 -2.569308e+000 5.557032e+000 8.727346e-001 -5.552408e+000 6.270933e+001 -1.433210e-001 4.512886e-002 7.321727e-001 -1.224620e+000 -4.445734e-001 3.352100e-001 7.446282e-002 7.710360e-003 -2.026567e-001 -3.255374e-001 -1.658369e-001 8.635153e-001 9.367600e-002 -2.699205e-001 9.673024e-002 4.303974e-001 -4.064687e-001 1.095060e-001 -5.125800e-002 -9.428425e-002 3.438434e-001 2.503623e-001 -3.323459e-001 -3.043453e-001 1.767442e-001 8.252821e-002
<VARIANCE> 39
 3.339396e+000 6.807899e+000 3.983337e+001 1.635470e+001 1.468481e+001 4.748212e+001 2.455828e+001 1.984791e+001 1.704321e+001 1.362056e+001 2.606338e+001 1.579137e+001 7.395380e+000 2.555242e-001 7.104058e-001 9.232569e-001 9.642326e-001 5.943748e-001 1.507943e+000 1.312219e+000 2.179004e+000 1.979275e+000 9.899657e-001 1.290022e+000 1.074229e+000 3.217353e-001 4.395242e-002 5.817233e-002 9.390167e-002 1.171460e-001 1.380364e-001 1.993168e-001 1.980595e-001 2.191344e-001 2.814769e-001 1.790290e-001 2.471084e-001 1.911651e-001 2.155007e-002
<GCONST> 7.938110e+001
<STATE> 4
<MEAN> 39
 1.067468e+001 -4.920553e+000 -1.393602e+000 -8.746618e+000 -1.330314e+001 -2.510192e+000 3.977242e-001 -9.701219e+000 -2.292647e+000 1.714698e+000 -9.286793e-001 -1.771694e+000 6.278234e+001 -6.548585e-001 7.877138e-001 1.362248e+000 -2.214127e+000 5.003718e-001 -2.868627e-001 -2.881872e-001 1.530788e+000 -5.453175e-001 -1.500977e+000 -4.277268e-001 1.367451e+000 -1.727437e-002 -1.363646e-001 1.452852e-001 -1.458670e-002 1.279711e-001 3.241998e-001 -3.651814e-001 -8.605114e-002 3.259819e-001 -2.434773e-001 -5.964548e-002 2.200224e-001 -1.759167e-001 -2.240353e-002
<VARIANCE> 39
 5.073761e+000 2.521321e+001 5.697073e+001 3.355833e+001 2.037388e+001 1.130550e+002 4.863633e+001 6.144557e+001 3.095198e+001 2.106265e+001 2.474346e+001 1.838264e+001 9.049891e+000 3.679947e-001 8.850417e-001 8.538702e-001 1.041598e+000 1.625584e+000 2.738192e+000 2.034519e+000 2.501781e+000 2.120029e+000 1.570226e+000 1.842744e+000 1.462575e+000 5.395233e-001 2.738865e-002 8.888236e-002 8.596870e-002 1.796506e-001 2.023135e-001 1.620525e-001 5.231107e-001 4.941357e-001 3.671530e-001 2.744258e-001 2.544696e-001 3.178348e-001 2.658978e-002
<GCONST> 9.469386e+001
<TRANSP> 5
 0.000000e+000 1.000000e+000 0.000000e+000 0.000000e+000 0.000000e+000
 0.000000e+000 5.328842e-001 4.671158e-001 0.000000e+000 0.000000e+000
 0.000000e+000 0.000000e+000 6.952262e-001 3.047738e-001 0.000000e+000
 0.000000e+000 0.000000e+000 0.000000e+000 6.229751e-001 3.770249e-001
 0.000000e+000 0.000000e+000 0.000000e+000 0.000000e+000 0.000000e+000
<ENDHMM>
~h "s"
<BEGINHMM>
<NUMSTATES> 5
<STATE> 2
<MEAN> 39
 -4.822705e+000 1.925979e+000 -1.058895e-001 -1.994079e+000 5.984738e+000 -1.592633e+000 2.142562e+000 -4.803848e-001 2.649208e-001 1.143391e+000 -1.345442e+000 -2.023984e+000 5.764578e+001 -2.340929e+000 1.438700e-001 -5.606602e-001 8.267570e-001 1.026568e+000 -1.206895e-001 9.189850e-002 1.555608e+000 8.778002e-001 -2.585351e-001 1.177534e+000 2.176563e-001 4.544620e-001 -7.067365e-002 -3.580657e-002 -7.911108e-002 -1.455126e-001 -2.370374e-001 -1.197438e-001 -9.377928e-003 -8.534297e-002 -8.196346e-003 7.418269e-002 -6.933372e-002 1.376929e-001 6.345786e-002
<VARIANCE> 39
 4.872047e+001 1.610544e+001 1.845177e+001 3.969600e+001 4.274125e+001 2.585051e+001 3.164154e+001 3.847266e+001 3.040816e+001 2.982829e+001 3.281358e+001 2.324151e+001 3.768574e+001 3.663774e+000 1.250415e+000 1.915721e+000 3.745821e+000 2.826914e+000 3.238093e+000 2.320523e+000 2.964107e+000 2.589835e+000 2.658292e+000 3.522826e+000 2.328802e+000 1.140715e+000 5.865108e-001 2.349799e-001 2.414792e-001 5.133170e-001 4.535452e-001 5.253589e-001 3.918821e-001 6.402841e-001 4.321054e-001 4.540808e-001 5.193909e-001 4.269235e-001 1.382416e-001
<GCONST> 1.159276e+002
<STATE> 3
<MEAN> 39
 -1.527774e+001 3.785366e+000 -4.219968e+000 5.154328e-001 5.760794e+000 -2.703800e+000 3.987649e+000 3.139863e+000 3.364849e+000 1.272112e-001 1.946283e+000 9.079456e-001 5.957295e+001 -1.837728e-001 9.270569e-002 -1.188919e-001 -1.010033e-001 -1.294669e-001 -3.406804e-002 1.967271e-001 2.266268e-002 1.067412e-001 -8.727819e-002 -7.967079e-002 1.707757e-001 -4.446520e-002 3.510631e-001 -4.693273e-002 1.816712e-001 -1.030539e-001 -3.152236e-002 -5.886991e-002 -6.408073e-002 -7.028993e-002 -6.535119e-002 -3.147296e-002 -1.615348e-001 -1.138800e-001 -4.045787e-002
<VARIANCE> 39
 5.934824e+000 9.833303e+000 1.144964e+001 1.585841e+001 3.089139e+001 1.664274e+001 2.004783e+001 1.869041e+001 1.730096e+001 1.880773e+001 1.449978e+001 1.655262e+001 1.567471e+001 7.002869e-001 6.546657e-001 9.430158e-001 1.165742e+000 1.365095e+000 1.369930e+000 1.510808e+000 1.671089e+000 1.642776e+000 1.657806e+000 1.395397e+000 1.521243e+000 3.405296e-001 2.088999e-001 1.125805e-001 1.756684e-001 2.161423e-001 2.551640e-001 3.186668e-001 3.061241e-001 3.436294e-001 3.369710e-001 3.354859e-001 3.123135e-001 3.041667e-001 6.059938e-002
<GCONST> 8.955632e+001
<STATE> 4
<MEAN> 39
 -1.168107e+001 3.309312e+000 -1.584681e+000 -1.012184e+000 6.644478e+000 -3.702772e+000 3.834164e+000 3.134151e+000 3.544902e+000 2.009460e-001 -6.126829e-001 -5.404370e-001 5.846774e+001 2.852673e+000 -4.856267e-001 1.088227e+000 -8.432652e-001 -8.819988e-001 -1.029360e+000 -8.706278e-001 -5.439919e-001 -3.755331e-001 1.968047e-002 -1.295292e+000 -6.908233e-001 -2.844965e-001 7.225001e-001 -2.717075e-001 1.496636e-002 -2.068434e-001 -4.892001e-001 -3.268281e-001 -3.050636e-001 -2.679121e-001 -1.339403e-001 1.844047e-001 -2.516622e-001 -9.550098e-002 1.984893e-001
<VARIANCE> 39
 2.694708e+001 1.021044e+001 1.549686e+001 1.936525e+001 2.881441e+001 2.095475e+001 2.501723e+001 2.830530e+001 2.031454e+001 2.193492e+001 1.918070e+001 1.894004e+001 2.152740e+001 3.824608e+000 1.247139e+000 1.210111e+000 2.201946e+000 2.279165e+000 4.509899e+000 2.202354e+000 2.435725e+000 1.942569e+000 1.955248e+000 3.424439e+000 2.084265e+000 2.633436e+000 6.220143e-001 1.967212e-001 2.922519e-001 3.827266e-001 3.543183e-001 5.629087e-001 4.787710e-001 5.727577e-001 4.546230e-001 4.021509e-001 5.032457e-001 3.850851e-001 3.136767e-001
<GCONST> 1.101518e+002
<TRANSP> 5
 0.000000e+000 1.000000e+000 0.000000e+000 0.000000e+000 0.000000e+000
 0.000000e+000 7.453264e-001 2.546736e-001 0.000000e+000 0.000000e+000
 0.000000e+000 0.000000e+000 8.624573e-001 1.375427e-001 0.000000e+000
 0.000000e+000 0.000000e+000 0.000000e+000 5.429645e-001 4.570355e-001
 0.000000e+000 0.000000e+000 0.000000e+000 0.000000e+000 0.000000e+000
<ENDHMM>
~h "t"
<BEGINHMM>
<NUMSTATES> 5
<STATE> 2
<MEAN> 39
 -1.190857e+000 -3.618712e-001 2.440432e+000 -1.801659e+000 1.410831e+000 -1.708672e+000 3.387825e+000 -2.200336e+000 3.446876e-002 8.164760e-002 -4.144578e+000 2.351803e-001 5.313537e+001 -9.730212e-001 -1.663854e-001 8.868927e-002 3.065104e-001 3.427375e-002 9.510578e-001 -1.550651e-001 1.997794e-001 5.248015e-001 3.119158e-001 1.029283e+000 3.821561e-001 -7.986312e-001 -2.605076e-001 -2.135447e-001 -8.306209e-002 -4.194419e-001 -5.213623e-002 -6.855793e-002 -1.275070e-001 1.877569e-001 -3.204528e-002 -1.767744e-001 1.477384e-001 2.612327e-002 5.801868e-001
<VARIANCE> 39
 2.155929e+001 1.531505e+001 1.456897e+001 2.848889e+001 1.785147e+001 5.961258e+001 3.216839e+001 3.248997e+001 2.676853e+001 3.162887e+001 4.070718e+001 1.752195e+001 5.502971e+001 2.057439e+000 3.334061e+000 1.924481e+000 4.967091e+000 2.304903e+000 4.365669e+000 3.855554e+000 3.007750e+000 2.760011e+000 2.643751e+000 2.735653e+000 1.849675e+000 6.033163e+000 4.175886e-001 3.551022e-001 3.291403e-001 6.160834e-001 4.111745e-001 9.827813e-001 7.501891e-001 6.144869e-001 4.809408e-001 4.512168e-001 5.291914e-001 3.744505e-001 9.772067e-001
<GCONST> 1.207406e+002
<STATE> 3
<MEAN> 39
 -9.413317e+000 -4.822309e+000 1.826160e+000 -9.262304e+000 -4.198203e-001 2.286180e-001 -9.623033e-001 2.182827e+000 2.222983e+000 -9.955976e-001 2.499405e+000 2.916872e+000 6.050987e+001 -2.136606e+000 6.544394e-001 5.376612e-001 -9.569671e-001 -1.461381e-001 -8.041529e-001 -1.081796e+000 1.848388e+000 6.047449e-001 -9.455848e-001 6.486246e-001 6.692492e-001 3.016837e+000 4.077578e-001 6.210139e-001 4.558998e-001 1.096382e+000 3.672258e-001 -1.085495e-002 3.705678e-001 -6.213751e-002 1.318157e-001 3.202274e-002 -5.221402e-001 -1.175339e-001 -5.837753e-001
<VARIANCE> 39
 1.890557e+001 2.982439e+001 1.941018e+001 1.820713e+001 2.896020e+001 2.891246e+001 2.065678e+001 1.966479e+001 1.923811e+001 1.797601e+001 1.577597e+001 1.575412e+001 2.285553e+001 2.887334e+000 3.075857e+000 2.902191e+000 5.114384e+000 3.153990e+000 3.227952e+000 2.957637e+000 3.105617e+000 3.031658e+000 2.373596e+000 2.553718e+000 1.790424e+000 3.404889e+000 7.124572e-001 7.592217e-001 4.648927e-001 7.079325e-001 7.739995e-001 5.474023e-001 4.513499e-001 5.358993e-001 3.729890e-001 4.868218e-001 3.220612e-001 4.212448e-001 6.377484e-001
<GCONST> 1.170883e+002
<STATE> 4
<MEAN> 39
 -1.187426e+001 -1.705994e+000 5.976034e+000 -4.780566e+000 1.449208e+000 6.561602e-001 -5.733936e-002 5.712831e+000 5.045089e+000 -2.272267e+000 1.337880e+000 4.488484e+000 6.075993e+001 1.150641e+000 9.816131e-002 6.406876e-001 1.240425e+000 2.883903e-001 -1.815886e-001 6.245162e-003 -1.742944e-001 3.467060e-001 -9.561758e-003 -7.167667e-001 -2.865654e-001 -2.965985e-001 5.157080e-001 -1.016984e-001 -2.492325e-001 5.063589e-002 2.401854e-002 7.390756e-003 2.051173e-003 -4.276030e-001 -1.811030e-001 1.777715e-001 -1.260199e-001 -2.701312e-001 -3.310971e-001
<VARIANCE> 39
 3.151609e+001 1.765281e+001 2.629921e+001 2.722881e+001 2.524803e+001 4.259457e+001 2.977828e+001 2.700213e+001 4.203455e+001 2.235147e+001 2.258050e+001 1.853908e+001 2.674704e+001 3.098234e+000 2.073064e+000 2.460842e+000 3.311490e+000 2.711272e+000 2.510359e+000 2.085683e+000 2.627431e+000 2.694137e+000 2.105056e+000 1.946839e+000 2.261555e+000 1.164076e+000 5.522968e-001 2.978637e-001 3.291022e-001 4.082598e-001 3.627088e-001 4.362366e-001 4.319573e-001 6.278761e-001 5.259285e-001 4.226311e-001 3.493514e-001 3.883363e-001 2.445641e-001
<GCONST> 1.134874e+002
<TRANSP> 5
 0.000000e+000 1.000000e+000 0.000000e+000 0.000000e+000 0.000000e+000
 0.000000e+000 8.549855e-001 1.450144e-001 0.000000e+000 0.000000e+000
 0.000000e+000 0.000000e+000 6.469930e-001 3.530070e-001 0.000000e+000
 0.000000e+000 0.000000e+000 0.000000e+000 7.896594e-001 2.103406e-001
 0.000000e+000 0.000000e+000 0.000000e+000 0.000000e+000 0.000000e+000
<ENDHMM>
~h "v"
<BEGINHMM>
<NUMSTATES> 5
<STATE> 2
<MEAN> 39
 5.400244e+000 -7.688411e+000 -6.832526e-001 -6.702863e+000 -2.227878e+000 -9.137069e+000 1.155487e+000 -1.640065e-001 2.029231e+000 -4.053229e+000 -6.912931e+000 -6.054579e+000 6.450443e+001 4.114895e-001 6.650014e-001 3.519251e-001 4.857403e-001 -2.432758e-001 -9.302419e-002 -8.806959e-001 -2.580028e-001 2.735514e-001 8.032949e-001 2.201338e-001 2.344731e-001 -7.429169e-001 -1.116139e-001 1.564590e-001 -1.966362e-002 7.500073e-002 2.315058e-001 2.493329e-001 -1.129262e-001 -2.360099e-001 -1.457032e-001 1.725193e-001 2.940315e-002 -2.393966e-002 -8.284622e-002
<VARIANCE> 39
 1.740426e+001 1.653366e+001 2.448392e+001 3.043672e+001 2.388051e+001 3.886365e+001 3.383106e+001 2.394158e+001 1.838014e+001 3.933604e+001 2.167651e+001 4.173814e+001 2.010901e+001 1.119146e+000 1.382099e+000 1.090754e+000 1.424764e+000 1.831232e+000 2.183878e+000 1.918592e+000 2.045732e+000 1.376541e+000 1.879601e+000 1.302606e+000 2.040249e+000 1.147782e+000 2.475978e-001 1.652159e-001 1.326258e-001 1.913050e-001 2.348693e-001 3.575614e-001 3.052568e-001 2.837754e-001 2.287336e-001 3.244005e-001 2.246519e-001 3.503093e-001 1.059336e-001
<GCONST> 1.003897e+002
<STATE> 3
<MEAN> 39
 6.779900e+000 -5.182526e+000 1.662160e+000 -8.177006e+000 -2.948771e+000 -1.010033e+001 -4.275340e+000 -2.168476e+000 9.109682e-001 1.612361e+000 -6.268839e+000 -6.668759e+000 6.392329e+001 -1.623629e-001 5.571169e-001 -2.156794e-002 3.381427e-001 3.876399e-001 5.656487e-001 -4.820162e-004 -3.023153e-001 -5.063904e-001 2.582751e-001 -7.623333e-002 -3.556532e-001 -3.820625e-001 -1.671536e-001 2.028633e-001 9.259160e-002 2.024490e-001 7.826438e-002 1.812488e-001 1.725939e-001 -1.750654e-001 -3.333360e-001 -6.880416e-002 6.077205e-002 1.010460e-001 -1.422092e-001
<VARIANCE> 39
 7.631758e+000 9.124391e+000 4.117294e+001 1.693779e+001 1.437367e+001 3.497669e+001 1.682446e+001 2.830346e+001 4.163042e+001 2.366516e+001 1.788203e+001 5.989933e+001 1.141732e+001 6.255192e-001 1.439667e+000 1.238940e+000 1.136417e+000 1.030941e+000 2.383816e+000 1.556706e+000 3.234373e+000 2.114599e+000 1.884222e+000 2.222119e+000 1.870297e+000 9.267032e-001 1.357392e-001 1.273239e-001 1.180614e-001 1.375668e-001 1.470352e-001 2.263857e-001 2.429015e-001 4.182368e-001 2.836337e-001 3.132052e-001 2.511467e-001 2.496436e-001 1.183978e-001
<GCONST> 9.545016e+001
<STATE> 4
<MEAN> 39
 3.043733e+000 -3.923990e-001 9.528833e-001 -2.318866e+000 7.659803e-001 -2.147316e+000 -1.945589e+000 -5.528327e+000 -2.074776e+000 9.383867e-001 -4.058545e+000 -6.617250e+000 5.791943e+001 -4.877835e-001 4.670121e-001 3.090107e-001 4.403400e-001 1.989062e-001 4.194719e-001 3.710435e-001 -2.744778e-001 -5.172759e-001 3.031495e-001 -2.679059e-002 4.011164e-001 -4.965466e-001 -7.282286e-003 -9.637005e-002 2.875641e-002 -5.349574e-002 -1.053784e-001 -1.602854e-001 9.646942e-002 8.067323e-002 9.557950e-002 -2.224341e-002 -1.037544e-001 1.052197e-001 6.069010e-002
<VARIANCE> 39
 2.970302e+001 1.360793e+001 1.209097e+001 2.969979e+001 1.682167e+001 2.067416e+001 1.945490e+001 2.381539e+001 2.397251e+001 2.630307e+001 2.107877e+001 3.458352e+001 1.759575e+001 1.015699e+000 1.034028e+000 8.511143e-001 1.235768e+000 1.179020e+000 1.516517e+000 1.264692e+000 2.185029e+000 1.997787e+000 1.807432e+000 1.772028e+000 1.393555e+000 4.306464e-001 1.246151e-001 1.676947e-001 1.469405e-001 1.809743e-001 2.178205e-001 2.659867e-001 2.445041e-001 3.843974e-001 2.742552e-001 3.089757e-001 2.789398e-001 2.574751e-001 8.153831e-002
<GCONST> 9.418443e+001
<TRANSP> 5
 0.000000e+000 1.000000e+000 0.000000e+000 0.000000e+000 0.000000e+000
 0.000000e+000 6.976439e-001 3.023560e-001 0.000000e+000 0.000000e+000
 0.000000e+000 0.000000e+000 6.889572e-001 3.110428e-001 0.000000e+000
 0.000000e+000 0.000000e+000 0.000000e+000 8.132302e-001 1.867698e-001
 0.000000e+000 0.000000e+000 0.000000e+000 0.000000e+000 0.000000e+000
<ENDHMM>
~h "w"
<BEGINHMM>
<NUMSTATES> 5
<STATE> 2
<MEAN> 39
 2.899378e+000 2.173866e+000 1.113487e+000 -3.946669e+000 -1.009012e+000 1.276227e+000 3.933398e-001 -4.170026e+000 7.567406e-002 1.838449e+000 -2.298849e+000 -2.521953e+000 5.269713e+001 1.093431e+000 7.633794e-001 -7.089893e-001 -1.223528e+000 -7.850772e-001 6.734295e-001 1.276135e-001 -6.482762e-001 -9.041965e-001 -8.953431e-001 1.520733e-001 -7.372483e-002 -1.152972e-002 1.968792e-001 1.557923e-001 1.188649e-002 -5.348535e-001 -4.241555e-001 -1.283620e-001 2.125364e-002 9.228965e-002 -3.414996e-001 -3.259425e-001 -5.349636e-002 7.050785e-002 2.429398e-001
<VARIANCE> 39
 2.172333e+001 1.414926e+001 1.187164e+001 5.339399e+001 4.988579e+001 3.586066e+001 3.520084e+001 3.063219e+001 3.882731e+001 2.907162e+001 3.094086e+001 1.885364e+001 4.353140e+001 2.284821e+000 1.681487e+000 1.876121e+000 3.462891e+000 4.478522e+000 3.591120e+000 3.459480e+000 2.851619e+000 3.509698e+000 3.163332e+000 2.649554e+000 1.993615e+000 1.709956e+000 2.124589e-001 1.808902e-001 3.019761e-001 5.145000e-001 5.463326e-001 3.808114e-001 6.590311e-001 5.827062e-001 4.241990e-001 6.554180e-001 5.042936e-001 3.819337e-001 1.548043e-001
<GCONST> 1.159522e+002
<STATE> 3
<MEAN> 39
 9.978331e+000 6.297482e+000 -8.361660e-001 -1.314498e+001 -7.631391e+000 3.756211e-001 3.286287e-002 -6.762582e+000 -7.249565e+000 -3.167687e+000 -2.759985e+000 -2.896462e+000 5.689243e+001 8.277525e-001 4.431446e-001 -4.635823e-001 -1.967448e+000 -1.068470e+000 4.300200e-001 7.248158e-002 4.934717e-001 -7.098614e-001 -1.086910e+000 2.363080e-001 -2.631231e-001 5.081970e-001 -3.210404e-001 -4.309182e-001 9.815906e-004 1.759276e-001 3.798598e-001 -3.546404e-003 -1.510218e-001 2.100416e-001 4.415972e-001 3.146081e-001 1.315507e-001 -1.807630e-001 1.564554e-001
<VARIANCE> 39
 3.357715e+000 8.444359e+000 7.676762e+000 2.756820e+001 1.601272e+001 1.269587e+001 2.049800e+001 1.814410e+001 2.078451e+001 2.184386e+001 2.878127e+001 2.052112e+001 8.924466e+000 9.577103e-001 1.200664e+000 1.064729e+000 3.390268e+000 2.198194e+000 1.825048e+000 2.827221e+000 2.148275e+000 2.353386e+000 2.567523e+000 3.114030e+000 2.043456e+000 1.605075e+000 1.663315e-001 1.458796e-001 2.284442e-001 3.414157e-001 3.522736e-001 4.178897e-001 3.438273e-001 4.316842e-001 3.292858e-001 4.182018e-001 5.875750e-001 3.637873e-001 9.118937e-002
<GCONST> 9.902350e+001
<STATE> 4
<MEAN> 39
 1.087440e+001 4.423409e+000 -4.360958e+000 -1.949124e+001 -8.151306e+000 4.264635e+000 -3.138295e-001 -5.173965e+000 -5.278055e+000 -5.111243e+000 1.742438e+000 -5.385137e+000 6.022504e+001 -3.043176e-001 -1.067222e+000 -1.107640e+000 -9.512706e-001 6.680375e-001 1.107438e+000 -4.195403e-001 -2.879104e-001 7.281592e-001 4.182615e-001 9.555196e-001 -9.413856e-001 1.139304e+000 -2.439378e-001 -2.313823e-001 -3.927369e-002 3.216980e-001 3.634703e-001 -3.918481e-002 -1.488711e-002 -1.193976e-001 1.872824e-001 2.492667e-001 -3.154063e-001 -2.836053e-001 9.471209e-002
<VARIANCE> 39
 2.333804e+000 8.150707e+000 1.212148e+001 2.185739e+001 1.214586e+001 1.637393e+001 1.297416e+001 1.603300e+001 2.111885e+001 1.926993e+001 2.418042e+001 1.913990e+001 8.253458e+000 3.435508e-001 7.721516e-001 7.597190e-001 9.853511e-001 1.077120e+000 1.091293e+000 9.070424e-001 1.210944e+000 1.079296e+000 1.674045e+000 1.941436e+000 1.931563e+000 5.172532e-001 5.037279e-002 5.197258e-002 1.025036e-001 2.528824e-001 1.273118e-001 2.147270e-001 1.723346e-001 2.167373e-001 2.164338e-001 2.376396e-001 5.141454e-001 2.829478e-001 5.824715e-002
<GCONST> 8.075911e+001
<TRANSP> 5
 0.000000e+000 1.000000e+000 0.000000e+000 0.000000e+000 0.000000e+000
 0.000000e+000 6.686680e-001 3.313321e-001 0.000000e+000 0.000000e+000
 0.000000e+000 0.000000e+000 6.910622e-001 3.089379e-001 0.000000e+000
 0.000000e+000 0.000000e+000 0.000000e+000 7.493070e-001 2.506930e-001
 0.000000e+000 0.000000e+000 0.000000e+000 0.000000e+000 0.000000e+000
<ENDHMM>
~h "y"
<BEGINHMM>
<NUMSTATES> 5
<STATE> 2
<MEAN> 39
 3.325269e-001 1.731781e+000 1.351612e+001 -4.092952e+000 -1.739762e+000 -9.314307e+000 -5.615831e+000 -6.000571e+000 -7.785469e+000 -5.165009e-001 -3.224949e+000 1.168171e-001 6.173481e+001 -3.173858e-001 3.775270e-001 2.119897e+000 -5.792066e-001 -3.356743e-001 -5.805020e-001 -4.412793e-002 2.027388e-001 -1.024902e+000 -7.726717e-001 -1.891144e-001 8.072448e-001 1.436970e-001 1.755386e-002 1.011538e-001 2.927888e-002 -2.300631e-001 6.195211e-002 7.965931e-002 -6.062765e-002 5.783870e-002 -3.911452e-002 -1.067920e-001 -6.654025e-002 1.008123e-001 -2.684210e-002
<VARIANCE> 39
 1.899901e+001 2.243260e+001 5.203539e+001 3.294923e+001 2.585016e+001 3.181955e+001 2.180067e+001 1.948487e+001 4.485567e+001 4.461783e+001 2.128017e+001 1.641247e+001 1.552997e+001 9.679069e-001 1.410422e+000 2.631208e+000 2.527654e+000 2.096188e+000 2.599163e+000 2.089237e+000 2.422711e+000 2.783469e+000 2.762357e+000 2.265699e+000 1.945718e+000 4.905701e-001 1.551793e-001 3.189325e-001 6.099237e-001 3.560576e-001 4.891374e-001 5.627735e-001 4.569362e-001 5.006843e-001 6.465955e-001 5.057426e-001 3.532543e-001 2.953859e-001 9.619752e-002
<GCONST> 1.094601e+002
<STATE> 3
<MEAN> 39
 -2.929550e-001 2.497376e+000 2.094621e+001 -1.058629e+001 -3.724387e+000 -1.348292e+001 -8.266827e+000 -2.760575e+000 -1.012297e+001 -5.044506e+000 -4.809458e+000 6.794320e+000 6.411942e+001 2.953882e-001 -8.574924e-001 -1.019062e+000 -5.808675e-001 -5.558958e-001 -7.876287e-001 -3.391887e-002 8.171546e-001 1.030261e+000 1.936494e-001 -1.598610e-001 2.992652e-001 6.042500e-001 1.121903e-001 -2.463106e-001 -4.865310e-001 1.524394e-002 6.442886e-003 8.435831e-003 1.794258e-001 1.544477e-001 2.516534e-001 2.171107e-001 -1.403884e-001 -2.835368e-001 7.734084e-002
<VARIANCE> 39
 3.433982e+000 2.018011e+001 1.351065e+001 1.018519e+001 2.142753e+001 2.022953e+001 1.294242e+001 1.099380e+001 2.877258e+001 1.914162e+001 1.325427e+001 1.343614e+001 1.255720e+001 4.289808e-001 1.776000e+000 2.405952e+000 6.664656e-001 1.635010e+000 1.153358e+000 1.265871e+000 1.592505e+000 2.120456e+000 1.806682e+000 1.165333e+000 1.460835e+000 5.509907e-001 4.033294e-002 1.301140e-001 1.402259e-001 1.375564e-001 3.785027e-001 2.593916e-001 1.884610e-001 2.564979e-001 2.988966e-001 2.408070e-001 2.773736e-001 3.362236e-001 6.578799e-002
<GCONST> 8.643453e+001
<STATE> 4
<MEAN> 39
 3.833340e+000 -8.595042e+000 1.497528e+000 -1.594972e+001 -1.488078e+000 -1.384418e+001 -3.028573e+000 3.945899e+000 -3.076331e-001 -1.173892e+000 -1.313518e+001 -1.355025e+000 6.966267e+001 2.842866e-001 -8.057305e-001 -2.744946e+000 -3.437900e-001 2.234139e+000 1.674452e+000 9.921935e-001 -1.008611e+000 4.674702e-001 -4.268623e-002 -1.134281e+000 -2.057542e+000 2.775876e-001 -1.084461e-001 2.839389e-001 2.924996e-001 1.544916e-001 2.437639e-001 2.663784e-001 -9.091965e-002 -7.404563e-001 -3.286016e-001 -1.794931e-001 4.308321e-001 1.830296e-001 -1.152021e-001
<VARIANCE> 39
 1.986679e+000 8.777952e+000 3.662551e+001 1.536406e+001 3.632176e+001 2.546281e+001 2.023194e+001 2.537070e+001 1.595159e+001 1.383917e+001 3.372026e+001 3.937471e+001 4.000576e+000 2.221532e-001 6.801626e-001 1.063230e+000 7.077215e-001 1.074838e+000 1.344862e+000 1.019867e+000 5.915853e+000 1.512566e+000 1.320957e+000 3.621976e+000 2.067407e+000 1.313647e-001 1.874435e-002 4.472410e-002 1.215530e-001 1.075427e-001 3.437681e-001 2.964861e-001 1.831945e-001 5.509669e-001 2.617258e-001 2.278303e-001 5.515132e-001 5.070763e-001 1.351317e-002
<GCONST> 8.418507e+001
<TRANSP> 5
 0.000000e+000 1.000000e+000 0.000000e+000 0.000000e+000 0.000000e+000
 0.000000e+000 8.765843e-001 1.234157e-001 0.000000e+000 0.000000e+000
 0.000000e+000 0.000000e+000 8.936510e-001 1.063490e-001 0.000000e+000
 0.000000e+000 0.000000e+000 0.000000e+000 8.495878e-001 1.504122e-001
 0.000000e+000 0.000000e+000 0.000000e+000 0.000000e+000 0.000000e+000
<ENDHMM>
~h "z"
<BEGINHMM>
<NUMSTATES> 5
<STATE> 2
<MEAN> 39
 2.323447e+000 3.504833e+000 3.883119e+000 -2.208741e+000 2.430866e+000 -7.881993e+000 -9.106773e-001 -5.720608e+000 -3.393191e+000 1.826061e+000 -3.953212e+000 -2.316425e+000 5.665997e+001 -7.075027e-001 1.186731e+000 3.466941e-002 1.033312e+000 7.473127e-001 -4.330626e-001 -4.963431e-001 -3.254311e-001 4.159048e-001 -3.746656e-001 1.253681e-001 -3.089041e-001 1.543153e-001 -3.493097e-001 7.876999e-002 -1.300551e-001 -2.804244e-002 -2.196983e-002 2.882722e-001 2.102898e-001 1.727116e-001 1.105390e-001 -1.930670e-001 1.007208e-001 1.197728e-001 -2.197170e-002
<VARIANCE> 39
 2.028082e+001 1.153772e+001 2.091517e+001 5.663933e+001 2.206826e+001 4.536405e+001 3.639667e+001 2.122144e+001 3.207084e+001 3.473813e+001 2.572429e+001 1.793443e+001 2.760643e+001 2.336957e+000 1.285585e+000 1.899464e+000 2.285434e+000 1.811007e+000 3.601997e+000 1.919960e+000 1.682604e+000 2.188833e+000 2.167656e+000 1.812609e+000 1.648491e+000 1.546206e+000 2.464204e-001 2.209526e-001 2.415800e-001 2.464053e-001 2.267950e-001 4.779199e-001 3.116652e-001 3.320318e-001 3.374217e-001 3.763726e-001 2.959941e-001 3.099785e-001 1.128282e-001
<GCONST> 1.060833e+002
<STATE> 3
<MEAN> 39
 -4.355539e+000 8.429340e+000 2.904277e+000 1.588086e+000 5.255556e+000 -6.654930e+000 -3.487536e-001 -5.324372e+000 -1.230364e+000 -1.061334e+000 -3.076155e+000 -2.023397e+000 5.721957e+001 -1.398868e+000 4.468561e-001 -3.375786e-001 4.902296e-001 4.132539e-001 6.257986e-001 8.130208e-001 5.520961e-001 6.080195e-001 -5.450820e-001 2.192753e-001 2.858813e-001 -9.857114e-002 3.490885e-001 -3.162101e-001 8.764634e-002 -3.378117e-001 -2.880618e-001 -3.371114e-001 5.157410e-002 1.214006e-001 -9.211851e-002 1.028713e-001 -3.520285e-002 4.329778e-003 1.579273e-001
<VARIANCE> 39
 1.557606e+001 7.745678e+000 1.147814e+001 1.906797e+001 2.105815e+001 2.826472e+001 2.094558e+001 1.670300e+001 2.077736e+001 1.982633e+001 1.518138e+001 1.373247e+001 1.432562e+001 1.680666e+000 6.858956e-001 1.138588e+000 1.425753e+000 1.102293e+000 2.653203e+000 1.782276e+000 1.837571e+000 1.666169e+000 2.005862e+000 1.366389e+000 1.048506e+000 4.510003e-001 1.356020e-001 1.260309e-001 1.539942e-001 1.816071e-001 2.047537e-001 3.725862e-001 3.653064e-001 2.950824e-001 2.737929e-001 3.002304e-001 2.457768e-001 1.842797e-001 8.116186e-002
<GCONST> 9.123243e+001
<STATE> 4
<MEAN> 39
 -7.657814e+000 5.074708e+000 -2.223660e-002 1.099343e+000 5.266485e+000 -2.268629e+000 4.719902e+000 -1.601416e-001 2.354895e+000 -3.217801e-001 -4.241581e-001 4.116396e-001 5.569565e+001 5.295890e-001 1.494774e-002 4.119013e-001 -2.013359e-001 -5.965994e-001 -1.323790e+000 -4.334241e-001 -1.251703e-002 -2.583297e-001 -1.859708e-001 -2.374133e-001 -2.024842e-001 4.701542e-001 5.865997e-001 -2.181467e-001 3.602390e-001 -1.007581e-001 -3.707634e-001 -5.633622e-001 -3.763827e-001 -1.829630e-001 -3.458091e-001 8.609563e-002 -1.421507e-001 -1.043803e-001 1.515996e-001
<VARIANCE> 39
 2.323818e+001 3.890053e+001 1.429992e+001 1.550300e+001 2.199929e+001 3.666628e+001 2.429539e+001 2.529815e+001 1.861272e+001 2.902458e+001 1.896725e+001 1.710109e+001 2.246563e+001 2.644210e+000 1.111604e+000 1.697300e+000 1.223498e+000 1.755569e+000 3.140121e+000 2.506971e+000 2.898249e+000 2.252851e+000 1.715155e+000 1.575366e+000 1.734083e+000 6.245555e-001 2.251148e-001 3.185882e-001 2.711136e-001 2.635457e-001 3.728872e-001 5.496116e-001 4.255445e-001 4.826068e-001 3.825626e-001 4.177690e-001 3.037152e-001 3.181360e-001 1.141522e-001
<GCONST> 1.047876e+002
<TRANSP> 5
 0.000000e+000 1.000000e+000 0.000000e+000 0.000000e+000 0.000000e+000
 0.000000e+000 7.396880e-001 2.603120e-001 0.000000e+000 0.000000e+000
 0.000000e+000 0.000000e+000 7.211767e-001 2.788233e-001 0.000000e+000
 0.000000e+000 0.000000e+000 0.000000e+000 7.623127e-001 2.376873e-001
 0.000000e+000 0.000000e+000 0.000000e+000 0.000000e+000 0.000000e+000
<ENDHMM>
~h "ah"
<BEGINHMM>
<NUMSTATES> 5
<STATE> 2
<MEAN> 39
 6.446011e+000 -4.434778e+000 -9.765869e+000 -1.931794e+001 7.362043e-001 7.452379e+000 -1.900527e+000 -6.957129e+000 -1.321249e-001 -4.293374e-001 -1.120283e+000 -1.342124e+001 6.679689e+001 -7.736292e-001 -1.257336e+000 -3.146871e-001 9.775717e-001 1.635533e+000 -5.917040e-001 3.705330e-002 3.616044e-002 6.578538e-001 2.869772e-001 -1.846841e+000 -1.024925e+000 6.692404e-001 6.462128e-002 1.551625e-001 3.010292e-001 2.540388e-001 -1.863844e-001 -4.542227e-001 1.791310e-001 1.600659e-001 -1.107347e-001 -3.391685e-001 -2.364932e-001 4.355075e-001 -2.162754e-001
<VARIANCE> 39
 4.713935e+000 1.145803e+001 1.115146e+001 1.634461e+001 2.177249e+001 2.495766e+001 9.833024e+000 1.579115e+001 1.512454e+001 2.683817e+001 4.032233e+001 1.988759e+001 7.420449e+000 2.700072e-001 6.331554e-001 5.979588e-001 5.752331e-001 5.930727e-001 1.681636e+000 6.098074e-001 1.326941e+000 1.046448e+000 1.569250e+000 1.807896e+000 1.587232e+000 3.591871e-001 4.620438e-002 5.131521e-002 8.831204e-002 1.227424e-001 1.261423e-001 1.714125e-001 1.342170e-001 1.599108e-001 1.460334e-001 2.705719e-001 3.786037e-001 2.217323e-001 3.284869e-002
<GCONST> 7.702158e+001
<STATE> 3
<MEAN> 39
 3.711902e+000 -8.849122e+000 -7.731195e+000 -1.163814e+001 5.597655e+000 -1.076404e+000 7.827248e-001 -4.794964e+000 1.363982e+000 -4.660069e+000 -1.009840e+001 -1.160193e+001 6.768379e+001 -1.112497e-001 -4.050795e-001 9.100211e-001 9.707863e-001 -2.745669e-001 -1.430509e+000 7.284089e-001 6.039898e-001 -2.217221e-001 -1.188830e+000 -3.604506e-001 9.919880e-001 -1.562311e-001 1.019252e-001 1.471675e-001 2.355459e-001 -1.040423e-001 -3.860971e-001 2.809456e-003 7.957400e-002 1.277298e-001 -2.161001e-001 -2.571961e-002 3.733054e-001 2.094295e-001 -1.186172e-001
<VARIANCE> 39
 3.584871e+000 7.224637e+000 1.194747e+001 1.754694e+001 1.184125e+001 1.886494e+001 8.904642e+000 1.718642e+001 1.175396e+001 1.838344e+001 1.530498e+001 1.992507e+001 8.020108e+000 2.525852e-001 3.454850e-001 7.733130e-001 4.443073e-001 1.006292e+000 1.583201e+000 8.062639e-001 9.039298e-001 6.081603e-001 1.124834e+000 1.441110e+000 9.634849e-001 1.571014e-001 4.391779e-002 5.636575e-002 6.170266e-002 6.076369e-002 8.959646e-002 1.042205e-001 1.020155e-001 1.210936e-001 1.145064e-001 1.800143e-001 1.659013e-001 1.653748e-001 2.612794e-002
<GCONST> 6.685655e+001
<STATE> 4
<MEAN> 39
 4.134979e+000 -9.927898e+000 5.932983e-001 -9.124574e+000 -5.385182e-001 -8.873196e+000 5.456299e+000 2.283572e-001 -2.487754e+000 -9.606788e+000 -8.757962e+000 -4.985043e+000 6.642620e+001 1.750447e-001 8.634552e-001 2.111954e+000 3.602831e-001 -1.725052e+000 -9.805930e-001 5.968240e-001 6.346099e-001 -1.473081e+000 1.951334e-002 1.073979e+000 1.783710e+000 -8.541954e-001 2.556073e-002 4.828255e-001 4.408478e-002 -7.636676e-002 7.076688e-002 4.051425e-001 -5.381529e-001 -2.811072e-001 -1.978111e-001 6.794576e-001 1.241447e-001 -2.169132e-001 -2.216751e-001
<VARIANCE> 39
 3.506270e+000 6.989638e+000 2.152952e+001 1.998145e+001 2.312079e+001 1.786908e+001 1.275805e+001 1.630759e+001 1.413111e+001 1.455608e+001 2.022189e+001 1.950288e+001 1.120867e+001 3.123880e-001 6.919619e-001 1.316539e+000 4.046489e-001 8.668620e-001 1.541069e+000 1.403196e+000 1.065251e+000 1.006646e+000 1.946757e+000 9.613444e-001 1.784072e+000 2.614028e-001 4.906953e-002 8.346421e-002 1.071846e-001 8.462206e-002 2.062522e-001 1.896613e-001 2.234528e-001 2.171130e-001 2.201729e-001 2.358880e-001 1.840008e-001 2.755850e-001 4.014555e-002
<GCONST> 7.880078e+001
<TRANSP> 5
 0.000000e+000 1.000000e+000 0.000000e+000 0.000000e+000 0.000000e+000
 0.000000e+000 7.854675e-001 2.145325e-001 0.000000e+000 0.000000e+000
 0.000000e+000 0.000000e+000 8.147751e-001 1.852249e-001 0.000000e+000
 0.000000e+000 0.000000e+000 0.000000e+000 6.618702e-001 3.381298e-001
 0.000000e+000 0.000000e+000 0.000000e+000 0.000000e+000 0.000000e+000
<ENDHMM>
~h "ao"
<BEGINHMM>
<NUMSTATES> 5
<STATE> 2
<MEAN> 39
 6.536688e+000 1.904162e+000 -9.548667e+000 -2.051707e+001 -2.481937e+000 8.547159e+000 -1.266672e-001 -3.835969e+000 -2.708287e+000 -9.200072e-001 -9.411157e-002 -5.322735e+000 6.235147e+001 -8.718771e-002 1.929603e-001 -8.345264e-001 -2.133469e+000 -3.175702e-001 1.101474e+000 3.255764e-001 2.892123e-001 -2.349503e-002 -1.208616e+000 1.974093e-001 -2.162287e-001 6.018187e-001 -6.303968e-001 -2.878947e-001 4.624290e-001 9.331487e-001 4.143414e-001 -3.214715e-001 2.722836e-001 3.274280e-001 2.624395e-001 -2.059355e-001 -1.230534e-001 2.141913e-001 -1.880487e-001
<VARIANCE> 39
 1.676175e+001 1.060176e+001 2.323380e+001 7.818578e+001 2.893697e+001 1.547393e+001 1.970464e+001 1.607132e+001 1.901559e+001 3.069188e+001 1.541926e+001 2.700522e+001 4.119901e+001 8.724373e-001 5.760806e-001 1.321856e+000 3.413731e+000 1.375952e+000 1.152928e+000 1.197092e+000 1.312582e+000 1.235131e+000 1.806135e+000 1.257162e+000 1.082049e+000 4.143473e-001 5.092857e-001 2.506130e-001 1.644068e-001 5.280898e-001 2.560883e-001 1.691451e-001 2.478379e-001 2.767318e-001 2.815230e-001 3.132240e-001 2.340218e-001 2.660694e-001 5.841001e-002
<GCONST> 9.593835e+001
<STATE> 3
<MEAN> 39
 6.452295e+000 4.199878e+000 -1.011851e+001 -2.709384e+001 -2.837089e+000 8.967424e+000 2.700544e+000 -2.703145e-001 -2.211829e+000 -9.034682e+000 -8.319805e-001 -5.190920e+000 6.264642e+001 9.927336e-002 2.619174e-001 3.063096e-001 -8.818851e-002 -2.609571e-001 -1.981770e-001 5.172011e-002 3.476487e-001 -8.272684e-002 -2.582053e-001 -4.104252e-002 1.284869e-002 -2.840948e-001 3.308649e-002 -3.934360e-003 5.874495e-002 1.151737e-001 -6.056302e-003 -8.906238e-002 -3.694083e-002 -2.813804e-002 -3.791596e-002 1.341117e-001 -3.167588e-002 -5.145167e-003 -4.148903e-002
<VARIANCE> 39
 6.650379e+000 1.004114e+001 1.451399e+001 3.688363e+001 4.662708e+001 1.719516e+001 1.703126e+001 2.807688e+001 1.853908e+001 2.605791e+001 1.119612e+001 2.150007e+001 1.836304e+001 1.931862e-001 2.677062e-001 4.172938e-001 5.785070e-001 5.543446e-001 6.562877e-001 6.466677e-001 7.080407e-001 7.281531e-001 9.421999e-001 5.924264e-001 7.163787e-001 1.558080e-001 2.987251e-002 4.588732e-002 5.937289e-002 8.816419e-002 8.826356e-002 1.035110e-001 1.131892e-001 1.211345e-001 1.093766e-001 1.227827e-001 9.922735e-002 9.291287e-002 2.771421e-002
<GCONST> 6.691145e+001
<STATE> 4
<MEAN> 39
 7.461763e+000 6.017638e+000 -2.121111e+000 -1.660657e+001 -4.573610e+000 3.792288e+000 3.340521e+000 6.946044e-001 -4.009044e+000 -4.494541e+000 -3.874664e+000 -5.160845e+000 5.564186e+001 -4.074195e-001 -3.252776e-001 6.695982e-001 2.045093e+000 7.112842e-001 -4.191407e-001 2.949848e-001 -5.490395e-001 1.951526e-001 1.110276e+000 -2.402365e-001 2.474182e-001 -6.745797e-001 -1.948635e-001 -1.400406e-001 -7.170334e-002 1.047037e-001 1.438867e-001 5.295976e-002 -3.402690e-002 -7.439624e-002 1.940720e-001 7.549635e-002 7.739596e-002 8.922055e-002 5.813113e-002
<VARIANCE> 39
 1.313448e+001 8.135826e+000 1.488120e+001 1.007518e+002 3.043550e+001 2.268099e+001 2.824999e+001 2.373224e+001 3.149307e+001 2.822071e+001 2.067045e+001 2.597915e+001 2.168138e+001 6.240214e-001 5.587357e-001 7.964380e-001 2.204927e+000 1.781244e+000 1.662327e+000 1.437401e+000 1.813422e+000 1.810629e+000 1.668107e+000 1.702006e+000 1.508703e+000 3.178277e-001 6.603622e-002 6.801949e-002 1.514811e-001 3.855911e-001 2.405518e-001 2.823313e-001 3.127128e-001 2.917215e-001 2.583265e-001 2.942303e-001 3.150911e-001 2.683669e-001 7.474086e-002
<GCONST> 9.434337e+001
<TRANSP> 5
 0.000000e+000 1.000000e+000 0.000000e+000 0.000000e+000 0.000000e+000
 0.000000e+000 5.827332e-001 4.172668e-001 0.000000e+000 0.000000e+000
 0.000000e+000 0.000000e+000 9.177044e-001 8.229563e-002 0.000000e+000
 0.000000e+000 0.000000e+000 0.000000e+000 8.353180e-001 1.646820e-001
 0.000000e+000 0.000000e+000 0.000000e+000 0.000000e+000 0.000000e+000
<ENDHMM>
~h "ax"
<BEGINHMM>
<NUMSTATES> 5
<STATE> 2
<MEAN> 39
 5.104029e+000 -1.147834e+001 -1.950930e+000 -1.174958e+001 4.174783e+000 -6.345999e+000 4.955692e+000 1.023911e+000 4.873274e-001 -4.840541e+000 -1.297821e+001 -7.845994e+000 6.863899e+001 7.347544e-002 2.354988e-001 9.606519e-001 3.746169e-001 -1.242474e+000 -1.431751e+000 1.132741e+000 6.347712e-001 3.481745e-001 -4.370154e-001 4.120442e-001 2.943516e-001 -3.906655e-001 -5.292417e-002 2.562176e-001 9.159672e-002 -5.337071e-002 -9.297306e-002 2.955118e-002 -2.486146e-001 -2.106758e-001 -3.138946e-002 3.515439e-001 3.110440e-001 1.377206e-001 -1.049805e-001
<VARIANCE> 39
 3.412357e+000 1.289042e+001 1.637137e+001 1.232639e+001 9.573168e+000 2.355104e+001 2.040033e+001 2.985569e+001 2.246484e+001 2.116852e+001 1.445162e+001 1.849164e+001 1.221799e+001 2.013001e-001 4.392606e-001 1.388096e+000 1.041452e+000 1.158304e+000 4.431171e+000 1.571824e+000 1.075416e+000 1.257419e+000 1.599295e+000 9.347359e-001 1.484396e+000 2.094004e-001 4.623819e-002 7.667880e-002 1.160284e-001 8.495969e-002 1.401284e-001 1.461316e-001 1.357220e-001 2.119604e-001 1.958097e-001 1.292307e-001 1.072549e-001 1.451841e-001 2.266163e-002
<GCONST> 7.709540e+001
<STATE> 3
<MEAN> 39
 4.214623e+000 -9.233028e+000 2.637248e+000 -1.050470e+001 -1.480801e-001 -1.031089e+001 7.662025e+000 1.047110e+000 4.770746e-001 -5.254653e+000 -1.000337e+001 -4.110222e+000 6.659755e+001 -1.857465e-001 7.928194e-001 1.068831e+000 1.772846e-001 -1.162456e+000 -8.323749e-001 -1.591935e-001 9.548387e-003 -8.769993e-002 5.596815e-001 1.177772e+000 1.088603e+000 -6.333057e-001 -1.016396e-002 1.997124e-001 -7.331718e-002 -9.352190e-002 1.629423e-001 2.511323e-001 -5.203422e-001 -3.182377e-001 -1.201490e-001 2.867117e-001 1.283683e-001 5.974225e-002 -3.891763e-002
<VARIANCE> 39
 4.176868e+000 1.863216e+001 3.346207e+001 2.869531e+001 3.151016e+001 7.184444e+001 1.904634e+001 3.210007e+001 2.867174e+001 2.306400e+001 2.364302e+001 2.712953e+001 2.882462e+001 4.867947e-001 8.561623e-001 1.859780e+000 9.388417e-001 1.750320e+000 3.181274e+000 2.344245e+000 1.439656e+000 1.987080e+000 1.525680e+000 1.254020e+000 1.750993e+000 2.928782e-001 5.418095e-002 9.309717e-002 1.582705e-001 1.555075e-001 2.022946e-001 3.344084e-001 2.958889e-001 2.035752e-001 2.659242e-001 2.972744e-001 2.405101e-001 1.984077e-001 3.071356e-002
<GCONST> 9.308161e+001
<STATE> 4
<MEAN> 39
 4.646970e+000 -3.880679e+000 -6.002465e+000 -9.898209e+000 9.778624e-001 1.423298e-001 3.695771e+000 -5.793108e+000 3.573222e+000 -2.243976e+000 -3.047161e+000 -1.138678e+001 6.232056e+001 -4.227570e-002 4.915426e-001 3.961308e-001 2.622347e-001 -3.187467e-002 1.532820e-001 -1.284831e-001 -2.587062e-001 -2.934888e-001 1.652339e-001 3.966283e-001 4.067974e-001 -4.972336e-001 -1.542791e-002 2.167242e-003 2.371857e-002 -7.010907e-004 8.648793e-002 8.981936e-002 -7.720891e-002 -5.815578e-002 -1.691470e-002 3.901537e-002 -9.107131e-002 4.090431e-002 -1.054545e-002
<VARIANCE> 39
 3.904170e+000 1.913088e+001 6.242491e+001 2.257619e+001 2.069701e+001 8.592028e+001 1.486858e+001 3.876166e+001 2.950303e+001 2.173462e+001 3.830441e+001 5.916275e+001 2.484803e+001 2.451140e-001 6.589276e-001 9.721776e-001 9.307234e-001 9.997094e-001 1.272447e+000 1.293938e+000 1.113898e+000 9.050372e-001 1.408029e+000 1.667129e+000 1.111754e+000 2.658829e-001 3.936465e-002 7.434760e-002 1.190952e-001 1.082039e-001 1.469411e-001 2.266943e-001 1.437707e-001 1.922619e-001 1.915417e-001 1.941544e-001 2.150288e-001 1.582236e-001 3.377743e-002
<GCONST> 8.546512e+001
<TRANSP> 5
 0.000000e+000 1.000000e+000 0.000000e+000 0.000000e+000 0.000000e+000
 0.000000e+000 1.049464e-001 8.950536e-001 0.000000e+000 0.000000e+000
 0.000000e+000 0.000000e+000 6.875103e-001 3.124897e-001 0.000000e+000
 0.000000e+000 0.000000e+000 0.000000e+000 7.015268e-001 2.984732e-001
 0.000000e+000 0.000000e+000 0.000000e+000 0.000000e+000 0.000000e+000
<ENDHMM>
~h "ay"
<BEGINHMM>
<NUMSTATES> 5
<STATE> 2
<MEAN> 39
 5.158744e+000 -1.061987e-002 2.640064e-001 -6.905066e+000 -6.107857e-001 -5.516998e+000 -1.529566e+000 -6.170035e+000 -2.282446e+000 3.653314e+000 -8.287472e+000 -7.459414e+000 6.141253e+001 6.006833e-001 -1.885387e+000 -1.777247e+000 -2.130092e+000 1.270864e+000 -4.441911e-001 -2.893344e-001 2.232704e+000 8.983236e-002 -1.100153e+000 -1.287192e+000 -1.126810e+000 2.465812e+000 -3.891181e-001 -6.052966e-001 -1.471554e-001 1.714519e-001 4.593588e-001 5.019928e-001 4.140224e-001 2.243458e-001 2.371079e-001 -3.040141e-001 -2.929907e-002 1.071278e-001 -9.047788e-002
<VARIANCE> 39
 1.544978e+001 1.845608e+001 7.512800e+001 4.917031e+001 1.747730e+001 6.589042e+001 1.606991e+001 6.769709e+001 1.821062e+001 3.709583e+001 4.056091e+001 4.180925e+001 1.809868e+001 2.461456e+000 1.304266e+000 2.346356e+000 1.538398e+000 1.816496e+000 3.304585e+000 2.059892e+000 7.296208e+000 1.721129e+000 3.189840e+000 3.321784e+000 4.533817e+000 1.656103e+000 6.237788e-001 1.907194e-001 5.783458e-001 8.148678e-001 2.856687e-001 7.746401e-001 3.258865e-001 1.034721e+000 3.203827e-001 5.270047e-001 4.048971e-001 7.065560e-001 2.668965e-001
<GCONST> 1.184768e+002
<STATE> 3
<MEAN> 39
 5.757446e+000 -8.116882e+000 -4.009639e+000 -1.206250e+001 5.379863e+000 -4.249888e+000 5.832703e-002 -1.951286e-001 -6.439989e-001 -6.797058e-001 -1.256171e+001 -1.002243e+001 6.714006e+001 -6.991813e-002 -1.416681e+000 -1.327515e+000 -9.705818e-001 1.095401e+000 1.907530e+000 1.852857e-001 -6.155255e-001 4.650973e-001 -1.363468e+000 9.914374e-002 -1.154068e+000 1.181424e+000 -3.406143e-001 4.575021e-001 2.253979e-001 5.046219e-001 -1.950874e-001 3.074209e-001 -5.665222e-002 -7.016877e-001 -6.445392e-003 9.251788e-002 5.544953e-001 3.041545e-001 -5.023510e-001
<VARIANCE> 39
 4.673326e+000 1.146751e+001 2.218921e+001 1.920629e+001 1.678378e+001 5.188194e+001 1.422209e+001 2.803733e+001 2.045582e+001 2.480001e+001 3.162106e+001 3.209715e+001 9.582637e+000 1.080408e+000 1.581704e+000 1.336522e+000 1.309845e+000 1.143811e+000 2.482094e+000 1.802464e+000 4.535868e+000 1.430444e+000 2.362350e+000 3.061332e+000 2.255115e+000 7.490398e-001 2.033627e-001 1.811757e-001 2.331777e-001 1.643680e-001 2.160849e-001 7.755255e-001 3.679118e-001 8.777571e-001 2.949616e-001 4.224996e-001 4.681334e-001 5.136009e-001 1.215407e-001
<GCONST> 1.018895e+002
<STATE> 4
<MEAN> 39
 3.736633e+000 -1.006269e+001 -8.189671e+000 -1.162889e+001 6.997936e+000 1.546347e+000 8.113378e-001 -5.000998e+000 -1.836545e-001 -4.279208e+000 -9.326808e+000 -1.128852e+001 6.842401e+001 -6.516799e-002 -2.566833e-001 3.405412e-001 2.631011e-001 -2.761279e-001 -6.307834e-001 4.446743e-001 3.073677e-001 -4.629565e-002 -3.890432e-001 -1.512046e-001 3.618617e-001 -7.965515e-003 6.174498e-002 5.961418e-002 1.626250e-001 2.557438e-002 -1.752415e-001 -2.315599e-001 7.198914e-002 1.530285e-001 -1.626180e-002 4.369193e-002 -1.511849e-002 9.465988e-002 -7.409748e-002
<VARIANCE> 39
 4.218567e+000 1.016163e+001 1.585732e+001 1.749155e+001 1.315090e+001 3.138800e+001 1.722358e+001 1.804901e+001 1.459706e+001 1.714559e+001 1.763824e+001 1.735628e+001 9.153675e+000 2.275127e-001 3.672754e-001 6.843176e-001 4.656376e-001 1.015090e+000 1.391547e+000 8.507951e-001 1.000216e+000 6.864607e-001 8.639753e-001 8.239101e-001 6.773251e-001 1.414717e-001 3.553695e-002 5.725406e-002 6.416071e-002 7.241666e-002 8.598860e-002 1.280376e-001 1.226023e-001 1.328054e-001 1.173486e-001 1.542599e-001 1.389913e-001 9.547153e-002 2.274733e-002
<GCONST> 6.746741e+001
<TRANSP> 5
 0.000000e+000 1.000000e+000 0.000000e+000 0.000000e+000 0.000000e+000
 0.000000e+000 4.652827e-001 5.347173e-001 0.000000e+000 0.000000e+000
 0.000000e+000 0.000000e+000 6.918108e-001 3.081891e-001 0.000000e+000
 0.000000e+000 0.000000e+000 0.000000e+000 9.187829e-001 8.121709e-002
 0.000000e+000 0.000000e+000 0.000000e+000 0.000000e+000 0.000000e+000
<ENDHMM>
~h "eh"
<BEGINHMM>
<NUMSTATES> 5
<STATE> 2
<MEAN> 39
 4.636472e+000 -3.998732e+000 -1.847032e-001 -9.467381e+000 -2.948791e+000 -1.443399e+001 -1.189245e+000 2.080378e+000 2.728110e+000 1.249880e+000 -1.137375e+001 -3.622731e+000 6.562071e+001 1.720978e+000 -2.205869e+000 1.324361e-001 -1.794752e+000 -1.190554e+000 -8.465750e-001 -1.714934e-001 1.004244e+000 -1.768269e-001 -8.053442e-002 -1.233900e+000 -2.075958e-001 1.797230e+000 -1.218138e+000 1.086902e-001 -2.250001e-001 3.604248e-001 4.643525e-001 8.268239e-001 6.027506e-001 3.929999e-001 1.022168e-002 -4.554709e-001 6.995483e-001 1.554665e-001 -3.159947e-001
<VARIANCE> 39
 4.536542e+000 1.611300e+001 1.244354e+001 1.706145e+001 1.025574e+001 1.902485e+001 1.219626e+001 1.724577e+001 7.949609e+000 1.232128e+001 1.025875e+001 1.221264e+001 9.753802e+000 4.572113e+000 7.397648e-001 1.073635e+000 1.473267e+000 1.996125e+000 3.353191e+000 1.929207e+000 2.393440e+000 1.157436e+000 2.524225e+000 2.452527e+000 1.315273e+000 8.904978e-001 2.582389e-001 2.312627e-001 1.687214e-001 2.258368e-001 2.523166e-001 3.399130e-001 2.245922e-001 4.321987e-001 2.304592e-001 2.754481e-001 2.412500e-001 2.014438e-001 1.672632e-001
<GCONST> 9.243404e+001
<STATE> 3
<MEAN> 39
 4.433292e+000 -9.177128e+000 -2.159310e-001 -1.151027e+001 -2.720012e+000 -1.274726e+001 2.262272e+000 5.517577e+000 2.412842e+000 -3.607358e+000 -1.098228e+001 -5.205234e+000 6.798148e+001 2.700233e-001 4.962483e-002 5.936888e-002 1.899662e-001 1.527565e-001 1.595236e-001 -3.466732e-001 -5.248665e-001 9.107906e-002 3.746901e-002 4.395888e-001 -3.296079e-001 -3.026353e-001 7.772984e-002 2.934200e-001 -1.145887e-002 2.110996e-001 2.310170e-002 1.081711e-001 -2.736683e-001 -3.752958e-001 -2.640938e-003 2.432211e-001 1.704391e-001 -4.231407e-002 -2.390560e-001
<VARIANCE> 39
 4.470793e+000 5.900611e+000 1.486296e+001 1.450973e+001 1.365524e+001 2.849901e+001 1.750948e+001 1.694908e+001 1.304277e+001 1.577455e+001 1.528552e+001 2.229750e+001 4.404799e+000 3.108819e-001 5.963455e-001 3.903009e-001 6.508490e-001 4.803749e-001 9.153376e-001 1.956595e+000 1.635447e+000 7.393385e-001 1.561684e+000 8.066571e-001 6.126630e-001 4.266378e-001 4.503837e-002 5.863545e-002 6.983864e-002 1.030171e-001 9.723202e-002 1.866817e-001 1.677345e-001 1.570095e-001 1.749134e-001 1.545839e-001 1.172889e-001 1.181749e-001 3.851684e-002
<GCONST> 7.083145e+001
<STATE> 4
<MEAN> 39
 7.587464e+000 -3.046531e+000 1.620913e-002 -6.469223e+000 -1.542133e+000 -7.884221e+000 -6.409702e+000 -5.903837e+000 8.938606e-001 2.264628e+000 -3.821535e+000 -8.312953e+000 6.096210e+001 1.291061e-001 8.460470e-001 4.247829e-003 5.401235e-001 1.330163e-001 1.084293e+000 -5.820130e-001 -1.236748e+000 -6.169800e-001 6.423973e-001 8.185782e-001 -4.763327e-001 -7.101146e-001 -1.139778e-001 -3.905722e-001 2.380274e-002 -4.021653e-001 -4.975761e-002 -3.144892e-001 4.331367e-001 6.206464e-001 6.871197e-002 -1.976943e-001 -4.114523e-001 6.716871e-002 4.280826e-001
<VARIANCE> 39
 3.656711e+000 8.838942e+000 6.669777e+000 1.080895e+001 8.020208e+000 1.593019e+001 9.097274e+000 1.897598e+001 1.480271e+001 1.382491e+001 1.457531e+001 1.357133e+001 7.554864e+000 3.902221e-001 1.539152e+000 3.323071e-001 1.713424e+000 5.965933e-001 1.610429e+000 1.355406e+000 2.762886e+000 1.321015e+000 1.200867e+000 1.364350e+000 9.059349e-001 1.342078e+000 7.304520e-002 1.858813e-001 6.817009e-002 1.934065e-001 1.144780e-001 2.433878e-001 1.691511e-001 2.326496e-001 3.019850e-001 2.294650e-001 2.005104e-001 1.512443e-001 1.102286e-001
<GCONST> 7.942386e+001
<TRANSP> 5
 0.000000e+000 1.000000e+000 0.000000e+000 0.000000e+000 0.000000e+000
 0.000000e+000 7.313749e-001 2.686251e-001 0.000000e+000 0.000000e+000
 0.000000e+000 0.000000e+000 8.963540e-001 1.036461e-001 0.000000e+000
 0.000000e+000 0.000000e+000 0.000000e+000 7.971244e-001 2.028755e-001
 0.000000e+000 0.000000e+000 0.000000e+000 0.000000e+000 0.000000e+000
<ENDHMM>
~h "ey"
<BEGINHMM>
<NUMSTATES> 5
<STATE> 2
<MEAN> 39
 -1.029128e+000 -9.509029e-001 3.252765e-002 -2.627805e+000 -1.656951e+000 4.865638e-001 3.499830e+000 -3.534973e+000 2.660370e+000 3.389848e+000 -8.741183e-001 -5.659553e-001 5.007019e+001 -3.000074e-001 -8.076501e-001 -4.849309e-001 3.277324e-001 7.421555e-001 1.835610e-001 7.236530e-001 7.163194e-001 6.598356e-001 -2.425836e-001 -6.580656e-001 -4.394223e-001 7.975313e-002 1.149071e-001 -1.963551e-001 -8.933405e-002 -2.182901e-001 1.352982e-001 -1.203401e-001 -1.391720e-002 2.150270e-002 -1.926226e-001 -3.192929e-001 -2.988723e-001 -1.841832e-001 4.375398e-001
<VARIANCE> 39
 2.155608e+001 1.269284e+001 2.987273e+001 4.004908e+001 2.615823e+001 4.533872e+001 3.241811e+001 4.307577e+001 3.679210e+001 3.030194e+001 3.271861e+001 3.336362e+001 2.785830e+001 2.092526e+000 1.708341e+000 2.765485e+000 3.499151e+000 2.297417e+000 3.235310e+000 2.361184e+000 4.245251e+000 4.367416e+000 4.458311e+000 3.001767e+000 3.359879e+000 3.640715e+000 3.572342e-001 3.502123e-001 4.699424e-001 4.470786e-001 4.334049e-001 5.521788e-001 4.765518e-001 8.256049e-001 7.845098e-001 6.798902e-001 4.509395e-001 5.875502e-001 5.058847e-001
<GCONST> 1.218220e+002
<STATE> 3
<MEAN> 39
 1.642149e+000 -1.042425e+001 -5.334811e+000 -7.695041e+000 4.146656e+000 -4.581457e+000 5.465705e+000 6.388363e-001 1.254628e+000 -4.291470e+000 -1.058874e+001 -6.733948e+000 6.268189e+001 6.775838e-001 -1.491403e+000 -4.269957e-001 -1.064830e+000 4.201385e-001 -8.049564e-001 1.072730e-001 1.571099e-001 -7.042689e-001 -1.191307e+000 -9.836982e-001 -7.611926e-001 2.493129e+000 -1.874898e-001 2.974691e-001 2.775677e-001 2.437477e-001 -2.241465e-001 2.291959e-001 2.462835e-002 -2.213006e-001 2.755786e-002 1.546267e-001 4.700831e-001 3.301638e-001 -3.783488e-001
<VARIANCE> 39
 1.240676e+001 1.800150e+001 2.467064e+001 1.795663e+001 3.080102e+001 4.542207e+001 2.132427e+001 2.589283e+001 2.693199e+001 2.148091e+001 1.710040e+001 2.792486e+001 3.250504e+001 1.023340e+000 1.710065e+000 2.176729e+000 1.906249e+000 2.034365e+000 2.118773e+000 2.066396e+000 2.397600e+000 1.589462e+000 2.243239e+000 2.480113e+000 2.042029e+000 2.528418e+000 1.891698e-001 2.648321e-001 3.447720e-001 3.306495e-001 3.693358e-001 4.286725e-001 3.713503e-001 4.043370e-001 3.109094e-001 4.420658e-001 3.013161e-001 3.306330e-001 3.662982e-001
<GCONST> 1.074126e+002
<STATE> 4
<MEAN> 39
 2.694380e+000 -1.233764e+001 -4.134288e+000 -8.832956e+000 1.888132e+000 -7.022716e+000 7.721437e+000 -5.287556e-001 -1.314136e+000 -9.752200e+000 -1.035456e+001 -5.533875e+000 6.840543e+001 9.104611e-002 3.697962e-001 2.970366e-001 3.897801e-002 -4.107121e-001 -3.983005e-001 1.210978e-001 1.072780e-001 2.038528e-002 -1.908188e-002 -1.211378e-001 3.897673e-001 -1.043116e-001 5.074042e-003 1.699766e-001 7.382094e-002 7.396828e-002 -1.299156e-002 -4.797653e-002 -1.036080e-001 4.420096e-002 4.351464e-002 1.687532e-001 -1.421142e-002 4.183504e-002 -1.848451e-001
<VARIANCE> 39
 4.274087e+000 1.124856e+001 1.307720e+001 1.539944e+001 1.387271e+001 1.913355e+001 1.159275e+001 1.485939e+001 1.578704e+001 1.469546e+001 9.884541e+000 1.402700e+001 8.221424e+000 2.341126e-001 5.560329e-001 4.466035e-001 4.787475e-001 5.560033e-001 6.987073e-001 7.292569e-001 6.617324e-001 6.489374e-001 1.002847e+000 6.866007e-001 5.672448e-001 3.127481e-001 5.187948e-002 6.408630e-002 7.846803e-002 1.073757e-001 9.329114e-002 1.026467e-001 1.454251e-001 1.208563e-001 1.110327e-001 1.326405e-001 1.204485e-001 1.004896e-001 6.785690e-002
<GCONST> 6.578526e+001
<TRANSP> 5
 0.000000e+000 1.000000e+000 0.000000e+000 0.000000e+000 0.000000e+000
 0.000000e+000 8.616084e-001 1.383916e-001 0.000000e+000 0.000000e+000
 0.000000e+000 0.000000e+000 7.952366e-001 2.047634e-001 0.000000e+000
 0.000000e+000 0.000000e+000 0.000000e+000 9.210735e-001 7.892653e-002
 0.000000e+000 0.000000e+000 0.000000e+000 0.000000e+000 0.000000e+000
<ENDHMM>
~h "ia"
<BEGINHMM>
<NUMSTATES> 5
<STATE> 2
<MEAN> 39
 7.542722e-001 3.552740e+000 7.247089e+000 -1.462356e+000 -1.109414e+000 -1.729958e+001 -1.945378e+000 -2.351332e+000 -3.452383e+000 -1.513001e+000 -3.571724e+000 -1.954503e+000 6.138006e+001 1.698946e+000 -2.080405e+000 1.694325e+000 -1.466591e+000 -1.716251e+000 -1.992059e+000 -2.954232e-001 7.021217e-001 -9.366772e-001 2.557504e-001 -2.908814e-001 6.579602e-001 1.107504e+000 -2.795668e-001 -1.820403e-001 -5.643930e-002 -1.917340e-001 3.580331e-002 5.826064e-001 3.418299e-001 1.089108e-001 2.353454e-001 -4.231098e-003 6.136498e-002 2.621272e-001 9.387288e-003
<VARIANCE> 39
 1.346013e+001 2.023724e+001 1.905644e+001 1.749199e+001 2.087709e+001 1.852108e+001 1.278771e+001 1.153204e+001 1.832253e+001 1.437622e+001 1.448658e+001 1.346850e+001 1.162254e+001 1.669248e+000 1.299111e+000 1.253170e+000 1.151161e+000 1.733615e+000 2.595037e+000 1.973627e+000 1.371987e+000 1.730907e+000 1.392107e+000 1.335769e+000 1.601120e+000 2.955570e-001 3.136501e-001 3.081592e-001 2.523561e-001 2.023443e-001 2.084979e-001 3.496746e-001 2.456044e-001 2.972286e-001 3.304287e-001 2.286720e-001 2.287834e-001 2.741798e-001 4.431286e-002
<GCONST> 9.239081e+001
<STATE> 3
<MEAN> 39
 4.038367e+000 -5.914344e+000 1.136698e+001 -8.900546e+000 -8.625088e+000 -1.820009e+001 -3.390879e-001 1.315727e+000 -3.324906e+000 -1.134974e+000 -4.275430e+000 2.377280e+000 6.665578e+001 2.177292e-001 -7.652134e-001 -1.020715e+000 -3.853219e-001 -3.025320e-001 8.160676e-001 4.927881e-002 3.092645e-001 1.091143e+000 -3.794379e-002 -3.541157e-001 -5.756851e-001 4.162426e-001 1.807078e-003 1.289837e-001 -3.805290e-001 2.068746e-001 2.525430e-001 3.128670e-001 -1.741649e-001 -1.469361e-001 1.573419e-001 3.317694e-002 -4.882075e-002 -3.947505e-001 -1.232829e-001
<VARIANCE> 39
 3.845045e+000 8.074299e+000 3.507279e+001 1.130764e+001 1.452661e+001 1.493319e+001 1.360012e+001 1.418134e+001 3.365385e+001 1.269075e+001 1.363168e+001 1.950707e+001 7.424829e+000 2.061553e-001 4.322530e-001 1.803165e+000 7.112637e-001 1.755986e+000 1.429128e+000 1.289770e+000 1.035932e+000 1.204419e+000 8.033344e-001 1.136323e+000 2.347418e+000 1.809774e-001 6.021953e-002 7.593244e-002 1.602580e-001 1.309442e-001 1.995990e-001 2.124777e-001 1.768054e-001 2.575506e-001 2.088334e-001 1.504487e-001 1.902064e-001 1.728608e-001 2.414767e-002
<GCONST> 7.756166e+001
<STATE> 4
<MEAN> 39
 8.546303e+000 -9.475556e+000 -5.767974e+000 -3.804276e+000 -9.830856e+000 -5.121519e+000 -1.396386e+000 -3.923381e+000 6.422436e+000 -1.741533e-001 -3.518096e+000 -1.092035e+001 6.665881e+001 5.940935e-001 1.134703e-001 -1.447363e+000 6.752892e-001 -4.459327e-001 1.185661e+000 2.275477e-001 -1.403908e+000 -2.252763e-001 5.299127e-001 8.819925e-001 -5.536638e-001 -2.899695e-001 -3.572069e-002 1.650143e-001 2.181922e-001 -9.316390e-002 -1.266090e-001 -1.655173e-001 2.252653e-001 -8.869625e-002 -3.532138e-001 2.716414e-002 1.966497e-001 3.768157e-001 -4.913769e-002
<VARIANCE> 39
 5.234567e+000 6.505820e+000 3.315792e+001 2.944530e+001 1.838710e+001 2.407079e+001 2.378929e+001 3.323398e+001 1.808692e+001 2.325109e+001 3.132596e+001 2.454009e+001 7.111313e+000 2.524057e-001 5.291111e-001 1.073467e+000 1.513140e+000 1.135928e+000 1.744449e+000 1.391498e+000 1.462034e+000 1.706884e+000 1.023716e+000 1.152197e+000 2.671496e+000 7.756759e-002 3.936183e-002 5.277997e-002 9.865779e-002 2.752100e-001 2.288873e-001 2.223782e-001 2.518473e-001 3.112155e-001 1.933000e-001 1.658039e-001 2.049052e-001 2.429584e-001 1.457379e-002
<GCONST> 8.251810e+001
<TRANSP> 5
 0.000000e+000 1.000000e+000 0.000000e+000 0.000000e+000 0.000000e+000
 0.000000e+000 7.656680e-001 2.343320e-001 0.000000e+000 0.000000e+000
 0.000000e+000 0.000000e+000 8.836146e-001 1.163854e-001 0.000000e+000
 0.000000e+000 0.000000e+000 0.000000e+000 8.747627e-001 1.252373e-001
 0.000000e+000 0.000000e+000 0.000000e+000 0.000000e+000 0.000000e+000
<ENDHMM>
~h "ih"
<BEGINHMM>
<NUMSTATES> 5
<STATE> 2
<MEAN> 39
 -1.002217e+001 3.350794e+000 -7.939702e-001 -2.467198e+000 3.962847e+000 -5.909791e+000 4.317551e+000 2.934473e+000 4.296905e+000 -1.579944e+000 -1.677815e+000 1.357831e-001 5.853363e+001 5.042849e+000 -7.160481e-001 1.971773e+000 -1.263004e+000 -1.475423e+000 -3.383744e+000 -2.285472e+000 -9.950416e-001 -9.755642e-001 2.985157e-001 -2.281641e+000 -1.353230e+000 9.423161e-001 5.529552e-001 -5.418489e-001 -1.300435e-002 -3.400565e-001 -6.459563e-001 -5.736945e-001 -3.582956e-001 -1.100228e-001 -2.986176e-001 3.013403e-001 -6.006887e-002 1.780657e-001 6.442171e-001
<VARIANCE> 39
 2.447747e+001 8.413058e+000 1.425256e+001 1.452553e+001 1.791622e+001 1.697495e+001 2.054298e+001 1.825480e+001 1.432840e+001 1.970116e+001 1.982540e+001 2.134159e+001 8.341258e+000 1.177860e+000 9.063482e-001 1.119743e+000 1.726860e+000 1.490287e+000 1.611228e+000 1.703926e+000 1.759368e+000 1.616638e+000 1.905875e+000 1.485406e+000 1.454660e+000 7.289875e-001 5.801854e-001 1.496947e-001 3.165672e-001 2.557284e-001 2.128378e-001 3.481951e-001 4.001828e-001 3.717438e-001 3.495746e-001 3.747314e-001 4.562240e-001 4.102354e-001 8.213231e-002
<GCONST> 9.639919e+001
<STATE> 3
<MEAN> 39
 3.704565e+000 -1.957057e+000 2.760427e+000 -7.846324e+000 -3.216328e+000 -1.670080e+001 -2.264086e+000 5.374188e-001 7.404929e-001 1.066234e+000 -7.267296e+000 -1.270114e+000 6.483685e+001 1.856242e+000 -2.021948e+000 8.533929e-001 -1.593082e+000 -2.471256e+000 -1.900058e+000 -6.557285e-001 2.425373e-001 -5.297384e-001 9.360436e-002 -2.113993e-001 3.313284e-001 1.886703e+000 -1.324157e+000 8.053380e-002 -2.526524e-001 3.352025e-001 1.331805e-001 9.090972e-001 7.391164e-001 3.769596e-001 1.934695e-001 -3.428997e-001 7.501826e-001 2.862588e-001 -2.246080e-001
<VARIANCE> 39
 6.912303e+000 1.516101e+001 1.685825e+001 1.432179e+001 1.722648e+001 1.553120e+001 1.293792e+001 1.136893e+001 1.265407e+001 1.965023e+001 1.130651e+001 1.385580e+001 1.313883e+001 5.010790e+000 8.770118e-001 1.615663e+000 1.579147e+000 1.114297e+000 4.155463e+000 2.631161e+000 1.941597e+000 1.730432e+000 2.507776e+000 2.860518e+000 1.900315e+000 6.633756e-001 2.153384e-001 2.637354e-001 2.009921e-001 3.042920e-001 2.657059e-001 2.497040e-001 2.472539e-001 2.761627e-001 2.505896e-001 3.452606e-001 2.672871e-001 3.326110e-001 2.045338e-001
<GCONST> 9.635867e+001
<STATE> 4
<MEAN> 39
 2.510780e+000 -4.908809e+000 6.081115e+000 -6.859533e+000 -9.384254e+000 -1.700817e+001 1.121429e+000 2.621377e+000 -4.195295e+000 -1.477417e+000 -1.881635e+000 -9.564335e-001 6.595149e+001 -1.966193e-001 4.460937e-001 -2.026597e-002 7.390835e-001 5.194561e-001 1.363895e-001 1.740972e-001 -2.568679e-001 -5.430049e-001 1.684887e-001 1.132510e-001 -1.430438e-001 -6.313549e-001 -1.049841e-001 1.344807e-001 -2.537198e-001 1.457786e-001 3.411734e-001 2.316204e-001 -2.042072e-002 -1.223439e-001 2.570248e-001 8.400038e-002 -9.508904e-002 -2.470603e-002 -1.791358e-001
<VARIANCE> 39
 4.133408e+000 1.200807e+001 1.941912e+001 2.059618e+001 2.199485e+001 2.632377e+001 1.214478e+001 1.537031e+001 5.062413e+001 1.715541e+001 2.246062e+001 1.638735e+001 1.493753e+001 5.610667e-001 1.110825e+000 1.733411e+000 1.220100e+000 2.990658e+000 2.055545e+000 1.001317e+000 1.365475e+000 3.496230e+000 1.090290e+000 1.461745e+000 8.995649e-001 1.059288e+000 1.125814e-001 1.745880e-001 2.861650e-001 1.502046e-001 2.256745e-001 3.955725e-001 1.786879e-001 1.923797e-001 7.164527e-001 1.701266e-001 2.281101e-001 1.684440e-001 1.004964e-001
<GCONST> 9.209315e+001
<TRANSP> 5
 0.000000e+000 1.000000e+000 0.000000e+000 0.000000e+000 0.000000e+000
 0.000000e+000 4.691275e-001 5.308725e-001 0.000000e+000 0.000000e+000
 0.000000e+000 0.000000e+000 6.966125e-001 3.033876e-001 0.000000e+000
 0.000000e+000 0.000000e+000 0.000000e+000 9.274294e-001 7.257064e-002
 0.000000e+000 0.000000e+000 0.000000e+000 0.000000e+000 0.000000e+000
<ENDHMM>
~h "iy"
<BEGINHMM>
<NUMSTATES> 5
<STATE> 2
<MEAN> 39
 4.384319e+000 -7.242794e+000 1.418070e+001 -9.338524e+000 -1.019826e+001 -1.924896e+001 -1.857684e+000 6.444325e-001 -7.104149e+000 -5.994186e-001 -2.496385e+000 4.127863e+000 6.542812e+001 -8.229615e-001 7.550364e-001 1.214341e+000 -8.092363e-001 -1.599022e-001 -2.657570e-001 5.414208e-001 -5.955069e-001 -1.272555e+000 -2.549565e-001 2.687923e-001 9.018305e-001 -1.355864e-002 8.890123e-002 1.731306e-001 -2.498224e-001 1.998277e-001 1.539447e-001 3.789829e-001 -2.119402e-001 -4.226641e-001 1.425024e-001 1.085095e-001 -1.078105e-001 -2.594205e-001 -1.825061e-001
<VARIANCE> 39
 5.740909e+000 8.646753e+000 2.149275e+001 1.452657e+001 8.372333e+000 1.182734e+001 1.496907e+001 1.743426e+001 3.252974e+001 1.047842e+001 9.976971e+000 1.380524e+001 6.601915e+000 2.586869e-001 4.258509e-001 9.634549e-001 6.437261e-001 1.153427e+000 1.425275e+000 1.264461e+000 1.692669e+000 1.480749e+000 9.420877e-001 9.284915e-001 1.225702e+000 1.804681e-001 4.056015e-002 7.042751e-002 1.192498e-001 1.108685e-001 1.923342e-001 1.736759e-001 2.046623e-001 3.402241e-001 2.208329e-001 2.161664e-001 1.638178e-001 2.019651e-001 2.170383e-002
<GCONST> 7.492548e+001
<STATE> 3
<MEAN> 39
 6.087114e-001 8.644605e-001 1.971140e+001 -1.119703e+001 -8.087264e+000 -1.375168e+001 -4.332542e+000 -6.594048e+000 -1.170702e+001 -3.614170e+000 -2.748119e+000 5.495425e+000 6.228461e+001 -4.712008e-002 5.028514e-001 -5.569490e-002 1.553299e-001 2.841864e-001 4.674998e-001 -7.744784e-003 -4.152069e-001 -1.408605e-003 -2.645638e-001 1.772801e-002 -2.049821e-001 -4.146495e-001 5.445554e-002 -3.005213e-002 -1.874979e-001 1.336046e-001 3.498322e-002 3.885727e-002 5.154213e-002 7.475027e-002 1.454738e-001 4.853256e-002 2.071127e-002 -1.151393e-001 -3.248773e-002
<VARIANCE> 39
 4.646440e+000 1.596315e+001 1.611046e+001 1.380476e+001 1.271771e+001 2.366243e+001 1.669228e+001 1.643148e+001 3.279900e+001 1.886038e+001 1.157324e+001 1.245365e+001 1.017015e+001 1.666471e-001 4.312476e-001 7.106034e-001 6.008630e-001 6.308046e-001 7.612159e-001 7.694324e-001 8.053825e-001 8.602985e-001 8.123473e-001 5.957905e-001 7.041407e-001 1.680963e-001 2.478977e-002 5.556409e-002 1.087705e-001 1.075684e-001 1.237606e-001 1.289984e-001 1.324631e-001 1.471303e-001 1.615548e-001 1.301611e-001 1.153645e-001 1.489100e-001 2.244708e-002
<GCONST> 6.788695e+001
<STATE> 4
<MEAN> 39
 1.872580e-001 3.284387e+000 1.389428e+001 -5.165753e+000 -3.919301e+000 -4.586651e+000 -1.610297e+000 -7.226148e+000 -5.997930e+000 -2.485693e+000 -2.552416e+000 9.895490e-001 5.600326e+001 -2.241566e-001 -1.739176e-001 -1.270441e+000 9.480102e-001 6.433523e-001 1.217901e+000 4.825526e-001 3.727579e-001 1.189735e+000 5.532483e-001 -3.252166e-002 -5.382568e-001 -7.270552e-001 -1.124193e-001 -7.746299e-002 -1.267525e-001 2.812246e-002 7.045848e-002 8.563817e-002 8.664579e-004 1.084714e-001 1.325340e-001 6.170410e-002 5.635952e-003 3.775441e-002 -5.860214e-003
<VARIANCE> 39
 1.121522e+001 2.000535e+001 2.069104e+001 2.475312e+001 3.118354e+001 8.149170e+001 2.366849e+001 2.130991e+001 3.108106e+001 2.065586e+001 1.648339e+001 1.841154e+001 2.337777e+001 8.146463e-001 1.158625e+000 1.662095e+000 1.827893e+000 1.753858e+000 2.392205e+000 1.610452e+000 1.727625e+000 2.100237e+000 1.630700e+000 1.566977e+000 1.810576e+000 3.529931e-001 1.579720e-001 1.473451e-001 1.979923e-001 2.896759e-001 3.064028e-001 4.945671e-001 2.670337e-001 3.172093e-001 3.345922e-001 2.902488e-001 2.859555e-001 3.249689e-001 5.402106e-002
<GCONST> 9.886736e+001
<TRANSP> 5
 0.000000e+000 1.000000e+000 0.000000e+000 0.000000e+000 0.000000e+000
 0.000000e+000 7.958914e-001 2.041086e-001 0.000000e+000 0.000000e+000
 0.000000e+000 0.000000e+000 8.869294e-001 1.130706e-001 0.000000e+000
 0.000000e+000 0.000000e+000 0.000000e+000 8.380419e-001 1.619581e-001
 0.000000e+000 0.000000e+000 0.000000e+000 0.000000e+000 0.000000e+000
<ENDHMM>
~h "jh"
<BEGINHMM>
<NUMSTATES> 5
<STATE> 2
<MEAN> 39
 1.085476e+000 -2.757084e-002 1.944527e+000 -1.310526e+000 1.171708e-001 9.588683e-001 4.176647e-001 -6.548256e+000 1.832234e-001 4.331513e+000 -3.557959e+000 3.370546e-003 5.153307e+001 -1.680261e+000 -1.378283e+000 -1.529386e-001 -8.032119e-001 -4.152987e-001 1.395094e+000 -2.041152e-001 1.627617e+000 1.495250e+000 -2.214720e-001 1.967772e+000 1.456054e+000 -4.568333e-001 -2.644519e-001 6.872085e-002 3.605226e-001 -4.314051e-001 -5.463379e-001 -2.422011e-001 -1.763718e-001 -3.554061e-001 1.632027e-002 1.131671e-001 -5.825588e-001 5.124305e-002 7.217192e-001
<VARIANCE> 39
 1.200094e+001 1.404723e+001 2.060585e+001 6.639338e+001 1.280311e+001 2.018494e+001 2.833988e+001 1.913622e+001 3.145930e+001 1.943931e+001 2.397569e+001 3.066215e+001 3.776015e+001 1.553731e+000 1.056298e+000 1.798629e+000 3.058127e+000 3.000832e+000 3.180856e+000 3.171304e+000 2.973469e+000 1.666845e+000 1.545624e+000 3.303489e+000 2.177747e+000 3.828790e+000 1.496421e-001 2.665891e-001 1.920484e-001 6.450539e-001 5.236472e-001 1.629779e-001 5.569400e-001 3.418228e-001 4.748284e-001 3.130010e-001 3.739102e-001 8.729129e-001 4.798129e-001
<GCONST> 1.102957e+002
<STATE> 3
<MEAN> 39
 2.931334e+000 -1.088940e+000 -5.190195e-001 -1.329344e+001 1.131558e+000 -2.545146e+000 -8.090512e+000 -6.082669e+000 -1.612572e-001 6.958033e+000 -5.677761e+000 9.890271e-001 6.358609e+001 -1.648458e+000 7.443793e-001 2.357316e+000 1.699972e+000 -6.741681e-001 -7.653809e-002 -2.192248e-001 6.160761e-001 1.896932e+000 -1.312548e+000 1.525202e-001 6.827770e-001 4.124017e-001 -4.620289e-001 2.935132e-001 8.146409e-002 4.146709e-001 -7.836218e-002 6.277863e-001 8.570732e-001 1.492036e-001 -3.993756e-001 -3.576079e-001 1.444269e-001 -3.326530e-001 -3.620000e-001
<VARIANCE> 39
 4.394430e+001 7.650767e+000 2.751433e+001 4.017304e+001 1.678313e+001 4.524007e+001 2.042558e+001 9.746984e+000 4.301732e+001 2.823891e+001 1.535755e+001 1.809065e+001 3.811555e+001 2.253158e+000 1.056857e+000 2.052170e+000 6.471018e+000 3.565594e+000 3.932096e+000 1.956154e+000 9.565487e-001 3.695848e+000 3.609219e+000 2.091165e+000 1.854995e+000 5.518684e+000 1.428817e-001 1.776250e-001 4.771706e-001 3.072303e-001 4.241017e-001 1.137242e+000 1.917625e-001 2.946782e-001 8.911027e-001 5.920319e-001 3.902121e-001 3.269986e-001 4.338927e-001
<GCONST> 1.124445e+002
<STATE> 4
<MEAN> 39
 -8.895906e+000 -1.815138e+000 8.777413e+000 -1.612252e+000 -5.773900e+000 6.936792e-001 2.115377e+000 -2.719278e+000 6.005653e-001 2.204238e+000 -4.947967e-002 2.249858e+000 6.033240e+001 7.325583e-001 -9.150098e-002 6.849610e-001 9.130455e-001 -3.205507e-001 -1.320728e+000 -1.421828e-002 1.187136e-001 -1.122953e+000 -2.132818e-001 2.491888e-001 -6.511190e-002 4.520118e-001 5.647090e-001 -6.751327e-002 -1.975732e-001 -2.407688e-001 1.770847e-001 -2.073619e-001 -2.595910e-001 -1.647930e-001 -1.904509e-001 1.229058e-001 -2.182771e-002 4.449813e-003 -6.297863e-002
<VARIANCE> 39
 7.235492e+001 1.513620e+001 2.146527e+001 4.092965e+001 4.255507e+001 7.344132e+001 4.525430e+001 1.546877e+001 3.934552e+001 2.777348e+001 1.442762e+001 1.935350e+001 3.608421e+001 1.333271e+001 1.908236e+000 1.912304e+000 5.731252e+000 3.249490e+000 7.160951e+000 8.070379e+000 2.166455e+000 3.527764e+000 4.060410e+000 2.517485e+000 2.209179e+000 5.041813e+000 1.567071e+000 4.316486e-001 4.432254e-001 1.612434e+000 5.786189e-001 1.142423e+000 1.305922e+000 4.866999e-001 5.548504e-001 9.009747e-001 6.618007e-001 4.717649e-001 7.930896e-001
<GCONST> 1.302183e+002
<TRANSP> 5
 0.000000e+000 1.000000e+000 0.000000e+000 0.000000e+000 0.000000e+000
 0.000000e+000 7.489127e-001 2.510874e-001 0.000000e+000 0.000000e+000
 0.000000e+000 0.000000e+000 5.365205e-001 4.634795e-001 0.000000e+000
 0.000000e+000 0.000000e+000 0.000000e+000 9.073621e-001 9.263787e-002
 0.000000e+000 0.000000e+000 0.000000e+000 0.000000e+000 0.000000e+000
<ENDHMM>
~h "ng"
<BEGINHMM>
<NUMSTATES> 5
<STATE> 2
<MEAN> 39
 6.530749e+000 -4.354168e+000 -1.230039e+001 -1.273669e+001 8.857678e+000 2.784961e+000 1.886121e+000 -1.170890e+001 -7.824312e+000 -1.640687e+000 -8.493027e-001 -9.845565e+000 6.499047e+001 9.979325e-002 7.141237e-001 -3.619655e-002 3.458709e-001 -3.020239e-001 5.485146e-001 8.371524e-001 -2.986420e-001 -1.013871e+000 5.021583e-001 3.375467e-001 1.739376e-001 -6.973764e-001 -7.692856e-002 -5.452490e-003 2.333045e-001 -5.075128e-002 -8.649537e-002 -1.090448e-001 8.304326e-002 8.113305e-002 1.083639e-001 -1.980653e-002 -4.133577e-001 2.208945e-001 7.310105e-003
<VARIANCE> 39
 3.621944e+000 1.346619e+001 9.281953e+000 1.397101e+001 8.817258e+000 1.120107e+001 2.231190e+001 7.786079e+000 2.260242e+001 1.840846e+001 1.618111e+001 1.185942e+001 8.407873e+000 2.487483e-001 3.393201e-001 9.812212e-001 5.382423e-001 7.131991e-001 5.436785e-001 1.197561e+000 9.732552e-001 1.311032e+000 7.630626e-001 2.971526e+000 1.761124e+000 2.038238e-001 3.375953e-002 5.019733e-002 8.021604e-002 6.712107e-002 1.389285e-001 7.983056e-002 2.038729e-001 1.778995e-001 2.180868e-001 1.650680e-001 2.034615e-001 1.710615e-001 1.831143e-002
<GCONST> 6.965130e+001
<STATE> 3
<MEAN> 39
 4.482952e+000 3.519033e-001 -2.079144e+000 -1.074990e+001 2.683101e+000 2.317581e+000 5.539543e+000 -1.093081e+001 -8.822690e+000 6.044422e-001 -1.197637e+001 -4.215312e+000 6.058170e+001 -1.930230e-001 3.612884e-001 1.419572e+000 3.430545e-001 -6.414914e-001 -4.185550e-001 -4.907020e-001 4.226059e-001 5.737033e-001 -9.032272e-002 -1.237352e+000 5.775599e-002 -3.225522e-001 3.864008e-002 7.175667e-003 -6.560080e-002 7.686947e-002 1.040608e-001 -3.462337e-002 -6.133693e-002 3.209009e-002 1.085818e-001 2.272721e-003 1.419842e-001 -1.320130e-001 -2.065642e-002
<VARIANCE> 39
 5.640415e+000 6.208160e+000 3.100558e+001 1.386518e+001 1.190469e+001 2.016632e+001 2.146095e+001 8.841097e+000 1.235332e+001 1.083965e+001 2.633695e+001 1.698539e+001 7.563151e+000 2.964095e-001 3.302955e-001 6.939794e-001 4.097777e-001 6.528420e-001 9.721293e-001 1.021224e+000 8.278356e-001 9.786366e-001 8.607431e-001 9.408363e-001 1.330278e+000 2.795550e-001 4.299391e-002 5.726007e-002 1.138032e-001 7.037482e-002 1.145189e-001 1.696948e-001 2.094449e-001 1.454057e-001 1.864476e-001 1.395908e-001 1.139723e-001 2.720402e-001 4.332808e-002
<GCONST> 7.109380e+001
<STATE> 4
<MEAN> 39
 3.150766e+000 3.530452e+000 6.639139e+000 -1.983647e+000 3.015068e+000 1.794233e+000 3.456587e+000 -6.979037e+000 -2.119709e+000 1.313771e+000 -1.397076e+001 -3.242311e+000 5.449067e+001 -3.331549e-001 -1.364380e-001 3.522451e-002 9.589957e-001 3.945328e-001 4.577727e-001 3.071739e-001 4.270971e-001 5.627068e-001 1.084471e-001 6.611555e-001 3.612790e-001 -7.355896e-001 -7.307503e-002 -1.225710e-001 -1.208337e-001 -8.300167e-002 -2.471233e-002 3.973701e-002 7.624961e-002 1.199972e-002 -4.747150e-002 4.132864e-002 1.329234e-001 9.573080e-002 1.787760e-002
<VARIANCE> 39
 6.231331e+000 3.249798e+000 6.032259e+000 2.874759e+001 1.412157e+001 1.299018e+001 1.487009e+001 1.902073e+001 1.327103e+001 1.770168e+001 1.534531e+001 1.874673e+001 8.784110e+000 2.901234e-001 4.553732e-001 7.395831e-001 1.581960e+000 9.519877e-001 9.933708e-001 1.402030e+000 1.585151e+000 1.395164e+000 1.510852e+000 1.059082e+000 1.435524e+000 1.357872e-001 2.949653e-002 5.158581e-002 1.250143e-001 3.015507e-001 1.851503e-001 1.957776e-001 2.923794e-001 3.237153e-001 2.573160e-001 3.141979e-001 2.114305e-001 3.042844e-001 2.398534e-002
<GCONST> 7.760524e+001
<TRANSP> 5
 0.000000e+000 1.000000e+000 0.000000e+000 0.000000e+000 0.000000e+000
 0.000000e+000 8.982800e-001 1.017200e-001 0.000000e+000 0.000000e+000
 0.000000e+000 0.000000e+000 9.018629e-001 9.813707e-002 0.000000e+000
 0.000000e+000 0.000000e+000 0.000000e+000 9.004351e-001 9.956490e-002
 0.000000e+000 0.000000e+000 0.000000e+000 0.000000e+000 0.000000e+000
<ENDHMM>
~h "ow"
<BEGINHMM>
<NUMSTATES> 5
<STATE> 2
<MEAN> 39
 3.541858e+000 -1.648138e-001 -4.598369e+000 -1.304059e+001 -1.724004e+000 4.461940e+000 4.678486e-001 -3.982019e+000 -2.476789e-001 1.986222e+000 1.444834e-001 -4.601064e+000 5.715629e+001 2.906752e-001 3.885390e-002 -6.891074e-001 -1.673549e+000 3.399415e-001 7.832504e-001 -3.126082e-001 3.540581e-001 -3.165265e-001 -4.617203e-001 2.605939e-001 -8.259555e-001 7.618837e-001 -1.216819e-001 3.312990e-002 9.259734e-002 2.201460e-001 -2.401788e-003 -7.745814e-002 1.107717e-001 2.829973e-002 -1.026359e-002 -2.078886e-001 -2.400790e-002 4.686288e-003 2.827530e-002
<VARIANCE> 39
 3.037072e+001 9.813328e+000 3.584201e+001 1.140101e+002 3.374172e+001 4.514582e+001 3.616280e+001 2.551249e+001 4.010344e+001 4.102217e+001 2.869754e+001 4.672358e+001 6.238727e+001 1.774557e+000 1.056297e+000 2.590860e+000 6.902671e+000 2.412659e+000 2.519205e+000 2.387695e+000 2.602867e+000 2.893243e+000 2.571016e+000 2.467791e+000 2.853088e+000 2.944134e+000 4.253149e-001 1.856577e-001 4.340020e-001 1.442569e+000 3.496286e-001 4.088593e-001 4.760671e-001 4.543772e-001 5.073743e-001 5.253146e-001 4.569336e-001 5.274639e-001 4.644733e-001
<GCONST> 1.207724e+002
<STATE> 3
<MEAN> 39
 8.682636e+000 4.077189e+000 -5.179551e+000 -2.468077e+001 -6.163961e+000 5.875857e+000 -1.446239e+000 -1.443630e+000 -3.502119e+000 -5.243945e+000 1.478423e+000 -5.861316e+000 6.205627e+001 1.363783e-001 4.249736e-001 3.824227e-001 1.362132e-001 -2.070217e-001 -4.293735e-001 3.292461e-002 3.458901e-001 -3.863234e-001 -3.916514e-001 -1.532258e-001 -2.055698e-002 -3.923538e-001 -1.239059e-002 -2.958195e-002 3.649644e-002 2.259878e-001 -2.048177e-003 -7.667131e-002 8.859769e-002 -8.321952e-002 1.431744e-002 1.323248e-001 -1.299856e-001 -1.883314e-003 -5.712568e-002
<VARIANCE> 39
 5.076907e+000 1.026032e+001 1.697752e+001 3.367424e+001 3.438847e+001 2.295230e+001 2.096853e+001 2.777524e+001 3.346553e+001 4.553874e+001 2.361054e+001 2.200883e+001 1.685990e+001 1.806182e-001 2.351182e-001 3.955571e-001 8.206716e-001 8.044636e-001 6.122929e-001 8.259701e-001 8.336565e-001 9.722266e-001 1.059318e+000 8.923731e-001 9.522247e-001 1.618856e-001 2.889990e-002 4.043834e-002 6.895969e-002 1.362602e-001 9.265475e-002 9.352486e-002 1.304444e-001 1.535570e-001 1.526194e-001 1.745745e-001 2.300074e-001 1.406914e-001 2.914471e-002
<GCONST> 7.343490e+001
<STATE> 4
<MEAN> 39
 7.915397e+000 5.773009e+000 3.735160e-001 -1.248117e+001 -5.152955e+000 6.500092e-001 1.681873e+000 -2.946963e+000 -6.183163e+000 -1.152064e+000 -5.919958e+000 -6.224265e+000 5.658232e+001 -6.512784e-001 -2.831631e-001 6.635690e-001 1.635980e+000 6.914837e-001 -3.086303e-001 4.206577e-001 -5.164995e-001 2.804493e-001 1.100498e+000 -1.246617e+000 3.375959e-001 -4.736658e-001 -1.408561e-001 -1.181156e-001 1.047950e-002 5.003247e-002 9.386465e-002 3.981447e-002 -1.099548e-001 -6.887244e-002 1.699409e-001 1.296704e-001 9.806670e-002 1.189940e-001 3.627538e-002
<VARIANCE> 39
 9.156028e+000 1.032448e+001 1.270107e+001 6.266141e+001 2.559675e+001 1.935177e+001 2.723824e+001 2.339218e+001 4.690269e+001 3.230208e+001 5.058118e+001 2.581413e+001 2.771643e+001 3.873525e-001 5.967751e-001 9.310642e-001 1.334374e+000 2.136228e+000 1.815426e+000 1.781272e+000 1.990759e+000 1.606158e+000 1.582558e+000 5.142290e+000 1.759361e+000 1.928677e-001 5.714779e-002 6.383160e-002 1.339450e-001 2.708151e-001 2.072881e-001 2.357266e-001 3.701060e-001 2.903109e-001 2.867809e-001 3.336914e-001 6.505290e-001 2.799544e-001 2.564319e-002
<GCONST> 9.435784e+001
<TRANSP> 5
 0.000000e+000 1.000000e+000 0.000000e+000 0.000000e+000 0.000000e+000
 0.000000e+000 7.814081e-001 2.185919e-001 0.000000e+000 0.000000e+000
 0.000000e+000 0.000000e+000 8.891199e-001 1.108801e-001 0.000000e+000
 0.000000e+000 0.000000e+000 0.000000e+000 8.313169e-001 1.686832e-001
 0.000000e+000 0.000000e+000 0.000000e+000 0.000000e+000 0.000000e+000
<ENDHMM>
~h "sp"
<BEGINHMM>
<NUMSTATES> 3
<STATE> 2
~s "silst"
<TRANSP> 3
 0.000000e+000 2.205739e-001 7.794261e-001
 0.000000e+000 9.765121e-001 2.348786e-002
 0.000000e+000 0.000000e+000 0.000000e+000
<ENDHMM>
~h "th"
<BEGINHMM>
<NUMSTATES> 5
<STATE> 2
<MEAN> 39
 -4.490602e+000 8.070986e-001 1.195053e+000 -1.099785e+000 4.681043e+000 -2.996541e+000 3.947945e+000 -8.248025e-001 9.256589e-001 8.405859e-001 -1.129452e+000 -4.088725e-001 5.518036e+001 -1.831749e+000 2.873284e-001 -6.713655e-001 3.909030e-001 8.488480e-001 -3.548180e-001 2.026282e-001 1.314074e+000 7.617363e-001 -1.488555e-001 7.860758e-001 1.849144e-001 7.603391e-001 -1.518074e-001 -6.416775e-002 -8.147482e-002 -9.764103e-002 -7.624776e-002 -6.265531e-002 -3.238510e-003 5.222788e-002 3.527669e-002 3.880842e-002 4.254673e-002 9.740211e-002 1.152756e-001
<VARIANCE> 39
 2.933694e+001 2.195084e+001 1.964387e+001 2.616577e+001 3.227264e+001 4.311937e+001 2.678463e+001 3.359029e+001 3.359180e+001 2.496986e+001 2.863605e+001 2.264669e+001 4.238162e+001 3.613402e+000 1.366841e+000 1.671863e+000 3.375129e+000 2.460770e+000 3.916114e+000 2.316594e+000 2.397642e+000 2.627721e+000 1.679185e+000 2.290079e+000 2.467850e+000 1.374484e+000 4.051828e-001 2.212190e-001 2.363584e-001 3.848000e-001 3.809790e-001 5.666877e-001 4.488779e-001 4.404711e-001 4.172241e-001 2.997482e-001 3.510658e-001 4.759575e-001 1.306899e-001
<GCONST> 1.123564e+002
<STATE> 3
<MEAN> 39
 -1.515194e+001 4.030192e+000 -2.876420e+000 7.283729e-002 8.692241e+000 -4.354520e+000 4.857072e+000 4.662513e+000 4.472118e+000 -2.597443e-001 1.004623e+000 7.175342e-001 6.119801e+001 1.207003e-001 2.543451e-002 1.201793e-001 -1.687652e-001 1.227282e-001 -1.019618e-001 -1.882563e-001 2.208947e-001 1.234182e-001 -9.979251e-002 -1.316402e-001 -1.189611e-001 1.335942e-001 4.468406e-001 -6.353919e-002 1.793840e-001 -8.187374e-002 -1.393478e-001 -2.010550e-002 -1.948735e-001 -1.707348e-001 -5.621118e-002 2.289141e-002 -1.265997e-001 -1.299813e-001 -6.307242e-002
<VARIANCE> 39
 6.270866e+000 1.005683e+001 1.044769e+001 1.860430e+001 2.729358e+001 1.466056e+001 1.972140e+001 2.039767e+001 1.648322e+001 2.043584e+001 1.506388e+001 1.603068e+001 7.933952e+000 1.703983e+000 7.738144e-001 1.061052e+000 1.435103e+000 1.380401e+000 1.475766e+000 1.673829e+000 1.602949e+000 1.554203e+000 1.740332e+000 1.544703e+000 1.532525e+000 3.516457e-001 2.687638e-001 1.393707e-001 1.965799e-001 2.816000e-001 3.259265e-001 3.047503e-001 3.437244e-001 4.146754e-001 2.926037e-001 3.790368e-001 3.314736e-001 3.185374e-001 5.388041e-002
<GCONST> 9.186060e+001
<STATE> 4
<MEAN> 39
 2.531196e-001 5.712466e-001 3.353413e+000 -4.301908e+000 3.418337e+000 -6.902719e+000 -4.017590e+000 5.878537e-001 4.586335e+000 1.461215e+000 -3.787691e+000 -4.440634e+000 6.174802e+001 4.302891e+000 -1.735630e+000 1.050591e+000 2.519593e-001 -3.311395e+000 -5.592490e-001 -1.830409e+000 -2.907137e+000 -5.790898e-001 1.503864e+000 -1.002656e+000 -1.128798e+000 1.703293e-001 -3.232287e-001 -2.923586e-001 -4.591113e-001 5.831673e-001 -4.138289e-001 -1.039890e-001 6.043557e-001 -1.812795e-001 -3.867494e-001 1.595383e-001 3.050383e-001 1.826431e-001 -8.927311e-003
<VARIANCE> 39
 5.651206e+001 1.773744e+001 1.426413e+001 1.582924e+001 3.885961e+001 2.544885e+001 3.125390e+001 4.825900e+001 1.518557e+001 2.584642e+001 1.902162e+001 1.584543e+001 1.110508e+001 2.370970e+000 1.812451e+000 2.142030e+000 3.283876e+000 2.502157e+000 2.666655e+000 3.553697e+000 3.011049e+000 1.766943e+000 2.045365e+000 2.137347e+000 1.498831e+000 6.230032e-001 8.469492e-001 3.035593e-001 3.471849e-001 4.223414e-001 7.511793e-001 5.310364e-001 7.042318e-001 1.151708e+000 3.033476e-001 5.530824e-001 4.535934e-001 3.081709e-001 1.142296e-001
<GCONST> 1.116347e+002
<TRANSP> 5
 0.000000e+000 1.000000e+000 0.000000e+000 0.000000e+000 0.000000e+000
 0.000000e+000 8.276334e-001 1.723666e-001 0.000000e+000 0.000000e+000
 0.000000e+000 0.000000e+000 9.215497e-001 7.845026e-002 0.000000e+000
 0.000000e+000 0.000000e+000 0.000000e+000 7.647021e-001 2.352978e-001
 0.000000e+000 0.000000e+000 0.000000e+000 0.000000e+000 0.000000e+000
<ENDHMM>
~h "uh"
<BEGINHMM>
<NUMSTATES> 5
<STATE> 2
<MEAN> 39
