~o
<STREAMINFO> 1 39
<VECSIZE> 39<NULLD><MFCC_D_A_0><DIAGC>
~s "silst"
<MEAN> 39
 -3.101224e+000 -9.119812e-001 1.888548e+000 1.543583e+000 2.358089e+000 3.551122e+000 5.180599e+000 -4.241680e+000 1.243193e+000 1.994401e+000 -2.878745e+000 2.596616e-001 4.688224e+001 -5.840698e-002 -4.533936e-002 -5.400649e-002 1.670556e-002 7.521040e-003 4.647984e-003 3.569008e-002 2.059723e-003 3.495795e-002 4.962331e-002 5.165050e-002 6.414728e-002 -6.041762e-002 1.292164e-002 1.296883e-002 1.804196e-003 -2.098209e-002 -9.151530e-003 -2.498824e-002 -1.688823e-002 1.085425e-002 -9.293958e-003 -1.303429e-002 1.387661e-003 -9.232924e-003 2.291092e-002
<VARIANCE> 39
 5.200601e+000 7.210107e+000 8.199621e+000 8.939253e+000 1.181928e+001 1.570894e+001 1.546393e+001 2.131202e+001 1.901039e+001 1.878394e+001 2.041755e+001 1.388305e+001 5.257854e+000 1.850246e-001 3.535551e-001 5.314181e-001 6.677014e-001 9.077350e-001 1.108830e+000 1.316542e+000 1.550759e+000 1.530808e+000 1.512003e+000 1.401971e+000 1.211358e+000 1.208471e-001 3.343605e-002 6.316882e-002 1.012864e-001 1.342327e-001 1.851062e-001 2.261437e-001 2.698163e-001 3.109849e-001 3.184811e-001 3.081314e-001 2.833575e-001 2.456563e-001 2.003411e-002
<GCONST> 7.500920e+001
~h "d"
<BEGINHMM>
<NUMSTATES> 5
<STATE> 2
<MEAN> 39
 -2.684026e+000 -1.152556e+000 3.889999e-001 -4.170758e-001 3.340384e-001 2.646210e+000 5.976528e+000 -2.140157e+000 4.558854e+000 4.347649e+000 3.961619e-001 1.944557e+000 4.821875e+001 -2.450711e-001 -1.832129e-001 -1.585074e-001 9.057292e-002 9.585752e-002 2.190465e-001 3.449147e-001 3.015640e-001 3.997293e-002 -8.335924e-002 1.468446e-001 8.504646e-002 -2.602709e-001 4.938484e-002 5.166393e-002 7.008667e-002 -1.002377e-001 9.037261e-002 -1.019904e-001 -2.347641e-001 -1.207210e-001 -2.459819e-001 -1.082729e-001 -1.470413e-001 -6.764980e-002 1.884352e-001
<VARIANCE> 39
 8.212916e+000 4.682343e+000 6.141433e+000 8.694977e+000 9.701778e+000 1.593869e+001 1.732559e+001 2.399229e+001 1.829605e+001 1.954402e+001 1.643715e+001 1.620562e+001 7.698315e+000 8.147995e-001 5.492365e-001 7.171851e-001 1.004328e+000 1.207633e+000 1.257257e+000 2.092159e+000 2.072334e+000 2.026249e+000 1.686699e+000 1.514881e+000 1.442615e+000 8.376604e-001 1.377783e-001 9.288996e-002 1.499960e-001 1.856119e-001 2.469444e-001 2.446025e-001 3.852046e-001 3.673705e-001 3.722832e-001 3.015904e-001 3.288842e-001 2.649230e-001 1.384131e-001
<GCONST> 8.716026e+001
<STATE> 3
<MEAN> 39
 -4.849562e+000 -5.076252e-001 2.424503e+000 9.523881e-001 2.571877e+000 1.191925e+000 4.647597e+000 -4.870120e+000 -6.561318e-001 2.485022e-001 -2.687121e+000 -9.042944e-002 4.734491e+001 -6.430331e-002 -9.109593e-004 1.967933e-002 1.395989e-003 1.190486e-001 1.160823e-002 -1.022964e-001 3.111424e-002 -5.679949e-002 -4.192315e-002 2.022956e-003 2.774252e-002 3.778099e-002 -2.643953e-002 -4.310907e-002 -1.576629e-002 -5.233351e-002 -1.144462e-004 -5.194830e-002 -5.711158e-002 5.575884e-002 2.652887e-002 -5.741318e-003 3.761173e-002 2.477217e-002 8.754627e-002
<VARIANCE> 39
 4.603474e+000 5.815394e+000 5.235178e+000 8.996909e+000 9.714216e+000 1.158429e+001 1.318313e+001 1.745790e+001 1.670082e+001 1.732677e+001 1.676333e+001 1.317271e+001 2.646289e+000 3.356588e-001 5.088938e-001 6.045847e-001 7.927722e-001 1.152056e+000 1.257070e+000 1.461880e+000 1.660215e+000 1.791749e+000 1.790817e+000 1.596404e+000 1.598066e+000 1.785883e-001 6.917679e-002 1.157383e-001 1.230903e-001 1.743611e-001 2.375811e-001 2.904891e-001 3.309020e-001 3.725677e-001 4.002615e-001 4.145643e-001 3.507422e-001 3.448265e-001 9.217587e-002
<GCONST> 8.042281e+001
<STATE> 4
<MEAN> 39
 -6.000865e+000 -3.244071e+000 2.447240e+000 -2.253025e+000 3.015756e+000 7.725996e-001 1.545993e+000 1.290053e+000 2.295595e+000 1.797391e+000 8.316379e-001 2.084486e+000 5.208579e+001 -1.491989e-001 -3.669079e-001 2.298580e-001 -2.478529e-001 1.068874e-001 -6.391408e-001 -3.661401e-001 4.576668e-001 -8.737712e-002 -2.621774e-001 7.129481e-002 1.655423e-001 6.278523e-001 1.409454e-001 6.877274e-002 -2.715488e-002 7.981148e-002 -1.292955e-001 1.087687e-002 2.190168e-001 -1.632601e-001 2.024319e-002 5.737528e-002 -8.227045e-002 -3.478911e-002 -9.308907e-002
<VARIANCE> 39
 2.062376e+001 1.980388e+001 1.668279e+001 2.762949e+001 2.315842e+001 3.064771e+001 3.369361e+001 3.593869e+001 2.139215e+001 2.307520e+001 2.191437e+001 1.551813e+001 3.127490e+001 2.867212e+000 2.402857e+000 2.004833e+000 3.136220e+000 2.729823e+000 2.961257e+000 4.020356e+000 3.629829e+000 1.700979e+000 2.309967e+000 2.147968e+000 1.602621e+000 3.716925e+000 4.995849e-001 5.085773e-001 4.136113e-001 5.469909e-001 5.526431e-001 5.970506e-001 7.573186e-001 6.600728e-001 3.429061e-001 4.431910e-001 4.259460e-001 3.242794e-001 7.183022e-001
<GCONST> 1.165641e+002
<TRANSP> 5
 0.000000e+000 1.000000e+000 0.000000e+000 0.000000e+000 0.000000e+000
 0.000000e+000 6.577537e-001 3.422462e-001 0.000000e+000 0.000000e+000
 0.000000e+000 0.000000e+000 8.676581e-001 1.323419e-001 0.000000e+000
 0.000000e+000 0.000000e+000 0.000000e+000 7.603230e-001 2.396769e-001
 0.000000e+000 0.000000e+000 0.000000e+000 0.000000e+000 0.000000e+000
<ENDHMM>
~h "f"
<BEGINHMM>
<NUMSTATES> 5
<STATE> 2
<MEAN> 39
 -2.257845e+000 -3.114955e+000 -5.559401e-001 5.694067e-002 3.251247e+000 2.439760e+000 3.217474e+000 -1.878509e+000 2.605116e+000 1.894482e+000 -8.974542e-001 4.504060e-001 5.008567e+001 -1.598760e-001 -3.377836e-002 -4.750885e-002 2.289998e-001 1.820665e-001 1.807107e-001 8.588637e-002 1.351940e-001 1.431177e-001 5.220544e-002 7.285915e-002 1.165934e-002 -2.074739e-002 -2.759093e-002 -2.433326e-002 1.378161e-002 -4.659923e-003 2.028330e-002 -2.814357e-002 -2.583081e-002 4.229951e-002 6.903566e-003 8.754575e-003 1.364591e-002 4.457849e-003 7.832163e-002
<VARIANCE> 39
 9.961778e+000 1.156756e+001 1.111492e+001 1.047897e+001 1.311145e+001 1.782744e+001 1.962563e+001 2.030426e+001 2.047773e+001 2.074348e+001 1.947629e+001 1.666815e+001 1.764012e+001 7.890595e-001 5.858616e-001 6.972382e-001 1.280041e+000 1.170886e+000 1.354555e+000 1.409593e+000 1.687083e+000 1.675493e+000 1.485923e+000 1.403499e+000 1.130357e+000 2.994971e-001 8.058375e-002 9.020628e-002 1.143267e-001 1.777343e-001 1.918416e-001 2.373526e-001 2.578655e-001 3.111364e-001 3.014735e-001 2.831493e-001 2.580401e-001 2.289181e-001 6.575991e-002
<GCONST> 8.549436e+001
<STATE> 3
<MEAN> 39
 -7.805229e+000 -3.419046e+000 4.450442e-002 2.921252e+000 3.795301e+000 3.240072e+000 2.462380e+000 2.375145e+000 2.872711e+000 1.675439e+000 2.655139e-001 3.169703e-001 5.892336e+001 -6.529124e-001 -3.963912e-001 -2.697245e-001 1.519557e-001 7.854906e-002 5.606269e-002 -7.262889e-002 4.095953e-001 1.393581e-001 1.030599e-001 1.904996e-001 1.025472e-001 5.351081e-001 2.262709e-001 6.242206e-002 -1.908730e-005 -1.991727e-001 -9.585475e-002 -7.534385e-002 -1.063687e-002 -1.273097e-001 -8.870047e-002 -2.076242e-002 -7.444806e-002 -6.431289e-002 -3.195528e-002
<VARIANCE> 39
 2.380546e+001 1.434429e+001 1.417302e+001 1.477166e+001 1.501935e+001 1.534840e+001 1.752918e+001 1.894932e+001 1.806285e+001 1.687764e+001 1.500311e+001 1.439688e+001 2.764902e+001 1.806499e+000 9.691291e-001 1.152116e+000 1.634051e+000 1.714393e+000 1.655763e+000 1.744916e+000 2.018572e+000 1.946022e+000 1.808553e+000 1.721314e+000 1.533055e+000 1.437281e+000 3.535020e-001 1.901942e-001 2.002261e-001 3.196098e-001 3.368694e-001 3.299589e-001 3.611453e-001 3.904465e-001 3.856883e-001 3.678964e-001 3.164866e-001 3.204350e-001 1.641970e-001
<GCONST> 9.894953e+001
<STATE> 4
<MEAN> 39
 -2.122621e-001 -2.098682e+000 -3.633250e+000 -6.341037e+000 1.605754e+000 3.390493e+000 -2.344801e-001 -3.542764e-001 1.275714e-001 2.591727e+000 -6.598972e-001 -3.687449e+000 6.185735e+001 3.250499e+000 1.018600e+000 -1.197998e+000 -3.924855e+000 -8.979349e-001 4.874445e-001 -1.026716e+000 -1.338165e+000 -1.147446e+000 2.072632e-001 -2.497539e-001 -1.633225e+000 7.429241e-001 -1.719543e-001 -5.409514e-002 -2.074138e-001 -2.799523e-001 -4.175157e-002 2.494529e-001 1.315801e-002 4.525613e-002 -3.572900e-002 -1.018194e-001 4.205048e-002 -5.385912e-002 1.638020e-001
<VARIANCE> 39
 7.264541e+001 1.952345e+001 1.952032e+001 9.176289e+001 1.731056e+001 1.600841e+001 2.183277e+001 2.363605e+001 2.370755e+001 2.261102e+001 1.721151e+001 2.966739e+001 1.457113e+001 4.307896e+000 2.182748e+000 2.188953e+000 5.916488e+000 2.052251e+000 2.377057e+000 2.091567e+000 2.060883e+000 2.220753e+000 2.662257e+000 2.027145e+000 2.590924e+000 1.005050e+000 1.660856e+000 5.222562e-001 3.363938e-001 1.675686e+000 4.632222e-001 3.509481e-001 5.414433e-001 5.349587e-001 4.939243e-001 4.871931e-001 3.450927e-001 5.135446e-001 1.409701e-001
<GCONST> 1.158980e+002
<TRANSP> 5
 0.000000e+000 1.000000e+000 0.000000e+000 0.000000e+000 0.000000e+000
 0.000000e+000 8.618181e-001 1.381819e-001 0.000000e+000 0.000000e+000
 0.000000e+000 0.000000e+000 9.179347e-001 8.206532e-002 0.000000e+000
 0.000000e+000 0.000000e+000 0.000000e+000 7.970224e-001 2.029776e-001
 0.000000e+000 0.000000e+000 0.000000e+000 0.000000e+000 0.000000e+000
<ENDHMM>
~h "k"
<BEGINHMM>
<NUMSTATES> 5
<STATE> 2
<MEAN> 39
 -1.445852e+001 2.529313e+000 -4.420790e+000 3.712419e+000 9.131204e+000 -3.106776e+000 2.829610e+000 -8.659627e-002 6.096239e+000 3.656566e+000 1.640166e+000 -9.627850e-001 5.820430e+001 -5.544040e-001 3.893838e-001 1.753139e-001 1.036688e-001 -7.744767e-002 1.842559e-001 3.521078e-002 4.469684e-001 1.131171e-001 -2.567825e-002 1.634848e-001 -1.606948e-003 1.126700e-001 3.022484e-001 -5.601788e-003 -3.576025e-002 -6.806466e-002 -8.796740e-002 -1.183841e-001 8.868217e-003 -9.235460e-002 -1.232855e-001 -9.742953e-002 -1.115202e-001 -6.150214e-002 -7.269092e-002
<VARIANCE> 39
 1.677954e+001 1.090524e+001 1.106679e+001 1.766885e+001 2.141179e+001 2.149644e+001 1.757717e+001 1.976135e+001 2.330113e+001 1.694516e+001 1.626331e+001 1.689077e+001 2.033685e+001 1.369977e+000 5.904986e-001 1.082406e+000 1.162020e+000 1.284807e+000 1.998712e+000 1.673883e+000 2.006868e+000 2.067926e+000 1.726614e+000 1.503305e+000 1.579985e+000 4.872166e-001 1.600174e-001 1.160259e-001 2.030928e-001 2.503068e-001 3.019800e-001 3.962312e-001 3.552621e-001 3.799833e-001 4.679654e-001 3.659278e-001 3.039358e-001 3.293366e-001 6.842320e-002
<GCONST> 9.450245e+001
<STATE> 3
<MEAN> 39
 -1.151762e+001 3.604706e+000 -2.671682e+000 4.762363e-001 8.004751e+000 -1.612560e+000 4.364868e+000 -1.710071e+000 3.790339e+000 2.740780e+000 7.424325e-002 -8.254576e-001 5.352806e+001 4.316332e-001 -1.618240e-001 2.169573e-001 -2.291023e-001 -3.043557e-001 1.955430e-001 1.255332e-001 -2.294176e-001 -1.699458e-001 -4.972536e-002 -1.434132e-001 2.904665e-002 -3.335324e-001 8.218203e-002 -7.739851e-002 1.429663e-002 4.342987e-002 -2.885536e-002 2.505638e-002 1.024019e-002 -1.319701e-003 -3.691060e-002 3.770475e-002 1.592862e-002 3.205115e-002 -1.276675e-002
<VARIANCE> 39
 2.187429e+001 1.115865e+001 1.340682e+001 1.360487e+001 1.953830e+001 2.066176e+001 1.619800e+001 1.812109e+001 2.009771e+001 1.657282e+001 1.837980e+001 1.493530e+001 1.671832e+001 6.569521e-001 5.363227e-001 7.456803e-001 8.018417e-001 1.081421e+000 1.599653e+000 1.319975e+000 1.515325e+000 1.558722e+000 1.638350e+000 1.454179e+000 1.315446e+000 3.814749e-001 7.690228e-002 7.333179e-002 1.333178e-001 1.449521e-001 2.060627e-001 3.257037e-001 2.688495e-001 2.904356e-001 3.180132e-001 3.338869e-001 3.053443e-001 2.419149e-001 5.286624e-002
<GCONST> 8.644595e+001
<STATE> 4
<MEAN> 39
 -3.401242e+000 -2.985130e+000 -3.516978e-001 1.735564e-001 2.947000e+000 1.763550e+000 4.827055e+000 -9.565057e-001 3.877545e+000 3.721262e+000 3.267068e-001 1.884990e+000 4.947474e+001 5.571441e-002 1.673026e-002 -2.553441e-002 -4.069521e-003 -7.104031e-003 6.060190e-002 4.493279e-002 1.869099e-002 -2.325598e-002 -1.464290e-003 -2.481576e-002 1.681625e-002 -4.477170e-002 -1.443966e-002 1.398487e-002 1.458939e-002 -1.398844e-003 3.628052e-002 -2.230678e-002 -4.158970e-003 2.600255e-002 -9.135104e-003 -6.150397e-003 7.706499e-003 6.637562e-004 1.797350e-002
<VARIANCE> 39
 1.166042e+001 1.238072e+001 9.291449e+000 1.074592e+001 1.541109e+001 1.798295e+001 1.779190e+001 2.158128e+001 2.003259e+001 2.148774e+001 1.433227e+001 1.336789e+001 1.131641e+001 2.309592e-001 3.653539e-001 4.682302e-001 6.791471e-001 8.054098e-001 1.077379e+000 1.474304e+000 1.431480e+000 1.342005e+000 1.443406e+000 1.179937e+000 1.118704e+000 1.905824e-001 3.856625e-002 6.010799e-002 9.404347e-002 1.269274e-001 1.721542e-001 2.202838e-001 3.045188e-001 2.776780e-001 2.685866e-001 2.931103e-001 2.230900e-001 2.319636e-001 3.260247e-002
<GCONST> 7.767858e+001
<TRANSP> 5
 0.000000e+000 1.000000e+000 0.000000e+000 0.000000e+000 0.000000e+000
 0.000000e+000 8.013413e-001 1.986587e-001 0.000000e+000 0.000000e+000
 0.000000e+000 0.000000e+000 6.968060e-001 3.031940e-001 0.000000e+000
 0.000000e+000 0.000000e+000 0.000000e+000 8.843348e-001 1.156652e-001
 0.000000e+000 0.000000e+000 0.000000e+000 0.000000e+000 0.000000e+000
<ENDHMM>
~h "l"
<BEGINHMM>
<NUMSTATES> 5
<STATE> 2
<MEAN> 39
 -1.887491e+000 -2.164570e+000 1.258260e+000 -4.546129e+000 2.045416e+000 -3.682962e+000 -2.242536e-001 -2.156764e+000 1.297937e+000 3.381515e+000 -3.962859e+000 1.412280e+000 5.753353e+001 2.519076e-001 -5.831794e-001 -3.939943e-001 -1.110081e+000 3.995532e-001 -1.534429e+000 -1.092177e+000 1.055695e+000 5.812924e-001 -2.489631e-001 -8.229173e-001 -5.020198e-001 2.323051e+000 2.330560e-001 -1.338064e-001 -2.975031e-002 -1.678680e-001 1.106765e-001 1.700717e-001 1.202326e-001 1.166650e-001 2.249830e-002 -6.071135e-002 -1.749882e-001 -4.299412e-001 1.424364e-001
<VARIANCE> 39
 3.279243e+001 1.932478e+001 3.850181e+001 3.572118e+001 2.396973e+001 5.213548e+001 5.863684e+001 5.384148e+001 5.207164e+001 3.735936e+001 3.653708e+001 1.961821e+001 5.989407e+001 2.933661e+000 1.525976e+000 2.617073e+000 3.764059e+000 2.296770e+000 4.774106e+000 3.487622e+000 3.994185e+000 4.215148e+000 3.506556e+000 4.744508e+000 3.509076e+000 5.468201e+000 3.654391e-001 3.114941e-001 4.896852e-001 5.192900e-001 4.863263e-001 1.092556e+000 7.998389e-001 6.898580e-001 7.976987e-001 6.320964e-001 8.126713e-001 6.515220e-001 9.647521e-001
<GCONST> 1.286779e+002
<STATE> 3
<MEAN> 39
 2.576046e+000 -6.399972e+000 -2.251422e+000 -1.121315e+001 6.913970e+000 -4.488193e+000 1.622691e-001 1.022894e+000 2.054574e+000 1.452645e+000 -8.128584e+000 -7.962173e+000 6.648509e+001 1.224818e+000 -4.782868e-001 -8.555998e-001 -1.646679e+000 6.158477e-001 1.280064e+000 4.825342e-001 -1.078230e+000 -8.319920e-001 -1.348974e-001 -5.247067e-001 -1.901788e+000 1.005019e+000 -2.696333e-001 1.853475e-001 -7.159068e-002 9.065440e-002 -1.919481e-001 3.455400e-001 6.779196e-002 -4.559933e-001 -1.923368e-001 3.229101e-002 3.823551e-001 4.956450e-001 -3.085385e-001
<VARIANCE> 39
 2.528967e+001 1.963006e+001 3.439338e+001 3.638221e+001 2.514028e+001 5.367970e+001 4.471335e+001 4.313531e+001 4.564210e+001 2.944115e+001 5.148018e+001 4.283371e+001 1.031396e+001 2.218809e+000 2.794882e+000 1.652258e+000 2.291110e+000 2.690408e+000 3.627519e+000 3.059670e+000 4.156726e+000 4.884001e+000 2.959601e+000 3.579074e+000 4.441272e+000 1.262160e+000 5.312091e-001 3.911680e-001 2.785392e-001 4.371800e-001 3.476192e-001 8.613404e-001 6.000164e-001 9.341882e-001 8.211678e-001 5.207293e-001 7.473076e-001 6.735905e-001 3.149942e-001
<GCONST> 1.225183e+002
<STATE> 4
<MEAN> 39
 5.336953e+000 -5.045114e+000 -1.977737e+000 -1.661509e+001 4.100016e+000 -3.730168e+000 2.893279e-001 -3.785146e+000 -3.029500e+000 2.342735e-002 -8.825238e+000 -5.774346e+000 6.746998e+001 -1.040946e-002 3.127604e-001 2.526765e-001 5.053090e-002 -2.916374e-001 -1.016766e-001 -2.134632e-002 -1.784248e-001 -1.796693e-001 -1.067534e-001 2.216308e-001 4.136996e-001 -2.491363e-001 -4.077826e-002 4.311892e-002 5.614163e-002 1.518313e-001 -1.618337e-002 -3.866050e-002 8.438650e-003 7.096384e-002 3.840543e-002 -3.937491e-004 2.316623e-002 2.912875e-002 -6.639878e-002
<VARIANCE> 39
 5.921206e+000 4.145438e+001 6.031942e+001 4.286356e+001 3.915832e+001 8.335806e+001 3.782540e+001 3.871631e+001 3.989201e+001 3.815837e+001 3.287833e+001 3.920308e+001 1.597565e+001 2.105878e-001 8.343112e-001 1.303014e+000 1.368723e+000 1.424508e+000 2.475726e+000 1.730222e+000 1.820951e+000 1.484290e+000 1.573896e+000 1.456186e+000 1.353320e+000 3.215507e-001 5.185067e-002 1.075952e-001 1.286610e-001 1.904633e-001 1.857410e-001 2.902864e-001 2.511104e-001 2.975377e-001 2.347223e-001 2.312689e-001 2.139622e-001 2.123552e-001 4.069569e-002
<GCONST> 9.569976e+001
<TRANSP> 5
 0.000000e+000 1.000000e+000 0.000000e+000 0.000000e+000 0.000000e+000
 0.000000e+000 7.729659e-001 2.270341e-001 0.000000e+000 0.000000e+000
 0.000000e+000 0.000000e+000 7.231742e-001 2.768258e-001 0.000000e+000
 0.000000e+000 0.000000e+000 0.000000e+000 9.347028e-001 6.529725e-002
 0.000000e+000 0.000000e+000 0.000000e+000 0.000000e+000 0.000000e+000
<ENDHMM>
~h "n"
<BEGINHMM>
<NUMSTATES> 5
<STATE> 2
<MEAN> 39
 4.339451e+000 -4.123526e+000 5.823952e+000 -7.927785e+000 -4.725411e+000 -8.979334e+000 4.626547e+000 -8.236678e-001 -5.970845e+000 -3.838610e+000 -6.995992e+000 -1.861225e+000 6.184319e+001 7.663982e-002 1.374323e+000 1.547952e+000 4.373503e-001 -7.090774e-001 -3.736071e-001 -6.707382e-001 -7.930424e-001 -8.014725e-001 1.013613e+000 -1.756497e-002 5.732422e-001 -8.606421e-001 -1.771319e-002 1.723825e-001 -1.881641e-001 1.160596e-001 3.201422e-001 2.226106e-001 -3.757266e-001 -4.560650e-001 1.777499e-001 1.885076e-001 -1.059433e-001 -2.654157e-001 -5.976010e-002
<VARIANCE> 39
 1.276378e+001 2.825088e+001 2.943580e+001 3.546435e+001 2.524081e+001 4.670279e+001 3.274212e+001 3.735232e+001 2.544838e+001 4.656864e+001 2.354736e+001 3.645515e+001 3.662576e+001 7.451649e-001 1.315020e+000 1.943000e+000 1.394695e+000 2.087168e+000 2.205243e+000 2.643079e+000 2.489859e+000 2.289848e+000 1.990575e+000 4.385699e+000 2.645120e+000 1.089316e+000 1.034149e-001 1.858709e-001 2.952139e-001 2.543604e-001 3.711490e-001 3.847958e-001 4.106882e-001 3.952634e-001 2.907559e-001 3.983684e-001 3.749325e-001 3.633659e-001 1.292618e-001
<GCONST> 1.080714e+002
<STATE> 3
<MEAN> 39
 5.079876e+000 1.547219e+000 8.437678e+000 -6.889709e+000 -4.102524e+000 -8.044685e+000 -6.359116e-001 -6.215245e+000 -8.163676e+000 1.369035e-001 -6.543623e+000 -2.793700e+000 5.882045e+001 1.159885e-001 1.141486e+000 -1.712961e-001 1.346397e+000 4.292220e-001 2.758823e-001 -5.963201e-001 -1.829758e+000 3.996701e-001 1.237625e+000 -7.217083e-001 -7.682979e-001 -9.499118e-001 -7.496152e-002 -2.583515e-001 -3.081042e-001 1.070371e-001 4.279703e-002 6.708656e-002 2.632865e-001 9.503938e-002 4.025066e-001 -6.885851e-002 -7.599283e-002 -6.614946e-002 9.464232e-002
<VARIANCE> 39
 9.589160e+000 1.472927e+001 4.001365e+001 3.691424e+001 2.337909e+001 4.474733e+001 3.083082e+001 3.720595e+001 3.034224e+001 4.352623e+001 3.167267e+001 4.416897e+001 1.861987e+001 6.572144e-001 1.405268e+000 2.535474e+000 2.658525e+000 1.799822e+000 3.405576e+000 3.251602e+000 3.598857e+000 2.518197e+000 2.128519e+000 3.255504e+000 2.577102e+000 1.173203e+000 1.178480e-001 1.963981e-001 3.535982e-001 3.582496e-001 3.328428e-001 4.045915e-001 5.141863e-001 5.582286e-001 4.387026e-001 3.348694e-001 4.300235e-001 4.945182e-001 9.909343e-002
<GCONST> 1.104812e+002
<STATE> 4
<MEAN> 39
 6.086351e+000 3.965255e+000 6.982373e+000 -2.945545e+000 -3.137022e+000 -6.967401e+000 -1.216343e+000 -1.292478e+001 -6.724848e+000 6.842550e+000 -1.451482e+001 -5.982508e+000 5.695264e+001 -3.223678e-001 3.652404e-002 8.997440e-003 5.409210e-001 2.831376e-001 3.678084e-001 1.990681e-001 -3.519001e-002 5.403468e-001 2.975896e-002 5.811237e-002 1.440820e-001 -3.641731e-001 -1.262062e-001 -1.658023e-001 -1.534109e-001 -1.614323e-001 1.115479e-001 1.477962e-001 4.718047e-002 3.935848e-001 2.723577e-002 -2.190682e-001 3.182572e-001 9.709696e-002 5.823052e-002
<VARIANCE> 39
 6.166223e+000 6.952166e+000 1.136903e+001 3.637679e+001 1.863776e+001 3.159013e+001 3.284375e+001 3.256976e+001 2.365065e+001 3.948105e+001 4.820573e+001 2.124435e+001 1.641329e+001 4.872732e-001 6.533353e-001 1.124779e+000 1.300559e+000 1.310139e+000 2.317352e+000 1.849797e+000 2.665534e+000 1.411651e+000 2.037949e+000 2.844022e+000 1.476525e+000 4.425941e-001 9.712537e-002 1.115189e-001 1.807753e-001 2.077568e-001 2.447719e-001 2.864442e-001 3.267299e-001 3.946128e-001 2.651119e-001 3.722225e-001 3.885489e-001 2.651466e-001 6.087425e-002
<GCONST> 9.509962e+001
<TRANSP> 5
 0.000000e+000 1.000000e+000 0.000000e+000 0.000000e+000 0.000000e+000
 0.000000e+000 5.853187e-001 4.146812e-001 0.000000e+000 0.000000e+000
 0.000000e+000 0.000000e+000 5.693203e-001 4.306796e-001 0.000000e+000
 0.000000e+000 0.000000e+000 0.000000e+000 8.534437e-001 1.465563e-001
 0.000000e+000 0.000000e+000 0.000000e+000 0.000000e+000 0.000000e+000
<ENDHMM>
~h "r"
<BEGINHMM>
<NUMSTATES> 5
<STATE> 2
<MEAN> 39
 1.046988e+001 -5.863405e+000 -1.309981e+000 1.509389e-001 -9.993740e+000 -6.712551e+000 -1.418942e+000 -9.362777e+000 -8.850893e-001 5.631311e+000 -9.498932e-001 -6.925328e+000 6.192611e+001 9.386118e-001 -5.154937e-001 -4.770619e-001 5.199635e-001 -1.102761e+000 -4.861134e-001 9.376969e-001 -6.860404e-001 -1.578567e+000 2.554948e-001 6.652985e-001 4.324677e-001 -3.115802e-001 -4.552561e-001 3.156171e-001 1.322876e-001 -5.526029e-001 6.531485e-001 8.599530e-002 -1.424441e-001 6.165822e-001 2.689268e-001 -4.125008e-001 -1.419763e-001 2.911117e-001 4.788766e-002
<VARIANCE> 39
 8.773346e+000 7.458754e+000 4.766238e+001 2.030785e+001 2.045002e+001 4.258954e+001 2.166338e+001 2.187080e+001 1.564766e+001 1.284291e+001 2.884159e+001 1.112324e+001 8.015221e+000 7.468903e-001 1.324400e+000 1.531691e+000 3.813932e+000 1.557602e+000 3.001458e+000 1.233225e+000 1.629141e+000 1.369021e+000 1.152986e+000 1.467809e+000 1.402645e+000 2.233635e-001 1.867570e-001 1.188944e-001 2.469016e-001 2.894987e-001 3.292187e-001 2.834204e-001 2.818717e-001 3.666956e-001 2.694161e-001 2.339924e-001 3.558564e-001 1.911877e-001 4.007418e-002
<GCONST> 9.273692e+001
<STATE> 3
<MEAN> 39
 1.192596e+001 -7.042290e+000 -1.536057e+000 -1.439574e+000 -1.058443e+001 -7.788051e+000 -1.919959e+000 -9.177208e+000 -2.557146e+000 5.652502e+000 -2.709757e-001 -4.946402e+000 6.215591e+001 -2.335181e-001 -1.210873e-001 9.503398e-001 -1.443055e+000 -3.112397e-001 8.599731e-002 -2.213782e-001 5.155643e-001 1.638118e-001 -5.823026e-001 -5.125775e-001 9.860170e-001 2.387205e-001 -3.187911e-001 1.118811e-001 4.239053e-001 -3.981494e-001 1.737799e-001 -1.360409e-001 -1.571855e-001 4.827203e-001 2.006521e-001 -3.781955e-001 -1.941173e-001 1.803047e-001 1.057974e-001
<VARIANCE> 39
 5.096354e+000 8.828699e+000 3.158442e+001 2.229967e+001 1.528126e+001 5.546738e+001 3.081555e+001 2.534619e+001 1.721778e+001 1.246022e+001 2.414454e+001 1.161211e+001 5.363986e+000 2.964588e-001 8.246827e-001 9.166168e-001 1.076685e+000 7.169283e-001 1.585573e+000 9.992628e-001 1.730512e+000 1.541232e+000 1.044056e+000 1.203773e+000 1.225070e+000 3.140212e-001 3.945184e-002 6.412858e-002 1.237699e-001 1.433849e-001 1.609163e-001 2.140785e-001 2.742068e-001 2.202040e-001 3.398094e-001 1.700247e-001 2.760505e-001 2.212517e-001 2.149979e-002
<GCONST> 8.141529e+001
<STATE> 4
<MEAN> 39
 1.008173e+001 -4.954433e+000 4.057151e-001 -9.368256e+000 -1.237571e+001 -4.156326e+000 -3.512291e-001 -7.354581e+000 -2.069229e+000 2.137465e-001 -1.739310e+000 -9.298856e-001 6.273906e+001 -7.734370e-001 7.515762e-001 1.422542e+000 -2.013222e+000 5.725784e-001 -6.710378e-001 -2.902191e-001 1.883718e+000 -7.244038e-001 -1.574361e+000 -1.146631e-001 1.215451e+000 3.095455e-002 -1.099896e-001 1.239329e-001 -5.757421e-002 2.593294e-001 2.366773e-001 -3.059293e-001 2.758572e-002 7.027397e-002 -3.104551e-001 1.422455e-001 2.745717e-001 -2.499593e-001 -3.676020e-002
<VARIANCE> 39
 6.211547e+000 3.053302e+001 6.284179e+001 3.764150e+001 2.039479e+001 1.321423e+002 4.174059e+001 6.451748e+001 2.815360e+001 2.279188e+001 2.281921e+001 1.519489e+001 9.576495e+000 3.404440e-001 8.183086e-001 8.252455e-001 1.069438e+000 1.716181e+000 2.225813e+000 2.291293e+000 1.767339e+000 2.192845e+000 1.409651e+000 1.917701e+000 1.547080e+000 5.343570e-001 2.493941e-002 1.050562e-001 8.015672e-002 1.556326e-001 2.114446e-001 2.095843e-001 4.186369e-001 5.559270e-001 3.269140e-001 2.542937e-001 2.047205e-001 2.902293e-001 2.949150e-002
<GCONST> 9.424883e+001
<TRANSP> 5
 0.000000e+000 1.000000e+000 0.000000e+000 0.000000e+000 0.000000e+000
 0.000000e+000 5.502116e-001 4.497884e-001 0.000000e+000 0.000000e+000
 0.000000e+000 0.000000e+000 6.493186e-001 3.506814e-001 0.000000e+000
 0.000000e+000 0.000000e+000 0.000000e+000 6.049196e-001 3.950804e-001
 0.000000e+000 0.000000e+000 0.000000e+000 0.000000e+000 0.000000e+000
<ENDHMM>
~h "s"
<BEGINHMM>
<NUMSTATES> 5
<STATE> 2
<MEAN> 39
 -2.512712e+000 1.936132e+000 2.653805e-001 -2.918321e+000 4.926779e+000 -1.792232e+000 2.295126e+000 -2.159534e+000 -6.348217e-001 9.574333e-001 -2.646853e+000 -2.135034e+000 5.731388e+001 -2.316556e+000 1.996730e-001 -4.655550e-001 1.018590e+000 1.273097e+000 7.529320e-002 6.522638e-002 1.649709e+000 9.320672e-001 -3.335003e-001 1.318573e+000 1.140854e-001 3.553822e-001 -3.054492e-001 -5.501939e-002 -1.149481e-001 -8.274785e-002 -1.685443e-001 -1.429809e-001 -2.492783e-002 8.448603e-002 5.581922e-002 5.544317e-002 4.108137e-002 1.474216e-001 1.377892e-001
<VARIANCE> 39
 4.673444e+001 1.547626e+001 2.311408e+001 5.220330e+001 4.247818e+001 3.351908e+001 3.110418e+001 3.481361e+001 3.246649e+001 3.497396e+001 3.293137e+001 2.317814e+001 3.709273e+001 3.974250e+000 1.451735e+000 2.124400e+000 4.287517e+000 2.936402e+000 3.558260e+000 2.510145e+000 3.171474e+000 2.734913e+000 2.778779e+000 3.583655e+000 2.354194e+000 1.387006e+000 4.889500e-001 2.496922e-001 2.781410e-001 5.910351e-001 4.694744e-001 5.301455e-001 4.545787e-001 6.240654e-001 4.485871e-001 5.021009e-001 4.859942e-001 4.553926e-001 1.348923e-001
<GCONST> 1.182003e+002
<STATE> 3
<MEAN> 39
 -1.489266e+001 3.488566e+000 -3.834761e+000 5.231243e-001 6.227552e+000 -2.613735e+000 3.793908e+000 3.499024e+000 3.500241e+000 4.361320e-001 2.193738e+000 7.252321e-001 5.965840e+001 -4.154159e-001 1.065428e-001 -2.026392e-001 -1.548707e-002 -1.357131e-001 -8.895577e-002 1.779592e-001 1.232308e-001 1.612593e-001 -6.351390e-002 1.271432e-002 2.169964e-001 2.716769e-002 4.021551e-001 -3.032916e-002 1.479641e-001 -1.304528e-001 -9.862448e-002 -4.678948e-002 -5.593873e-002 -1.633826e-001 -1.125598e-001 -4.170382e-002 -2.176237e-001 -1.116122e-001 -5.521113e-002
<VARIANCE> 39
 7.304141e+000 1.032376e+001 1.195825e+001 1.653753e+001 3.474308e+001 1.686338e+001 2.147845e+001 1.913744e+001 1.751110e+001 1.903679e+001 1.476520e+001 1.813817e+001 1.547543e+001 1.393252e+000 7.155299e-001 1.148649e+000 1.306909e+000 1.419468e+000 1.515877e+000 1.598652e+000 1.876798e+000 1.825462e+000 1.767620e+000 1.607837e+000 1.738102e+000 4.644993e-001 2.342853e-001 1.264748e-001 1.822761e-001 2.667103e-001 3.124419e-001 3.414776e-001 3.203160e-001 4.041096e-001 3.475768e-001 3.531854e-001 3.577615e-001 3.391990e-001 7.676650e-002
<GCONST> 9.391959e+001
<STATE> 4
<MEAN> 39
 -1.027837e+001 3.259131e+000 -1.794950e+000 -1.702518e+000 4.948102e+000 -4.847031e+000 2.248207e+000 2.396492e+000 2.489617e+000 -5.203108e-001 -1.440543e+000 -1.241900e+000 5.949716e+001 2.439759e+000 -5.166412e-001 7.758663e-001 -9.280845e-001 -8.780910e-001 -9.645681e-001 -7.100211e-001 -4.571514e-001 -2.500838e-001 3.620831e-002 -1.251890e+000 -5.661486e-001 9.794819e-002 4.093391e-001 -2.563099e-001 2.575147e-002 -1.182261e-001 -2.326096e-001 -1.130260e-001 -9.398314e-002 -4.245092e-002 3.244692e-002 1.774763e-001 -9.416343e-002 -1.773407e-002 1.489789e-001
<VARIANCE> 39
 4.536314e+001 1.317774e+001 1.761225e+001 2.010895e+001 3.095820e+001 2.511985e+001 2.748560e+001 2.672203e+001 1.953050e+001 2.053290e+001 2.199066e+001 1.956586e+001 2.466690e+001 5.168860e+000 1.251939e+000 1.312660e+000 2.252884e+000 2.431037e+000 4.842728e+000 2.541377e+000 2.455022e+000 1.898020e+000 2.074340e+000 3.520813e+000 1.994282e+000 2.464615e+000 7.056617e-001 1.840923e-001 2.734949e-001 3.546309e-001 3.838248e-001 5.536078e-001 4.402213e-001 5.449145e-001 3.842982e-001 3.879490e-001 4.529233e-001 3.379215e-001 2.655116e-001
<GCONST> 1.114724e+002
<TRANSP> 5
 0.000000e+000 1.000000e+000 0.000000e+000 0.000000e+000 0.000000e+000
 0.000000e+000 7.080702e-001 2.919299e-001 0.000000e+000 0.000000e+000
 0.000000e+000 0.000000e+000 8.674340e-001 1.325660e-001 0.000000e+000
 0.000000e+000 0.000000e+000 0.000000e+000 5.859195e-001 4.140805e-001
 0.000000e+000 0.000000e+000 0.000000e+000 0.000000e+000 0.000000e+000
<ENDHMM>
~h "t"
<BEGINHMM>
<NUMSTATES> 5
<STATE> 2
<MEAN> 39
 -1.110275e+000 6.033912e-002 2.712270e+000 -1.643698e+000 1.469131e+000 -1.678575e+000 3.088058e+000 -2.364082e+000 2.056990e-004 1.239987e-001 -4.096146e+000 9.253688e-002 5.300166e+001 -9.431249e-001 -1.567148e-001 6.446803e-002 4.568034e-001 8.746272e-002 1.096681e+000 -4.878723e-002 1.081004e-001 5.504036e-001 3.090672e-001 1.041916e+000 3.897203e-001 -9.747346e-001 -2.419823e-001 -2.629417e-001 -1.102479e-001 -4.517884e-001 -6.143681e-002 -5.980867e-002 -1.124015e-001 1.863403e-001 -3.022674e-002 -1.601254e-001 1.425817e-001 2.370025e-002 5.763653e-001
<VARIANCE> 39
 2.185239e+001 1.389006e+001 1.612448e+001 2.828329e+001 1.795744e+001 5.838852e+001 3.250406e+001 3.346717e+001 2.719488e+001 2.965000e+001 3.836254e+001 1.799443e+001 5.265472e+001 2.232311e+000 3.174749e+000 2.000261e+000 4.898388e+000 2.322184e+000 4.068372e+000 3.749200e+000 3.115579e+000 2.765040e+000 2.538453e+000 2.820089e+000 1.877951e+000 5.398258e+000 4.195743e-001 3.159745e-001 3.386271e-001 6.156282e-001 4.167061e-001 9.726551e-001 7.579799e-001 6.329689e-001 4.821077e-001 4.554272e-001 5.243295e-001 3.883399e-001 9.629291e-001
<GCONST> 1.205300e+002
<STATE> 3
<MEAN> 39
 -8.965957e+000 -4.594995e+000 1.700329e+000 -8.495790e+000 -4.191793e-002 4.895553e-001 -3.182638e-001 1.878846e+000 2.271704e+000 -5.494796e-001 2.505997e+000 2.988917e+000 5.951122e+001 -2.026997e+000 4.690082e-001 4.177332e-001 -1.068831e+000 -1.495076e-001 -7.937801e-001 -1.073601e+000 1.766998e+000 5.265265e-001 -8.879727e-001 6.721901e-001 6.076832e-001 2.961853e+000 3.435617e-001 6.022729e-001 4.277262e-001 9.570594e-001 3.055572e-001 -6.708603e-002 2.968180e-001 -2.660288e-002 1.007806e-001 -1.471285e-002 -4.963675e-001 -1.176732e-001 -4.359700e-001
<VARIANCE> 39
 2.173670e+001 2.812433e+001 1.881626e+001 2.334171e+001 2.947279e+001 2.943379e+001 2.236727e+001 1.994164e+001 1.967081e+001 1.974892e+001 1.503799e+001 1.555298e+001 3.153263e+001 2.793756e+000 3.445886e+000 2.805650e+000 5.224225e+000 3.201777e+000 3.245499e+000 2.951750e+000 3.126862e+000 3.025492e+000 2.369195e+000 2.461203e+000 1.802681e+000 3.797091e+000 7.590854e-001 7.209310e-001 4.643875e-001 8.323827e-001 7.790714e-001 5.708950e-001 4.783859e-001 5.386924e-001 3.855985e-001 4.895722e-001 3.463698e-001 4.095100e-001 8.320685e-001
<GCONST> 1.186951e+002
<STATE> 4
<MEAN> 39
 -1.195630e+001 -9.769683e-001 5.572556e+000 -4.305961e+000 1.948197e+000 1.060317e+000 -5.782607e-001 5.468364e+000 5.184605e+000 -1.989624e+000 1.568253e+000 4.093868e+000 6.018689e+001 1.081016e+000 1.478215e-001 6.187938e-001 1.260062e+000 2.481559e-001 -1.273960e-001 -2.886800e-002 -1.765683e-001 3.204791e-001 7.703106e-002 -6.221732e-001 -2.767425e-001 -3.653069e-001 4.816807e-001 -1.345709e-001 -2.277650e-001 4.486600e-002 3.166423e-003 3.551281e-002 3.956577e-002 -4.127225e-001 -1.692810e-001 1.634653e-001 -1.169076e-001 -2.352130e-001 -3.511026e-001
<VARIANCE> 39
 3.192277e+001 1.139970e+001 2.618368e+001 3.137931e+001 2.312529e+001 3.946166e+001 2.426223e+001 3.003366e+001 4.034670e+001 2.241366e+001 2.204063e+001 2.071426e+001 2.991952e+001 2.938143e+000 1.869564e+000 2.662040e+000 3.359463e+000 2.834615e+000 2.632231e+000 2.129017e+000 2.688040e+000 2.776378e+000 2.052353e+000 1.856940e+000 2.273279e+000 1.211725e+000 5.770234e-001 2.665626e-001 3.147248e-001 4.162126e-001 3.546887e-001 4.512982e-001 4.362051e-001 6.441627e-001 5.436339e-001 3.948388e-001 3.274755e-001 4.240287e-001 2.262428e-001
<GCONST> 1.130378e+002
<TRANSP> 5
 0.000000e+000 1.000000e+000 0.000000e+000 0.000000e+000 0.000000e+000
 0.000000e+000 8.506017e-001 1.493983e-001 0.000000e+000 0.000000e+000
 0.000000e+000 0.000000e+000 6.833496e-001 3.166504e-001 0.000000e+000
 0.000000e+000 0.000000e+000 0.000000e+000 7.789982e-001 2.210018e-001
 0.000000e+000 0.000000e+000 0.000000e+000 0.000000e+000 0.000000e+000
<ENDHMM>
~h "v"
<BEGINHMM>
<NUMSTATES> 5
<STATE> 2
<MEAN> 39
 2.746781e+000 -4.147647e+000 -3.862921e-002 -3.710114e+000 -2.334593e-001 -5.811917e+000 -1.996601e+000 -1.697717e+000 1.169255e+000 -4.421117e-002 -4.072908e+000 -5.035557e+000 6.144325e+001 2.383728e-001 6.088737e-001 -2.846716e-002 7.998281e-002 1.228628e-001 6.850135e-001 -6.334116e-001 -5.010054e-001 -1.380365e-001 5.702108e-001 2.479562e-001 -2.460292e-001 -4.365324e-001 -1.106765e-001 -7.703113e-002 -5.947883e-002 -7.926591e-002 7.836406e-002 9.683806e-002 1.215549e-001 -5.598578e-003 -4.951654e-002 -5.716249e-002 -6.903391e-002 -8.289585e-002 1.284198e-001
<VARIANCE> 39
 5.572180e+001 2.091437e+001 1.975311e+001 4.110538e+001 2.945850e+001 5.136602e+001 2.323522e+001 2.702917e+001 1.921727e+001 2.383269e+001 2.522845e+001 3.390863e+001 1.920937e+001 3.785312e+000 1.915663e+000 1.767411e+000 3.460978e+000 2.287128e+000 2.585268e+000 2.236294e+000 2.490471e+000 1.796099e+000 1.914443e+000 1.811923e+000 2.932484e+000 1.673805e+000 5.502686e-001 2.997137e-001 2.385484e-001 3.763444e-001 3.519350e-001 5.298775e-001 3.573948e-001 4.613798e-001 3.215600e-001 3.173963e-001 3.230448e-001 4.383622e-001 1.839495e-001
<GCONST> 1.121185e+002
<STATE> 3
<MEAN> 39
 6.136714e+000 -3.443964e+000 1.156683e+000 -8.420660e+000 -2.198427e+000 -7.335217e+000 -4.579247e+000 -3.797071e+000 -3.583558e-001 1.667225e+000 -4.599711e+000 -6.306214e+000 6.321779e+001 -3.309531e-001 1.495671e-001 -4.751375e-002 1.225405e-001 2.053464e-001 3.197467e-001 1.869997e-001 8.433647e-002 -1.902912e-001 -7.300364e-002 -1.330956e-001 -2.149522e-001 -2.060043e-004 -1.264906e-001 4.444467e-002 1.000503e-001 1.964026e-001 7.217383e-002 -5.029517e-002 1.507237e-001 2.645183e-002 -1.429140e-001 -1.230557e-001 -7.878633e-002 1.531643e-001 -8.532368e-002
<VARIANCE> 39
 1.335125e+001 1.945066e+001 4.416818e+001 2.481091e+001 1.681841e+001 5.684116e+001 1.776905e+001 2.807449e+001 3.778282e+001 2.300063e+001 2.042064e+001 5.608572e+001 1.472595e+001 6.757573e-001 1.413312e+000 9.124118e-001 1.286461e+000 9.500205e-001 1.951324e+000 1.380957e+000 2.825885e+000 1.948791e+000 1.800381e+000 2.140148e+000 1.682094e+000 9.500440e-001 1.391713e-001 1.687860e-001 1.253092e-001 1.892113e-001 1.742398e-001 2.948239e-001 2.102101e-001 3.827272e-001 2.988927e-001 2.767921e-001 2.897786e-001 2.804712e-001 1.161070e-001
<GCONST> 9.825225e+001
<STATE> 4
<MEAN> 39
 4.451766e+000 -5.098297e+000 -3.360620e+000 -5.574154e+000 1.104533e+000 -2.037463e+000 -7.127182e-001 -4.062615e+000 -6.302258e-001 -1.820853e+000 -5.980665e+000 -1.026229e+001 6.211511e+001 -8.965757e-002 3.310110e-001 3.644063e-001 5.308548e-001 1.045769e-001 -1.725148e-002 1.805479e-001 -2.128350e-001 -4.368403e-001 1.577619e-001 -7.853187e-002 2.094061e-001 -5.020621e-001 -2.314526e-003 8.068042e-002 7.038072e-002 3.572040e-002 -2.769778e-002 -2.248929e-002 1.357184e-002 -9.637171e-002 -3.746058e-002 1.325908e-001 -3.807839e-003 9.003197e-002 -7.106190e-002
<VARIANCE> 39
 1.347353e+001 2.510142e+001 3.361412e+001 2.955569e+001 1.734294e+001 3.681882e+001 1.699979e+001 2.146564e+001 2.137642e+001 3.754863e+001 1.759866e+001 3.595945e+001 2.313448e+001 5.625281e-001 8.748884e-001 5.448734e-001 7.762892e-001 9.970365e-001 1.264521e+000 1.071467e+000 1.461508e+000 1.699610e+000 2.003698e+000 1.202063e+000 1.016963e+000 5.070895e-001 9.062441e-002 1.124250e-001 1.030681e-001 1.134785e-001 1.486874e-001 1.903602e-001 1.697241e-001 2.781060e-001 2.106332e-001 2.664559e-001 1.803643e-001 1.887628e-001 7.051753e-002
<GCONST> 8.833318e+001
<TRANSP> 5
 0.000000e+000 1.000000e+000 0.000000e+000 0.000000e+000 0.000000e+000
 0.000000e+000 6.793875e-001 3.206126e-001 0.000000e+000 0.000000e+000
 0.000000e+000 0.000000e+000 7.160473e-001 2.839527e-001 0.000000e+000
 0.000000e+000 0.000000e+000 0.000000e+000 7.610699e-001 2.389301e-001
 0.000000e+000 0.000000e+000 0.000000e+000 0.000000e+000 0.000000e+000
<ENDHMM>
~h "w"
<BEGINHMM>
<NUMSTATES> 5
<STATE> 2
<MEAN> 39
 3.673217e+000 8.221901e-001 1.973831e+000 -4.313483e+000 -2.199887e+000 -1.160275e+000 8.985315e-002 -3.476869e+000 -7.706171e-001 1.034062e+000 -3.021527e+000 -2.087411e+000 5.500218e+001 1.281615e+000 7.517401e-001 -7.659301e-001 -1.421772e+000 -8.135043e-001 5.476999e-001 -2.933381e-001 -8.165181e-001 -8.619048e-001 -3.591717e-001 1.095387e-001 -3.851752e-001 1.978809e-001 9.311138e-002 1.216355e-001 -7.754392e-002 -4.793046e-001 -2.683699e-001 3.693077e-002 2.638930e-002 2.340302e-002 -2.481413e-001 -1.791716e-001 1.307637e-001 3.422260e-002 1.951089e-001
<VARIANCE> 39
 2.522256e+001 2.508445e+001 2.574380e+001 5.121613e+001 4.919728e+001 7.262413e+001 3.088473e+001 3.043987e+001 4.923110e+001 3.155506e+001 2.963694e+001 2.210553e+001 5.348914e+001 2.681409e+000 1.621418e+000 2.172150e+000 4.753903e+000 4.652192e+000 3.364796e+000 3.285650e+000 3.339848e+000 3.586412e+000 3.994034e+000 2.759315e+000 2.127856e+000 2.048547e+000 2.901048e-001 2.341790e-001 3.072972e-001 6.461889e-001 6.152955e-001 4.130960e-001 6.023083e-001 4.898567e-001 5.465033e-001 7.087279e-001 5.369828e-001 3.774937e-001 1.759459e-001
<GCONST> 1.210726e+002
<STATE> 3
<MEAN> 39
 9.722917e+000 4.224695e+000 -9.245781e-001 -1.316211e+001 -7.034431e+000 -2.392933e-001 -1.894753e+000 -7.602159e+000 -6.583417e+000 -4.793501e-001 -1.925280e+000 -3.922941e+000 5.852488e+001 5.513597e-001 4.521680e-001 -5.485429e-001 -1.713391e+000 -6.286260e-001 8.340622e-001 1.758548e-001 1.710252e-001 -8.467792e-001 -1.028198e+000 4.661329e-001 -6.681225e-002 3.537333e-001 -2.957304e-001 -3.542022e-001 9.997477e-002 2.567485e-001 2.449217e-001 -1.239534e-001 3.080753e-002 3.671068e-001 3.561144e-001 4.271148e-002 -9.908883e-002 -1.286673e-001 8.494196e-002
<VARIANCE> 39
 3.796161e+000 2.427543e+001 1.563209e+001 4.300875e+001 2.246972e+001 2.117536e+001 2.034559e+001 2.569569e+001 2.613234e+001 3.379482e+001 2.586384e+001 3.222792e+001 1.699314e+001 6.447610e-001 1.743501e+000 1.512974e+000 2.858888e+000 1.882566e+000 2.580905e+000 2.715126e+000 2.526326e+000 2.330821e+000 3.072213e+000 3.307759e+000 2.210283e+000 1.585783e+000 1.751303e-001 1.776184e-001 2.778192e-001 3.773537e-001 4.575581e-001 4.244082e-001 4.202734e-001 4.893139e-001 3.889195e-001 5.872460e-001 5.853637e-001 4.701260e-001 1.055828e-001
<GCONST> 1.070231e+002
<STATE> 4
<MEAN> 39
 1.051744e+001 5.293591e+000 -3.612612e+000 -1.871156e+001 -8.533522e+000 3.394068e+000 -1.603905e-001 -4.483977e+000 -5.105406e+000 -5.920664e+000 -1.908686e-001 -5.004841e+000 5.937096e+001 -8.892933e-002 -5.694980e-001 -7.080520e-001 -7.142915e-001 2.540393e-001 6.805404e-001 -1.802935e-001 1.097331e-002 5.153241e-001 7.722459e-002 6.184154e-001 -6.377218e-001 6.738263e-001 -1.690347e-001 -1.980182e-001 -5.857956e-002 1.852176e-001 2.646161e-001 1.857076e-002 -6.165686e-002 -1.288537e-001 1.430222e-001 2.162556e-001 -1.162519e-001 -1.836386e-001 1.012077e-001
<VARIANCE> 39
 3.630110e+000 8.509848e+000 1.615121e+001 4.031156e+001 1.473428e+001 1.879877e+001 1.934167e+001 1.950845e+001 1.860783e+001 1.893065e+001 2.510633e+001 1.695139e+001 1.111869e+001 3.175240e-001 9.830357e-001 9.707789e-001 1.150596e+000 1.157307e+000 1.259689e+000 1.048874e+000 1.290051e+000 9.985460e-001 1.684891e+000 1.998139e+000 1.718600e+000 7.675626e-001 5.071187e-002 5.931582e-002 8.420908e-002 2.335920e-001 1.262103e-001 1.852107e-001 1.812644e-001 1.948378e-001 1.895441e-001 2.254784e-001 4.428062e-001 2.697031e-001 4.865609e-002
<GCONST> 8.344972e+001
<TRANSP> 5
 0.000000e+000 1.000000e+000 0.000000e+000 0.000000e+000 0.000000e+000
 0.000000e+000 7.263709e-001 2.736291e-001 0.000000e+000 0.000000e+000
 0.000000e+000 0.000000e+000 6.833017e-001 3.166983e-001 0.000000e+000
 0.000000e+000 0.000000e+000 0.000000e+000 8.077566e-001 1.922434e-001
 0.000000e+000 0.000000e+000 0.000000e+000 0.000000e+000 0.000000e+000
<ENDHMM>
~h "y"
<BEGINHMM>
<NUMSTATES> 5
<STATE> 2
<MEAN> 39
 1.148203e-002 2.107458e+000 1.326550e+001 -3.869362e+000 -1.308114e+000 -8.924357e+000 -5.660436e+000 -6.112798e+000 -7.740674e+000 -1.848666e-001 -3.158068e+000 2.158989e-001 6.171976e+001 -3.311976e-001 3.933259e-001 2.128643e+000 -5.299940e-001 -2.811848e-001 -4.895736e-001 -8.095668e-002 2.358205e-001 -9.926469e-001 -7.922333e-001 -1.608864e-001 7.949865e-001 1.006774e-001 2.682074e-002 9.858456e-002 4.150947e-003 -2.157692e-001 6.039816e-002 7.621549e-002 -6.918705e-002 4.377545e-002 3.113523e-003 -1.369468e-001 -6.926259e-002 7.332309e-002 -3.893185e-002
<VARIANCE> 39
 1.830116e+001 2.092859e+001 5.783714e+001 3.591122e+001 2.528656e+001 3.306586e+001 2.197841e+001 1.872110e+001 4.708072e+001 4.345897e+001 2.298789e+001 1.658103e+001 1.543423e+001 1.009321e+000 1.439320e+000 2.633736e+000 2.639587e+000 2.169450e+000 2.576077e+000 2.154045e+000 2.263340e+000 2.636570e+000 2.539101e+000 2.231326e+000 1.959918e+000 4.381834e-001 1.580853e-001 3.128777e-001 6.204134e-001 3.332455e-001 4.965850e-001 5.339010e-001 4.568518e-001 4.487736e-001 5.872179e-001 4.420822e-001 3.671458e-001 3.012743e-001 8.105559e-002
<GCONST> 1.089271e+002
<STATE> 3
<MEAN> 39
 -2.355013e-001 2.475590e+000 2.060662e+001 -1.072726e+001 -3.568937e+000 -1.362215e+001 -8.559721e+000 -2.495045e+000 -9.447545e+000 -5.190515e+000 -4.925070e+000 6.718317e+000 6.417884e+001 3.438362e-001 -9.650247e-001 -1.196016e+000 -5.870433e-001 -5.477964e-001 -7.854636e-001 -1.425724e-002 9.256188e-001 1.110369e+000 2.740909e-001 -2.645613e-001 1.727639e-001 6.419261e-001 1.075556e-001 -2.355182e-001 -4.836342e-001 1.328307e-002 4.020137e-002 5.283296e-002 1.863512e-001 1.421198e-001 2.054046e-001 2.127856e-001 -1.875295e-001 -3.051535e-001 6.960133e-002
<VARIANCE> 39
 3.653237e+000 2.056273e+001 1.773091e+001 1.083332e+001 2.113636e+001 2.138507e+001 1.169245e+001 1.287656e+001 3.126298e+001 1.879865e+001 1.259082e+001 1.440371e+001 1.311035e+001 4.063987e-001 1.706739e+000 2.578400e+000 6.441134e-001 1.690773e+000 1.159763e+000 1.284889e+000 1.785338e+000 2.092669e+000 1.810220e+000 1.254186e+000 1.759192e+000 5.385149e-001 4.122197e-002 1.316005e-001 1.451886e-001 1.411628e-001 4.291067e-001 2.826515e-001 1.942881e-001 2.820579e-001 3.414188e-001 2.504784e-001 2.915579e-001 3.675731e-001 6.853803e-002
<GCONST> 8.819108e+001
<STATE> 4
<MEAN> 39
 3.951043e+000 -8.520413e+000 1.308539e+000 -1.592444e+001 -1.903174e+000 -1.386087e+001 -3.522975e+000 5.021233e+000 4.862713e-002 -1.093863e+000 -1.398850e+001 -1.590580e+000 6.958025e+001 3.125380e-001 -8.704762e-001 -2.883861e+000 -4.342708e-001 2.402286e+000 1.853759e+000 1.084252e+000 -1.118163e+000 3.941409e-001 -7.901985e-002 -1.406856e+000 -2.287947e+000 2.800610e-001 -1.285678e-001 3.141401e-001 3.500799e-001 1.629426e-001 2.939444e-001 2.923457e-001 -1.024098e-001 -9.531747e-001 -3.410915e-001 -1.952482e-001 5.428395e-001 2.435923e-001 -1.161924e-001
<VARIANCE> 39
 1.946140e+000 7.816101e+000 2.699581e+001 1.555138e+001 2.782681e+001 2.023587e+001 1.629129e+001 1.847723e+001 1.706835e+001 1.442416e+001 2.806516e+001 3.783609e+001 4.177016e+000 2.129253e-001 5.737870e-001 9.677886e-001 7.050590e-001 9.896878e-001 1.244040e+000 9.970895e-001 5.381316e+000 1.580387e+000 1.323816e+000 3.000449e+000 2.076382e+000 1.267049e-001 1.764865e-002 4.132287e-002 9.399007e-002 9.779103e-002 3.009238e-001 2.752424e-001 1.697597e-001 4.111139e-001 2.737415e-001 2.204244e-001 4.915913e-001 5.217211e-001 1.264490e-002
<GCONST> 8.068322e+001
<TRANSP> 5
 0.000000e+000 1.000000e+000 0.000000e+000 0.000000e+000 0.000000e+000
 0.000000e+000 8.824511e-001 1.175489e-001 0.000000e+000 0.000000e+000
 0.000000e+000 0.000000e+000 8.960511e-001 1.039489e-001 0.000000e+000
 0.000000e+000 0.000000e+000 0.000000e+000 8.179286e-001 1.820714e-001
 0.000000e+000 0.000000e+000 0.000000e+000 0.000000e+000 0.000000e+000
<ENDHMM>
~h "z"
<BEGINHMM>
<NUMSTATES> 5
<STATE> 2
<MEAN> 39
 2.193602e+000 3.811593e+000 3.998715e+000 -2.801365e+000 2.376983e+000 -7.694075e+000 -1.371867e+000 -6.199856e+000 -3.538966e+000 1.817044e+000 -3.797204e+000 -2.274006e+000 5.695280e+001 -8.434736e-001 1.191131e+000 -1.082676e-003 1.091462e+000 7.372988e-001 -4.086388e-001 -4.349752e-001 -2.908103e-001 4.260508e-001 -3.813770e-001 2.021321e-001 -2.806579e-001 1.374177e-001 -3.339151e-001 6.411798e-002 -1.199535e-001 -2.006616e-002 -3.248029e-002 3.063326e-001 2.146797e-001 1.927407e-001 1.005006e-001 -1.853296e-001 9.917543e-002 1.105331e-001 -2.536961e-002
<VARIANCE> 39
 2.164633e+001 1.152514e+001 2.805196e+001 5.705781e+001 2.554708e+001 4.005634e+001 3.742931e+001 2.239862e+001 3.729454e+001 3.649550e+001 2.658186e+001 1.950983e+001 2.697957e+001 2.549563e+000 1.308289e+000 2.050509e+000 2.446343e+000 1.809086e+000 3.508551e+000 2.104866e+000 2.112068e+000 2.202546e+000 2.348067e+000 1.775231e+000 1.603153e+000 1.622712e+000 2.456314e-001 2.408990e-001 2.818607e-001 2.576915e-001 2.494494e-001 4.505864e-001 3.350123e-001 3.686233e-001 3.297855e-001 4.027497e-001 3.096770e-001 3.076224e-001 1.179187e-001
<GCONST> 1.080952e+002
<STATE> 3
<MEAN> 39
 -4.145255e+000 8.137317e+000 2.896350e+000 1.955261e+000 4.599615e+000 -6.714157e+000 -8.445961e-002 -5.334822e+000 -1.409648e+000 -1.391517e+000 -2.988473e+000 -1.830848e+000 5.709870e+001 -1.400493e+000 4.670133e-001 -3.459587e-001 5.075361e-001 4.511383e-001 7.564203e-001 7.961810e-001 5.293837e-001 6.110302e-001 -4.437202e-001 1.776399e-001 2.453199e-001 -1.487505e-001 3.255651e-001 -2.903244e-001 9.593023e-002 -3.239421e-001 -2.333225e-001 -2.940934e-001 5.698485e-002 1.078564e-001 -7.240815e-002 9.608572e-002 -2.752908e-002 -6.439272e-004 1.404387e-001
<VARIANCE> 39
 1.812351e+001 8.548970e+000 1.222951e+001 1.700153e+001 2.359427e+001 3.256671e+001 2.041961e+001 1.445112e+001 2.099562e+001 1.927838e+001 1.591002e+001 1.460203e+001 1.450632e+001 1.281574e+000 7.328677e-001 1.198399e+000 1.366086e+000 1.061685e+000 2.400059e+000 1.811328e+000 1.757514e+000 1.619913e+000 1.986274e+000 1.350831e+000 1.011183e+000 4.847174e-001 1.526055e-001 1.163407e-001 1.608019e-001 1.956767e-001 2.107573e-001 4.063466e-001 3.421164e-001 2.757179e-001 2.677704e-001 2.986728e-001 2.386515e-001 1.966643e-001 7.727322e-002
<GCONST> 9.134076e+001
<STATE> 4
<MEAN> 39
 -7.098364e+000 4.763829e+000 6.589939e-002 1.214768e+000 5.113793e+000 -1.789436e+000 4.777772e+000 1.357149e-001 2.675281e+000 1.273836e-001 -4.247513e-001 9.024162e-002 5.522453e+001 8.137117e-002 1.142330e-003 1.683391e-001 -1.923899e-001 -2.584281e-001 -8.721734e-001 -6.772824e-002 2.112574e-001 2.114784e-002 -2.293730e-001 -1.043579e-001 -1.120256e-002 3.335066e-001 5.703288e-001 -1.257095e-001 3.206286e-001 -8.534694e-002 -3.292423e-001 -5.726156e-001 -3.984514e-001 -2.759947e-001 -3.592578e-001 1.726508e-002 -1.852617e-001 -1.308042e-001 1.532735e-001
<VARIANCE> 39
 2.592443e+001 4.270518e+001 1.300950e+001 1.553275e+001 2.270116e+001 4.172246e+001 2.562712e+001 2.629187e+001 1.961087e+001 2.735321e+001 1.922439e+001 1.828869e+001 2.241113e+001 1.254556e+000 8.839665e-001 1.054507e+000 9.393684e-001 1.248500e+000 1.983486e+000 2.055445e+000 2.613650e+000 1.797389e+000 1.527154e+000 1.546648e+000 1.595774e+000 4.383542e-001 2.223395e-001 2.260783e-001 2.225876e-001 2.556142e-001 3.420338e-001 5.332798e-001 4.129595e-001 4.533969e-001 3.620178e-001 4.013878e-001 3.015833e-001 3.007818e-001 8.940886e-002
<GCONST> 1.004117e+002
<TRANSP> 5
 0.000000e+000 1.000000e+000 0.000000e+000 0.000000e+000 0.000000e+000
 0.000000e+000 7.481377e-001 2.518623e-001 0.000000e+000 0.000000e+000
 0.000000e+000 0.000000e+000 7.150027e-001 2.849973e-001 0.000000e+000
 0.000000e+000 0.000000e+000 0.000000e+000 6.970037e-001 3.029964e-001
 0.000000e+000 0.000000e+000 0.000000e+000 0.000000e+000 0.000000e+000
<ENDHMM>
~h "ah"
<BEGINHMM>
<NUMSTATES> 5
<STATE> 2
<MEAN> 39
 6.281757e+000 -4.461098e+000 -9.692828e+000 -1.864879e+001 7.725356e-001 7.179874e+000 -1.742815e+000 -6.880867e+000 1.161548e-001 -1.013607e+000 -1.456402e+000 -1.352939e+001 6.674855e+001 -7.541267e-001 -1.238682e+000 -2.974233e-001 9.385298e-001 1.545003e+000 -5.610291e-001 2.816671e-002 1.875387e-002 6.402745e-001 1.881539e-001 -1.697747e+000 -9.229255e-001 6.672137e-001 6.879529e-002 1.416848e-001 2.910417e-001 2.375024e-001 -1.792952e-001 -4.368618e-001 1.730583e-001 1.525821e-001 -1.215924e-001 -2.921687e-001 -2.142544e-001 4.153280e-001 -2.076225e-001
<VARIANCE> 39
 5.715466e+000 1.372156e+001 1.132879e+001 1.689976e+001 2.416841e+001 2.438164e+001 9.577364e+000 1.526592e+001 1.440140e+001 2.569156e+001 4.484427e+001 2.080936e+001 8.308129e+000 2.699374e-001 6.044492e-001 6.814979e-001 6.768557e-001 6.863199e-001 1.925642e+000 6.431126e-001 1.366383e+000 1.006929e+000 1.672865e+000 1.863359e+000 1.801630e+000 3.848190e-001 4.426324e-002 5.295671e-002 8.263544e-002 1.243863e-001 1.338577e-001 1.669082e-001 1.245022e-001 1.459941e-001 1.377146e-001 3.125634e-001 4.355742e-001 2.156685e-001 3.029016e-002
<GCONST> 7.841754e+001
<STATE> 3
<MEAN> 39
 3.904695e+000 -9.637864e+000 -5.939538e+000 -1.092809e+001 4.429897e+000 -3.075478e+000 1.815825e+000 -3.525881e+000 6.072767e-001 -5.897130e+000 -1.055081e+001 -1.027009e+001 6.749863e+001 -4.052537e-002 -2.286012e-001 1.284644e+000 8.071353e-001 -6.828353e-001 -1.552698e+000 9.147333e-001 6.968865e-001 -5.349953e-001 -1.105030e+000 -5.922132e-004 1.306232e+000 -2.613627e-001 7.091705e-002 2.405639e-001 2.362293e-001 -1.204206e-001 -3.443169e-001 9.324132e-002 -1.723347e-002 5.408406e-002 -2.316050e-001 1.453836e-001 3.721603e-001 1.583093e-001 -1.391950e-001
<VARIANCE> 39
 3.596297e+000 8.117458e+000 1.938966e+001 1.572188e+001 1.410116e+001 2.393703e+001 1.130560e+001 1.758220e+001 1.374656e+001 1.809701e+001 1.539156e+001 2.247400e+001 8.838370e+000 2.405991e-001 4.257122e-001 1.028583e+000 4.584571e-001 1.291487e+000 1.372970e+000 8.871194e-001 1.026640e+000 8.633918e-001 1.275817e+000 1.448032e+000 1.144428e+000 1.729828e-001 4.485126e-002 8.213390e-002 6.714464e-002 6.136851e-002 9.616514e-002 1.353159e-001 1.518743e-001 1.311439e-001 1.471249e-001 2.572030e-001 1.659745e-001 1.801776e-001 2.818308e-002
<GCONST> 7.201612e+001
<STATE> 4
<MEAN> 39
 3.795335e+000 -7.569994e+000 3.216805e+000 -7.656271e+000 -2.600087e+000 -8.410543e+000 4.900216e+000 8.325236e-001 -4.194560e+000 -8.511011e+000 -7.022344e+000 -3.868090e+000 6.418481e+001 4.459872e-002 1.250750e+000 1.591590e+000 2.908930e-001 -1.081857e+000 -2.339174e-001 -1.266238e-002 -1.535858e-001 -1.160092e+000 7.415982e-001 9.094442e-001 9.349115e-001 -8.707505e-001 3.635320e-002 3.084608e-001 -1.627813e-001 3.043096e-002 2.863566e-001 2.948545e-001 -4.699256e-001 -3.168828e-001 4.110019e-002 4.253055e-001 -6.089732e-002 -3.423637e-001 -1.553843e-001
<VARIANCE> 39
 4.951435e+000 1.177405e+001 2.927749e+001 2.731818e+001 2.902111e+001 2.687873e+001 1.472424e+001 1.875169e+001 1.726440e+001 1.931207e+001 1.656179e+001 2.326843e+001 2.107954e+001 2.956165e-001 7.615464e-001 1.878477e+000 4.616021e-001 1.662459e+000 1.273763e+000 1.037823e+000 1.295702e+000 1.476257e+000 1.293917e+000 1.143502e+000 2.344927e+000 2.855298e-001 4.877890e-002 1.106835e-001 1.159393e-001 8.455390e-002 2.287410e-001 2.457722e-001 2.915573e-001 2.734118e-001 2.153286e-001 2.963185e-001 1.296169e-001 3.264064e-001 4.976888e-002
<GCONST> 8.514259e+001
<TRANSP> 5
 0.000000e+000 1.000000e+000 0.000000e+000 0.000000e+000 0.000000e+000
 0.000000e+000 8.125380e-001 1.874620e-001 0.000000e+000 0.000000e+000
 0.000000e+000 0.000000e+000 8.308036e-001 1.691964e-001 0.000000e+000
 0.000000e+000 0.000000e+000 0.000000e+000 5.989999e-001 4.010002e-001
 0.000000e+000 0.000000e+000 0.000000e+000 0.000000e+000 0.000000e+000
<ENDHMM>
~h "ao"
<BEGINHMM>
<NUMSTATES> 5
<STATE> 2
<MEAN> 39
 6.104931e+000 1.726281e+000 -9.413597e+000 -2.073816e+001 -2.530294e+000 8.585450e+000 2.126021e-002 -3.540708e+000 -2.346836e+000 -1.482751e+000 -5.152665e-001 -4.935667e+000 6.212274e+001 -3.544891e-001 1.002543e-001 -5.338117e-001 -1.621507e+000 -7.649394e-002 8.576672e-001 4.868786e-001 3.969041e-001 2.963315e-002 -1.296315e+000 1.454594e-001 -1.559411e-001 4.813262e-001 -4.357454e-001 -1.817226e-001 4.385272e-001 8.308893e-001 3.735685e-001 -3.576519e-001 2.164018e-001 2.398016e-001 1.625676e-001 -1.341705e-001 -1.244864e-001 1.885166e-001 -2.253533e-001
<VARIANCE> 39
 1.792157e+001 1.115395e+001 2.619539e+001 9.068404e+001 2.866586e+001 1.585848e+001 1.767574e+001 1.769797e+001 2.111591e+001 3.370494e+001 1.744055e+001 2.660552e+001 4.542478e+001 3.883503e-001 4.679469e-001 8.035128e-001 1.990114e+000 1.045251e+000 9.478557e-001 1.029684e+000 1.098579e+000 1.098021e+000 1.451579e+000 1.151612e+000 9.851286e-001 3.525611e-001 3.817566e-001 2.097537e-001 1.627286e-001 4.930540e-001 2.432524e-001 1.524532e-001 2.185500e-001 2.542639e-001 2.466451e-001 2.945526e-001 2.399382e-001 2.580511e-001 6.010424e-002
<GCONST> 9.211658e+001
<STATE> 3
<MEAN> 39
 6.224228e+000 3.904363e+000 -1.040117e+001 -2.704941e+001 -2.369922e+000 9.047278e+000 2.854230e+000 -6.440267e-001 -2.022192e+000 -8.959132e+000 -9.596993e-001 -5.084819e+000 6.275661e+001 7.410546e-002 2.717870e-001 2.504983e-001 -1.320055e-001 -2.773244e-001 -1.169547e-001 5.395531e-002 3.671582e-001 -3.395413e-002 -3.413343e-001 1.643131e-002 4.196235e-003 -2.576779e-001 3.734538e-002 -2.296934e-003 6.133573e-002 9.160636e-002 -2.025940e-002 -8.295035e-002 -4.323355e-002 -2.040897e-002 -3.611220e-002 1.302782e-001 -3.083236e-002 -4.817632e-003 -3.551047e-002
<VARIANCE> 39
 6.514677e+000 1.113769e+001 1.427762e+001 3.947282e+001 4.787447e+001 1.638871e+001 1.689837e+001 3.015801e+001 1.791065e+001 2.823936e+001 1.144615e+001 2.086903e+001 1.826063e+001 1.688290e-001 2.534278e-001 3.926880e-001 5.143147e-001 5.097490e-001 5.969761e-001 5.985637e-001 6.513915e-001 6.385629e-001 8.306810e-001 5.661237e-001 6.637500e-001 1.344378e-001 2.889606e-002 4.348084e-002 5.683344e-002 7.705916e-002 8.366031e-002 9.738076e-002 1.044305e-001 1.085425e-001 1.053551e-001 1.217723e-001 9.638284e-002 9.069785e-002 2.525548e-002
<GCONST> 6.512463e+001
<STATE> 4
<MEAN> 39
 7.809062e+000 6.095388e+000 -3.286927e+000 -1.962040e+001 -5.323677e+000 4.174575e+000 2.788167e+000 1.370725e+000 -4.207463e+000 -5.774578e+000 -3.189897e+000 -5.331859e+000 5.677201e+001 -1.874850e-001 -1.419802e-001 7.206715e-001 1.833453e+000 5.855393e-001 -5.048669e-001 2.658493e-001 -4.042756e-001 -2.730273e-002 9.603341e-001 -3.290062e-001 1.389184e-001 -6.509038e-001 -1.628359e-001 -1.231636e-001 -4.172588e-002 1.761350e-001 1.683303e-001 4.802855e-002 -2.020287e-002 -9.533795e-002 1.675347e-001 9.983037e-002 4.050827e-002 6.232405e-002 4.015289e-002
<VARIANCE> 39
 1.219188e+001 7.896177e+000 1.490942e+001 9.471287e+001 2.885296e+001 2.419740e+001 2.727060e+001 2.212111e+001 2.947861e+001 2.491064e+001 2.042536e+001 2.820378e+001 2.188374e+001 5.986665e-001 4.917060e-001 7.236433e-001 2.579804e+000 1.638194e+000 1.512412e+000 1.377470e+000 1.754838e+000 1.728251e+000 1.515933e+000 1.452451e+000 1.438291e+000 3.946200e-001 6.566940e-002 6.833426e-002 1.338603e-001 3.482983e-001 1.935037e-001 2.426551e-001 2.887262e-001 2.733448e-001 2.283532e-001 2.427513e-001 2.853981e-001 2.550641e-001 7.806002e-002
<GCONST> 9.231726e+001
<TRANSP> 5
 0.000000e+000 1.000000e+000 0.000000e+000 0.000000e+000 0.000000e+000
 0.000000e+000 5.375858e-001 4.624142e-001 0.000000e+000 0.000000e+000
 0.000000e+000 0.000000e+000 9.084834e-001 9.151658e-002 0.000000e+000
 0.000000e+000 0.000000e+000 0.000000e+000 8.464969e-001 1.535031e-001
 0.000000e+000 0.000000e+000 0.000000e+000 0.000000e+000 0.000000e+000
<ENDHMM>
~h "ax"
<BEGINHMM>
<NUMSTATES> 5
<STATE> 2
<MEAN> 39
 -3.498142e+000 -3.696249e+000 8.539801e-001 1.269912e-001 2.503170e+000 8.681157e-001 4.443639e+000 -2.683688e-001 3.286349e+000 2.382216e+000 -4.074878e-001 1.471099e+000 4.919604e+001 7.678939e-002 1.529119e-001 -5.120781e-002 1.041343e-001 -2.167202e-002 2.446600e-001 1.036645e-001 -1.580013e-001 4.382875e-002 8.489548e-002 -2.020994e-002 -3.084988e-002 -1.995617e-001 -6.398231e-003 -1.764705e-003 7.548432e-003 -1.835038e-002 2.084482e-002 -4.323710e-003 -1.779736e-002 -9.686067e-003 -1.295734e-002 -4.831075e-003 -8.630365e-003 1.257477e-002 1.259875e-002
<VARIANCE> 39
 7.088824e+000 1.119661e+001 7.514902e+000 1.077410e+001 1.303401e+001 2.443400e+001 1.753416e+001 2.827425e+001 2.089983e+001 2.131892e+001 2.050052e+001 1.884179e+001 1.453086e+001 2.091364e-001 3.979228e-001 4.756771e-001 6.539719e-001 8.914790e-001 1.242074e+000 1.082706e+000 1.509416e+000 1.399624e+000 1.477879e+000 1.188313e+000 1.212269e+000 1.820953e-001 3.495824e-002 6.353305e-002 9.443773e-002 1.256422e-001 1.602286e-001 2.311512e-001 1.953612e-001 3.025515e-001 2.777300e-001 3.115372e-001 2.251569e-001 2.508106e-001 1.907779e-002
<GCONST> 7.752613e+001
<STATE> 3
<MEAN> 39
 -9.311662e-001 -1.651090e+000 -1.700786e-001 -2.447126e-001 2.537056e+000 3.662442e+000 6.184408e+000 -4.815338e+000 2.504630e+000 1.881985e+000 -2.980404e+000 -1.339163e+000 5.040355e+001 -3.275996e-001 7.127233e-002 -2.867067e-003 4.878087e-002 1.074855e-001 2.505636e-001 5.826117e-002 -1.429834e-001 2.602727e-001 3.036991e-001 6.128697e-001 4.435261e-001 -3.454805e-001 -8.192382e-003 -1.135268e-001 -6.861497e-002 -3.853189e-001 -7.140289e-002 -4.157647e-001 -2.291317e-001 2.319851e-001 -1.365085e-001 -5.556012e-002 5.614543e-002 6.458443e-002 3.910560e-001
<VARIANCE> 39
 1.765687e+001 9.708379e+000 3.573133e+001 2.240066e+001 2.506267e+001 5.328854e+001 1.797005e+001 1.932335e+001 2.870821e+001 2.779204e+001 2.063054e+001 3.752493e+001 4.456639e+001 5.897030e-001 4.149982e-001 5.005836e-001 7.232515e-001 9.204485e-001 1.467442e+000 1.164942e+000 1.566511e+000 2.294094e+000 2.560845e+000 1.913042e+000 1.748296e+000 3.353581e-001 1.679460e-001 8.176036e-002 1.439395e-001 2.038862e-001 2.157619e-001 3.219275e-001 2.239011e-001 3.161444e-001 3.660939e-001 4.572907e-001 3.080210e-001 1.880942e-001 1.248028e-001
<GCONST> 9.419981e+001
<STATE> 4
<MEAN> 39
 2.625635e+000 -1.585314e+000 -6.345642e+000 -6.017461e+000 2.067735e+000 4.815666e+000 4.340399e+000 -7.398605e+000 3.976539e+000 -1.152343e+000 -7.497062e-001 -9.671363e+000 5.652308e+001 -1.028396e-001 8.679765e-002 2.877890e-001 1.858236e-001 1.859518e-001 7.802080e-002 4.614151e-002 9.226046e-002 -2.488912e-001 -1.007313e-001 3.962389e-002 3.872915e-001 -2.087873e-001 -8.868999e-003 -7.474037e-002 -3.137221e-002 -1.616205e-001 2.345301e-002 -2.404111e-001 -1.036299e-001 2.070269e-001 -2.649394e-002 -9.385836e-003 -1.128397e-001 -8.253890e-003 2.964927e-001
<VARIANCE> 39
 1.628773e+001 8.896556e+000 3.969996e+001 4.093878e+001 1.375636e+001 1.910289e+001 1.423978e+001 2.171907e+001 2.094143e+001 2.533570e+001 2.409224e+001 7.740956e+001 4.573899e+001 3.457917e-001 4.302639e-001 5.949421e-001 1.184038e+000 7.596096e-001 1.046389e+000 9.029829e-001 1.083022e+000 6.455564e-001 1.222755e+000 1.267560e+000 7.203193e-001 5.195669e-001 7.944910e-002 7.362709e-002 1.068893e-001 2.781215e-001 1.553662e-001 3.090679e-001 1.781431e-001 2.868973e-001 2.686774e-001 2.453565e-001 2.521026e-001 1.585154e-001 3.138415e-001
<GCONST> 8.772538e+001
<TRANSP> 5
 0.000000e+000 1.000000e+000 0.000000e+000 0.000000e+000 0.000000e+000
 0.000000e+000 9.262921e-001 7.370796e-002 0.000000e+000 0.000000e+000
 0.000000e+000 0.000000e+000 3.488359e-001 6.511641e-001 0.000000e+000
 0.000000e+000 0.000000e+000 0.000000e+000 6.702830e-001 3.297170e-001
 0.000000e+000 0.000000e+000 0.000000e+000 0.000000e+000 0.000000e+000
<ENDHMM>
~h "ay"
<BEGINHMM>
<NUMSTATES> 5
<STATE> 2
<MEAN> 39
 -1.306347e+000 -1.675951e+000 1.445888e+000 -2.736712e+000 7.419537e-001 -9.331678e-001 1.982995e+000 -4.410558e+000 2.583287e-003 2.788809e+000 -3.372126e+000 -2.529572e+000 5.538834e+001 -2.397010e-001 -7.622720e-001 -5.846640e-001 -3.938402e-001 4.586290e-001 -3.043246e-002 1.244118e-001 5.873212e-001 1.026897e-001 -7.018703e-001 -4.461066e-001 -9.535488e-002 6.240466e-001 -4.197818e-002 -2.093114e-001 -9.210592e-002 -1.875838e-002 2.152422e-001 -8.930160e-002 3.404962e-002 2.586677e-001 6.239747e-002 -1.968299e-001 -1.207695e-001 4.861571e-002 7.095274e-002
<VARIANCE> 39
 4.948841e+001 2.337468e+001 5.264468e+001 5.003415e+001 1.958305e+001 4.127274e+001 2.231035e+001 6.288036e+001 2.179362e+001 2.926332e+001 4.732590e+001 5.796501e+001 5.150892e+001 6.684776e-001 1.598136e+000 1.662782e+000 1.552443e+000 1.721248e+000 2.071756e+000 1.619667e+000 5.025985e+000 1.420733e+000 2.511309e+000 1.842307e+000 1.341799e+000 1.277552e+000 2.392771e-001 2.288436e-001 4.337274e-001 5.750908e-001 2.660001e-001 3.849566e-001 2.914570e-001 6.294557e-001 2.559672e-001 4.290372e-001 3.512275e-001 4.418075e-001 1.857553e-001
<GCONST> 1.116458e+002
<STATE> 3
<MEAN> 39
 3.225441e+000 -4.820812e+000 -8.587722e-001 -7.558673e+000 3.156857e+000 -5.056855e+000 5.039777e-001 -2.507815e+000 -1.679095e+000 3.666331e-001 -1.040570e+001 -5.942945e+000 6.221367e+001 5.888798e-002 -1.520284e+000 -1.451694e+000 -1.148971e+000 1.040729e+000 7.648654e-001 2.197043e-001 8.069475e-001 3.169273e-001 -1.535004e+000 -2.721062e-001 -5.395929e-001 1.223172e+000 -3.775693e-002 2.088319e-001 1.304652e-001 2.104294e-001 -1.214884e-001 3.199713e-001 -6.238008e-002 -5.668235e-001 6.075083e-002 7.983841e-002 2.830387e-001 -8.249492e-002 -2.154100e-001
<VARIANCE> 39
 2.891557e+001 2.756684e+001 4.486617e+001 4.158772e+001 2.512778e+001 5.503102e+001 2.212651e+001 3.884381e+001 2.026148e+001 3.117016e+001 4.990126e+001 4.212173e+001 4.249454e+001 1.121067e+000 2.193794e+000 2.420211e+000 2.091946e+000 2.009119e+000 3.961884e+000 1.982286e+000 7.464315e+000 1.653590e+000 2.940949e+000 2.739547e+000 2.024121e+000 1.684517e+000 1.785178e-001 3.586709e-001 3.969693e-001 3.095428e-001 2.910863e-001 5.764397e-001 4.220216e-001 1.063461e+000 3.145703e-001 4.944657e-001 4.589146e-001 3.900235e-001 1.910858e-001
<GCONST> 1.161653e+002
<STATE> 4
<MEAN> 39
 3.529283e+000 -9.834100e+000 -7.455882e+000 -1.067392e+001 5.643645e+000 5.320234e-002 1.740953e+000 -4.656094e+000 -2.382748e-001 -4.921107e+000 -8.998440e+000 -1.009253e+001 6.735869e+001 -2.584739e-002 -1.416092e-001 3.831165e-001 2.434229e-001 -3.827077e-001 -5.701606e-001 3.681098e-001 2.808536e-001 2.064426e-002 -3.113806e-001 6.470109e-003 3.365620e-001 -6.347235e-002 5.758855e-002 1.053172e-001 1.406557e-001 3.456590e-002 -1.348053e-001 -1.503042e-001 -9.936462e-005 8.017559e-002 -4.377402e-002 1.082933e-001 2.149422e-002 9.556197e-002 -8.589448e-002
<VARIANCE> 39
 8.246734e+000 1.124121e+001 2.172806e+001 2.219277e+001 2.069246e+001 3.991956e+001 2.223581e+001 2.165714e+001 1.555906e+001 2.111823e+001 1.890671e+001 2.463589e+001 1.714090e+001 3.062338e-001 4.349892e-001 9.004549e-001 4.944195e-001 1.233764e+000 1.627367e+000 1.062116e+000 1.125748e+000 7.863531e-001 1.079987e+000 1.002985e+000 9.367778e-001 2.168158e-001 4.415234e-002 6.832027e-002 6.656060e-002 7.564718e-002 1.037918e-001 1.420983e-001 1.635293e-001 1.469525e-001 1.285730e-001 2.003269e-001 1.529945e-001 1.110728e-001 2.844789e-002
<GCONST> 7.602123e+001
<TRANSP> 5
 0.000000e+000 1.000000e+000 0.000000e+000 0.000000e+000 0.000000e+000
 0.000000e+000 3.741732e-001 6.258268e-001 0.000000e+000 0.000000e+000
 0.000000e+000 0.000000e+000 6.606706e-001 3.393294e-001 0.000000e+000
 0.000000e+000 0.000000e+000 0.000000e+000 9.075710e-001 9.242905e-002
 0.000000e+000 0.000000e+000 0.000000e+000 0.000000e+000 0.000000e+000
<ENDHMM>
~h "eh"
<BEGINHMM>
<NUMSTATES> 5
<STATE> 2
<MEAN> 39
 4.733235e+000 -5.466054e+000 -1.566985e-001 -1.035858e+001 -3.667940e+000 -1.470270e+001 -1.046893e+000 3.190237e+000 2.398879e+000 1.233871e+000 -1.153986e+001 -3.467771e+000 6.660551e+001 1.074149e+000 -2.092091e+000 1.132753e-001 -1.576381e+000 -8.615124e-001 -4.179016e-001 1.092632e-001 1.166588e+000 -1.689045e-001 -2.571691e-001 -8.732502e-001 -1.879466e-001 1.487185e+000 -1.055142e+000 2.521408e-001 -1.650738e-001 4.326823e-001 5.040579e-001 7.208255e-001 5.374603e-001 2.299373e-001 1.494061e-002 -4.246766e-001 6.344621e-001 9.297202e-002 -4.151348e-001
<VARIANCE> 39
 4.508442e+000 1.414082e+001 1.371624e+001 1.582335e+001 9.348668e+000 1.935346e+001 1.250874e+001 2.068370e+001 8.451386e+000 1.327260e+001 1.037687e+001 1.282451e+001 5.769186e+000 3.276258e+000 8.091253e-001 9.667218e-001 1.579118e+000 1.942393e+000 2.719641e+000 1.712385e+000 1.835411e+000 1.129144e+000 2.363940e+000 1.770125e+000 1.259257e+000 1.004041e+000 4.308574e-001 1.878584e-001 1.814704e-001 1.909960e-001 2.060233e-001 4.384755e-001 2.569644e-001 4.979132e-001 2.294651e-001 2.874340e-001 2.674821e-001 1.716971e-001 8.903714e-002
<GCONST> 9.076980e+001
<STATE> 3
<MEAN> 39
 4.595016e+000 -9.136859e+000 -8.422149e-002 -1.148239e+001 -2.765794e+000 -1.282301e+001 2.038232e+000 5.092235e+000 2.601816e+000 -3.499521e+000 -1.077704e+001 -5.151556e+000 6.782865e+001 3.061535e-001 2.019715e-001 3.531108e-002 3.049932e-001 1.380486e-001 2.225180e-001 -4.925012e-001 -7.128637e-001 9.035910e-002 1.426755e-001 5.420896e-001 -3.275983e-001 -4.107176e-001 7.016606e-002 2.799222e-001 -1.264576e-002 1.970098e-001 7.922585e-003 1.276510e-001 -2.642692e-001 -3.566672e-001 -3.055380e-002 2.415081e-001 1.599518e-001 -4.322690e-002 -2.228585e-001
<VARIANCE> 39
 4.882470e+000 5.760581e+000 1.439554e+001 1.387517e+001 1.427843e+001 2.870786e+001 1.898512e+001 1.744392e+001 1.353369e+001 1.604469e+001 1.635220e+001 2.275905e+001 4.762109e+000 3.125394e-001 6.157131e-001 3.680177e-001 6.669374e-001 4.557171e-001 1.061834e+000 2.034484e+000 1.729231e+000 7.566151e-001 1.561572e+000 8.408373e-001 6.496380e-001 5.164984e-001 4.791265e-002 5.361697e-002 6.321379e-002 9.185270e-002 9.259770e-002 1.822746e-001 1.782514e-001 1.451515e-001 1.882905e-001 1.568401e-001 1.155031e-001 1.164782e-001 3.687561e-002
<GCONST> 7.139047e+001
<STATE> 4
<MEAN> 39
 7.529098e+000 -2.812618e+000 9.221186e-002 -6.175216e+000 -1.603932e+000 -7.882853e+000 -6.509329e+000 -6.195752e+000 7.985998e-001 2.170821e+000 -3.726741e+000 -7.951307e+000 6.069725e+001 4.129977e-002 1.092391e+000 6.177581e-002 7.266743e-001 1.744156e-001 1.277732e+000 -5.509742e-001 -1.433221e+000 -8.395385e-001 5.996106e-001 9.743174e-001 -4.366628e-001 -8.933607e-001 -1.156476e-001 -4.449665e-001 2.491434e-002 -4.687987e-001 -7.048812e-002 -3.403714e-001 4.628550e-001 6.979496e-001 1.038899e-001 -2.033787e-001 -4.290958e-001 5.994263e-002 4.868663e-001
<VARIANCE> 39
 3.909382e+000 7.550615e+000 6.639972e+000 1.026840e+001 8.654808e+000 1.403616e+001 8.478135e+000 1.707212e+001 1.443844e+001 1.395307e+001 1.381095e+001 1.227464e+001 6.915462e+000 3.701246e-001 1.112483e+000 3.286999e-001 1.375372e+000 6.511043e-001 1.176743e+000 1.058124e+000 2.162644e+000 1.027057e+000 1.135377e+000 1.100860e+000 8.525939e-001 9.265243e-001 7.521182e-002 1.591602e-001 6.691801e-002 1.817705e-001 1.179958e-001 2.231287e-001 1.693178e-001 1.995197e-001 2.863606e-001 2.340699e-001 1.747444e-001 1.532890e-001 9.752209e-002
<GCONST> 7.581600e+001
<TRANSP> 5
 0.000000e+000 1.000000e+000 0.000000e+000 0.000000e+000 0.000000e+000
 0.000000e+000 7.426974e-001 2.573026e-001 0.000000e+000 0.000000e+000
 0.000000e+000 0.000000e+000 8.932983e-001 1.067017e-001 0.000000e+000
 0.000000e+000 0.000000e+000 0.000000e+000 7.399327e-001 2.600673e-001
 0.000000e+000 0.000000e+000 0.000000e+000 0.000000e+000 0.000000e+000
<ENDHMM>
~h "ey"
<BEGINHMM>
<NUMSTATES> 5
<STATE> 2
<MEAN> 39
 -1.161097e+000 -9.493385e-001 1.244236e-001 -2.351645e+000 -1.358071e+000 6.845908e-001 3.652824e+000 -3.617214e+000 2.884237e+000 3.492817e+000 -9.822272e-001 -5.693652e-001 4.985346e+001 -2.873467e-001 -8.179370e-001 -5.304164e-001 2.235076e-001 6.703181e-001 1.302164e-001 6.336813e-001 6.805587e-001 5.857471e-001 -4.315717e-001 -6.546801e-001 -4.717792e-001 3.080285e-001 1.584543e-001 -1.971368e-001 -8.597741e-002 -2.340494e-001 1.137733e-001 -2.082815e-001 -4.976556e-002 2.748621e-002 -2.243411e-001 -3.349970e-001 -3.204687e-001 -2.021795e-001 4.932456e-001
<VARIANCE> 39
 1.988529e+001 1.485972e+001 2.738545e+001 3.431651e+001 2.531857e+001 4.030823e+001 3.105636e+001 4.412840e+001 3.453606e+001 2.884350e+001 3.212706e+001 3.191225e+001 2.415962e+001 1.867601e+000 1.820499e+000 2.651977e+000 3.531974e+000 2.359686e+000 3.318647e+000 2.449451e+000 4.244287e+000 4.340552e+000 4.130157e+000 2.773479e+000 3.226301e+000 4.315006e+000 3.396958e-001 3.608437e-001 4.728431e-001 4.176917e-001 4.486312e-001 5.193437e-001 4.413064e-001 8.064220e-001 7.605588e-001 6.692673e-001 4.299909e-001 5.755122e-001 4.673813e-001
<GCONST> 1.207407e+002
<STATE> 3
<MEAN> 39
 1.558971e+000 -9.889408e+000 -5.037042e+000 -7.436666e+000 3.675780e+000 -5.079756e+000 5.114156e+000 5.798143e-001 1.162857e+000 -4.136156e+000 -1.017377e+001 -6.408278e+000 6.258527e+001 8.095285e-001 -1.481958e+000 -3.387582e-001 -1.121299e+000 3.608025e-001 -1.071700e+000 3.194987e-002 2.904078e-001 -7.741127e-001 -1.133690e+000 -1.141544e+000 -8.068038e-001 2.609871e+000 -1.634034e-001 2.765880e-001 3.117695e-001 2.250013e-001 -2.030780e-001 2.665119e-001 4.066281e-002 -2.149774e-001 3.364209e-002 2.255966e-001 4.412776e-001 3.395767e-001 -4.178156e-001
<VARIANCE> 39
 1.296514e+001 1.987404e+001 2.638083e+001 1.714742e+001 3.221761e+001 4.844712e+001 2.380488e+001 2.527215e+001 2.778193e+001 2.119077e+001 2.056885e+001 3.066428e+001 2.959755e+001 1.212132e+000 1.811511e+000 2.601279e+000 1.875441e+000 2.260705e+000 3.504493e+000 2.194036e+000 2.605810e+000 1.777499e+000 2.581197e+000 2.599683e+000 2.050732e+000 2.628754e+000 2.092898e-001 2.864784e-001 3.515359e-001 3.349854e-001 3.862599e-001 4.890102e-001 4.003657e-001 4.327404e-001 3.260289e-001 4.833140e-001 3.526155e-001 3.277934e-001 3.820733e-001
<GCONST> 1.103160e+002
<STATE> 4
<MEAN> 39
 2.785048e+000 -1.208327e+001 -4.111651e+000 -8.770467e+000 1.799798e+000 -7.076498e+000 7.397058e+000 -4.628690e-001 -1.204844e+000 -9.444093e+000 -1.038124e+001 -5.500131e+000 6.828548e+001 1.012483e-001 3.979309e-001 3.331605e-001 5.814227e-002 -4.112626e-001 -4.318990e-001 5.233583e-002 1.100185e-001 6.124070e-003 3.402988e-002 -9.922861e-002 4.101723e-001 -1.195770e-001 -1.358587e-002 1.824154e-001 7.496607e-002 9.588183e-002 -1.036025e-003 -1.209995e-002 -1.055246e-001 2.050165e-002 3.829433e-002 1.624790e-001 1.539140e-002 3.862154e-002 -2.069445e-001
<VARIANCE> 39
 4.433586e+000 1.233365e+001 1.418778e+001 1.512193e+001 1.581422e+001 2.295117e+001 1.227328e+001 1.528204e+001 1.640187e+001 1.537450e+001 1.112344e+001 1.541057e+001 8.486214e+000 2.413066e-001 6.718413e-001 5.147400e-001 5.124100e-001 5.885115e-001 7.759603e-001 8.996997e-001 7.230970e-001 6.642771e-001 1.151930e+000 7.139187e-001 5.909654e-001 4.191650e-001 6.071498e-002 7.025333e-002 8.566600e-002 1.189440e-001 1.078771e-001 1.428754e-001 1.534776e-001 1.396260e-001 1.203365e-001 1.418518e-001 1.458673e-001 1.079052e-001 8.023581e-002
<GCONST> 6.981843e+001
<TRANSP> 5
 0.000000e+000 1.000000e+000 0.000000e+000 0.000000e+000 0.000000e+000
 0.000000e+000 8.591988e-001 1.408012e-001 0.000000e+000 0.000000e+000
 0.000000e+000 0.000000e+000 7.886837e-001 2.113164e-001 0.000000e+000
 0.000000e+000 0.000000e+000 0.000000e+000 9.258456e-001 7.415432e-002
 0.000000e+000 0.000000e+000 0.000000e+000 0.000000e+000 0.000000e+000
<ENDHMM>
~h "ia"
<BEGINHMM>
<NUMSTATES> 5
<STATE> 2
<MEAN> 39
 -1.183258e+000 4.910713e+000 5.993877e+000 -3.938741e-001 4.615072e-001 -1.405551e+001 -1.362055e+000 -2.863871e+000 -2.405277e+000 -1.830275e+000 -3.171725e+000 -2.085686e+000 6.029354e+001 1.841402e+000 -1.592797e+000 1.626293e+000 -1.130326e+000 -1.717628e+000 -2.473250e+000 -6.601890e-001 4.737307e-001 -1.096823e+000 1.279586e-001 -3.357227e-001 3.180904e-001 1.064386e+000 -1.399935e-002 -4.035866e-001 1.349728e-001 -3.243242e-001 -1.132489e-001 1.961440e-001 2.194801e-001 2.005226e-001 -6.867980e-003 1.262020e-001 5.496370e-002 3.086010e-001 1.173002e-001
<VARIANCE> 39
 2.205901e+001 1.989511e+001 2.037350e+001 1.626314e+001 2.493329e+001 4.010376e+001 2.389381e+001 1.269405e+001 1.976461e+001 1.833046e+001 1.575882e+001 1.446803e+001 1.471308e+001 2.335653e+000 2.270920e+000 1.413324e+000 1.633764e+000 1.744376e+000 2.898085e+000 2.256262e+000 2.158729e+000 1.910372e+000 1.765549e+000 1.533193e+000 2.094071e+000 4.777372e-001 4.297377e-001 2.624073e-001 2.412061e-001 1.976038e-001 2.893137e-001 7.704724e-001 3.632734e-001 3.300084e-001 4.339600e-001 3.247543e-001 2.799244e-001 3.301090e-001 9.130794e-002
<GCONST> 1.019672e+002
<STATE> 3
<MEAN> 39
 3.895395e+000 -5.400936e+000 1.199228e+001 -8.654066e+000 -8.303492e+000 -1.860102e+001 -5.249377e-001 1.049551e+000 -4.127700e+000 -1.137088e+000 -3.972748e+000 2.616429e+000 6.629915e+001 2.544200e-001 -8.784053e-001 -7.424632e-001 -5.280477e-001 -4.768747e-001 6.079655e-001 1.514675e-001 3.910205e-001 9.438788e-001 -2.480160e-002 -3.108478e-001 -3.150189e-001 4.967663e-001 -5.496639e-002 1.600397e-001 -4.221581e-001 2.096557e-001 2.566918e-001 3.623870e-001 -1.349408e-001 -1.350176e-001 2.271662e-001 7.037927e-003 -6.259128e-002 -3.802609e-001 -1.194080e-001
<VARIANCE> 39
 3.949930e+000 9.080629e+000 3.054327e+001 1.242369e+001 1.599404e+001 1.351498e+001 1.385000e+001 1.349575e+001 3.085849e+001 1.232206e+001 1.230202e+001 1.748808e+001 8.093217e+000 2.493077e-001 5.936148e-001 2.197239e+000 9.035666e-001 1.715260e+000 1.500310e+000 1.227762e+000 1.011143e+000 1.387482e+000 8.458758e-001 1.126715e+000 2.303362e+000 2.130490e-001 8.782750e-002 9.115437e-002 1.446635e-001 1.301643e-001 1.911515e-001 2.315850e-001 2.009271e-001 2.486074e-001 2.011523e-001 1.547426e-001 1.810651e-001 1.772299e-001 2.651147e-002
<GCONST> 7.925672e+001
<STATE> 4
<MEAN> 39
 8.723157e+000 -9.013990e+000 -6.014112e+000 -4.087547e+000 -9.928172e+000 -5.084679e+000 -9.740548e-001 -4.401120e+000 5.159717e+000 2.813410e-001 -3.018758e+000 -9.824615e+000 6.647475e+001 5.105085e-001 1.800684e-001 -1.274253e+000 4.368327e-001 -3.639551e-001 1.182914e+000 2.673225e-001 -1.295405e+000 -3.459098e-001 4.413586e-001 7.736861e-001 -4.379465e-001 -2.894138e-001 -3.573509e-002 1.443464e-001 2.345146e-001 -1.192601e-001 -1.131190e-001 -1.083027e-001 1.850022e-001 -9.472411e-002 -2.803133e-001 4.777326e-003 1.269506e-001 3.180823e-001 -5.150443e-002
<VARIANCE> 39
 6.706987e+000 7.607183e+000 3.549126e+001 2.906782e+001 2.078986e+001 2.870630e+001 2.357926e+001 3.912751e+001 2.454022e+001 2.396403e+001 3.917619e+001 2.968470e+001 8.421717e+000 2.764115e-001 5.553599e-001 1.232049e+000 1.599714e+000 1.182672e+000 1.627440e+000 1.425934e+000 1.431963e+000 1.944407e+000 1.037845e+000 1.298612e+000 2.744636e+000 8.958864e-002 3.873681e-002 5.229038e-002 9.225109e-002 2.556174e-001 2.058659e-001 2.264187e-001 2.369492e-001 2.977978e-001 2.078674e-001 1.678931e-001 2.320206e-001 2.332422e-001 1.476346e-002
<GCONST> 8.491334e+001
<TRANSP> 5
 0.000000e+000 1.000000e+000 0.000000e+000 0.000000e+000 0.000000e+000
 0.000000e+000 7.776887e-001 2.223112e-001 0.000000e+000 0.000000e+000
 0.000000e+000 0.000000e+000 8.891420e-001 1.108581e-001 0.000000e+000
 0.000000e+000 0.000000e+000 0.000000e+000 9.009988e-001 9.900126e-002
 0.000000e+000 0.000000e+000 0.000000e+000 0.000000e+000 0.000000e+000
<ENDHMM>
~h "ih"
<BEGINHMM>
<NUMSTATES> 5
<STATE> 2
<MEAN> 39
 -1.321686e+001 2.851477e+000 -2.674558e+000 -1.972831e+000 4.695117e+000 -4.027305e+000 5.937616e+000 3.613485e+000 4.534085e+000 -9.918055e-001 -5.307804e-002 1.868527e+000 5.865351e+001 3.585875e+000 -4.286735e-001 1.710529e+000 -9.517220e-001 -8.838627e-001 -2.374378e+000 -1.422608e+000 -4.459234e-001 -4.142729e-001 -5.983094e-002 -1.752195e+000 -1.135669e+000 4.006372e-001 1.048039e+000 -3.201283e-001 2.901734e-001 -2.788065e-001 -5.770331e-001 -7.872890e-001 -6.144918e-001 -2.652723e-001 -3.844951e-001 2.077006e-001 -3.496267e-001 -1.555452e-001 4.958874e-001
<VARIANCE> 39
 1.224876e+001 1.076815e+001 1.055757e+001 1.702061e+001 1.528030e+001 1.895429e+001 1.716200e+001 1.666483e+001 1.461783e+001 1.939948e+001 1.356559e+001 1.371132e+001 8.820599e+000 3.941549e+000 8.532914e-001 1.194187e+000 1.387796e+000 1.659028e+000 2.387518e+000 2.287022e+000 1.919114e+000 1.835304e+000 1.702360e+000 2.121431e+000 1.523412e+000 7.217713e-001 3.598987e-001 1.694926e-001 2.763994e-001 3.162037e-001 2.396678e-001 3.554519e-001 3.858927e-001 3.583265e-001 3.206224e-001 3.735050e-001 3.209444e-001 3.589762e-001 1.170160e-001
<GCONST> 9.658106e+001
<STATE> 3
<MEAN> 39
 3.040884e+000 -1.401853e+000 2.958009e+000 -7.247257e+000 -2.686621e+000 -1.582645e+001 -1.937097e+000 4.856831e-001 9.743574e-001 6.628284e-001 -7.042909e+000 -1.545145e+000 6.411145e+001 2.180812e+000 -1.942373e+000 9.413831e-001 -1.596362e+000 -2.415916e+000 -2.103847e+000 -8.633552e-001 9.753832e-002 -5.886030e-001 1.842667e-001 -3.664824e-001 1.820521e-001 1.850935e+000 -1.220265e+000 9.212784e-003 -2.810185e-001 2.742484e-001 5.398880e-002 7.974669e-001 6.633164e-001 3.373473e-001 1.532016e-001 -2.714113e-001 7.293970e-001 3.180237e-001 -1.513493e-001
<VARIANCE> 39
 1.038516e+001 1.857127e+001 1.564594e+001 1.738569e+001 1.983020e+001 2.208672e+001 1.335619e+001 1.203213e+001 1.261426e+001 1.992245e+001 1.186851e+001 1.500878e+001 1.656352e+001 5.657386e+000 9.469336e-001 1.647321e+000 1.813060e+000 1.242251e+000 4.493429e+000 3.000430e+000 2.072287e+000 1.683043e+000 2.471499e+000 2.983615e+000 2.049387e+000 6.605367e-001 2.816732e-001 3.071879e-001 1.911938e-001 3.273565e-001 3.121746e-001 3.446862e-001 3.001839e-001 2.842664e-001 2.549904e-001 3.661315e-001 2.856730e-001 3.257167e-001 2.489885e-001
<GCONST> 1.003189e+002
<STATE> 4
<MEAN> 39
 9.364085e-001 -3.550160e+000 3.293528e+000 -4.807940e+000 -5.352997e+000 -1.422136e+001 1.453305e+000 1.013778e+000 -2.950390e+000 -5.236802e-001 -1.878186e+000 -1.240562e+000 6.347051e+001 -6.100438e-001 2.754482e-001 -4.553263e-001 5.653344e-001 7.916735e-001 5.659427e-001 1.837358e-001 -2.777524e-001 1.742101e-001 1.713043e-001 2.296362e-001 -5.782733e-002 -4.784188e-001 -1.094952e-001 8.085424e-002 -2.696341e-002 3.069491e-002 1.128084e-001 7.583200e-002 -2.671411e-002 -9.507867e-003 6.335320e-002 5.916552e-002 -1.151505e-002 -5.307127e-003 -2.981942e-002
<VARIANCE> 39
 1.752820e+001 1.898961e+001 4.855382e+001 4.235571e+001 7.432341e+001 5.432706e+001 1.522932e+001 2.587253e+001 5.461562e+001 2.126053e+001 2.437508e+001 1.810576e+001 3.645658e+001 1.449281e+000 1.241845e+000 3.628614e+000 1.843900e+000 3.649510e+000 3.547284e+000 1.413249e+000 1.852843e+000 5.780358e+000 1.374077e+000 1.812058e+000 1.279517e+000 1.457501e+000 1.482963e-001 2.256459e-001 6.300290e-001 3.314941e-001 5.062757e-001 5.818675e-001 2.657054e-001 3.440030e-001 8.905282e-001 2.386741e-001 3.215500e-001 2.496837e-001 2.320468e-001
<GCONST> 1.113286e+002
<TRANSP> 5
 0.000000e+000 1.000000e+000 0.000000e+000 0.000000e+000 0.000000e+000
 0.000000e+000 6.197875e-001 3.802125e-001 0.000000e+000 0.000000e+000
 0.000000e+000 0.000000e+000 7.237079e-001 2.762921e-001 0.000000e+000
 0.000000e+000 0.000000e+000 0.000000e+000 9.444372e-001 5.556282e-002
 0.000000e+000 0.000000e+000 0.000000e+000 0.000000e+000 0.000000e+000
<ENDHMM>
~h "iy"
<BEGINHMM>
<NUMSTATES> 5
<STATE> 2
<MEAN> 39
 3.167309e+000 -5.976123e+000 1.620647e+001 -1.072351e+001 -9.758608e+000 -1.885027e+001 -2.461856e+000 -2.493001e-001 -9.196871e+000 -5.536067e-001 -3.133290e+000 4.725967e+000 6.572237e+001 -5.399522e-001 5.915224e-001 8.427078e-001 -5.741923e-001 -8.944600e-002 -2.039970e-002 2.777657e-001 -6.847567e-001 -9.338289e-001 -1.990677e-001 1.460706e-001 5.772980e-001 -9.820424e-002 8.022720e-002 1.228515e-001 -2.682081e-001 1.913557e-001 1.830721e-001 2.793008e-001 -1.728102e-001 -2.620242e-001 1.884554e-001 2.917973e-002 -8.003969e-002 -2.168373e-001 -1.545858e-001
<VARIANCE> 39
 6.097521e+000 1.130158e+001 2.947510e+001 1.445845e+001 1.061963e+001 1.116129e+001 1.932699e+001 2.135859e+001 4.064106e+001 1.274487e+001 1.200384e+001 1.568633e+001 6.502995e+000 3.661393e-001 5.792426e-001 1.190945e+000 6.308551e-001 1.403614e+000 1.101574e+000 1.266889e+000 1.268104e+000 1.500556e+000 9.174562e-001 8.891687e-001 1.290885e+000 1.902378e-001 4.312617e-002 7.700520e-002 1.364733e-001 1.019406e-001 1.781279e-001 1.901814e-001 1.876030e-001 3.137973e-001 1.786136e-001 1.887245e-001 1.645820e-001 2.090595e-001 2.530958e-002
<GCONST> 7.735840e+001
<STATE> 3
<MEAN> 39
 1.124881e+000 -3.679511e-001 1.932185e+001 -1.114083e+001 -7.567586e+000 -1.527820e+001 -4.205752e+000 -6.653106e+000 -1.223037e+001 -3.239069e+000 -2.915168e+000 5.706782e+000 6.265258e+001 -2.519232e-002 6.480219e-001 -5.874525e-001 5.015286e-001 4.434884e-001 6.738802e-001 5.473415e-002 -4.106787e-001 5.267131e-001 -2.653884e-001 6.642090e-002 -4.840958e-001 -5.532388e-001 -8.515195e-003 1.382678e-002 -2.758913e-001 1.962058e-001 6.816527e-002 1.854222e-001 5.742836e-002 1.256457e-001 2.681225e-001 1.023548e-001 1.584206e-002 -2.237310e-001 -5.222425e-002
<VARIANCE> 39
 6.200428e+000 1.134030e+001 2.087933e+001 1.716256e+001 1.339314e+001 1.836582e+001 2.283066e+001 1.719945e+001 3.581161e+001 1.627659e+001 1.158087e+001 1.414595e+001 6.908742e+000 2.776112e-001 5.633048e-001 1.693053e+000 1.382065e+000 9.274001e-001 1.210198e+000 1.089710e+000 1.209981e+000 1.655915e+000 1.064810e+000 8.538678e-001 1.094323e+000 2.315820e-001 9.167815e-002 8.182374e-002 1.390830e-001 2.183277e-001 1.845407e-001 2.833268e-001 1.804983e-001 2.331634e-001 2.744138e-001 1.681749e-001 1.694191e-001 1.909927e-001 3.733239e-002
<GCONST> 8.081164e+001
<STATE> 4
<MEAN> 39
 -2.913232e-002 4.701921e+000 1.518531e+001 -6.314971e+000 -5.163464e+000 -4.810270e+000 -2.668796e+000 -7.990663e+000 -6.287990e+000 -3.737371e+000 -2.177225e+000 1.577795e+000 5.660119e+001 -1.647419e-001 -4.587843e-002 -7.059179e-001 6.104445e-001 4.822760e-001 1.022617e+000 3.122312e-001 1.818894e-001 6.736035e-001 4.354743e-001 -7.504162e-002 -4.182525e-001 -5.987774e-001 -3.770947e-002 -1.178628e-001 -6.566295e-002 9.697776e-003 2.103312e-002 -1.798587e-002 4.709480e-002 7.864359e-002 4.495065e-002 6.860481e-002 5.009220e-004 5.704944e-002 -1.662686e-003
<VARIANCE> 39
 8.106801e+000 1.170438e+001 2.042645e+001 2.199094e+001 2.682750e+001 4.885689e+001 2.031734e+001 1.632339e+001 2.257151e+001 2.159188e+001 1.542248e+001 1.525840e+001 1.596777e+001 5.751500e-001 9.011225e-001 1.336928e+000 1.369940e+000 1.300305e+000 1.938742e+000 1.277294e+000 1.325592e+000 1.764010e+000 1.361225e+000 1.171401e+000 1.475356e+000 3.342469e-001 8.672944e-002 9.918388e-002 1.515920e-001 2.046324e-001 2.149687e-001 2.960262e-001 2.030108e-001 2.057732e-001 2.209487e-001 2.295004e-001 2.236080e-001 2.481017e-001 3.861532e-002
<GCONST> 8.818017e+001
<TRANSP> 5
 0.000000e+000 1.000000e+000 0.000000e+000 0.000000e+000 0.000000e+000
 0.000000e+000 8.488371e-001 1.511629e-001 0.000000e+000 0.000000e+000
 0.000000e+000 0.000000e+000 8.263726e-001 1.736274e-001 0.000000e+000
 0.000000e+000 0.000000e+000 0.000000e+000 8.641406e-001 1.358595e-001
 0.000000e+000 0.000000e+000 0.000000e+000 0.000000e+000 0.000000e+000
<ENDHMM>
~h "jh"
<BEGINHMM>
<NUMSTATES> 5
<STATE> 2
<MEAN> 39
 7.672966e-001 -1.288154e+000 2.183742e-002 -2.188209e+000 2.254566e-001 2.362678e+000 2.069770e+000 -5.234612e+000 8.762584e-001 5.365497e+000 -3.464914e+000 8.956456e-001 5.138382e+001 -1.552240e+000 -1.318231e+000 -2.671801e-002 -1.306606e+000 -1.104929e+000 1.013117e+000 -5.582439e-001 1.265565e+000 1.391073e+000 -5.511411e-002 1.465024e+000 1.349329e+000 -9.252770e-002 -2.171323e-001 2.106995e-001 5.131618e-001 -4.352191e-001 -5.212926e-001 -2.722087e-001 -3.264520e-001 -4.809329e-001 -1.283904e-001 3.634137e-003 -4.869925e-001 -1.072428e-001 8.075600e-001
<VARIANCE> 39
 7.810969e+000 8.040573e+000 1.782960e+001 8.969888e+001 1.610676e+001 1.846935e+001 2.609313e+001 1.490734e+001 3.468649e+001 1.520183e+001 2.130098e+001 2.696032e+001 5.356544e+001 1.699860e+000 1.133793e+000 1.653843e+000 2.227447e+000 1.484169e+000 2.583377e+000 2.442557e+000 2.467803e+000 2.007542e+000 1.771519e+000 2.617059e+000 2.073863e+000 3.560225e+000 1.892368e-001 1.512651e-001 1.227628e-001 5.038927e-001 4.962532e-001 1.987986e-001 6.227465e-001 2.508540e-001 3.564562e-001 2.305594e-001 3.675542e-001 5.259693e-001 4.720758e-001
<GCONST> 1.053838e+002
<STATE> 3
<MEAN> 39
 3.614412e+000 -1.074064e+000 -4.397138e+000 -1.775894e+001 7.187490e-001 1.155293e+000 -6.938054e+000 -6.684238e+000 -5.217884e+000 7.431010e+000 -5.751413e+000 -1.622289e+000 6.372602e+001 -6.764824e-001 -6.452576e-003 1.377876e+000 9.330357e-001 -5.269354e-001 -7.308354e-001 -1.258524e+000 1.234231e-002 1.455045e+000 3.955299e-002 3.046299e-001 8.595372e-001 4.676057e-001 -2.535286e-001 2.869741e-001 4.450630e-001 6.538779e-001 1.303658e-001 -6.381790e-002 4.682506e-001 -7.746138e-004 2.819563e-001 -4.023051e-001 -3.179955e-002 1.583564e-002 3.251154e-002
<VARIANCE> 39
 3.304009e+001 1.207686e+001 3.576379e+001 6.400138e+001 7.790623e+000 1.842356e+001 2.425795e+001 9.775278e+000 5.556242e+001 2.830149e+001 1.941327e+001 2.143731e+001 4.831972e+001 2.486336e+000 3.044798e-001 1.165422e+000 4.884158e+000 2.069935e+000 2.317141e+000 1.604646e+000 7.505211e-001 3.756965e+000 1.728228e+000 2.096437e+000 2.982126e+000 3.525177e+000 1.602756e-001 1.857193e-001 1.054354e-001 1.697412e-001 2.530868e-001 4.493047e-001 1.998879e-001 3.453756e-001 7.339852e-001 5.020858e-001 4.031118e-001 3.632190e-001 2.179137e-001
<GCONST> 1.044566e+002
<STATE> 4
<MEAN> 39
 -7.617114e+000 -1.708377e+000 8.354767e+000 -2.478844e+000 -5.121038e+000 2.928481e-002 1.169432e+000 -3.199701e+000 4.111601e-001 2.330447e+000 -5.269597e-001 2.344061e+000 6.040762e+001 4.537185e-001 -2.995613e-002 8.485121e-001 8.730238e-001 -3.892673e-001 -1.060963e+000 4.238500e-002 2.859882e-001 -8.690270e-001 -3.329805e-001 2.485425e-001 3.384690e-003 4.153009e-001 4.242884e-001 -4.545545e-002 -2.207729e-001 -2.049601e-001 1.326085e-001 -7.808807e-002 -1.324908e-001 -1.401023e-001 -2.172218e-001 1.415152e-001 -8.942319e-003 -8.821138e-002 -9.115829e-002
<VARIANCE> 39
 7.991168e+001 1.392554e+001 2.339903e+001 4.386261e+001 4.426963e+001 7.455965e+001 5.020525e+001 1.638309e+001 4.411712e+001 2.730394e+001 1.782163e+001 1.847470e+001 3.891980e+001 1.287686e+001 2.023165e+000 2.226010e+000 5.978264e+000 3.200178e+000 7.339421e+000 7.280602e+000 2.145519e+000 4.549990e+000 4.359210e+000 2.516668e+000 2.204772e+000 4.911458e+000 1.551680e+000 3.896800e-001 4.130744e-001 1.460081e+000 5.920640e-001 1.278627e+000 1.297288e+000 4.630524e-001 6.123795e-001 8.507366e-001 6.644896e-001 5.218612e-001 8.259539e-001
<GCONST> 1.313390e+002
<TRANSP> 5
 0.000000e+000 1.000000e+000 0.000000e+000 0.000000e+000 0.000000e+000
 0.000000e+000 6.330261e-001 3.669738e-001 0.000000e+000 0.000000e+000
 0.000000e+000 0.000000e+000 5.493766e-001 4.506234e-001 0.000000e+000
 0.000000e+000 0.000000e+000 0.000000e+000 9.183909e-001 8.160908e-002
 0.000000e+000 0.000000e+000 0.000000e+000 0.000000e+000 0.000000e+000
<ENDHMM>
~h "ng"
<BEGINHMM>
<NUMSTATES> 5
<STATE> 2
<MEAN> 39
 6.333367e+000 -4.607472e+000 -1.185388e+001 -1.306629e+001 8.968017e+000 2.347810e+000 2.082357e+000 -1.170759e+001 -7.203052e+000 -1.785439e+000 -1.805575e+000 -9.438373e+000 6.546009e+001 1.271511e-001 6.575146e-001 -5.874184e-002 3.277483e-001 -3.032903e-001 6.013212e-001 6.977040e-001 -3.068643e-001 -9.270388e-001 3.694550e-001 3.929068e-001 1.528513e-001 -6.565713e-001 -5.778908e-002 1.399540e-003 2.249572e-001 -3.442399e-002 -1.216705e-001 -1.036234e-001 4.543825e-002 1.221298e-001 5.527739e-002 1.629341e-002 -3.577080e-001 1.571371e-001 -8.886972e-003
<VARIANCE> 39
 3.999808e+000 1.410609e+001 9.711043e+000 1.456240e+001 9.462931e+000 1.422962e+001 2.382515e+001 7.616982e+000 2.681668e+001 1.838572e+001 2.092262e+001 1.325165e+001 1.022718e+001 2.640544e-001 3.215383e-001 9.605861e-001 4.990765e-001 7.053249e-001 5.855470e-001 1.209988e+000 8.925937e-001 1.297013e+000 8.703290e-001 3.024080e+000 1.679433e+000 2.149973e-001 3.573684e-002 4.757949e-002 8.252880e-002 6.888610e-002 1.409563e-001 7.655330e-002 1.921602e-001 1.820044e-001 2.335801e-001 1.709948e-001 2.087779e-001 1.959325e-001 2.139671e-002
<GCONST> 7.142613e+001
<STATE> 3
<MEAN> 39
 4.473199e+000 8.524880e-001 -7.820833e-001 -1.035052e+001 2.216336e+000 1.800334e+000 4.700233e+000 -1.069371e+001 -8.081748e+000 7.584857e-001 -1.300389e+001 -4.112512e+000 6.017965e+001 -1.575104e-001 3.868805e-001 1.297445e+000 4.684586e-001 -4.806127e-001 -3.407195e-001 -4.660989e-001 4.016670e-001 6.151299e-001 -7.248721e-002 -1.061709e+000 6.156653e-002 -3.850164e-001 2.823868e-002 -3.973514e-003 -8.940122e-002 9.420437e-002 1.273983e-001 -6.486631e-003 -1.792384e-002 2.465822e-002 7.627138e-002 7.669569e-003 1.759368e-001 -9.159201e-002 -2.365560e-002
<VARIANCE> 39
 5.090950e+000 6.462762e+000 3.186477e+001 1.443139e+001 1.233278e+001 1.933020e+001 2.259236e+001 9.074790e+000 1.483942e+001 1.083691e+001 2.544747e+001 1.707453e+001 6.574631e+000 2.848524e-001 3.174088e-001 8.442218e-001 5.227062e-001 8.016454e-001 1.000578e+000 9.913414e-001 8.839467e-001 1.062575e+000 8.707973e-001 1.104229e+000 1.339335e+000 2.769669e-001 4.308358e-002 5.802232e-002 1.185698e-001 8.380324e-002 1.200903e-001 1.734371e-001 2.119863e-001 1.639784e-001 2.071786e-001 1.449825e-001 1.131163e-001 2.809905e-001 4.051667e-002
<GCONST> 7.259824e+001
<STATE> 4
<MEAN> 39
 2.868977e+000 3.552467e+000 6.850194e+000 -9.274164e-001 3.450034e+000 2.275775e+000 4.003349e+000 -6.494662e+000 -1.890038e+000 1.166033e+000 -1.346439e+001 -3.114221e+000 5.384908e+001 -3.900655e-001 -2.286177e-001 1.301071e-002 9.253193e-001 3.731087e-001 4.731360e-001 3.441728e-001 4.952559e-001 5.395729e-001 1.538370e-001 7.585124e-001 3.399445e-001 -7.497398e-001 -7.564645e-002 -1.356884e-001 -1.299410e-001 -1.387646e-001 -6.467880e-002 6.383287e-003 3.963502e-002 7.882243e-003 -2.627211e-002 4.979474e-002 1.081251e-001 7.512685e-002 2.813354e-002
<VARIANCE> 39
 5.442251e+000 3.485210e+000 6.187203e+000 2.171580e+001 1.314910e+001 1.259174e+001 1.384932e+001 1.901860e+001 1.357288e+001 1.911265e+001 1.431057e+001 1.915716e+001 6.133214e+000 2.919327e-001 4.247608e-001 7.582523e-001 1.746282e+000 1.018644e+000 1.057864e+000 1.541298e+000 1.666938e+000 1.384417e+000 1.557186e+000 1.024308e+000 1.460532e+000 1.342081e-001 2.979692e-002 5.097556e-002 1.105417e-001 3.065735e-001 1.824668e-001 1.869836e-001 3.056660e-001 3.350349e-001 2.582648e-001 3.354347e-001 2.257010e-001 3.115313e-001 2.340235e-002
<GCONST> 7.717661e+001
<TRANSP> 5
 0.000000e+000 1.000000e+000 0.000000e+000 0.000000e+000 0.000000e+000
 0.000000e+000 9.132831e-001 8.671690e-002 0.000000e+000 0.000000e+000
 0.000000e+000 0.000000e+000 9.094654e-001 9.053463e-002 0.000000e+000
 0.000000e+000 0.000000e+000 0.000000e+000 8.826106e-001 1.173893e-001
 0.000000e+000 0.000000e+000 0.000000e+000 0.000000e+000 0.000000e+000
<ENDHMM>
~h "ow"
<BEGINHMM>
<NUMSTATES> 5
<STATE> 2
<MEAN> 39
 4.782306e+000 1.018151e-001 -4.637219e+000 -1.343341e+001 -2.116695e+000 5.060214e+000 2.317806e-001 -4.673973e+000 -8.114319e-001 1.569084e+000 -2.445981e-001 -5.106503e+000 5.732859e+001 1.246717e-001 1.688545e-001 -4.778368e-001 -1.176733e+000 4.492236e-001 5.965413e-001 -2.142077e-001 4.128782e-001 -3.632577e-001 -6.041765e-001 2.925616e-001 -7.778272e-001 5.532650e-001 -8.481239e-002 1.628587e-002 8.825492e-002 3.164751e-001 -5.977751e-002 -1.521200e-001 1.345679e-001 -5.594711e-002 3.519136e-002 -1.009157e-001 -5.424129e-004 7.921730e-002 -2.820153e-003
<VARIANCE> 39
 3.064749e+001 1.290764e+001 2.872611e+001 1.007061e+002 3.636166e+001 3.577325e+001 3.180922e+001 2.571359e+001 4.780945e+001 4.141191e+001 3.511517e+001 4.617990e+001 5.812028e+001 1.310326e+000 9.217995e-001 1.780157e+000 3.647029e+000 2.125470e+000 2.260994e+000 2.023325e+000 2.363489e+000 2.556922e+000 1.859190e+000 1.828046e+000 2.226749e+000 1.786071e+000 2.399566e-001 1.715033e-001 2.612729e-001 7.914576e-001 2.663840e-001 2.916605e-001 3.584156e-001 4.172709e-001 4.914602e-001 4.718126e-001 3.557816e-001 4.062494e-001 2.361553e-001
<GCONST> 1.132258e+002
<STATE> 3
<MEAN> 39
 8.536659e+000 4.119637e+000 -4.904090e+000 -2.368827e+001 -6.018176e+000 5.513405e+000 -1.130273e+000 -1.876089e+000 -3.486383e+000 -4.635137e+000 1.263255e+000 -5.692057e+000 6.167225e+001 8.142439e-002 3.993923e-001 3.666771e-001 2.119185e-001 -1.279497e-001 -4.057156e-001 7.820445e-002 2.707047e-001 -3.714140e-001 -3.471717e-001 -1.550489e-001 -2.286171e-002 -3.618256e-001 -1.377153e-002 -3.171664e-002 3.934712e-002 2.153195e-001 -1.459578e-003 -5.949977e-002 8.160378e-002 -8.068490e-002 2.313001e-002 1.153780e-001 -1.297099e-001 1.110085e-002 -6.062970e-002
<VARIANCE> 39
 5.571617e+000 1.115736e+001 1.840439e+001 4.258472e+001 3.328273e+001 2.456373e+001 2.210233e+001 2.626329e+001 3.482693e+001 4.522702e+001 2.616115e+001 2.295872e+001 2.127003e+001 1.839128e-001 2.335683e-001 3.864011e-001 9.774505e-001 8.268337e-001 6.274381e-001 7.685240e-001 8.075963e-001 1.005008e+000 1.138905e+000 9.165794e-001 9.585972e-001 1.948265e-001 2.972505e-002 3.867453e-002 6.867249e-002 1.243082e-001 9.824592e-002 1.025718e-001 1.309888e-001 1.492231e-001 1.595845e-001 1.682075e-001 2.267935e-001 1.407548e-001 3.224321e-002
<GCONST> 7.491331e+001
<STATE> 4
<MEAN> 39
 7.060360e+000 5.032170e+000 -1.861384e+000 -1.406102e+001 -4.680151e+000 2.260165e+000 1.235003e+000 -2.380076e+000 -4.745850e+000 -2.547904e+000 -2.636832e+000 -5.854235e+000 5.649489e+001 -4.903163e-001 -2.658768e-001 3.537777e-001 1.163042e+000 7.135628e-001 -6.232217e-002 4.114982e-001 -1.610802e-001 2.513193e-001 6.803946e-001 -6.187686e-001 7.860182e-002 -3.071673e-001 -1.385291e-001 -9.166329e-002 4.395445e-002 5.929985e-002 6.851878e-002 3.726788e-002 1.078789e-002 -2.848986e-002 1.553450e-001 1.018706e-001 -5.685736e-002 9.907918e-002 1.592922e-002
<VARIANCE> 39
 1.535237e+001 1.341931e+001 2.476480e+001 9.144006e+001 3.091743e+001 2.881989e+001 2.592966e+001 2.800073e+001 4.465327e+001 3.415837e+001 3.585853e+001 3.157677e+001 3.274632e+001 9.786984e-001 7.223954e-001 1.424085e+000 4.661766e+000 2.402662e+000 1.796659e+000 1.742993e+000 1.993706e+000 2.051558e+000 2.251057e+000 3.832035e+000 2.148390e+000 1.236498e+000 1.164871e-001 8.261262e-002 2.420455e-001 5.724073e-001 2.368497e-001 2.649846e-001 3.215483e-001 3.049272e-001 3.338217e-001 3.911070e-001 6.044930e-001 3.533082e-001 1.547399e-001
<GCONST> 1.069092e+002
<TRANSP> 5
 0.000000e+000 1.000000e+000 0.000000e+000 0.000000e+000 0.000000e+000
 0.000000e+000 5.942279e-001 4.057722e-001 0.000000e+000 0.000000e+000
 0.000000e+000 0.000000e+000 8.830946e-001 1.169054e-001 0.000000e+000
 0.000000e+000 0.000000e+000 0.000000e+000 8.205301e-001 1.794699e-001
 0.000000e+000 0.000000e+000 0.000000e+000 0.000000e+000 0.000000e+000
<ENDHMM>
~h "sp"
<BEGINHMM>
<NUMSTATES> 3
<STATE> 2
~s "silst"
<TRANSP> 3
 0.000000e+000 2.120693e-001 7.879307e-001
 0.000000e+000 9.755625e-001 2.443752e-002
 0.000000e+000 0.000000e+000 0.000000e+000
<ENDHMM>
~h "th"
<BEGINHMM>
<NUMSTATES> 5
<STATE> 2
<MEAN> 39
 -4.954782e+000 8.200840e-001 1.015574e+000 -9.368085e-001 4.924966e+000 -2.487177e+000 4.106557e+000 -8.876036e-001 1.125703e+000 6.539244e-001 -9.573979e-001 -4.713235e-001 5.506461e+001 -1.879572e+000 3.044817e-001 -7.016629e-001 3.919351e-001 8.810425e-001 -3.365449e-001 2.199864e-001 1.315529e+000 7.316806e-001 -7.839584e-002 8.491885e-001 2.650939e-001 7.393441e-001 -1.296952e-001 -6.506124e-002 -6.497300e-002 -9.298092e-002 -8.296985e-002 -7.779854e-002 1.923486e-002 4.882779e-002 7.311043e-003 3.820496e-002 3.185321e-002 1.074005e-001 1.152058e-001
<VARIANCE> 39
 2.945302e+001 2.108118e+001 1.884350e+001 2.276835e+001 3.014719e+001 3.473899e+001 2.657757e+001 3.385729e+001 2.967745e+001 2.345337e+001 2.901409e+001 2.234863e+001 3.943522e+001 3.414898e+000 1.338859e+000 1.650526e+000 3.170301e+000 2.112694e+000 4.025273e+000 2.390189e+000 2.407198e+000 2.632722e+000 1.739638e+000 2.304042e+000 2.376979e+000 1.446348e+000 4.141302e-001 2.299050e-001 2.411088e-001 3.707557e-001 3.543145e-001 5.783862e-001 4.646499e-001 4.545029e-001 4.393410e-001 3.009969e-001 3.794434e-001 4.546234e-001 1.381327e-001
<GCONST> 1.116107e+002
<STATE> 3
<MEAN> 39
 -1.514656e+001 4.010817e+000 -2.840536e+000 1.949529e-002 8.814967e+000 -4.330321e+000 4.882646e+000 4.768531e+000 4.465653e+000 -2.547884e-001 9.885758e-001 7.244698e-001 6.120110e+001 1.938601e-001 2.072009e-002 1.602928e-001 -1.749314e-001 9.169119e-002 -9.725292e-002 -2.240884e-001 1.947528e-001 1.157373e-001 -1.023823e-001 -1.636133e-001 -1.435087e-001 1.134222e-001 4.572980e-001 -6.608076e-002 1.790518e-001 -8.022784e-002 -1.585279e-001 -2.567856e-002 -2.052146e-001 -1.913290e-001 -5.989964e-002 2.796347e-002 -1.325720e-001 -1.355430e-001 -5.800522e-002
<VARIANCE> 39
 6.286762e+000 1.028071e+001 1.050527e+001 1.903584e+001 2.668212e+001 1.453421e+001 1.984970e+001 2.054501e+001 1.651447e+001 2.040086e+001 1.502316e+001 1.593021e+001 7.813020e+000 1.896326e+000 7.800052e-001 1.095708e+000 1.445551e+000 1.410404e+000 1.455248e+000 1.726762e+000 1.628925e+000 1.549569e+000 1.731748e+000 1.528543e+000 1.501976e+000 3.465881e-001 2.714269e-001 1.417121e-001 1.991447e-001 2.814128e-001 3.325861e-001 3.053052e-001 3.476867e-001 4.365807e-001 2.905581e-001 3.813156e-001 3.372827e-001 3.094431e-001 5.390397e-002
<GCONST> 9.213939e+001
<STATE> 4
<MEAN> 39
 5.527960e-001 7.040224e-001 3.550416e+000 -4.232360e+000 3.388213e+000 -6.971636e+000 -4.305534e+000 1.837940e-001 4.518764e+000 1.615523e+000 -3.992160e+000 -4.531738e+000 6.172064e+001 4.298049e+000 -1.788381e+000 1.082058e+000 2.556498e-001 -3.409944e+000 -5.860126e-001 -1.814937e+000 -2.988210e+000 -5.964931e-001 1.563512e+000 -1.029423e+000 -1.119897e+000 2.252490e-001 -3.850504e-001 -3.018622e-001 -4.797257e-001 5.806119e-001 -3.861604e-001 -1.090567e-001 6.385086e-001 -1.198212e-001 -3.886022e-001 1.342593e-001 3.347851e-001 2.012261e-001 -9.491367e-003
<VARIANCE> 39
 5.325786e+001 1.727064e+001 1.356918e+001 1.560863e+001 3.696859e+001 2.652888e+001 2.975437e+001 4.602623e+001 1.550915e+001 2.550839e+001 1.835669e+001 1.510812e+001 1.110331e+001 2.446390e+000 1.835952e+000 2.046844e+000 3.282459e+000 2.297540e+000 2.661911e+000 3.630552e+000 3.034125e+000 1.716101e+000 1.977491e+000 2.111624e+000 1.514276e+000 6.247352e-001 7.835273e-001 3.104744e-001 3.426005e-001 4.239532e-001 7.412722e-001 5.404249e-001 6.785850e-001 1.111683e+000 3.066541e-001 5.548015e-001 4.137185e-001 2.936249e-001 1.174402e-001
<GCONST> 1.109509e+002
<TRANSP> 5
 0.000000e+000 1.000000e+000 0.000000e+000 0.000000e+000 0.000000e+000
 0.000000e+000 8.272957e-001 1.727043e-001 0.000000e+000 0.000000e+000
 0.000000e+000 0.000000e+000 9.209759e-001 7.902417e-002 0.000000e+000
 0.000000e+000 0.000000e+000 0.000000e+000 7.504230e-001 2.495769e-001
 0.000000e+000 0.000000e+000 0.000000e+000 0.000000e+000 0.000000e+000
<ENDHMM>
~h "uh"
<BEGINHMM>
<NUMSTATES> 5
<STATE> 2
<MEAN> 39
