~o
<STREAMINFO> 1 39
<VECSIZE> 39<NULLD><MFCC_D_A_0><DIAGC>
~s "silst"
<MEAN> 39
 -3.330895e+000 -9.715382e-001 1.841336e+000 1.578089e+000 2.469922e+000 3.390768e+000 5.165629e+000 -4.337098e+000 1.107699e+000 1.901030e+000 -2.719821e+000 3.698526e-001 4.690081e+001 -4.546120e-002 -3.332650e-002 -4.472148e-002 1.312151e-002 -1.639667e-003 1.446230e-003 2.870847e-002 -5.227590e-003 2.192563e-002 3.548887e-002 4.225075e-002 5.271862e-002 -4.989257e-002 9.951900e-003 1.049618e-002 2.151114e-003 -1.771953e-002 -6.002204e-003 -1.976526e-002 -1.157995e-002 1.142235e-002 -3.698788e-003 -8.400591e-003 2.554939e-003 -7.707937e-003 2.027714e-002
<VARIANCE> 39
 5.111994e+000 6.775942e+000 7.808384e+000 8.707375e+000 1.156586e+001 1.523011e+001 1.507616e+001 2.078970e+001 1.865637e+001 1.830768e+001 1.979890e+001 1.341384e+001 4.707205e+000 1.702333e-001 3.304372e-001 5.057462e-001 6.424676e-001 8.792494e-001 1.095514e+000 1.288737e+000 1.537532e+000 1.487723e+000 1.466185e+000 1.372465e+000 1.185198e+000 1.125582e-001 3.152471e-002 5.960815e-002 9.662009e-002 1.287009e-001 1.797598e-001 2.248393e-001 2.647247e-001 3.083147e-001 3.109017e-001 2.999948e-001 2.777112e-001 2.417053e-001 1.939349e-002
<GCONST> 7.365672e+001
~h "d"
<BEGINHMM>
<NUMSTATES> 5
<STATE> 2
<MEAN> 39
 -2.290658e+000 -1.131474e+000 6.858185e-001 -8.955242e-002 4.368423e-001 3.132572e+000 5.561493e+000 -1.960114e+000 4.297680e+000 4.860772e+000 3.300127e-001 2.068527e+000 4.763464e+001 -3.335805e-001 -2.512059e-001 -1.936194e-001 1.025776e-001 1.281242e-001 2.700674e-001 4.311595e-001 3.385492e-001 2.525627e-002 -1.441137e-001 1.515363e-001 1.470729e-001 -3.380646e-001 7.151921e-002 7.155477e-002 7.690805e-002 -1.396402e-001 1.284865e-001 -1.387484e-001 -3.347284e-001 -1.659905e-001 -3.406416e-001 -1.540648e-001 -1.807444e-001 -1.079408e-001 2.555137e-001
<VARIANCE> 39
 6.489887e+000 5.002346e+000 6.049224e+000 8.917491e+000 1.055155e+001 1.382469e+001 1.740794e+001 2.235697e+001 1.790955e+001 1.752912e+001 1.578479e+001 1.747854e+001 6.227839e+000 7.675463e-001 5.538449e-001 7.393077e-001 1.163368e+000 1.334958e+000 1.228529e+000 2.315508e+000 2.102762e+000 2.155146e+000 1.665033e+000 1.569797e+000 1.674245e+000 8.979764e-001 1.270834e-001 8.952360e-002 1.496233e-001 2.058774e-001 2.484222e-001 2.623869e-001 3.993969e-001 3.793799e-001 3.731791e-001 3.415816e-001 3.362778e-001 2.972562e-001 1.434377e-001
<GCONST> 8.761965e+001
<STATE> 3
<MEAN> 39
 -4.931824e+000 -3.936688e-001 2.595908e+000 8.661982e-001 2.340431e+000 1.136969e+000 4.807377e+000 -4.827084e+000 -6.543273e-001 2.285827e-001 -2.709007e+000 -1.765266e-001 4.737558e+001 -5.168144e-002 -6.460053e-003 5.485077e-003 -4.807561e-003 1.256854e-001 9.417344e-003 -1.208839e-001 9.883703e-003 -5.852103e-002 -1.286445e-002 1.515908e-003 8.456774e-003 3.328006e-002 -2.155574e-002 -4.043090e-002 -2.375644e-002 -6.563531e-002 -6.589341e-003 -5.349001e-002 -5.196210e-002 5.517631e-002 2.964200e-002 1.085653e-002 5.117547e-002 3.641849e-002 9.423090e-002
<VARIANCE> 39
 4.664014e+000 5.280542e+000 5.057326e+000 8.828373e+000 9.475883e+000 1.125375e+001 1.351550e+001 1.712683e+001 1.677909e+001 1.751908e+001 1.685717e+001 1.342586e+001 2.643744e+000 3.077633e-001 4.569475e-001 5.569498e-001 7.834106e-001 1.118330e+000 1.158954e+000 1.447621e+000 1.618182e+000 1.760183e+000 1.805890e+000 1.558994e+000 1.641754e+000 1.722667e-001 6.777997e-002 1.067928e-001 1.179615e-001 1.821607e-001 2.315795e-001 2.642185e-001 3.200806e-001 3.609510e-001 3.979658e-001 4.031253e-001 3.390941e-001 3.475994e-001 9.970299e-002
<GCONST> 7.953434e+001
<STATE> 4
<MEAN> 39
 -6.058342e+000 -3.279346e+000 2.349722e+000 -2.242163e+000 3.079809e+000 8.942877e-001 1.637884e+000 7.391361e-001 2.367362e+000 1.554578e+000 8.709239e-001 2.129904e+000 5.197918e+001 -7.730355e-002 -3.545784e-001 1.240201e-001 -3.647120e-001 2.274919e-002 -7.065728e-001 -3.809861e-001 4.886099e-001 -3.861161e-002 -2.395830e-001 3.186890e-002 1.049287e-001 7.942138e-001 1.691225e-001 4.703652e-002 -2.942765e-002 2.181756e-002 -1.228663e-001 -5.882346e-002 1.707348e-001 -8.228385e-002 9.851153e-003 5.668110e-002 -1.445917e-001 -7.785633e-002 -1.718050e-003
<VARIANCE> 39
 2.022560e+001 1.914865e+001 1.588525e+001 2.697005e+001 2.092096e+001 2.717893e+001 3.217770e+001 3.793587e+001 2.080361e+001 2.267477e+001 2.182180e+001 1.480673e+001 2.991148e+001 3.053954e+000 2.224956e+000 1.961782e+000 3.431300e+000 2.642119e+000 3.012424e+000 3.946462e+000 3.538008e+000 1.849374e+000 2.245860e+000 2.376687e+000 1.763143e+000 4.112881e+000 5.356047e-001 4.713666e-001 4.128793e-001 5.845336e-001 5.246260e-001 6.182128e-001 7.434024e-001 6.851236e-001 3.698617e-001 4.402618e-001 4.700510e-001 3.690677e-001 7.318519e-001
<GCONST> 1.168064e+002
<TRANSP> 5
 0.000000e+000 1.000000e+000 0.000000e+000 0.000000e+000 0.000000e+000
 0.000000e+000 5.670458e-001 4.329542e-001 0.000000e+000 0.000000e+000
 0.000000e+000 0.000000e+000 8.745503e-001 1.254497e-001 0.000000e+000
 0.000000e+000 0.000000e+000 0.000000e+000 7.899811e-001 2.100189e-001
 0.000000e+000 0.000000e+000 0.000000e+000 0.000000e+000 0.000000e+000
<ENDHMM>
~h "f"
<BEGINHMM>
<NUMSTATES> 5
<STATE> 2
<MEAN> 39
 -2.195905e+000 -3.196539e+000 -5.324079e-001 2.915897e-001 3.505764e+000 2.409804e+000 2.856622e+000 -1.991882e+000 2.430119e+000 1.429572e+000 -1.270179e+000 8.844816e-002 5.046429e+001 -1.994220e-001 -4.762395e-002 -5.685631e-002 3.042664e-001 2.531796e-001 2.112433e-001 6.905037e-002 2.178242e-001 1.842116e-001 7.739636e-002 9.958763e-002 -7.586025e-004 6.186950e-002 -4.710118e-002 -3.726859e-002 1.166724e-002 -1.064238e-002 2.378893e-002 -4.149687e-002 -3.455761e-002 7.003830e-002 4.805065e-003 1.092104e-002 2.779713e-002 1.602312e-002 1.132239e-001
<VARIANCE> 39
 1.137704e+001 1.297133e+001 1.252382e+001 1.162461e+001 1.338202e+001 1.932753e+001 1.939957e+001 2.247386e+001 2.226611e+001 2.037540e+001 1.921008e+001 1.633750e+001 2.051211e+001 1.017187e+000 6.980137e-001 7.868848e-001 1.520158e+000 1.309213e+000 1.567410e+000 1.563722e+000 1.877766e+000 1.823071e+000 1.617394e+000 1.545919e+000 1.170837e+000 3.918912e-001 9.681363e-002 1.069107e-001 1.347679e-001 1.910280e-001 2.088598e-001 2.665729e-001 2.847403e-001 3.475773e-001 3.149485e-001 3.103046e-001 2.682079e-001 2.380726e-001 8.978145e-002
<GCONST> 8.962472e+001
<STATE> 3
<MEAN> 39
 -8.273694e+000 -3.645687e+000 -1.043025e-001 2.987942e+000 3.806239e+000 3.218719e+000 2.338946e+000 2.644697e+000 2.949100e+000 1.737463e+000 3.480913e-001 2.859137e-001 5.947245e+001 -5.630245e-001 -3.803534e-001 -2.741307e-001 7.938226e-002 4.825857e-002 2.327314e-002 -8.121446e-002 3.401365e-001 1.172397e-001 8.875011e-002 1.568876e-001 7.435168e-002 4.801582e-001 2.974608e-001 9.468506e-002 -5.855508e-003 -2.421068e-001 -1.004073e-001 -6.978137e-002 -2.880959e-002 -1.647076e-001 -1.047547e-001 -2.362019e-002 -8.927683e-002 -8.946940e-002 -4.237046e-002
<VARIANCE> 39
 2.126807e+001 1.445169e+001 1.429576e+001 1.457298e+001 1.506103e+001 1.538957e+001 1.745863e+001 1.717849e+001 1.733068e+001 1.656403e+001 1.480368e+001 1.419749e+001 2.314315e+001 1.922740e+000 9.549493e-001 1.109262e+000 1.656536e+000 1.686386e+000 1.692033e+000 1.787966e+000 1.960779e+000 1.900655e+000 1.777539e+000 1.728719e+000 1.585874e+000 1.434968e+000 3.865465e-001 1.996109e-001 1.982829e-001 3.538936e-001 3.427337e-001 3.339552e-001 3.819854e-001 3.732744e-001 3.829753e-001 3.701552e-001 3.249243e-001 3.446596e-001 1.506741e-001
<GCONST> 9.877943e+001
<STATE> 4
<MEAN> 39
 5.107518e-001 -1.897578e+000 -3.594609e+000 -6.285640e+000 1.501092e+000 3.173294e+000 -3.042530e-001 -7.001449e-001 7.033241e-002 2.330514e+000 -1.072267e+000 -4.068815e+000 6.156432e+001 3.850762e+000 1.276464e+000 -1.404729e+000 -4.423284e+000 -1.083075e+000 6.244186e-001 -1.183283e+000 -1.602191e+000 -1.327624e+000 2.865420e-001 -3.002838e-001 -1.896667e+000 8.334485e-001 -2.812693e-001 -1.299669e-001 -2.754454e-001 -3.402363e-001 -5.127757e-002 3.091448e-001 1.054216e-002 9.592455e-002 -1.815355e-002 -5.877081e-002 8.500743e-002 -4.217963e-002 2.363675e-001
<VARIANCE> 39
 6.672372e+001 1.886648e+001 1.959266e+001 8.066748e+001 1.698742e+001 1.479524e+001 1.885616e+001 2.350449e+001 2.233883e+001 2.113540e+001 1.674764e+001 2.979313e+001 1.350251e+001 2.864187e+000 2.017271e+000 2.239043e+000 4.706366e+000 1.959862e+000 2.292293e+000 1.903326e+000 1.761288e+000 2.082966e+000 2.723382e+000 2.095200e+000 2.704648e+000 9.567188e-001 1.602038e+000 5.216848e-001 3.300133e-001 1.560537e+000 4.655008e-001 3.303059e-001 4.882514e-001 5.187503e-001 4.827234e-001 4.498876e-001 3.334545e-001 5.410230e-001 1.251075e-001
<GCONST> 1.136144e+002
<TRANSP> 5
 0.000000e+000 1.000000e+000 0.000000e+000 0.000000e+000 0.000000e+000
 0.000000e+000 8.344957e-001 1.655044e-001 0.000000e+000 0.000000e+000
 0.000000e+000 0.000000e+000 9.199429e-001 8.005708e-002 0.000000e+000
 0.000000e+000 0.000000e+000 0.000000e+000 7.643690e-001 2.356309e-001
 0.000000e+000 0.000000e+000 0.000000e+000 0.000000e+000 0.000000e+000
<ENDHMM>
~h "k"
<BEGINHMM>
<NUMSTATES> 5
<STATE> 2
<MEAN> 39
 -1.381473e+001 1.954583e+000 -4.728593e+000 3.408739e+000 9.124384e+000 -3.101086e+000 2.903602e+000 -6.855583e-001 5.956410e+000 3.819413e+000 1.516006e+000 -8.979362e-001 5.821746e+001 -8.871455e-001 3.690576e-001 2.999664e-001 1.546313e-001 -2.881092e-003 1.727479e-001 -3.686067e-003 5.745621e-001 1.684847e-001 5.327579e-002 2.747338e-001 1.858133e-002 2.819448e-001 3.186558e-001 3.511999e-002 2.614265e-002 -1.008068e-002 -1.333758e-001 -1.892607e-001 -1.813272e-002 -3.369299e-002 -1.784809e-001 -1.151655e-001 -1.352681e-001 -6.355184e-002 -5.391610e-002
<VARIANCE> 39
 1.964070e+001 1.117824e+001 1.239260e+001 1.735779e+001 2.025962e+001 2.180436e+001 1.875927e+001 2.347143e+001 2.509344e+001 1.702123e+001 1.692704e+001 1.663741e+001 2.218980e+001 1.882471e+000 6.426623e-001 1.521425e+000 1.473185e+000 1.524125e+000 2.231120e+000 1.816779e+000 2.145236e+000 2.294405e+000 1.782617e+000 1.761782e+000 1.684678e+000 6.557993e-001 1.897943e-001 1.261935e-001 2.870149e-001 3.231698e-001 3.809450e-001 4.815445e-001 3.969429e-001 4.392588e-001 5.222980e-001 3.668758e-001 3.299401e-001 3.408546e-001 1.045046e-001
<GCONST> 9.942377e+001
<STATE> 3
<MEAN> 39
 -1.234229e+001 3.820870e+000 -3.064138e+000 9.396583e-001 8.610163e+000 -1.932804e+000 4.218028e+000 -1.219149e+000 4.157673e+000 2.646361e+000 3.489815e-001 -1.001083e+000 5.419521e+001 3.720816e-001 -6.285931e-002 1.586423e-001 -2.250292e-001 -2.635369e-001 1.793377e-001 1.365175e-001 -1.629490e-001 -1.464735e-001 -1.005678e-001 -1.457410e-001 1.052247e-002 -3.115568e-001 7.664693e-002 -7.027785e-002 1.742174e-002 2.927532e-002 -2.566017e-002 2.953443e-002 2.885734e-003 -2.723333e-003 -2.695813e-002 4.371989e-002 8.873498e-003 3.024373e-002 -1.324056e-002
<VARIANCE> 39
 2.001936e+001 1.061127e+001 1.199407e+001 1.719350e+001 1.919398e+001 2.131610e+001 1.664472e+001 1.575361e+001 1.982507e+001 1.473608e+001 1.853973e+001 1.368269e+001 1.674258e+001 5.210398e-001 5.354078e-001 6.798694e-001 7.890011e-001 1.047113e+000 1.513925e+000 1.272141e+000 1.387792e+000 1.482090e+000 1.606265e+000 1.369343e+000 1.241848e+000 3.324571e-001 6.284307e-002 7.154208e-002 1.131488e-001 1.398625e-001 1.933196e-001 2.986221e-001 2.609328e-001 2.682038e-001 3.170193e-001 3.265185e-001 2.855971e-001 2.365728e-001 4.603697e-002
<GCONST> 8.430269e+001
<STATE> 4
<MEAN> 39
 -3.641774e+000 -2.964693e+000 -8.074608e-001 2.139332e-001 3.120017e+000 1.363204e+000 4.763483e+000 -3.864616e-001 4.918949e+000 3.926374e+000 2.734168e-001 1.578873e+000 5.002215e+001 6.361160e-002 4.491869e-002 -5.029473e-003 5.004319e-003 -1.157565e-002 5.270590e-002 5.447200e-002 -4.041896e-003 -7.626884e-002 1.449640e-002 -4.380091e-002 2.975827e-003 -3.722400e-002 -1.328986e-002 1.115862e-002 2.020712e-002 -1.774319e-003 4.741336e-002 -1.572339e-002 3.246189e-003 2.236775e-002 -7.202695e-003 -7.211148e-003 1.499314e-002 -2.096158e-004 1.554605e-002
<VARIANCE> 39
 1.539078e+001 1.467579e+001 8.512954e+000 9.353028e+000 1.749925e+001 1.814762e+001 1.802431e+001 1.902124e+001 1.598688e+001 2.018035e+001 1.340173e+001 1.284800e+001 1.428239e+001 2.372295e-001 3.574734e-001 4.485278e-001 6.306652e-001 8.129840e-001 1.045356e+000 1.466557e+000 1.395394e+000 1.342566e+000 1.555624e+000 1.138304e+000 1.078291e+000 1.992443e-001 4.545747e-002 6.154910e-002 9.977600e-002 1.189488e-001 1.734430e-001 2.154762e-001 3.096483e-001 2.710643e-001 2.716709e-001 3.161753e-001 2.222296e-001 2.215752e-001 3.353561e-002
<GCONST> 7.786977e+001
<TRANSP> 5
 0.000000e+000 1.000000e+000 0.000000e+000 0.000000e+000 0.000000e+000
 0.000000e+000 7.992308e-001 2.007692e-001 0.000000e+000 0.000000e+000
 0.000000e+000 0.000000e+000 7.260975e-001 2.739025e-001 0.000000e+000
 0.000000e+000 0.000000e+000 0.000000e+000 8.347434e-001 1.652566e-001
 0.000000e+000 0.000000e+000 0.000000e+000 0.000000e+000 0.000000e+000
<ENDHMM>
~h "l"
<BEGINHMM>
<NUMSTATES> 5
<STATE> 2
<MEAN> 39
 -1.359263e+000 -2.315223e+000 1.608939e+000 -4.539299e+000 2.243071e+000 -4.561799e+000 -7.533512e-001 -2.295610e+000 8.952248e-001 3.549551e+000 -4.441650e+000 1.238585e+000 5.832916e+001 1.745839e-001 -6.169137e-001 -3.529551e-001 -9.776087e-001 4.472914e-001 -1.465156e+000 -9.992768e-001 1.019513e+000 6.162407e-001 -3.440311e-001 -7.121139e-001 -5.015158e-001 2.192850e+000 2.186604e-001 -1.191705e-001 -3.384339e-002 -1.761883e-001 9.149125e-002 2.136627e-001 1.630425e-001 7.809412e-002 -2.308138e-002 -5.333192e-002 -1.294201e-001 -4.050232e-001 1.037026e-001
<VARIANCE> 39
 2.928977e+001 2.111860e+001 4.173623e+001 3.420127e+001 2.435969e+001 5.363477e+001 6.367538e+001 5.954893e+001 6.109884e+001 3.847631e+001 3.776238e+001 2.176710e+001 5.897917e+001 2.505295e+000 1.492789e+000 2.697095e+000 3.219031e+000 2.436429e+000 4.771287e+000 3.563774e+000 3.740875e+000 4.087758e+000 3.754110e+000 4.720891e+000 3.533314e+000 5.304671e+000 3.353547e-001 3.056670e-001 4.963848e-001 4.407947e-001 5.065612e-001 1.083199e+000 7.867541e-001 6.959709e-001 8.663381e-001 6.814069e-001 8.230746e-001 6.890267e-001 9.546471e-001
<GCONST> 1.289321e+002
<STATE> 3
<MEAN> 39
 2.893058e+000 -6.526114e+000 -2.460738e+000 -1.172311e+001 6.963276e+000 -4.214509e+000 5.761242e-001 5.623134e-001 1.847038e+000 1.583007e+000 -7.953304e+000 -8.378680e+000 6.661749e+001 1.247372e+000 -3.509781e-001 -8.427406e-001 -1.684324e+000 5.230995e-001 1.337853e+000 4.420908e-001 -1.203771e+000 -9.293332e-001 -2.799846e-003 -5.142611e-001 -1.790291e+000 9.146118e-001 -2.701928e-001 1.973458e-001 -5.260449e-002 8.631606e-002 -1.994465e-001 2.699530e-001 1.479726e-002 -3.826765e-001 -1.558273e-001 1.520064e-002 3.382832e-001 5.456641e-001 -2.688245e-001
<VARIANCE> 39
 2.424000e+001 1.876728e+001 3.319026e+001 3.396981e+001 2.662630e+001 5.390434e+001 4.181518e+001 4.302272e+001 4.177817e+001 3.033547e+001 5.125564e+001 4.060745e+001 9.756301e+000 2.147877e+000 2.820846e+000 1.592457e+000 2.179575e+000 2.648647e+000 3.490158e+000 3.132915e+000 3.911414e+000 4.839861e+000 2.887962e+000 3.262201e+000 4.669341e+000 1.130707e+000 5.084417e-001 3.952073e-001 2.586873e-001 3.890817e-001 3.252360e-001 8.083875e-001 5.619315e-001 9.016035e-001 7.613119e-001 5.167636e-001 7.188160e-001 6.037835e-001 2.830471e-001
<GCONST> 1.209656e+002
<STATE> 4
<MEAN> 39
 5.432679e+000 -4.918622e+000 -1.843906e+000 -1.708967e+001 4.040788e+000 -3.868090e+000 2.370266e-001 -3.707728e+000 -3.133847e+000 2.858776e-001 -8.670200e+000 -5.462487e+000 6.752417e+001 -1.366246e-002 3.282667e-001 2.470005e-001 4.201870e-002 -2.963245e-001 -8.721423e-002 -4.744842e-002 -1.879072e-001 -1.943567e-001 -1.055619e-001 2.306756e-001 4.316139e-001 -2.510521e-001 -4.158751e-002 3.666174e-002 5.461335e-002 1.621486e-001 -1.416073e-002 -4.100704e-002 1.075481e-002 6.782096e-002 4.202189e-002 -1.077011e-003 2.058041e-002 1.545957e-002 -6.428634e-002
<VARIANCE> 39
 5.568493e+000 3.960525e+001 6.332659e+001 4.438024e+001 4.010095e+001 8.685505e+001 3.838477e+001 3.796020e+001 4.017334e+001 3.812212e+001 3.337664e+001 3.846638e+001 1.430039e+001 2.101373e-001 8.475673e-001 1.306814e+000 1.393769e+000 1.461594e+000 2.435323e+000 1.732351e+000 1.837629e+000 1.548726e+000 1.635505e+000 1.497057e+000 1.370065e+000 3.251515e-001 5.234336e-002 1.103955e-001 1.310070e-001 1.925822e-001 1.872335e-001 2.898953e-001 2.530831e-001 2.955436e-001 2.446673e-001 2.384603e-001 2.145004e-001 2.114914e-001 4.172898e-002
<GCONST> 9.598126e+001
<TRANSP> 5
 0.000000e+000 1.000000e+000 0.000000e+000 0.000000e+000 0.000000e+000
 0.000000e+000 7.674676e-001 2.325324e-001 0.000000e+000 0.000000e+000
 0.000000e+000 0.000000e+000 7.037222e-001 2.962779e-001 0.000000e+000
 0.000000e+000 0.000000e+000 0.000000e+000 9.286426e-001 7.135735e-002
 0.000000e+000 0.000000e+000 0.000000e+000 0.000000e+000 0.000000e+000
<ENDHMM>
~h "n"
<BEGINHMM>
<NUMSTATES> 5
<STATE> 2
<MEAN> 39
 4.479952e+000 -4.893299e+000 5.926358e+000 -8.466127e+000 -4.794730e+000 -9.763076e+000 5.083851e+000 -4.249142e-001 -6.071504e+000 -4.234035e+000 -8.081922e+000 -1.543423e+000 6.283404e+001 1.691901e-002 1.438377e+000 1.725048e+000 3.956117e-001 -8.154407e-001 -4.563453e-001 -6.901807e-001 -7.917703e-001 -8.804407e-001 9.358916e-001 1.376781e-001 7.091516e-001 -8.784091e-001 -8.482744e-003 2.097070e-001 -1.932764e-001 1.439847e-001 3.202228e-001 2.597650e-001 -4.049253e-001 -4.599805e-001 1.730241e-001 1.774383e-001 -2.968045e-002 -2.991952e-001 -8.976375e-002
<VARIANCE> 39
 1.051517e+001 2.761898e+001 2.776342e+001 3.060013e+001 2.404132e+001 3.966647e+001 3.065049e+001 3.487559e+001 2.287366e+001 4.686199e+001 2.391425e+001 3.312231e+001 3.047858e+001 5.607941e-001 1.083711e+000 1.353218e+000 1.057952e+000 2.021641e+000 1.947700e+000 2.598381e+000 2.587593e+000 1.937138e+000 1.936633e+000 3.623195e+000 2.135039e+000 5.843953e-001 8.438824e-002 1.465193e-001 2.890227e-001 2.114330e-001 3.484221e-001 3.445141e-001 3.860958e-001 3.740436e-001 2.818680e-001 3.561767e-001 3.655700e-001 3.322047e-001 7.836118e-002
<GCONST> 1.027683e+002
<STATE> 3
<MEAN> 39
 4.995118e+000 2.051091e+000 9.371406e+000 -6.280772e+000 -3.967543e+000 -7.925402e+000 -7.668914e-001 -6.774197e+000 -8.509259e+000 -2.111857e-003 -6.728964e+000 -2.762183e+000 5.846555e+001 1.959081e-001 1.203884e+000 -1.649692e-001 1.539665e+000 4.031401e-001 1.630569e-001 -6.567488e-001 -1.878428e+000 4.800311e-001 1.297264e+000 -6.529606e-001 -8.750280e-001 -1.016129e+000 -6.941925e-002 -3.058863e-001 -3.432820e-001 1.022875e-001 1.563432e-002 1.653481e-002 3.022460e-001 1.359551e-001 4.155076e-001 -4.283468e-002 -9.372419e-002 -4.083806e-002 9.859619e-002
<VARIANCE> 39
 9.043847e+000 1.379468e+001 3.090185e+001 3.624626e+001 2.174844e+001 4.143172e+001 3.144013e+001 3.619507e+001 2.629996e+001 4.567251e+001 3.272503e+001 3.887374e+001 1.838924e+001 8.190181e-001 1.181787e+000 2.501129e+000 2.094133e+000 1.782528e+000 3.624958e+000 3.141414e+000 3.291028e+000 2.334907e+000 2.059139e+000 2.833518e+000 2.336263e+000 1.076154e+000 1.180147e-001 1.819508e-001 3.123803e-001 3.533034e-001 2.882976e-001 4.109128e-001 4.771191e-001 4.857964e-001 4.094033e-001 3.451382e-001 4.380564e-001 4.347989e-001 8.425072e-002
<GCONST> 1.081462e+002
<STATE> 4
<MEAN> 39
 6.091434e+000 4.072274e+000 7.172869e+000 -2.634727e+000 -3.166139e+000 -7.242376e+000 -1.322920e+000 -1.320246e+001 -6.610553e+000 6.942212e+000 -1.458364e+001 -5.907195e+000 5.685514e+001 -3.188880e-001 1.871505e-002 -3.788999e-002 5.240825e-001 2.812972e-001 4.085911e-001 2.290408e-001 2.801417e-002 5.666583e-001 -3.094224e-003 1.085568e-001 1.193216e-001 -3.597028e-001 -1.362626e-001 -1.749324e-001 -1.603611e-001 -1.705692e-001 1.237569e-001 1.592141e-001 5.520301e-002 4.119602e-001 2.122125e-002 -2.289722e-001 3.107424e-001 1.038776e-001 6.112466e-002
<VARIANCE> 39
 5.848339e+000 6.737520e+000 9.514853e+000 3.397186e+001 1.866466e+001 3.072741e+001 3.283590e+001 3.097699e+001 2.306180e+001 3.919840e+001 4.799870e+001 2.048238e+001 1.601893e+001 5.047872e-001 6.413370e-001 1.034040e+000 1.250735e+000 1.287407e+000 2.283828e+000 1.829854e+000 2.551939e+000 1.429555e+000 1.980790e+000 2.691918e+000 1.449206e+000 4.618504e-001 1.023314e-001 1.143733e-001 1.844560e-001 2.057288e-001 2.487196e-001 2.933061e-001 3.198003e-001 4.064946e-001 2.620018e-001 3.798138e-001 3.775826e-001 2.640235e-001 6.237916e-002
<GCONST> 9.449062e+001
<TRANSP> 5
 0.000000e+000 1.000000e+000 0.000000e+000 0.000000e+000 0.000000e+000
 0.000000e+000 5.844872e-001 4.155128e-001 0.000000e+000 0.000000e+000
 0.000000e+000 0.000000e+000 5.842439e-001 4.157561e-001 0.000000e+000
 0.000000e+000 0.000000e+000 0.000000e+000 8.472999e-001 1.527001e-001
 0.000000e+000 0.000000e+000 0.000000e+000 0.000000e+000 0.000000e+000
<ENDHMM>
~h "r"
<BEGINHMM>
<NUMSTATES> 5
<STATE> 2
<MEAN> 39
 1.063602e+001 -6.033372e+000 -1.221197e+000 4.415015e-001 -9.984429e+000 -7.204093e+000 -1.698099e+000 -9.176028e+000 -7.722218e-001 5.682910e+000 -9.829144e-001 -7.025114e+000 6.195248e+001 9.602662e-001 -5.495073e-001 -5.596738e-001 6.212283e-001 -1.115710e+000 -5.534567e-001 9.242294e-001 -6.662788e-001 -1.635392e+000 2.812599e-001 7.909460e-001 3.830028e-001 -3.036661e-001 -4.691890e-001 3.166722e-001 1.555152e-001 -5.679513e-001 6.464383e-001 1.025017e-001 -1.290598e-001 5.838709e-001 2.634890e-001 -3.968994e-001 -1.477242e-001 2.911933e-001 5.718660e-002
<VARIANCE> 39
 7.198611e+000 7.243808e+000 4.544268e+001 1.867362e+001 1.821577e+001 3.881039e+001 1.907315e+001 1.983417e+001 1.472055e+001 1.318010e+001 2.903501e+001 1.182324e+001 8.158673e+000 6.845713e-001 1.261228e+000 1.342537e+000 3.410140e+000 1.536158e+000 2.693790e+000 1.238922e+000 1.642599e+000 1.279103e+000 1.139656e+000 1.306329e+000 1.251349e+000 2.204398e-001 1.746522e-001 1.122447e-001 2.395856e-001 2.894357e-001 3.377884e-001 2.914700e-001 2.655798e-001 3.614532e-001 2.635754e-001 2.227350e-001 3.480085e-001 1.886653e-001 3.692841e-002
<GCONST> 9.081889e+001
<STATE> 3
<MEAN> 39
 1.200496e+001 -7.099485e+000 -1.922991e+000 -1.352648e+000 -1.069636e+001 -7.675803e+000 -1.901494e+000 -9.269866e+000 -2.580319e+000 5.701597e+000 5.358940e-003 -5.133311e+000 6.224136e+001 -2.231577e-001 -1.020275e-001 9.403473e-001 -1.414703e+000 -3.334716e-001 1.407036e-001 -1.722794e-001 4.089697e-001 1.165846e-001 -5.332661e-001 -4.784496e-001 9.738491e-001 2.206454e-001 -3.123067e-001 1.120597e-001 4.302919e-001 -4.037586e-001 1.594452e-001 -1.146244e-001 -1.442266e-001 4.637174e-001 2.165139e-001 -3.808130e-001 -2.342302e-001 1.927746e-001 1.023924e-001
<VARIANCE> 39
 3.936553e+000 8.005352e+000 3.388348e+001 1.995983e+001 1.421930e+001 5.247463e+001 2.886214e+001 2.391666e+001 1.741946e+001 1.248841e+001 2.494248e+001 1.219437e+001 5.387231e+000 2.826669e-001 7.837425e-001 8.804299e-001 9.928789e-001 6.407755e-001 1.604841e+000 1.068870e+000 1.932472e+000 1.642939e+000 9.941084e-001 1.170303e+000 1.186476e+000 3.154740e-001 3.978059e-002 6.183403e-002 1.115056e-001 1.348913e-001 1.542860e-001 2.088749e-001 2.474479e-001 2.100435e-001 3.374881e-001 1.702772e-001 2.662346e-001 2.052140e-001 2.151479e-002
<GCONST> 8.015788e+001
<STATE> 4
<MEAN> 39
 1.025660e+001 -5.272263e+000 3.449265e-001 -8.869318e+000 -1.259261e+001 -4.368501e+000 -2.927114e-001 -7.757954e+000 -2.099664e+000 5.999908e-001 -1.572677e+000 -1.090889e+000 6.290729e+001 -7.654021e-001 7.418305e-001 1.457188e+000 -2.095695e+000 5.313426e-001 -5.999727e-001 -2.539183e-001 1.781378e+000 -7.249455e-001 -1.547424e+000 -1.732301e-001 1.328289e+000 4.946246e-002 -1.219351e-001 1.501501e-001 -4.811991e-002 2.104953e-001 2.636378e-001 -3.146565e-001 -7.117121e-003 1.284800e-001 -3.117024e-001 9.638450e-002 2.673776e-001 -2.364808e-001 -3.805684e-002
<VARIANCE> 39
 5.570746e+000 2.799266e+001 6.379110e+001 3.371825e+001 2.008066e+001 1.272126e+002 4.479578e+001 6.898437e+001 2.749077e+001 2.177682e+001 2.274445e+001 1.587402e+001 9.034559e+000 3.557909e-001 8.200145e-001 8.157961e-001 1.037979e+000 1.642863e+000 2.468800e+000 2.267136e+000 1.940514e+000 2.213020e+000 1.460465e+000 1.915018e+000 1.489762e+000 5.239390e-001 2.647181e-002 9.717833e-002 8.096191e-002 1.526083e-001 2.168120e-001 1.958642e-001 4.689441e-001 6.059254e-001 3.375534e-001 2.732717e-001 2.070414e-001 2.951268e-001 2.813493e-002
<GCONST> 9.430214e+001
<TRANSP> 5
 0.000000e+000 1.000000e+000 0.000000e+000 0.000000e+000 0.000000e+000
 0.000000e+000 5.532792e-001 4.467209e-001 0.000000e+000 0.000000e+000
 0.000000e+000 0.000000e+000 6.538918e-001 3.461082e-001 0.000000e+000
 0.000000e+000 0.000000e+000 0.000000e+000 6.096821e-001 3.903179e-001
 0.000000e+000 0.000000e+000 0.000000e+000 0.000000e+000 0.000000e+000
<ENDHMM>
~h "s"
<BEGINHMM>
<NUMSTATES> 5
<STATE> 2
<MEAN> 39
 -3.126329e+000 1.937057e+000 1.434785e-001 -2.805985e+000 5.263599e+000 -2.052946e+000 2.326239e+000 -1.710665e+000 -5.958297e-001 8.491406e-001 -2.482500e+000 -2.147966e+000 5.774628e+001 -2.379101e+000 2.054704e-001 -5.101538e-001 1.009816e+000 1.201920e+000 4.958786e-002 8.903093e-002 1.614873e+000 9.242802e-001 -3.068573e-001 1.322793e+000 1.557103e-001 3.827221e-001 -2.255607e-001 -4.415340e-002 -1.010914e-001 -1.019403e-001 -1.968808e-001 -1.327810e-001 -2.134609e-002 3.094028e-002 3.186471e-002 7.548195e-002 -9.399975e-003 1.399943e-001 1.080221e-001
<VARIANCE> 39
 4.865461e+001 1.479846e+001 2.320850e+001 5.124147e+001 4.500101e+001 3.341394e+001 2.987154e+001 3.731684e+001 3.082646e+001 3.293800e+001 3.348835e+001 2.251364e+001 3.729577e+001 3.767056e+000 1.362665e+000 2.112013e+000 4.031888e+000 2.745988e+000 3.498300e+000 2.323765e+000 3.125510e+000 2.692638e+000 2.651783e+000 3.516522e+000 2.342907e+000 1.259490e+000 5.320462e-001 2.434914e-001 2.783940e-001 5.832475e-001 4.650400e-001 5.326804e-001 4.210916e-001 6.360217e-001 4.482065e-001 4.645662e-001 5.257865e-001 4.510631e-001 1.316742e-001
<GCONST> 1.175548e+002
<STATE> 3
<MEAN> 39
 -1.506253e+001 3.620688e+000 -4.001670e+000 5.004348e-001 5.986761e+000 -2.634326e+000 3.837800e+000 3.347655e+000 3.407668e+000 2.952278e-001 2.065161e+000 7.714596e-001 5.957120e+001 -3.258544e-001 1.030142e-001 -1.696921e-001 -5.272077e-002 -1.317183e-001 -5.680095e-002 1.979385e-001 8.036342e-002 1.323981e-001 -7.607964e-002 -4.318396e-002 1.970540e-001 2.084408e-003 3.744457e-001 -3.935833e-002 1.643157e-001 -1.163052e-001 -6.461897e-002 -4.907674e-002 -5.098972e-002 -1.164023e-001 -8.766312e-002 -3.689260e-002 -1.873070e-001 -1.035845e-001 -5.084107e-002
<VARIANCE> 39
 6.497860e+000 1.010924e+001 1.172810e+001 1.643292e+001 3.292541e+001 1.708609e+001 2.088404e+001 1.915582e+001 1.752160e+001 1.918204e+001 1.449696e+001 1.740839e+001 1.559071e+001 1.024822e+000 6.889972e-001 1.068124e+000 1.239398e+000 1.398059e+000 1.458390e+000 1.570797e+000 1.793847e+000 1.776356e+000 1.713959e+000 1.480389e+000 1.608695e+000 4.036340e-001 2.213526e-001 1.198688e-001 1.804701e-001 2.380647e-001 2.800127e-001 3.303285e-001 3.113575e-001 3.874092e-001 3.441560e-001 3.437513e-001 3.296550e-001 3.183602e-001 6.675477e-002
<GCONST> 9.192928e+001
<STATE> 4
<MEAN> 39
 -1.046784e+001 3.422788e+000 -1.294596e+000 -1.389515e+000 5.948284e+000 -4.445261e+000 2.688776e+000 2.596630e+000 2.873864e+000 -9.354541e-002 -1.290620e+000 -1.158232e+000 5.908310e+001 2.741489e+000 -5.433372e-001 9.196570e-001 -9.241022e-001 -9.774380e-001 -1.054192e+000 -8.129315e-001 -4.728474e-001 -2.972918e-001 7.746699e-002 -1.237638e+000 -5.661752e-001 -7.372884e-002 5.254567e-001 -2.701507e-001 -1.663074e-002 -1.647303e-001 -3.652954e-001 -1.913502e-001 -1.726943e-001 -1.364835e-001 -2.608259e-002 1.681706e-001 -1.406664e-001 -3.725195e-002 1.648925e-001
<VARIANCE> 39
 3.826939e+001 1.190971e+001 1.659911e+001 1.784289e+001 2.987852e+001 2.397483e+001 2.924877e+001 2.700437e+001 1.917042e+001 2.005616e+001 2.117927e+001 1.899111e+001 2.543374e+001 4.549718e+000 1.319865e+000 1.260127e+000 2.243795e+000 2.456783e+000 4.716373e+000 2.509709e+000 2.490005e+000 1.947477e+000 2.021178e+000 3.678346e+000 2.024684e+000 2.876782e+000 7.272062e-001 1.895138e-001 2.857170e-001 3.775144e-001 3.811856e-001 5.817050e-001 4.821529e-001 5.703746e-001 4.114272e-001 3.886531e-001 4.978214e-001 3.650948e-001 3.040938e-001
<GCONST> 1.117355e+002
<TRANSP> 5
 0.000000e+000 1.000000e+000 0.000000e+000 0.000000e+000 0.000000e+000
 0.000000e+000 7.219006e-001 2.780993e-001 0.000000e+000 0.000000e+000
 0.000000e+000 0.000000e+000 8.684321e-001 1.315679e-001 0.000000e+000
 0.000000e+000 0.000000e+000 0.000000e+000 5.637097e-001 4.362904e-001
 0.000000e+000 0.000000e+000 0.000000e+000 0.000000e+000 0.000000e+000
<ENDHMM>
~h "t"
<BEGINHMM>
<NUMSTATES> 5
<STATE> 2
<MEAN> 39
 -1.147732e+000 -1.464015e-001 2.549001e+000 -1.627294e+000 1.431323e+000 -1.700820e+000 3.348366e+000 -2.261469e+000 2.780490e-002 1.219907e-001 -4.093870e+000 2.115603e-001 5.296511e+001 -9.726664e-001 -1.835401e-001 7.042505e-002 3.604866e-001 4.906802e-002 1.048309e+000 -9.701864e-002 1.587216e-001 5.296403e-001 3.037325e-001 1.056382e+000 3.932000e-001 -8.822896e-001 -2.551914e-001 -2.390426e-001 -9.173781e-002 -4.500547e-001 -5.796608e-002 -6.391364e-002 -1.295086e-001 1.867809e-001 -3.687472e-002 -1.726104e-001 1.417622e-001 2.802529e-002 5.973829e-001
<VARIANCE> 39
 2.137976e+001 1.461284e+001 1.504315e+001 2.773714e+001 1.777478e+001 5.981374e+001 3.158479e+001 3.313731e+001 2.584835e+001 3.067098e+001 3.983957e+001 1.763402e+001 5.359330e+001 2.088947e+000 3.302115e+000 1.919808e+000 4.876115e+000 2.300892e+000 4.275656e+000 3.795934e+000 3.053338e+000 2.714529e+000 2.586666e+000 2.767746e+000 1.841951e+000 5.799150e+000 4.155956e-001 3.388405e-001 3.318906e-001 5.972105e-001 4.106753e-001 9.986894e-001 7.452661e-001 6.229908e-001 4.786734e-001 4.546725e-001 5.270221e-001 3.824114e-001 9.678298e-001
<GCONST> 1.204324e+002
<STATE> 3
<MEAN> 39
 -9.253216e+000 -4.748321e+000 1.852338e+000 -8.958729e+000 -2.525425e-001 3.494526e-001 -6.872635e-001 2.053817e+000 2.230295e+000 -8.435600e-001 2.482501e+000 2.942373e+000 6.006589e+001 -2.099015e+000 5.784396e-001 4.699115e-001 -1.020324e+000 -1.553432e-001 -8.233232e-001 -1.107738e+000 1.815928e+000 5.637100e-001 -9.265576e-001 6.672929e-001 6.372551e-001 3.016605e+000 3.742347e-001 6.138068e-001 4.310295e-001 1.038792e+000 3.404448e-001 -3.989411e-002 3.392825e-001 -3.963652e-002 1.275520e-001 1.511647e-002 -5.094753e-001 -1.164973e-001 -5.142578e-001
<VARIANCE> 39
 1.948005e+001 2.890271e+001 1.892238e+001 1.954456e+001 2.912174e+001 2.890872e+001 2.153714e+001 1.966662e+001 1.930950e+001 1.846620e+001 1.528887e+001 1.542539e+001 2.666957e+001 2.820933e+000 3.214967e+000 2.881514e+000 5.105948e+000 3.153761e+000 3.232037e+000 3.023377e+000 3.070453e+000 3.008330e+000 2.400079e+000 2.522874e+000 1.828372e+000 3.523189e+000 7.397857e-001 7.474084e-001 4.735837e-001 7.579451e-001 7.716824e-001 5.585482e-001 4.649850e-001 5.339810e-001 3.743312e-001 4.894554e-001 3.313924e-001 4.208826e-001 7.246680e-001
<GCONST> 1.176989e+002
<STATE> 4
<MEAN> 39
 -1.228069e+001 -1.091109e+000 5.905558e+000 -4.711299e+000 1.752746e+000 1.053095e+000 -5.892670e-001 5.763402e+000 5.298390e+000 -2.218019e+000 1.614471e+000 4.406425e+000 6.061056e+001 1.090761e+000 1.392104e-001 6.889616e-001 1.324219e+000 2.869573e-001 -1.473113e-001 -3.902328e-003 -1.290535e-001 4.020703e-001 3.234008e-002 -6.611863e-001 -2.406618e-001 -3.239363e-001 5.252390e-001 -1.348013e-001 -2.436543e-001 6.892932e-002 1.547237e-002 2.897874e-002 2.177888e-002 -4.495766e-001 -1.765706e-001 1.720216e-001 -1.350698e-001 -2.642222e-001 -3.688960e-001
<VARIANCE> 39
 3.072168e+001 1.213371e+001 2.537946e+001 2.860226e+001 2.263798e+001 4.104144e+001 2.562960e+001 2.834218e+001 4.198177e+001 2.201911e+001 2.155932e+001 1.939099e+001 2.734834e+001 3.134477e+000 2.004649e+000 2.558826e+000 3.318154e+000 2.801068e+000 2.550905e+000 2.065666e+000 2.681140e+000 2.661134e+000 2.055089e+000 1.884638e+000 2.223103e+000 1.191411e+000 5.747732e-001 2.715522e-001 3.181094e-001 4.146059e-001 3.624830e-001 4.418421e-001 4.319017e-001 6.272278e-001 5.339528e-001 4.030629e-001 3.314528e-001 4.063768e-001 2.291728e-001
<GCONST> 1.127083e+002
<TRANSP> 5
 0.000000e+000 1.000000e+000 0.000000e+000 0.000000e+000 0.000000e+000
 0.000000e+000 8.503680e-001 1.496320e-001 0.000000e+000 0.000000e+000
 0.000000e+000 0.000000e+000 6.643471e-001 3.356529e-001 0.000000e+000
 0.000000e+000 0.000000e+000 0.000000e+000 7.743738e-001 2.256262e-001
 0.000000e+000 0.000000e+000 0.000000e+000 0.000000e+000 0.000000e+000
<ENDHMM>
~h "v"
<BEGINHMM>
<NUMSTATES> 5
<STATE> 2
<MEAN> 39
 3.803477e+000 -4.999572e+000 3.747570e-001 -3.902291e+000 -7.438455e-001 -7.058423e+000 -1.556343e+000 -1.655159e+000 1.421826e+000 -1.184310e+000 -5.006656e+000 -5.306979e+000 6.191521e+001 -1.682086e-001 7.044796e-001 2.501762e-001 5.693688e-001 2.071069e-001 5.257180e-001 -7.150016e-001 -3.181060e-001 3.287283e-003 7.357706e-001 4.327992e-001 1.651969e-001 -7.255661e-001 -1.220256e-001 -1.016734e-002 -2.930297e-002 -3.144724e-002 1.108032e-001 1.215909e-001 1.101582e-001 -5.622943e-002 -8.039281e-002 -4.206010e-002 -4.746829e-002 -2.697591e-002 4.668027e-002
<VARIANCE> 39
 3.954961e+001 2.000864e+001 1.770879e+001 3.518258e+001 2.828472e+001 4.571144e+001 2.681322e+001 2.670554e+001 1.705898e+001 2.630806e+001 2.332143e+001 3.378542e+001 2.059074e+001 2.056916e+000 1.860407e+000 1.305892e+000 1.886344e+000 1.980868e+000 2.504792e+000 2.101803e+000 2.507783e+000 1.532645e+000 1.786200e+000 1.456275e+000 2.180346e+000 1.179029e+000 3.282578e-001 2.602522e-001 1.793313e-001 2.569537e-001 3.056494e-001 4.686500e-001 3.324348e-001 4.381713e-001 2.732227e-001 3.277785e-001 2.928424e-001 3.513429e-001 1.362527e-001
<GCONST> 1.060720e+002
<STATE> 3
<MEAN> 39
 6.113254e+000 -3.588533e+000 1.859780e+000 -7.850114e+000 -2.352922e+000 -8.487777e+000 -4.583299e+000 -3.595895e+000 3.776588e-002 1.685593e+000 -4.695518e+000 -5.687407e+000 6.308752e+001 -2.563849e-001 3.101574e-001 4.838898e-003 1.347585e-001 1.795421e-001 3.234090e-001 1.823947e-001 5.592149e-002 -2.578754e-001 -2.233174e-002 -9.891406e-002 -1.460253e-001 -1.299387e-001 -1.119966e-001 7.882646e-002 7.901965e-002 1.671088e-001 6.289776e-002 1.466631e-002 1.358843e-001 3.365468e-003 -1.957209e-001 -1.301953e-001 -8.076371e-002 1.046096e-001 -7.380210e-002
<VARIANCE> 39
 1.413406e+001 1.777153e+001 3.905032e+001 2.024682e+001 1.576568e+001 4.359821e+001 1.857465e+001 2.916041e+001 3.973911e+001 2.301817e+001 2.048302e+001 5.273090e+001 1.524135e+001 7.057891e-001 1.304206e+000 9.904622e-001 1.265165e+000 8.928450e-001 2.070959e+000 1.435493e+000 2.994303e+000 2.021787e+000 1.691433e+000 2.193948e+000 1.772572e+000 9.096355e-001 1.118907e-001 1.625752e-001 1.208547e-001 1.580296e-001 1.681497e-001 2.883983e-001 2.165279e-001 3.971216e-001 3.121473e-001 2.749215e-001 2.955231e-001 2.635270e-001 1.222922e-001
<GCONST> 9.738542e+001
<STATE> 4
<MEAN> 39
 4.477471e+000 -2.031762e+000 -9.592875e-002 -3.682170e+000 -1.571931e-001 -3.243866e+000 -1.360409e+000 -4.163210e+000 -1.304099e+000 -4.110211e-001 -5.298614e+000 -8.621583e+000 5.917803e+001 -1.655093e-001 4.950307e-001 3.430357e-001 4.897002e-001 1.959415e-001 2.635915e-001 2.806390e-001 -4.414443e-001 -7.235811e-001 4.177738e-001 -2.165170e-001 2.168895e-001 -5.921356e-001 -2.784251e-002 3.994405e-002 5.235325e-002 3.218656e-002 -3.162435e-002 -5.376642e-002 3.039463e-002 -1.266247e-001 -8.836239e-003 1.414582e-001 -3.036248e-002 1.113067e-001 -3.008151e-002
<VARIANCE> 39
 1.758058e+001 1.887083e+001 1.395329e+001 2.657328e+001 1.509750e+001 2.500336e+001 1.807519e+001 2.497906e+001 2.725962e+001 3.939524e+001 1.993211e+001 3.829592e+001 1.799136e+001 6.449178e-001 8.263547e-001 6.237001e-001 8.410552e-001 9.614655e-001 1.318792e+000 1.211126e+000 1.830576e+000 1.909791e+000 2.068384e+000 1.412421e+000 1.307184e+000 4.630856e-001 9.225640e-002 1.403104e-001 1.151009e-001 1.364162e-001 1.747090e-001 2.459753e-001 2.125467e-001 3.406411e-001 2.701294e-001 2.974392e-001 2.272160e-001 2.205388e-001 8.077259e-002
<GCONST> 9.062132e+001
<TRANSP> 5
 0.000000e+000 1.000000e+000 0.000000e+000 0.000000e+000 0.000000e+000
 0.000000e+000 7.097322e-001 2.902679e-001 0.000000e+000 0.000000e+000
 0.000000e+000 0.000000e+000 6.966929e-001 3.033071e-001 0.000000e+000
 0.000000e+000 0.000000e+000 0.000000e+000 7.117845e-001 2.882154e-001
 0.000000e+000 0.000000e+000 0.000000e+000 0.000000e+000 0.000000e+000
<ENDHMM>
~h "w"
<BEGINHMM>
<NUMSTATES> 5
<STATE> 2
<MEAN> 39
 3.371145e+000 1.557115e+000 1.427399e+000 -3.946229e+000 -1.324206e+000 9.204509e-003 2.452255e-001 -3.837935e+000 -1.302547e-002 1.173778e+000 -2.885808e+000 -2.420274e+000 5.386638e+001 1.235853e+000 8.078518e-001 -8.286240e-001 -1.314616e+000 -8.689231e-001 6.709214e-001 -1.300072e-001 -8.814803e-001 -8.248569e-001 -5.469947e-001 9.863850e-002 -3.037030e-001 5.758038e-002 1.370610e-001 1.501360e-001 -4.633931e-002 -5.454661e-001 -3.508205e-001 -1.182364e-002 5.729883e-002 4.944608e-002 -3.172592e-001 -2.587366e-001 8.191672e-002 7.032084e-002 2.225610e-001
<VARIANCE> 39
 2.130556e+001 2.277277e+001 1.303666e+001 4.582514e+001 4.871840e+001 5.261562e+001 3.202113e+001 2.941735e+001 3.946885e+001 3.010081e+001 3.196885e+001 2.043815e+001 4.776067e+001 2.310966e+000 1.528708e+000 1.829261e+000 3.707589e+000 4.817805e+000 3.429851e+000 3.317884e+000 3.120361e+000 3.537035e+000 3.794469e+000 2.681459e+000 2.136481e+000 1.837899e+000 2.368649e-001 2.103802e-001 2.753806e-001 4.904666e-001 5.619983e-001 4.002856e-001 6.397920e-001 4.790625e-001 4.764594e-001 6.626078e-001 5.286863e-001 3.932780e-001 1.517846e-001
<GCONST> 1.173650e+002
<STATE> 3
<MEAN> 39
 9.929720e+000 4.951635e+000 -9.766459e-001 -1.371735e+001 -7.412449e+000 5.361405e-002 -1.715003e+000 -7.420553e+000 -6.954686e+000 -1.400307e+000 -1.819370e+000 -3.013763e+000 5.805861e+001 7.421777e-001 4.937943e-001 -5.412927e-001 -1.990761e+000 -8.373636e-001 7.573980e-001 1.061744e-001 2.600292e-001 -9.131001e-001 -1.085422e+000 4.630577e-001 -2.457514e-002 4.223697e-001 -3.246868e-001 -3.855251e-001 8.743825e-002 2.390194e-001 3.125907e-001 -1.120807e-001 -1.920138e-002 3.699633e-001 3.761314e-001 1.400460e-001 -4.044741e-002 -1.622167e-001 1.022985e-001
<VARIANCE> 39
 3.153385e+000 2.092738e+001 1.026711e+001 3.292415e+001 2.089091e+001 1.724232e+001 2.102633e+001 2.343980e+001 2.473734e+001 2.987325e+001 2.579221e+001 2.512069e+001 1.500990e+001 7.238159e-001 1.576342e+000 1.324273e+000 3.041125e+000 2.106821e+000 2.537049e+000 2.956799e+000 2.397199e+000 2.320915e+000 2.960633e+000 3.342055e+000 2.240953e+000 1.733773e+000 1.784995e-001 1.700941e-001 2.747994e-001 3.567077e-001 4.570212e-001 4.572057e-001 4.112210e-001 4.867003e-001 3.955331e-001 5.568525e-001 6.299687e-001 4.436966e-001 1.019221e-001
<GCONST> 1.051525e+002
<STATE> 4
<MEAN> 39
 1.087697e+001 4.887491e+000 -3.671733e+000 -1.843450e+001 -8.514464e+000 3.534340e+000 8.815556e-002 -5.155796e+000 -5.553079e+000 -5.214654e+000 6.647783e-001 -5.005746e+000 5.947358e+001 -1.816800e-001 -7.962366e-001 -9.398693e-001 -9.065135e-001 4.363571e-001 8.997711e-001 -2.430490e-001 -3.413027e-002 6.186503e-001 1.698617e-001 7.857769e-001 -8.260407e-001 9.152080e-001 -2.113403e-001 -2.325415e-001 -6.688649e-002 2.447959e-001 3.237418e-001 9.372129e-003 -6.564908e-002 -1.411967e-001 1.864875e-001 2.504327e-001 -1.783817e-001 -2.453486e-001 1.178807e-001
<VARIANCE> 39
 2.334981e+000 7.817211e+000 1.150986e+001 2.828659e+001 1.226073e+001 1.554389e+001 1.424733e+001 1.524406e+001 1.921127e+001 1.724198e+001 2.555913e+001 1.775334e+001 9.713616e+000 3.384390e-001 9.266628e-001 8.243713e-001 9.928169e-001 1.147770e+000 1.127377e+000 1.035777e+000 1.395815e+000 1.034343e+000 1.756391e+000 2.110796e+000 1.771265e+000 6.268674e-001 4.768324e-002 5.320136e-002 9.293684e-002 2.477205e-001 1.255445e-001 2.000408e-001 1.799973e-001 2.099403e-001 1.964859e-001 2.346368e-001 5.120215e-001 2.663584e-001 5.263644e-002
<GCONST> 8.118537e+001
<TRANSP> 5
 0.000000e+000 1.000000e+000 0.000000e+000 0.000000e+000 0.000000e+000
 0.000000e+000 6.881052e-001 3.118948e-001 0.000000e+000 0.000000e+000
 0.000000e+000 0.000000e+000 6.649201e-001 3.350799e-001 0.000000e+000
 0.000000e+000 0.000000e+000 0.000000e+000 7.796009e-001 2.203991e-001
 0.000000e+000 0.000000e+000 0.000000e+000 0.000000e+000 0.000000e+000
<ENDHMM>
~h "y"
<BEGINHMM>
<NUMSTATES> 5
<STATE> 2
<MEAN> 39
 1.933664e-001 1.797298e+000 1.310505e+001 -3.793359e+000 -1.535238e+000 -8.872156e+000 -5.577038e+000 -6.034081e+000 -7.569419e+000 -5.192378e-001 -3.106240e+000 2.372170e-001 6.162711e+001 -3.552202e-001 3.622868e-001 2.003096e+000 -4.956484e-001 -2.982633e-001 -5.114415e-001 -3.745795e-002 2.525922e-001 -9.297164e-001 -7.496392e-001 -1.769737e-001 7.854909e-001 1.262031e-001 2.531730e-002 8.735383e-002 2.559318e-002 -2.160579e-001 5.251171e-002 4.890730e-002 -5.649007e-002 5.056602e-002 -3.410758e-002 -1.035931e-001 -6.275626e-002 6.327943e-002 -2.306084e-002
<VARIANCE> 39
 1.828598e+001 2.122813e+001 5.622838e+001 3.670660e+001 2.533190e+001 3.298679e+001 2.140519e+001 1.871642e+001 4.470917e+001 4.352168e+001 2.141932e+001 1.622842e+001 1.560540e+001 9.392619e-001 1.370145e+000 2.629411e+000 2.652712e+000 2.018324e+000 2.571940e+000 2.055326e+000 2.317423e+000 2.760970e+000 2.671127e+000 2.135188e+000 1.878563e+000 4.661102e-001 1.495684e-001 3.037566e-001 5.952811e-001 3.426864e-001 4.646173e-001 5.494556e-001 4.403258e-001 4.714347e-001 6.111333e-001 4.775093e-001 3.497710e-001 2.977030e-001 8.845025e-002
<GCONST> 1.086528e+002
<STATE> 3
<MEAN> 39
 -2.291698e-001 2.274360e+000 2.067586e+001 -1.071454e+001 -3.857685e+000 -1.373091e+001 -8.252094e+000 -2.615522e+000 -9.838009e+000 -5.065577e+000 -4.787608e+000 6.747300e+000 6.426936e+001 3.293331e-001 -9.309309e-001 -1.119873e+000 -5.838566e-001 -5.441943e-001 -7.882248e-001 1.244490e-002 8.732867e-001 1.073917e+000 2.588826e-001 -2.068262e-001 2.092464e-001 6.221942e-001 1.094216e-001 -2.426592e-001 -4.747373e-001 4.953672e-003 3.103926e-002 3.493617e-002 1.825382e-001 1.569361e-001 2.210983e-001 2.123856e-001 -1.684961e-001 -2.856858e-001 7.387058e-002
<VARIANCE> 39
 3.526394e+000 2.107415e+001 1.536671e+001 1.039718e+001 2.246273e+001 2.094517e+001 1.339640e+001 1.128298e+001 3.037508e+001 1.895182e+001 1.308158e+001 1.390914e+001 1.284828e+001 4.089221e-001 1.702542e+000 2.414804e+000 6.600313e-001 1.633619e+000 1.125066e+000 1.296925e+000 1.693167e+000 2.096859e+000 1.770211e+000 1.241628e+000 1.656801e+000 5.239059e-001 4.006053e-002 1.280252e-001 1.416029e-001 1.386691e-001 4.040666e-001 2.706623e-001 1.864523e-001 2.594653e-001 3.284429e-001 2.446688e-001 2.895634e-001 3.457132e-001 6.494789e-002
<GCONST> 8.722749e+001
<STATE> 4
<MEAN> 39
 3.854653e+000 -8.706470e+000 1.372967e+000 -1.585868e+001 -1.669523e+000 -1.391487e+001 -2.885440e+000 4.583938e+000 -2.155459e-001 -1.022434e+000 -1.341590e+001 -1.327901e+000 6.967598e+001 2.654098e-001 -7.898856e-001 -2.803904e+000 -3.344471e-001 2.306657e+000 1.744211e+000 1.003904e+000 -1.058459e+000 4.381284e-001 -8.766229e-002 -1.279209e+000 -2.108964e+000 2.833643e-001 -1.148085e-001 3.011504e-001 3.180591e-001 1.656094e-001 2.478071e-001 2.652237e-001 -1.013256e-001 -8.313560e-001 -3.268201e-001 -1.897518e-001 4.844652e-001 2.102689e-001 -1.193480e-001
<VARIANCE> 39
 1.884810e+000 8.446467e+000 3.154702e+001 1.545829e+001 3.100735e+001 2.235130e+001 2.056815e+001 2.041604e+001 1.611111e+001 1.373169e+001 3.211908e+001 3.842665e+001 4.115929e+000 2.163139e-001 6.285796e-001 9.770256e-001 7.278956e-001 9.848496e-001 1.313596e+000 1.030906e+000 5.500486e+000 1.475578e+000 1.259672e+000 3.236006e+000 2.074054e+000 1.281757e-001 1.860193e-002 4.100255e-002 1.097621e-001 1.010309e-001 3.127821e-001 2.872615e-001 1.810969e-001 4.788741e-001 2.515804e-001 2.216688e-001 5.075786e-001 5.052527e-001 1.342454e-002
<GCONST> 8.218083e+001
<TRANSP> 5
 0.000000e+000 1.000000e+000 0.000000e+000 0.000000e+000 0.000000e+000
 0.000000e+000 8.864112e-001 1.135888e-001 0.000000e+000 0.000000e+000
 0.000000e+000 0.000000e+000 8.946134e-001 1.053865e-001 0.000000e+000
 0.000000e+000 0.000000e+000 0.000000e+000 8.359398e-001 1.640602e-001
 0.000000e+000 0.000000e+000 0.000000e+000 0.000000e+000 0.000000e+000
<ENDHMM>
~h "z"
<BEGINHMM>
<NUMSTATES> 5
<STATE> 2
<MEAN> 39
 2.297993e+000 3.704598e+000 4.138975e+000 -2.834671e+000 2.195157e+000 -7.969979e+000 -1.085461e+000 -6.122140e+000 -3.759463e+000 1.706942e+000 -3.730852e+000 -2.022675e+000 5.705663e+001 -8.164556e-001 1.188793e+000 -4.714236e-002 1.098490e+000 7.479333e-001 -3.896706e-001 -4.429087e-001 -3.108041e-001 4.572230e-001 -3.884745e-001 1.655966e-001 -2.788416e-001 1.353337e-001 -3.522795e-001 8.081541e-002 -1.188186e-001 -6.477204e-003 -1.753639e-002 3.324862e-001 1.944010e-001 1.795503e-001 1.046244e-001 -1.737223e-001 1.084084e-001 1.061544e-001 -3.616929e-002
<VARIANCE> 39
 2.193048e+001 1.173561e+001 2.853179e+001 5.789848e+001 2.576234e+001 4.270962e+001 3.848068e+001 2.308883e+001 3.679242e+001 3.768888e+001 2.673476e+001 1.910106e+001 2.791523e+001 2.444286e+000 1.298763e+000 2.084114e+000 2.327078e+000 1.780940e+000 3.357132e+000 2.038732e+000 1.993471e+000 2.205406e+000 2.256531e+000 1.751435e+000 1.683789e+000 1.591554e+000 2.375738e-001 2.315410e-001 2.826165e-001 2.514188e-001 2.504951e-001 4.311671e-001 3.282336e-001 3.691182e-001 3.363351e-001 4.014800e-001 3.051831e-001 3.132093e-001 1.134725e-001
<GCONST> 1.078983e+002
<STATE> 3
<MEAN> 39
 -4.272853e+000 8.248197e+000 2.897561e+000 1.829987e+000 4.889223e+000 -6.713672e+000 -2.411580e-001 -5.340291e+000 -1.294697e+000 -1.213484e+000 -3.054180e+000 -1.909078e+000 5.712708e+001 -1.422280e+000 4.811543e-001 -3.443681e-001 5.397335e-001 4.626228e-001 7.676426e-001 8.022988e-001 5.019242e-001 5.984159e-001 -4.815146e-001 2.026865e-001 2.709074e-001 -1.448465e-001 3.343933e-001 -3.004855e-001 8.816613e-002 -3.323154e-001 -2.505308e-001 -2.992149e-001 6.513008e-002 1.218050e-001 -7.776424e-002 9.025937e-002 -2.840596e-002 -1.541385e-004 1.434974e-001
<VARIANCE> 39
 1.735426e+001 8.115171e+000 1.209695e+001 1.753023e+001 2.203194e+001 3.077685e+001 2.053401e+001 1.554726e+001 2.144181e+001 1.915537e+001 1.540051e+001 1.464845e+001 1.444408e+001 1.401204e+000 6.956999e-001 1.157396e+000 1.374689e+000 1.109643e+000 2.468279e+000 1.807367e+000 1.750939e+000 1.620680e+000 2.024836e+000 1.367404e+000 9.780134e-001 4.496333e-001 1.426781e-001 1.146373e-001 1.575493e-001 1.912079e-001 2.035233e-001 3.892818e-001 3.530503e-001 2.767197e-001 2.750240e-001 2.953876e-001 2.363190e-001 1.932091e-001 8.031670e-002
<GCONST> 9.105642e+001
<STATE> 4
<MEAN> 39
 -7.719886e+000 4.584172e+000 -3.263588e-001 1.125514e+000 5.479578e+000 -1.545701e+000 5.051517e+000 3.688509e-001 2.796007e+000 2.037744e-001 -5.948199e-002 5.535573e-001 5.525397e+001 2.569239e-001 7.202219e-002 2.572697e-001 -1.755858e-001 -3.569925e-001 -9.496414e-001 -1.826494e-001 6.630354e-002 -8.889007e-002 -2.395140e-001 -1.950405e-001 -1.202685e-001 3.434321e-001 5.868075e-001 -1.334281e-001 3.402522e-001 -8.449911e-002 -3.596739e-001 -5.947880e-001 -4.133581e-001 -2.618585e-001 -3.627882e-001 3.777650e-002 -1.763834e-001 -1.429956e-001 1.585751e-001
<VARIANCE> 39
 2.553862e+001 4.114037e+001 1.321102e+001 1.515267e+001 2.273127e+001 3.646457e+001 2.472875e+001 2.612177e+001 1.875213e+001 2.849078e+001 1.864694e+001 1.661231e+001 2.157048e+001 1.800766e+000 1.029812e+000 1.277603e+000 1.088856e+000 1.392792e+000 2.207893e+000 2.177933e+000 3.083194e+000 2.029926e+000 1.675990e+000 1.676189e+000 1.695344e+000 5.316129e-001 2.285377e-001 2.685615e-001 2.451546e-001 2.608020e-001 3.735165e-001 5.823805e-001 4.393358e-001 4.638113e-001 3.839827e-001 4.079725e-001 2.974809e-001 2.966619e-001 1.083722e-001
<GCONST> 1.026646e+002
<TRANSP> 5
 0.000000e+000 1.000000e+000 0.000000e+000 0.000000e+000 0.000000e+000
 0.000000e+000 7.448334e-001 2.551666e-001 0.000000e+000 0.000000e+000
 0.000000e+000 0.000000e+000 7.127644e-001 2.872356e-001 0.000000e+000
 0.000000e+000 0.000000e+000 0.000000e+000 7.259588e-001 2.740413e-001
 0.000000e+000 0.000000e+000 0.000000e+000 0.000000e+000 0.000000e+000
<ENDHMM>
~h "ah"
<BEGINHMM>
<NUMSTATES> 5
<STATE> 2
<MEAN> 39
 6.304808e+000 -4.479833e+000 -9.760016e+000 -1.901440e+001 8.467560e-001 7.263814e+000 -1.812674e+000 -6.911513e+000 -1.530130e-002 -6.549630e-001 -1.390429e+000 -1.345626e+001 6.683835e+001 -7.574792e-001 -1.234969e+000 -2.873507e-001 9.755723e-001 1.578251e+000 -6.034507e-001 4.511506e-002 3.033402e-002 6.345116e-001 2.149023e-001 -1.767279e+000 -9.490931e-001 6.547839e-001 7.317070e-002 1.425349e-001 2.899277e-001 2.358845e-001 -1.791525e-001 -4.349146e-001 1.743802e-001 1.524190e-001 -1.137289e-001 -3.118713e-001 -2.116301e-001 4.190994e-001 -2.092652e-001
<VARIANCE> 39
 5.414338e+000 1.234552e+001 1.066157e+001 1.667954e+001 2.369905e+001 2.463859e+001 9.696171e+000 1.531946e+001 1.515343e+001 2.662983e+001 4.332318e+001 1.993925e+001 7.739197e+000 2.708989e-001 6.115200e-001 6.395395e-001 6.002333e-001 6.452065e-001 1.841418e+000 6.435454e-001 1.348554e+000 1.021912e+000 1.584936e+000 1.787943e+000 1.682885e+000 3.734076e-001 4.404451e-002 5.257306e-002 8.206005e-002 1.246904e-001 1.305613e-001 1.678232e-001 1.266821e-001 1.512478e-001 1.392999e-001 2.780852e-001 4.126186e-001 2.100538e-001 3.078896e-002
<GCONST> 7.750980e+001
<STATE> 3
<MEAN> 39
 3.778485e+000 -9.331723e+000 -6.627343e+000 -1.110058e+001 5.013451e+000 -2.439541e+000 1.425705e+000 -3.968489e+000 1.098560e+000 -5.512009e+000 -1.047653e+001 -1.078685e+001 6.752960e+001 -6.436243e-002 -3.106353e-001 1.153806e+000 8.929844e-001 -5.648068e-001 -1.520761e+000 8.735741e-001 6.917035e-001 -3.947638e-001 -1.226852e+000 -1.186169e-001 1.209326e+000 -2.257444e-001 8.492613e-002 2.044475e-001 2.400584e-001 -1.203604e-001 -3.777311e-001 6.154897e-002 2.980235e-002 9.335836e-002 -2.475092e-001 8.347307e-002 3.793696e-001 1.908929e-001 -1.302588e-001
<VARIANCE> 39
 3.599742e+000 7.184188e+000 1.626400e+001 1.669432e+001 1.229362e+001 2.123488e+001 9.883241e+000 1.756746e+001 1.240794e+001 1.909185e+001 1.529502e+001 2.066735e+001 8.137804e+000 2.423061e-001 3.522985e-001 9.133060e-001 4.523512e-001 1.187101e+000 1.471288e+000 8.985809e-001 9.654260e-001 7.260775e-001 1.165265e+000 1.465116e+000 1.074486e+000 1.610535e-001 4.390732e-002 7.193887e-002 6.463525e-002 5.995597e-002 9.008200e-002 1.234366e-001 1.243564e-001 1.251228e-001 1.301996e-001 2.341566e-001 1.711736e-001 1.676957e-001 2.759532e-002
<GCONST> 6.950300e+001
<STATE> 4
<MEAN> 39
 4.049581e+000 -8.572989e+000 2.518481e+000 -8.222795e+000 -2.306232e+000 -8.828964e+000 5.407979e+000 9.440910e-001 -3.853653e+000 -9.092700e+000 -7.652739e+000 -3.541009e+000 6.499317e+001 1.016278e-001 1.237571e+000 1.946306e+000 2.516959e-001 -1.393997e+000 -4.936184e-001 7.268798e-002 1.619098e-001 -1.464460e+000 6.090592e-001 1.020550e+000 1.317659e+000 -9.114905e-001 1.798482e-002 3.993422e-001 -1.136644e-001 8.839242e-004 2.675565e-001 3.721810e-001 -5.569438e-001 -3.626256e-001 -1.829174e-002 5.363531e-001 -5.269112e-003 -3.996005e-001 -1.793869e-001
<VARIANCE> 39
 3.968632e+000 9.289137e+000 2.563589e+001 2.368925e+001 2.588238e+001 2.257167e+001 1.411044e+001 1.698083e+001 1.449232e+001 1.569854e+001 1.839774e+001 2.126665e+001 1.643567e+001 3.247121e-001 7.197979e-001 1.518425e+000 4.229878e-001 1.226765e+000 1.372842e+000 1.215166e+000 1.318523e+000 1.168330e+000 1.459454e+000 1.009959e+000 2.122100e+000 2.987165e-001 4.862329e-002 9.757750e-002 1.302634e-001 9.152454e-002 2.183077e-001 2.208790e-001 2.620151e-001 2.448040e-001 2.223050e-001 2.809048e-001 1.449600e-001 2.759368e-001 4.778648e-002
<GCONST> 8.233069e+001
<TRANSP> 5
 0.000000e+000 1.000000e+000 0.000000e+000 0.000000e+000 0.000000e+000
 0.000000e+000 8.090656e-001 1.909344e-001 0.000000e+000 0.000000e+000
 0.000000e+000 0.000000e+000 8.228336e-001 1.771664e-001 0.000000e+000
 0.000000e+000 0.000000e+000 0.000000e+000 6.631098e-001 3.368903e-001
 0.000000e+000 0.000000e+000 0.000000e+000 0.000000e+000 0.000000e+000
<ENDHMM>
~h "ao"
<BEGINHMM>
<NUMSTATES> 5
<STATE> 2
<MEAN> 39
 6.189105e+000 1.820689e+000 -9.435931e+000 -2.053504e+001 -2.750363e+000 8.734669e+000 -1.859176e-001 -3.534033e+000 -2.503460e+000 -1.318612e+000 -3.533902e-001 -4.996458e+000 6.201311e+001 -3.111432e-001 1.122113e-001 -6.186402e-001 -1.755586e+000 -1.386207e-001 9.436041e-001 4.488131e-001 3.995557e-001 2.582848e-002 -1.294681e+000 1.664191e-001 -1.819791e-001 5.251563e-001 -4.839348e-001 -2.163649e-001 4.536175e-001 8.634859e-001 3.975925e-001 -3.652443e-001 2.415761e-001 2.582377e-001 1.864041e-001 -1.509885e-001 -1.299945e-001 1.951933e-001 -2.186373e-001
<VARIANCE> 39
 1.788147e+001 1.086707e+001 2.597501e+001 8.813258e+001 2.659565e+001 1.548807e+001 1.725069e+001 1.695335e+001 2.059462e+001 3.247660e+001 1.661290e+001 2.669528e+001 4.392727e+001 4.740394e-001 4.573479e-001 8.898733e-001 2.372055e+000 1.124357e+000 1.032475e+000 1.066927e+000 1.119997e+000 1.143540e+000 1.621008e+000 1.218287e+000 9.737236e-001 3.834611e-001 4.339245e-001 2.162766e-001 1.632398e-001 5.088943e-001 2.463520e-001 1.451354e-001 2.202170e-001 2.476622e-001 2.606696e-001 3.005222e-001 2.410631e-001 2.605929e-001 5.255656e-002
<GCONST> 9.278549e+001
<STATE> 3
<MEAN> 39
 6.285665e+000 4.055124e+000 -1.031764e+001 -2.710946e+001 -2.609556e+000 9.109758e+000 2.763399e+000 -4.193599e-001 -2.106534e+000 -9.081125e+000 -9.292875e-001 -5.056621e+000 6.266574e+001 8.639544e-002 2.640561e-001 2.845432e-001 -1.239153e-001 -2.692545e-001 -1.583840e-001 6.228220e-002 3.632149e-001 -5.082212e-002 -3.045926e-001 -2.054292e-002 8.539891e-003 -2.691333e-001 3.695426e-002 -8.252054e-004 6.039481e-002 1.028884e-001 -1.390425e-002 -8.750414e-002 -3.939338e-002 -2.404168e-002 -3.652117e-002 1.324060e-001 -3.052998e-002 -5.510548e-003 -3.914772e-002
<VARIANCE> 39
 6.541397e+000 1.051099e+001 1.445921e+001 3.898178e+001 4.667581e+001 1.651981e+001 1.720251e+001 2.873871e+001 1.800993e+001 2.732590e+001 1.096225e+001 2.101755e+001 1.806518e+001 1.830208e-001 2.652189e-001 4.043383e-001 5.414967e-001 5.082043e-001 6.308980e-001 6.083114e-001 6.710564e-001 6.661590e-001 8.686029e-001 5.743514e-001 6.872724e-001 1.462956e-001 2.925610e-002 4.551342e-002 5.759696e-002 8.162150e-002 8.530517e-002 9.984177e-002 1.074434e-001 1.118958e-001 1.074473e-001 1.222077e-001 9.609745e-002 9.061749e-002 2.665234e-002
<GCONST> 6.578017e+001
<STATE> 4
<MEAN> 39
 7.791658e+000 6.086723e+000 -2.869722e+000 -1.838579e+001 -5.174553e+000 3.909627e+000 3.050948e+000 1.074550e+000 -4.207150e+000 -5.271698e+000 -3.444955e+000 -5.254134e+000 5.624848e+001 -2.860845e-001 -2.168232e-001 6.953588e-001 1.961383e+000 6.283303e-001 -4.613173e-001 3.059678e-001 -4.662750e-001 8.238277e-002 1.032852e+000 -2.843769e-001 1.921969e-001 -6.838976e-001 -1.841868e-001 -1.346911e-001 -4.574668e-002 1.582536e-001 1.611283e-001 6.018438e-002 -2.532874e-002 -8.688586e-002 1.781630e-001 9.368421e-002 5.378198e-002 7.396609e-002 4.359389e-002
<VARIANCE> 39
 1.216216e+001 8.073842e+000 1.487839e+001 9.645448e+001 2.988875e+001 2.286748e+001 2.711103e+001 2.288407e+001 3.014417e+001 2.583238e+001 2.046747e+001 2.781222e+001 2.093391e+001 5.996065e-001 5.133709e-001 7.315706e-001 2.138037e+000 1.674390e+000 1.551281e+000 1.389515e+000 1.744382e+000 1.827400e+000 1.623850e+000 1.534568e+000 1.468962e+000 3.139670e-001 6.128750e-002 6.475744e-002 1.386292e-001 3.294497e-001 2.072154e-001 2.555281e-001 2.939090e-001 2.767915e-001 2.405357e-001 2.675239e-001 2.975333e-001 2.600911e-001 7.022769e-002
<GCONST> 9.236367e+001
<TRANSP> 5
 0.000000e+000 1.000000e+000 0.000000e+000 0.000000e+000 0.000000e+000
 0.000000e+000 5.457930e-001 4.542070e-001 0.000000e+000 0.000000e+000
 0.000000e+000 0.000000e+000 9.110939e-001 8.890612e-002 0.000000e+000
 0.000000e+000 0.000000e+000 0.000000e+000 8.427650e-001 1.572350e-001
 0.000000e+000 0.000000e+000 0.000000e+000 0.000000e+000 0.000000e+000
<ENDHMM>
~h "ax"
<BEGINHMM>
<NUMSTATES> 5
<STATE> 2
<MEAN> 39
 -3.572743e+000 -3.902064e+000 8.521915e-001 -1.463349e-001 2.399203e+000 4.930925e-001 4.496643e+000 -1.876857e-002 3.263165e+000 2.268675e+000 -4.374262e-001 1.534998e+000 4.964847e+001 8.260139e-002 1.664163e-001 -3.819200e-002 1.216683e-001 -2.463401e-002 2.187235e-001 1.059234e-001 -1.578952e-001 4.723721e-002 9.690485e-002 -1.640873e-002 -3.353490e-002 -2.043769e-001 -2.723566e-003 1.002417e-003 4.877014e-003 -2.188589e-002 1.985437e-002 -1.899901e-004 -2.236297e-002 -7.168471e-003 -1.201352e-002 7.146277e-003 -2.513323e-003 1.099058e-002 9.946765e-003
<VARIANCE> 39
 7.795108e+000 1.141179e+001 7.933203e+000 1.188424e+001 1.334089e+001 2.612403e+001 1.789985e+001 2.889305e+001 2.154280e+001 2.250769e+001 2.173132e+001 2.014041e+001 1.929929e+001 2.131763e-001 4.104843e-001 4.871261e-001 6.465653e-001 9.239792e-001 1.341171e+000 1.068191e+000 1.498702e+000 1.402783e+000 1.421226e+000 1.196158e+000 1.199775e+000 1.909047e-001 3.403561e-002 6.136763e-002 9.227568e-002 1.228816e-001 1.586623e-001 2.454839e-001 1.954838e-001 2.910329e-001 2.733568e-001 3.003017e-001 2.251997e-001 2.441484e-001 1.846040e-002
<GCONST> 7.837242e+001
<STATE> 3
<MEAN> 39
 -1.021053e-001 -2.152603e+000 -3.815478e-002 -1.306810e+000 2.073908e+000 2.019106e+000 6.448247e+000 -4.237431e+000 2.399087e+000 1.438715e+000 -3.419191e+000 -1.569472e+000 5.243375e+001 -3.045938e-001 1.590538e-001 1.133819e-001 3.328879e-002 -9.612861e-002 1.767648e-001 -8.033363e-002 -1.658973e-001 2.575604e-001 3.906603e-001 6.646571e-001 5.260653e-001 -4.419906e-001 8.905130e-003 -1.203745e-001 -8.416953e-002 -3.239006e-001 -3.406667e-002 -3.006700e-001 -2.236022e-001 1.742666e-001 -1.178862e-001 -8.368014e-002 3.021917e-002 3.657658e-002 2.918209e-001
<VARIANCE> 39
 1.829109e+001 1.289776e+001 3.704499e+001 2.922496e+001 3.235178e+001 7.632715e+001 1.712562e+001 2.024117e+001 2.777085e+001 3.185505e+001 2.395972e+001 3.931590e+001 6.521127e+001 5.893000e-001 6.189115e-001 8.747758e-001 7.374950e-001 1.196310e+000 1.638693e+000 1.225742e+000 1.442040e+000 2.209096e+000 2.477305e+000 1.885015e+000 1.779072e+000 3.415605e-001 1.347756e-001 8.355067e-002 1.563971e-001 1.872837e-001 2.877075e-001 3.963319e-001 2.308293e-001 2.702228e-001 3.152181e-001 4.757870e-001 2.758230e-001 1.765717e-001 1.309143e-001
<GCONST> 9.731470e+001
<STATE> 4
<MEAN> 39
 2.881515e+000 -1.913418e+000 -6.317336e+000 -6.465640e+000 1.832146e+000 4.284760e+000 4.377267e+000 -6.928341e+000 3.990639e+000 -1.122504e+000 -1.028555e+000 -9.572717e+000 5.710799e+001 -8.673650e-002 1.183927e-001 3.025652e-001 1.930534e-001 1.476971e-001 9.547374e-002 3.960112e-002 9.083074e-002 -2.330822e-001 -8.625896e-002 5.506478e-002 3.847068e-001 -2.719685e-001 -1.125096e-002 -7.144015e-002 -2.434961e-002 -1.254619e-001 5.761551e-002 -1.918040e-001 -9.049396e-002 1.758925e-001 -2.235168e-002 -8.873791e-003 -1.140870e-001 -1.071436e-002 2.467945e-001
<VARIANCE> 39
 1.428654e+001 1.024189e+001 4.012563e+001 3.862806e+001 1.450196e+001 2.981121e+001 1.382575e+001 2.424211e+001 2.092895e+001 2.513087e+001 2.653522e+001 7.514616e+001 4.709974e+001 3.191702e-001 4.535505e-001 6.140565e-001 1.100896e+000 7.970819e-001 1.060825e+000 8.864408e-001 9.840036e-001 6.490612e-001 1.324944e+000 1.312824e+000 7.602798e-001 4.572639e-001 6.992888e-002 6.917222e-002 1.120915e-001 2.437910e-001 1.618696e-001 3.144091e-001 1.610497e-001 2.741644e-001 2.386449e-001 2.445472e-001 2.382478e-001 1.443988e-001 2.725418e-001
<GCONST> 8.750418e+001
<TRANSP> 5
 0.000000e+000 1.000000e+000 0.000000e+000 0.000000e+000 0.000000e+000
 0.000000e+000 9.215215e-001 7.847840e-002 0.000000e+000 0.000000e+000
 0.000000e+000 0.000000e+000 3.957058e-001 6.042943e-001 0.000000e+000
 0.000000e+000 0.000000e+000 0.000000e+000 6.829959e-001 3.170042e-001
 0.000000e+000 0.000000e+000 0.000000e+000 0.000000e+000 0.000000e+000
<ENDHMM>
~h "ay"
<BEGINHMM>
<NUMSTATES> 5
<STATE> 2
<MEAN> 39
 2.312523e+000 -7.027847e-001 1.188468e+000 -4.739290e+000 -5.275725e-001 -1.808612e+000 4.438122e-001 -6.983069e+000 -9.977155e-001 4.144506e+000 -5.471962e+000 -5.507309e+000 5.763818e+001 -2.100864e-001 -1.280803e+000 -1.110594e+000 -1.051616e+000 7.753963e-001 -2.021864e-001 6.428127e-002 1.317845e+000 1.087593e-001 -1.048456e+000 -7.221250e-001 -2.371362e-001 1.342486e+000 -2.132050e-001 -4.213068e-001 -1.726969e-001 4.138207e-002 4.277830e-001 -3.725467e-002 1.679575e-001 4.973350e-001 1.023201e-001 -3.682137e-001 -1.803256e-001 1.452672e-001 9.678541e-002
<VARIANCE> 39
 3.908333e+001 2.631037e+001 7.693910e+001 6.175917e+001 1.902768e+001 5.953533e+001 2.111211e+001 7.157632e+001 2.166747e+001 3.314387e+001 4.769964e+001 6.469048e+001 5.021836e+001 1.067327e+000 1.524002e+000 1.846364e+000 1.838174e+000 1.750111e+000 2.958413e+000 1.806596e+000 6.535485e+000 1.628119e+000 2.514399e+000 2.329897e+000 2.043619e+000 1.961354e+000 4.444802e-001 3.074131e-001 6.363456e-001 8.364391e-001 3.029131e-001 4.959470e-001 3.153543e-001 7.581220e-001 2.825962e-001 4.281530e-001 4.251726e-001 6.175529e-001 2.711940e-001
<GCONST> 1.187232e+002
<STATE> 3
<MEAN> 39
 4.403139e+000 -5.922457e+000 -2.366294e+000 -9.074386e+000 3.953666e+000 -5.267346e+000 1.868483e-001 -1.668118e+000 -1.651745e+000 -4.794718e-002 -1.136940e+001 -7.248722e+000 6.413727e+001 -4.400489e-002 -1.727699e+000 -1.653768e+000 -1.229640e+000 1.299316e+000 1.179143e+000 2.361396e-001 6.613699e-001 4.124071e-001 -1.746110e+000 -1.662114e-001 -7.709720e-001 1.375348e+000 -1.087414e-001 3.059820e-001 2.177400e-001 3.514355e-001 -1.520793e-001 3.859446e-001 -7.824080e-002 -7.403884e-001 5.499567e-002 1.294130e-001 3.780399e-001 -4.207642e-002 -3.439016e-001
<VARIANCE> 39
 1.891939e+001 1.932286e+001 3.374452e+001 3.089805e+001 1.913385e+001 5.167862e+001 1.782745e+001 2.998361e+001 1.966921e+001 3.025319e+001 4.390896e+001 4.377429e+001 2.836481e+001 9.578407e-001 1.784174e+000 1.817224e+000 1.830977e+000 1.611173e+000 3.686522e+000 1.785336e+000 7.906068e+000 1.484444e+000 2.521317e+000 2.969261e+000 2.069181e+000 1.337856e+000 1.638929e-001 2.948270e-001 2.880052e-001 2.585548e-001 2.781436e-001 6.187378e-001 4.003585e-001 9.091108e-001 2.850723e-001 4.708801e-001 4.308654e-001 4.372124e-001 1.386770e-001
<GCONST> 1.105436e+002
<STATE> 4
<MEAN> 39
 3.559880e+000 -9.918738e+000 -8.086089e+000 -1.092414e+001 6.066269e+000 8.769765e-001 1.313780e+000 -4.986791e+000 -2.832457e-001 -4.655329e+000 -9.003044e+000 -1.083849e+001 6.760952e+001 -4.616592e-002 -1.824182e-001 3.717413e-001 2.704917e-001 -3.513198e-001 -6.059936e-001 4.094073e-001 2.872738e-001 3.549127e-002 -3.537213e-001 -4.546497e-002 3.298705e-001 -4.284223e-002 6.112166e-002 9.388711e-002 1.448812e-001 3.517344e-002 -1.486945e-001 -1.680571e-001 2.113646e-002 1.003688e-001 -3.080360e-002 9.019676e-002 1.499658e-002 1.021781e-001 -8.725783e-002
<VARIANCE> 39
 6.524570e+000 1.061486e+001 1.863087e+001 2.001294e+001 1.650915e+001 3.552693e+001 1.884442e+001 1.863425e+001 1.444886e+001 1.984159e+001 1.837575e+001 2.214028e+001 1.454833e+001 2.906409e-001 4.222816e-001 8.076255e-001 4.906373e-001 1.178102e+000 1.477736e+000 9.428032e-001 1.025021e+000 7.239488e-001 9.947750e-001 9.191406e-001 8.244027e-001 1.928846e-001 3.874680e-002 6.055323e-002 6.668048e-002 7.292107e-002 9.457687e-002 1.287396e-001 1.410548e-001 1.374168e-001 1.209095e-001 1.849304e-001 1.417296e-001 1.037929e-001 2.702308e-002
<GCONST> 7.229782e+001
<TRANSP> 5
 0.000000e+000 1.000000e+000 0.000000e+000 0.000000e+000 0.000000e+000
 0.000000e+000 2.040009e-001 7.959991e-001 0.000000e+000 0.000000e+000
 0.000000e+000 0.000000e+000 6.384894e-001 3.615105e-001 0.000000e+000
 0.000000e+000 0.000000e+000 0.000000e+000 9.137304e-001 8.626956e-002
 0.000000e+000 0.000000e+000 0.000000e+000 0.000000e+000 0.000000e+000
<ENDHMM>
~h "eh"
<BEGINHMM>
<NUMSTATES> 5
<STATE> 2
<MEAN> 39
 4.767309e+000 -4.986720e+000 -2.094011e-001 -1.013137e+001 -3.414467e+000 -1.470030e+001 -1.046449e+000 2.780464e+000 2.606209e+000 1.283602e+000 -1.151756e+001 -3.444291e+000 6.638116e+001 1.261727e+000 -2.183956e+000 1.043729e-001 -1.671243e+000 -9.621934e-001 -5.398469e-001 4.402941e-002 1.158273e+000 -1.295210e-001 -1.965046e-001 -1.002273e+000 -2.230878e-001 1.611356e+000 -1.142086e+000 2.011111e-001 -1.865924e-001 4.157819e-001 5.000921e-001 7.918815e-001 5.690722e-001 2.963587e-001 2.961165e-003 -4.472291e-001 6.688759e-001 1.055169e-001 -4.018181e-001
<VARIANCE> 39
 4.381721e+000 1.470968e+001 1.334498e+001 1.601956e+001 9.261204e+000 1.869545e+001 1.229637e+001 1.966772e+001 8.035698e+000 1.266507e+001 1.007730e+001 1.185185e+001 6.248054e+000 3.590798e+000 7.538921e-001 1.033110e+000 1.608274e+000 1.858217e+000 3.008464e+000 1.707037e+000 1.972443e+000 1.116859e+000 2.522095e+000 1.928773e+000 1.295957e+000 9.568411e-001 3.538208e-001 2.026610e-001 1.822725e-001 2.024942e-001 2.216418e-001 3.800179e-001 2.442154e-001 4.734782e-001 2.267235e-001 2.819325e-001 2.582169e-001 1.689274e-001 1.018488e-001
<GCONST> 9.070190e+001
<STATE> 3
<MEAN> 39
 4.501407e+000 -9.140263e+000 -2.215346e-001 -1.147375e+001 -2.664246e+000 -1.268754e+001 2.202473e+000 5.325593e+000 2.521987e+000 -3.639627e+000 -1.089858e+001 -5.259535e+000 6.791756e+001 2.949027e-001 1.231041e-001 4.752716e-002 2.383795e-001 1.540366e-001 1.809880e-001 -4.168654e-001 -6.156430e-001 9.248015e-002 1.001687e-001 4.926651e-001 -3.240728e-001 -3.558082e-001 7.629047e-002 2.868638e-001 -1.295883e-002 2.044957e-001 1.834380e-002 1.125127e-001 -2.699752e-001 -3.683142e-001 -1.539409e-002 2.460754e-001 1.667310e-001 -4.258037e-002 -2.315127e-001
<VARIANCE> 39
 4.614068e+000 5.772315e+000 1.475164e+001 1.427777e+001 1.368409e+001 2.858967e+001 1.802644e+001 1.714363e+001 1.322909e+001 1.568602e+001 1.572151e+001 2.276736e+001 4.551352e+000 3.177670e-001 5.914080e-001 3.712322e-001 6.429805e-001 4.600500e-001 9.592285e-001 2.015231e+000 1.664578e+000 7.409291e-001 1.593446e+000 8.112854e-001 6.386984e-001 4.736003e-001 4.491025e-002 5.553673e-002 6.529078e-002 9.726339e-002 9.539746e-002 1.855235e-001 1.721663e-001 1.498103e-001 1.802039e-001 1.513765e-001 1.166219e-001 1.193507e-001 3.745867e-002
<GCONST> 7.088671e+001
<STATE> 4
<MEAN> 39
 7.594247e+000 -2.958198e+000 9.353049e-002 -6.295236e+000 -1.543772e+000 -7.993828e+000 -6.490562e+000 -6.027147e+000 8.995699e-001 2.196076e+000 -3.852345e+000 -8.072389e+000 6.086466e+001 9.277649e-002 1.037318e+000 2.755046e-002 6.917868e-001 1.733949e-001 1.239960e+000 -6.111197e-001 -1.433177e+000 -7.682881e-001 6.298835e-001 9.470020e-001 -4.590667e-001 -8.658196e-001 -1.222586e-001 -4.201226e-001 2.815980e-002 -4.478223e-001 -6.050473e-002 -3.222627e-001 4.598114e-001 6.678075e-001 7.704141e-002 -2.074113e-001 -4.155725e-001 7.070768e-002 4.648799e-001
<VARIANCE> 39
 3.549901e+000 8.486708e+000 6.779480e+000 1.042135e+001 8.118819e+000 1.534730e+001 8.430379e+000 1.824310e+001 1.426486e+001 1.393554e+001 1.395697e+001 1.237374e+001 7.178498e+000 3.667929e-001 1.246158e+000 3.284898e-001 1.498843e+000 6.232703e-001 1.356828e+000 1.215402e+000 2.338723e+000 1.093020e+000 1.094573e+000 1.155628e+000 8.594673e-001 1.051161e+000 7.413369e-002 1.822381e-001 6.740305e-002 1.878346e-001 1.153857e-001 2.394484e-001 1.685078e-001 2.184753e-001 3.054307e-001 2.363262e-001 1.827893e-001 1.482688e-001 1.028609e-001
<GCONST> 7.714860e+001
<TRANSP> 5
 0.000000e+000 1.000000e+000 0.000000e+000 0.000000e+000 0.000000e+000
 0.000000e+000 7.264729e-001 2.735271e-001 0.000000e+000 0.000000e+000
 0.000000e+000 0.000000e+000 8.954618e-001 1.045382e-001 0.000000e+000
 0.000000e+000 0.000000e+000 0.000000e+000 7.641332e-001 2.358669e-001
 0.000000e+000 0.000000e+000 0.000000e+000 0.000000e+000 0.000000e+000
<ENDHMM>
~h "ey"
<BEGINHMM>
<NUMSTATES> 5
<STATE> 2
<MEAN> 39
 -1.325122e+000 -9.315582e-001 2.573499e-001 -2.334266e+000 -1.498538e+000 7.307103e-001 3.645337e+000 -3.589094e+000 2.824027e+000 3.332810e+000 -9.273897e-001 -4.168244e-001 4.971859e+001 -3.106377e-001 -8.215024e-001 -5.388061e-001 2.748086e-001 6.998730e-001 1.857516e-001 6.834741e-001 7.205771e-001 6.149523e-001 -3.907426e-001 -6.385428e-001 -4.299463e-001 2.224868e-001 1.444837e-001 -1.982794e-001 -8.707062e-002 -2.330649e-001 1.254049e-001 -1.901421e-001 -4.164700e-002 2.376611e-002 -2.224527e-001 -3.274815e-001 -3.164581e-001 -1.991923e-001 4.853934e-001
<VARIANCE> 39
 1.991977e+001 1.334978e+001 2.805459e+001 3.528929e+001 2.563072e+001 4.023674e+001 3.204939e+001 4.334910e+001 3.524195e+001 2.979961e+001 3.186507e+001 3.106940e+001 2.358754e+001 1.916406e+000 1.757256e+000 2.652516e+000 3.516157e+000 2.344601e+000 3.391149e+000 2.374155e+000 4.246027e+000 4.360481e+000 4.128209e+000 2.833599e+000 3.269630e+000 4.153337e+000 3.534996e-001 3.582401e-001 4.627968e-001 4.269838e-001 4.396155e-001 5.331122e-001 4.623855e-001 8.305989e-001 7.672142e-001 6.612652e-001 4.552980e-001 5.798842e-001 4.704391e-001
<GCONST> 1.208599e+002
<STATE> 3
<MEAN> 39
 1.489484e+000 -9.989680e+000 -5.031745e+000 -7.485780e+000 3.713571e+000 -5.000737e+000 5.157946e+000 6.264334e-001 1.148667e+000 -4.075028e+000 -1.015986e+001 -6.267356e+000 6.258509e+001 8.038437e-001 -1.465818e+000 -3.175932e-001 -1.123206e+000 3.395371e-001 -1.077796e+000 3.335953e-002 2.715970e-001 -7.750612e-001 -1.126135e+000 -1.125028e+000 -7.969826e-001 2.594096e+000 -1.671367e-001 2.715622e-001 3.008980e-001 2.240504e-001 -2.029485e-001 2.588931e-001 4.833603e-002 -2.050902e-001 3.244746e-002 2.016662e-001 4.378773e-001 3.239211e-001 -4.062976e-001
<VARIANCE> 39
 1.319396e+001 1.942594e+001 2.719183e+001 1.746306e+001 3.335271e+001 4.987951e+001 2.296480e+001 2.518569e+001 2.815412e+001 2.162167e+001 2.039809e+001 3.092673e+001 3.044451e+001 1.182783e+000 1.746651e+000 2.555256e+000 1.887548e+000 2.194021e+000 3.244287e+000 2.221787e+000 2.536843e+000 1.668331e+000 2.527574e+000 2.560719e+000 2.067761e+000 2.584645e+000 2.136916e-001 2.775771e-001 3.677548e-001 3.325870e-001 3.848021e-001 4.940976e-001 3.939707e-001 4.158780e-001 3.249780e-001 4.822225e-001 3.466665e-001 3.358539e-001 3.806475e-001
<GCONST> 1.101195e+002
<STATE> 4
<MEAN> 39
 2.741311e+000 -1.223898e+001 -4.034447e+000 -8.869952e+000 1.803035e+000 -7.180568e+000 7.664356e+000 -4.142118e-001 -1.246689e+000 -9.622284e+000 -1.042064e+001 -5.480231e+000 6.836459e+001 9.865765e-002 3.846833e-001 3.139568e-001 4.842744e-002 -4.013065e-001 -4.152039e-001 7.567186e-002 9.706739e-002 2.333758e-002 9.194488e-003 -1.087409e-001 3.970776e-001 -1.116843e-001 -5.628056e-003 1.785052e-001 7.224161e-002 8.963584e-002 -4.364799e-003 -2.419384e-002 -1.085050e-001 2.846665e-002 4.075387e-002 1.686957e-001 6.499130e-003 4.039949e-002 -2.008279e-001
<VARIANCE> 39
 4.420195e+000 1.162225e+001 1.373475e+001 1.542248e+001 1.468078e+001 2.047405e+001 1.182025e+001 1.526241e+001 1.601309e+001 1.519221e+001 1.024184e+001 1.464425e+001 8.351800e+000 2.370173e-001 6.203694e-001 4.713856e-001 5.022347e-001 5.746615e-001 7.104224e-001 8.373730e-001 6.973848e-001 6.599890e-001 1.091124e+000 6.972845e-001 5.912768e-001 3.707725e-001 5.736129e-002 6.740869e-002 8.317208e-002 1.150235e-001 1.020668e-001 1.228806e-001 1.502922e-001 1.324695e-001 1.158269e-001 1.382741e-001 1.350818e-001 1.052908e-001 7.620142e-002
<GCONST> 6.804051e+001
<TRANSP> 5
 0.000000e+000 1.000000e+000 0.000000e+000 0.000000e+000 0.000000e+000
 0.000000e+000 8.592017e-001 1.407984e-001 0.000000e+000 0.000000e+000
 0.000000e+000 0.000000e+000 7.954519e-001 2.045480e-001 0.000000e+000
 0.000000e+000 0.000000e+000 0.000000e+000 9.246835e-001 7.531657e-002
 0.000000e+000 0.000000e+000 0.000000e+000 0.000000e+000 0.000000e+000
<ENDHMM>
~h "ia"
<BEGINHMM>
<NUMSTATES> 5
<STATE> 2
<MEAN> 39
 -5.981879e-001 4.835795e+000 6.302073e+000 -6.064808e-001 7.563712e-002 -1.522363e+001 -1.782717e+000 -2.847467e+000 -2.808911e+000 -1.644070e+000 -3.479216e+000 -2.390328e+000 6.067944e+001 1.811198e+000 -1.798954e+000 1.658850e+000 -1.228041e+000 -1.720528e+000 -2.401845e+000 -5.666278e-001 5.854711e-001 -1.044720e+000 1.923602e-001 -3.157829e-001 4.194744e-001 1.084534e+000 -9.680232e-002 -3.604397e-001 7.459595e-002 -2.965962e-001 -6.397114e-002 3.419565e-001 2.861294e-001 1.825926e-001 8.444399e-002 7.716987e-002 6.490958e-002 3.325112e-001 7.377272e-002
<VARIANCE> 39
 1.821282e+001 1.968280e+001 1.797823e+001 1.692549e+001 2.279249e+001 3.119546e+001 1.839500e+001 1.184314e+001 1.761216e+001 1.602292e+001 1.551750e+001 1.335120e+001 1.295761e+001 2.069316e+000 1.820877e+000 1.319722e+000 1.452324e+000 1.735000e+000 2.709950e+000 2.267470e+000 1.730469e+000 1.803670e+000 1.507112e+000 1.394246e+000 1.937768e+000 3.639920e-001 3.853934e-001 2.685843e-001 2.230192e-001 1.838790e-001 2.504707e-001 5.719531e-001 2.971462e-001 3.053553e-001 3.735635e-001 2.773502e-001 2.608649e-001 3.042840e-001 5.825922e-002
<GCONST> 9.719235e+001
<STATE> 3
<MEAN> 39
 3.985894e+000 -5.554081e+000 1.168236e+001 -8.656507e+000 -8.381583e+000 -1.847649e+001 -4.332309e-001 1.150405e+000 -3.708829e+000 -1.153353e+000 -4.112175e+000 2.477083e+000 6.639153e+001 2.426775e-001 -8.440176e-001 -8.329948e-001 -4.845370e-001 -4.318399e-001 6.911393e-001 1.128101e-001 3.581763e-001 1.006196e+000 -3.897293e-002 -3.282410e-001 -4.042826e-001 4.722328e-001 -4.096737e-002 1.551410e-001 -4.116470e-001 2.105138e-001 2.586319e-001 3.488495e-001 -1.479045e-001 -1.411998e-001 2.033634e-001 1.691192e-002 -5.410076e-002 -3.910249e-001 -1.226807e-001
<VARIANCE> 39
 3.874877e+000 8.608052e+000 3.205676e+001 1.184655e+001 1.584367e+001 1.413014e+001 1.341712e+001 1.380002e+001 3.158916e+001 1.248667e+001 1.267395e+001 1.806773e+001 7.919273e+000 2.292961e-001 5.169507e-001 2.094699e+000 8.482197e-001 1.780081e+000 1.450655e+000 1.249980e+000 1.008780e+000 1.293699e+000 8.237808e-001 1.113833e+000 2.378285e+000 2.025642e-001 8.367528e-002 8.637168e-002 1.559907e-001 1.301466e-001 1.944055e-001 2.232285e-001 1.928251e-001 2.491697e-001 2.109459e-001 1.511146e-001 1.823159e-001 1.743181e-001 2.527453e-002
<GCONST> 7.872803e+001
<STATE> 4
<MEAN> 39
 8.764979e+000 -9.172152e+000 -6.086790e+000 -3.875822e+000 -1.003808e+001 -4.964407e+000 -1.227736e+000 -4.390497e+000 5.518749e+000 2.136575e-001 -3.004349e+000 -1.019448e+001 6.648330e+001 5.376596e-001 1.674866e-001 -1.315744e+000 5.103538e-001 -4.155234e-001 1.189203e+000 2.644142e-001 -1.335328e+000 -3.326993e-001 4.696719e-001 8.378789e-001 -4.621474e-001 -2.944840e-001 -3.784866e-002 1.491438e-001 2.283446e-001 -1.163766e-001 -1.204338e-001 -1.233469e-001 2.023268e-001 -9.638446e-002 -2.989668e-001 1.304985e-002 1.450569e-001 3.313221e-001 -4.868846e-002
<VARIANCE> 39
 6.024686e+000 7.073052e+000 3.441697e+001 2.855873e+001 1.917774e+001 2.608903e+001 2.330014e+001 3.619558e+001 2.300379e+001 2.409658e+001 3.567110e+001 2.782351e+001 8.111639e+000 2.683979e-001 5.462689e-001 1.166643e+000 1.556581e+000 1.128129e+000 1.643538e+000 1.421587e+000 1.413138e+000 1.885511e+000 1.045887e+000 1.191704e+000 2.723393e+000 8.271855e-002 3.851245e-002 5.225005e-002 9.344801e-002 2.620362e-001 2.118421e-001 2.258519e-001 2.356615e-001 3.002295e-001 2.039121e-001 1.677254e-001 2.233330e-001 2.403659e-001 1.448591e-002
<GCONST> 8.379826e+001
<TRANSP> 5
 0.000000e+000 1.000000e+000 0.000000e+000 0.000000e+000 0.000000e+000
 0.000000e+000 7.761886e-001 2.238114e-001 0.000000e+000 0.000000e+000
 0.000000e+000 0.000000e+000 8.876274e-001 1.123726e-001 0.000000e+000
 0.000000e+000 0.000000e+000 0.000000e+000 8.942493e-001 1.057507e-001
 0.000000e+000 0.000000e+000 0.000000e+000 0.000000e+000 0.000000e+000
<ENDHMM>
~h "ih"
<BEGINHMM>
<NUMSTATES> 5
<STATE> 2
<MEAN> 39
 -1.259795e+001 2.903285e+000 -2.223984e+000 -2.199565e+000 4.662818e+000 -4.551549e+000 5.758209e+000 3.803333e+000 4.587077e+000 -1.219660e+000 -1.973244e-001 1.638573e+000 5.863412e+001 4.213646e+000 -4.525423e-001 1.879238e+000 -1.002703e+000 -1.078888e+000 -2.760911e+000 -1.795543e+000 -6.500893e-001 -6.135601e-001 -3.048777e-002 -2.034402e+000 -1.319361e+000 5.347097e-001 9.904035e-001 -4.020939e-001 2.172518e-001 -3.176890e-001 -6.254606e-001 -7.625147e-001 -5.746406e-001 -2.734685e-001 -3.813264e-001 2.795933e-001 -3.180202e-001 -7.205684e-002 5.690394e-001
<VARIANCE> 39
 1.325970e+001 1.001389e+001 1.163162e+001 1.713170e+001 1.583050e+001 1.895292e+001 1.747570e+001 1.693922e+001 1.504470e+001 1.938062e+001 1.548186e+001 1.488685e+001 8.218805e+000 2.715526e+000 9.047254e-001 1.077919e+000 1.352828e+000 1.577136e+000 1.962505e+000 1.860806e+000 1.880864e+000 1.776350e+000 1.834900e+000 1.863515e+000 1.437719e+000 7.439668e-001 4.223659e-001 1.659659e-001 2.941262e-001 3.161828e-001 2.354890e-001 3.703074e-001 4.138996e-001 3.800090e-001 3.443509e-001 3.740842e-001 3.638436e-001 3.912276e-001 9.950757e-002
<GCONST> 9.637812e+001
<STATE> 3
<MEAN> 39
 3.186321e+000 -1.528744e+000 2.870702e+000 -7.338204e+000 -2.877089e+000 -1.605590e+001 -2.055958e+000 5.349931e-001 9.630166e-001 7.550185e-001 -7.131898e+000 -1.541967e+000 6.435779e+001 2.097711e+000 -1.947588e+000 9.188166e-001 -1.590311e+000 -2.417112e+000 -2.047220e+000 -8.081065e-001 1.214403e-001 -5.842912e-001 1.657370e-001 -3.404802e-001 2.161960e-001 1.853943e+000 -1.233664e+000 2.571108e-002 -2.744640e-001 2.881006e-001 7.109280e-002 8.169195e-001 6.734940e-001 3.358792e-001 1.582236e-001 -2.872109e-001 7.329786e-001 3.078781e-001 -1.669322e-001
<VARIANCE> 39
 9.281222e+000 1.817211e+001 1.593236e+001 1.672869e+001 1.919364e+001 1.942110e+001 1.266582e+001 1.176141e+001 1.263463e+001 1.964112e+001 1.174261e+001 1.492772e+001 1.488965e+001 5.618106e+000 9.312569e-001 1.611581e+000 1.766782e+000 1.225979e+000 4.453237e+000 2.941899e+000 2.021892e+000 1.734255e+000 2.558176e+000 3.017112e+000 1.970597e+000 6.549245e-001 2.702369e-001 3.062109e-001 1.909461e-001 3.148434e-001 2.995445e-001 3.191479e-001 2.879356e-001 2.799979e-001 2.584079e-001 3.728919e-001 2.880501e-001 3.314639e-001 2.462681e-001
<GCONST> 9.946848e+001
<STATE> 4
<MEAN> 39
 1.227752e+000 -3.766216e+000 3.829615e+000 -4.737706e+000 -6.305902e+000 -1.513465e+001 1.425254e+000 1.393162e+000 -3.195531e+000 -7.255043e-001 -1.894922e+000 -1.131640e+000 6.371747e+001 -5.593163e-001 2.940507e-001 -5.489601e-001 5.970458e-001 8.466723e-001 5.969157e-001 1.981413e-001 -3.397830e-001 1.806294e-001 1.682640e-001 2.277347e-001 -6.277477e-002 -5.572534e-001 -1.228894e-001 7.662708e-002 -5.326514e-002 1.495785e-002 1.402963e-001 1.028187e-001 -2.365471e-002 -2.994720e-002 8.059710e-002 6.790116e-002 -6.276451e-003 -8.390432e-003 -3.318652e-002
<VARIANCE> 39
 1.127113e+001 1.751132e+001 4.524694e+001 3.724223e+001 6.449026e+001 4.269133e+001 1.415395e+001 2.351882e+001 5.384265e+001 2.022425e+001 2.346898e+001 1.705392e+001 3.530848e+001 1.212516e+000 1.247772e+000 3.566248e+000 1.715988e+000 3.645124e+000 3.556015e+000 1.340610e+000 1.681757e+000 5.988679e+000 1.302994e+000 1.755693e+000 1.170166e+000 1.403959e+000 1.388521e-001 2.302654e-001 6.308889e-001 3.205036e-001 4.831545e-001 5.599929e-001 2.451824e-001 3.149124e-001 9.076769e-001 2.322407e-001 3.207114e-001 2.312507e-001 2.383155e-001
<GCONST> 1.088814e+002
<TRANSP> 5
 0.000000e+000 1.000000e+000 0.000000e+000 0.000000e+000 0.000000e+000
 0.000000e+000 5.516331e-001 4.483669e-001 0.000000e+000 0.000000e+000
 0.000000e+000 0.000000e+000 7.260962e-001 2.739038e-001 0.000000e+000
 0.000000e+000 0.000000e+000 0.000000e+000 9.407616e-001 5.923845e-002
 0.000000e+000 0.000000e+000 0.000000e+000 0.000000e+000 0.000000e+000
<ENDHMM>
~h "iy"
<BEGINHMM>
<NUMSTATES> 5
<STATE> 2
<MEAN> 39
 3.574639e+000 -6.545336e+000 1.537002e+001 -1.032502e+001 -1.008546e+001 -1.917165e+001 -1.978166e+000 1.876001e-001 -8.504342e+000 -4.052238e-001 -2.813427e+000 4.503846e+000 6.574160e+001 -6.305267e-001 6.623896e-001 9.223323e-001 -6.458026e-001 -9.149250e-002 -6.792533e-002 3.176691e-001 -7.084470e-001 -1.034438e+000 -1.908818e-001 1.455689e-001 6.262401e-001 -8.085489e-002 9.163395e-002 1.306758e-001 -2.619939e-001 1.907695e-001 1.876792e-001 3.116241e-001 -2.175718e-001 -2.964876e-001 1.889627e-001 3.585313e-002 -1.045680e-001 -2.255810e-001 -1.609236e-001
<VARIANCE> 39
 5.536194e+000 9.365572e+000 2.499359e+001 1.418822e+001 8.627361e+000 1.002113e+001 1.724798e+001 2.007105e+001 3.791286e+001 1.199803e+001 1.186786e+001 1.527974e+001 6.851885e+000 3.300515e-001 5.101678e-001 1.205909e+000 6.016392e-001 1.295823e+000 1.166181e+000 1.247388e+000 1.302086e+000 1.524330e+000 9.234752e-001 9.012718e-001 1.309056e+000 1.768691e-001 4.139138e-002 7.502780e-002 1.265471e-001 1.022096e-001 1.814733e-001 1.860994e-001 1.776565e-001 3.219880e-001 1.824428e-001 1.950884e-001 1.646661e-001 2.090410e-001 2.389291e-002
<GCONST> 7.580801e+001
<STATE> 3
<MEAN> 39
 9.155863e-001 -6.441776e-002 1.999305e+001 -1.157235e+001 -7.668289e+000 -1.493978e+001 -4.532026e+000 -6.541351e+000 -1.261545e+001 -3.237324e+000 -3.061487e+000 5.806840e+000 6.282433e+001 -8.122365e-003 5.743487e-001 -3.524752e-001 3.666235e-001 3.523971e-001 5.586684e-001 4.486149e-002 -4.399734e-001 2.843797e-001 -2.879403e-001 5.478627e-002 -3.447899e-001 -4.930917e-001 1.091709e-002 9.066795e-003 -2.563823e-001 1.849205e-001 5.315271e-002 1.279881e-001 6.724842e-002 1.093158e-001 2.384187e-001 7.124390e-002 3.412979e-002 -1.877351e-001 -4.841217e-002
<VARIANCE> 39
 5.208798e+000 1.138676e+001 1.753756e+001 1.417091e+001 1.384138e+001 1.766783e+001 2.135333e+001 1.690762e+001 3.406644e+001 1.602125e+001 1.091145e+001 1.311559e+001 7.026948e+000 2.022947e-001 4.957402e-001 1.326588e+000 1.060465e+000 8.013098e-001 9.227731e-001 9.968731e-001 9.709511e-001 1.307954e+000 9.336087e-001 7.199031e-001 9.122432e-001 1.830299e-001 5.823930e-002 6.961364e-002 1.286504e-001 1.540763e-001 1.639436e-001 2.238291e-001 1.642572e-001 2.079944e-001 2.416116e-001 1.492147e-001 1.425408e-001 1.719844e-001 3.121117e-002
<GCONST> 7.505891e+001
<STATE> 4
<MEAN> 39
 9.651619e-003 4.617852e+000 1.498263e+001 -5.896251e+000 -5.042445e+000 -4.626436e+000 -2.438919e+000 -7.937769e+000 -6.174415e+000 -3.720731e+000 -2.313570e+000 1.411940e+000 5.633809e+001 -1.769445e-001 -9.564782e-002 -7.981962e-001 6.487647e-001 5.075724e-001 1.058969e+000 3.398543e-001 2.406442e-001 7.884061e-001 4.575599e-001 -5.852029e-002 -4.266866e-001 -6.129747e-001 -5.121942e-002 -1.203245e-001 -8.098692e-002 7.425976e-003 3.220451e-002 5.145046e-004 3.813244e-002 8.808550e-002 6.620110e-002 7.431797e-002 5.618994e-003 5.468463e-002 -4.069810e-003
<VARIANCE> 39
 8.484724e+000 1.312422e+001 1.827689e+001 2.055533e+001 2.722635e+001 5.407542e+001 2.034609e+001 1.718056e+001 2.187027e+001 2.169665e+001 1.568844e+001 1.585724e+001 1.635195e+001 5.613188e-001 9.380856e-001 1.474559e+000 1.402016e+000 1.330789e+000 1.995037e+000 1.345760e+000 1.376850e+000 1.870815e+000 1.409141e+000 1.260739e+000 1.553350e+000 3.371994e-001 9.859762e-002 1.017811e-001 1.545610e-001 2.219678e-001 2.282865e-001 3.306635e-001 2.123640e-001 2.152779e-001 2.359783e-001 2.383062e-001 2.310359e-001 2.632234e-001 3.989084e-002
<GCONST> 8.963271e+001
<TRANSP> 5
 0.000000e+000 1.000000e+000 0.000000e+000 0.000000e+000 0.000000e+000
 0.000000e+000 8.298887e-001 1.701113e-001 0.000000e+000 0.000000e+000
 0.000000e+000 0.000000e+000 8.514724e-001 1.485275e-001 0.000000e+000
 0.000000e+000 0.000000e+000 0.000000e+000 8.554098e-001 1.445902e-001
 0.000000e+000 0.000000e+000 0.000000e+000 0.000000e+000 0.000000e+000
<ENDHMM>
~h "jh"
<BEGINHMM>
<NUMSTATES> 5
<STATE> 2
<MEAN> 39
 4.892730e-001 -5.297713e-001 1.078815e+000 -1.598879e+000 1.209333e-001 1.953552e+000 1.090773e+000 -5.936345e+000 2.214362e-001 4.177848e+000 -3.229983e+000 7.216237e-001 5.118542e+001 -1.673861e+000 -1.392018e+000 -1.271639e-001 -1.163616e+000 -8.607193e-001 1.393253e+000 -3.073631e-001 1.385799e+000 1.453744e+000 -5.017846e-002 1.526978e+000 1.472268e+000 -2.050973e-001 -2.144008e-001 1.352038e-001 4.170585e-001 -4.635150e-001 -5.795730e-001 -3.105712e-001 -2.265211e-001 -4.768336e-001 -2.675887e-003 1.379023e-001 -5.888568e-001 -1.181532e-001 8.257040e-001
<VARIANCE> 39
 9.898872e+000 1.009558e+001 2.318972e+001 8.020823e+001 1.375534e+001 1.670926e+001 2.493316e+001 1.509169e+001 3.600179e+001 1.769079e+001 2.149889e+001 2.996937e+001 4.384002e+001 1.686520e+000 9.740565e-001 1.519966e+000 2.062897e+000 1.912081e+000 2.913723e+000 2.640324e+000 2.543509e+000 1.898439e+000 1.727157e+000 3.235939e+000 2.330292e+000 3.861377e+000 1.589263e-001 1.618476e-001 1.564871e-001 4.791045e-001 4.779492e-001 1.581296e-001 5.765626e-001 2.159166e-001 4.245954e-001 2.490924e-001 4.372431e-001 7.997857e-001 4.612679e-001
<GCONST> 1.067151e+002
<STATE> 3
<MEAN> 39
 3.448439e+000 -1.828102e+000 -3.402972e+000 -1.716324e+001 7.768021e-001 -3.566724e-001 -7.848896e+000 -6.929874e+000 -3.451074e+000 7.921542e+000 -5.954489e+000 -1.223257e+000 6.405115e+001 -8.756574e-001 1.946135e-001 1.673571e+000 1.107244e+000 -7.192407e-001 -9.664105e-001 -9.876587e-001 1.358521e-001 1.678609e+000 -2.042947e-001 1.243375e-001 4.953139e-001 6.863965e-001 -3.280739e-001 3.679125e-001 3.848555e-001 6.499428e-001 6.753592e-002 9.844955e-002 5.710897e-001 1.198030e-001 5.552924e-002 -4.956926e-001 5.900839e-002 -6.975555e-002 -9.044605e-002
<VARIANCE> 39
 4.136225e+001 7.443039e+000 3.403547e+001 5.299754e+001 1.127721e+001 3.037580e+001 2.155886e+001 8.796308e+000 5.685540e+001 2.753491e+001 1.709426e+001 2.090024e+001 3.508226e+001 2.488377e+000 4.489480e-001 1.831770e+000 5.847078e+000 2.927531e+000 2.402719e+000 2.228865e+000 8.168191e-001 2.595753e+000 2.320710e+000 2.365582e+000 2.762528e+000 3.940765e+000 1.505749e-001 1.284754e-001 2.031033e-001 1.603603e-001 2.684188e-001 8.234518e-001 1.912314e-001 3.059340e-001 8.912444e-001 4.518594e-001 2.130562e-001 3.817256e-001 1.700447e-001
<GCONST> 1.059462e+002
<STATE> 4
<MEAN> 39
 -8.139259e+000 -1.736847e+000 8.438875e+000 -2.117265e+000 -5.263469e+000 2.977622e-001 1.480675e+000 -2.809717e+000 6.937473e-001 2.356923e+000 -4.627402e-001 2.315402e+000 6.050909e+001 5.449969e-001 1.637189e-002 8.190511e-001 1.002350e+000 -3.061030e-001 -1.145400e+000 1.106950e-002 1.911884e-001 -9.302820e-001 -3.623354e-001 3.239057e-001 -1.823223e-002 3.557226e-001 5.026833e-001 -6.360826e-002 -2.213355e-001 -2.167336e-001 1.624589e-001 -1.162311e-001 -1.795838e-001 -1.633084e-001 -2.274598e-001 1.215981e-001 9.680100e-004 -3.930831e-002 -1.089343e-001
<VARIANCE> 39
 7.873513e+001 1.476876e+001 2.281405e+001 4.340355e+001 4.556951e+001 7.415682e+001 4.984793e+001 1.516994e+001 3.856613e+001 2.774895e+001 1.787160e+001 1.879668e+001 3.735379e+001 1.305632e+001 2.045734e+000 2.182156e+000 5.760702e+000 3.170662e+000 7.308546e+000 7.700493e+000 2.163218e+000 4.175868e+000 4.377993e+000 2.525459e+000 2.154684e+000 5.031493e+000 1.552051e+000 4.147184e-001 4.422870e-001 1.559879e+000 5.905376e-001 1.243610e+000 1.343468e+000 4.695174e-001 5.765698e-001 8.748462e-001 6.760237e-001 4.785025e-001 8.170884e-001
<GCONST> 1.311920e+002
<TRANSP> 5
 0.000000e+000 1.000000e+000 0.000000e+000 0.000000e+000 0.000000e+000
 0.000000e+000 7.067759e-001 2.932241e-001 0.000000e+000 0.000000e+000
 0.000000e+000 0.000000e+000 5.669398e-001 4.330603e-001 0.000000e+000
 0.000000e+000 0.000000e+000 0.000000e+000 9.124433e-001 8.755665e-002
 0.000000e+000 0.000000e+000 0.000000e+000 0.000000e+000 0.000000e+000
<ENDHMM>
~h "ng"
<BEGINHMM>
<NUMSTATES> 5
<STATE> 2
<MEAN> 39
 6.405705e+000 -4.428997e+000 -1.197518e+001 -1.294557e+001 8.885016e+000 2.532571e+000 2.163127e+000 -1.174138e+001 -7.460356e+000 -1.741013e+000 -1.504258e+000 -9.545764e+000 6.528384e+001 1.107402e-001 6.663293e-001 -3.188330e-002 3.290302e-001 -3.218241e-001 5.767289e-001 7.361336e-001 -2.910580e-001 -9.343897e-001 3.970346e-001 3.338043e-001 1.776616e-001 -6.601504e-001 -6.488197e-002 -3.179014e-003 2.296083e-001 -3.861504e-002 -1.067698e-001 -1.027115e-001 5.300224e-002 1.042024e-001 7.354233e-002 5.527242e-003 -3.729045e-001 1.734427e-001 -3.123830e-003
<VARIANCE> 39
 3.922884e+000 1.363921e+001 9.620827e+000 1.439914e+001 9.324806e+000 1.344424e+001 2.414758e+001 7.553237e+000 2.534207e+001 1.876479e+001 1.891405e+001 1.315188e+001 9.761592e+000 2.572761e-001 3.287464e-001 9.644193e-001 5.063738e-001 7.056386e-001 5.788132e-001 1.192716e+000 8.966392e-001 1.325654e+000 8.596656e-001 2.971860e+000 1.685126e+000 2.173255e-001 3.473285e-002 4.791758e-002 8.151857e-002 6.936744e-002 1.361089e-001 7.613479e-002 1.948717e-001 1.766953e-001 2.259207e-001 1.723067e-001 2.070354e-001 1.891816e-001 2.111975e-002
<GCONST> 7.092972e+001
<STATE> 3
<MEAN> 39
 4.410069e+000 7.258846e-001 -1.070510e+000 -1.054219e+001 2.316067e+000 1.902681e+000 4.905374e+000 -1.071124e+001 -8.316173e+000 6.487470e-001 -1.280377e+001 -4.146016e+000 6.028043e+001 -1.679555e-001 3.865857e-001 1.353582e+000 4.310540e-001 -5.368783e-001 -3.708360e-001 -4.964849e-001 3.976180e-001 5.941226e-001 -8.432668e-002 -1.140540e+000 3.602506e-002 -3.737253e-001 3.709387e-002 -1.111018e-003 -9.534300e-002 9.903987e-002 1.268695e-001 -1.472864e-002 -2.974642e-002 1.810045e-002 8.169504e-002 6.138302e-003 1.677795e-001 -1.007882e-001 -2.424883e-002
<VARIANCE> 39
 5.172279e+000 6.465560e+000 3.130770e+001 1.406668e+001 1.216229e+001 1.967244e+001 2.225696e+001 9.195459e+000 1.395873e+001 1.069257e+001 2.526989e+001 1.745686e+001 6.765799e+000 2.916490e-001 3.269679e-001 7.891681e-001 4.896778e-001 7.393927e-001 1.008698e+000 9.901312e-001 8.911491e-001 1.068476e+000 8.921124e-001 1.004287e+000 1.354641e+000 2.851788e-001 4.190111e-002 5.822893e-002 1.170716e-001 8.256789e-002 1.198333e-001 1.753897e-001 2.119663e-001 1.621684e-001 2.081856e-001 1.423323e-001 1.133577e-001 2.877769e-001 4.116804e-002
<GCONST> 7.234688e+001
<STATE> 4
<MEAN> 39
 3.013304e+000 3.534380e+000 6.768036e+000 -1.231201e+000 3.264727e+000 2.110325e+000 3.788819e+000 -6.722067e+000 -1.945591e+000 1.290884e+000 -1.365519e+001 -3.128968e+000 5.409263e+001 -3.677983e-001 -1.948611e-001 1.528446e-002 9.435576e-001 3.949146e-001 4.638565e-001 3.379342e-001 4.963036e-001 5.695579e-001 1.503086e-001 7.499600e-001 3.553432e-001 -7.387263e-001 -7.905792e-002 -1.302343e-001 -1.177465e-001 -1.307063e-001 -5.185311e-002 1.734889e-002 5.234415e-002 1.903121e-002 -2.717291e-002 4.820710e-002 1.183914e-001 7.623305e-002 2.503467e-002
<VARIANCE> 39
 5.751437e+000 3.411280e+000 6.113586e+000 2.279559e+001 1.353555e+001 1.276818e+001 1.427996e+001 1.922497e+001 1.340479e+001 1.869845e+001 1.485474e+001 1.850128e+001 7.054257e+000 2.903129e-001 4.274727e-001 7.395345e-001 1.681959e+000 9.892138e-001 1.022241e+000 1.492593e+000 1.612972e+000 1.357991e+000 1.505541e+000 9.950430e-001 1.426347e+000 1.321601e-001 3.030438e-002 5.149690e-002 1.145710e-001 2.965854e-001 1.799593e-001 1.867486e-001 3.004775e-001 3.287852e-001 2.523524e-001 3.289348e-001 2.204641e-001 3.004455e-001 2.364567e-002
<GCONST> 7.701455e+001
<TRANSP> 5
 0.000000e+000 1.000000e+000 0.000000e+000 0.000000e+000 0.000000e+000
 0.000000e+000 9.099390e-001 9.006098e-002 0.000000e+000 0.000000e+000
 0.000000e+000 0.000000e+000 9.053619e-001 9.463812e-002 0.000000e+000
 0.000000e+000 0.000000e+000 0.000000e+000 8.893228e-001 1.106772e-001
 0.000000e+000 0.000000e+000 0.000000e+000 0.000000e+000 0.000000e+000
<ENDHMM>
~h "ow"
<BEGINHMM>
<NUMSTATES> 5
<STATE> 2
<MEAN> 39
 3.520964e+000 -1.495773e-001 -4.815038e+000 -1.317286e+001 -1.760878e+000 4.645696e+000 5.406959e-001 -4.039490e+000 -2.970644e-001 1.673028e+000 2.960669e-001 -4.779467e+000 5.717417e+001 2.470219e-001 7.806820e-002 -6.917364e-001 -1.579661e+000 3.633193e-001 7.909341e-001 -2.486276e-001 3.839305e-001 -2.964621e-001 -5.672134e-001 2.539971e-001 -8.325033e-001 7.813303e-001 -6.894088e-002 5.084952e-002 1.026993e-001 1.853935e-001 -2.363094e-002 -9.876194e-002 9.943325e-002 -2.732267e-003 -1.637510e-002 -1.746105e-001 -3.052302e-002 1.765282e-002 2.352830e-002
<VARIANCE> 39
 3.064888e+001 1.009707e+001 3.553672e+001 1.150470e+002 3.333783e+001 4.374019e+001 3.447951e+001 2.541450e+001 3.956383e+001 4.047632e+001 2.862661e+001 4.805272e+001 6.126247e+001 1.631733e+000 1.019961e+000 2.556158e+000 6.475181e+000 2.335672e+000 2.451420e+000 2.296834e+000 2.472913e+000 2.755835e+000 2.258537e+000 2.322600e+000 2.859128e+000 2.939517e+000 3.586336e-001 1.818514e-001 4.286446e-001 1.408378e+000 3.377049e-001 3.859251e-001 4.550506e-001 4.483539e-001 4.875666e-001 5.123147e-001 4.524620e-001 5.333183e-001 4.741302e-001
<GCONST> 1.196897e+002
<STATE> 3
<MEAN> 39
 8.685886e+000 4.290961e+000 -4.973487e+000 -2.432359e+001 -6.299053e+000 5.568958e+000 -1.221967e+000 -1.372689e+000 -3.594962e+000 -5.254360e+000 1.203581e+000 -5.838169e+000 6.171846e+001 1.177064e-001 4.162082e-001 4.027644e-001 2.293178e-001 -1.805391e-001 -4.554465e-001 4.795878e-002 2.888102e-001 -3.733709e-001 -3.028823e-001 -2.032995e-001 -3.410263e-002 -4.059455e-001 -1.613483e-002 -3.402680e-002 3.341584e-002 2.157019e-001 3.225863e-003 -6.182484e-002 8.390339e-002 -9.066776e-002 2.206336e-002 1.308848e-001 -1.298739e-001 3.794604e-003 -5.016870e-002
<VARIANCE> 39
 4.988188e+000 1.051025e+001 1.719670e+001 3.643800e+001 3.371657e+001 2.418833e+001 2.175919e+001 2.757364e+001 3.428977e+001 4.426239e+001 2.451908e+001 2.150547e+001 1.852699e+001 1.811565e-001 2.311870e-001 3.815920e-001 8.924483e-001 8.121038e-001 6.200286e-001 7.938692e-001 8.296374e-001 9.701107e-001 1.106728e+000 9.163513e-001 9.405423e-001 1.552281e-001 2.793172e-002 3.821621e-002 6.720410e-002 1.280076e-001 9.345000e-002 9.689470e-002 1.336306e-001 1.527294e-001 1.527175e-001 1.689301e-001 2.305294e-001 1.374146e-001 2.841193e-002
<GCONST> 7.353049e+001
<STATE> 4
<MEAN> 39
 7.606636e+000 5.605500e+000 -2.070677e-001 -1.172653e+001 -4.764314e+000 9.003868e-001 1.416316e+000 -3.095315e+000 -5.522224e+000 -1.313083e+000 -4.247770e+000 -5.733745e+000 5.622185e+001 -7.614463e-001 -3.898813e-001 5.188330e-001 1.704984e+000 9.315423e-001 -1.175946e-001 5.641863e-001 -3.418017e-001 4.374170e-001 1.037669e+000 -9.393938e-001 2.567430e-001 -5.035051e-001 -1.742896e-001 -1.261605e-001 3.568657e-002 5.144333e-002 8.067844e-002 4.560047e-002 -2.405921e-002 -2.779263e-002 1.905238e-001 1.133665e-001 7.133191e-004 1.321843e-001 2.196006e-002
<VARIANCE> 39
 1.122519e+001 1.206783e+001 1.624913e+001 6.660932e+001 2.779904e+001 1.948863e+001 2.899404e+001 2.458190e+001 4.749891e+001 2.987940e+001 3.992909e+001 3.063984e+001 2.824683e+001 5.803445e-001 6.845309e-001 1.005429e+000 1.866141e+000 2.350095e+000 1.811795e+000 1.759804e+000 2.092901e+000 1.945387e+000 1.818824e+000 5.027808e+000 1.928195e+000 2.962227e-001 8.264024e-002 7.400508e-002 1.609944e-001 3.355417e-001 2.365320e-001 2.583570e-001 3.725500e-001 3.175040e-001 3.212143e-001 3.873315e-001 6.164160e-001 3.145010e-001 4.675392e-002
<GCONST> 9.918963e+001
<TRANSP> 5
 0.000000e+000 1.000000e+000 0.000000e+000 0.000000e+000 0.000000e+000
 0.000000e+000 7.733372e-001 2.266628e-001 0.000000e+000 0.000000e+000
 0.000000e+000 0.000000e+000 8.929544e-001 1.070456e-001 0.000000e+000
 0.000000e+000 0.000000e+000 0.000000e+000 7.988543e-001 2.011457e-001
 0.000000e+000 0.000000e+000 0.000000e+000 0.000000e+000 0.000000e+000
<ENDHMM>
~h "sp"
<BEGINHMM>
<NUMSTATES> 3
<STATE> 2
~s "silst"
<TRANSP> 3
 0.000000e+000 2.162078e-001 7.837922e-001
 0.000000e+000 9.766034e-001 2.339659e-002
 0.000000e+000 0.000000e+000 0.000000e+000
<ENDHMM>
~h "th"
<BEGINHMM>
<NUMSTATES> 5
<STATE> 2
<MEAN> 39
 -4.882616e+000 8.174984e-001 1.056825e+000 -9.850990e-001 4.895304e+000 -2.592789e+000 4.137673e+000 -8.402560e-001 1.255704e+000 8.083210e-001 -9.333408e-001 -3.524947e-001 5.502840e+001 -1.860546e+000 3.376443e-001 -7.001327e-001 4.184875e-001 8.597413e-001 -3.121600e-001 2.267489e-001 1.307669e+000 7.337331e-001 -1.164790e-001 7.995067e-001 2.191789e-001 7.273673e-001 -1.359127e-001 -6.564215e-002 -7.023045e-002 -9.399904e-002 -8.755729e-002 -6.515259e-002 4.861617e-003 5.208428e-002 7.583270e-003 4.154974e-002 4.245269e-002 1.109867e-001 1.104330e-001
<VARIANCE> 39
 2.835502e+001 2.092752e+001 1.905903e+001 2.347130e+001 3.128239e+001 3.572556e+001 2.647861e+001 3.334170e+001 3.114714e+001 2.541740e+001 2.900688e+001 2.295126e+001 4.047465e+001 3.494658e+000 1.305267e+000 1.664451e+000 3.281269e+000 2.263136e+000 4.011835e+000 2.356944e+000 2.432698e+000 2.657682e+000 1.760074e+000 2.296211e+000 2.445977e+000 1.476408e+000 4.179526e-001 2.195420e-001 2.407355e-001 3.823098e-001 3.788739e-001 5.624352e-001 4.576639e-001 4.630798e-001 4.334965e-001 3.047557e-001 3.598951e-001 4.754204e-001 1.360840e-001
<GCONST> 1.120143e+002
<STATE> 3
<MEAN> 39
 -1.515178e+001 4.039305e+000 -2.860029e+000 4.250190e-002 8.719936e+000 -4.351779e+000 4.859652e+000 4.716489e+000 4.474462e+000 -2.443814e-001 1.011568e+000 7.201268e-001 6.120750e+001 1.631553e-001 2.012713e-002 1.433446e-001 -1.759545e-001 1.036265e-001 -9.963448e-002 -2.082267e-001 2.075255e-001 1.168246e-001 -9.770947e-002 -1.457723e-001 -1.329328e-001 1.209228e-001 4.554673e-001 -6.621476e-002 1.791720e-001 -8.129073e-002 -1.481486e-001 -2.479723e-002 -2.018299e-001 -1.826771e-001 -5.740996e-002 2.576349e-002 -1.308592e-001 -1.355525e-001 -5.979471e-002
<VARIANCE> 39
 6.098967e+000 1.007879e+001 1.042816e+001 1.877380e+001 2.697095e+001 1.453727e+001 1.966954e+001 2.041813e+001 1.645714e+001 2.032481e+001 1.500440e+001 1.595094e+001 7.770983e+000 1.817016e+000 7.748174e-001 1.076320e+000 1.438349e+000 1.404736e+000 1.463770e+000 1.699806e+000 1.611141e+000 1.544433e+000 1.723816e+000 1.530713e+000 1.531324e+000 3.448249e-001 2.717065e-001 1.407513e-001 1.970669e-001 2.827728e-001 3.325203e-001 3.049654e-001 3.454644e-001 4.255559e-001 2.894315e-001 3.799405e-001 3.327297e-001 3.165821e-001 5.427174e-002
<GCONST> 9.192548e+001
<STATE> 4
<MEAN> 39
 4.262480e-001 7.314736e-001 3.438134e+000 -4.257484e+000 3.427989e+000 -7.007720e+000 -4.210263e+000 3.036718e-001 4.546406e+000 1.571817e+000 -3.898140e+000 -4.505316e+000 6.173783e+001 4.320744e+000 -1.778269e+000 1.071916e+000 2.450468e-001 -3.390345e+000 -5.927579e-001 -1.826972e+000 -2.950984e+000 -5.944129e-001 1.551535e+000 -1.012504e+000 -1.124205e+000 2.051326e-001 -3.611806e-001 -2.984748e-001 -4.687395e-001 5.883343e-001 -3.996486e-001 -1.041391e-001 6.256091e-001 -1.435538e-001 -3.929282e-001 1.436984e-001 3.305761e-001 1.988732e-001 -9.291508e-003
<VARIANCE> 39
 5.450988e+001 1.706815e+001 1.398456e+001 1.533109e+001 3.723842e+001 2.652084e+001 3.027562e+001 4.687749e+001 1.552890e+001 2.555958e+001 1.856471e+001 1.566336e+001 1.092065e+001 2.374310e+000 1.813747e+000 2.073843e+000 3.339419e+000 2.340066e+000 2.614336e+000 3.603276e+000 3.059078e+000 1.731408e+000 1.987544e+000 2.127989e+000 1.518403e+000 6.240464e-001 8.141038e-001 3.056630e-001 3.445902e-001 4.250895e-001 7.566378e-001 5.341913e-001 6.928879e-001 1.133559e+000 3.042107e-001 5.512193e-001 4.325509e-001 3.022569e-001 1.152651e-001
<GCONST> 1.111844e+002
<TRANSP> 5
 0.000000e+000 1.000000e+000 0.000000e+000 0.000000e+000 0.000000e+000
 0.000000e+000 8.273787e-001 1.726213e-001 0.000000e+000 0.000000e+000
 0.000000e+000 0.000000e+000 9.214995e-001 7.850045e-002 0.000000e+000
 0.000000e+000 0.000000e+000 0.000000e+000 7.578964e-001 2.421036e-001
 0.000000e+000 0.000000e+000 0.000000e+000 0.000000e+000 0.000000e+000
<ENDHMM>
~h "uh"
<BEGINHMM>
<NUMSTATES> 5
<STATE> 2
<MEAN> 39
