~o
<STREAMINFO> 1 39
<VECSIZE> 39<NULLD><MFCC_D_A_0><DIAGC>
~s "silst"
<MEAN> 39
 -2.793497e+000 -8.221312e-001 2.000174e+000 1.632759e+000 2.231012e+000 3.890832e+000 5.275808e+000 -4.228971e+000 1.516271e+000 2.209181e+000 -3.174786e+000 1.551352e-001 4.678779e+001 -8.063528e-002 -6.307878e-002 -6.127895e-002 2.725554e-002 1.426023e-002 1.097119e-002 4.545044e-002 7.569355e-004 5.137831e-002 6.641223e-002 6.428263e-002 8.475268e-002 -7.878412e-002 1.493344e-002 1.388087e-002 -1.079921e-003 -2.602592e-002 -1.040377e-002 -3.620983e-002 -2.263099e-002 1.333147e-002 -1.313915e-002 -1.918244e-002 2.754849e-003 -7.979840e-003 2.649472e-002
<VARIANCE> 39
 5.350580e+000 7.518272e+000 8.399730e+000 9.338660e+000 1.192967e+001 1.637519e+001 1.554127e+001 2.155937e+001 1.848883e+001 1.949604e+001 2.119968e+001 1.446109e+001 6.015525e+000 1.984842e-001 3.620911e-001 5.554287e-001 6.914928e-001 9.078672e-001 1.112434e+000 1.316269e+000 1.561003e+000 1.536910e+000 1.559714e+000 1.420357e+000 1.218042e+000 1.205058e-001 3.384545e-002 6.352325e-002 1.056103e-001 1.396087e-001 1.843827e-001 2.246886e-001 2.691677e-001 3.091408e-001 3.146696e-001 3.159349e-001 2.835604e-001 2.430864e-001 1.856869e-002
<GCONST> 7.567818e+001
~h "d"
<BEGINHMM>
<NUMSTATES> 5
<STATE> 2
<MEAN> 39
 -2.812785e+000 -1.002347e+000 4.215497e-001 -4.643134e-001 5.154993e-001 2.341434e+000 5.653581e+000 -2.569287e+000 3.859335e+000 3.710342e+000 -8.948072e-004 1.955344e+000 4.825856e+001 -1.755612e-001 -9.699447e-002 -1.672900e-001 7.355631e-002 1.012102e-001 1.595580e-001 2.754619e-001 1.805632e-001 3.109314e-002 -6.291786e-002 1.594811e-001 6.830314e-002 -2.013957e-001 1.974161e-002 3.290328e-002 6.560893e-002 -6.943687e-002 6.399184e-002 -6.124015e-002 -1.681673e-001 -6.861702e-002 -1.780237e-001 -6.404995e-002 -1.120889e-001 -5.913327e-002 1.456138e-001
<VARIANCE> 39
 8.968014e+000 4.313941e+000 6.063484e+000 8.383732e+000 9.431632e+000 1.611885e+001 1.628784e+001 2.264892e+001 1.851391e+001 2.049078e+001 1.741540e+001 1.465534e+001 6.583298e+000 7.778288e-001 5.260266e-001 7.384212e-001 9.248825e-001 1.170499e+000 1.233663e+000 1.962995e+000 1.908874e+000 1.752938e+000 1.548715e+000 1.506979e+000 1.310087e+000 7.289674e-001 1.607858e-001 9.183765e-002 1.566325e-001 2.037673e-001 2.343593e-001 2.209357e-001 3.490610e-001 3.577579e-001 3.423243e-001 2.838249e-001 3.191743e-001 2.377463e-001 1.258691e-001
<GCONST> 8.565362e+001
<STATE> 3
<MEAN> 39
 -4.628183e+000 -6.413960e-001 2.369878e+000 1.153005e+000 2.512148e+000 1.312688e+000 4.615774e+000 -4.501727e+000 -4.551181e-001 3.317679e-001 -2.531620e+000 1.183421e-001 4.727362e+001 -8.430075e-002 -3.691598e-002 3.853813e-002 -1.055001e-002 1.140789e-001 1.812802e-002 -1.291837e-001 4.318834e-002 -8.613117e-002 -2.865477e-002 1.022193e-002 2.977453e-002 5.674768e-002 -2.630293e-002 -4.986164e-002 -7.340610e-003 -6.224543e-002 -8.764837e-004 -5.357890e-002 -5.615833e-002 6.632092e-002 3.696596e-002 -7.165536e-003 2.378132e-002 1.052073e-002 9.600715e-002
<VARIANCE> 39
 5.102672e+000 6.469785e+000 5.662088e+000 9.136605e+000 9.900780e+000 1.236646e+001 1.358773e+001 1.891127e+001 1.738725e+001 1.814448e+001 1.689642e+001 1.321810e+001 2.669598e+000 3.718073e-001 5.927552e-001 6.630813e-001 8.390079e-001 1.181576e+000 1.378873e+000 1.507959e+000 1.847135e+000 1.783598e+000 1.844731e+000 1.555193e+000 1.655170e+000 2.216301e-001 7.481018e-002 1.296878e-001 1.331854e-001 1.681790e-001 2.439590e-001 3.103890e-001 3.363879e-001 4.053630e-001 3.930417e-001 4.273021e-001 3.493828e-001 3.573245e-001 9.476724e-002
<GCONST> 8.243647e+001
<STATE> 4
<MEAN> 39
 -5.764995e+000 -2.923483e+000 2.835202e+000 -2.091565e+000 2.778127e+000 3.306943e-001 1.874716e+000 9.037105e-001 1.557578e+000 1.435059e+000 5.509036e-001 1.790564e+000 5.234215e+001 -1.227255e-001 -2.984738e-001 2.788145e-001 -2.005640e-001 1.049073e-001 -4.355677e-001 -2.590295e-001 4.164840e-001 -8.398618e-002 -2.558085e-001 9.724995e-002 9.012675e-002 5.118204e-001 1.324069e-001 6.269690e-002 -3.794255e-002 7.165307e-002 -1.200461e-001 1.902589e-002 1.956065e-001 -1.617801e-001 2.481998e-002 5.798845e-002 -5.007856e-002 -2.224770e-002 -8.543891e-002
<VARIANCE> 39
 2.414570e+001 2.288585e+001 1.882504e+001 2.824427e+001 2.996863e+001 4.561719e+001 3.326712e+001 3.486456e+001 2.526672e+001 2.368922e+001 2.299267e+001 1.610246e+001 3.751149e+001 2.719195e+000 2.548990e+000 1.858774e+000 2.539267e+000 2.629519e+000 2.897112e+000 3.824587e+000 3.498060e+000 1.700418e+000 2.235674e+000 1.889127e+000 1.530390e+000 3.102038e+000 4.790079e-001 5.382648e-001 4.097039e-001 4.658269e-001 5.328675e-001 5.975832e-001 7.168568e-001 6.105634e-001 3.358516e-001 4.235333e-001 3.782366e-001 3.324939e-001 6.032615e-001
<GCONST> 1.166075e+002
<TRANSP> 5
 0.000000e+000 1.000000e+000 0.000000e+000 0.000000e+000 0.000000e+000
 0.000000e+000 7.093429e-001 2.906571e-001 0.000000e+000 0.000000e+000
 0.000000e+000 0.000000e+000 8.495066e-001 1.504934e-001 0.000000e+000
 0.000000e+000 0.000000e+000 0.000000e+000 7.104388e-001 2.895612e-001
 0.000000e+000 0.000000e+000 0.000000e+000 0.000000e+000 0.000000e+000
<ENDHMM>
~h "f"
<BEGINHMM>
<NUMSTATES> 5
<STATE> 2
<MEAN> 39
 -2.536894e+000 -2.894732e+000 -3.931811e-001 2.349009e-002 3.026007e+000 2.354050e+000 3.588912e+000 -2.065238e+000 2.411776e+000 2.078150e+000 -8.412753e-001 5.606688e-001 4.962800e+001 -1.209811e-001 -3.560609e-002 -5.827804e-002 1.427182e-001 1.330420e-001 1.351106e-001 5.488180e-002 1.042243e-001 1.078108e-001 4.202752e-002 6.063383e-002 2.809477e-002 -2.718319e-002 -1.202656e-002 -1.521564e-002 7.046992e-003 -5.433517e-003 1.682485e-002 -1.150557e-002 -1.866528e-002 3.186131e-002 -1.299617e-003 -5.271089e-003 5.211533e-003 -1.625385e-003 5.350210e-002
<VARIANCE> 39
 9.448490e+000 1.039006e+001 1.093473e+001 1.029391e+001 1.207324e+001 1.609764e+001 1.917945e+001 2.038743e+001 1.949163e+001 1.940772e+001 1.906983e+001 1.602834e+001 1.466242e+001 5.732486e-001 5.450165e-001 6.399085e-001 1.035830e+000 1.069607e+000 1.277001e+000 1.386241e+000 1.630956e+000 1.633196e+000 1.470170e+000 1.356502e+000 1.143230e+000 2.593062e-001 6.465938e-002 8.240820e-002 1.062409e-001 1.709660e-001 1.840040e-001 2.309347e-001 2.546453e-001 2.982544e-001 3.067477e-001 2.794327e-001 2.567832e-001 2.292427e-001 4.938381e-002
<GCONST> 8.281065e+001
<STATE> 3
<MEAN> 39
 -7.065411e+000 -3.054248e+000 2.928599e-001 2.642305e+000 3.777015e+000 3.120002e+000 2.534611e+000 1.883090e+000 2.779062e+000 1.563625e+000 1.212279e-001 2.597349e-001 5.813083e+001 -7.396052e-001 -3.938818e-001 -2.466834e-001 2.232379e-001 1.195292e-001 9.599014e-002 -9.575135e-002 4.825155e-001 1.629103e-001 1.068135e-001 2.282864e-001 1.264801e-001 6.262000e-001 1.333568e-001 1.829442e-002 2.446311e-003 -1.356398e-001 -8.662951e-002 -6.904283e-002 1.226133e-002 -9.144486e-002 -6.526803e-002 -1.100618e-002 -5.670632e-002 -2.672956e-002 -2.431828e-002
<VARIANCE> 39
 2.601537e+001 1.435021e+001 1.485023e+001 1.585187e+001 1.483986e+001 1.566345e+001 1.779770e+001 2.075345e+001 1.942526e+001 1.726312e+001 1.552889e+001 1.527705e+001 3.250433e+001 1.742428e+000 1.020185e+000 1.178791e+000 1.422096e+000 1.766259e+000 1.648020e+000 1.730333e+000 2.168144e+000 2.002806e+000 1.814109e+000 1.735994e+000 1.556975e+000 1.448601e+000 3.145658e-001 1.859782e-001 2.016829e-001 2.730413e-001 3.487300e-001 3.232343e-001 3.446445e-001 4.141285e-001 3.897508e-001 3.595350e-001 3.104019e-001 3.053637e-001 1.763943e-001
<GCONST> 9.940065e+001
<STATE> 4
<MEAN> 39
 -2.134836e+000 -2.298157e+000 -2.752725e+000 -4.905730e+000 2.125415e+000 3.685226e+000 1.975552e-001 5.367307e-001 5.220920e-001 2.736237e+000 -1.851585e-001 -2.146507e+000 6.177827e+001 2.209028e+000 7.042167e-001 -8.326133e-001 -3.005738e+000 -7.467639e-001 3.918185e-001 -7.657293e-001 -8.524974e-001 -9.066876e-001 1.168466e-001 -2.314685e-002 -8.992777e-001 5.048795e-001 -9.113691e-003 5.024480e-002 -1.247595e-001 -2.768521e-001 -7.598098e-002 1.560036e-001 2.232005e-003 1.010681e-002 -6.842984e-002 -1.301516e-001 1.181993e-002 -6.757089e-002 5.947897e-002
<VARIANCE> 39
 7.815612e+001 2.062637e+001 1.840267e+001 1.073352e+002 1.934278e+001 1.799070e+001 2.427069e+001 2.450656e+001 2.577203e+001 2.159486e+001 1.684526e+001 2.338841e+001 2.165559e+001 6.456701e+000 2.286063e+000 2.075566e+000 9.266452e+000 2.230944e+000 2.555486e+000 2.446030e+000 2.360209e+000 2.434728e+000 2.608292e+000 1.971678e+000 2.312683e+000 9.574667e-001 1.474144e+000 4.691051e-001 3.158222e-001 1.619941e+000 4.742285e-001 4.379708e-001 5.698412e-001 5.560985e-001 4.956506e-001 4.907058e-001 3.648890e-001 3.858385e-001 1.444201e-001
<GCONST> 1.176602e+002
<TRANSP> 5
 0.000000e+000 1.000000e+000 0.000000e+000 0.000000e+000 0.000000e+000
 0.000000e+000 8.921441e-001 1.078560e-001 0.000000e+000 0.000000e+000
 0.000000e+000 0.000000e+000 9.044030e-001 9.559701e-002 0.000000e+000
 0.000000e+000 0.000000e+000 0.000000e+000 8.136885e-001 1.863115e-001
 0.000000e+000 0.000000e+000 0.000000e+000 0.000000e+000 0.000000e+000
<ENDHMM>
~h "k"
<BEGINHMM>
<NUMSTATES> 5
<STATE> 2
<MEAN> 39
 -1.455680e+001 2.831135e+000 -4.214757e+000 3.574689e+000 9.020370e+000 -3.213554e+000 2.647494e+000 5.233255e-002 6.058880e+000 3.336004e+000 1.474417e+000 -1.279745e+000 5.800171e+001 -2.817356e-001 3.962142e-001 6.006483e-002 2.631718e-002 -6.811709e-002 1.954846e-001 1.162766e-001 3.075978e-001 2.742670e-002 -8.100417e-002 7.511290e-002 -1.122556e-002 -6.057380e-003 2.576851e-001 -2.289847e-002 -3.868751e-002 -8.532973e-002 -5.366348e-002 -7.452846e-002 2.362984e-002 -1.185456e-001 -1.199515e-001 -8.729335e-002 -9.449147e-002 -4.122825e-002 -8.076295e-002
<VARIANCE> 39
 1.868296e+001 1.010255e+001 1.129088e+001 1.870551e+001 2.319881e+001 2.248090e+001 1.728077e+001 1.845195e+001 2.294299e+001 1.809715e+001 1.673255e+001 1.674844e+001 2.071640e+001 8.042939e-001 5.185290e-001 8.087586e-001 9.837512e-001 1.175753e+000 1.718294e+000 1.476394e+000 1.824466e+000 1.981794e+000 1.681644e+000 1.366491e+000 1.462655e+000 3.730382e-001 1.452022e-001 9.761234e-002 1.598398e-001 2.097816e-001 2.534949e-001 3.478731e-001 3.258894e-001 3.415855e-001 4.091006e-001 3.590211e-001 2.944718e-001 3.157699e-001 5.746635e-002
<GCONST> 9.106309e+001
<STATE> 3
<MEAN> 39
 -1.129157e+001 3.544030e+000 -2.634358e+000 8.634905e-001 7.698711e+000 -1.321560e+000 4.504544e+000 -1.673316e+000 3.819175e+000 2.769559e+000 1.243399e-001 -8.414146e-001 5.349972e+001 4.313039e-001 -2.042322e-001 2.302558e-001 -2.211823e-001 -3.642927e-001 2.091122e-001 1.644529e-001 -2.041894e-001 -1.630931e-001 -2.337439e-003 -1.104590e-001 5.299491e-002 -3.589951e-001 7.942614e-002 -7.485273e-002 2.207773e-002 4.070762e-002 -2.806206e-002 1.254515e-003 6.005226e-003 -5.344320e-003 -2.112855e-002 2.883597e-002 2.218796e-002 3.751704e-002 -1.378208e-002
<VARIANCE> 39
 2.332822e+001 1.143344e+001 1.439775e+001 1.449820e+001 2.048654e+001 2.071051e+001 1.504555e+001 1.904380e+001 2.049020e+001 1.734562e+001 1.819890e+001 1.511824e+001 1.801923e+001 7.394695e-001 5.635961e-001 7.385018e-001 7.941893e-001 1.182071e+000 1.669920e+000 1.341911e+000 1.559894e+000 1.593431e+000 1.609989e+000 1.489133e+000 1.382739e+000 3.985015e-001 7.811160e-002 8.752576e-002 1.410209e-001 1.520951e-001 2.277811e-001 3.184695e-001 2.647789e-001 2.977253e-001 3.282220e-001 3.548283e-001 3.148511e-001 2.617609e-001 5.289625e-002
<GCONST> 8.787188e+001
<STATE> 4
<MEAN> 39
 -3.281255e+000 -2.917738e+000 -2.988777e-001 1.329089e-001 2.684854e+000 1.825516e+000 5.080788e+000 -8.913093e-001 3.264416e+000 3.457961e+000 4.431695e-001 1.831440e+000 4.919482e+001 3.757092e-002 8.473263e-003 -2.568458e-002 5.709397e-003 7.851371e-003 4.292041e-002 2.919582e-002 2.031791e-002 -1.707325e-002 1.244324e-003 -5.441194e-003 2.487415e-002 -3.746510e-002 -1.196335e-002 1.702817e-002 1.389480e-002 -9.906468e-004 3.576455e-002 -2.130085e-002 -1.519881e-002 1.820819e-002 -2.221044e-004 -6.803299e-003 3.095742e-003 -9.049265e-003 2.000375e-002
<VARIANCE> 39
 9.053259e+000 1.050025e+001 8.400784e+000 9.555821e+000 1.395880e+001 1.696596e+001 1.684665e+001 2.170449e+001 1.933636e+001 2.052794e+001 1.588398e+001 1.390679e+001 8.982880e+000 2.152551e-001 3.482817e-001 4.479481e-001 6.180504e-001 8.311261e-001 1.130251e+000 1.358975e+000 1.364606e+000 1.335079e+000 1.429567e+000 1.187562e+000 1.174396e+000 1.760481e-001 3.723600e-002 5.772344e-002 8.945592e-002 1.187451e-001 1.808879e-001 2.362739e-001 2.785554e-001 2.755784e-001 2.629846e-001 2.887537e-001 2.294038e-001 2.429992e-001 3.062084e-002
<GCONST> 7.612723e+001
<TRANSP> 5
 0.000000e+000 1.000000e+000 0.000000e+000 0.000000e+000 0.000000e+000
 0.000000e+000 7.854039e-001 2.145961e-001 0.000000e+000 0.000000e+000
 0.000000e+000 0.000000e+000 6.998083e-001 3.001917e-001 0.000000e+000
 0.000000e+000 0.000000e+000 0.000000e+000 9.107195e-001 8.928058e-002
 0.000000e+000 0.000000e+000 0.000000e+000 0.000000e+000 0.000000e+000
<ENDHMM>
~h "l"
<BEGINHMM>
<NUMSTATES> 5
<STATE> 2
<MEAN> 39
 -2.019230e+000 -2.389172e+000 6.778144e-001 -4.074921e+000 1.971783e+000 -3.346674e+000 6.644880e-001 -2.348071e+000 1.342081e+000 3.646708e+000 -3.444623e+000 1.480594e+000 5.673414e+001 2.522860e-001 -6.546211e-001 -4.775552e-001 -1.244603e+000 3.931973e-001 -1.757580e+000 -1.192442e+000 1.156175e+000 5.604370e-001 -3.045643e-001 -9.345341e-001 -5.288739e-001 2.613645e+000 2.362796e-001 -1.344609e-001 -1.556100e-003 -1.421661e-001 1.463984e-001 1.645199e-001 8.754810e-002 1.568665e-001 7.464992e-002 -7.829175e-002 -2.173537e-001 -4.538888e-001 1.603594e-001
<VARIANCE> 39
 2.758381e+001 1.753113e+001 3.708458e+001 3.505165e+001 2.363214e+001 5.161434e+001 4.882010e+001 4.960189e+001 4.613222e+001 3.352622e+001 3.376651e+001 1.878793e+001 6.269060e+001 2.822334e+000 1.445625e+000 2.657012e+000 3.713104e+000 2.157943e+000 4.534861e+000 3.288850e+000 3.809299e+000 4.079540e+000 3.242239e+000 4.699917e+000 3.506375e+000 5.261878e+000 3.967156e-001 3.075813e-001 5.322748e-001 5.248808e-001 4.751545e-001 1.124824e+000 7.997728e-001 6.912016e-001 7.211066e-001 6.129356e-001 8.343060e-001 6.520183e-001 1.039814e+000
<GCONST> 1.274265e+002
<STATE> 3
<MEAN> 39
 2.234631e+000 -6.282946e+000 -1.952892e+000 -1.051687e+001 6.747746e+000 -4.496660e+000 1.499741e-001 1.139568e+000 2.094043e+000 1.107035e+000 -7.974741e+000 -7.651216e+000 6.624212e+001 1.232948e+000 -5.103144e-001 -7.326528e-001 -1.608919e+000 7.122168e-001 1.149065e+000 4.499369e-001 -8.865091e-001 -7.518086e-001 -2.320523e-001 -5.783584e-001 -1.911101e+000 1.020798e+000 -2.387471e-001 1.725588e-001 -1.047705e-001 5.816557e-002 -1.864309e-001 3.685137e-001 9.304616e-002 -4.669548e-001 -2.006963e-001 6.082952e-002 3.812013e-001 4.566180e-001 -3.130451e-001
<VARIANCE> 39
 2.684546e+001 2.139825e+001 3.647138e+001 3.662101e+001 2.682595e+001 5.060190e+001 4.739396e+001 4.398284e+001 4.987474e+001 2.717978e+001 5.139705e+001 4.538279e+001 1.117879e+001 2.418787e+000 2.837033e+000 1.921118e+000 2.385082e+000 2.584110e+000 3.850150e+000 3.092440e+000 4.562391e+000 5.052859e+000 3.030383e+000 3.820518e+000 4.462387e+000 1.350831e+000 5.491462e-001 4.088531e-001 2.968032e-001 4.686197e-001 3.868482e-001 8.987706e-001 6.343354e-001 9.334344e-001 8.860185e-001 5.285734e-001 7.672930e-001 7.419149e-001 3.380424e-001
<GCONST> 1.242685e+002
<STATE> 4
<MEAN> 39
 5.264436e+000 -5.263488e+000 -1.865432e+000 -1.635876e+001 4.161908e+000 -3.980759e+000 1.798858e-001 -3.536734e+000 -2.783426e+000 9.244843e-002 -8.936411e+000 -5.898875e+000 6.756487e+001 -1.345409e-002 3.183247e-001 2.386866e-001 4.356338e-002 -2.745165e-001 -9.318495e-002 -4.457470e-002 -1.883240e-001 -1.673636e-001 -9.144349e-002 1.998294e-001 3.822641e-001 -2.473712e-001 -4.066958e-002 4.233634e-002 5.182297e-002 1.436774e-001 -1.865807e-002 -3.164274e-002 1.008991e-002 6.649309e-002 3.203271e-002 -2.270110e-003 3.215345e-002 2.845605e-002 -6.612418e-002
<VARIANCE> 39
 5.755982e+000 3.948784e+001 6.053959e+001 4.178975e+001 3.715475e+001 8.510670e+001 3.848332e+001 3.751596e+001 3.857071e+001 3.979711e+001 3.269450e+001 4.097009e+001 1.445740e+001 2.235411e-001 8.559493e-001 1.342381e+000 1.420546e+000 1.404155e+000 2.600965e+000 1.738171e+000 1.939481e+000 1.524845e+000 1.657553e+000 1.470479e+000 1.449962e+000 3.424383e-001 5.392765e-002 1.128174e-001 1.323102e-001 1.946020e-001 1.846693e-001 2.996200e-001 2.578993e-001 3.121097e-001 2.462082e-001 2.472528e-001 2.203326e-001 2.227771e-001 4.242974e-002
<GCONST> 9.644741e+001
<TRANSP> 5
 0.000000e+000 1.000000e+000 0.000000e+000 0.000000e+000 0.000000e+000
 0.000000e+000 7.453139e-001 2.546860e-001 0.000000e+000 0.000000e+000
 0.000000e+000 0.000000e+000 7.295400e-001 2.704600e-001 0.000000e+000
 0.000000e+000 0.000000e+000 0.000000e+000 9.359837e-001 6.401628e-002
 0.000000e+000 0.000000e+000 0.000000e+000 0.000000e+000 0.000000e+000
<ENDHMM>
~h "n"
<BEGINHMM>
<NUMSTATES> 5
<STATE> 2
<MEAN> 39
 3.997366e+000 -2.812681e+000 5.333433e+000 -7.263366e+000 -4.155626e+000 -7.570879e+000 3.451427e+000 -1.781579e+000 -5.537198e+000 -3.040698e+000 -5.758369e+000 -2.561661e+000 6.053868e+001 1.374210e-001 1.216396e+000 1.175987e+000 4.854131e-001 -4.684058e-001 -2.588613e-001 -5.609351e-001 -7.776006e-001 -6.742682e-001 1.046358e+000 -1.547246e-001 3.090659e-001 -8.148146e-001 -1.108503e-002 1.138303e-001 -1.600094e-001 9.129576e-002 2.733543e-001 1.426332e-001 -2.751723e-001 -3.680940e-001 1.708973e-001 1.918440e-001 -1.991684e-001 -1.823584e-001 -2.836583e-002
<VARIANCE> 39
 1.661659e+001 3.070660e+001 3.212573e+001 4.129737e+001 2.753378e+001 5.110770e+001 3.932050e+001 3.949691e+001 2.979407e+001 4.836658e+001 2.514918e+001 3.881814e+001 4.015191e+001 9.422922e-001 1.639818e+000 2.739450e+000 2.120471e+000 2.368469e+000 2.441266e+000 2.872671e+000 2.667387e+000 2.717849e+000 2.124760e+000 4.278225e+000 2.914300e+000 1.503294e+000 1.231433e-001 2.422774e-001 3.459783e-001 3.147159e-001 4.208594e-001 4.463334e-001 4.906999e-001 4.677314e-001 3.564939e-001 4.212833e-001 4.063766e-001 4.335312e-001 1.785123e-001
<GCONST> 1.139906e+002
<STATE> 3
<MEAN> 39
 5.480534e+000 5.827277e-001 7.576627e+000 -7.165422e+000 -3.882156e+000 -9.007034e+000 -1.468601e-001 -5.481248e+000 -7.813622e+000 5.243930e-001 -7.464530e+000 -2.982929e+000 5.965578e+001 4.554880e-002 9.088865e-001 -9.271611e-002 9.587688e-001 4.705309e-001 2.129212e-001 -4.893619e-001 -1.470583e+000 2.431827e-001 9.033161e-001 -8.170518e-001 -4.106355e-001 -7.199624e-001 -9.719183e-002 -2.046950e-001 -2.733689e-001 9.807531e-002 1.024418e-001 1.896159e-001 2.098352e-001 -8.019773e-003 3.880157e-001 -1.214207e-001 -4.946744e-002 -9.749909e-002 7.166226e-002
<VARIANCE> 39
 8.980309e+000 2.029246e+001 4.273101e+001 3.842344e+001 2.646871e+001 4.627064e+001 2.852549e+001 4.748274e+001 2.873673e+001 4.463069e+001 3.221000e+001 4.777684e+001 2.124156e+001 5.381259e-001 2.611512e+000 2.999147e+000 3.076975e+000 2.011638e+000 3.148346e+000 3.341348e+000 6.036503e+000 2.603508e+000 3.074901e+000 3.806657e+000 2.723271e+000 1.547735e+000 1.128175e-001 2.364511e-001 3.965171e-001 3.689198e-001 3.668501e-001 4.197794e-001 4.780862e-001 8.521444e-001 4.296353e-001 3.835416e-001 4.498777e-001 4.829588e-001 1.004816e-001
<GCONST> 1.144847e+002
<STATE> 4
<MEAN> 39
 5.989618e+000 3.772514e+000 6.845023e+000 -3.522824e+000 -3.125260e+000 -6.727406e+000 -1.069337e+000 -1.236437e+001 -6.702757e+000 6.500667e+000 -1.429018e+001 -5.743381e+000 5.710208e+001 -3.339621e-001 3.253449e-002 1.206083e-003 5.454996e-001 3.074730e-001 3.976514e-001 1.800058e-001 -5.395328e-002 5.325646e-001 4.406945e-002 3.090094e-002 1.426481e-001 -3.626779e-001 -1.066837e-001 -1.521753e-001 -1.478258e-001 -1.330073e-001 1.021569e-001 1.342784e-001 2.904486e-002 3.466230e-001 4.004205e-002 -1.929591e-001 3.180185e-001 6.774838e-002 5.521348e-002
<VARIANCE> 39
 7.352802e+000 8.572958e+000 1.468835e+001 3.851026e+001 2.020264e+001 3.246458e+001 3.380734e+001 3.676051e+001 2.499473e+001 4.266918e+001 5.070079e+001 2.312867e+001 1.769526e+001 4.838641e-001 7.261323e-001 1.244527e+000 1.349930e+000 1.373460e+000 2.319729e+000 1.946977e+000 2.780264e+000 1.419016e+000 2.196438e+000 3.045909e+000 1.530326e+000 4.741248e-001 9.610492e-002 1.165565e-001 1.789940e-001 2.130331e-001 2.464864e-001 2.867431e-001 3.457041e-001 4.003149e-001 2.707697e-001 3.768911e-001 3.994368e-001 2.692354e-001 5.834745e-002
<GCONST> 9.719343e+001
<TRANSP> 5
 0.000000e+000 1.000000e+000 0.000000e+000 0.000000e+000 0.000000e+000
 0.000000e+000 5.692245e-001 4.307755e-001 0.000000e+000 0.000000e+000
 0.000000e+000 0.000000e+000 5.670614e-001 4.329386e-001 0.000000e+000
 0.000000e+000 0.000000e+000 0.000000e+000 8.596114e-001 1.403886e-001
 0.000000e+000 0.000000e+000 0.000000e+000 0.000000e+000 0.000000e+000
<ENDHMM>
~h "r"
<BEGINHMM>
<NUMSTATES> 5
<STATE> 2
<MEAN> 39
 1.039331e+001 -5.665383e+000 -9.986641e-001 -1.426535e-001 -1.013478e+001 -6.360414e+000 -1.286698e+000 -9.501890e+000 -1.112438e+000 5.622652e+000 -1.143725e+000 -6.749044e+000 6.192248e+001 9.459342e-001 -5.168102e-001 -4.465135e-001 4.978574e-001 -1.077478e+000 -5.359623e-001 9.067375e-001 -6.637235e-001 -1.507201e+000 2.328551e-001 5.500016e-001 4.525717e-001 -3.223872e-001 -4.645714e-001 3.259246e-001 9.413273e-002 -5.371760e-001 7.058775e-001 5.545788e-002 -1.767442e-001 6.627080e-001 2.775082e-001 -4.204500e-001 -1.121409e-001 2.818166e-001 4.425515e-002
<VARIANCE> 39
 9.860631e+000 8.381677e+000 4.494091e+001 2.336372e+001 2.358397e+001 4.636591e+001 2.548072e+001 2.498212e+001 1.852446e+001 1.304833e+001 2.766739e+001 1.168341e+001 8.128171e+000 8.193200e-001 1.387249e+000 1.659662e+000 4.318303e+000 1.769524e+000 3.128477e+000 1.285429e+000 1.578409e+000 1.490989e+000 1.211826e+000 1.700421e+000 1.552566e+000 2.242895e-001 1.919006e-001 1.240008e-001 2.464773e-001 2.985303e-001 3.237858e-001 2.874167e-001 3.125317e-001 3.700337e-001 2.846770e-001 2.476243e-001 3.474565e-001 2.184707e-001 4.114534e-002
<GCONST> 9.514647e+001
<STATE> 3
<MEAN> 39
 1.188266e+001 -6.889869e+000 -1.182688e+000 -1.585560e+000 -1.058447e+001 -7.835914e+000 -1.933883e+000 -9.211082e+000 -2.460783e+000 5.616303e+000 -6.435091e-001 -4.819495e+000 6.207991e+001 -2.275287e-001 -1.220166e-001 9.466900e-001 -1.459747e+000 -2.446431e-001 -6.981200e-003 -2.918844e-001 6.351821e-001 1.948525e-001 -6.338083e-001 -5.305340e-001 9.814307e-001 2.364165e-001 -3.253415e-001 1.062085e-001 4.151940e-001 -3.847254e-001 2.065854e-001 -1.510195e-001 -1.881967e-001 5.184387e-001 1.849604e-001 -3.760919e-001 -1.559542e-001 1.611356e-001 1.120554e-001
<VARIANCE> 39
 5.328978e+000 1.027947e+001 2.833708e+001 2.663820e+001 1.640920e+001 5.872339e+001 3.135732e+001 2.646983e+001 1.755010e+001 1.265602e+001 2.204101e+001 1.197574e+001 5.445556e+000 3.257371e-001 9.085083e-001 9.878750e-001 1.201990e+000 7.938309e-001 1.513073e+000 9.521875e-001 1.579762e+000 1.480768e+000 1.126228e+000 1.321404e+000 1.191551e+000 3.259536e-001 3.958302e-002 6.611034e-002 1.324932e-001 1.714818e-001 1.732778e-001 2.245627e-001 2.967733e-001 2.260874e-001 3.449882e-001 1.730499e-001 2.769481e-001 2.331617e-001 2.214522e-002
<GCONST> 8.291615e+001
<STATE> 4
<MEAN> 39
 9.858502e+000 -4.380725e+000 2.586474e-001 -9.948791e+000 -1.196105e+001 -3.542782e+000 -5.873411e-001 -6.759454e+000 -1.632417e+000 -5.070015e-001 -1.711830e+000 -1.342621e+000 6.226645e+001 -7.575628e-001 7.032066e-001 1.378140e+000 -1.797165e+000 6.226569e-001 -7.575663e-001 -3.237299e-001 1.986986e+000 -7.056651e-001 -1.532556e+000 -3.756633e-002 1.070801e+000 5.613225e-003 -9.229969e-002 8.859029e-002 -5.412436e-002 2.867825e-001 1.817050e-001 -2.832865e-001 9.995108e-002 -9.338681e-003 -3.222149e-001 1.865100e-001 2.596001e-001 -2.097554e-001 -3.196140e-002
<VARIANCE> 39
 5.931763e+000 3.576296e+001 6.058616e+001 4.367672e+001 1.955149e+001 1.395892e+002 3.838873e+001 5.624981e+001 2.930768e+001 2.728694e+001 2.489383e+001 1.535863e+001 1.098615e+001 3.451437e-001 7.982713e-001 8.245239e-001 1.347347e+000 1.656145e+000 2.117276e+000 2.140130e+000 1.647152e+000 1.972806e+000 1.490213e+000 1.712909e+000 1.651121e+000 5.519362e-001 2.646242e-002 1.184789e-001 8.101296e-002 1.696465e-001 2.011993e-001 2.300882e-001 3.757372e-001 4.844195e-001 3.061033e-001 2.427666e-001 2.123021e-001 2.816153e-001 3.019567e-002
<GCONST> 9.464101e+001
<TRANSP> 5
 0.000000e+000 1.000000e+000 0.000000e+000 0.000000e+000 0.000000e+000
 0.000000e+000 5.171931e-001 4.828070e-001 0.000000e+000 0.000000e+000
 0.000000e+000 0.000000e+000 6.551626e-001 3.448374e-001 0.000000e+000
 0.000000e+000 0.000000e+000 0.000000e+000 5.942492e-001 4.057508e-001
 0.000000e+000 0.000000e+000 0.000000e+000 0.000000e+000 0.000000e+000
<ENDHMM>
~h "s"
<BEGINHMM>
<NUMSTATES> 5
<STATE> 2
<MEAN> 39
 -2.317464e+000 1.897629e+000 3.221653e-001 -2.661520e+000 4.736095e+000 -1.676352e+000 2.444276e+000 -2.455194e+000 -6.747231e-001 1.037402e+000 -2.802367e+000 -2.182123e+000 5.691115e+001 -2.264705e+000 2.078415e-001 -4.682645e-001 1.044340e+000 1.358407e+000 1.257402e-001 4.546261e-002 1.656714e+000 9.297743e-001 -3.290385e-001 1.346395e+000 5.543844e-002 3.196306e-001 -3.368840e-001 -6.526475e-002 -1.191599e-001 -9.715107e-002 -1.748330e-001 -1.817411e-001 -4.560110e-002 1.252472e-001 7.022177e-002 4.010446e-002 6.732659e-002 1.535297e-001 1.682836e-001
<VARIANCE> 39
 4.412626e+001 1.522236e+001 2.255503e+001 4.837780e+001 3.913008e+001 3.368627e+001 3.016935e+001 3.287501e+001 3.154889e+001 3.364007e+001 3.161832e+001 2.249458e+001 3.770000e+001 4.252120e+000 1.494006e+000 2.180659e+000 4.365794e+000 3.007637e+000 3.714920e+000 2.565257e+000 3.295780e+000 2.785197e+000 2.810414e+000 3.752621e+000 2.392508e+000 1.377210e+000 4.830287e-001 2.489183e-001 2.875864e-001 5.501751e-001 4.563619e-001 5.537145e-001 4.604557e-001 6.079004e-001 4.554508e-001 5.015126e-001 4.657612e-001 4.379642e-001 1.323316e-001
<GCONST> 1.179529e+002
<STATE> 3
<MEAN> 39
 -1.445225e+001 3.362698e+000 -3.432699e+000 4.546085e-001 6.940784e+000 -2.461875e+000 3.978210e+000 3.824726e+000 3.659614e+000 6.899533e-001 2.151119e+000 6.011212e-001 5.948933e+001 -5.004433e-001 1.031339e-001 -2.242430e-001 3.399940e-004 -1.780731e-001 -1.850534e-001 1.132760e-001 1.838675e-001 2.223125e-001 -3.262763e-002 5.176929e-002 2.327911e-001 8.691113e-002 4.697603e-001 -3.221079e-002 1.301846e-001 -1.536280e-001 -1.894508e-001 -7.007021e-002 -8.576941e-002 -2.433754e-001 -1.601444e-001 -3.190569e-002 -2.610830e-001 -1.200392e-001 -5.678849e-002
<VARIANCE> 39
 9.683860e+000 1.002707e+001 1.275574e+001 1.679087e+001 3.522396e+001 1.718994e+001 2.268570e+001 1.909034e+001 1.823556e+001 1.942454e+001 1.547286e+001 1.900454e+001 1.583384e+001 2.368361e+000 8.195848e-001 1.297147e+000 1.465989e+000 1.537976e+000 1.793992e+000 1.774954e+000 2.107347e+000 1.912570e+000 1.873578e+000 1.926324e+000 1.970838e+000 6.174518e-001 2.586747e-001 1.437685e-001 1.949102e-001 3.063421e-001 3.490666e-001 3.597539e-001 3.505209e-001 4.168127e-001 3.654428e-001 3.826552e-001 3.885374e-001 3.701943e-001 9.732875e-002
<GCONST> 9.783655e+001
<STATE> 4
<MEAN> 39
 -1.146081e+001 3.308617e+000 -2.904627e+000 -1.204694e+000 3.860088e+000 -4.802249e+000 1.890298e+000 2.026973e+000 2.445752e+000 -7.082434e-001 -4.557792e-001 -8.096535e-001 6.002576e+001 1.567214e+000 -3.478847e-001 4.406302e-001 -7.128240e-001 -6.041212e-001 -6.777397e-001 -3.949845e-001 -2.758539e-001 -1.777929e-001 -2.235474e-002 -9.166322e-001 -3.334770e-001 1.603731e-001 2.245390e-001 -1.951541e-001 7.364187e-002 -8.174119e-002 -3.033964e-002 3.953326e-003 3.172475e-002 7.663099e-002 4.747093e-002 1.031219e-001 -4.841504e-002 2.946539e-002 7.337412e-002
<VARIANCE> 39
 4.717717e+001 1.417282e+001 1.757266e+001 2.176306e+001 2.964371e+001 2.607546e+001 2.432561e+001 2.381478e+001 1.829603e+001 1.862852e+001 2.532697e+001 2.066568e+001 2.070202e+001 4.998995e+000 1.174368e+000 1.287062e+000 1.942729e+000 2.182997e+000 3.783121e+000 2.211727e+000 2.064920e+000 1.842120e+000 1.869401e+000 2.870771e+000 1.658272e+000 1.624067e+000 5.583223e-001 1.576942e-001 2.386137e-001 2.963471e-001 3.152315e-001 4.725605e-001 3.691064e-001 4.649203e-001 3.374102e-001 3.234605e-001 3.880036e-001 3.001390e-001 1.684618e-001
<GCONST> 1.069693e+002
<TRANSP> 5
 0.000000e+000 1.000000e+000 0.000000e+000 0.000000e+000 0.000000e+000
 0.000000e+000 6.838425e-001 3.161575e-001 0.000000e+000 0.000000e+000
 0.000000e+000 0.000000e+000 8.464903e-001 1.535097e-001 0.000000e+000
 0.000000e+000 0.000000e+000 0.000000e+000 7.145596e-001 2.854404e-001
 0.000000e+000 0.000000e+000 0.000000e+000 0.000000e+000 0.000000e+000
<ENDHMM>
~h "t"
<BEGINHMM>
<NUMSTATES> 5
<STATE> 2
<MEAN> 39
 -1.139063e+000 3.118688e-001 2.740632e+000 -1.611412e+000 1.608152e+000 -1.771255e+000 2.987221e+000 -2.387942e+000 -2.232902e-001 1.505180e-001 -4.127028e+000 8.035073e-002 5.297781e+001 -9.660665e-001 -1.310348e-001 5.308637e-002 5.938321e-001 1.205301e-001 1.237126e+000 3.372724e-002 4.805940e-002 6.017761e-001 3.335329e-001 1.082573e+000 3.816239e-001 -1.134110e+000 -2.265595e-001 -3.036062e-001 -1.278551e-001 -4.638729e-001 -7.747649e-002 -6.251906e-002 -8.648261e-002 1.887271e-001 -1.680399e-002 -1.468226e-001 1.431693e-001 2.905807e-002 5.727248e-001
<VARIANCE> 39
 2.273977e+001 1.341313e+001 1.591189e+001 2.939842e+001 1.841397e+001 5.780264e+001 3.205415e+001 3.467315e+001 2.694818e+001 2.856544e+001 3.706133e+001 1.784604e+001 5.125464e+001 2.255985e+000 3.123916e+000 1.967417e+000 4.671168e+000 2.295183e+000 3.897230e+000 3.689944e+000 3.156967e+000 2.759733e+000 2.486432e+000 2.830847e+000 1.917006e+000 4.984575e+000 4.063168e-001 2.988450e-001 3.273059e-001 6.004492e-001 4.132544e-001 9.683221e-001 7.678009e-001 6.327713e-001 4.904794e-001 4.440285e-001 5.179856e-001 3.930156e-001 9.481148e-001
<GCONST> 1.201048e+002
<STATE> 3
<MEAN> 39
 -8.817931e+000 -4.325227e+000 1.856528e+000 -7.782883e+000 7.630227e-002 7.479327e-001 8.859278e-002 1.716671e+000 2.421076e+000 -3.005988e-001 2.414805e+000 3.091525e+000 5.879266e+001 -1.922573e+000 3.192468e-001 4.190097e-001 -1.062561e+000 -1.690390e-001 -7.501333e-001 -1.030123e+000 1.683808e+000 5.233967e-001 -8.363622e-001 6.601747e-001 5.925364e-001 2.848064e+000 3.093345e-001 5.599893e-001 3.954175e-001 8.466175e-001 2.793325e-001 -9.683390e-002 2.383718e-001 -9.199111e-003 8.057672e-002 -5.510530e-002 -4.732852e-001 -1.290060e-001 -3.270914e-001
<VARIANCE> 39
 2.364948e+001 2.692189e+001 1.746891e+001 2.555611e+001 2.844114e+001 2.937117e+001 2.482610e+001 2.134811e+001 1.964514e+001 2.107806e+001 1.536635e+001 1.510086e+001 3.810701e+001 2.779365e+000 3.663367e+000 2.622344e+000 5.064444e+000 3.247157e+000 3.186145e+000 2.981952e+000 3.141517e+000 2.969332e+000 2.338030e+000 2.430198e+000 1.744813e+000 3.946139e+000 8.120682e-001 6.977476e-001 4.529613e-001 9.142212e-001 7.502435e-001 5.737907e-001 5.193519e-001 5.661476e-001 3.872142e-001 5.092671e-001 3.553321e-001 3.967782e-001 9.878533e-001
<GCONST> 1.194732e+002
<STATE> 4
<MEAN> 39
 -1.140474e+001 -9.112145e-001 5.260050e+000 -4.024614e+000 2.066451e+000 1.163505e+000 -4.933627e-001 5.209326e+000 5.208631e+000 -1.905288e+000 1.347244e+000 3.625173e+000 5.995145e+001 1.109522e+000 1.289832e-001 5.128508e-001 1.181822e+000 2.688932e-001 -7.469933e-002 -1.444097e-002 -2.463864e-001 2.451766e-001 9.831780e-002 -6.047007e-001 -3.460390e-001 -3.925179e-001 4.309243e-001 -1.295062e-001 -2.165169e-001 2.653932e-003 -1.573716e-002 2.564836e-002 2.090268e-002 -3.908995e-001 -1.703429e-001 1.564005e-001 -9.187970e-002 -2.089443e-001 -3.135003e-001
<VARIANCE> 39
 3.635272e+001 1.169954e+001 2.616402e+001 3.533742e+001 2.278036e+001 3.573289e+001 2.476987e+001 3.136989e+001 3.893361e+001 2.257097e+001 2.225340e+001 2.421655e+001 3.176599e+001 2.853067e+000 1.739114e+000 2.759634e+000 3.751735e+000 2.731122e+000 2.676367e+000 2.196439e+000 2.695738e+000 2.752314e+000 2.123012e+000 1.870373e+000 2.222487e+000 1.314666e+000 5.773612e-001 2.586065e-001 3.207053e-001 4.541559e-001 3.534254e-001 4.497303e-001 4.586599e-001 6.526949e-001 5.419672e-001 4.140276e-001 3.300566e-001 4.277863e-001 2.351203e-001
<GCONST> 1.138404e+002
<TRANSP> 5
 0.000000e+000 1.000000e+000 0.000000e+000 0.000000e+000 0.000000e+000
 0.000000e+000 8.419274e-001 1.580726e-001 0.000000e+000 0.000000e+000
 0.000000e+000 0.000000e+000 7.163546e-001 2.836454e-001 0.000000e+000
 0.000000e+000 0.000000e+000 0.000000e+000 7.878712e-001 2.121288e-001
 0.000000e+000 0.000000e+000 0.000000e+000 0.000000e+000 0.000000e+000
<ENDHMM>
~h "v"
<BEGINHMM>
<NUMSTATES> 5
<STATE> 2
<MEAN> 39
 4.489834e-001 -3.202527e+000 -1.546070e+000 -3.402586e+000 7.063713e-001 -2.331709e+000 -1.302246e+000 -1.256619e+000 1.064197e+000 1.223135e+000 -2.500405e+000 -4.766734e+000 6.060471e+001 1.181264e+000 5.080165e-001 -6.795483e-001 -1.018742e+000 -8.261058e-002 6.549497e-001 -4.720124e-001 -9.004310e-001 -3.526791e-001 3.347047e-001 -1.036496e-001 -1.203865e+000 1.103824e-001 -8.844501e-002 -1.614912e-001 -1.285617e-001 -1.582814e-001 5.086352e-002 6.673077e-002 9.874788e-002 1.374654e-002 -9.449236e-003 -7.509922e-002 -1.053983e-001 -1.120640e-001 2.403530e-001
<VARIANCE> 39
 6.981803e+001 1.876530e+001 2.782803e+001 5.125295e+001 2.832795e+001 5.892485e+001 2.242363e+001 3.029405e+001 2.034360e+001 1.971965e+001 2.210478e+001 3.823199e+001 1.781778e+001 5.836390e+000 2.012701e+000 2.447002e+000 5.435682e+000 2.385592e+000 2.547629e+000 2.075374e+000 2.745422e+000 2.005834e+000 1.933394e+000 1.985183e+000 4.077565e+000 2.111989e+000 9.854937e-001 4.033200e-001 3.267325e-001 6.734768e-001 4.154950e-001 5.090830e-001 3.968931e-001 5.456938e-001 3.870835e-001 3.582375e-001 3.446818e-001 6.844786e-001 2.109174e-001
<GCONST> 1.179675e+002
<STATE> 3
<MEAN> 39
 6.069113e+000 -3.717500e+000 -8.038599e-001 -9.687246e+000 -1.767152e+000 -5.402279e+000 -4.242537e+000 -3.928646e+000 -4.781854e-001 1.865949e+000 -4.582057e+000 -7.774770e+000 6.398566e+001 -3.797126e-001 -2.839413e-001 -2.381173e-001 -8.599258e-002 3.887704e-001 3.076972e-001 2.425766e-001 3.611054e-002 -4.988367e-002 -1.970572e-001 -3.566526e-001 -3.246032e-001 3.220561e-001 -1.564877e-001 -1.583636e-002 1.974976e-001 2.445250e-001 9.322122e-002 -1.450685e-001 1.518394e-001 1.272056e-001 -7.163963e-002 -1.235061e-001 -8.438146e-002 2.611839e-001 -1.121477e-001
<VARIANCE> 39
 1.223377e+001 1.804925e+001 6.928703e+001 3.079695e+001 1.698501e+001 8.121765e+001 1.876420e+001 2.719149e+001 3.275608e+001 2.126625e+001 1.918909e+001 5.976650e+001 1.581241e+001 6.022581e-001 1.488856e+000 8.083394e-001 1.282207e+000 1.000479e+000 1.862941e+000 1.207923e+000 2.539070e+000 1.620125e+000 1.637167e+000 1.981056e+000 1.434021e+000 9.249780e-001 1.563289e-001 1.960537e-001 1.673538e-001 3.063197e-001 1.727898e-001 3.048099e-001 2.088367e-001 3.601164e-001 2.882164e-001 2.654753e-001 3.007810e-001 2.967203e-001 1.508854e-001
<GCONST> 9.930293e+001
<STATE> 4
<MEAN> 39
 4.507895e+000 -6.865335e+000 -5.469216e+000 -7.807905e+000 2.571671e+000 -1.310584e+000 3.757607e-001 -4.379485e+000 3.656556e-002 -2.591893e+000 -7.221543e+000 -1.047784e+001 6.422055e+001 -1.335139e-002 1.655002e-001 4.349573e-001 4.444348e-001 -5.220070e-002 -2.685381e-001 9.060167e-002 -1.969745e-002 -1.505692e-001 -4.055099e-003 -5.280931e-002 2.604969e-001 -3.647183e-001 1.055009e-002 1.017885e-001 5.498433e-002 3.537542e-002 -5.119337e-002 -3.515187e-003 -1.674993e-002 -4.499540e-002 -2.822108e-002 9.840024e-002 2.226716e-002 4.567355e-002 -7.529260e-002
<VARIANCE> 39
 1.192011e+001 2.285689e+001 3.271104e+001 3.067628e+001 2.298315e+001 3.878411e+001 1.922433e+001 1.908667e+001 1.858023e+001 2.992898e+001 1.928867e+001 2.882109e+001 2.258962e+001 4.950373e-001 8.539103e-001 4.694274e-001 6.592180e-001 1.084399e+000 1.114105e+000 1.061077e+000 1.176998e+000 1.302681e+000 1.645324e+000 9.971705e-001 8.910818e-001 4.530856e-001 8.684358e-002 9.566459e-002 7.955287e-002 1.094347e-001 1.399872e-001 1.630468e-001 1.626772e-001 2.292475e-001 1.745567e-001 2.297576e-001 1.512907e-001 1.617681e-001 5.785202e-002
<GCONST> 8.450330e+001
<TRANSP> 5
 0.000000e+000 1.000000e+000 0.000000e+000 0.000000e+000 0.000000e+000
 0.000000e+000 7.541399e-001 2.458600e-001 0.000000e+000 0.000000e+000
 0.000000e+000 0.000000e+000 7.170426e-001 2.829575e-001 0.000000e+000
 0.000000e+000 0.000000e+000 0.000000e+000 8.942850e-001 1.057150e-001
 0.000000e+000 0.000000e+000 0.000000e+000 0.000000e+000 0.000000e+000
<ENDHMM>
~h "w"
<BEGINHMM>
<NUMSTATES> 5
<STATE> 2
<MEAN> 39
 3.847406e+000 5.049995e-001 1.673889e+000 -4.851044e+000 -2.374702e+000 -1.389337e+000 3.157329e-002 -3.095939e+000 -7.671306e-001 1.081549e+000 -2.972849e+000 -1.958974e+000 5.544920e+001 1.333671e+000 8.033146e-001 -8.391564e-001 -1.660454e+000 -7.873943e-001 5.782859e-001 -5.074369e-001 -8.369564e-001 -8.702757e-001 -2.884460e-001 1.832997e-001 -4.665122e-001 3.434358e-001 6.245731e-002 9.586381e-002 -8.640382e-002 -4.431775e-001 -2.108653e-001 8.852723e-002 4.258562e-002 -2.476473e-003 -2.068300e-001 -1.631780e-001 1.822048e-001 -7.704914e-003 1.899414e-001
<VARIANCE> 39
 2.774627e+001 2.766568e+001 2.704537e+001 5.535399e+001 4.477705e+001 7.756723e+001 3.046815e+001 3.157841e+001 5.176561e+001 3.245268e+001 2.919589e+001 2.176809e+001 5.293079e+001 2.510331e+000 1.781755e+000 2.293683e+000 5.276552e+000 4.607950e+000 3.580046e+000 3.084339e+000 3.507293e+000 3.446657e+000 4.177039e+000 2.845307e+000 1.999868e+000 2.381564e+000 3.516401e-001 2.819050e-001 3.210937e-001 7.051754e-001 6.610894e-001 4.347365e-001 6.053992e-001 5.122378e-001 5.931297e-001 7.183306e-001 5.008575e-001 3.620434e-001 2.140041e-001
<GCONST> 1.226363e+002
<STATE> 3
<MEAN> 39
 9.433830e+000 3.472971e+000 -1.329942e+000 -1.293115e+001 -6.762636e+000 -2.885759e-001 -2.057449e+000 -7.593192e+000 -5.594154e+000 -1.779285e-001 -1.770984e+000 -4.455555e+000 5.896837e+001 4.627655e-001 4.309886e-001 -5.611255e-001 -1.527600e+000 -5.290332e-001 9.487457e-001 2.207802e-001 3.875273e-002 -7.906961e-001 -8.650603e-001 6.051931e-001 -1.075652e-001 2.788992e-001 -2.653056e-001 -3.008904e-001 1.435248e-001 2.467936e-001 2.183491e-001 -1.394855e-001 5.222253e-002 3.561311e-001 2.602170e-001 -3.898313e-005 -1.207853e-001 -8.145963e-002 6.835043e-002
<VARIANCE> 39
 5.122575e+000 2.714956e+001 1.744791e+001 4.862207e+001 2.413706e+001 2.345459e+001 1.984775e+001 2.664687e+001 2.923859e+001 3.268636e+001 2.840984e+001 3.678195e+001 1.958674e+001 6.239470e-001 1.808019e+000 1.382972e+000 2.587328e+000 1.827460e+000 2.533107e+000 2.513856e+000 2.668031e+000 2.441328e+000 3.103521e+000 3.080285e+000 2.382855e+000 1.510225e+000 1.751055e-001 1.861061e-001 2.489730e-001 3.762307e-001 4.330725e-001 4.104304e-001 4.199910e-001 4.899119e-001 4.162017e-001 5.843589e-001 5.552655e-001 4.821580e-001 1.198229e-001
<GCONST> 1.080622e+002
<STATE> 4
<MEAN> 39
 1.023609e+001 5.552344e+000 -3.002867e+000 -1.865313e+001 -8.455733e+000 3.027366e+000 -3.350211e-001 -4.118185e+000 -4.328022e+000 -6.107451e+000 -5.369413e-002 -5.160972e+000 5.922719e+001 -4.913457e-002 -3.759014e-001 -4.861810e-001 -5.339857e-001 1.507444e-001 4.834535e-001 -1.240052e-001 5.039787e-002 3.515263e-001 -1.729307e-003 4.715783e-001 -4.833460e-001 4.606928e-001 -1.308960e-001 -1.690716e-001 -5.430666e-002 1.451961e-001 2.083820e-001 1.641839e-002 -5.169583e-002 -1.049587e-001 1.237624e-001 1.767548e-001 -8.264583e-002 -1.428250e-001 8.877917e-002
<VARIANCE> 39
 4.630354e+000 8.314226e+000 1.742021e+001 4.986589e+001 1.594053e+001 1.958464e+001 2.053241e+001 2.085298e+001 2.292235e+001 2.131444e+001 2.699748e+001 1.721732e+001 1.606182e+001 2.999983e-001 9.311460e-001 9.746898e-001 1.230092e+000 1.063153e+000 1.259632e+000 1.042371e+000 1.208079e+000 1.019456e+000 1.500302e+000 1.804457e+000 1.580119e+000 7.633272e-001 5.143642e-002 5.915593e-002 8.221633e-002 2.062147e-001 1.358029e-001 1.743422e-001 1.683306e-001 1.875064e-001 1.794544e-001 2.043759e-001 3.788844e-001 2.562895e-001 4.318222e-002
<GCONST> 8.378765e+001
<TRANSP> 5
 0.000000e+000 1.000000e+000 0.000000e+000 0.000000e+000 0.000000e+000
 0.000000e+000 7.226496e-001 2.773504e-001 0.000000e+000 0.000000e+000
 0.000000e+000 0.000000e+000 6.782976e-001 3.217024e-001 0.000000e+000
 0.000000e+000 0.000000e+000 0.000000e+000 8.470685e-001 1.529315e-001
 0.000000e+000 0.000000e+000 0.000000e+000 0.000000e+000 0.000000e+000
<ENDHMM>
~h "y"
<BEGINHMM>
<NUMSTATES> 5
<STATE> 2
<MEAN> 39
 3.447789e-001 2.069346e+000 1.366563e+001 -4.554658e+000 -1.373811e+000 -9.357250e+000 -6.042333e+000 -6.127918e+000 -8.014297e+000 -1.500095e-002 -3.468530e+000 1.777021e-001 6.192999e+001 -3.164787e-001 4.185111e-001 2.228274e+000 -6.282687e-001 -3.228556e-001 -5.654903e-001 -2.509685e-002 2.590162e-001 -1.107792e+000 -8.954075e-001 -2.419051e-001 9.040599e-001 1.004705e-001 3.310999e-003 9.993276e-002 -4.227701e-003 -2.186833e-001 6.333127e-002 9.012853e-002 -4.804374e-002 6.371824e-002 1.248547e-002 -1.403535e-001 -5.631348e-002 1.017638e-001 -3.272490e-002
<VARIANCE> 39
 1.874944e+001 2.226269e+001 5.809118e+001 3.181557e+001 2.594728e+001 3.288876e+001 2.187511e+001 1.818147e+001 4.938479e+001 4.488608e+001 2.282520e+001 1.692924e+001 1.563758e+001 1.039694e+000 1.551735e+000 2.728960e+000 2.546291e+000 2.283659e+000 2.673410e+000 2.114347e+000 2.164926e+000 2.630729e+000 2.373758e+000 2.329205e+000 1.947137e+000 4.585842e-001 1.583515e-001 3.394235e-001 6.659533e-001 3.505783e-001 5.396744e-001 5.728377e-001 4.837682e-001 3.917185e-001 6.324608e-001 4.392179e-001 3.810609e-001 3.042724e-001 9.054179e-002
<GCONST> 1.096368e+002
<STATE> 3
<MEAN> 39
 -7.909683e-002 2.240567e+000 2.019677e+001 -1.078191e+001 -3.699877e+000 -1.369657e+001 -8.480949e+000 -2.314639e+000 -8.992633e+000 -4.967403e+000 -4.980917e+000 6.792504e+000 6.428452e+001 3.316456e-001 -9.406582e-001 -1.249362e+000 -5.860476e-001 -4.871456e-001 -7.070214e-001 1.387098e-002 9.728416e-001 1.112121e+000 2.447731e-001 -2.962310e-001 7.769451e-002 6.191316e-001 9.867460e-002 -2.197514e-001 -4.676742e-001 2.366967e-002 7.427046e-002 7.459677e-002 1.930622e-001 1.124471e-001 1.647595e-001 1.816043e-001 -1.901069e-001 -3.364499e-001 5.790165e-002
<VARIANCE> 39
 3.972574e+000 2.217804e+001 2.145385e+001 1.141056e+001 2.097663e+001 2.180439e+001 1.173857e+001 1.540245e+001 3.344091e+001 1.880409e+001 1.256455e+001 1.460497e+001 1.357513e+001 4.055642e-001 1.736413e+000 2.819746e+000 6.511309e-001 1.759005e+000 1.208084e+000 1.321059e+000 1.822928e+000 2.066229e+000 1.844834e+000 1.319825e+000 1.984385e+000 5.399099e-001 4.171935e-002 1.342096e-001 1.473354e-001 1.417962e-001 4.247538e-001 2.794859e-001 1.971064e-001 3.162837e-001 3.615554e-001 2.614114e-001 2.823918e-001 3.849657e-001 6.663423e-002
<GCONST> 8.957128e+001
<STATE> 4
<MEAN> 39
 4.003122e+000 -8.768148e+000 1.352736e+000 -1.630722e+001 -2.134679e+000 -1.409006e+001 -3.595487e+000 5.613044e+000 -4.275026e-001 -8.101317e-001 -1.445065e+001 -1.601154e+000 6.959553e+001 3.447217e-001 -9.293017e-001 -2.894154e+000 -4.756871e-001 2.508582e+000 1.928927e+000 1.138475e+000 -1.157435e+000 3.721187e-001 -1.056230e-001 -1.549199e+000 -2.387554e+000 2.682343e-001 -1.358731e-001 3.281356e-001 3.663628e-001 1.627769e-001 3.054732e-001 2.985446e-001 -1.292522e-001 -1.051499e+000 -3.116350e-001 -1.970191e-001 5.985318e-001 2.725595e-001 -1.133681e-001
<VARIANCE> 39
 1.840601e+000 7.229681e+000 2.253488e+001 1.590477e+001 2.545152e+001 1.848129e+001 1.332447e+001 1.575378e+001 1.611039e+001 1.417460e+001 2.824435e+001 2.797649e+001 3.723839e+000 1.723058e-001 4.493600e-001 9.383924e-001 7.165022e-001 8.695544e-001 1.248569e+000 1.005841e+000 4.793726e+000 1.591010e+000 1.340716e+000 3.072083e+000 2.056280e+000 1.187774e-001 1.657639e-002 4.154921e-002 8.425729e-002 1.010807e-001 2.898914e-001 2.598137e-001 1.436500e-001 3.518122e-001 2.709542e-001 2.202866e-001 4.874038e-001 3.736305e-001 1.240273e-002
<GCONST> 7.770656e+001
<TRANSP> 5
 0.000000e+000 1.000000e+000 0.000000e+000 0.000000e+000 0.000000e+000
 0.000000e+000 8.703723e-001 1.296277e-001 0.000000e+000 0.000000e+000
 0.000000e+000 0.000000e+000 9.006300e-001 9.937004e-002 0.000000e+000
 0.000000e+000 0.000000e+000 0.000000e+000 7.883948e-001 2.116052e-001
 0.000000e+000 0.000000e+000 0.000000e+000 0.000000e+000 0.000000e+000
<ENDHMM>
~h "z"
<BEGINHMM>
<NUMSTATES> 5
<STATE> 2
<MEAN> 39
 2.208622e+000 3.943676e+000 4.223866e+000 -2.899288e+000 2.482885e+000 -8.027463e+000 -1.617922e+000 -6.007400e+000 -3.329106e+000 1.949122e+000 -4.010412e+000 -2.574792e+000 5.706383e+001 -8.627042e-001 1.207540e+000 3.080269e-002 1.124041e+000 7.313035e-001 -3.688640e-001 -3.897629e-001 -2.031915e-001 3.617003e-001 -3.969975e-001 2.597488e-001 -2.435317e-001 8.765987e-002 -3.446923e-001 3.801430e-002 -1.416814e-001 -1.862235e-002 -3.610860e-002 3.268413e-001 2.673542e-001 2.036300e-001 9.217872e-002 -1.942689e-001 9.824345e-002 1.205266e-001 -2.163093e-002
<VARIANCE> 39
 1.814357e+001 1.307463e+001 2.636297e+001 5.628177e+001 2.616390e+001 4.057086e+001 3.519851e+001 2.252131e+001 3.540543e+001 3.470819e+001 2.642167e+001 1.939185e+001 2.644016e+001 2.727213e+000 1.381332e+000 1.914986e+000 2.651196e+000 1.925684e+000 3.974227e+000 2.277020e+000 2.293323e+000 2.211873e+000 2.513382e+000 1.809569e+000 1.432448e+000 1.647489e+000 2.396777e-001 2.421624e-001 2.448709e-001 2.568890e-001 2.534912e-001 4.336097e-001 3.403691e-001 3.652095e-001 3.332986e-001 3.923741e-001 3.120627e-001 2.825053e-001 1.140136e-001
<GCONST> 1.079853e+002
<STATE> 3
<MEAN> 39
 -3.632270e+000 7.650129e+000 2.954716e+000 1.683485e+000 3.878763e+000 -7.021207e+000 3.006642e-001 -4.941552e+000 -1.410204e+000 -1.573414e+000 -2.819070e+000 -1.567519e+000 5.715038e+001 -1.259048e+000 3.950150e-001 -3.009075e-001 4.698772e-001 3.546306e-001 5.794238e-001 6.916909e-001 4.988211e-001 5.531339e-001 -4.633643e-001 1.645353e-001 2.327466e-001 -5.974795e-002 2.928568e-001 -2.679536e-001 1.070101e-001 -2.951892e-001 -2.057094e-001 -2.740370e-001 1.945172e-002 8.292405e-002 -6.900723e-002 1.026274e-001 -3.589991e-002 -2.665264e-003 1.354855e-001
<VARIANCE> 39
 1.791459e+001 1.329113e+001 1.273462e+001 1.690507e+001 2.785736e+001 3.620593e+001 2.116123e+001 1.504268e+001 2.071455e+001 1.912587e+001 1.674001e+001 1.344930e+001 1.422777e+001 1.404148e+000 7.898377e-001 1.327896e+000 1.450314e+000 1.133705e+000 2.473235e+000 1.816970e+000 1.890853e+000 1.623446e+000 1.737541e+000 1.344882e+000 9.821741e-001 5.021085e-001 1.604477e-001 1.336554e-001 1.572765e-001 2.011497e-001 2.229861e-001 4.006809e-001 3.083299e-001 2.597356e-001 2.641395e-001 2.950225e-001 2.522821e-001 1.846476e-001 7.635707e-002
<GCONST> 9.247906e+001
<STATE> 4
<MEAN> 39
 -5.677582e+000 4.974632e+000 6.287895e-001 8.761770e-001 4.378881e+000 -3.213629e+000 3.607338e+000 -8.255389e-001 1.792654e+000 2.258521e-001 -9.962252e-001 -8.580009e-001 5.561805e+001 -3.706541e-002 -1.271009e-001 1.257286e-001 -2.810811e-001 -2.740694e-001 -7.592997e-001 8.382957e-002 3.597825e-001 2.723324e-002 -1.345253e-001 9.283229e-002 8.003601e-002 3.239194e-001 4.360991e-001 -1.365305e-001 2.681951e-001 -6.718517e-002 -2.258993e-001 -4.298183e-001 -2.962652e-001 -1.649956e-001 -2.733500e-001 1.740499e-002 -1.448541e-001 -5.409846e-002 1.323917e-001
<VARIANCE> 39
 2.765384e+001 4.406850e+001 1.469727e+001 1.500250e+001 2.556602e+001 6.037962e+001 3.069626e+001 2.471692e+001 2.145031e+001 2.767065e+001 2.080320e+001 2.126883e+001 2.224309e+001 9.143914e-001 7.999780e-001 9.134238e-001 7.241777e-001 1.155486e+000 2.064076e+000 1.882173e+000 1.870478e+000 1.840030e+000 1.243460e+000 1.315696e+000 1.456609e+000 3.135921e-001 2.008511e-001 1.748605e-001 1.713517e-001 2.073123e-001 2.960729e-001 4.888344e-001 3.989544e-001 3.914094e-001 3.285449e-001 3.621086e-001 2.454855e-001 2.827049e-001 5.990539e-002
<GCONST> 9.736496e+001
<TRANSP> 5
 0.000000e+000 1.000000e+000 0.000000e+000 0.000000e+000 0.000000e+000
 0.000000e+000 7.463641e-001 2.536359e-001 0.000000e+000 0.000000e+000
 0.000000e+000 0.000000e+000 7.147030e-001 2.852970e-001 0.000000e+000
 0.000000e+000 0.000000e+000 0.000000e+000 6.397725e-001 3.602274e-001
 0.000000e+000 0.000000e+000 0.000000e+000 0.000000e+000 0.000000e+000
<ENDHMM>
~h "ah"
<BEGINHMM>
<NUMSTATES> 5
<STATE> 2
<MEAN> 39
 6.365256e+000 -4.444014e+000 -9.465697e+000 -1.871543e+001 5.852447e-001 6.983599e+000 -1.833685e+000 -6.719819e+000 3.219059e-002 -8.529892e-001 -1.524406e+000 -1.349449e+001 6.671813e+001 -7.664854e-001 -1.280209e+000 -3.305086e-001 9.290686e-001 1.563428e+000 -5.337230e-001 2.933939e-002 5.418273e-003 6.674787e-001 2.080969e-001 -1.705123e+000 -9.819927e-001 6.942851e-001 6.040322e-002 1.488012e-001 3.002199e-001 2.521042e-001 -1.786532e-001 -4.378358e-001 1.772522e-001 1.529086e-001 -1.216389e-001 -3.022910e-001 -2.269483e-001 4.274964e-001 -2.110700e-001
<VARIANCE> 39
 5.582042e+000 1.437227e+001 1.197212e+001 1.749520e+001 2.339068e+001 2.722638e+001 9.240381e+000 1.595265e+001 1.514796e+001 2.601341e+001 4.618031e+001 2.155017e+001 8.933783e+000 2.717818e-001 5.853608e-001 7.336878e-001 6.953197e-001 6.996439e-001 2.008705e+000 6.863390e-001 1.425130e+000 1.030735e+000 1.763970e+000 1.890812e+000 1.856060e+000 3.975648e-001 4.471377e-002 5.441078e-002 8.220400e-002 1.240517e-001 1.345951e-001 1.798224e-001 1.270169e-001 1.444709e-001 1.518613e-001 3.140508e-001 4.621174e-001 2.325931e-001 3.029024e-002
<GCONST> 7.956931e+001
<STATE> 3
<MEAN> 39
 3.957451e+000 -9.554759e+000 -4.613835e+000 -1.075372e+001 3.482202e+000 -3.920018e+000 2.247720e+000 -2.812499e+000 -9.343853e-002 -6.150545e+000 -1.032575e+001 -9.422755e+000 6.727585e+001 -3.605782e-002 -4.073155e-002 1.368189e+000 7.463688e-001 -7.390586e-001 -1.441996e+000 8.074582e-001 6.152234e-001 -6.422977e-001 -8.642562e-001 1.067645e-001 1.315758e+000 -3.322770e-001 6.270713e-002 2.568831e-001 1.848547e-001 -1.070076e-001 -2.563282e-001 1.309525e-001 -7.966348e-002 -1.073373e-002 -1.883922e-001 1.875141e-001 3.326174e-001 9.154508e-002 -1.387420e-001
<VARIANCE> 39
 3.504770e+000 8.755063e+000 3.211614e+001 1.585505e+001 1.795901e+001 3.195014e+001 1.357662e+001 1.954369e+001 1.774577e+001 1.814757e+001 1.592287e+001 2.804783e+001 1.012737e+001 2.391850e-001 6.926156e-001 1.165663e+000 4.938885e-001 1.387163e+000 1.409931e+000 9.668459e-001 1.124658e+000 1.057768e+000 1.591206e+000 1.477270e+000 1.362758e+000 2.215431e-001 4.462571e-002 8.597841e-002 9.356283e-002 6.815365e-002 1.377889e-001 1.495126e-001 1.861704e-001 1.588303e-001 1.712337e-001 2.704564e-001 1.742414e-001 2.374488e-001 2.767541e-002
<GCONST> 7.771017e+001
<STATE> 4
<MEAN> 39
 2.982135e+000 -5.357664e+000 3.018126e+000 -5.152843e+000 -1.643541e+000 -5.438789e+000 4.175009e+000 -6.953830e-001 -3.163687e+000 -6.337385e+000 -6.226972e+000 -4.618317e+000 6.108761e+001 -5.193376e-002 8.812391e-001 8.985311e-001 3.329494e-001 -5.601133e-001 4.748907e-002 -2.133740e-003 -2.639416e-001 -6.101088e-001 5.843922e-001 7.278484e-001 5.707203e-001 -7.500901e-001 3.170085e-002 1.751927e-001 -1.374816e-001 2.621837e-002 1.560090e-001 1.376179e-001 -2.947257e-001 -1.909980e-001 1.888362e-002 2.420043e-001 -5.989106e-002 -2.230911e-001 -9.216011e-002
<VARIANCE> 39
 6.316286e+000 1.906792e+001 3.170772e+001 4.215604e+001 3.263693e+001 3.923954e+001 1.602655e+001 2.526276e+001 2.743283e+001 3.398893e+001 1.664887e+001 2.988306e+001 4.409936e+001 2.981789e-001 1.134857e+000 2.210348e+000 6.379383e-001 2.074119e+000 1.379273e+000 1.065941e+000 1.633562e+000 2.031571e+000 1.518486e+000 1.321223e+000 2.034231e+000 3.290137e-001 5.564445e-002 1.283079e-001 1.381864e-001 1.036738e-001 3.097374e-001 2.772270e-001 3.007527e-001 3.410937e-001 2.772964e-001 3.490472e-001 1.469900e-001 3.631126e-001 5.618106e-002
<GCONST> 9.346358e+001
<TRANSP> 5
 0.000000e+000 1.000000e+000 0.000000e+000 0.000000e+000 0.000000e+000
 0.000000e+000 8.073273e-001 1.926728e-001 0.000000e+000 0.000000e+000
 0.000000e+000 0.000000e+000 8.500674e-001 1.499325e-001 0.000000e+000
 0.000000e+000 0.000000e+000 0.000000e+000 4.922473e-001 5.077527e-001
 0.000000e+000 0.000000e+000 0.000000e+000 0.000000e+000 0.000000e+000
<ENDHMM>
~h "ao"
<BEGINHMM>
<NUMSTATES> 5
<STATE> 2
<MEAN> 39
 5.886652e+000 1.567566e+000 -9.125418e+000 -2.059937e+001 -2.046939e+000 8.275342e+000 3.429581e-001 -3.566826e+000 -2.072397e+000 -1.492674e+000 -8.159109e-001 -4.798018e+000 6.198074e+001 -4.089531e-001 5.594037e-002 -4.131678e-001 -1.328052e+000 1.007665e-002 7.598330e-001 5.441269e-001 3.544186e-001 3.003855e-002 -1.327774e+000 1.100073e-001 -1.212241e-001 4.105823e-001 -3.445110e-001 -1.192345e-001 4.063824e-001 7.747495e-001 3.128371e-001 -3.429247e-001 1.754842e-001 1.887863e-001 1.387921e-001 -1.120295e-001 -1.192082e-001 1.736746e-001 -2.226654e-001
<VARIANCE> 39
 1.904243e+001 1.200572e+001 2.802808e+001 1.002323e+002 3.352961e+001 1.760983e+001 1.857635e+001 1.975160e+001 2.267967e+001 3.523323e+001 1.884923e+001 2.614425e+001 5.014808e+001 3.590968e-001 4.525081e-001 6.769897e-001 1.386755e+000 9.556172e-001 8.993239e-001 1.003171e+000 1.143504e+000 1.098452e+000 1.419266e+000 1.120026e+000 9.441702e-001 2.999282e-001 2.679758e-001 1.884516e-001 1.693719e-001 4.588507e-001 2.308085e-001 1.625240e-001 2.185179e-001 2.416706e-001 2.385882e-001 2.769019e-001 2.408308e-001 2.450908e-001 6.294502e-002
<GCONST> 9.145874e+001
<STATE> 3
<MEAN> 39
 6.065371e+000 3.492445e+000 -1.060928e+001 -2.698695e+001 -1.743946e+000 9.068785e+000 2.812725e+000 -1.230142e+000 -2.138034e+000 -8.616148e+000 -1.029429e+000 -5.051776e+000 6.314005e+001 5.110407e-002 2.832882e-001 1.862761e-001 -1.521588e-001 -2.649758e-001 -5.390356e-002 8.528549e-002 3.832970e-001 -1.983172e-002 -4.348664e-001 6.009840e-002 1.431400e-002 -2.439494e-001 3.996452e-002 -1.310537e-003 6.441548e-002 8.494397e-002 -2.453982e-002 -8.868272e-002 -4.864680e-002 -1.284429e-002 -2.721933e-002 1.307836e-001 -3.325719e-002 -1.660432e-003 -3.564906e-002
<VARIANCE> 39
 6.383082e+000 1.301380e+001 1.445784e+001 4.099594e+001 4.795938e+001 1.674877e+001 1.592412e+001 3.297340e+001 1.689482e+001 3.123930e+001 1.226572e+001 2.097225e+001 1.820581e+001 1.588567e-001 2.492767e-001 3.912554e-001 4.941787e-001 5.053682e-001 5.934601e-001 5.733971e-001 6.295295e-001 5.977333e-001 8.031451e-001 5.726140e-001 6.584025e-001 1.210681e-001 2.864141e-002 4.244894e-002 5.563064e-002 7.304028e-002 8.146578e-002 9.511275e-002 9.671944e-002 1.066987e-001 1.014001e-001 1.229342e-001 9.428728e-002 9.197108e-002 2.438927e-002
<GCONST> 6.473993e+001
<STATE> 4
<MEAN> 39
 7.837422e+000 6.157154e+000 -4.148517e+000 -2.133972e+001 -5.699989e+000 4.693678e+000 2.583236e+000 1.770589e+000 -3.777933e+000 -6.563224e+000 -2.819236e+000 -5.322803e+000 5.746355e+001 -9.448212e-002 -6.082923e-002 6.796796e-001 1.538507e+000 4.015161e-001 -5.219002e-001 2.104414e-001 -2.978223e-001 -6.076950e-002 8.196509e-001 -3.176667e-001 1.026010e-001 -5.981564e-001 -1.304055e-001 -1.005885e-001 -2.348457e-002 1.799033e-001 1.487095e-001 3.096573e-002 -7.301568e-003 -8.906925e-002 1.262204e-001 9.916000e-002 2.009280e-002 5.205436e-002 2.615746e-002
<VARIANCE> 39
 1.100839e+001 7.617274e+000 1.588450e+001 8.783159e+001 3.039003e+001 2.480247e+001 2.671369e+001 2.021295e+001 2.905220e+001 2.375695e+001 1.860009e+001 2.664988e+001 2.247073e+001 5.626634e-001 4.402352e-001 7.189727e-001 2.940209e+000 1.574524e+000 1.331484e+000 1.324993e+000 1.568459e+000 1.582402e+000 1.392883e+000 1.385891e+000 1.383450e+000 4.923819e-001 6.868550e-002 6.476319e-002 1.267812e-001 3.611895e-001 1.828401e-001 2.243181e-001 2.688751e-001 2.481257e-001 2.206127e-001 2.132571e-001 2.753283e-001 2.377884e-001 9.066088e-002
<GCONST> 9.109283e+001
<TRANSP> 5
 0.000000e+000 1.000000e+000 0.000000e+000 0.000000e+000 0.000000e+000
 0.000000e+000 4.817658e-001 5.182342e-001 0.000000e+000 0.000000e+000
 0.000000e+000 0.000000e+000 9.032016e-001 9.679836e-002 0.000000e+000
 0.000000e+000 0.000000e+000 0.000000e+000 8.689703e-001 1.310297e-001
 0.000000e+000 0.000000e+000 0.000000e+000 0.000000e+000 0.000000e+000
<ENDHMM>
~h "ax"
<BEGINHMM>
<NUMSTATES> 5
<STATE> 2
<MEAN> 39
 -3.573318e+000 -3.779332e+000 9.582883e-001 6.821779e-002 2.417752e+000 7.693905e-001 4.466884e+000 3.464034e-002 3.454750e+000 2.570093e+000 -1.341879e-001 1.678157e+000 4.931977e+001 7.881196e-002 1.482010e-001 -7.295848e-002 1.148856e-001 -2.658898e-002 2.495653e-001 1.179539e-001 -1.683342e-001 6.697142e-002 7.316137e-002 -2.145993e-002 -4.960362e-002 -1.954993e-001 -3.954485e-003 -6.406548e-003 4.451170e-003 -2.270243e-002 2.733729e-002 -5.924521e-003 -2.927307e-002 -5.802518e-003 -1.537484e-002 -1.568506e-002 -1.507046e-002 7.292500e-003 1.625783e-002
<VARIANCE> 39
 7.547152e+000 1.165206e+001 8.076676e+000 1.099268e+001 1.375284e+001 2.526096e+001 1.769586e+001 2.864373e+001 2.037882e+001 2.068818e+001 1.975148e+001 1.929719e+001 1.483258e+001 2.107903e-001 4.054596e-001 4.592551e-001 6.326767e-001 9.211082e-001 1.210012e+000 1.119373e+000 1.534917e+000 1.435212e+000 1.489686e+000 1.207302e+000 1.225712e+000 1.871056e-001 3.501132e-002 6.565512e-002 9.316090e-002 1.254871e-001 1.650488e-001 2.266518e-001 2.011242e-001 3.056315e-001 2.817112e-001 3.064628e-001 2.295234e-001 2.558361e-001 2.255370e-002
<GCONST> 7.815694e+001
<STATE> 3
<MEAN> 39
 -1.061489e+000 -1.468183e+000 -1.002595e+000 -2.560441e-001 3.052952e+000 4.378308e+000 5.638079e+000 -4.852620e+000 2.794925e+000 1.930601e+000 -2.366596e+000 -1.777770e+000 5.014314e+001 -3.290699e-001 -6.854130e-003 -9.301693e-002 3.029093e-002 1.204915e-001 2.428853e-001 8.437538e-002 -1.394397e-001 2.538176e-001 1.331882e-001 6.172149e-001 4.234307e-001 -2.749340e-001 1.312606e-002 -1.416760e-001 -5.671759e-002 -4.255082e-001 -8.701341e-002 -4.404741e-001 -2.263006e-001 2.157195e-001 -1.452009e-001 -4.822890e-002 -1.872071e-002 8.461961e-002 4.557617e-001
<VARIANCE> 39
 1.769344e+001 9.171226e+000 3.225448e+001 2.347963e+001 2.018375e+001 3.692378e+001 1.789448e+001 2.073474e+001 2.445542e+001 2.174166e+001 2.024062e+001 4.064472e+001 3.663379e+001 5.938407e-001 3.608204e-001 4.216689e-001 7.475347e-001 8.899512e-001 1.402510e+000 1.205184e+000 1.282582e+000 1.917688e+000 2.319685e+000 1.997541e+000 1.730394e+000 3.229062e-001 1.562179e-001 8.785454e-002 1.412960e-001 1.991286e-001 1.921869e-001 2.880984e-001 2.198944e-001 3.246371e-001 3.248226e-001 3.935382e-001 3.004335e-001 2.037989e-001 1.311903e-001
<GCONST> 9.180650e+001
<STATE> 4
<MEAN> 39
 2.507872e+000 -1.416159e+000 -6.280262e+000 -5.968328e+000 2.022896e+000 4.788445e+000 4.283292e+000 -7.743728e+000 3.875854e+000 -1.313906e+000 -5.781720e-001 -9.848974e+000 5.645169e+001 -7.561177e-002 4.483959e-002 2.787572e-001 1.142519e-001 1.626639e-001 3.491645e-002 4.996672e-002 1.180552e-001 -2.829839e-001 -1.045495e-001 -3.537880e-002 4.129840e-001 -1.215817e-001 3.579154e-003 -9.187816e-002 -3.241279e-002 -1.814487e-001 1.907957e-002 -2.800174e-001 -1.291611e-001 2.334417e-001 -3.542359e-002 -3.082756e-003 -1.381188e-001 1.265917e-003 3.303118e-001
<VARIANCE> 39
 1.741575e+001 9.154314e+000 4.070886e+001 3.988435e+001 1.464958e+001 1.696942e+001 1.400355e+001 2.019611e+001 2.212012e+001 2.573651e+001 2.374688e+001 7.752303e+001 4.830213e+001 3.432801e-001 4.447535e-001 6.648888e-001 1.185950e+000 6.987435e-001 1.029239e+000 8.559881e-001 1.081224e+000 6.436427e-001 1.090716e+000 1.230041e+000 7.399220e-001 6.188401e-001 7.888986e-002 7.792991e-002 1.018657e-001 2.658095e-001 1.546841e-001 3.103579e-001 1.664319e-001 2.896705e-001 2.537788e-001 2.452875e-001 2.553050e-001 1.770913e-001 3.447388e-001
<GCONST> 8.788255e+001
<TRANSP> 5
 0.000000e+000 1.000000e+000 0.000000e+000 0.000000e+000 0.000000e+000
 0.000000e+000 9.260130e-001 7.398703e-002 0.000000e+000 0.000000e+000
 0.000000e+000 0.000000e+000 2.447321e-001 7.552679e-001 0.000000e+000
 0.000000e+000 0.000000e+000 0.000000e+000 6.408458e-001 3.591542e-001
 0.000000e+000 0.000000e+000 0.000000e+000 0.000000e+000 0.000000e+000
<ENDHMM>
~h "ay"
<BEGINHMM>
<NUMSTATES> 5
<STATE> 2
<MEAN> 39
 -3.060479e+000 -2.101292e+000 1.985113e+000 -2.538564e-001 2.230408e+000 6.475225e-001 2.724827e+000 -3.294826e+000 3.376676e-001 1.444802e+000 -3.175512e+000 -7.878668e-001 5.275218e+001 -1.099035e-001 -3.780933e-001 -2.816041e-001 -2.030316e-001 2.162801e-001 2.952395e-002 2.893956e-003 1.814849e-001 3.016234e-002 -4.071195e-001 -1.629842e-001 -7.903327e-002 2.316239e-001 4.942974e-002 -3.364043e-002 -3.387793e-002 -6.576222e-002 5.086935e-002 -1.023668e-001 -2.293583e-002 6.643841e-002 1.104920e-003 -3.879948e-002 -7.625207e-002 -5.210612e-002 5.834740e-002
<VARIANCE> 39
 3.058789e+001 1.934824e+001 2.331655e+001 3.029350e+001 1.677108e+001 2.995666e+001 2.049670e+001 4.076987e+001 2.159138e+001 2.264876e+001 3.706228e+001 2.712633e+001 4.801928e+001 4.759656e-001 1.225112e+000 1.296157e+000 1.339287e+000 1.438169e+000 1.870327e+000 1.728089e+000 3.746088e+000 1.377634e+000 2.368163e+000 1.683116e+000 1.275695e+000 8.171891e-001 9.298005e-002 1.511642e-001 2.107542e-001 2.830903e-001 2.475934e-001 3.072444e-001 3.400624e-001 4.443301e-001 2.612843e-001 3.698268e-001 3.261186e-001 3.250205e-001 9.042691e-002
<GCONST> 1.006252e+002
<STATE> 3
<MEAN> 39
 1.602730e+000 -4.185608e+000 3.212385e-001 -5.012833e+000 3.097822e+000 -4.734764e+000 7.200972e-001 -2.458734e+000 -8.975912e-001 1.013562e+000 -8.567653e+000 -4.639519e+000 6.068798e+001 2.009827e-001 -1.323180e+000 -1.289144e+000 -1.147664e+000 7.985858e-001 4.398301e-001 3.151944e-002 7.179869e-001 2.564919e-001 -1.240950e+000 -2.613711e-001 -5.743651e-001 1.211324e+000 7.209495e-003 1.636970e-001 1.964362e-002 1.106226e-001 -1.100165e-001 2.965980e-001 -1.396995e-002 -4.444587e-001 4.661125e-002 7.096498e-002 2.265105e-001 -9.731788e-002 -1.634005e-001
<VARIANCE> 39
 4.340003e+001 2.954449e+001 3.749596e+001 4.317879e+001 2.175183e+001 4.788372e+001 2.294112e+001 5.034576e+001 2.131229e+001 3.235278e+001 5.390614e+001 3.998185e+001 4.711611e+001 1.271450e+000 2.259767e+000 2.547965e+000 1.872530e+000 2.108088e+000 4.143211e+000 2.265785e+000 6.180367e+000 1.486056e+000 3.374185e+000 2.355193e+000 2.139100e+000 1.671430e+000 2.193647e-001 3.940098e-001 4.217071e-001 3.574114e-001 3.221258e-001 5.721545e-001 5.065911e-001 1.112486e+000 2.746190e-001 5.543712e-001 4.287172e-001 3.780887e-001 2.512169e-001
<GCONST> 1.177666e+002
<STATE> 4
<MEAN> 39
 3.082376e+000 -9.739394e+000 -6.285491e+000 -1.007085e+001 5.236327e+000 -6.994080e-001 1.735406e+000 -4.099678e+000 -3.595741e-001 -5.217393e+000 -8.734633e+000 -9.020082e+000 6.702876e+001 -3.719277e-002 -7.736199e-002 4.062815e-001 1.840749e-001 -5.127417e-001 -5.307769e-001 4.203602e-001 3.087166e-001 -6.089576e-002 -2.701861e-001 1.121610e-001 3.761547e-001 -8.861604e-002 5.662301e-002 1.098708e-001 1.604516e-001 3.393519e-002 -1.248304e-001 -1.645298e-001 6.293623e-003 6.304776e-002 -6.071758e-002 1.132327e-001 3.825759e-003 1.052917e-001 -8.231485e-002
<VARIANCE> 39
 1.244125e+001 1.276232e+001 2.703645e+001 2.743361e+001 2.724778e+001 4.525326e+001 2.508273e+001 2.642540e+001 1.653382e+001 2.211830e+001 2.195215e+001 2.953059e+001 2.328028e+001 3.160913e-001 4.626871e-001 1.191352e+000 5.294139e-001 1.290634e+000 2.024358e+000 1.222917e+000 1.305460e+000 9.060494e-001 1.201422e+000 1.147050e+000 1.113565e+000 2.432316e-001 6.284721e-002 8.370791e-002 7.479754e-002 8.202291e-002 1.181577e-001 1.718193e-001 1.979199e-001 1.794426e-001 1.449247e-001 2.272383e-001 1.776725e-001 1.282022e-001 3.346390e-002
<GCONST> 8.228326e+001
<TRANSP> 5
 0.000000e+000 1.000000e+000 0.000000e+000 0.000000e+000 0.000000e+000
 0.000000e+000 5.588992e-001 4.411009e-001 0.000000e+000 0.000000e+000
 0.000000e+000 0.000000e+000 5.899057e-001 4.100943e-001 0.000000e+000
 0.000000e+000 0.000000e+000 0.000000e+000 8.794293e-001 1.205707e-001
 0.000000e+000 0.000000e+000 0.000000e+000 0.000000e+000 0.000000e+000
<ENDHMM>
~h "eh"
<BEGINHMM>
<NUMSTATES> 5
<STATE> 2
<MEAN> 39
 4.705819e+000 -6.119232e+000 -2.207578e-001 -1.073393e+001 -3.901087e+000 -1.435365e+001 -8.576065e-001 3.765275e+000 2.541219e+000 9.465199e-001 -1.165360e+001 -3.464552e+000 6.690583e+001 6.976308e-001 -1.960692e+000 6.990356e-002 -1.433331e+000 -6.899155e-001 -1.552277e-001 2.831513e-001 1.243695e+000 -1.904162e-001 -4.991286e-001 -6.562148e-001 -1.501282e-001 1.332359e+000 -9.442361e-001 3.245464e-001 -1.386926e-001 4.590220e-001 5.162515e-001 6.222486e-001 4.904336e-001 1.331266e-001 -8.880182e-003 -4.057822e-001 5.887690e-001 5.340431e-002 -4.390264e-001
<VARIANCE> 39
 4.537332e+000 1.252081e+001 1.457635e+001 1.514421e+001 9.376082e+000 2.044440e+001 1.245820e+001 1.931709e+001 8.483152e+000 1.440434e+001 1.056383e+001 1.326906e+001 5.166575e+000 2.199685e+000 8.621227e-001 8.997660e-001 1.591555e+000 1.906814e+000 2.106863e+000 1.634848e+000 1.677827e+000 1.084274e+000 1.938941e+000 1.417601e+000 1.226681e+000 9.906899e-001 4.845503e-001 1.479990e-001 1.809850e-001 1.708057e-001 1.888617e-001 4.717228e-001 2.581649e-001 4.909734e-001 2.091156e-001 3.044164e-001 2.660320e-001 1.521993e-001 7.770448e-002
<GCONST> 8.881853e+001
<STATE> 3
<MEAN> 39
 4.776180e+000 -8.954660e+000 -5.398708e-002 -1.136705e+001 -2.625522e+000 -1.280094e+001 1.615122e+000 4.626029e+000 2.669742e+000 -3.262220e+000 -1.048211e+001 -5.302396e+000 6.756962e+001 3.242921e-001 3.292963e-001 2.332136e-002 4.009027e-001 1.463889e-001 3.109300e-001 -5.946418e-001 -8.833268e-001 5.198574e-002 2.443913e-001 6.197823e-001 -3.467981e-001 -5.113482e-001 5.417055e-002 2.562379e-001 -7.798554e-003 1.785920e-001 -6.559332e-003 1.426189e-001 -2.297137e-001 -3.162024e-001 -4.999402e-002 2.179894e-001 1.443462e-001 -3.702348e-002 -1.989531e-001
<VARIANCE> 39
 5.287442e+000 6.380220e+000 1.400474e+001 1.394955e+001 1.386006e+001 2.775595e+001 2.247497e+001 2.057487e+001 1.339316e+001 1.731381e+001 1.695942e+001 2.260579e+001 5.866036e+000 2.980485e-001 7.023816e-001 3.607688e-001 7.735121e-001 4.486173e-001 1.213579e+000 1.974283e+000 1.867275e+000 7.720547e-001 1.505379e+000 9.009041e-001 6.402516e-001 5.809041e-001 5.322730e-002 5.592998e-002 6.353381e-002 9.383440e-002 8.969914e-002 1.764915e-001 2.107954e-001 1.663114e-001 1.950614e-001 1.692319e-001 1.173865e-001 1.156861e-001 4.232353e-002
<GCONST> 7.332922e+001
<STATE> 4
<MEAN> 39
 7.488190e+000 -2.726877e+000 1.465574e-001 -5.833564e+000 -1.461885e+000 -7.491132e+000 -6.356831e+000 -6.251464e+000 6.543231e-001 1.809382e+000 -3.341764e+000 -7.594276e+000 6.053208e+001 2.802186e-002 1.152981e+000 6.675739e-002 7.953904e-001 1.779628e-001 1.316142e+000 -5.583937e-001 -1.538897e+000 -9.147298e-001 5.583110e-001 1.144744e+000 -3.340243e-001 -9.695598e-001 -1.025823e-001 -4.341429e-001 1.009907e-002 -4.777681e-001 -9.175563e-002 -3.629194e-001 4.353516e-001 6.889879e-001 1.109276e-001 -1.949586e-001 -4.277675e-001 3.265370e-002 4.894689e-001
<VARIANCE> 39
 4.668880e+000 6.557082e+000 6.218436e+000 9.185322e+000 9.399199e+000 1.235669e+001 9.530169e+000 1.646280e+001 1.483420e+001 1.358019e+001 1.474095e+001 1.318999e+001 6.409131e+000 3.765785e-001 1.021897e+000 3.529407e-001 1.184812e+000 6.861143e-001 1.202429e+000 1.031365e+000 1.840398e+000 1.239762e+000 1.146253e+000 1.008824e+000 9.277204e-001 8.052933e-001 6.794656e-002 1.113648e-001 5.997954e-002 1.323573e-001 1.235184e-001 1.720935e-001 1.856412e-001 1.848366e-001 2.272511e-001 2.178220e-001 1.745474e-001 1.362636e-001 7.228468e-002
<GCONST> 7.376291e+001
<TRANSP> 5
 0.000000e+000 1.000000e+000 0.000000e+000 0.000000e+000 0.000000e+000
 0.000000e+000 7.447256e-001 2.552744e-001 0.000000e+000 0.000000e+000
 0.000000e+000 0.000000e+000 8.954988e-001 1.045013e-001 0.000000e+000
 0.000000e+000 0.000000e+000 0.000000e+000 5.375721e-001 4.624279e-001
 0.000000e+000 0.000000e+000 0.000000e+000 0.000000e+000 0.000000e+000
<ENDHMM>
~h "ey"
<BEGINHMM>
<NUMSTATES> 5
<STATE> 2
<MEAN> 39
 -1.562146e+000 -1.628772e+000 -4.895759e-001 -2.367250e+000 -8.821059e-001 5.252855e-001 3.884475e+000 -2.853072e+000 3.132510e+000 3.208060e+000 -7.648968e-001 -6.996581e-001 5.016183e+001 -2.778910e-001 -8.452269e-001 -5.396363e-001 1.747831e-001 6.916429e-001 8.572292e-002 6.482432e-001 6.590956e-001 5.250157e-001 -4.874558e-001 -7.181278e-001 -4.955863e-001 4.097288e-001 1.927422e-001 -1.731655e-001 -6.620896e-002 -2.402519e-001 9.853139e-002 -2.342904e-001 -6.653049e-002 -5.662056e-003 -2.652526e-001 -3.378694e-001 -3.301819e-001 -1.971220e-001 4.934484e-001
<VARIANCE> 39
 1.893093e+001 1.301772e+001 2.646902e+001 3.401540e+001 2.624586e+001 3.465157e+001 2.983467e+001 4.059267e+001 3.173352e+001 3.129589e+001 3.172207e+001 3.426254e+001 2.376394e+001 1.807412e+000 1.813772e+000 2.625792e+000 3.593127e+000 2.358443e+000 3.490778e+000 2.567400e+000 4.080802e+000 4.335937e+000 4.211281e+000 2.729759e+000 3.351730e+000 4.549207e+000 3.098843e-001 3.537933e-001 4.827891e-001 4.139383e-001 4.411556e-001 4.989333e-001 4.452544e-001 7.802917e-001 7.265272e-001 6.803421e-001 4.260116e-001 6.002592e-001 4.820737e-001
<GCONST> 1.202920e+002
<STATE> 3
<MEAN> 39
 1.452550e+000 -9.947773e+000 -5.148822e+000 -7.339985e+000 3.839010e+000 -4.962742e+000 5.175705e+000 5.978835e-001 1.097590e+000 -4.212094e+000 -1.012015e+001 -6.333728e+000 6.260308e+001 8.735601e-001 -1.491382e+000 -2.993866e-001 -1.147761e+000 3.225528e-001 -1.195794e+000 -2.112927e-002 3.067802e-001 -8.299955e-001 -1.094332e+000 -1.192441e+000 -8.088277e-001 2.676834e+000 -1.676349e-001 2.682514e-001 3.269730e-001 2.180699e-001 -2.169042e-001 2.775133e-001 5.863251e-002 -2.117957e-001 5.159836e-002 2.416508e-001 4.567194e-001 3.522031e-001 -4.366351e-001
<VARIANCE> 39
 1.289410e+001 1.992662e+001 2.594154e+001 1.721869e+001 3.149937e+001 4.817080e+001 2.479562e+001 2.476494e+001 2.787748e+001 2.073130e+001 2.017712e+001 3.042787e+001 2.844494e+001 1.224071e+000 1.822672e+000 2.659044e+000 1.876651e+000 2.253803e+000 3.320856e+000 2.199524e+000 2.656416e+000 1.757992e+000 2.618652e+000 2.591374e+000 2.089834e+000 2.587513e+000 2.141524e-001 2.893745e-001 3.584291e-001 3.453873e-001 3.863508e-001 4.976622e-001 4.085121e-001 4.394275e-001 3.190774e-001 4.871768e-001 3.509419e-001 3.285537e-001 3.881317e-001
<GCONST> 1.103502e+002
<STATE> 4
<MEAN> 39
 2.834473e+000 -1.204011e+001 -4.103427e+000 -8.751914e+000 1.790177e+000 -7.161114e+000 7.424515e+000 -4.050611e-001 -1.131428e+000 -9.407972e+000 -1.051137e+001 -5.432714e+000 6.820394e+001 1.119378e-001 4.112780e-001 3.630529e-001 6.689476e-002 -4.083924e-001 -4.601368e-001 2.009372e-002 1.040636e-001 4.198737e-003 5.974745e-002 -9.920548e-002 4.186741e-001 -1.295474e-001 -2.784818e-002 1.914504e-001 7.365787e-002 1.100248e-001 6.342728e-003 1.503421e-002 -1.089937e-001 1.059849e-002 3.671588e-002 1.561349e-001 4.055866e-002 2.974038e-002 -2.215941e-001
<VARIANCE> 39
 4.572468e+000 1.255754e+001 1.334452e+001 1.522000e+001 1.502653e+001 2.160829e+001 1.190096e+001 1.551121e+001 1.600389e+001 1.534154e+001 1.074917e+001 1.554241e+001 8.865203e+000 2.485857e-001 7.355440e-001 5.436444e-001 5.354976e-001 6.068533e-001 7.970658e-001 9.865546e-001 7.586601e-001 6.685736e-001 1.245710e+000 7.153538e-001 6.068268e-001 5.014920e-001 6.892810e-002 7.334004e-002 8.823620e-002 1.283100e-001 1.163198e-001 1.677416e-001 1.622875e-001 1.466835e-001 1.218997e-001 1.490762e-001 1.673520e-001 1.192869e-001 8.602174e-002
<GCONST> 7.137170e+001
<TRANSP> 5
 0.000000e+000 1.000000e+000 0.000000e+000 0.000000e+000 0.000000e+000
 0.000000e+000 8.576068e-001 1.423932e-001 0.000000e+000 0.000000e+000
 0.000000e+000 0.000000e+000 7.688479e-001 2.311520e-001 0.000000e+000
 0.000000e+000 0.000000e+000 0.000000e+000 9.275071e-001 7.249290e-002
 0.000000e+000 0.000000e+000 0.000000e+000 0.000000e+000 0.000000e+000
<ENDHMM>
~h "ia"
<BEGINHMM>
<NUMSTATES> 5
<STATE> 2
<MEAN> 39
 -2.513855e+000 5.027559e+000 5.138663e+000 -2.462566e-001 1.355071e+000 -1.215891e+001 -4.338211e-001 -2.431277e+000 -1.666806e+000 -1.699093e+000 -2.527381e+000 -1.266234e+000 5.999198e+001 1.624995e+000 -1.348206e+000 1.459978e+000 -9.172933e-001 -1.563242e+000 -2.369618e+000 -6.666453e-001 4.131917e-001 -9.771437e-001 -8.898936e-003 -3.713372e-001 2.381810e-001 1.009028e+000 1.572685e-001 -4.080966e-001 2.074876e-001 -3.364036e-001 -2.098071e-001 2.055683e-002 1.132133e-001 1.274808e-001 -1.018732e-001 1.332817e-001 3.454489e-003 2.358478e-001 1.345624e-001
<VARIANCE> 39
 3.106825e+001 2.221461e+001 2.528196e+001 1.655828e+001 2.878217e+001 5.165136e+001 3.061355e+001 1.918904e+001 2.378704e+001 1.950432e+001 1.706655e+001 1.595923e+001 1.597409e+001 2.881562e+000 2.632297e+000 1.894290e+000 1.863636e+000 2.140592e+000 3.135839e+000 2.368896e+000 2.494724e+000 2.128839e+000 2.061125e+000 1.617715e+000 2.222586e+000 6.040453e-001 5.012648e-001 2.891850e-001 3.145168e-001 2.350443e-001 3.601293e-001 9.266645e-001 4.703482e-001 4.310012e-001 4.806803e-001 3.618151e-001 3.175144e-001 4.127812e-001 1.167828e-001
<GCONST> 1.085136e+002
<STATE> 3
<MEAN> 39
 3.835877e+000 -5.133968e+000 1.230511e+001 -8.518002e+000 -8.128022e+000 -1.884271e+001 -6.202963e-001 8.784820e-001 -4.482168e+000 -1.075376e+000 -3.892545e+000 2.776037e+000 6.612930e+001 2.966088e-001 -9.483240e-001 -6.079755e-001 -5.942122e-001 -5.726070e-001 5.101138e-001 1.818212e-001 4.171914e-001 8.711010e-001 -1.648958e-003 -2.825482e-001 -1.903992e-001 5.277117e-001 -7.732024e-002 1.700024e-001 -4.405767e-001 2.114987e-001 2.578805e-001 3.805722e-001 -1.207653e-001 -1.242478e-001 2.547429e-001 2.284981e-005 -6.849552e-002 -3.758576e-001 -1.171461e-001
<VARIANCE> 39
 3.957052e+000 9.791254e+000 2.784658e+001 1.311680e+001 1.620908e+001 1.253496e+001 1.393727e+001 1.324859e+001 2.874146e+001 1.241727e+001 1.190699e+001 1.640042e+001 8.411287e+000 3.052534e-001 6.909065e-001 2.345383e+000 9.771460e-001 1.636779e+000 1.528876e+000 1.201446e+000 1.025829e+000 1.508336e+000 8.710902e-001 1.089961e+000 2.246018e+000 2.270479e-001 9.567364e-002 9.178255e-002 1.351089e-001 1.298931e-001 1.878013e-001 2.367599e-001 2.041663e-001 2.467704e-001 1.953289e-001 1.571957e-001 1.813733e-001 1.832729e-001 2.691805e-002
<GCONST> 7.975240e+001
<STATE> 4
<MEAN> 39
 8.777581e+000 -8.726150e+000 -5.991068e+000 -4.183798e+000 -1.017002e+001 -5.069902e+000 -6.611923e-001 -4.673926e+000 4.551603e+000 3.708404e-001 -2.549790e+000 -9.328254e+000 6.639667e+001 4.796306e-001 1.920432e-001 -1.207712e+000 3.294160e-001 -3.512247e-001 1.197925e+000 3.044835e-001 -1.239149e+000 -3.693106e-001 3.918784e-001 6.755335e-001 -4.176191e-001 -2.821340e-001 -3.245904e-002 1.364564e-001 2.349680e-001 -1.325341e-001 -9.108155e-002 -8.935933e-002 1.577834e-001 -8.792590e-002 -2.438457e-001 -2.967461e-003 8.722790e-002 2.888559e-001 -5.336578e-002
<VARIANCE> 39
 7.527899e+000 8.414392e+000 3.695174e+001 2.771125e+001 2.092602e+001 3.184018e+001 2.322381e+001 4.288610e+001 2.881973e+001 2.371980e+001 4.246102e+001 3.136610e+001 8.920472e+000 2.716384e-001 5.670776e-001 1.340305e+000 1.665618e+000 1.217857e+000 1.559818e+000 1.434895e+000 1.445334e+000 2.076190e+000 1.021597e+000 1.444909e+000 2.773067e+000 9.836308e-002 3.873129e-002 5.171536e-002 9.106460e-002 2.439957e-001 2.016013e-001 2.245120e-001 2.343494e-001 2.908882e-001 2.197593e-001 1.668160e-001 2.514343e-001 2.350862e-001 1.495895e-002
<GCONST> 8.605930e+001
<TRANSP> 5
 0.000000e+000 1.000000e+000 0.000000e+000 0.000000e+000 0.000000e+000
 0.000000e+000 7.725322e-001 2.274677e-001 0.000000e+000 0.000000e+000
 0.000000e+000 0.000000e+000 8.874614e-001 1.125387e-001 0.000000e+000
 0.000000e+000 0.000000e+000 0.000000e+000 9.103552e-001 8.964482e-002
 0.000000e+000 0.000000e+000 0.000000e+000 0.000000e+000 0.000000e+000
<ENDHMM>
~h "ih"
<BEGINHMM>
<NUMSTATES> 5
<STATE> 2
<MEAN> 39
 -1.352787e+001 2.737083e+000 -2.753864e+000 -1.326896e+000 4.744739e+000 -3.072469e+000 5.700433e+000 3.538900e+000 4.238795e+000 -7.601309e-001 5.397972e-002 1.944937e+000 5.879797e+001 2.985767e+000 -4.073624e-001 1.414892e+000 -9.014224e-001 -7.274536e-001 -2.040295e+000 -1.136371e+000 -2.786309e-001 -2.088330e-001 -3.892156e-002 -1.472881e+000 -8.843032e-001 3.245467e-001 1.017798e+000 -2.664863e-001 3.103370e-001 -2.527596e-001 -5.230948e-001 -7.732690e-001 -5.901986e-001 -2.636196e-001 -3.327256e-001 1.742151e-001 -3.385225e-001 -1.977435e-001 4.340144e-001
<VARIANCE> 39
 1.192640e+001 1.179289e+001 1.043958e+001 1.772040e+001 1.619733e+001 2.213124e+001 1.686385e+001 1.667261e+001 1.458546e+001 2.005619e+001 1.284081e+001 1.380043e+001 9.955163e+000 4.991001e+000 8.094854e-001 1.566983e+000 1.462763e+000 1.668299e+000 2.768170e+000 2.586629e+000 1.775303e+000 1.896295e+000 1.719828e+000 2.379205e+000 1.754250e+000 7.062383e-001 3.638622e-001 1.695674e-001 2.797572e-001 3.140284e-001 2.793608e-001 3.342597e-001 3.521271e-001 3.231364e-001 3.296762e-001 3.718489e-001 3.330974e-001 3.489104e-001 1.284987e-001
<GCONST> 9.799660e+001
<STATE> 3
<MEAN> 39
 2.839450e+000 -1.167388e+000 2.934498e+000 -7.121409e+000 -2.458302e+000 -1.569783e+001 -2.029212e+000 4.354514e-001 9.015645e-001 7.601467e-001 -7.009726e+000 -1.553559e+000 6.383852e+001 2.337888e+000 -1.975786e+000 9.923196e-001 -1.600227e+000 -2.442673e+000 -2.215416e+000 -9.429404e-001 7.575419e-002 -6.292563e-001 2.690490e-001 -4.317472e-001 1.615058e-001 1.869146e+000 -1.212555e+000 -1.130394e-002 -2.816338e-001 2.562811e-001 3.403655e-002 7.897093e-001 6.747591e-001 3.455459e-001 1.504277e-001 -2.729523e-001 7.325367e-001 3.274643e-001 -1.253682e-001
<VARIANCE> 39
 1.302747e+001 1.957717e+001 1.622811e+001 1.800404e+001 2.039059e+001 2.483833e+001 1.333727e+001 1.202706e+001 1.295629e+001 2.056028e+001 1.311881e+001 1.501809e+001 1.731129e+001 5.658869e+000 9.226316e-001 1.688130e+000 1.867286e+000 1.302344e+000 4.465791e+000 3.020652e+000 2.191291e+000 1.750728e+000 2.408383e+000 3.059092e+000 2.115512e+000 6.830404e-001 3.259529e-001 3.227682e-001 1.989534e-001 3.440995e-001 3.225764e-001 3.653858e-001 3.100962e-001 2.910141e-001 2.703765e-001 3.893872e-001 2.985084e-001 3.546107e-001 2.532686e-001
<GCONST> 1.019504e+002
<STATE> 4
<MEAN> 39
 5.645755e-001 -3.315732e+000 2.697586e+000 -4.721465e+000 -4.607727e+000 -1.335859e+001 1.435265e+000 6.993001e-001 -2.774053e+000 -4.389128e-001 -1.678048e+000 -1.335639e+000 6.319389e+001 -6.431065e-001 2.531381e-001 -3.678352e-001 5.514210e-001 7.068527e-001 5.363520e-001 1.669389e-001 -2.007331e-001 1.749333e-001 1.351349e-001 2.405983e-001 -5.663046e-002 -4.137407e-001 -8.967303e-002 8.234863e-002 -2.317915e-002 3.879048e-002 9.434915e-002 5.906067e-002 -1.949944e-002 -4.508309e-004 5.191368e-002 5.027027e-002 -1.369129e-002 -3.011290e-003 -3.233298e-002
<VARIANCE> 39
 2.611188e+001 2.004752e+001 5.149025e+001 4.569710e+001 8.317439e+001 6.238805e+001 1.499459e+001 2.809470e+001 5.522445e+001 2.188683e+001 2.502361e+001 1.840460e+001 3.647455e+001 1.639434e+000 1.281508e+000 3.605556e+000 1.904684e+000 3.722470e+000 3.531188e+000 1.452433e+000 2.011674e+000 5.556617e+000 1.456582e+000 1.848472e+000 1.315559e+000 1.498903e+000 1.689542e-001 2.294297e-001 6.055330e-001 3.342659e-001 5.145044e-001 5.864741e-001 2.709751e-001 3.574112e-001 8.725148e-001 2.530548e-001 3.270367e-001 2.534042e-001 2.296649e-001
<GCONST> 1.129742e+002
<TRANSP> 5
 0.000000e+000 1.000000e+000 0.000000e+000 0.000000e+000 0.000000e+000
 0.000000e+000 6.706376e-001 3.293623e-001 0.000000e+000 0.000000e+000
 0.000000e+000 0.000000e+000 7.134018e-001 2.865983e-001 0.000000e+000
 0.000000e+000 0.000000e+000 0.000000e+000 9.469054e-001 5.309461e-002
 0.000000e+000 0.000000e+000 0.000000e+000 0.000000e+000 0.000000e+000
<ENDHMM>
~h "iy"
<BEGINHMM>
<NUMSTATES> 5
<STATE> 2
<MEAN> 39
 2.894617e+000 -5.300614e+000 1.701922e+001 -1.087739e+001 -9.357011e+000 -1.848163e+001 -3.290592e+000 -7.727526e-001 -9.840715e+000 -8.186774e-001 -3.366263e+000 4.837396e+000 6.557383e+001 -4.751712e-001 5.129176e-001 8.209364e-001 -5.481131e-001 -1.201865e-001 -2.996514e-002 2.850812e-001 -6.160343e-001 -8.791095e-001 -1.903664e-001 1.527116e-001 5.691001e-001 -9.288429e-002 6.500681e-002 1.104902e-001 -2.735251e-001 1.837952e-001 1.608136e-001 2.587502e-001 -1.212269e-001 -2.375384e-001 1.852844e-001 4.480151e-002 -5.872793e-002 -2.150649e-001 -1.425683e-001
<VARIANCE> 39
 6.794853e+000 1.435390e+001 3.210564e+001 1.412895e+001 1.335591e+001 1.203774e+001 2.606964e+001 2.238403e+001 4.206171e+001 1.356926e+001 1.211820e+001 1.631196e+001 6.142390e+000 4.048176e-001 6.707500e-001 1.234680e+000 6.587430e-001 1.612324e+000 1.094760e+000 1.325899e+000 1.309518e+000 1.667602e+000 9.405461e-001 9.546840e-001 1.348641e+000 2.161796e-001 4.808046e-002 8.048434e-002 1.481549e-001 9.995082e-002 1.931068e-001 1.964152e-001 2.045892e-001 3.233229e-001 2.109470e-001 1.979922e-001 1.751958e-001 2.111363e-001 2.867126e-002
<GCONST> 8.027370e+001
<STATE> 3
<MEAN> 39
 1.494251e+000 -6.626849e-001 1.809729e+001 -1.084244e+001 -7.622127e+000 -1.541662e+001 -3.537856e+000 -6.614353e+000 -1.153646e+001 -2.947365e+000 -2.683725e+000 5.378219e+000 6.237843e+001 -4.870235e-002 7.470533e-001 -8.572750e-001 7.031383e-001 5.470584e-001 8.287250e-001 6.967342e-002 -4.195987e-001 7.387545e-001 -1.921273e-001 7.467354e-002 -6.909043e-001 -6.072404e-001 -3.991389e-002 2.435206e-002 -2.943104e-001 2.290323e-001 9.328109e-002 2.310511e-001 4.854506e-002 1.259867e-001 2.843199e-001 1.169556e-001 5.538657e-003 -2.377225e-001 -5.207711e-002
<VARIANCE> 39
 6.718824e+000 1.233860e+001 2.376272e+001 2.028659e+001 1.378596e+001 2.101936e+001 1.733087e+001 1.832944e+001 3.799825e+001 1.746095e+001 1.180004e+001 1.492317e+001 7.893390e+000 4.608481e-001 6.091038e-001 1.919812e+000 1.820333e+000 1.124621e+000 1.571466e+000 1.206887e+000 1.538537e+000 1.793844e+000 1.252589e+000 9.326340e-001 1.316622e+000 2.766063e-001 1.219314e-001 1.005963e-001 1.596327e-001 2.772926e-001 2.079085e-001 3.282506e-001 2.053756e-001 2.807680e-001 2.802174e-001 1.885113e-001 1.832761e-001 2.021305e-001 4.588188e-002
<GCONST> 8.596210e+001
<STATE> 4
<MEAN> 39
 -1.476091e-001 4.542973e+000 1.499390e+001 -6.091730e+000 -4.948788e+000 -5.017684e+000 -2.580920e+000 -7.952839e+000 -6.376093e+000 -3.812554e+000 -2.223186e+000 1.598296e+000 5.677563e+001 -1.817034e-001 1.147883e-003 -6.222579e-001 5.928965e-001 4.750105e-001 9.860823e-001 2.878304e-001 1.336976e-001 5.726371e-001 3.419770e-001 -8.424576e-002 -3.891312e-001 -5.729171e-001 -2.303886e-002 -1.118724e-001 -4.169413e-002 -1.280739e-002 -5.785956e-003 -2.330784e-002 3.113666e-002 6.797037e-002 3.923816e-002 6.551697e-002 -4.256587e-003 5.752553e-002 6.542319e-004
<VARIANCE> 39
 8.278573e+000 1.141246e+001 2.525934e+001 2.432929e+001 2.689662e+001 4.641914e+001 1.988331e+001 1.632124e+001 2.369205e+001 2.152500e+001 1.485601e+001 1.543052e+001 1.642306e+001 6.173000e-001 8.625908e-001 1.319239e+000 1.301925e+000 1.352665e+000 1.860942e+000 1.165921e+000 1.272693e+000 1.775558e+000 1.354956e+000 1.178185e+000 1.352753e+000 3.297046e-001 7.904384e-002 1.006705e-001 1.477280e-001 1.770628e-001 2.011347e-001 2.786411e-001 1.982908e-001 2.012933e-001 2.228071e-001 2.164242e-001 2.202451e-001 2.329284e-001 3.649053e-002
<GCONST> 8.759663e+001
<TRANSP> 5
 0.000000e+000 1.000000e+000 0.000000e+000 0.000000e+000 0.000000e+000
 0.000000e+000 8.682846e-001 1.317153e-001 0.000000e+000 0.000000e+000
 0.000000e+000 0.000000e+000 7.974231e-001 2.025769e-001 0.000000e+000
 0.000000e+000 0.000000e+000 0.000000e+000 8.725730e-001 1.274271e-001
 0.000000e+000 0.000000e+000 0.000000e+000 0.000000e+000 0.000000e+000
<ENDHMM>
~h "jh"
<BEGINHMM>
<NUMSTATES> 5
<STATE> 2
<MEAN> 39
 -4.691275e+000 -3.629053e+000 -1.349307e+000 -1.297552e+000 2.272319e+000 3.421189e+000 2.884747e+000 -3.845855e-001 3.003582e+000 4.969407e+000 -5.487432e-001 1.305314e+000 5.480354e+001 1.473937e-002 -4.045970e-001 -1.128699e-001 -8.989696e-001 -3.569134e-001 2.877628e-001 -6.446712e-001 6.480092e-001 7.681659e-001 6.041566e-001 3.505078e-001 8.850735e-002 8.914379e-001 1.874767e-001 1.905387e-001 2.458344e-001 -3.168843e-001 -1.910985e-001 -1.371778e-001 -2.580501e-001 -2.982014e-001 -2.185093e-001 5.728995e-002 -1.741632e-001 -1.977879e-001 3.139771e-001
<VARIANCE> 39
 2.976483e+001 5.771667e+000 2.055443e+001 6.174803e+001 1.527965e+001 1.788778e+001 1.735619e+001 2.808015e+001 2.658523e+001 1.509728e+001 1.921296e+001 1.919371e+001 5.672191e+001 4.290290e+000 1.353310e+000 1.948820e+000 2.591339e+000 1.403798e+000 2.138635e+000 1.788803e+000 2.697363e+000 1.872954e+000 1.848565e+000 1.814244e+000 2.033232e+000 2.444900e+000 4.260603e-001 1.109823e-001 3.182625e-001 5.476691e-001 3.238430e-001 3.778902e-001 4.862980e-001 3.954305e-001 3.813915e-001 3.058770e-001 2.247924e-001 2.693823e-001 5.062276e-001
<GCONST> 1.070238e+002
<STATE> 3
<MEAN> 39
 6.745421e+000 -8.612182e-001 -3.564371e+000 -1.869004e+001 1.786330e+000 2.339068e+000 -6.716499e+000 -2.652959e+000 -7.155796e+000 8.933621e+000 -3.749321e+000 -7.222339e+000 6.484137e+001 2.132741e-001 1.302221e-001 6.439251e-001 -2.828895e-001 -6.754592e-001 -8.262495e-001 -8.199162e-001 -3.336754e-001 -9.548494e-001 -1.027987e-001 -1.421509e-001 -3.012167e-001 1.659818e-001 -3.494470e-001 1.793442e-002 2.247096e-001 5.598333e-001 2.145667e-002 -2.166942e-001 3.144112e-001 -7.570083e-002 2.179216e-001 -2.823490e-001 -1.032784e-001 3.104169e-001 -5.981562e-002
<VARIANCE> 39
 1.232808e+001 6.122389e+000 1.844065e+001 4.429758e+001 6.586487e+000 9.695490e+000 2.185310e+001 1.927567e+001 5.534926e+001 1.449071e+001 2.036293e+001 3.525359e+001 2.133156e+001 2.443603e+000 3.342577e-001 6.189933e-001 6.502619e+000 1.072153e+000 9.381239e-001 3.436728e+000 1.374844e+000 5.147891e+000 1.619830e+000 2.661254e+000 2.917775e+000 1.859091e+000 3.525802e-001 1.632967e-001 1.363603e-001 3.128619e-001 1.693968e-001 1.399605e-001 3.355589e-001 3.828910e-001 4.300553e-001 4.155863e-001 4.318033e-001 3.496279e-001 8.712988e-002
<GCONST> 9.891357e+001
<STATE> 4
<MEAN> 39
 -4.614909e+000 -8.725446e-001 7.260606e+000 -3.988350e+000 -4.565094e+000 -1.896042e+000 -5.412800e-001 -5.555590e+000 -1.667524e+000 3.318944e+000 -3.440351e+000 7.900564e-001 6.016121e+001 8.167112e-003 -1.241759e-002 7.972075e-001 9.446331e-001 -3.337602e-001 -7.403324e-001 4.408925e-002 1.916679e-001 -2.196080e-001 -3.907685e-001 3.101242e-001 3.020547e-001 1.735065e-001 2.805863e-001 -2.448677e-002 -1.451534e-001 -1.444906e-001 9.577143e-002 1.930079e-003 -8.386268e-002 -3.914933e-002 -1.456606e-001 7.924556e-002 4.085829e-002 -8.374471e-002 -4.583683e-002
<VARIANCE> 39
 9.400833e+001 1.461303e+001 2.370822e+001 4.873757e+001 3.764302e+001 7.774792e+001 5.107327e+001 3.999916e+001 6.429089e+001 2.940578e+001 5.407851e+001 2.540196e+001 3.630152e+001 1.031090e+001 1.762977e+000 2.119380e+000 5.159748e+000 2.985020e+000 7.081415e+000 6.036110e+000 3.477479e+000 4.963905e+000 3.784693e+000 4.166234e+000 2.557110e+000 4.412018e+000 1.253670e+000 3.434654e-001 3.796169e-001 1.207643e+000 5.447662e-001 1.043204e+000 1.137239e+000 6.653126e-001 5.554188e-001 7.752075e-001 7.961627e-001 5.169678e-001 7.319561e-001
<GCONST> 1.335821e+002
<TRANSP> 5
 0.000000e+000 1.000000e+000 0.000000e+000 0.000000e+000 0.000000e+000
 0.000000e+000 7.861663e-001 2.138337e-001 0.000000e+000 0.000000e+000
 0.000000e+000 0.000000e+000 7.630894e-001 2.369106e-001 0.000000e+000
 0.000000e+000 0.000000e+000 0.000000e+000 9.377407e-001 6.225930e-002
 0.000000e+000 0.000000e+000 0.000000e+000 0.000000e+000 0.000000e+000
<ENDHMM>
~h "ng"
<BEGINHMM>
<NUMSTATES> 5
<STATE> 2
<MEAN> 39
 6.243662e+000 -4.713124e+000 -1.174932e+001 -1.310260e+001 9.009831e+000 2.140763e+000 2.036598e+000 -1.165293e+001 -6.921352e+000 -1.911101e+000 -2.089802e+000 -9.353993e+000 6.562736e+001 1.272573e-001 6.570166e-001 -9.613888e-002 3.285940e-001 -2.819128e-001 6.147760e-001 6.760876e-001 -3.404082e-001 -9.150080e-001 3.393066e-001 4.490604e-001 1.385846e-001 -6.431086e-001 -5.019168e-002 1.646829e-003 2.249997e-001 -3.169661e-002 -1.358264e-001 -1.055935e-001 4.032474e-002 1.431117e-001 4.697086e-002 2.331490e-002 -3.407344e-001 1.393481e-001 -1.473029e-002
<VARIANCE> 39
 4.159522e+000 1.392606e+001 9.839925e+000 1.434859e+001 9.502460e+000 1.513382e+001 2.303308e+001 7.805569e+000 2.863550e+001 1.833970e+001 2.281433e+001 1.349825e+001 1.058278e+001 2.624871e-001 3.142357e-001 9.600680e-001 4.921328e-001 7.028664e-001 5.889323e-001 1.195469e+000 9.235021e-001 1.284468e+000 9.021721e-001 3.029182e+000 1.654288e+000 2.155733e-001 3.673454e-002 4.659635e-002 8.203654e-002 6.878782e-002 1.461166e-001 7.623603e-002 1.868017e-001 1.922183e-001 2.315028e-001 1.685334e-001 2.138113e-001 2.008020e-001 2.219784e-002
<GCONST> 7.182487e+001
<STATE> 3
<MEAN> 39
 4.529183e+000 1.006256e+000 -5.590134e-001 -1.018968e+001 2.225826e+000 1.722383e+000 4.632844e+000 -1.068658e+001 -7.872211e+000 8.090081e-001 -1.314392e+001 -4.055234e+000 6.004835e+001 -1.484782e-001 3.878767e-001 1.245405e+000 4.959494e-001 -4.388340e-001 -3.019807e-001 -4.323339e-001 3.901036e-001 6.247200e-001 -4.589860e-002 -9.858527e-001 1.055387e-001 -4.019745e-001 2.067532e-002 -1.012577e-002 -8.517995e-002 9.634285e-002 1.163875e-001 2.774348e-003 -1.184968e-002 3.761378e-002 6.826729e-002 3.925340e-003 1.816222e-001 -9.664354e-002 -2.222132e-002
<VARIANCE> 39
 5.002529e+000 6.548454e+000 3.274636e+001 1.469748e+001 1.244883e+001 1.890736e+001 2.282130e+001 9.003152e+000 1.556892e+001 1.120484e+001 2.589052e+001 1.687005e+001 6.538260e+000 2.784231e-001 3.131165e-001 8.833342e-001 5.472438e-001 8.407632e-001 1.001897e+000 9.973609e-001 8.725572e-001 1.048627e+000 8.511282e-001 1.216449e+000 1.361227e+000 2.768428e-001 4.347127e-002 5.971911e-002 1.177845e-001 8.531082e-002 1.229306e-001 1.721582e-001 2.141914e-001 1.735413e-001 2.031035e-001 1.506817e-001 1.137551e-001 2.801219e-001 4.047650e-002
<GCONST> 7.303538e+001
<STATE> 4
<MEAN> 39
 2.715496e+000 3.527518e+000 6.932810e+000 -5.654891e-001 3.561666e+000 2.448960e+000 4.106033e+000 -6.246086e+000 -1.829646e+000 1.125905e+000 -1.322961e+001 -3.159309e+000 5.364051e+001 -4.149452e-001 -2.685476e-001 1.131227e-002 9.120113e-001 3.638178e-001 4.801700e-001 3.509086e-001 5.102358e-001 5.134080e-001 1.370969e-001 7.614999e-001 3.111833e-001 -7.533479e-001 -7.245998e-002 -1.379942e-001 -1.395138e-001 -1.555374e-001 -6.550964e-002 -5.240875e-003 3.190798e-002 -1.381059e-002 -2.059692e-002 5.267023e-002 9.528583e-002 9.486452e-002 3.114275e-002
<VARIANCE> 39
 5.251028e+000 3.532166e+000 6.202747e+000 1.987164e+001 1.314717e+001 1.247368e+001 1.336336e+001 1.843430e+001 1.361242e+001 1.905410e+001 1.385209e+001 1.980538e+001 5.547708e+000 2.909011e-001 4.061740e-001 7.837042e-001 1.817311e+000 1.037991e+000 1.097193e+000 1.588431e+000 1.722465e+000 1.415697e+000 1.618764e+000 1.049357e+000 1.461711e+000 1.347450e-001 3.007134e-002 4.987161e-002 1.092524e-001 3.132750e-001 1.874365e-001 1.895312e-001 3.101172e-001 3.289263e-001 2.694424e-001 3.377552e-001 2.309043e-001 3.085080e-001 2.266913e-002
<GCONST> 7.718871e+001
<TRANSP> 5
 0.000000e+000 1.000000e+000 0.000000e+000 0.000000e+000 0.000000e+000
 0.000000e+000 9.157758e-001 8.422419e-002 0.000000e+000 0.000000e+000
 0.000000e+000 0.000000e+000 9.136435e-001 8.635642e-002 0.000000e+000
 0.000000e+000 0.000000e+000 0.000000e+000 8.750484e-001 1.249516e-001
 0.000000e+000 0.000000e+000 0.000000e+000 0.000000e+000 0.000000e+000
<ENDHMM>
~h "ow"
<BEGINHMM>
<NUMSTATES> 5
<STATE> 2
<MEAN> 39
 3.824670e+000 1.652057e-001 -1.847048e+000 -9.487023e+000 -1.940809e+000 4.216998e+000 1.607161e+000 -3.698010e+000 -6.592113e-001 1.266623e+000 -1.493322e+000 -2.854475e+000 5.495947e+001 -2.410182e-001 1.523446e-001 7.873408e-002 -1.053074e-001 4.288303e-001 1.698052e-001 -4.832801e-002 3.634962e-001 -1.597096e-001 -2.038286e-001 7.718560e-002 -1.852998e-001 -1.707481e-001 -5.622618e-002 -4.224662e-003 -6.294365e-003 2.755063e-001 -1.621195e-003 -7.024531e-002 1.434273e-001 -7.272508e-002 9.324033e-003 -4.162043e-002 1.006218e-002 -1.802556e-002 -3.581304e-002
<VARIANCE> 39
 3.613906e+001 2.344146e+001 2.368854e+001 1.076728e+002 4.203263e+001 2.710001e+001 3.248675e+001 2.875817e+001 4.175356e+001 3.968242e+001 4.241640e+001 3.378698e+001 6.351647e+001 3.817811e-001 6.670555e-001 8.535465e-001 1.688953e+000 1.663548e+000 1.359469e+000 1.883889e+000 2.173224e+000 2.138314e+000 1.703227e+000 1.713197e+000 1.345564e+000 3.206348e-001 7.209880e-002 9.973806e-002 1.412385e-001 4.093808e-001 2.106995e-001 2.152476e-001 3.155187e-001 4.014188e-001 3.516550e-001 3.507530e-001 3.325255e-001 2.590039e-001 4.438685e-002
<GCONST> 1.005819e+002
<STATE> 3
<MEAN> 39
 7.908581e+000 3.689637e+000 -4.666255e+000 -2.251244e+001 -5.468547e+000 5.241589e+000 -9.732961e-001 -2.072443e+000 -3.376932e+000 -3.068070e+000 1.053200e+000 -5.597449e+000 6.129727e+001 3.655672e-002 3.831525e-001 2.934892e-001 1.465956e-001 9.183438e-003 -3.191736e-001 9.542739e-002 2.875723e-001 -3.531080e-001 -4.215005e-001 -7.837549e-002 -7.522583e-002 -3.181358e-001 -6.188870e-003 -3.308395e-002 3.209101e-002 2.073972e-001 -2.544872e-003 -6.530301e-002 7.701330e-002 -6.220213e-002 8.227367e-003 9.134003e-002 -1.087147e-001 1.102805e-002 -5.279146e-002
<VARIANCE> 39
 7.744197e+000 1.195407e+001 1.848824e+001 6.025968e+001 3.288824e+001 2.497509e+001 2.408581e+001 2.745553e+001 3.260444e+001 4.530342e+001 2.659381e+001 2.678427e+001 2.744857e+001 1.896475e-001 2.634394e-001 4.733249e-001 1.097323e+000 8.791587e-001 7.205159e-001 8.755288e-001 9.174649e-001 1.082214e+000 1.248839e+000 9.720991e-001 1.011878e+000 2.541022e-001 3.654204e-002 4.521655e-002 7.953513e-002 1.442626e-001 1.018339e-001 1.136873e-001 1.501826e-001 1.665387e-001 1.937374e-001 1.886550e-001 2.159165e-001 1.595251e-001 3.858117e-002
<GCONST> 7.923941e+001
<STATE> 4
<MEAN> 39
 6.981216e+000 4.135861e+000 -3.464233e+000 -1.699429e+001 -4.481450e+000 3.841344e+000 5.326331e-001 -2.417687e+000 -3.914339e+000 -3.670586e+000 -9.358214e-001 -5.389890e+000 5.760404e+001 -1.708081e-001 -5.710779e-002 1.800501e-001 6.010223e-001 4.053141e-001 -9.627854e-002 2.051820e-001 -1.463755e-002 2.049174e-002 3.057848e-001 -3.732588e-001 -8.770464e-002 -1.308012e-001 -1.045589e-001 -5.962159e-002 5.660769e-002 1.118969e-001 3.818888e-002 -4.250265e-003 3.337192e-002 -4.501060e-002 1.246459e-001 1.083572e-001 -9.101044e-002 6.486305e-002 3.358548e-004
<VARIANCE> 39
 1.960055e+001 1.531638e+001 2.839188e+001 1.006987e+002 3.475574e+001 3.435841e+001 2.495489e+001 2.515555e+001 4.950991e+001 3.954362e+001 3.279351e+001 3.120394e+001 3.533157e+001 1.103349e+000 6.923711e-001 1.522518e+000 4.985501e+000 2.207855e+000 1.642112e+000 1.590033e+000 1.720301e+000 2.001167e+000 2.218098e+000 2.516514e+000 1.990959e+000 1.433377e+000 1.266782e-001 8.158967e-002 2.209913e-001 4.980677e-001 2.145154e-001 2.321735e-001 2.693152e-001 2.764686e-001 3.229082e-001 3.430654e-001 5.091208e-001 3.175466e-001 1.576474e-001
<GCONST> 1.062104e+002
<TRANSP> 5
 0.000000e+000 1.000000e+000 0.000000e+000 0.000000e+000 0.000000e+000
 0.000000e+000 5.027925e-001 4.972076e-001 0.000000e+000 0.000000e+000
 0.000000e+000 0.000000e+000 8.326444e-001 1.673556e-001 0.000000e+000
 0.000000e+000 0.000000e+000 0.000000e+000 8.617345e-001 1.382655e-001
 0.000000e+000 0.000000e+000 0.000000e+000 0.000000e+000 0.000000e+000
<ENDHMM>
~h "sp"
<BEGINHMM>
<NUMSTATES> 3
<STATE> 2
~s "silst"
<TRANSP> 3
 0.000000e+000 2.256135e-001 7.743866e-001
 0.000000e+000 9.707856e-001 2.921438e-002
 0.000000e+000 0.000000e+000 0.000000e+000
<ENDHMM>
~h "th"
<BEGINHMM>
<NUMSTATES> 5
<STATE> 2
<MEAN> 39
 -5.060992e+000 5.324705e-001 8.837490e-001 -7.475173e-001 4.870280e+000 -2.262975e+000 3.848604e+000 -9.109141e-001 1.286244e+000 7.003398e-001 -8.800695e-001 -4.642784e-001 5.458257e+001 -1.751417e+000 2.742212e-001 -6.580828e-001 3.559871e-001 8.192658e-001 -3.194190e-001 2.071053e-001 1.241452e+000 6.868986e-001 -4.863436e-002 7.887057e-001 2.755780e-001 7.040995e-001 -1.027773e-001 -5.236597e-002 -4.971296e-002 -8.698072e-002 -7.633569e-002 -7.864013e-002 3.145083e-002 3.483081e-002 5.979357e-003 2.799877e-002 8.144220e-003 8.797950e-002 1.088424e-001
<VARIANCE> 39
 2.919222e+001 2.108240e+001 1.804497e+001 2.084525e+001 2.865434e+001 3.242231e+001 2.695696e+001 3.232241e+001 2.851661e+001 2.323448e+001 2.713218e+001 2.210406e+001 3.891405e+001 3.365994e+000 1.355595e+000 1.622485e+000 2.951003e+000 2.068986e+000 3.726625e+000 2.406964e+000 2.405576e+000 2.518986e+000 1.780619e+000 2.254491e+000 2.302162e+000 1.394381e+000 3.980590e-001 2.319611e-001 2.333979e-001 3.594442e-001 3.539074e-001 5.488508e-001 4.603508e-001 4.373280e-001 4.222302e-001 3.123728e-001 3.668377e-001 4.418150e-001 1.391386e-001
<GCONST> 1.106307e+002
<STATE> 3
<MEAN> 39
 -1.512857e+001 4.025694e+000 -2.859689e+000 5.891167e-002 8.862689e+000 -4.318272e+000 4.896643e+000 4.795143e+000 4.508203e+000 -2.168470e-001 1.021500e+000 7.258390e-001 6.121072e+001 2.404549e-001 1.847845e-002 1.874761e-001 -1.712563e-001 8.397038e-002 -1.031417e-001 -2.413094e-001 1.660820e-001 1.086530e-001 -1.048840e-001 -1.827566e-001 -1.638637e-001 1.050173e-001 4.540572e-001 -6.845205e-002 1.748059e-001 -8.137519e-002 -1.628398e-001 -2.968515e-002 -2.074254e-001 -1.979730e-001 -5.988872e-002 3.020221e-002 -1.327973e-001 -1.364391e-001 -5.384810e-002
<VARIANCE> 39
 6.478407e+000 1.021789e+001 1.070941e+001 1.925993e+001 2.623986e+001 1.440978e+001 1.960172e+001 2.053294e+001 1.652903e+001 2.027769e+001 1.530288e+001 1.582875e+001 7.734199e+000 1.972337e+000 7.828096e-001 1.110937e+000 1.452406e+000 1.407940e+000 1.462585e+000 1.756721e+000 1.651304e+000 1.547499e+000 1.728884e+000 1.529705e+000 1.507431e+000 3.409439e-001 2.721922e-001 1.431949e-001 1.990578e-001 2.792540e-001 3.339453e-001 3.042272e-001 3.453198e-001 4.463017e-001 2.909249e-001 3.810743e-001 3.408559e-001 3.080206e-001 5.324378e-002
<GCONST> 9.224805e+001
<STATE> 4
<MEAN> 39
 8.333531e-001 6.250886e-001 3.615862e+000 -4.244127e+000 3.270843e+000 -6.985328e+000 -4.488901e+000 -6.400210e-002 4.440352e+000 1.708139e+000 -4.167201e+000 -4.660485e+000 6.173100e+001 4.287230e+000 -1.823029e+000 1.054305e+000 2.729713e-001 -3.469130e+000 -5.842499e-001 -1.781644e+000 -3.025971e+000 -6.326483e-001 1.592940e+000 -1.032915e+000 -1.123430e+000 2.398150e-001 -4.190210e-001 -2.971486e-001 -4.923062e-001 5.870367e-001 -3.726763e-001 -1.112171e-001 6.656552e-001 -8.645229e-002 -3.849861e-001 1.225426e-001 3.621934e-001 2.135176e-001 -1.067928e-002
<VARIANCE> 39
 5.233657e+001 1.744916e+001 1.319058e+001 1.555775e+001 3.708666e+001 2.606165e+001 2.865688e+001 4.490794e+001 1.503172e+001 2.563547e+001 1.717639e+001 1.449916e+001 1.118621e+001 2.504558e+000 1.807897e+000 2.009768e+000 3.266858e+000 2.192414e+000 2.660311e+000 3.679454e+000 2.978443e+000 1.656302e+000 1.966422e+000 2.120738e+000 1.513387e+000 6.172838e-001 7.611826e-001 3.159857e-001 3.363670e-001 4.219767e-001 7.463038e-001 5.418784e-001 6.599936e-001 1.096650e+000 3.034141e-001 5.601305e-001 3.867967e-001 2.859400e-001 1.188895e-001
<GCONST> 1.104431e+002
<TRANSP> 5
 0.000000e+000 1.000000e+000 0.000000e+000 0.000000e+000 0.000000e+000
 0.000000e+000 8.422899e-001 1.577101e-001 0.000000e+000 0.000000e+000
 0.000000e+000 0.000000e+000 9.216438e-001 7.835621e-002 0.000000e+000
 0.000000e+000 0.000000e+000 0.000000e+000 7.448971e-001 2.551028e-001
 0.000000e+000 0.000000e+000 0.000000e+000 0.000000e+000 0.000000e+000
<ENDHMM>
~h "uh"
<BEGINHMM>
<NUMSTATES> 5
<STATE> 2
<MEAN> 39
