~o
<STREAMINFO> 1 39
<VECSIZE> 39<NULLD><MFCC_D_A_0><DIAGC>
~s "silst"
<MEAN> 39
 -3.411690e+000 -1.101331e+000 1.723965e+000 1.519163e+000 2.536825e+000 3.235078e+000 5.073034e+000 -4.298248e+000 1.117386e+000 1.892335e+000 -2.602974e+000 4.106611e-001 4.696810e+001 -3.560810e-002 -2.177441e-002 -3.872355e-002 1.172062e-002 -1.812622e-003 2.700380e-003 2.660575e-002 -1.155413e-002 1.509929e-002 2.933057e-002 3.326829e-002 4.404409e-002 -4.369229e-002 7.681503e-003 9.050985e-003 3.584135e-003 -1.397205e-002 -3.735014e-003 -1.495155e-002 -8.983221e-003 1.162473e-002 -1.210126e-003 -8.800506e-003 7.956295e-004 -6.330396e-003 1.700836e-002
<VARIANCE> 39
 4.993777e+000 6.743946e+000 7.658033e+000 8.526756e+000 1.128819e+001 1.503118e+001 1.510321e+001 2.023155e+001 1.826110e+001 1.817333e+001 1.920213e+001 1.319718e+001 4.491805e+000 1.585771e-001 3.166539e-001 4.881405e-001 6.279877e-001 8.583226e-001 1.078462e+000 1.265459e+000 1.506779e+000 1.463258e+000 1.450276e+000 1.340878e+000 1.171217e+000 1.049706e-001 3.008222e-002 5.740467e-002 9.352591e-002 1.255507e-001 1.759145e-001 2.212093e-001 2.590050e-001 3.025911e-001 3.059042e-001 2.973357e-001 2.719920e-001 2.398678e-001 1.828777e-002
<GCONST> 7.268785e+001
~h "d"
<BEGINHMM>
<NUMSTATES> 5
<STATE> 2
<MEAN> 39
 -2.025167e+000 -7.900866e-001 7.845331e-001 5.016608e-001 5.359648e-001 3.302161e+000 5.737190e+000 -2.398906e+000 4.362795e+000 4.920372e+000 -3.995616e-003 2.213956e+000 4.723979e+001 -4.223150e-001 -2.792149e-001 -2.602433e-001 8.141114e-002 1.496836e-001 4.331178e-001 4.930341e-001 3.034793e-001 8.837800e-002 -1.002664e-001 1.720825e-001 2.685983e-001 -4.175111e-001 8.338046e-002 7.302287e-002 6.033990e-002 -2.411476e-001 1.360154e-001 -2.488463e-001 -3.833592e-001 -1.314695e-001 -4.193692e-001 -2.081525e-001 -2.011133e-001 -1.252482e-001 3.592034e-001
<VARIANCE> 39
 5.559496e+000 4.665982e+000 5.711219e+000 9.611491e+000 1.094738e+001 1.684772e+001 1.706931e+001 2.489680e+001 1.535064e+001 1.687536e+001 1.676993e+001 1.770336e+001 5.940107e+000 6.084347e-001 5.818937e-001 7.077851e-001 1.089694e+000 1.227541e+000 1.287737e+000 2.172062e+000 2.139967e+000 2.025170e+000 1.734073e+000 1.670254e+000 1.556080e+000 7.870485e-001 9.002709e-002 9.227108e-002 1.557104e-001 2.050417e-001 2.164868e-001 3.126736e-001 4.012515e-001 4.275519e-001 2.643485e-001 3.882288e-001 3.463205e-001 2.617539e-001 1.313085e-001
<GCONST> 8.650971e+001
<STATE> 3
<MEAN> 39
 -4.825794e+000 -1.286993e-001 2.559235e+000 1.268238e+000 2.258103e+000 1.582878e+000 5.253816e+000 -4.687610e+000 -3.351288e-001 5.540882e-001 -2.949491e+000 -1.538873e-002 4.712714e+001 -9.948632e-003 -2.457188e-002 -8.124568e-003 1.114568e-002 8.453840e-002 2.310920e-002 -6.321654e-002 -1.314249e-002 -7.067870e-002 -6.262061e-002 -1.440797e-002 1.264427e-002 5.747635e-003 -1.432693e-003 -5.519685e-002 -3.972290e-002 -1.236045e-001 -1.695616e-002 -1.199470e-001 -8.275465e-002 9.343020e-002 2.093458e-002 -9.152452e-003 3.865701e-002 2.702832e-002 1.774026e-001
<VARIANCE> 39
 4.918198e+000 5.094214e+000 5.344466e+000 8.514502e+000 9.515311e+000 1.313731e+001 1.370262e+001 1.685834e+001 1.800023e+001 1.847873e+001 1.751107e+001 1.323117e+001 2.798948e+000 2.626902e-001 4.878770e-001 5.506844e-001 7.330849e-001 9.834532e-001 1.206819e+000 1.364741e+000 1.597536e+000 1.684485e+000 1.879538e+000 1.531823e+000 1.488458e+000 1.756108e-001 7.403941e-002 1.166744e-001 1.236396e-001 2.237795e-001 2.146589e-001 3.114504e-001 3.197824e-001 3.637267e-001 4.041338e-001 4.113994e-001 3.605748e-001 3.222776e-001 1.849406e-001
<GCONST> 8.066490e+001
<STATE> 4
<MEAN> 39
 -5.533596e+000 -2.533508e+000 1.468379e+000 -2.295121e+000 2.623111e+000 1.109869e+000 2.010380e+000 -5.593247e-001 2.205334e+000 1.555573e+000 -2.631868e-001 2.369429e+000 5.180103e+001 2.164747e-001 -3.874055e-001 -1.869334e-001 -1.257669e+000 5.566076e-002 -1.738204e+000 -8.497130e-001 1.065773e+000 -1.820022e-001 -5.165781e-001 -4.279650e-001 -1.922835e-001 2.128766e+000 4.098294e-001 -5.089092e-002 -8.516055e-003 -1.667216e-001 6.336925e-003 -2.658890e-001 9.288313e-003 1.360141e-001 -2.454100e-003 7.144432e-002 -4.596139e-001 -3.795520e-001 3.374548e-001
<VARIANCE> 39
 2.342598e+001 1.503456e+001 1.550086e+001 3.189530e+001 1.825185e+001 2.941830e+001 2.637391e+001 3.907140e+001 1.818982e+001 2.215424e+001 2.482917e+001 1.243886e+001 4.223460e+001 4.205447e+000 1.722410e+000 2.116773e+000 4.115608e+000 2.351553e+000 4.640480e+000 3.173927e+000 3.969996e+000 2.338798e+000 2.546390e+000 3.565070e+000 1.945685e+000 6.422782e+000 7.101409e-001 3.497954e-001 4.038519e-001 5.799727e-001 4.577934e-001 7.350745e-001 5.653432e-001 7.569909e-001 4.197799e-001 4.954276e-001 6.287050e-001 4.957736e-001 1.013275e+000
<GCONST> 1.195878e+002
<TRANSP> 5
 0.000000e+000 1.000000e+000 0.000000e+000 0.000000e+000 0.000000e+000
 0.000000e+000 5.075971e-001 4.924029e-001 0.000000e+000 0.000000e+000
 0.000000e+000 0.000000e+000 8.512460e-001 1.487540e-001 0.000000e+000
 0.000000e+000 0.000000e+000 0.000000e+000 7.783455e-001 2.216544e-001
 0.000000e+000 0.000000e+000 0.000000e+000 0.000000e+000 0.000000e+000
<ENDHMM>
~h "f"
<BEGINHMM>
<NUMSTATES> 5
<STATE> 2
<MEAN> 39
 -1.745890e+000 -2.040608e+000 2.582549e-001 7.935920e-001 3.279470e+000 3.192973e+000 3.238328e+000 -1.927196e+000 1.998873e+000 1.612873e+000 -1.316078e+000 -1.581368e-002 5.099118e+001 -4.283978e-001 -1.986091e-001 -1.862297e-002 5.307676e-001 5.114927e-001 2.111503e-001 -5.876566e-002 5.071778e-001 2.637850e-001 7.478458e-002 2.388016e-001 -4.818852e-002 4.189254e-001 -1.297350e-001 -7.475470e-002 4.362379e-003 -4.471126e-002 6.426762e-003 -8.757050e-002 -6.146743e-002 1.137547e-001 -1.500396e-002 1.590220e-002 5.604576e-002 3.706110e-002 2.114493e-001
<VARIANCE> 39
 1.615647e+001 1.359251e+001 1.328242e+001 1.418602e+001 1.577111e+001 2.022482e+001 1.997964e+001 2.377873e+001 2.164878e+001 2.201957e+001 1.894555e+001 1.649949e+001 2.778452e+001 1.820345e+000 9.400060e-001 1.044832e+000 2.302029e+000 1.726928e+000 2.042377e+000 1.639760e+000 2.360011e+000 2.090229e+000 1.780506e+000 1.816749e+000 1.388178e+000 9.869435e-001 1.639350e-001 1.336692e-001 1.596150e-001 2.545095e-001 2.697270e-001 3.445430e-001 3.227327e-001 3.891505e-001 3.369375e-001 3.504244e-001 2.957646e-001 2.754375e-001 1.415101e-001
<GCONST> 9.765303e+001
<STATE> 3
<MEAN> 39
 -9.151383e+000 -4.039234e+000 -2.698634e-001 3.137687e+000 3.821658e+000 3.157866e+000 2.151364e+000 3.114718e+000 3.083394e+000 1.737174e+000 4.536511e-001 3.019597e-001 6.039349e+001 -4.450273e-001 -3.335491e-001 -3.041034e-001 -5.039569e-002 -5.638679e-002 2.642131e-002 -5.214308e-002 2.279576e-001 8.525589e-002 8.478726e-002 1.028117e-001 7.401439e-002 3.591556e-001 4.061529e-001 1.379109e-001 -1.871042e-002 -2.889108e-001 -1.148311e-001 -6.038700e-002 -3.704204e-002 -2.104741e-001 -1.241466e-001 -2.312749e-002 -1.026480e-001 -1.226120e-001 -8.533858e-002
<VARIANCE> 39
 1.454320e+001 1.386863e+001 1.438557e+001 1.422789e+001 1.489694e+001 1.482614e+001 1.693389e+001 1.521928e+001 1.667673e+001 1.572629e+001 1.444601e+001 1.409915e+001 1.528450e+001 2.032920e+000 9.464724e-001 1.035574e+000 1.437897e+000 1.524627e+000 1.586060e+000 1.798085e+000 1.821137e+000 1.803983e+000 1.749881e+000 1.693134e+000 1.620679e+000 1.320175e+000 3.747273e-001 2.103226e-001 2.052826e-001 3.941579e-001 3.481306e-001 3.264621e-001 3.881512e-001 3.638896e-001 3.907225e-001 3.684912e-001 3.227418e-001 3.592511e-001 1.245739e-001
<GCONST> 9.706355e+001
<STATE> 4
<MEAN> 39
 3.670026e-001 -1.717745e+000 -2.968353e+000 -5.453000e+000 1.657683e+000 2.836669e+000 -1.199858e-001 -5.987369e-001 5.660912e-002 2.035423e+000 -1.254099e+000 -3.720786e+000 6.119472e+001 4.365149e+000 1.573164e+000 -1.433133e+000 -4.811577e+000 -1.301396e+000 5.765252e-001 -1.376251e+000 -1.797563e+000 -1.529338e+000 3.630671e-001 -3.184381e-001 -1.983645e+000 8.167109e-001 -2.608738e-001 -1.454885e-001 -3.718148e-001 -4.931740e-001 -9.693073e-002 3.726922e-001 -1.635326e-002 9.629317e-002 -2.799688e-002 5.804599e-003 1.226759e-001 -8.367942e-002 3.007517e-001
<VARIANCE> 39
 6.081871e+001 1.817909e+001 1.649441e+001 6.954723e+001 1.676099e+001 1.360371e+001 1.767698e+001 2.376733e+001 2.160347e+001 1.963292e+001 1.581471e+001 2.338820e+001 1.268903e+001 1.775251e+000 1.645129e+000 2.164413e+000 4.218773e+000 1.831776e+000 2.358713e+000 1.791527e+000 1.617777e+000 1.983451e+000 2.907890e+000 2.174825e+000 2.843802e+000 8.487629e-001 1.416498e+000 4.676619e-001 2.739852e-001 1.279133e+000 4.271005e-001 3.191731e-001 4.642759e-001 5.027573e-001 4.519497e-001 4.113932e-001 3.280016e-001 4.583417e-001 1.092317e-001
<GCONST> 1.102262e+002
<TRANSP> 5
 0.000000e+000 1.000000e+000 0.000000e+000 0.000000e+000 0.000000e+000
 0.000000e+000 8.208781e-001 1.791218e-001 0.000000e+000 0.000000e+000
 0.000000e+000 0.000000e+000 9.137315e-001 8.626854e-002 0.000000e+000
 0.000000e+000 0.000000e+000 0.000000e+000 7.110909e-001 2.889091e-001
 0.000000e+000 0.000000e+000 0.000000e+000 0.000000e+000 0.000000e+000
<ENDHMM>
~h "k"
<BEGINHMM>
<NUMSTATES> 5
<STATE> 2
<MEAN> 39
 -9.416057e+000 5.927506e-001 -5.588083e+000 2.483879e+000 8.301133e+000 -3.900329e+000 3.066349e+000 -2.778520e+000 4.506574e+000 3.194570e+000 -3.958578e-002 -6.790860e-001 5.611164e+001 -1.691079e+000 7.702133e-002 -3.983825e-001 -2.410941e-003 5.177882e-001 8.248016e-001 9.617485e-002 4.054968e-001 1.069169e+000 1.942767e-001 7.410219e-001 1.777356e-001 5.141038e-001 2.213582e-001 7.347345e-002 4.109700e-001 -6.825254e-002 -3.940199e-001 -3.906598e-001 -2.451824e-002 1.775321e-001 -4.832681e-001 -4.152099e-002 -5.081584e-002 -6.536133e-002 1.665710e-001
<VARIANCE> 39
 3.231034e+001 1.093043e+001 2.710110e+001 2.135194e+001 2.850705e+001 3.122384e+001 2.026457e+001 2.742395e+001 3.087953e+001 1.886175e+001 2.490207e+001 1.804585e+001 2.671252e+001 1.878020e+000 1.037627e+000 4.794251e+000 2.501999e+000 3.197207e+000 4.455562e+000 2.506351e+000 3.197549e+000 4.158959e+000 2.143553e+000 2.174675e+000 1.986315e+000 1.380396e+000 3.461814e-001 2.107971e-001 8.638034e-001 6.088378e-001 6.516802e-001 6.827278e-001 4.991512e-001 6.216004e-001 7.875592e-001 4.545475e-001 4.996060e-001 4.102663e-001 3.151782e-001
<GCONST> 1.156321e+002
<STATE> 3
<MEAN> 39
 -1.387818e+001 4.051650e+000 -3.795728e+000 2.484651e+000 9.144965e+000 -2.666043e+000 3.420275e+000 -3.882264e-001 5.138539e+000 2.872406e+000 9.629261e-001 -1.476414e+000 5.657060e+001 2.457753e-001 1.282681e-001 9.155781e-002 -1.932417e-001 -1.478307e-001 1.098537e-001 1.223410e-001 -7.388669e-002 -1.485395e-001 -9.829772e-002 -1.149039e-001 -7.340144e-002 -2.449634e-001 9.492915e-002 -5.896929e-002 1.158710e-002 -2.955376e-002 -2.048340e-002 2.058888e-002 -1.520405e-003 -4.109515e-002 -3.983069e-002 -4.697946e-003 -4.618130e-003 2.824340e-002 -4.840480e-002
<VARIANCE> 39
 1.478513e+001 8.559148e+000 9.733075e+000 1.852767e+001 1.868696e+001 1.835921e+001 1.760156e+001 1.676902e+001 1.981595e+001 1.442670e+001 1.693401e+001 1.483717e+001 2.156919e+001 3.925403e-001 5.382913e-001 5.858865e-001 7.504986e-001 9.588132e-001 1.429967e+000 1.319474e+000 1.426666e+000 1.529140e+000 1.466325e+000 1.285195e+000 1.333423e+000 2.828586e-001 5.100803e-002 7.273255e-002 9.913643e-002 1.374142e-001 2.077762e-001 2.965471e-001 2.865731e-001 2.835987e-001 3.401535e-001 3.092003e-001 2.692590e-001 2.769309e-001 3.219354e-002
<GCONST> 8.267302e+001
<STATE> 4
<MEAN> 39
 -3.931180e+000 -2.932348e+000 -9.499494e-001 2.943808e-001 3.411604e+000 1.100140e+000 4.979671e+000 -3.252086e-001 5.011347e+000 3.968457e+000 3.726639e-001 1.512625e+000 5.044993e+001 7.446334e-002 1.963289e-002 8.098978e-003 3.017253e-002 -2.425028e-002 5.923859e-002 4.074251e-002 1.835301e-002 -8.488449e-002 1.824055e-002 -6.671269e-002 -1.313938e-003 -2.484303e-002 -9.707978e-003 1.192705e-002 1.746700e-002 -1.126828e-002 5.163526e-002 -2.676134e-003 -4.881366e-003 1.290545e-003 -9.639668e-003 -1.683429e-002 1.024908e-002 -4.335011e-003 9.368373e-003
<VARIANCE> 39
 1.723503e+001 1.576000e+001 8.729476e+000 9.339869e+000 1.805939e+001 1.737471e+001 1.685759e+001 1.832317e+001 1.599321e+001 2.110490e+001 1.323723e+001 1.205362e+001 1.562763e+001 2.695863e-001 3.715925e-001 4.554181e-001 6.084434e-001 9.040626e-001 1.133480e+000 1.462717e+000 1.380453e+000 1.292081e+000 1.584275e+000 1.174948e+000 1.031255e+000 2.122382e-001 5.267556e-002 6.189623e-002 1.001966e-001 1.196266e-001 1.795329e-001 2.162521e-001 3.162470e-001 2.754481e-001 2.645799e-001 3.292637e-001 2.406420e-001 2.093593e-001 3.450567e-002
<GCONST> 7.867416e+001
<TRANSP> 5
 0.000000e+000 1.000000e+000 0.000000e+000 0.000000e+000 0.000000e+000
 0.000000e+000 8.027660e-001 1.972340e-001 0.000000e+000 0.000000e+000
 0.000000e+000 0.000000e+000 8.089006e-001 1.910994e-001 0.000000e+000
 0.000000e+000 0.000000e+000 0.000000e+000 8.197991e-001 1.802009e-001
 0.000000e+000 0.000000e+000 0.000000e+000 0.000000e+000 0.000000e+000
<ENDHMM>
~h "l"
<BEGINHMM>
<NUMSTATES> 5
<STATE> 2
<MEAN> 39
 1.336923e-001 -2.772470e+000 2.728107e+000 -5.619238e+000 2.109289e+000 -6.518401e+000 -2.224966e+000 -2.960831e+000 4.071665e-001 3.816344e+000 -5.795575e+000 5.043054e-001 6.080639e+001 -2.397083e-001 -4.574400e-001 -1.461458e-001 -4.021281e-001 2.928764e-001 -7.192242e-001 -6.942434e-001 5.623536e-001 8.162584e-001 -2.502202e-001 -2.022096e-001 -1.586550e-001 1.225223e+000 8.950669e-002 -1.443519e-002 -6.566382e-002 -1.674174e-001 5.416406e-002 2.470147e-001 2.007047e-001 4.151747e-002 -1.487545e-001 -1.008913e-001 6.971224e-002 -2.189436e-001 -1.562342e-002
<VARIANCE> 39
 3.067719e+001 2.645780e+001 5.222253e+001 3.821745e+001 3.133166e+001 5.470042e+001 7.275822e+001 6.983755e+001 8.201836e+001 4.341022e+001 4.629118e+001 2.664117e+001 4.909601e+001 1.121849e+000 1.693059e+000 3.109270e+000 2.563802e+000 3.020728e+000 4.434675e+000 4.035585e+000 3.456624e+000 4.272974e+000 3.940292e+000 4.064920e+000 3.209764e+000 4.464106e+000 1.926368e-001 2.974473e-001 5.269413e-001 4.202042e-001 5.522338e-001 8.899309e-001 8.380213e-001 6.740161e-001 1.001766e+000 7.010341e-001 7.050412e-001 6.659935e-001 7.819851e-001
<GCONST> 1.289756e+002
<STATE> 3
<MEAN> 39
 2.529821e+000 -6.092332e+000 -2.130851e+000 -1.171482e+001 6.422361e+000 -4.307364e+000 1.738550e+000 -8.748790e-001 8.346260e-001 1.350231e+000 -6.357106e+000 -7.130396e+000 6.618829e+001 1.291898e+000 3.652282e-001 -6.394799e-001 -1.708022e+000 1.148654e-001 8.029209e-001 2.511936e-001 -1.289228e+000 -1.529177e+000 2.828995e-001 -1.525605e-001 -1.119642e+000 4.893563e-001 -1.040872e-001 1.406206e-001 2.844735e-002 -4.994496e-002 -2.283875e-001 5.162686e-002 -1.550558e-001 -1.770591e-001 -1.071015e-001 9.666640e-002 8.278521e-002 4.268226e-001 -3.747002e-002
<VARIANCE> 39
 2.604536e+001 1.903473e+001 4.948321e+001 3.677361e+001 4.154514e+001 7.070213e+001 4.887708e+001 3.977711e+001 4.541653e+001 3.528984e+001 4.595097e+001 4.293995e+001 9.561603e+000 2.103811e+000 2.325351e+000 2.060690e+000 2.437254e+000 3.087078e+000 3.525102e+000 3.737611e+000 3.846752e+000 4.460437e+000 3.166513e+000 2.754091e+000 5.211730e+000 8.421779e-001 4.600942e-001 3.919991e-001 2.397680e-001 3.614947e-001 3.666316e-001 5.113512e-001 5.365257e-001 8.422514e-001 7.622297e-001 5.399684e-001 5.574038e-001 5.548959e-001 1.394461e-001
<GCONST> 1.209086e+002
<STATE> 4
<MEAN> 39
 5.956546e+000 -2.392507e+000 -1.692787e+000 -1.884232e+001 3.225935e+000 -3.962472e+000 -7.070447e-001 -5.248657e+000 -4.725163e+000 1.949721e+000 -7.442654e+000 -3.822206e+000 6.657134e+001 -1.616628e-002 4.251941e-001 1.023760e-001 3.636568e-002 -1.726251e-001 2.040085e-001 -1.575074e-001 -2.972853e-001 -1.514219e-001 -1.121039e-001 2.455308e-001 3.282028e-001 -3.007490e-001 -6.734323e-002 9.864422e-004 2.197774e-002 2.289945e-001 2.832484e-002 1.037912e-002 5.356179e-002 7.958467e-002 8.234261e-002 -4.242047e-002 9.344387e-003 -3.413934e-002 -5.432452e-002
<VARIANCE> 39
 6.206623e+000 3.162597e+001 7.823036e+001 4.993797e+001 4.230405e+001 9.348947e+001 4.014037e+001 3.573285e+001 4.036990e+001 3.756369e+001 3.295609e+001 3.461421e+001 1.478209e+001 2.174636e-001 8.372363e-001 1.299903e+000 1.792358e+000 1.447331e+000 2.082652e+000 1.706621e+000 1.889499e+000 1.761692e+000 1.794421e+000 1.572020e+000 1.519305e+000 3.870575e-001 6.434344e-002 1.121307e-001 1.384921e-001 2.268023e-001 2.001793e-001 2.585019e-001 2.430534e-001 3.052034e-001 2.681884e-001 2.633100e-001 2.251070e-001 2.448165e-001 4.912039e-002
<GCONST> 9.780717e+001
<TRANSP> 5
 0.000000e+000 1.000000e+000 0.000000e+000 0.000000e+000 0.000000e+000
 0.000000e+000 7.367979e-001 2.632021e-001 0.000000e+000 0.000000e+000
 0.000000e+000 0.000000e+000 6.154016e-001 3.845984e-001 0.000000e+000
 0.000000e+000 0.000000e+000 0.000000e+000 8.977710e-001 1.022290e-001
 0.000000e+000 0.000000e+000 0.000000e+000 0.000000e+000 0.000000e+000
<ENDHMM>
~h "n"
<BEGINHMM>
<NUMSTATES> 5
<STATE> 2
<MEAN> 39
 4.400985e+000 -5.387689e+000 5.914273e+000 -8.520701e+000 -4.703015e+000 -1.002459e+001 5.107036e+000 -4.181742e-001 -6.030392e+000 -4.487100e+000 -8.699960e+000 -1.337488e+000 6.322176e+001 -4.310504e-002 1.389486e+000 1.726916e+000 3.337468e-001 -8.419170e-001 -4.759150e-001 -6.622422e-001 -6.979529e-001 -8.710881e-001 8.140871e-001 3.707133e-001 7.862496e-001 -8.655610e-001 -3.067195e-003 2.266773e-001 -2.047253e-001 1.408186e-001 3.119331e-001 2.782963e-001 -3.815377e-001 -4.131207e-001 1.691202e-001 1.408023e-001 1.168286e-002 -3.167481e-001 -1.047275e-001
<VARIANCE> 39
 8.944694e+000 2.626213e+001 2.961457e+001 2.611561e+001 2.336043e+001 3.432413e+001 2.964325e+001 3.522079e+001 2.319240e+001 5.123155e+001 2.931997e+001 3.062596e+001 2.665594e+001 3.673747e-001 1.077713e+000 1.244850e+000 1.000526e+000 1.962186e+000 1.962725e+000 2.649076e+000 2.638477e+000 1.721676e+000 1.957408e+000 2.248399e+000 1.739821e+000 4.445603e-001 6.922410e-002 1.246566e-001 2.846876e-001 1.986723e-001 3.294353e-001 2.986133e-001 3.556951e-001 3.773398e-001 2.899306e-001 3.319992e-001 3.531342e-001 3.281847e-001 6.067663e-002
<GCONST> 9.969199e+001
<STATE> 3
<MEAN> 39
 4.567794e+000 2.217941e+000 9.526929e+000 -5.557849e+000 -3.793355e+000 -7.666782e+000 -7.353444e-001 -7.042844e+000 -8.220505e+000 2.041784e-001 -6.850775e+000 -2.650924e+000 5.794248e+001 2.582361e-001 1.222938e+000 -1.576445e-001 1.557986e+000 4.047972e-001 1.499763e-001 -7.287874e-001 -1.831242e+000 5.325731e-001 1.215745e+000 -5.482306e-001 -9.461619e-001 -9.947315e-001 -3.567354e-002 -3.040959e-001 -3.451053e-001 6.783511e-002 -9.100462e-003 -3.584340e-003 3.152888e-001 1.352364e-001 3.894200e-001 -3.976490e-002 -1.105482e-001 -6.304111e-002 1.140562e-001
<VARIANCE> 39
 1.057583e+001 1.337028e+001 2.721272e+001 3.484137e+001 2.138829e+001 4.132016e+001 3.438769e+001 3.737013e+001 2.671349e+001 5.002292e+001 3.670039e+001 3.361350e+001 2.053947e+001 9.437075e-001 1.162572e+000 2.552563e+000 2.054491e+000 1.755440e+000 3.656626e+000 2.981835e+000 3.224020e+000 2.198184e+000 1.980318e+000 2.544914e+000 2.303914e+000 1.125196e+000 1.333912e-001 1.796713e-001 3.038502e-001 3.675010e-001 2.762562e-001 4.230627e-001 4.479163e-001 4.840871e-001 4.009458e-001 3.747828e-001 3.945289e-001 3.972644e-001 9.368417e-002
<GCONST> 1.082786e+002
<STATE> 4
<MEAN> 39
 6.038178e+000 4.182456e+000 7.325643e+000 -2.192783e+000 -3.123881e+000 -7.368748e+000 -1.389171e+000 -1.345953e+001 -6.370958e+000 6.795567e+000 -1.445655e+001 -5.759055e+000 5.662651e+001 -3.104559e-001 -8.483587e-004 -1.283988e-001 4.862378e-001 2.937748e-001 5.105755e-001 3.168990e-001 1.193562e-001 5.819584e-001 -5.133504e-002 2.104092e-001 6.219941e-002 -3.695570e-001 -1.511643e-001 -1.822720e-001 -1.555988e-001 -1.727137e-001 1.275005e-001 1.614757e-001 6.741038e-002 4.260811e-001 1.099422e-002 -2.167918e-001 3.003083e-001 1.158980e-001 6.008392e-002
<VARIANCE> 39
 5.841544e+000 6.605661e+000 8.904093e+000 3.113868e+001 1.891990e+001 3.181366e+001 3.252806e+001 3.006859e+001 2.245260e+001 3.982435e+001 4.848764e+001 1.985159e+001 1.588827e+001 5.386683e-001 6.347598e-001 9.160267e-001 1.207530e+000 1.302971e+000 2.196260e+000 1.679536e+000 2.418695e+000 1.435597e+000 1.933038e+000 2.586524e+000 1.419195e+000 4.438817e-001 1.068594e-001 1.126666e-001 1.850403e-001 2.078580e-001 2.463797e-001 3.006139e-001 3.142402e-001 3.954040e-001 2.557573e-001 3.817505e-001 3.674367e-001 2.635008e-001 6.400914e-002
<GCONST> 9.388554e+001
<TRANSP> 5
 0.000000e+000 1.000000e+000 0.000000e+000 0.000000e+000 0.000000e+000
 0.000000e+000 6.220150e-001 3.779850e-001 0.000000e+000 0.000000e+000
 0.000000e+000 0.000000e+000 6.011170e-001 3.988831e-001 0.000000e+000
 0.000000e+000 0.000000e+000 0.000000e+000 8.342199e-001 1.657801e-001
 0.000000e+000 0.000000e+000 0.000000e+000 0.000000e+000 0.000000e+000
<ENDHMM>
~h "r"
<BEGINHMM>
<NUMSTATES> 5
<STATE> 2
<MEAN> 39
 1.060474e+001 -6.490726e+000 -7.631177e-001 8.216568e-001 -9.451909e+000 -8.061152e+000 -2.246985e+000 -8.463943e+000 -2.273208e-001 5.563015e+000 -1.676385e+000 -7.181029e+000 6.211258e+001 9.872345e-001 -6.409126e-001 -7.049531e-001 7.943656e-001 -1.119114e+000 -6.175019e-001 8.452867e-001 -5.996801e-001 -1.624231e+000 3.539597e-001 8.921842e-001 3.067420e-001 -2.650709e-001 -4.924817e-001 3.258137e-001 1.695883e-001 -5.940784e-001 6.364838e-001 1.113669e-001 -1.202819e-001 5.807682e-001 2.258766e-001 -3.831887e-001 -8.592204e-002 2.948923e-001 6.256571e-002
<VARIANCE> 39
 6.078130e+000 6.989336e+000 4.148273e+001 1.670120e+001 1.283967e+001 3.049851e+001 1.638290e+001 1.976654e+001 1.298114e+001 1.416835e+001 2.635356e+001 1.143901e+001 8.435406e+000 6.550698e-001 1.105740e+000 1.177315e+000 2.998816e+000 1.533053e+000 2.438826e+000 1.273109e+000 1.611518e+000 1.247890e+000 1.144933e+000 1.199300e+000 1.212551e+000 2.100020e-001 1.660625e-001 1.084337e-001 2.387118e-001 2.845762e-001 3.592128e-001 2.986811e-001 2.730462e-001 3.725452e-001 2.636533e-001 2.230296e-001 3.232650e-001 1.820234e-001 3.644667e-002
<GCONST> 8.871774e+001
<STATE> 3
<MEAN> 39
 1.205672e+001 -7.118486e+000 -3.156532e+000 -1.402925e+000 -1.101329e+001 -6.938831e+000 -1.743868e+000 -9.443815e+000 -2.623981e+000 5.652822e+000 6.237581e-001 -5.273785e+000 6.261304e+001 -1.747006e-001 -3.581542e-003 8.200229e-001 -1.302252e+000 -4.130584e-001 2.560410e-001 -1.643298e-002 1.402150e-001 -1.129318e-001 -3.834532e-001 -2.638136e-001 9.105169e-001 1.383163e-001 -2.868448e-001 1.051152e-001 4.324116e-001 -4.030429e-001 1.254268e-001 -7.801352e-002 -1.076333e-001 3.863826e-001 2.400194e-001 -3.533475e-001 -2.843179e-001 1.755875e-001 9.025616e-002
<VARIANCE> 39
 3.377389e+000 6.986917e+000 3.831304e+001 1.751389e+001 1.418487e+001 4.833775e+001 2.519088e+001 2.107775e+001 1.702326e+001 1.305100e+001 2.632616e+001 1.476657e+001 6.450259e+000 2.645295e-001 7.323465e-001 8.992813e-001 9.412972e-001 6.162463e-001 1.555297e+000 1.239596e+000 2.162314e+000 1.927944e+000 9.880087e-001 1.271437e+000 1.117619e+000 3.266352e-001 4.221345e-002 5.860490e-002 9.839083e-002 1.231324e-001 1.430894e-001 1.996055e-001 2.084379e-001 2.158304e-001 3.017085e-001 1.727522e-001 2.598935e-001 1.965124e-001 2.158795e-002
<GCONST> 7.955844e+001
<STATE> 4
<MEAN> 39
 1.053123e+001 -5.100801e+000 -7.689806e-001 -8.647556e+000 -1.317999e+001 -3.196963e+000 1.588821e-001 -9.078565e+000 -2.285249e+000 1.458427e+000 -1.115004e+000 -1.595001e+000 6.284909e+001 -6.903240e-001 7.735501e-001 1.394894e+000 -2.180153e+000 4.941005e-001 -3.739754e-001 -2.458670e-001 1.566809e+000 -6.145042e-001 -1.508168e+000 -3.616980e-001 1.366976e+000 6.323010e-003 -1.297862e-001 1.513800e-001 -2.708535e-002 1.409206e-001 3.130769e-001 -3.448009e-001 -6.241996e-002 2.614630e-001 -2.640055e-001 -1.541327e-002 2.261235e-001 -1.822860e-001 -2.914831e-002
<VARIANCE> 39
 5.353636e+000 2.548544e+001 6.060643e+001 3.326131e+001 2.067027e+001 1.181058e+002 4.797059e+001 6.557225e+001 3.015651e+001 2.145086e+001 2.409256e+001 1.772665e+001 9.140187e+000 3.642938e-001 8.568715e-001 8.493173e-001 1.061813e+000 1.633287e+000 2.698429e+000 2.107514e+000 2.351305e+000 2.109981e+000 1.543572e+000 1.873750e+000 1.433292e+000 5.239671e-001 2.673637e-002 8.863713e-002 8.548822e-002 1.730776e-001 2.062901e-001 1.745989e-001 5.157816e-001 5.408868e-001 3.620200e-001 2.763256e-001 2.453916e-001 3.142116e-001 2.766641e-002
<GCONST> 9.482520e+001
<TRANSP> 5
 0.000000e+000 1.000000e+000 0.000000e+000 0.000000e+000 0.000000e+000
 0.000000e+000 5.361953e-001 4.638048e-001 0.000000e+000 0.000000e+000
 0.000000e+000 0.000000e+000 6.794732e-001 3.205268e-001 0.000000e+000
 0.000000e+000 0.000000e+000 0.000000e+000 6.238879e-001 3.761121e-001
 0.000000e+000 0.000000e+000 0.000000e+000 0.000000e+000 0.000000e+000
<ENDHMM>
~h "s"
<BEGINHMM>
<NUMSTATES> 5
<STATE> 2
<MEAN> 39
 -4.383584e+000 1.858543e+000 6.214993e-004 -2.223684e+000 5.721822e+000 -1.711878e+000 2.230797e+000 -7.833058e-001 6.801488e-002 1.046492e+000 -1.599370e+000 -1.959827e+000 5.764058e+001 -2.349018e+000 1.624664e-001 -5.485516e-001 8.732867e-001 1.064586e+000 -6.954262e-002 9.793439e-002 1.563589e+000 8.904658e-001 -2.683821e-001 1.206280e+000 2.071908e-001 4.303782e-001 -1.099181e-001 -3.439800e-002 -8.448923e-002 -1.292424e-001 -2.224715e-001 -1.109060e-001 -1.177682e-002 -5.642049e-002 1.461814e-003 7.480753e-002 -5.672066e-002 1.283764e-001 7.184769e-002
<VARIANCE> 39
 4.908136e+001 1.592150e+001 2.013933e+001 4.310718e+001 4.352626e+001 2.804310e+001 3.102682e+001 3.915857e+001 3.055121e+001 3.094404e+001 3.320522e+001 2.332433e+001 3.789696e+001 3.672043e+000 1.290794e+000 1.947151e+000 3.799531e+000 2.797337e+000 3.357795e+000 2.315979e+000 3.013103e+000 2.587151e+000 2.641085e+000 3.508005e+000 2.337818e+000 1.176321e+000 5.846086e-001 2.381084e-001 2.456741e-001 5.308828e-001 4.602988e-001 5.365028e-001 3.911962e-001 6.487972e-001 4.315246e-001 4.575811e-001 5.185456e-001 4.355800e-001 1.369345e-001
<GCONST> 1.165045e+002
<STATE> 3
<MEAN> 39
 -1.523219e+001 3.759209e+000 -4.168696e+000 5.108284e-001 5.812342e+000 -2.667155e+000 3.957916e+000 3.176435e+000 3.377079e+000 1.611658e-001 1.972521e+000 8.669966e-001 5.957425e+001 -2.124980e-001 9.479556e-002 -1.298481e-001 -8.986270e-002 -1.298251e-001 -3.523121e-002 1.949019e-001 2.973112e-002 1.100729e-001 -8.700676e-002 -7.127571e-002 1.788030e-001 -3.720313e-002 3.550862e-001 -4.592333e-002 1.787052e-001 -1.052774e-001 -3.757280e-002 -5.978897e-002 -6.176452e-002 -7.548743e-002 -6.895456e-002 -3.289827e-002 -1.656366e-001 -1.114826e-001 -4.288273e-002
<VARIANCE> 39
 6.070887e+000 9.961304e+000 1.159940e+001 1.584791e+001 3.134560e+001 1.675879e+001 2.025878e+001 1.871251e+001 1.734047e+001 1.896427e+001 1.454630e+001 1.684931e+001 1.572950e+001 7.527901e-001 6.603130e-001 9.576840e-001 1.177211e+000 1.375795e+000 1.379999e+000 1.528441e+000 1.686702e+000 1.663200e+000 1.669408e+000 1.413222e+000 1.532113e+000 3.496358e-001 2.106859e-001 1.137598e-001 1.759188e-001 2.192133e-001 2.582212e-001 3.187088e-001 3.070840e-001 3.498983e-001 3.376048e-001 3.369327e-001 3.151567e-001 3.069022e-001 6.127360e-002
<GCONST> 8.998316e+001
<STATE> 4
<MEAN> 39
 -1.128362e+001 3.329337e+000 -1.440344e+000 -1.059008e+000 6.485431e+000 -3.858877e+000 3.516012e+000 2.959135e+000 3.334755e+000 1.550104e-001 -8.151708e-001 -7.306203e-001 5.853041e+001 2.843113e+000 -4.944335e-001 1.054723e+000 -8.616047e-001 -9.144593e-001 -1.047817e+000 -8.697432e-001 -5.373043e-001 -3.681135e-001 3.599270e-002 -1.285812e+000 -6.543691e-001 -2.400284e-001 6.651077e-001 -2.757107e-001 -3.970312e-003 -2.033216e-001 -4.596228e-001 -2.983965e-001 -2.701925e-001 -2.331552e-001 -9.862156e-002 1.814311e-001 -2.235142e-001 -7.608972e-002 1.967370e-001
<VARIANCE> 39
 3.059231e+001 1.073620e+001 1.569081e+001 1.908117e+001 2.893541e+001 2.220898e+001 2.682684e+001 2.811993e+001 2.009969e+001 2.156407e+001 2.035790e+001 1.938716e+001 2.234279e+001 4.009347e+000 1.272643e+000 1.213516e+000 2.242032e+000 2.365235e+000 4.576413e+000 2.243941e+000 2.464835e+000 1.913054e+000 1.982524e+000 3.536431e+000 2.073957e+000 2.746362e+000 6.713271e-001 1.949419e-001 2.923381e-001 3.781592e-001 3.562062e-001 5.718884e-001 4.895212e-001 5.806681e-001 4.485699e-001 3.987235e-001 5.049677e-001 3.868724e-001 3.126079e-001
<GCONST> 1.108781e+002
<TRANSP> 5
 0.000000e+000 1.000000e+000 0.000000e+000 0.000000e+000 0.000000e+000
 0.000000e+000 7.420253e-001 2.579747e-001 0.000000e+000 0.000000e+000
 0.000000e+000 0.000000e+000 8.638998e-001 1.361002e-001 0.000000e+000
 0.000000e+000 0.000000e+000 0.000000e+000 5.470821e-001 4.529179e-001
 0.000000e+000 0.000000e+000 0.000000e+000 0.000000e+000 0.000000e+000
<ENDHMM>
~h "t"
<BEGINHMM>
<NUMSTATES> 5
<STATE> 2
<MEAN> 39
 -1.158467e+000 -3.058541e-001 2.466416e+000 -1.802765e+000 1.403202e+000 -1.726173e+000 3.345398e+000 -2.218067e+000 2.531383e-003 6.643273e-002 -4.106241e+000 2.092693e-001 5.314622e+001 -9.701000e-001 -1.669255e-001 7.830296e-002 3.226829e-001 4.551483e-002 9.650342e-001 -1.455374e-001 1.924519e-001 5.288938e-001 3.043222e-001 1.028535e+000 3.776475e-001 -8.075669e-001 -2.570594e-001 -2.162329e-001 -8.320509e-002 -4.241914e-001 -5.569842e-002 -6.303747e-002 -1.254442e-001 1.856700e-001 -3.148112e-002 -1.750875e-001 1.445526e-001 2.933875e-002 5.774075e-001
<VARIANCE> 39
 2.166948e+001 1.524102e+001 1.493937e+001 2.866595e+001 1.789393e+001 5.969215e+001 3.199693e+001 3.267242e+001 2.675274e+001 3.155530e+001 4.058595e+001 1.762151e+001 5.517081e+001 2.040459e+000 3.328899e+000 1.940365e+000 4.958398e+000 2.307663e+000 4.380453e+000 3.840445e+000 3.001105e+000 2.764080e+000 2.626265e+000 2.728814e+000 1.857544e+000 5.985867e+000 4.151892e-001 3.520440e-001 3.306364e-001 6.136501e-001 4.107694e-001 9.877675e-001 7.452496e-001 6.147699e-001 4.799919e-001 4.534686e-001 5.273898e-001 3.779189e-001 9.765370e-001
<GCONST> 1.207544e+002
<STATE> 3
<MEAN> 39
 -9.359165e+000 -4.833593e+000 1.831757e+000 -9.234242e+000 -4.059236e-001 2.404870e-001 -9.350733e-001 2.142888e+000 2.216489e+000 -9.661843e-001 2.484498e+000 2.900065e+000 6.045394e+001 -2.137563e+000 6.409568e-001 5.241100e-001 -9.822840e-001 -1.532518e-001 -8.146992e-001 -1.095600e+000 1.844907e+000 5.924416e-001 -9.484333e-001 6.579915e-001 6.689773e-001 3.031569e+000 3.992435e-001 6.239346e-001 4.533984e-001 1.089342e+000 3.644316e-001 -1.603856e-002 3.674354e-001 -5.621061e-002 1.308894e-001 2.857306e-002 -5.199435e-001 -1.149105e-001 -5.734829e-001
<VARIANCE> 39
 1.885729e+001 2.977040e+001 1.942717e+001 1.829678e+001 2.895522e+001 2.895173e+001 2.071301e+001 1.958542e+001 1.921370e+001 1.800416e+001 1.573818e+001 1.567959e+001 2.325731e+001 2.885958e+000 3.085474e+000 2.916271e+000 5.078501e+000 3.155329e+000 3.246407e+000 2.967306e+000 3.106471e+000 3.033625e+000 2.373262e+000 2.554989e+000 1.790711e+000 3.405983e+000 7.156194e-001 7.575213e-001 4.671121e-001 7.144094e-001 7.747353e-001 5.493483e-001 4.540659e-001 5.331478e-001 3.728791e-001 4.868048e-001 3.224796e-001 4.204386e-001 6.487916e-001
<GCONST> 1.171494e+002
<STATE> 4
<MEAN> 39
 -1.212332e+001 -1.369374e+000 5.987775e+000 -4.811630e+000 1.620118e+000 8.955643e-001 -3.275760e-001 5.785961e+000 5.182443e+000 -2.283022e+000 1.524721e+000 4.570752e+000 6.067839e+001 1.110906e+000 1.192161e-001 6.810368e-001 1.283959e+000 2.971969e-001 -1.594006e-001 1.174692e-002 -1.282763e-001 3.872327e-001 -1.177765e-002 -6.991315e-001 -2.518038e-001 -3.024628e-001 5.272375e-001 -1.172813e-001 -2.533975e-001 6.682330e-002 1.820171e-002 1.990294e-002 1.118302e-002 -4.527065e-001 -1.764235e-001 1.738469e-001 -1.367980e-001 -2.776094e-001 -3.540339e-001
<VARIANCE> 39
 3.086506e+001 1.463760e+001 2.571027e+001 2.762021e+001 2.316319e+001 4.220583e+001 2.797765e+001 2.717350e+001 4.230923e+001 2.199017e+001 2.193920e+001 1.858624e+001 2.699701e+001 3.133645e+000 2.068605e+000 2.456471e+000 3.361610e+000 2.735431e+000 2.521843e+000 2.053193e+000 2.632166e+000 2.675745e+000 2.052372e+000 1.912922e+000 2.253917e+000 1.175418e+000 5.615631e-001 2.895890e-001 3.244057e-001 4.139441e-001 3.631184e-001 4.382024e-001 4.273057e-001 6.147130e-001 5.274256e-001 4.024755e-001 3.358708e-001 3.952179e-001 2.383004e-001
<GCONST> 1.129390e+002
<TRANSP> 5
 0.000000e+000 1.000000e+000 0.000000e+000 0.000000e+000 0.000000e+000
 0.000000e+000 8.554456e-001 1.445544e-001 0.000000e+000 0.000000e+000
 0.000000e+000 0.000000e+000 6.470778e-001 3.529222e-001 0.000000e+000
 0.000000e+000 0.000000e+000 0.000000e+000 7.808734e-001 2.191266e-001
 0.000000e+000 0.000000e+000 0.000000e+000 0.000000e+000 0.000000e+000
<ENDHMM>
~h "v"
<BEGINHMM>
<NUMSTATES> 5
<STATE> 2
<MEAN> 39
 4.846121e+000 -6.766156e+000 -1.786935e-001 -5.743904e+000 -1.797743e+000 -8.478595e+000 1.500722e-001 -6.632378e-001 1.858501e+000 -3.013518e+000 -6.350274e+000 -5.833319e+000 6.355841e+001 1.757360e-001 7.107660e-001 3.752352e-001 5.511628e-001 -2.518278e-002 1.469794e-001 -8.818860e-001 -2.874526e-001 1.675615e-001 8.095256e-001 3.293322e-001 2.429619e-001 -7.561795e-001 -1.302022e-001 8.517057e-002 -4.138529e-002 3.931521e-002 1.930625e-001 2.068303e-001 -2.731387e-002 -1.570674e-001 -1.111964e-001 9.395999e-002 1.569334e-002 -2.608291e-002 -2.213037e-002
<VARIANCE> 39
 2.658738e+001 1.843962e+001 2.132128e+001 3.516075e+001 2.576962e+001 4.337447e+001 3.336684e+001 2.584916e+001 1.811414e+001 3.495770e+001 2.328477e+001 3.847086e+001 2.245884e+001 1.611606e+000 1.579933e+000 1.213373e+000 1.637522e+000 2.015269e+000 2.393196e+000 1.901761e+000 2.273832e+000 1.468645e+000 1.851368e+000 1.322011e+000 2.187783e+000 1.137035e+000 2.868469e-001 2.069721e-001 1.509789e-001 2.294298e-001 2.712174e-001 3.964611e-001 3.298922e-001 3.621327e-001 2.621651e-001 3.486470e-001 2.595953e-001 3.517441e-001 1.232508e-001
<GCONST> 1.040595e+002
<STATE> 3
<MEAN> 39
 6.498778e+000 -4.968750e+000 1.915810e+000 -8.123084e+000 -2.872995e+000 -9.949188e+000 -4.492464e+000 -2.364830e+000 8.851115e-001 1.661174e+000 -5.844972e+000 -6.307463e+000 6.386858e+001 -1.970997e-001 3.989666e-001 -6.455595e-002 2.424071e-001 3.247655e-001 4.368812e-001 1.086733e-001 -9.322756e-002 -3.489017e-001 1.448005e-001 -1.161721e-001 -3.232182e-001 -2.313333e-001 -1.414372e-001 1.762124e-001 7.979876e-002 2.004666e-001 7.689173e-002 1.404669e-001 1.683828e-001 -1.346447e-001 -3.162193e-001 -8.045960e-002 2.810328e-002 9.860520e-002 -1.404365e-001
<VARIANCE> 39
 9.383134e+000 1.054330e+001 4.167198e+001 1.777200e+001 1.509751e+001 3.659841e+001 1.723635e+001 2.923359e+001 4.234576e+001 2.363957e+001 1.834700e+001 5.739212e+001 1.226815e+001 7.175924e-001 1.433428e+000 1.175316e+000 1.233075e+000 1.042661e+000 2.385802e+000 1.435606e+000 3.256860e+000 2.161649e+000 1.708776e+000 2.259244e+000 1.809440e+000 9.426473e-001 1.224512e-001 1.439725e-001 1.254802e-001 1.389241e-001 1.429500e-001 2.447258e-001 2.408481e-001 4.237499e-001 2.992905e-001 2.972887e-001 2.617434e-001 2.435482e-001 1.238645e-001
<GCONST> 9.631620e+001
<STATE> 4
<MEAN> 39
 3.651642e+000 -5.645956e-001 6.672805e-001 -2.878880e+000 4.224711e-001 -2.416812e+000 -1.840096e+000 -5.449337e+000 -2.153570e+000 8.094649e-001 -4.385165e+000 -7.155963e+000 5.825239e+001 -3.817354e-001 4.964225e-001 3.082762e-001 4.500555e-001 1.755441e-001 3.968757e-001 3.959148e-001 -3.675756e-001 -6.188912e-001 3.619552e-001 -1.177636e-001 3.592120e-001 -5.365563e-001 -1.483363e-002 -5.641258e-002 5.025758e-002 -3.243085e-002 -8.928546e-002 -1.308749e-001 7.710033e-002 2.483570e-002 7.338181e-002 6.594243e-003 -1.027281e-001 1.115114e-001 3.566838e-002
<VARIANCE> 39
 2.597968e+001 1.491311e+001 1.256612e+001 2.804092e+001 1.564694e+001 2.031505e+001 1.869637e+001 2.357268e+001 2.484600e+001 3.103324e+001 2.171567e+001 3.793776e+001 1.657666e+001 8.341880e-001 9.367904e-001 7.485591e-001 1.037485e+000 1.001664e+000 1.455075e+000 1.230148e+000 2.100086e+000 1.989820e+000 1.875698e+000 1.716429e+000 1.336415e+000 4.260689e-001 1.042127e-001 1.571526e-001 1.284383e-001 1.550697e-001 1.870190e-001 2.644767e-001 2.299367e-001 3.741954e-001 2.622782e-001 3.003000e-001 2.693840e-001 2.434719e-001 7.455432e-002
<GCONST> 9.229234e+001
<TRANSP> 5
 0.000000e+000 1.000000e+000 0.000000e+000 0.000000e+000 0.000000e+000
 0.000000e+000 7.173386e-001 2.826613e-001 0.000000e+000 0.000000e+000
 0.000000e+000 0.000000e+000 6.727329e-001 3.272671e-001 0.000000e+000
 0.000000e+000 0.000000e+000 0.000000e+000 7.968143e-001 2.031857e-001
 0.000000e+000 0.000000e+000 0.000000e+000 0.000000e+000 0.000000e+000
<ENDHMM>
~h "w"
<BEGINHMM>
<NUMSTATES> 5
<STATE> 2
<MEAN> 39
 2.896894e+000 2.069767e+000 1.280658e+000 -3.937171e+000 -1.061568e+000 9.906065e-001 3.341685e-001 -4.063764e+000 1.400793e-001 1.776486e+000 -2.468864e+000 -2.506480e+000 5.287453e+001 1.115619e+000 7.660687e-001 -7.508299e-001 -1.214354e+000 -7.453535e-001 7.053702e-001 7.713236e-002 -7.200769e-001 -8.597802e-001 -7.807544e-001 1.405524e-001 -1.300501e-001 -1.745202e-002 1.922393e-001 1.628741e-001 -6.154116e-003 -5.451392e-001 -4.074426e-001 -1.006009e-001 4.065615e-002 7.307479e-002 -3.580669e-001 -3.285227e-001 -9.562965e-003 8.427996e-002 2.361299e-001
<VARIANCE> 39
 2.109340e+001 1.507514e+001 1.250232e+001 5.233805e+001 4.915019e+001 4.072359e+001 3.507516e+001 2.846811e+001 3.927927e+001 2.921368e+001 3.103660e+001 1.882231e+001 4.485226e+001 2.277694e+000 1.652082e+000 1.937447e+000 3.424836e+000 4.539239e+000 3.652565e+000 3.419932e+000 2.928682e+000 3.494740e+000 3.354542e+000 2.696536e+000 2.017874e+000 1.717638e+000 2.110328e-001 1.856528e-001 2.943639e-001 5.045946e-001 5.441493e-001 3.796235e-001 6.674265e-001 5.395662e-001 4.293414e-001 6.645140e-001 5.253609e-001 3.812518e-001 1.545927e-001
<GCONST> 1.162022e+002
<STATE> 3
<MEAN> 39
 9.885133e+000 6.168311e+000 -7.512459e-001 -1.333307e+001 -7.402222e+000 3.160375e-001 -5.357035e-001 -6.977106e+000 -7.272760e+000 -2.852282e+000 -2.277615e+000 -2.757537e+000 5.708477e+001 8.702930e-001 4.757448e-001 -4.884413e-001 -2.026535e+000 -1.066394e+000 4.906522e-001 1.020016e-001 4.146705e-001 -8.482839e-001 -1.149087e+000 2.749350e-001 -1.625997e-001 5.078477e-001 -3.345377e-001 -4.312832e-001 3.067672e-002 2.003612e-001 3.596345e-001 -3.623445e-002 -1.016321e-001 2.805794e-001 4.427291e-001 2.719021e-001 6.490796e-002 -1.847472e-001 1.416258e-001
<VARIANCE> 39
 3.310160e+000 9.405804e+000 8.021150e+000 2.905341e+001 1.718047e+001 1.359616e+001 2.096338e+001 1.964901e+001 2.140966e+001 2.328928e+001 2.617817e+001 2.109360e+001 1.000962e+001 9.517178e-001 1.311525e+000 1.136631e+000 3.500070e+000 2.361039e+000 2.042174e+000 3.033342e+000 2.206677e+000 2.380900e+000 2.713266e+000 3.124452e+000 2.116417e+000 1.725400e+000 1.747948e-001 1.555852e-001 2.481237e-001 3.522068e-001 3.948956e-001 4.489735e-001 3.701496e-001 4.565506e-001 3.474711e-001 4.593197e-001 6.204839e-001 3.782147e-001 9.763201e-002
<GCONST> 1.010862e+002
<STATE> 4
<MEAN> 39
 1.089013e+001 4.611432e+000 -4.147106e+000 -1.912670e+001 -8.294444e+000 3.974252e+000 -1.318861e-001 -5.157256e+000 -5.350846e+000 -5.183066e+000 1.343170e+000 -5.251800e+000 5.999719e+001 -2.625177e-001 -9.834895e-001 -1.063808e+000 -9.579387e-001 5.834831e-001 1.048735e+000 -3.719864e-001 -1.941365e-001 6.892783e-001 3.296473e-001 9.252961e-001 -9.124743e-001 1.073740e+000 -2.370785e-001 -2.374160e-001 -4.986559e-002 2.949713e-001 3.593352e-001 -2.041107e-002 -4.294511e-002 -1.317860e-001 1.905162e-001 2.616121e-001 -2.593599e-001 -2.767801e-001 1.074785e-001
<VARIANCE> 39
 2.257315e+000 8.051826e+000 1.201402e+001 2.311837e+001 1.215510e+001 1.626314e+001 1.339413e+001 1.561466e+001 2.045080e+001 1.851554e+001 2.549936e+001 1.864600e+001 8.569789e+000 3.486188e-001 8.245018e-001 7.810864e-001 9.902202e-001 1.112477e+000 1.118687e+000 9.314091e-001 1.308662e+000 1.081180e+000 1.708990e+000 2.018617e+000 1.902606e+000 5.593178e-001 4.941674e-002 5.217227e-002 1.019085e-001 2.529756e-001 1.277844e-001 2.138325e-001 1.734269e-001 2.180965e-001 2.095119e-001 2.376064e-001 5.257058e-001 2.779625e-001 5.707014e-002
<GCONST> 8.109394e+001
<TRANSP> 5
 0.000000e+000 1.000000e+000 0.000000e+000 0.000000e+000 0.000000e+000
 0.000000e+000 6.738131e-001 3.261869e-001 0.000000e+000 0.000000e+000
 0.000000e+000 0.000000e+000 6.688711e-001 3.311289e-001 0.000000e+000
 0.000000e+000 0.000000e+000 0.000000e+000 7.634232e-001 2.365768e-001
 0.000000e+000 0.000000e+000 0.000000e+000 0.000000e+000 0.000000e+000
<ENDHMM>
~h "y"
<BEGINHMM>
<NUMSTATES> 5
<STATE> 2
<MEAN> 39
 3.481117e-001 1.756974e+000 1.335183e+001 -4.112583e+000 -1.682496e+000 -9.222552e+000 -5.632174e+000 -6.009470e+000 -7.704368e+000 -4.743533e-001 -3.215466e+000 8.679306e-002 6.173379e+001 -3.314738e-001 3.780236e-001 2.082153e+000 -5.400209e-001 -3.267230e-001 -5.802614e-001 -4.609898e-002 2.147223e-001 -9.859557e-001 -7.808589e-001 -1.763953e-001 7.952890e-001 1.419117e-001 2.312610e-002 8.804326e-002 4.037273e-002 -2.256892e-001 4.787003e-002 5.516097e-002 -5.531736e-002 6.358308e-002 -4.014650e-002 -1.073904e-001 -6.932995e-002 1.003178e-001 -1.959169e-002
<VARIANCE> 39
 1.902311e+001 2.208076e+001 5.408037e+001 3.357239e+001 2.551435e+001 3.176687e+001 2.170109e+001 1.956701e+001 4.481314e+001 4.429888e+001 2.101609e+001 1.674289e+001 1.529572e+001 9.549091e-001 1.387334e+000 2.606418e+000 2.586750e+000 2.058062e+000 2.563354e+000 2.074695e+000 2.377699e+000 2.775985e+000 2.722606e+000 2.256196e+000 1.923254e+000 4.819073e-001 1.539406e-001 3.208800e-001 6.114351e-001 3.523060e-001 4.883036e-001 5.710653e-001 4.513756e-001 4.967666e-001 6.332165e-001 4.990666e-001 3.514442e-001 2.957838e-001 9.710716e-002
<GCONST> 1.093009e+002
<STATE> 3
<MEAN> 39
 -2.742877e-001 2.417428e+000 2.086023e+001 -1.063724e+001 -3.776387e+000 -1.356661e+001 -8.268760e+000 -2.707942e+000 -1.003048e+001 -5.042627e+000 -4.806352e+000 6.790801e+000 6.417645e+001 3.081309e-001 -8.822758e-001 -1.059401e+000 -5.818366e-001 -5.568711e-001 -7.871034e-001 -1.770506e-002 8.341047e-001 1.045400e+000 2.170299e-001 -1.757302e-001 2.713225e-001 6.118501e-001 1.109858e-001 -2.440971e-001 -4.844526e-001 1.312441e-002 1.452925e-002 1.794307e-002 1.798940e-001 1.548117e-001 2.427634e-001 2.169170e-001 -1.504501e-001 -2.851252e-001 7.631640e-002
<VARIANCE> 39
 3.449973e+000 2.042906e+001 1.401953e+001 1.025069e+001 2.170930e+001 2.030111e+001 1.313866e+001 1.098143e+001 2.936517e+001 1.906886e+001 1.323644e+001 1.348159e+001 1.265383e+001 4.228836e-001 1.744957e+000 2.422890e+000 6.663533e-001 1.620719e+000 1.149482e+000 1.280110e+000 1.632120e+000 2.100369e+000 1.776950e+000 1.184910e+000 1.520418e+000 5.407939e-001 4.033011e-002 1.294915e-001 1.390493e-001 1.364934e-001 3.864761e-001 2.641832e-001 1.875357e-001 2.556112e-001 3.083735e-001 2.432559e-001 2.825706e-001 3.371290e-001 6.548528e-002
<GCONST> 8.662969e+001
<STATE> 4
<MEAN> 39
 3.856484e+000 -8.660334e+000 1.373371e+000 -1.593043e+001 -1.443377e+000 -1.381597e+001 -2.957710e+000 4.066854e+000 -2.937391e-001 -1.153100e+000 -1.326018e+001 -1.400319e+000 6.967574e+001 2.733337e-001 -7.898423e-001 -2.738701e+000 -3.339616e-001 2.260424e+000 1.688625e+000 9.858384e-001 -1.047638e+000 4.512712e-001 -5.224646e-002 -1.146351e+000 -2.055845e+000 2.742111e-001 -1.091729e-001 2.868940e-001 3.040788e-001 1.553420e-001 2.368353e-001 2.599072e-001 -9.305613e-002 -7.552419e-001 -3.253196e-001 -1.811231e-001 4.487113e-001 1.921567e-001 -1.164704e-001
<VARIANCE> 39
 1.925591e+000 8.634830e+000 3.511158e+001 1.547401e+001 3.520721e+001 2.500069e+001 2.033512e+001 2.428019e+001 1.572934e+001 1.389260e+001 3.301490e+001 3.901600e+001 3.990760e+000 2.181290e-001 6.850033e-001 1.049631e+000 7.048179e-001 1.033396e+000 1.335778e+000 1.026595e+000 5.783760e+000 1.512081e+000 1.314156e+000 3.577358e+000 2.081645e+000 1.322239e-001 1.878271e-002 4.423396e-002 1.157280e-001 1.077331e-001 3.374673e-001 2.932145e-001 1.819159e-001 5.393257e-001 2.581277e-001 2.241863e-001 5.317639e-001 5.052363e-001 1.347966e-002
<GCONST> 8.368948e+001
<TRANSP> 5
 0.000000e+000 1.000000e+000 0.000000e+000 0.000000e+000 0.000000e+000
 0.000000e+000 8.805978e-001 1.194021e-001 0.000000e+000 0.000000e+000
 0.000000e+000 0.000000e+000 8.937313e-001 1.062687e-001 0.000000e+000
 0.000000e+000 0.000000e+000 0.000000e+000 8.472927e-001 1.527073e-001
 0.000000e+000 0.000000e+000 0.000000e+000 0.000000e+000 0.000000e+000
<ENDHMM>
~h "z"
<BEGINHMM>
<NUMSTATES> 5
<STATE> 2
<MEAN> 39
 2.348010e+000 3.595772e+000 4.327196e+000 -2.505015e+000 2.124032e+000 -8.051943e+000 -1.114774e+000 -5.869878e+000 -3.768050e+000 1.557833e+000 -3.800144e+000 -2.192816e+000 5.687539e+001 -7.045557e-001 1.178018e+000 3.340276e-003 1.070753e+000 7.224092e-001 -3.998220e-001 -4.649599e-001 -3.629189e-001 4.213129e-001 -3.599010e-001 1.264688e-001 -3.132738e-001 1.184781e-001 -3.444459e-001 7.345819e-002 -1.333691e-001 -2.369306e-002 -1.748931e-002 2.993216e-001 2.056123e-001 1.745557e-001 1.158971e-001 -1.756032e-001 9.311602e-002 1.169863e-001 -2.201957e-002
<VARIANCE> 39
 1.992030e+001 1.166603e+001 2.622787e+001 5.720313e+001 2.471608e+001 4.541763e+001 3.808938e+001 2.264614e+001 3.508204e+001 3.688728e+001 2.625749e+001 1.793951e+001 2.763910e+001 2.246699e+000 1.266019e+000 1.887499e+000 2.253969e+000 1.796409e+000 3.527702e+000 1.967074e+000 1.770557e+000 2.146116e+000 2.157577e+000 1.791444e+000 1.612730e+000 1.528338e+000 2.427201e-001 2.175896e-001 2.401303e-001 2.457240e-001 2.308317e-001 4.772571e-001 3.147978e-001 3.428795e-001 3.308517e-001 3.818135e-001 3.022007e-001 3.045685e-001 1.102356e-001
<GCONST> 1.066048e+002
<STATE> 3
<MEAN> 39
 -4.287806e+000 8.376166e+000 2.941443e+000 1.643975e+000 5.176302e+000 -6.676221e+000 -3.544243e-001 -5.369611e+000 -1.247854e+000 -1.094194e+000 -3.069722e+000 -2.020293e+000 5.716325e+001 -1.416815e+000 4.597873e-001 -3.512186e-001 5.018306e-001 4.300445e-001 6.641209e-001 8.125677e-001 5.405163e-001 6.126876e-001 -5.412056e-001 2.238669e-001 2.955088e-001 -1.069086e-001 3.403556e-001 -3.106412e-001 8.126666e-002 -3.376234e-001 -2.791963e-001 -3.234200e-001 5.954757e-002 1.253721e-001 -8.720095e-002 9.927773e-002 -3.636226e-002 4.977525e-003 1.555331e-001
<VARIANCE> 39
 1.604317e+001 7.890419e+000 1.152143e+001 1.857253e+001 2.107802e+001 2.859789e+001 2.087274e+001 1.652381e+001 2.097153e+001 1.967755e+001 1.508729e+001 1.379955e+001 1.427403e+001 1.641548e+000 6.887321e-001 1.134105e+000 1.410853e+000 1.103213e+000 2.592415e+000 1.786851e+000 1.824959e+000 1.640190e+000 2.026773e+000 1.351142e+000 1.034781e+000 4.524461e-001 1.380258e-001 1.256610e-001 1.527323e-001 1.836732e-001 2.076471e-001 3.750328e-001 3.642352e-001 2.914836e-001 2.740821e-001 3.028281e-001 2.432152e-001 1.867086e-001 8.161484e-002
<GCONST> 9.120712e+001
<STATE> 4
<MEAN> 39
 -7.722725e+000 4.906024e+000 -1.419588e-001 1.081439e+000 5.372888e+000 -2.026332e+000 4.860762e+000 -3.650455e-002 2.442592e+000 -1.955912e-001 -3.665451e-001 5.196115e-001 5.555644e+001 4.317005e-001 5.980530e-002 3.588757e-001 -1.849391e-001 -5.258142e-001 -1.203908e+000 -3.708608e-001 7.288988e-003 -2.124612e-001 -2.082276e-001 -2.214581e-001 -1.871135e-001 4.384180e-001 5.907535e-001 -1.905122e-001 3.580468e-001 -9.279019e-002 -3.745030e-001 -5.673755e-001 -3.918063e-001 -2.003908e-001 -3.461398e-001 7.372130e-002 -1.442620e-001 -1.225016e-001 1.516511e-001
<VARIANCE> 39
 2.399649e+001 3.925087e+001 1.436074e+001 1.562840e+001 2.186284e+001 3.575077e+001 2.394167e+001 2.558980e+001 1.873542e+001 2.884275e+001 1.886798e+001 1.687014e+001 2.225488e+001 2.435577e+000 1.087576e+000 1.650249e+000 1.183673e+000 1.666892e+000 2.863125e+000 2.459502e+000 2.974293e+000 2.188398e+000 1.696704e+000 1.629117e+000 1.754405e+000 6.212698e-001 2.269974e-001 3.067441e-001 2.725248e-001 2.665441e-001 3.773437e-001 5.594380e-001 4.227989e-001 4.790635e-001 3.846413e-001 4.153646e-001 2.920118e-001 3.142507e-001 1.163157e-001
<GCONST> 1.044452e+002
<TRANSP> 5
 0.000000e+000 1.000000e+000 0.000000e+000 0.000000e+000 0.000000e+000
 0.000000e+000 7.473569e-001 2.526431e-001 0.000000e+000 0.000000e+000
 0.000000e+000 0.000000e+000 7.194719e-001 2.805281e-001 0.000000e+000
 0.000000e+000 0.000000e+000 0.000000e+000 7.548038e-001 2.451962e-001
 0.000000e+000 0.000000e+000 0.000000e+000 0.000000e+000 0.000000e+000
<ENDHMM>
~h "ah"
<BEGINHMM>
<NUMSTATES> 5
<STATE> 2
<MEAN> 39
 6.382000e+000 -4.472377e+000 -9.766466e+000 -1.920440e+001 8.182641e-001 7.400667e+000 -1.872911e+000 -6.943798e+000 -1.023401e-001 -4.741108e-001 -1.230654e+000 -1.346246e+001 6.680893e+001 -7.664461e-001 -1.245708e+000 -2.983732e-001 9.791123e-001 1.615114e+000 -6.065527e-001 3.989048e-002 3.750762e-002 6.467064e-001 2.612956e-001 -1.828366e+000 -9.951852e-001 6.600212e-001 6.684943e-002 1.511149e-001 2.963932e-001 2.467431e-001 -1.854421e-001 -4.475876e-001 1.765951e-001 1.580229e-001 -1.104650e-001 -3.315331e-001 -2.253709e-001 4.309311e-001 -2.130602e-001
<VARIANCE> 39
 4.933308e+000 1.162502e+001 1.097806e+001 1.651859e+001 2.231841e+001 2.466101e+001 9.737223e+000 1.563701e+001 1.509494e+001 2.653840e+001 4.071944e+001 1.991169e+001 7.470351e+000 2.696019e-001 6.300167e-001 6.025147e-001 5.739943e-001 6.031848e-001 1.706888e+000 6.202761e-001 1.310045e+000 1.039589e+000 1.574526e+000 1.774549e+000 1.615091e+000 3.589214e-001 4.625052e-002 5.155283e-002 8.754982e-002 1.231708e-001 1.271836e-001 1.696882e-001 1.321200e-001 1.580969e-001 1.432975e-001 2.694942e-001 3.836114e-001 2.198204e-001 3.254374e-002
<GCONST> 7.704762e+001
<STATE> 3
<MEAN> 39
 3.722536e+000 -8.998205e+000 -7.433965e+000 -1.147185e+001 5.464987e+000 -1.517369e+000 9.693127e-001 -4.577410e+000 1.316885e+000 -4.915684e+000 -1.025196e+001 -1.138008e+001 6.767126e+001 -9.139950e-002 -3.829333e-001 9.786041e-001 9.474379e-001 -3.615320e-001 -1.447996e+000 7.665505e-001 6.317857e-001 -2.701679e-001 -1.203973e+000 -2.862527e-001 1.056148e+000 -1.762233e-001 9.853535e-002 1.622813e-001 2.389184e-001 -1.088325e-001 -3.885290e-001 1.908247e-002 6.844435e-002 1.220665e-001 -2.286667e-001 2.338096e-003 3.784666e-001 2.072578e-001 -1.221001e-001
<VARIANCE> 39
 3.559566e+000 7.224221e+000 1.300648e+001 1.742359e+001 1.215998e+001 1.948266e+001 9.154305e+000 1.756472e+001 1.194793e+001 1.872324e+001 1.516059e+001 1.980847e+001 8.035271e+000 2.516882e-001 3.417808e-001 8.355780e-001 4.534692e-001 1.042750e+000 1.568096e+000 8.266417e-001 9.064892e-001 6.405752e-001 1.137599e+000 1.443179e+000 9.935992e-001 1.577797e-001 4.432731e-002 6.167213e-002 6.246940e-002 6.047901e-002 8.966420e-002 1.086396e-001 1.057010e-001 1.220411e-001 1.198214e-001 1.930217e-001 1.657203e-001 1.644632e-001 2.635519e-002
<GCONST> 6.760340e+001
<STATE> 4
<MEAN> 39
 4.169958e+000 -9.646198e+000 1.127634e+000 -8.957186e+000 -1.048514e+000 -8.972705e+000 5.535802e+000 4.443482e-001 -2.840500e+000 -9.577477e+000 -8.477414e+000 -4.430045e+000 6.616151e+001 1.689902e-001 9.826663e-001 2.097467e+000 3.362860e-001 -1.689651e+000 -8.542399e-001 4.680428e-001 5.413643e-001 -1.513599e+000 1.889521e-001 1.093703e+000 1.707971e+000 -8.989936e-001 2.170753e-002 4.707434e-001 -1.015690e-004 -5.757719e-002 1.346135e-001 4.110292e-001 -5.642692e-001 -3.119428e-001 -1.546657e-001 6.600164e-001 8.562305e-002 -2.806221e-001 -2.147722e-001
<VARIANCE> 39
 3.572305e+000 7.344830e+000 2.273260e+001 2.056516e+001 2.402700e+001 1.866345e+001 1.346293e+001 1.626198e+001 1.382471e+001 1.426478e+001 1.913364e+001 1.975029e+001 1.175052e+001 3.202553e-001 6.973159e-001 1.355725e+000 4.031405e-001 9.250994e-001 1.536430e+000 1.418565e+000 1.128547e+000 1.045496e+000 1.871153e+000 9.722000e-001 1.856387e+000 2.656371e-001 4.728245e-002 8.433206e-002 1.158964e-001 8.884026e-002 2.098301e-001 1.931286e-001 2.317807e-001 2.188139e-001 2.226351e-001 2.490876e-001 1.738090e-001 2.804809e-001 4.232972e-002
<GCONST> 7.956044e+001
<TRANSP> 5
 0.000000e+000 1.000000e+000 0.000000e+000 0.000000e+000 0.000000e+000
 0.000000e+000 7.933481e-001 2.066519e-001 0.000000e+000 0.000000e+000
 0.000000e+000 0.000000e+000 8.170946e-001 1.829054e-001 0.000000e+000
 0.000000e+000 0.000000e+000 0.000000e+000 6.593284e-001 3.406717e-001
 0.000000e+000 0.000000e+000 0.000000e+000 0.000000e+000 0.000000e+000
<ENDHMM>
~h "ao"
<BEGINHMM>
<NUMSTATES> 5
<STATE> 2
<MEAN> 39
 6.412764e+000 1.893263e+000 -9.532561e+000 -2.046192e+001 -2.684370e+000 8.606883e+000 -1.680906e-001 -3.683206e+000 -2.534414e+000 -1.059065e+000 -1.677699e-001 -5.115923e+000 6.213392e+001 -1.748021e-001 1.487913e-001 -7.571921e-001 -1.996625e+000 -2.472163e-001 1.049142e+000 3.755562e-001 3.593320e-001 1.030523e-002 -1.265784e+000 2.031724e-001 -2.194551e-001 5.839286e-001 -5.851690e-001 -2.686043e-001 4.661253e-001 9.172966e-001 4.099655e-001 -3.412338e-001 2.574771e-001 2.961764e-001 2.303367e-001 -1.866390e-001 -1.350316e-001 2.104618e-001 -2.031689e-001
<VARIANCE> 39
 1.751714e+001 1.070173e+001 2.438252e+001 8.284525e+001 2.607951e+001 1.556612e+001 1.867214e+001 1.614667e+001 1.938464e+001 3.136737e+001 1.575779e+001 2.665913e+001 4.225538e+001 7.068571e-001 5.165026e-001 1.234348e+000 2.977293e+000 1.291579e+000 1.129720e+000 1.130626e+000 1.206903e+000 1.188954e+000 1.717755e+000 1.251579e+000 1.000864e+000 4.175078e-001 4.945690e-001 2.418168e-001 1.626436e-001 5.320645e-001 2.465246e-001 1.597052e-001 2.331390e-001 2.658136e-001 2.674047e-001 3.127406e-001 2.390560e-001 2.681912e-001 5.467365e-002
<GCONST> 9.475809e+001
<STATE> 3
<MEAN> 39
 6.424947e+000 4.141857e+000 -1.015745e+001 -2.712725e+001 -2.845312e+000 9.004455e+000 2.687950e+000 -2.444220e-001 -2.236537e+000 -9.061465e+000 -8.902745e-001 -5.151679e+000 6.259352e+001 9.414185e-002 2.642116e-001 3.023908e-001 -9.580350e-002 -2.545041e-001 -1.932634e-001 5.607576e-002 3.508841e-001 -7.953457e-002 -2.684785e-001 -3.256417e-002 4.457759e-003 -2.827770e-001 3.355891e-002 -2.824728e-003 5.819901e-002 1.129414e-001 -7.292281e-003 -8.841731e-002 -3.833354e-002 -2.960785e-002 -3.603739e-002 1.333326e-001 -3.060234e-002 -5.016665e-003 -4.024821e-002
<VARIANCE> 39
 6.749192e+000 1.017837e+001 1.464645e+001 3.804845e+001 4.565320e+001 1.675689e+001 1.718617e+001 2.798103e+001 1.854679e+001 2.652520e+001 1.109653e+001 2.160767e+001 1.815196e+001 1.906344e-001 2.679231e-001 4.178722e-001 5.709091e-001 5.240241e-001 6.484951e-001 6.343375e-001 6.986089e-001 7.160491e-001 9.181064e-001 5.882247e-001 7.047839e-001 1.556717e-001 2.977704e-002 4.617875e-002 5.880840e-002 8.603518e-002 8.607130e-002 1.020425e-001 1.120028e-001 1.189606e-001 1.091434e-001 1.226525e-001 9.896936e-002 9.184656e-002 2.804120e-002
<GCONST> 6.664465e+001
<STATE> 4
<MEAN> 39
 7.503892e+000 6.053383e+000 -2.234335e+000 -1.689760e+001 -4.757463e+000 3.724656e+000 3.301348e+000 7.873154e-001 -3.986507e+000 -4.644891e+000 -3.793249e+000 -5.188406e+000 5.568694e+001 -3.793969e-001 -3.052690e-001 6.699846e-001 2.012716e+000 6.801726e-001 -4.148480e-001 3.070678e-001 -5.437282e-001 1.776208e-001 1.092026e+000 -2.637050e-001 2.424750e-001 -6.742832e-001 -1.915164e-001 -1.402323e-001 -6.934606e-002 1.107410e-001 1.456654e-001 5.394539e-002 -3.193772e-002 -7.494226e-002 1.885919e-001 8.419307e-002 6.985150e-002 8.587487e-002 5.615234e-002
<VARIANCE> 39
 1.307928e+001 8.072165e+000 1.486982e+001 1.006174e+002 3.079864e+001 2.259763e+001 2.798742e+001 2.363171e+001 3.154701e+001 2.774373e+001 2.071932e+001 2.631370e+001 2.088821e+001 6.243541e-001 5.473518e-001 7.712080e-001 2.182331e+000 1.748989e+000 1.605836e+000 1.423517e+000 1.774067e+000 1.803453e+000 1.659269e+000 1.662693e+000 1.503882e+000 3.140970e-001 6.492381e-002 6.759215e-002 1.479328e-001 3.699760e-001 2.269887e-001 2.754752e-001 3.107348e-001 2.838897e-001 2.526076e-001 2.865608e-001 3.102133e-001 2.678326e-001 7.583918e-002
<GCONST> 9.383536e+001
<TRANSP> 5
 0.000000e+000 1.000000e+000 0.000000e+000 0.000000e+000 0.000000e+000
 0.000000e+000 5.657397e-001 4.342604e-001 0.000000e+000 0.000000e+000
 0.000000e+000 0.000000e+000 9.154417e-001 8.455829e-002 0.000000e+000
 0.000000e+000 0.000000e+000 0.000000e+000 8.364356e-001 1.635644e-001
 0.000000e+000 0.000000e+000 0.000000e+000 0.000000e+000 0.000000e+000
<ENDHMM>
~h "ax"
<BEGINHMM>
<NUMSTATES> 5
<STATE> 2
<MEAN> 39
 -1.780133e+000 -7.565699e+000 -3.083532e-001 -4.623512e+000 2.928273e+000 -3.668971e+000 4.690973e+000 2.761983e+000 3.507011e+000 -1.956646e-001 -2.806758e+000 -3.774641e-001 5.799074e+001 1.054682e-001 2.935230e-001 2.212756e-001 2.555844e-001 -4.507402e-001 -2.398529e-001 4.159879e-001 -1.384779e-002 1.279008e-001 5.493382e-002 1.562082e-001 1.143834e-001 -3.714773e-001 3.078423e-003 7.304606e-002 9.912265e-003 -4.169373e-002 6.161351e-003 2.060580e-002 -1.253621e-001 -7.356600e-002 -5.022292e-003 1.055308e-001 7.443354e-002 8.425219e-002 -3.305976e-002
<VARIANCE> 39
 3.035243e+001 1.667635e+001 1.325533e+001 3.279472e+001 1.691473e+001 3.140805e+001 1.832722e+001 2.605212e+001 2.344880e+001 3.065639e+001 5.909101e+001 4.954132e+001 6.751594e+001 3.202703e-001 4.581624e-001 1.006016e+000 7.564124e-001 1.405910e+000 2.543872e+000 1.300174e+000 1.278046e+000 1.620840e+000 1.345497e+000 1.396982e+000 1.348333e+000 2.421608e-001 5.396194e-002 7.548799e-002 1.100288e-001 9.614023e-002 1.682780e-001 1.954340e-001 2.149903e-001 2.411402e-001 3.122101e-001 2.446754e-001 2.588319e-001 2.182153e-001 2.108184e-002
<GCONST> 8.904752e+001
<STATE> 3
<MEAN> 39
 3.283684e+000 -7.400065e+000 4.013882e-001 -7.146914e+000 1.454947e+000 -5.127991e+000 7.086587e+000 -7.571820e-001 1.823937e+000 -3.343693e+000 -7.758934e+000 -3.998875e+000 6.287275e+001 -2.748444e-001 5.540702e-001 7.323581e-001 2.049961e-001 -6.149338e-001 -5.590214e-001 2.067981e-002 1.304821e-001 2.440196e-001 6.765568e-001 1.058401e+000 1.119585e+000 -6.640139e-001 4.892811e-002 9.797920e-002 -7.184079e-002 -2.019119e-001 6.719447e-002 4.612496e-002 -3.600593e-001 -1.930335e-001 -1.305195e-001 1.763522e-001 6.877169e-002 3.185180e-002 2.822642e-002
<VARIANCE> 39
 1.050083e+001 2.158958e+001 3.992874e+001 4.287632e+001 3.955322e+001 1.065949e+002 2.197801e+001 3.313054e+001 3.264120e+001 2.968579e+001 3.687880e+001 3.836643e+001 5.750105e+001 7.485951e-001 8.280935e-001 1.666424e+000 9.630379e-001 1.704711e+000 3.068017e+000 1.772575e+000 1.264259e+000 2.090980e+000 1.912590e+000 1.565886e+000 1.879470e+000 3.187610e-001 9.848780e-002 8.533064e-002 1.496119e-001 1.692373e-001 2.395098e-001 3.645399e-001 2.660167e-001 2.126001e-001 2.647564e-001 3.818584e-001 2.873631e-001 2.354990e-001 4.489223e-002
<GCONST> 9.959052e+001
<STATE> 4
<MEAN> 39
 4.357605e+000 -3.816330e+000 -6.410884e+000 -9.208881e+000 1.580718e+000 1.240494e+000 4.200460e+000 -5.726397e+000 3.841766e+000 -2.287787e+000 -2.932328e+000 -1.117455e+001 6.144084e+001 -2.875633e-002 3.386077e-001 4.311392e-001 2.769985e-001 -9.044456e-002 -1.459745e-002 5.931962e-002 -6.377453e-002 -1.949915e-001 4.839851e-002 2.349205e-001 4.716406e-001 -4.419385e-001 -1.778010e-002 -8.093165e-004 2.396028e-002 -2.455381e-003 4.686695e-002 5.946491e-002 -1.038570e-001 -3.081794e-002 -4.546776e-002 3.760369e-002 -4.259147e-002 5.082316e-002 1.326672e-002
<VARIANCE> 39
 5.462061e+000 2.129389e+001 4.801168e+001 2.532403e+001 1.597477e+001 7.308399e+001 1.636144e+001 4.075743e+001 2.506001e+001 2.278581e+001 4.377510e+001 5.575957e+001 3.345751e+001 2.481948e-001 5.354340e-001 7.979999e-001 8.997535e-001 1.150271e+000 1.387740e+000 9.364964e-001 9.320841e-001 7.377657e-001 1.317717e+000 1.498140e+000 9.501253e-001 2.567055e-001 4.119007e-002 7.444592e-002 1.156930e-001 1.254624e-001 1.372418e-001 2.353896e-001 1.696861e-001 2.191837e-001 2.066583e-001 2.004885e-001 2.227813e-001 1.265116e-001 6.075570e-002
<GCONST> 8.540933e+001
<TRANSP> 5
 0.000000e+000 1.000000e+000 0.000000e+000 0.000000e+000 0.000000e+000
 0.000000e+000 6.308858e-001 3.691142e-001 0.000000e+000 0.000000e+000
 0.000000e+000 0.000000e+000 4.744793e-001 5.255207e-001 0.000000e+000
 0.000000e+000 0.000000e+000 0.000000e+000 6.892482e-001 3.107517e-001
 0.000000e+000 0.000000e+000 0.000000e+000 0.000000e+000 0.000000e+000
<ENDHMM>
~h "ay"
<BEGINHMM>
<NUMSTATES> 5
<STATE> 2
<MEAN> 39
 4.715730e+000 1.498674e-001 2.973856e-001 -6.789786e+000 -8.415989e-001 -4.881814e+000 -1.429582e+000 -6.831700e+000 -2.176201e+000 3.912724e+000 -7.718894e+000 -7.211640e+000 6.102593e+001 4.214923e-001 -1.856505e+000 -1.730913e+000 -2.013720e+000 1.234752e+000 -4.898634e-001 -2.815167e-001 2.193058e+000 1.067005e-001 -1.151463e+000 -1.267849e+000 -9.955313e-001 2.434647e+000 -3.429506e-001 -6.164438e-001 -1.600628e-001 1.693083e-001 5.263738e-001 4.080987e-001 3.867123e-001 3.339780e-001 2.158071e-001 -3.340790e-001 -1.116902e-001 8.221717e-002 -4.505860e-002
<VARIANCE> 39
 2.179420e+001 1.959126e+001 7.810039e+001 5.322068e+001 1.519245e+001 6.369081e+001 1.623931e+001 6.904044e+001 1.797835e+001 3.897343e+001 4.283271e+001 4.704924e+001 1.982383e+001 2.225256e+000 1.127314e+000 2.009945e+000 1.697846e+000 1.671645e+000 3.379884e+000 1.933246e+000 7.218693e+000 1.670309e+000 2.955826e+000 3.149879e+000 4.113663e+000 1.956558e+000 6.311969e-001 2.010285e-001 6.179075e-001 8.546169e-001 2.454249e-001 7.218085e-001 3.076941e-001 9.198357e-001 2.852550e-001 5.599890e-001 3.978496e-001 7.588147e-001 2.612201e-001
<GCONST> 1.183849e+002
<STATE> 3
<MEAN> 39
 5.488664e+000 -7.830338e+000 -3.601547e+000 -1.167639e+001 5.180462e+000 -4.725715e+000 6.713945e-003 -3.322184e-002 -7.163799e-001 -5.739262e-001 -1.257204e+001 -9.593501e+000 6.676777e+001 -9.318053e-003 -1.519789e+000 -1.385461e+000 -1.040949e+000 1.160887e+000 1.817850e+000 1.924120e-001 -4.086196e-001 4.690382e-001 -1.401343e+000 -1.751540e-002 -1.192701e+000 1.256666e+000 -3.126943e-001 4.451896e-001 2.185168e-001 4.974832e-001 -1.927417e-001 3.790755e-001 -5.270648e-002 -7.710688e-001 -7.720978e-004 1.061520e-001 5.657039e-001 2.544459e-001 -5.060718e-001
<VARIANCE> 39
 7.498806e+000 1.286782e+001 2.171570e+001 2.045546e+001 1.647581e+001 5.033315e+001 1.438915e+001 2.736757e+001 2.041455e+001 2.521169e+001 3.222926e+001 3.471689e+001 1.090469e+001 1.158153e+000 1.649489e+000 1.511850e+000 1.401242e+000 1.220799e+000 2.696176e+000 1.785277e+000 5.305203e+000 1.401487e+000 2.427856e+000 3.232480e+000 2.486703e+000 8.960297e-001 2.007686e-001 1.928435e-001 2.336258e-001 1.700200e-001 2.137847e-001 7.825887e-001 3.804725e-001 8.647436e-001 3.005742e-001 4.204801e-001 4.361714e-001 5.245887e-001 1.307855e-001
<GCONST> 1.037744e+002
<STATE> 4
<MEAN> 39
 3.705495e+000 -1.009122e+001 -8.073054e+000 -1.152442e+001 6.833539e+000 1.345019e+000 9.192988e-001 -4.856013e+000 -1.825242e-001 -4.384263e+000 -9.332369e+000 -1.125597e+001 6.828227e+001 -5.981561e-002 -2.307989e-001 3.507716e-001 2.583576e-001 -2.998729e-001 -6.271538e-001 4.424912e-001 3.028377e-001 -2.543305e-002 -3.833927e-001 -1.194735e-001 3.495211e-001 -1.852015e-002 6.101789e-002 7.018489e-002 1.588198e-001 2.810874e-002 -1.702795e-001 -2.199325e-001 6.025582e-002 1.406931e-001 -1.724280e-002 5.862639e-002 -7.420039e-003 9.908468e-002 -7.751035e-002
<VARIANCE> 39
 4.676816e+000 1.016716e+001 1.647168e+001 1.766286e+001 1.377095e+001 3.215791e+001 1.743530e+001 1.859795e+001 1.452014e+001 1.766746e+001 1.792442e+001 1.791831e+001 9.117778e+000 2.463623e-001 3.871347e-001 7.201591e-001 4.606359e-001 1.059669e+000 1.455850e+000 8.877941e-001 1.022557e+000 7.106792e-001 8.881097e-001 8.407845e-001 7.046624e-001 1.533898e-001 3.643475e-002 5.930253e-002 6.536491e-002 7.190975e-002 8.760069e-002 1.311395e-001 1.263028e-001 1.371096e-001 1.191286e-001 1.590207e-001 1.394326e-001 9.855945e-002 2.405804e-002
<GCONST> 6.864059e+001
<TRANSP> 5
 0.000000e+000 1.000000e+000 0.000000e+000 0.000000e+000 0.000000e+000
 0.000000e+000 4.273877e-001 5.726123e-001 0.000000e+000 0.000000e+000
 0.000000e+000 0.000000e+000 6.841084e-001 3.158916e-001 0.000000e+000
 0.000000e+000 0.000000e+000 0.000000e+000 9.200380e-001 7.996197e-002
 0.000000e+000 0.000000e+000 0.000000e+000 0.000000e+000 0.000000e+000
<ENDHMM>
~h "eh"
<BEGINHMM>
<NUMSTATES> 5
<STATE> 2
<MEAN> 39
 4.718516e+000 -4.251437e+000 -2.097069e-001 -9.678034e+000 -3.085887e+000 -1.455197e+001 -1.184733e+000 2.180642e+000 2.757391e+000 1.320923e+000 -1.144961e+001 -3.483513e+000 6.586213e+001 1.592054e+000 -2.220785e+000 1.171279e-001 -1.772420e+000 -1.130194e+000 -7.535312e-001 -1.073164e-001 1.060039e+000 -1.571073e-001 -1.083331e-001 -1.155443e+000 -2.062598e-001 1.765731e+000 -1.215973e+000 1.346003e-001 -2.162140e-001 3.816502e-001 4.801230e-001 8.333357e-001 6.055398e-001 3.813406e-001 2.700932e-003 -4.636394e-001 7.027698e-001 1.318101e-001 -3.469391e-001
<VARIANCE> 39
 4.378321e+000 1.530076e+001 1.282515e+001 1.672006e+001 9.883759e+000 1.898695e+001 1.217080e+001 1.729432e+001 7.936416e+000 1.240186e+001 1.005486e+001 1.162377e+001 8.473261e+000 4.305249e+000 7.348535e-001 1.065696e+000 1.522912e+000 1.940612e+000 3.245727e+000 1.852288e+000 2.231664e+000 1.136801e+000 2.523555e+000 2.262869e+000 1.300418e+000 9.054134e-001 2.690660e-001 2.227104e-001 1.699649e-001 2.162371e-001 2.457746e-001 3.434357e-001 2.269138e-001 4.396383e-001 2.305584e-001 2.732829e-001 2.362651e-001 1.895202e-001 1.437075e-001
<GCONST> 9.154469e+001
<STATE> 3
<MEAN> 39
 4.444242e+000 -9.173400e+000 -2.178168e-001 -1.150277e+001 -2.715918e+000 -1.274120e+001 2.247133e+000 5.500702e+000 2.421579e+000 -3.609917e+000 -1.096313e+001 -5.222986e+000 6.797240e+001 2.739951e-001 5.936259e-002 5.962234e-002 1.945735e-001 1.524533e-001 1.631689e-001 -3.572523e-001 -5.354727e-001 8.884453e-002 4.839591e-002 4.460397e-001 -3.282666e-001 -3.105348e-001 7.796708e-002 2.928643e-001 -1.074402e-002 2.100315e-001 2.287183e-002 1.084413e-001 -2.719348e-001 -3.753891e-001 -5.678018e-003 2.441827e-001 1.689985e-001 -4.134180e-002 -2.384403e-001
<VARIANCE> 39
 4.502482e+000 5.866978e+000 1.480736e+001 1.445592e+001 1.366787e+001 2.848545e+001 1.760981e+001 1.703176e+001 1.305166e+001 1.569063e+001 1.531724e+001 2.237918e+001 4.414773e+000 3.119117e-001 6.030639e-001 3.897322e-001 6.575791e-001 4.788902e-001 9.242072e-001 1.971599e+000 1.648919e+000 7.378500e-001 1.573207e+000 8.107976e-001 6.170431e-001 4.338235e-001 4.477634e-002 5.833144e-002 6.890466e-002 1.023258e-001 9.690928e-002 1.867656e-001 1.694370e-001 1.564729e-001 1.753748e-001 1.529379e-001 1.169509e-001 1.187463e-001 3.824828e-002
<GCONST> 7.087914e+001
<STATE> 4
<MEAN> 39
 7.597167e+000 -3.077243e+000 3.740236e-002 -6.452321e+000 -1.551986e+000 -7.970379e+000 -6.409790e+000 -5.886932e+000 9.537924e-001 2.227040e+000 -3.912158e+000 -8.248840e+000 6.096169e+001 1.299567e-001 9.444473e-001 1.599063e-002 6.219385e-001 1.517974e-001 1.160563e+000 -6.202041e-001 -1.362091e+000 -6.964563e-001 6.569286e-001 8.925241e-001 -4.751923e-001 -8.008368e-001 -1.197520e-001 -3.939088e-001 2.780289e-002 -4.166062e-001 -5.113542e-002 -3.086860e-001 4.404931e-001 6.334040e-001 6.218439e-002 -2.008236e-001 -4.013784e-001 6.907560e-002 4.365642e-001
<VARIANCE> 39
 3.554653e+000 8.914205e+000 6.752678e+000 1.070097e+001 8.152178e+000 1.588988e+001 8.963408e+000 1.904288e+001 1.472079e+001 1.371274e+001 1.433205e+001 1.333101e+001 7.510835e+000 3.774468e-001 1.388548e+000 3.210660e-001 1.592380e+000 6.051659e-001 1.497868e+000 1.312377e+000 2.509724e+000 1.170759e+000 1.151334e+000 1.251544e+000 8.943663e-001 1.197869e+000 7.257734e-002 1.881544e-001 6.655925e-002 1.924617e-001 1.138042e-001 2.450197e-001 1.681893e-001 2.310895e-001 3.064297e-001 2.333362e-001 1.938485e-001 1.509048e-001 1.106062e-001
<GCONST> 7.851241e+001
<TRANSP> 5
 0.000000e+000 1.000000e+000 0.000000e+000 0.000000e+000 0.000000e+000
 0.000000e+000 7.242487e-001 2.757513e-001 0.000000e+000 0.000000e+000
 0.000000e+000 0.000000e+000 8.964151e-001 1.035850e-001 0.000000e+000
 0.000000e+000 0.000000e+000 0.000000e+000 7.851745e-001 2.148255e-001
 0.000000e+000 0.000000e+000 0.000000e+000 0.000000e+000 0.000000e+000
<ENDHMM>
~h "ey"
<BEGINHMM>
<NUMSTATES> 5
<STATE> 2
<MEAN> 39
 -1.075753e+000 -8.854647e-001 6.682892e-002 -2.612622e+000 -1.670995e+000 6.039777e-001 3.511877e+000 -3.591711e+000 2.670980e+000 3.339237e+000 -8.374352e-001 -5.490117e-001 4.999598e+001 -3.097987e-001 -8.002921e-001 -5.029753e-001 3.345728e-001 7.351590e-001 1.954351e-001 7.192050e-001 7.089018e-001 6.516524e-001 -2.760231e-001 -6.451697e-001 -4.377471e-001 9.456880e-002 1.234329e-001 -1.980301e-001 -8.270244e-002 -2.227817e-001 1.315823e-001 -1.412335e-001 -2.322582e-002 2.111862e-002 -2.006771e-001 -3.154584e-001 -3.045323e-001 -1.879089e-001 4.472322e-001
<VARIANCE> 39
 2.129542e+001 1.280744e+001 3.030116e+001 3.975562e+001 2.613920e+001 4.230114e+001 3.238099e+001 4.293429e+001 3.627424e+001 3.067949e+001 3.234772e+001 3.317723e+001 2.645722e+001 2.042156e+000 1.712613e+000 2.735095e+000 3.487842e+000 2.280053e+000 3.273614e+000 2.323130e+000 4.234291e+000 4.397482e+000 4.384531e+000 2.928100e+000 3.336434e+000 3.777351e+000 3.519943e-001 3.496905e-001 4.643080e-001 4.428060e-001 4.309173e-001 5.312728e-001 4.698924e-001 8.186834e-001 7.763994e-001 6.787408e-001 4.519525e-001 5.872199e-001 4.927050e-001
<GCONST> 1.214836e+002
<STATE> 3
<MEAN> 39
 1.630462e+000 -1.026347e+001 -5.160449e+000 -7.652657e+000 3.926887e+000 -4.821015e+000 5.323072e+000 6.585072e-001 1.180037e+000 -4.154370e+000 -1.041913e+001 -6.475266e+000 6.266197e+001 7.262722e-001 -1.490857e+000 -3.848397e-001 -1.100170e+000 3.958093e-001 -9.169281e-001 6.339122e-002 2.056726e-001 -7.217035e-001 -1.154638e+000 -1.046137e+000 -7.892884e-001 2.532143e+000 -1.853377e-001 2.860063e-001 2.774468e-001 2.385353e-001 -2.100637e-001 2.459814e-001 3.418049e-002 -2.142818e-001 3.470370e-002 1.697642e-001 4.560548e-001 3.212795e-001 -3.882991e-001
<VARIANCE> 39
 1.254509e+001 1.821366e+001 2.671875e+001 1.765518e+001 3.237500e+001 4.842731e+001 2.198568e+001 2.557825e+001 2.768343e+001 2.185877e+001 1.805523e+001 3.010900e+001 3.186886e+001 1.072040e+000 1.697632e+000 2.311262e+000 1.914823e+000 2.060546e+000 2.658500e+000 2.192982e+000 2.468941e+000 1.608123e+000 2.399581e+000 2.542273e+000 2.078196e+000 2.576963e+000 1.947335e-001 2.679653e-001 3.583730e-001 3.271437e-001 3.786592e-001 4.662117e-001 3.828976e-001 4.126748e-001 3.199159e-001 4.647126e-001 3.149452e-001 3.374995e-001 3.762857e-001
<GCONST> 1.087567e+002
<STATE> 4
<MEAN> 39
 2.703965e+000 -1.231919e+001 -4.115253e+000 -8.847837e+000 1.879658e+000 -7.059443e+000 7.711656e+000 -5.051628e-001 -1.289707e+000 -9.721122e+000 -1.036927e+001 -5.536971e+000 6.839919e+001 9.217440e-002 3.694726e-001 2.993495e-001 3.830804e-002 -4.074804e-001 -4.007117e-001 1.129684e-001 1.031087e-001 2.049343e-002 -1.606232e-002 -1.182413e-001 3.910915e-001 -1.022532e-001 3.239220e-003 1.718364e-001 7.305036e-002 7.816467e-002 -1.252405e-002 -4.310929e-002 -1.051031e-001 4.087633e-002 4.270423e-002 1.694051e-001 -8.887836e-003 4.249808e-002 -1.889314e-001
<VARIANCE> 39
 4.303082e+000 1.133711e+001 1.321999e+001 1.539519e+001 1.401746e+001 1.946053e+001 1.162583e+001 1.496835e+001 1.590574e+001 1.482606e+001 9.945203e+000 1.418763e+001 8.242231e+000 2.347660e-001 5.665218e-001 4.511570e-001 4.820590e-001 5.631093e-001 7.011430e-001 7.491487e-001 6.701204e-001 6.514823e-001 1.023050e+000 6.933146e-001 5.743321e-001 3.239878e-001 5.286619e-002 6.477360e-002 7.944953e-002 1.093336e-001 9.487189e-002 1.060040e-001 1.469327e-001 1.234356e-001 1.119840e-001 1.347087e-001 1.239704e-001 1.015953e-001 6.992427e-002
<GCONST> 6.629402e+001
<TRANSP> 5
 0.000000e+000 1.000000e+000 0.000000e+000 0.000000e+000 0.000000e+000
 0.000000e+000 8.621670e-001 1.378330e-001 0.000000e+000 0.000000e+000
 0.000000e+000 0.000000e+000 7.972220e-001 2.027779e-001 0.000000e+000
 0.000000e+000 0.000000e+000 0.000000e+000 9.220302e-001 7.796989e-002
 0.000000e+000 0.000000e+000 0.000000e+000 0.000000e+000 0.000000e+000
<ENDHMM>
~h "ia"
<BEGINHMM>
<NUMSTATES> 5
<STATE> 2
<MEAN> 39
 3.358400e-001 4.060407e+000 6.809393e+000 -1.130134e+000 -7.764382e-001 -1.679580e+001 -1.899962e+000 -2.505317e+000 -3.176027e+000 -1.579628e+000 -3.465247e+000 -2.160212e+000 6.121870e+001 1.758967e+000 -2.025650e+000 1.687734e+000 -1.399163e+000 -1.737572e+000 -2.138149e+000 -3.746661e-001 6.846784e-001 -9.722147e-001 2.493374e-001 -2.984009e-001 5.649793e-001 1.105577e+000 -2.291096e-001 -2.445307e-001 -4.628805e-003 -2.273556e-001 1.680563e-002 5.278516e-001 3.276082e-001 1.289647e-001 1.844296e-001 2.361457e-002 5.168461e-002 2.852769e-001 2.390816e-002
<VARIANCE> 39
 1.479289e+001 1.989662e+001 1.771148e+001 1.686932e+001 2.142195e+001 2.099492e+001 1.375917e+001 1.119066e+001 1.792177e+001 1.485052e+001 1.507242e+001 1.307764e+001 1.167263e+001 1.791987e+000 1.375064e+000 1.268181e+000 1.249249e+000 1.734970e+000 2.641329e+000 2.051969e+000 1.428084e+000 1.767921e+000 1.420194e+000 1.326292e+000 1.582320e+000 3.026704e-001 3.390616e-001 2.975884e-001 2.400077e-001 1.942189e-001 2.119624e-001 4.076827e-001 2.560438e-001 2.972892e-001 3.494122e-001 2.446007e-001 2.457043e-001 2.728836e-001 4.562603e-002
<GCONST> 9.332549e+001
<STATE> 3
<MEAN> 39
 4.026818e+000 -5.814450e+000 1.146046e+001 -8.837893e+000 -8.530945e+000 -1.827824e+001 -3.815967e-001 1.274517e+000 -3.431747e+000 -1.138413e+000 -4.248700e+000 2.395551e+000 6.657731e+001 2.277042e-001 -7.932764e-001 -9.566606e-001 -4.188885e-001 -3.345175e-001 7.801831e-001 6.699934e-002 3.165445e-001 1.061821e+000 -3.124055e-002 -3.516712e-001 -5.171150e-001 4.317915e-001 -1.133813e-002 1.385499e-001 -3.914311e-001 2.093041e-001 2.516467e-001 3.220200e-001 -1.637044e-001 -1.476448e-001 1.709715e-001 2.822236e-002 -4.705216e-002 -3.920675e-001 -1.230923e-001
<VARIANCE> 39
 3.842942e+000 8.183601e+000 3.438907e+001 1.135494e+001 1.504612e+001 1.473842e+001 1.356871e+001 1.411740e+001 3.334758e+001 1.267961e+001 1.332017e+001 1.913389e+001 7.549137e+000 2.151940e-001 4.637186e-001 1.929844e+000 7.551599e-001 1.760948e+000 1.441022e+000 1.283106e+000 1.025649e+000 1.244053e+000 8.116651e-001 1.127107e+000 2.414434e+000 1.876880e-001 6.726871e-002 8.113331e-002 1.611390e-001 1.307224e-001 1.991007e-001 2.124141e-001 1.825364e-001 2.556007e-001 2.121744e-001 1.510637e-001 1.886042e-001 1.710863e-001 2.430757e-002
<GCONST> 7.808440e+001
<STATE> 4
<MEAN> 39
 8.672599e+000 -9.379702e+000 -5.998957e+000 -3.730271e+000 -9.978674e+000 -4.950303e+000 -1.340950e+000 -4.204309e+000 6.070819e+000 4.570900e-002 -3.238061e+000 -1.078792e+001 6.653385e+001 5.713306e-001 1.433442e-001 -1.390654e+000 6.147845e-001 -4.465865e-001 1.180783e+000 2.566704e-001 -1.384911e+000 -2.771529e-001 5.054376e-001 8.812459e-001 -5.066971e-001 -2.946218e-001 -3.806359e-002 1.580575e-001 2.232348e-001 -1.076087e-001 -1.217772e-001 -1.469312e-001 2.186384e-001 -8.852643e-002 -3.310684e-001 1.866481e-002 1.705026e-001 3.634379e-001 -4.789282e-002
<VARIANCE> 39
 5.466987e+000 6.592131e+000 3.325555e+001 2.864439e+001 1.859580e+001 2.476390e+001 2.375187e+001 3.397945e+001 2.005515e+001 2.378728e+001 3.259923e+001 2.441811e+001 7.976035e+000 2.564111e-001 5.338935e-001 1.107370e+000 1.537104e+000 1.110316e+000 1.686677e+000 1.396720e+000 1.436466e+000 1.753839e+000 1.046546e+000 1.137149e+000 2.656080e+000 7.779571e-002 3.914994e-002 5.312691e-002 9.620319e-002 2.692336e-001 2.220778e-001 2.255549e-001 2.459953e-001 3.075948e-001 1.979312e-001 1.696054e-001 2.148715e-001 2.408460e-001 1.437811e-002
<GCONST> 8.289481e+001
<TRANSP> 5
 0.000000e+000 1.000000e+000 0.000000e+000 0.000000e+000 0.000000e+000
 0.000000e+000 7.659881e-001 2.340120e-001 0.000000e+000 0.000000e+000
 0.000000e+000 0.000000e+000 8.855916e-001 1.144084e-001 0.000000e+000
 0.000000e+000 0.000000e+000 0.000000e+000 8.825272e-001 1.174728e-001
 0.000000e+000 0.000000e+000 0.000000e+000 0.000000e+000 0.000000e+000
<ENDHMM>
~h "ih"
<BEGINHMM>
<NUMSTATES> 5
<STATE> 2
<MEAN> 39
 -1.082814e+001 3.204033e+000 -1.279159e+000 -2.564242e+000 4.220068e+000 -5.527566e+000 4.794753e+000 3.232332e+000 4.421488e+000 -1.441111e+000 -1.097532e+000 5.838930e-001 5.854233e+001 4.875612e+000 -6.257275e-001 1.968460e+000 -1.169730e+000 -1.377774e+000 -3.213786e+000 -2.207926e+000 -9.285387e-001 -8.879862e-001 2.066183e-001 -2.269665e+000 -1.432454e+000 8.165649e-001 6.822707e-001 -4.997402e-001 4.785508e-002 -3.230138e-001 -6.578040e-001 -6.274539e-001 -4.255804e-001 -1.544177e-001 -3.171810e-001 2.888591e-001 -1.641210e-001 1.038753e-001 6.371503e-001
<VARIANCE> 39
 2.114644e+001 8.581299e+000 1.394009e+001 1.483907e+001 1.764066e+001 1.706487e+001 1.945838e+001 1.787707e+001 1.474275e+001 1.967319e+001 1.880956e+001 2.006202e+001 8.085307e+000 1.462764e+000 8.974303e-001 1.068098e+000 1.678270e+000 1.475726e+000 1.572688e+000 1.709595e+000 1.744307e+000 1.780746e+000 1.934878e+000 1.479529e+000 1.387123e+000 7.317536e-001 5.474378e-001 1.615530e-001 3.150820e-001 2.665285e-001 2.240995e-001 3.536834e-001 3.910162e-001 3.787898e-001 3.617592e-001 3.711132e-001 4.354905e-001 4.097591e-001 8.486499e-002
<GCONST> 9.635098e+001
<STATE> 3
<MEAN> 39
 3.566174e+000 -1.831331e+000 2.824269e+000 -7.694698e+000 -3.139814e+000 -1.654580e+001 -2.178348e+000 5.401948e-001 8.396870e-001 9.573100e-001 -7.263252e+000 -1.343799e+000 6.470565e+001 1.917455e+000 -1.996506e+000 8.771822e-001 -1.583036e+000 -2.461392e+000 -1.939663e+000 -6.826112e-001 2.118476e-001 -5.366439e-001 9.657086e-002 -2.346859e-001 3.034759e-001 1.869605e+000 -1.293504e+000 6.645125e-002 -2.587225e-001 3.194157e-001 1.212022e-001 8.797379e-001 7.176389e-001 3.607560e-001 1.778385e-001 -3.268650e-001 7.482634e-001 2.895245e-001 -2.099259e-001
<VARIANCE> 39
 7.334000e+000 1.611305e+001 1.645626e+001 1.495877e+001 1.794887e+001 1.635710e+001 1.242969e+001 1.152532e+001 1.280564e+001 1.939946e+001 1.109381e+001 1.400234e+001 1.363742e+001 5.200140e+000 8.956740e-001 1.619396e+000 1.605648e+000 1.116577e+000 4.360756e+000 2.675864e+000 1.988141e+000 1.691987e+000 2.484775e+000 2.860043e+000 1.868095e+000 6.750954e-001 2.309731e-001 2.773542e-001 1.985001e-001 3.006938e-001 2.697122e-001 2.668773e-001 2.532732e-001 2.823792e-001 2.559540e-001 3.522479e-001 2.696384e-001 3.335167e-001 2.147828e-001
<GCONST> 9.705444e+001
<STATE> 4
<MEAN> 39
 2.228881e+000 -4.361074e+000 5.644330e+000 -6.046937e+000 -8.534048e+000 -1.660530e+001 1.160897e+000 2.326753e+000 -4.302001e+000 -1.204389e+000 -1.975039e+000 -1.076263e+000 6.517359e+001 -3.228084e-001 3.958186e-001 -3.161359e-001 7.937637e-001 7.417323e-001 3.767517e-001 1.763504e-001 -2.997729e-001 -1.570415e-001 1.536551e-001 8.130784e-002 -1.106313e-001 -6.840852e-001 -1.177092e-001 7.696161e-002 -2.395744e-001 7.731947e-002 2.867976e-001 2.071593e-001 -1.935306e-002 -1.042690e-001 2.456805e-001 6.876158e-002 -4.411032e-002 -1.369306e-002 -1.166736e-001
<VARIANCE> 39
 5.108633e+000 1.544317e+001 2.164375e+001 2.784797e+001 3.114585e+001 2.918731e+001 1.260937e+001 1.706252e+001 4.878679e+001 1.881419e+001 2.292138e+001 1.625129e+001 2.275937e+001 7.923040e-001 1.194952e+000 2.829557e+000 1.306858e+000 3.521225e+000 2.890715e+000 1.093571e+000 1.498719e+000 5.363875e+000 1.178323e+000 1.568286e+000 9.968920e-001 1.147188e+000 1.227744e-001 2.174827e-001 3.351102e-001 2.283816e-001 2.791800e-001 4.307117e-001 2.005466e-001 2.212869e-001 7.274460e-001 1.969976e-001 2.715996e-001 1.842357e-001 1.610768e-001
<GCONST> 9.880327e+001
<TRANSP> 5
 0.000000e+000 1.000000e+000 0.000000e+000 0.000000e+000 0.000000e+000
 0.000000e+000 4.867272e-001 5.132728e-001 0.000000e+000 0.000000e+000
 0.000000e+000 0.000000e+000 7.090130e-001 2.909870e-001 0.000000e+000
 0.000000e+000 0.000000e+000 0.000000e+000 9.323364e-001 6.766360e-002
 0.000000e+000 0.000000e+000 0.000000e+000 0.000000e+000 0.000000e+000
<ENDHMM>
~h "iy"
<BEGINHMM>
<NUMSTATES> 5
<STATE> 2
<MEAN> 39
 4.197103e+000 -7.115687e+000 1.440668e+001 -9.587682e+000 -1.020546e+001 -1.930975e+001 -1.702909e+000 5.444009e-001 -7.395906e+000 -5.414084e-001 -2.468605e+000 4.303816e+000 6.550931e+001 -7.834596e-001 7.516605e-001 1.156110e+000 -7.740229e-001 -1.529713e-001 -2.042738e-001 4.886829e-001 -6.617396e-001 -1.227862e+000 -2.137602e-001 2.360353e-001 8.427784e-001 -3.502829e-002 9.200101e-002 1.651777e-001 -2.540250e-001 2.005264e-001 1.630492e-001 3.794198e-001 -2.343191e-001 -3.936786e-001 1.660619e-001 8.601879e-002 -1.204426e-001 -2.611490e-001 -1.815315e-001
<VARIANCE> 39
 5.523777e+000 8.548049e+000 2.124538e+001 1.377173e+001 8.271011e+000 1.157587e+001 1.465060e+001 1.819472e+001 3.225924e+001 1.024636e+001 1.018908e+001 1.326210e+001 6.721769e+000 2.806381e-001 4.458884e-001 1.056193e+000 6.335678e-001 1.218474e+000 1.350903e+000 1.287336e+000 1.551731e+000 1.518311e+000 9.282729e-001 9.284322e-001 1.242345e+000 1.788081e-001 4.083166e-002 7.190302e-002 1.189988e-001 1.097365e-001 1.907811e-001 1.735730e-001 1.907913e-001 3.395233e-001 2.036437e-001 2.097633e-001 1.661019e-001 2.028148e-001 2.193397e-002
<GCONST> 7.476790e+001
<STATE> 3
<MEAN> 39
 6.965370e-001 5.606592e-001 2.001049e+001 -1.142461e+001 -7.992543e+000 -1.415239e+001 -4.470678e+000 -6.487095e+000 -1.216005e+001 -3.451568e+000 -3.012952e+000 5.531528e+000 6.254669e+001 -3.298803e-002 5.041215e-001 -1.105494e-001 1.866073e-001 2.895750e-001 4.504263e-001 8.888078e-003 -4.204107e-001 3.119947e-002 -2.681590e-001 2.083856e-002 -2.140639e-001 -4.241907e-001 4.735717e-002 -1.718246e-002 -2.083644e-001 1.465165e-001 4.041133e-002 5.505029e-002 5.716128e-002 7.813061e-002 1.662156e-001 4.591727e-002 3.149695e-002 -1.256005e-001 -3.680438e-002
<VARIANCE> 39
 4.795777e+000 1.482901e+001 1.518964e+001 1.322056e+001 1.287708e+001 2.188792e+001 1.704748e+001 1.696559e+001 3.154959e+001 1.886973e+001 1.084202e+001 1.268855e+001 9.213047e+000 1.666655e-001 4.329114e-001 8.027090e-001 6.680229e-001 6.449717e-001 7.381046e-001 7.924854e-001 8.307611e-001 8.949124e-001 8.467595e-001 6.090153e-001 7.289776e-001 1.646804e-001 2.786540e-002 5.788244e-002 1.138289e-001 1.128028e-001 1.281859e-001 1.407276e-001 1.378762e-001 1.616167e-001 1.705758e-001 1.335840e-001 1.193614e-001 1.551212e-001 2.323901e-002
<GCONST> 6.864415e+001
<STATE> 4
<MEAN> 39
 1.371854e-001 3.807292e+000 1.416498e+001 -5.390030e+000 -4.399279e+000 -4.465683e+000 -1.909714e+000 -7.562008e+000 -5.921774e+000 -2.914538e+000 -2.284866e+000 1.257311e+000 5.604275e+001 -2.171360e-001 -1.412374e-001 -1.093189e+000 8.480417e-001 5.981593e-001 1.177464e+000 4.237932e-001 3.311460e-001 1.054554e+000 5.028652e-001 -4.456244e-002 -5.257707e-001 -6.823471e-001 -9.519418e-002 -1.013440e-001 -1.112475e-001 2.868047e-002 6.340298e-002 5.918498e-002 1.872330e-002 1.141953e-001 1.183293e-001 7.341605e-002 4.572795e-004 3.441497e-002 -4.797008e-003
<VARIANCE> 39
 1.003084e+001 1.789804e+001 1.872881e+001 2.304186e+001 2.943309e+001 7.011304e+001 2.267031e+001 1.961755e+001 2.717425e+001 2.074475e+001 1.643161e+001 1.837854e+001 2.011038e+001 6.800765e-001 1.080006e+000 1.671551e+000 1.725371e+000 1.582907e+000 2.232148e+000 1.568849e+000 1.605731e+000 2.011768e+000 1.562464e+000 1.486426e+000 1.727220e+000 3.292779e-001 1.351664e-001 1.294480e-001 1.819809e-001 2.702805e-001 2.854657e-001 4.402466e-001 2.478023e-001 2.793405e-001 3.031560e-001 2.667091e-001 2.642031e-001 2.993166e-001 4.784839e-002
<GCONST> 9.573042e+001
<TRANSP> 5
 0.000000e+000 1.000000e+000 0.000000e+000 0.000000e+000 0.000000e+000
 0.000000e+000 7.972966e-001 2.027033e-001 0.000000e+000 0.000000e+000
 0.000000e+000 0.000000e+000 8.803759e-001 1.196242e-001 0.000000e+000
 0.000000e+000 0.000000e+000 0.000000e+000 8.401967e-001 1.598033e-001
 0.000000e+000 0.000000e+000 0.000000e+000 0.000000e+000 0.000000e+000
<ENDHMM>
~h "jh"
<BEGINHMM>
<NUMSTATES> 5
<STATE> 2
<MEAN> 39
 1.019492e+000 -5.855397e-002 1.749913e+000 -1.353993e+000 6.886405e-002 1.128536e+000 6.429112e-001 -6.366263e+000 3.065793e-002 4.239387e+000 -3.460389e+000 2.046192e-001 5.146355e+001 -1.676697e+000 -1.407721e+000 -1.657649e-001 -9.413954e-001 -4.923390e-001 1.451464e+000 -2.661811e-001 1.609164e+000 1.425024e+000 -1.100657e-001 1.840902e+000 1.458063e+000 -4.189356e-001 -2.547313e-001 6.656050e-002 3.505009e-001 -4.521835e-001 -5.725340e-001 -2.562837e-001 -1.871767e-001 -4.008955e-001 2.523088e-002 1.402608e-001 -5.801170e-001 -1.432787e-002 7.411569e-001
<VARIANCE> 39
 1.179167e+001 1.359548e+001 2.133775e+001 7.058983e+001 1.299063e+001 2.014169e+001 2.680451e+001 1.762716e+001 3.440794e+001 1.812636e+001 2.231860e+001 2.949440e+001 3.842247e+001 1.578978e+000 9.702329e-001 1.675542e+000 2.494773e+000 2.954269e+000 2.988803e+000 2.888317e+000 3.031524e+000 1.687897e+000 1.651224e+000 3.456361e+000 2.276310e+000 3.923502e+000 1.544934e-001 2.494835e-001 1.919706e-001 5.521868e-001 4.883721e-001 1.639599e-001 5.641440e-001 2.836612e-001 4.788622e-001 2.859731e-001 3.931919e-001 8.357412e-001 4.773859e-001
<GCONST> 1.093322e+002
<STATE> 3
<MEAN> 39
 3.347186e+000 -1.639865e+000 -2.058106e+000 -1.566269e+001 8.206939e-001 -1.752080e+000 -8.495363e+000 -6.837029e+000 -2.009092e+000 7.859330e+000 -6.246937e+000 -5.619861e-001 6.388469e+001 -1.240664e+000 5.251518e-001 2.007361e+000 1.518743e+000 -7.261035e-001 -5.634378e-001 -5.468947e-001 3.919420e-001 1.952148e+000 -8.079432e-001 9.286701e-002 4.698261e-001 5.813927e-001 -4.024681e-001 3.443699e-001 2.353517e-001 5.666417e-001 4.478916e-002 4.047958e-001 7.261786e-001 1.631933e-001 -1.189915e-001 -5.025502e-001 1.519263e-001 -1.337532e-001 -2.400445e-001
<VARIANCE> 39
 4.204154e+001 6.622443e+000 3.152271e+001 4.717324e+001 1.323194e+001 4.033480e+001 1.983205e+001 8.888840e+000 4.728839e+001 2.563822e+001 1.854136e+001 2.114406e+001 3.492468e+001 2.290155e+000 7.185662e-001 2.177388e+000 6.157844e+000 3.067154e+000 2.954827e+000 1.910011e+000 8.683540e-001 2.997441e+000 3.164737e+000 1.927049e+000 2.397918e+000 4.362411e+000 1.554728e-001 1.271838e-001 3.571901e-001 2.327081e-001 3.860323e-001 1.161299e+000 1.885798e-001 2.843066e-001 8.246447e-001 4.476424e-001 3.357323e-001 3.883583e-001 3.063118e-001
<GCONST> 1.093892e+002
<STATE> 4
<MEAN> 39
 -8.599081e+000 -1.759072e+000 8.675951e+000 -1.731604e+000 -5.519832e+000 5.746446e-001 1.885745e+000 -2.719438e+000 7.033235e-001 2.196507e+000 -1.973079e-001 2.327127e+000 6.038580e+001 6.531352e-001 -4.403403e-002 7.367991e-001 9.418432e-001 -3.067194e-001 -1.233789e+000 2.196389e-003 1.493870e-001 -1.052475e+000 -2.794530e-001 2.967219e-001 -5.254925e-002 3.984624e-001 5.437284e-001 -7.143205e-002 -2.114641e-001 -2.365047e-001 1.611175e-001 -1.795364e-001 -2.259084e-001 -1.663958e-001 -2.189075e-001 1.355703e-001 -1.758525e-002 -1.826277e-002 -8.278016e-002
<VARIANCE> 39
 7.490307e+001 1.515439e+001 2.147570e+001 4.070364e+001 4.454672e+001 7.305735e+001 4.678614e+001 1.520398e+001 3.908841e+001 2.731873e+001 1.551814e+001 1.926607e+001 3.644513e+001 1.330439e+001 1.983937e+000 2.006703e+000 5.700981e+000 3.226390e+000 7.338828e+000 7.938427e+000 2.173692e+000 3.766710e+000 4.220645e+000 2.562527e+000 2.168373e+000 5.094028e+000 1.552886e+000 4.265717e-001 4.432997e-001 1.592371e+000 5.801998e-001 1.154589e+000 1.327155e+000 4.798196e-001 5.805632e-001 8.887404e-001 6.620392e-001 4.846433e-001 8.080792e-001
<GCONST> 1.306180e+002
<TRANSP> 5
 0.000000e+000 1.000000e+000 0.000000e+000 0.000000e+000 0.000000e+000
 0.000000e+000 7.411713e-001 2.588287e-001 0.000000e+000 0.000000e+000
 0.000000e+000 0.000000e+000 5.714163e-001 4.285837e-001 0.000000e+000
 0.000000e+000 0.000000e+000 0.000000e+000 9.094069e-001 9.059311e-002
 0.000000e+000 0.000000e+000 0.000000e+000 0.000000e+000 0.000000e+000
<ENDHMM>
~h "ng"
<BEGINHMM>
<NUMSTATES> 5
<STATE> 2
<MEAN> 39
 6.525716e+000 -4.286033e+000 -1.223169e+001 -1.276904e+001 8.814374e+000 2.828217e+000 2.067629e+000 -1.174705e+001 -7.823593e+000 -1.611041e+000 -9.772249e-001 -9.731642e+000 6.497667e+001 9.353086e-002 6.992698e-001 -1.804228e-002 3.359801e-001 -3.204984e-001 5.410161e-001 8.202338e-001 -2.931603e-001 -9.785786e-001 4.775197e-001 3.003071e-001 1.872250e-001 -6.795738e-001 -7.563676e-002 -5.686752e-003 2.308888e-001 -4.741405e-002 -9.069287e-002 -1.089252e-001 7.364207e-002 8.514316e-002 1.025513e-001 -1.845349e-002 -4.030935e-001 2.097906e-001 7.912918e-003
<VARIANCE> 39
 3.687086e+000 1.345382e+001 9.238766e+000 1.387091e+001 8.936848e+000 1.147827e+001 2.330435e+001 7.685754e+000 2.294551e+001 1.840316e+001 1.641699e+001 1.226809e+001 8.580209e+000 2.466397e-001 3.382418e-001 9.869674e-001 5.286384e-001 7.126595e-001 5.570710e-001 1.176901e+000 9.493675e-001 1.321981e+000 7.711934e-001 2.993502e+000 1.735971e+000 2.106321e-001 3.375806e-002 4.974380e-002 8.013007e-002 6.596696e-002 1.379025e-001 7.887070e-002 2.023243e-001 1.747124e-001 2.186488e-001 1.668217e-001 2.038996e-001 1.745878e-001 1.900930e-002
<GCONST> 6.981084e+001
<STATE> 3
<MEAN> 39
 4.416678e+000 4.415418e-001 -1.714875e+000 -1.064590e+001 2.523041e+000 2.174840e+000 5.342257e+000 -1.084947e+001 -8.692973e+000 5.840757e-001 -1.227974e+001 -4.219033e+000 6.047640e+001 -1.889813e-001 3.701513e-001 1.414376e+000 3.661225e-001 -6.101430e-001 -4.131309e-001 -4.997368e-001 4.297374e-001 5.949232e-001 -8.345407e-002 -1.217343e+000 3.151856e-002 -3.370455e-001 4.032288e-002 5.924856e-003 -7.742572e-002 8.148322e-002 1.180278e-001 -2.636793e-002 -4.899999e-002 2.656367e-002 1.017631e-001 8.486382e-003 1.516730e-001 -1.205864e-001 -2.469050e-002
<VARIANCE> 39
 5.464974e+000 6.255050e+000 3.069884e+001 1.400020e+001 1.192150e+001 2.010878e+001 2.173467e+001 8.910586e+000 1.273703e+001 1.094024e+001 2.554368e+001 1.718634e+001 7.429624e+000 2.981012e-001 3.336252e-001 7.028136e-001 4.205057e-001 6.745033e-001 9.847039e-001 1.016641e+000 8.393370e-001 1.009024e+000 8.701908e-001 9.571496e-001 1.344646e+000 2.840643e-001 4.275494e-002 5.804795e-002 1.153927e-001 7.399254e-002 1.159699e-001 1.726459e-001 2.135963e-001 1.480405e-001 1.917775e-001 1.379691e-001 1.143742e-001 2.834532e-001 4.294923e-002
<GCONST> 7.147800e+001
<STATE> 4
<MEAN> 39
 3.119186e+000 3.545473e+000 6.664746e+000 -1.838779e+000 3.086170e+000 1.847594e+000 3.513927e+000 -6.925759e+000 -2.053488e+000 1.346886e+000 -1.389952e+001 -3.169729e+000 5.440225e+001 -3.397012e-001 -1.504662e-001 2.291188e-002 9.594228e-001 3.967712e-001 4.622237e-001 3.118509e-001 4.384295e-001 5.530459e-001 1.121851e-001 6.895477e-001 3.693007e-001 -7.357692e-001 -7.412215e-002 -1.237961e-001 -1.166694e-001 -9.189411e-002 -3.370284e-002 3.431567e-002 6.929193e-002 1.559897e-002 -4.256018e-002 3.903027e-002 1.283049e-001 8.770368e-002 2.076682e-002
<VARIANCE> 39
 6.204296e+000 3.276584e+000 6.043548e+000 2.807265e+001 1.390484e+001 1.300877e+001 1.470309e+001 1.915455e+001 1.330193e+001 1.777329e+001 1.534272e+001 1.848763e+001 8.547914e+000 2.901201e-001 4.487754e-001 7.413419e-001 1.607797e+000 9.577128e-001 9.996811e-001 1.436082e+000 1.602109e+000 1.384356e+000 1.522416e+000 1.022035e+000 1.424432e+000 1.325696e-001 2.977151e-002 5.154153e-002 1.230471e-001 3.015518e-001 1.809710e-001 1.956819e-001 2.942062e-001 3.277524e-001 2.570715e-001 3.194701e-001 2.123876e-001 3.007914e-001 2.352155e-002
<GCONST> 7.749433e+001
<TRANSP> 5
 0.000000e+000 1.000000e+000 0.000000e+000 0.000000e+000 0.000000e+000
 0.000000e+000 9.016500e-001 9.834996e-002 0.000000e+000 0.000000e+000
 0.000000e+000 0.000000e+000 9.014344e-001 9.856562e-002 0.000000e+000
 0.000000e+000 0.000000e+000 0.000000e+000 8.982109e-001 1.017891e-001
 0.000000e+000 0.000000e+000 0.000000e+000 0.000000e+000 0.000000e+000
<ENDHMM>
~h "ow"
<BEGINHMM>
<NUMSTATES> 5
<STATE> 2
<MEAN> 39
 3.509738e+000 -1.814741e-001 -4.627691e+000 -1.302820e+001 -1.771111e+000 4.465850e+000 5.095069e-001 -4.007890e+000 -2.235453e-001 1.906186e+000 1.697269e-001 -4.620143e+000 5.712231e+001 2.676530e-001 4.668070e-002 -6.923631e-001 -1.624766e+000 3.461252e-001 7.835820e-001 -2.912973e-001 3.624125e-001 -2.950254e-001 -4.867175e-001 2.565322e-001 -8.202956e-001 7.501633e-001 -1.085230e-001 3.755470e-002 9.451824e-002 2.113152e-001 -2.451273e-003 -8.051773e-002 1.052808e-001 2.395921e-002 -1.188401e-002 -2.022500e-001 -2.833604e-002 5.826458e-003 2.576764e-002
<VARIANCE> 39
 3.025052e+001 9.792714e+000 3.626527e+001 1.145132e+002 3.394236e+001 4.565980e+001 3.581937e+001 2.571316e+001 4.003802e+001 4.081456e+001 2.884212e+001 4.725138e+001 6.224267e+001 1.729311e+000 1.062636e+000 2.617048e+000 6.826395e+000 2.404835e+000 2.520147e+000 2.382459e+000 2.594380e+000 2.905806e+000 2.511556e+000 2.461076e+000 2.856952e+000 2.965308e+000 4.074660e-001 1.840059e-001 4.340267e-001 1.434987e+000 3.506393e-001 4.076646e-001 4.712997e-001 4.520109e-001 5.063409e-001 5.242327e-001 4.576923e-001 5.288823e-001 4.660066e-001
<GCONST> 1.206939e+002
<STATE> 3
<MEAN> 39
 8.696009e+000 4.101936e+000 -5.149305e+000 -2.464721e+001 -6.193552e+000 5.837361e+000 -1.415957e+000 -1.422449e+000 -3.534127e+000 -5.247571e+000 1.444673e+000 -5.847703e+000 6.200968e+001 1.346665e-001 4.255180e-001 3.878337e-001 1.499287e-001 -2.044566e-001 -4.375970e-001 3.356208e-002 3.403074e-001 -3.840946e-001 -3.790660e-001 -1.641785e-001 -2.683699e-002 -3.971516e-001 -1.357045e-002 -3.081436e-002 3.575717e-002 2.264116e-001 -9.563316e-004 -7.554895e-002 8.779404e-002 -8.607925e-002 1.619544e-002 1.344472e-001 -1.304927e-001 -2.714154e-003 -5.497707e-002
<VARIANCE> 39
 5.063641e+000 1.023906e+001 1.688535e+001 3.377141e+001 3.430148e+001 2.308897e+001 2.097458e+001 2.788417e+001 3.364477e+001 4.534091e+001 2.369336e+001 2.193373e+001 1.699804e+001 1.796824e-001 2.337533e-001 3.949683e-001 8.338745e-001 8.051001e-001 6.175140e-001 8.264132e-001 8.359698e-001 9.729022e-001 1.069000e+000 9.009101e-001 9.513256e-001 1.601241e-001 2.878881e-002 4.017658e-002 6.883681e-002 1.351459e-001 9.284554e-002 9.402466e-002 1.306687e-001 1.544300e-001 1.529386e-001 1.740042e-001 2.325687e-001 1.405166e-001 2.851036e-002
<GCONST> 7.344908e+001
<STATE> 4
<MEAN> 39
 7.864632e+000 5.785346e+000 3.048441e-001 -1.232112e+001 -5.067800e+000 7.167864e-001 1.675161e+000 -2.967254e+000 -6.048398e+000 -1.219735e+000 -5.675159e+000 -6.144646e+000 5.647929e+001 -6.759714e-001 -3.047960e-001 6.462130e-001 1.653761e+000 7.317690e-001 -2.759550e-001 4.473169e-001 -4.830188e-001 3.126080e-001 1.097548e+000 -1.218201e+000 3.318710e-001 -4.740701e-001 -1.470787e-001 -1.211532e-001 1.446792e-002 4.957838e-002 9.086765e-002 4.020306e-002 -9.997579e-002 -6.213742e-002 1.711650e-001 1.287250e-001 8.534544e-002 1.212349e-001 3.573056e-002
<VARIANCE> 39
 9.344708e+000 1.033497e+001 1.285789e+001 6.320761e+001 2.582014e+001 1.921484e+001 2.753670e+001 2.310507e+001 4.668413e+001 3.099635e+001 4.799600e+001 2.629976e+001 2.775090e+001 4.151242e-001 6.062343e-001 9.368998e-001 1.365195e+000 2.169764e+000 1.809916e+000 1.748470e+000 2.003812e+000 1.629811e+000 1.584048e+000 5.248405e+000 1.764170e+000 2.015973e-001 6.113929e-002 6.517103e-002 1.361881e-001 2.801028e-001 2.106281e-001 2.380752e-001 3.718091e-001 2.940269e-001 2.917076e-001 3.383899e-001 6.390833e-001 2.807002e-001 2.729882e-002
<GCONST> 9.477964e+001
<TRANSP> 5
 0.000000e+000 1.000000e+000 0.000000e+000 0.000000e+000 0.000000e+000
 0.000000e+000 7.809941e-001 2.190059e-001 0.000000e+000 0.000000e+000
 0.000000e+000 0.000000e+000 8.897051e-001 1.102949e-001 0.000000e+000
 0.000000e+000 0.000000e+000 0.000000e+000 8.275375e-001 1.724624e-001
 0.000000e+000 0.000000e+000 0.000000e+000 0.000000e+000 0.000000e+000
<ENDHMM>
~h "sp"
<BEGINHMM>
<NUMSTATES> 3
<STATE> 2
~s "silst"
<TRANSP> 3
 0.000000e+000 2.168147e-001 7.831853e-001
 0.000000e+000 9.766130e-001 2.338695e-002
 0.000000e+000 0.000000e+000 0.000000e+000
<ENDHMM>
~h "th"
<BEGINHMM>
<NUMSTATES> 5
<STATE> 2
<MEAN> 39
 -4.490764e+000 7.977930e-001 1.323771e+000 -1.173913e+000 4.657997e+000 -2.971548e+000 4.010933e+000 -8.788913e-001 9.320663e-001 8.788999e-001 -1.076822e+000 -3.522608e-001 5.517384e+001 -1.775617e+000 2.719183e-001 -6.892292e-001 4.081014e-001 8.164560e-001 -3.122247e-001 2.190430e-001 1.296147e+000 7.643063e-001 -1.274883e-001 7.739148e-001 1.854183e-001 7.190313e-001 -1.462433e-001 -5.959894e-002 -7.554431e-002 -9.502713e-002 -7.587665e-002 -5.939141e-002 -7.045716e-003 5.355970e-002 2.071867e-002 3.608271e-002 4.093783e-002 9.863172e-002 1.100842e-001
<VARIANCE> 39
 2.906484e+001 2.153083e+001 2.053932e+001 2.604380e+001 3.256596e+001 4.473534e+001 2.633639e+001 3.323146e+001 3.288039e+001 2.480575e+001 2.838922e+001 2.243523e+001 4.266100e+001 3.634655e+000 1.386568e+000 1.678978e+000 3.339768e+000 2.446096e+000 3.915255e+000 2.288521e+000 2.380642e+000 2.666252e+000 1.714532e+000 2.248015e+000 2.413877e+000 1.419828e+000 4.136285e-001 2.188416e-001 2.395570e-001 3.799487e-001 3.768543e-001 5.680892e-001 4.468023e-001 4.477170e-001 4.261948e-001 3.001062e-001 3.487218e-001 4.720099e-001 1.318868e-001
<GCONST> 1.123924e+002
<STATE> 3
<MEAN> 39
 -1.515480e+001 4.028620e+000 -2.866071e+000 5.719581e-002 8.690806e+000 -4.360076e+000 4.853329e+000 4.676762e+000 4.472275e+000 -2.607709e-001 1.001591e+000 7.183363e-001 6.120936e+001 1.326918e-001 2.328253e-002 1.253319e-001 -1.714773e-001 1.185610e-001 -1.009274e-001 -1.960295e-001 2.161771e-001 1.212521e-001 -9.930605e-002 -1.356023e-001 -1.245300e-001 1.304932e-001 4.495447e-001 -6.390634e-002 1.795775e-001 -8.192568e-002 -1.407671e-001 -2.012735e-002 -1.957707e-001 -1.733092e-001 -5.717451e-002 2.333327e-002 -1.274495e-001 -1.312048e-001 -6.260695e-002
<VARIANCE> 39
 6.286845e+000 1.007451e+001 1.040880e+001 1.867229e+001 2.733418e+001 1.465983e+001 1.970633e+001 2.039692e+001 1.646433e+001 2.040855e+001 1.503443e+001 1.603415e+001 7.896996e+000 1.729422e+000 7.749590e-001 1.065915e+000 1.437885e+000 1.383577e+000 1.471123e+000 1.677585e+000 1.604556e+000 1.551999e+000 1.735743e+000 1.539521e+000 1.530280e+000 3.493151e-001 2.693782e-001 1.396443e-001 1.968797e-001 2.820414e-001 3.270543e-001 3.044102e-001 3.439065e-001 4.169579e-001 2.920673e-001 3.788610e-001 3.309988e-001 3.182957e-001 5.395259e-002
<GCONST> 9.187877e+001
<STATE> 4
<MEAN> 39
 3.278090e-001 5.614312e-001 3.377904e+000 -4.298601e+000 3.385642e+000 -6.916240e+000 -4.057986e+000 5.362028e-001 4.585916e+000 1.480263e+000 -3.811489e+000 -4.457994e+000 6.176193e+001 4.301029e+000 -1.743348e+000 1.044637e+000 2.577936e-001 -3.323821e+000 -5.602196e-001 -1.826013e+000 -2.918072e+000 -5.814639e-001 1.511418e+000 -1.003060e+000 -1.128874e+000 1.727511e-001 -3.327445e-001 -2.918155e-001 -4.620789e-001 5.845306e-001 -4.102913e-001 -1.037421e-001 6.100649e-001 -1.728950e-001 -3.889434e-001 1.560394e-001 3.101903e-001 1.851778e-001 -9.736423e-003
<VARIANCE> 39
 5.601978e+001 1.780121e+001 1.413864e+001 1.576668e+001 3.883826e+001 2.547711e+001 3.101414e+001 4.802726e+001 1.518417e+001 2.583754e+001 1.893364e+001 1.581063e+001 1.110880e+001 2.380649e+000 1.810700e+000 2.139937e+000 3.289349e+000 2.477316e+000 2.673174e+000 3.564220e+000 2.996211e+000 1.761617e+000 2.039610e+000 2.135913e+000 1.499723e+000 6.221323e-001 8.375213e-001 3.043456e-001 3.453981e-001 4.208321e-001 7.528276e-001 5.310729e-001 6.990135e-001 1.149856e+000 3.030870e-001 5.531251e-001 4.493338e-001 3.066913e-001 1.141311e-001
<GCONST> 1.115447e+002
<TRANSP> 5
 0.000000e+000 1.000000e+000 0.000000e+000 0.000000e+000 0.000000e+000
 0.000000e+000 8.336292e-001 1.663708e-001 0.000000e+000 0.000000e+000
 0.000000e+000 0.000000e+000 9.212919e-001 7.870812e-002 0.000000e+000
 0.000000e+000 0.000000e+000 0.000000e+000 7.637462e-001 2.362538e-001
 0.000000e+000 0.000000e+000 0.000000e+000 0.000000e+000 0.000000e+000
<ENDHMM>
~h "uh"
<BEGINHMM>
<NUMSTATES> 5
<STATE> 2
<MEAN> 39
