~o
<STREAMINFO> 1 39
<VECSIZE> 39<NULLD><MFCC_D_A_0><DIAGC>
~h "d"
<BEGINHMM>
<NUMSTATES> 5
<STATE> 2
<MEAN> 39
 -2.891285e+000 -8.851621e-001 7.370539e-001 -2.850529e-001 6.417062e-001 2.182476e+000 5.224281e+000 -3.130976e+000 2.859406e+000 2.922428e+000 -8.621081e-001 1.548407e+000 4.814782e+001 -8.522865e-002 -5.735617e-002 -1.720829e-001 7.040218e-002 7.956370e-002 9.123239e-002 1.839425e-001 6.517947e-002 6.443156e-002 1.965383e-002 8.295290e-002 4.289455e-002 -1.155063e-001 1.471268e-002 1.636203e-002 2.534316e-002 -6.700978e-002 4.725984e-002 -6.146815e-002 -1.198780e-001 2.009485e-003 -8.183995e-002 -2.157066e-002 -3.456912e-002 -4.243879e-002 1.176517e-001
<VARIANCE> 39
 9.837627e+000 4.402565e+000 7.591689e+000 1.024307e+001 1.098844e+001 1.604231e+001 1.590184e+001 2.281644e+001 1.959365e+001 2.189295e+001 1.879597e+001 1.332893e+001 5.897783e+000 7.509171e-001 4.568827e-001 7.080119e-001 8.843558e-001 1.065406e+000 1.111004e+000 1.691604e+000 1.767639e+000 1.534525e+000 1.568529e+000 1.448053e+000 1.138586e+000 4.914587e-001 1.670910e-001 9.316559e-002 1.384200e-001 2.070929e-001 2.097133e-001 2.134796e-001 3.161995e-001 3.160478e-001 3.005108e-001 3.064176e-001 2.848179e-001 2.173229e-001 1.088489e-001
<GCONST> 8.410947e+001
<STATE> 3
<MEAN> 39
 -4.121746e+000 -7.677568e-001 2.129937e+000 9.602432e-001 2.107839e+000 1.558121e+000 4.790633e+000 -3.671492e+000 2.669170e-001 8.765260e-001 -2.244350e+000 4.144361e-001 4.721511e+001 -3.792824e-002 -6.028248e-002 -1.593017e-002 -2.883298e-002 7.104217e-002 2.329500e-002 -5.455146e-002 1.946306e-002 -4.535384e-002 -2.259109e-004 2.339561e-002 4.264205e-002 6.225430e-002 -2.559975e-002 -4.223102e-002 -3.674279e-003 -7.194929e-002 -9.174203e-003 -6.118572e-002 -6.127165e-002 4.831044e-002 1.150077e-002 -2.563496e-002 8.706705e-003 1.633899e-002 1.123809e-001
<VARIANCE> 39
 5.469698e+000 7.527689e+000 6.704569e+000 9.193188e+000 1.056629e+001 1.591667e+001 1.357508e+001 2.549357e+001 1.934911e+001 2.087838e+001 1.927980e+001 1.363839e+001 3.313150e+000 3.586880e-001 6.488435e-001 6.646922e-001 9.287519e-001 1.138085e+000 1.436111e+000 1.450863e+000 2.168056e+000 1.626941e+000 1.841820e+000 1.394338e+000 1.484520e+000 3.176698e-001 7.396005e-002 1.371647e-001 1.370523e-001 1.976868e-001 2.341357e-001 3.323835e-001 3.120216e-001 4.390761e-001 3.455838e-001 4.047765e-001 2.935905e-001 3.133026e-001 1.296937e-001
<GCONST> 8.449844e+001
<STATE> 4
<MEAN> 39
 -2.343813e+000 -2.739610e+000 7.306424e-001 -4.888964e+000 1.949281e+000 -1.956566e+000 9.476495e-001 -6.345798e-001 6.628252e-001 1.153909e-001 -3.129211e+000 -1.355126e+000 5.872773e+001 -3.004195e-002 -4.877323e-002 2.939705e-002 -1.225627e-001 2.311778e-002 -9.303524e-002 -7.655485e-002 1.083207e-001 -8.111687e-003 -4.626105e-002 2.828795e-002 -1.010228e-002 2.171583e-001 3.541267e-002 4.245773e-003 -7.042268e-004 -9.686075e-003 -9.310994e-003 -1.559883e-002 2.587938e-002 -1.495442e-002 -1.695315e-003 2.600976e-003 -2.626049e-002 -8.592593e-003 -7.290930e-003
<VARIANCE> 39
 5.842687e+001 3.140376e+001 4.000921e+001 6.061833e+001 3.264175e+001 5.539123e+001 3.076270e+001 3.767915e+001 3.592244e+001 3.152177e+001 4.000821e+001 3.799771e+001 5.730643e+001 2.750033e+000 1.625141e+000 1.696803e+000 3.024026e+000 2.056764e+000 2.829798e+000 2.277835e+000 2.901292e+000 2.102398e+000 1.918339e+000 1.862441e+000 1.943461e+000 2.153105e+000 3.810154e-001 2.743100e-001 2.921558e-001 4.374517e-001 3.498496e-001 4.743202e-001 4.027781e-001 5.010482e-001 3.558243e-001 3.283959e-001 3.216606e-001 3.398252e-001 3.114143e-001
<GCONST> 1.169389e+002
<TRANSP> 5
 0.000000e+000 1.000000e+000 0.000000e+000 0.000000e+000 0.000000e+000
 0.000000e+000 7.755381e-001 2.244620e-001 0.000000e+000 0.000000e+000
 0.000000e+000 0.000000e+000 8.651051e-001 1.348949e-001 0.000000e+000
 0.000000e+000 0.000000e+000 0.000000e+000 9.034138e-001 9.658627e-002
 0.000000e+000 0.000000e+000 0.000000e+000 0.000000e+000 0.000000e+000
<ENDHMM>
~h "f"
<BEGINHMM>
<NUMSTATES> 5
<STATE> 2
<MEAN> 39
 -3.025471e+000 -2.047338e+000 5.560957e-001 5.503720e-001 2.575951e+000 2.455056e+000 4.541066e+000 -2.556950e+000 2.050455e+000 1.887113e+000 -1.544531e+000 3.347676e-001 4.904642e+001 -1.110842e-001 -7.042416e-002 -4.869743e-002 8.841155e-002 7.930940e-002 5.862005e-002 3.058346e-002 5.454680e-002 7.559089e-002 6.038265e-002 7.947467e-002 8.067662e-002 -3.684685e-002 6.782049e-003 2.542879e-003 4.456366e-003 -1.415547e-002 -2.618263e-003 -1.922255e-002 -1.698236e-002 1.433360e-002 -8.436752e-003 -1.123786e-002 -3.889164e-004 -9.658439e-003 3.496334e-002
<VARIANCE> 39
 1.048579e+001 1.046510e+001 1.225260e+001 1.332769e+001 1.127077e+001 1.690607e+001 1.680265e+001 2.277983e+001 1.944080e+001 1.980017e+001 1.846275e+001 1.818806e+001 1.637645e+001 4.243004e-001 5.067543e-001 5.877743e-001 8.901317e-001 1.005551e+000 1.194093e+000 1.328566e+000 1.554895e+000 1.569957e+000 1.481665e+000 1.388667e+000 1.208166e+000 2.759441e-001 5.875695e-002 7.818472e-002 1.056841e-001 1.633579e-001 1.891309e-001 2.301726e-001 2.611348e-001 2.857894e-001 3.158607e-001 2.882214e-001 2.642765e-001 2.345881e-001 4.512094e-002
<GCONST> 8.258411e+001
<STATE> 3
<MEAN> 39
 -5.787707e+000 -2.806187e+000 3.336129e-001 1.912228e+000 4.067766e+000 2.763386e+000 2.936967e+000 8.478230e-001 2.221986e+000 1.216676e+000 -1.779709e-002 -1.150480e-001 5.700755e+001 -6.843895e-001 -3.016813e-001 -1.164766e-001 2.737908e-001 1.892221e-001 2.316170e-002 -1.209689e-001 4.874869e-001 1.650122e-001 8.658455e-002 2.466593e-001 7.970799e-002 7.334325e-001 3.757599e-002 4.144745e-003 -1.050207e-002 -9.294340e-002 -9.350690e-002 -3.963654e-002 6.955424e-003 -5.040536e-002 -4.150246e-002 -7.825460e-003 -4.985964e-002 -5.812926e-003 -1.246762e-002
<VARIANCE> 39
 3.081009e+001 1.682615e+001 1.886903e+001 2.270252e+001 1.469061e+001 1.814593e+001 1.697316e+001 2.275898e+001 2.079123e+001 1.863925e+001 1.684721e+001 2.296075e+001 3.991573e+001 1.584859e+000 1.061133e+000 1.126224e+000 1.378574e+000 1.695182e+000 1.644045e+000 1.548728e+000 2.167196e+000 1.933598e+000 1.753893e+000 1.692995e+000 1.425497e+000 1.658394e+000 2.736065e-001 1.764611e-001 1.993243e-001 2.450976e-001 3.151065e-001 3.167440e-001 2.847720e-001 3.783605e-001 3.658713e-001 3.232344e-001 3.245727e-001 2.674393e-001 1.954305e-001
<GCONST> 1.001448e+002
<STATE> 4
<MEAN> 39
 -4.208849e+000 -2.431507e+000 -1.496337e+000 -1.956314e+000 2.890585e+000 3.535336e+000 1.308183e+000 8.900135e-001 1.795447e+000 2.510555e+000 8.561507e-002 -9.137416e-001 5.949620e+001 9.886774e-001 2.915958e-001 -5.411853e-001 -1.628870e+000 -4.177604e-001 2.804933e-001 -4.323235e-001 -3.168850e-001 -4.628650e-001 2.272367e-002 2.372825e-002 -4.452702e-001 4.789068e-001 6.649859e-002 3.320271e-002 -5.198455e-002 -1.648736e-001 -5.713768e-002 5.315861e-002 6.620890e-003 -3.409585e-002 -6.075687e-002 -9.045970e-002 -1.905787e-002 -6.520521e-002 -1.274226e-003
<VARIANCE> 39
 6.146173e+001 1.900463e+001 1.879580e+001 8.678961e+001 2.041248e+001 1.760082e+001 2.352479e+001 2.521136e+001 2.626736e+001 2.075701e+001 1.663581e+001 2.275695e+001 3.790751e+001 5.790365e+000 2.111110e+000 1.781424e+000 7.610836e+000 2.284028e+000 2.252956e+000 2.458658e+000 2.542036e+000 2.457227e+000 2.292185e+000 1.776470e+000 2.065635e+000 1.059155e+000 9.512310e-001 3.884409e-001 2.964882e-001 1.071291e+000 4.819913e-001 4.227565e-001 5.212035e-001 5.118456e-001 4.524233e-001 4.510362e-001 3.361617e-001 3.346606e-001 1.638922e-001
<GCONST> 1.153096e+002
<TRANSP> 5
 0.000000e+000 1.000000e+000 0.000000e+000 0.000000e+000 0.000000e+000
 0.000000e+000 9.431785e-001 5.682145e-002 0.000000e+000 0.000000e+000
 0.000000e+000 0.000000e+000 8.074623e-001 1.925377e-001 0.000000e+000
 0.000000e+000 0.000000e+000 0.000000e+000 8.776641e-001 1.223358e-001
 0.000000e+000 0.000000e+000 0.000000e+000 0.000000e+000 0.000000e+000
<ENDHMM>
~h "k"
<BEGINHMM>
<NUMSTATES> 5
<STATE> 2
<MEAN> 39
 -1.264867e+001 2.562814e+000 -2.185222e+000 2.522828e+000 7.110357e+000 -2.109722e+000 2.444120e+000 -4.986133e-001 4.752658e+000 2.305028e+000 7.933495e-001 -1.063276e+000 5.701399e+001 -4.378045e-002 2.504002e-001 4.402699e-002 3.073620e-002 8.382173e-003 1.953551e-001 1.314733e-001 1.421101e-001 -1.472864e-002 -6.547210e-002 -5.193055e-003 -2.559115e-002 -1.434380e-001 1.639480e-001 -2.620257e-002 -1.599383e-002 -6.053663e-002 -4.446955e-002 -5.506486e-002 -4.003285e-003 -7.071460e-002 -9.212224e-002 -6.104984e-002 -2.264114e-002 -2.319367e-002 -4.998452e-002
<VARIANCE> 39
 3.537833e+001 9.995416e+000 3.100413e+001 2.376974e+001 4.683053e+001 2.751187e+001 1.806977e+001 2.456754e+001 2.734823e+001 2.055683e+001 1.716490e+001 1.796700e+001 2.543385e+001 6.203035e-001 5.250364e-001 7.383586e-001 8.778494e-001 1.169441e+000 1.471702e+000 1.486604e+000 1.595960e+000 1.757632e+000 1.627254e+000 1.353987e+000 1.394184e+000 3.712512e-001 1.203483e-001 9.090023e-002 1.273419e-001 1.747285e-001 2.288564e-001 3.110217e-001 3.144078e-001 3.184985e-001 3.482829e-001 3.310506e-001 2.848029e-001 3.099358e-001 5.761223e-002
<GCONST> 9.254483e+001
<STATE> 3
<MEAN> 39
 -1.101231e+001 3.028656e+000 -2.309313e+000 1.588487e+000 6.549973e+000 -6.565621e-001 4.023018e+000 -1.003667e+000 3.999869e+000 2.127863e+000 3.994403e-001 -6.944532e-001 5.391288e+001 3.284780e-001 -1.710374e-001 1.805480e-001 -1.818287e-001 -2.694319e-001 1.236786e-001 1.519483e-001 -5.780450e-002 -1.528916e-001 1.719468e-002 -4.943785e-003 6.330649e-002 -3.190027e-001 4.714701e-002 -4.249262e-002 2.896564e-002 -6.069832e-003 -3.327416e-003 -1.571556e-002 -4.022932e-004 -2.928659e-003 -2.096759e-002 9.974945e-003 1.317010e-002 2.917347e-002 -9.183729e-003
<VARIANCE> 39
 2.784984e+001 1.519668e+001 1.919733e+001 1.612109e+001 2.436864e+001 2.368152e+001 1.665791e+001 2.030108e+001 1.982787e+001 1.746243e+001 1.618503e+001 1.456986e+001 2.470093e+001 6.618143e-001 6.493805e-001 9.428468e-001 9.569338e-001 1.206214e+000 1.629292e+000 1.436156e+000 1.556849e+000 1.615666e+000 1.657087e+000 1.446420e+000 1.213104e+000 5.307981e-001 7.346471e-002 1.094131e-001 1.685269e-001 1.855261e-001 2.413960e-001 3.077089e-001 3.019937e-001 2.782672e-001 3.388004e-001 3.700804e-001 3.025578e-001 2.593278e-001 7.518231e-002
<GCONST> 9.103057e+001
<STATE> 4
<MEAN> 39
 -3.243264e+000 -2.592986e+000 4.617884e-001 4.894486e-001 2.029697e+000 1.867202e+000 5.171882e+000 -1.730489e+000 2.771691e+000 2.954923e+000 -2.335370e-001 1.811658e+000 4.857413e+001 2.313883e-002 -4.591401e-003 -3.299381e-002 9.307890e-003 2.660093e-003 -1.724190e-002 2.923330e-002 2.211256e-002 -2.237576e-002 -6.240754e-003 -6.198220e-003 1.657135e-002 -1.678121e-002 -8.814994e-003 1.596563e-002 5.617310e-003 -7.582247e-003 1.852090e-002 -1.698449e-002 -6.456701e-003 8.810066e-003 4.633347e-003 -9.560987e-003 4.266021e-004 -8.827336e-003 2.105387e-002
<VARIANCE> 39
 7.257202e+000 9.025660e+000 7.270457e+000 8.677773e+000 1.154136e+001 1.703677e+001 1.756859e+001 2.345956e+001 1.959541e+001 2.067363e+001 1.754249e+001 1.432098e+001 7.875418e+000 2.172355e-001 3.909722e-001 4.596777e-001 6.238252e-001 8.490194e-001 1.208772e+000 1.313082e+000 1.472680e+000 1.301140e+000 1.445805e+000 1.186392e+000 1.075168e+000 2.335263e-001 4.108693e-002 6.932298e-002 8.834707e-002 1.197069e-001 1.768267e-001 2.312950e-001 2.787353e-001 2.922283e-001 2.634511e-001 2.899361e-001 2.307955e-001 2.170480e-001 3.870479e-002
<GCONST> 7.635983e+001
<TRANSP> 5
 0.000000e+000 1.000000e+000 0.000000e+000 0.000000e+000 0.000000e+000
 0.000000e+000 7.646301e-001 2.353700e-001 0.000000e+000 0.000000e+000
 0.000000e+000 0.000000e+000 7.069498e-001 2.930501e-001 0.000000e+000
 0.000000e+000 0.000000e+000 0.000000e+000 9.495684e-001 5.043165e-002
 0.000000e+000 0.000000e+000 0.000000e+000 0.000000e+000 0.000000e+000
<ENDHMM>
~h "l"
<BEGINHMM>
<NUMSTATES> 5
<STATE> 2
<MEAN> 39
 -2.195440e+000 -2.363677e+000 7.321933e-001 -3.667369e+000 1.835378e+000 -3.562193e+000 9.786938e-001 -1.708984e+000 1.260664e+000 3.391870e+000 -3.418493e+000 1.058286e+000 5.725615e+001 1.489458e-001 -6.068668e-001 -4.542023e-001 -1.017412e+000 3.513291e-001 -1.538861e+000 -1.125052e+000 8.310651e-001 4.910847e-001 -1.734945e-001 -7.651396e-001 -3.735036e-001 2.230198e+000 1.827281e-001 -1.253847e-001 -7.266193e-003 -1.333348e-001 1.152989e-001 1.473697e-001 7.570262e-002 1.381319e-001 6.467155e-002 -1.089959e-001 -1.663313e-001 -3.292424e-001 1.534536e-001
<VARIANCE> 39
 3.404055e+001 2.100798e+001 3.412801e+001 3.693574e+001 2.330186e+001 5.482778e+001 4.541471e+001 5.295903e+001 4.216037e+001 3.396422e+001 3.746514e+001 2.289861e+001 5.956383e+001 2.738919e+000 1.811843e+000 2.506666e+000 3.509452e+000 2.122747e+000 5.276866e+000 3.346691e+000 3.867611e+000 3.840915e+000 3.166649e+000 4.497576e+000 3.201991e+000 6.134213e+000 4.399338e-001 3.533114e-001 4.674895e-001 5.271313e-001 4.410069e-001 1.100697e+000 7.581824e-001 7.041985e-001 6.742103e-001 6.088151e-001 8.164450e-001 6.303052e-001 1.002299e+000
<GCONST> 1.280029e+002
<STATE> 3
<MEAN> 39
 1.529450e+000 -5.689929e+000 -1.446372e+000 -9.052874e+000 5.143365e+000 -5.352287e+000 2.153337e-001 4.137049e-001 1.654407e+000 1.136751e+000 -6.709951e+000 -6.490050e+000 6.547014e+001 1.161636e+000 -3.319214e-001 -5.400048e-001 -1.419430e+000 5.030612e-001 7.810011e-001 2.826194e-001 -6.133149e-001 -6.465694e-001 -2.195599e-001 -5.050448e-001 -1.576722e+000 8.907391e-001 -1.622872e-001 1.390633e-001 -7.856233e-002 2.395795e-002 -1.387289e-001 2.917800e-001 1.107995e-001 -3.103353e-001 -1.703012e-001 5.433024e-002 2.468936e-001 3.011184e-001 -2.351783e-001
<VARIANCE> 39
 3.342251e+001 2.668805e+001 4.166569e+001 4.042139e+001 3.722814e+001 5.829735e+001 4.773931e+001 4.845599e+001 5.605685e+001 3.051865e+001 4.823527e+001 4.707988e+001 1.849426e+001 3.115815e+000 3.000639e+000 2.398367e+000 3.210162e+000 2.570647e+000 4.121699e+000 3.276864e+000 5.055891e+000 5.159095e+000 3.030975e+000 3.561717e+000 4.351927e+000 1.755837e+000 5.733712e-001 4.537103e-001 3.725652e-001 5.076898e-001 3.905625e-001 8.437802e-001 6.378824e-001 9.098060e-001 8.849738e-001 5.332198e-001 7.067213e-001 7.815796e-001 3.597251e-001
<GCONST> 1.278837e+002
<STATE> 4
<MEAN> 39
 5.473485e+000 -4.578043e+000 -1.375261e+000 -1.587367e+001 3.149598e+000 -4.664150e+000 -2.232713e-001 -3.968094e+000 -3.246984e+000 6.462779e-001 -8.832313e+000 -5.387009e+000 6.701111e+001 -1.723128e-002 2.819875e-001 1.535004e-001 3.922557e-002 -1.755860e-001 -4.326612e-002 -5.678893e-002 -1.991759e-001 -9.335500e-002 -6.803647e-002 1.240677e-001 2.934197e-001 -2.244229e-001 -4.479059e-002 3.089886e-002 3.414002e-002 1.323603e-001 2.576630e-003 -9.276844e-003 1.603444e-002 5.769943e-002 3.781701e-002 -4.593737e-004 3.996792e-002 1.789989e-002 -6.076895e-002
<VARIANCE> 39
 5.975107e+000 4.041211e+001 6.422694e+001 5.005898e+001 4.120936e+001 8.767509e+001 4.230741e+001 3.904794e+001 4.138792e+001 4.189558e+001 3.627164e+001 4.078865e+001 1.712212e+001 2.662560e-001 9.108116e-001 1.380268e+000 1.604388e+000 1.417801e+000 2.491131e+000 1.815368e+000 1.961328e+000 1.612810e+000 1.800481e+000 1.581229e+000 1.586083e+000 4.157056e-001 6.166568e-002 1.176520e-001 1.473121e-001 2.097884e-001 2.034475e-001 3.002379e-001 2.731579e-001 3.116004e-001 2.616024e-001 2.821676e-001 2.516389e-001 2.458326e-001 4.894286e-002
<GCONST> 9.938907e+001
<TRANSP> 5
 0.000000e+000 1.000000e+000 0.000000e+000 0.000000e+000 0.000000e+000
 0.000000e+000 7.324384e-001 2.675616e-001 0.000000e+000 0.000000e+000
 0.000000e+000 0.000000e+000 7.646449e-001 2.353552e-001 0.000000e+000
 0.000000e+000 0.000000e+000 0.000000e+000 9.395472e-001 6.045285e-002
 0.000000e+000 0.000000e+000 0.000000e+000 0.000000e+000 0.000000e+000
<ENDHMM>
~h "n"
<BEGINHMM>
<NUMSTATES> 5
<STATE> 2
<MEAN> 39
 3.518558e+000 -1.409186e+000 2.971219e+000 -5.661819e+000 -1.643759e+000 -4.930351e+000 1.923129e+000 -3.373932e+000 -4.178997e+000 -1.102955e+000 -5.231051e+000 -4.000763e+000 5.967842e+001 1.397565e-001 6.746476e-001 5.617264e-001 4.097954e-001 -2.907899e-001 -3.424698e-001 -2.676453e-001 -5.294456e-001 -4.438422e-001 7.605685e-001 -3.254688e-001 6.448574e-002 -4.370932e-001 -2.948868e-002 6.704530e-003 -3.837809e-002 -1.635049e-002 1.007835e-001 5.120042e-002 -9.054100e-002 -1.581937e-001 8.842875e-002 1.138356e-001 -1.666195e-001 -1.146610e-002 2.421060e-002
<VARIANCE> 39
 2.782127e+001 3.317752e+001 4.102153e+001 5.836863e+001 3.222406e+001 6.428621e+001 3.711856e+001 4.345474e+001 3.361960e+001 4.933042e+001 3.068134e+001 4.009568e+001 4.537415e+001 1.462806e+000 1.954539e+000 3.049955e+000 3.368575e+000 2.400467e+000 2.520586e+000 2.666058e+000 3.325102e+000 2.739779e+000 2.517382e+000 3.164184e+000 2.742021e+000 1.800458e+000 2.068154e-001 2.698878e-001 3.645262e-001 4.119723e-001 3.715602e-001 4.506952e-001 4.636831e-001 5.261964e-001 3.891637e-001 4.376056e-001 4.632488e-001 4.080589e-001 1.925324e-001
<GCONST> 1.186305e+002
<STATE> 3
<MEAN> 39
 5.248421e+000 -8.951775e-001 4.072676e+000 -6.656448e+000 -2.234098e+000 -7.586778e+000 3.626149e-001 -5.367036e+000 -5.621593e+000 1.276201e+000 -7.860383e+000 -5.156584e+000 6.044185e+001 -1.085732e-001 2.088782e-001 -7.367359e-002 2.929612e-001 3.021811e-001 1.370752e-001 -1.413759e-001 -4.529735e-001 9.388006e-002 3.149844e-001 -5.050916e-001 -5.174246e-002 -1.913250e-001 -1.016573e-001 -9.337638e-002 -9.649611e-002 1.404176e-002 9.614732e-002 1.987241e-001 5.627540e-002 -2.301584e-002 2.034673e-001 -1.161599e-001 4.437655e-003 -5.990359e-003 3.944963e-002
<VARIANCE> 39
 1.538708e+001 3.297990e+001 5.223810e+001 4.955541e+001 3.497015e+001 5.506625e+001 2.668760e+001 5.870933e+001 3.113363e+001 5.587894e+001 3.375422e+001 4.528612e+001 3.303247e+001 7.033792e-001 2.892450e+000 3.348190e+000 3.143977e+000 2.312284e+000 2.912126e+000 2.657967e+000 6.134514e+000 2.336514e+000 3.590425e+000 3.525643e+000 2.516687e+000 1.693402e+000 1.391847e-001 2.546927e-001 3.860874e-001 3.828107e-001 3.565805e-001 4.198023e-001 4.016375e-001 8.853750e-001 3.837513e-001 4.478502e-001 4.666850e-001 4.218440e-001 1.220567e-001
<GCONST> 1.179016e+002
<STATE> 4
<MEAN> 39
 5.350654e+000 2.457120e+000 5.570304e+000 -4.998239e+000 -2.689854e+000 -5.537781e+000 -2.093980e-001 -1.004506e+001 -5.894843e+000 5.111398e+000 -1.288315e+001 -4.829247e+000 5.760820e+001 -3.371103e-001 -2.012839e-002 3.215996e-003 4.558765e-001 3.222668e-001 3.731087e-001 1.518742e-001 -1.314311e-002 4.400910e-001 -3.546280e-002 2.721630e-002 1.599418e-001 -2.955306e-001 -8.383604e-002 -8.690888e-002 -1.324470e-001 -6.548745e-002 8.182131e-002 1.017089e-001 9.332525e-003 2.132673e-001 6.563378e-002 -1.238157e-001 2.531545e-001 1.470370e-002 3.811185e-002
<VARIANCE> 39
 1.416519e+001 1.857108e+001 3.102041e+001 5.063595e+001 2.688336e+001 4.259181e+001 3.334398e+001 5.256062e+001 3.372883e+001 4.883644e+001 6.130660e+001 2.910644e+001 2.918836e+001 5.749977e-001 9.382122e-001 1.516971e+000 1.464321e+000 1.553092e+000 2.365072e+000 1.919246e+000 3.097461e+000 1.598205e+000 2.445266e+000 3.364866e+000 1.561520e+000 6.177739e-001 1.077108e-001 1.270672e-001 1.930687e-001 2.121589e-001 2.507211e-001 2.907410e-001 3.455563e-001 4.547354e-001 2.949198e-001 3.787627e-001 4.143729e-001 2.685756e-001 6.336356e-002
<GCONST> 1.040911e+002
<TRANSP> 5
 0.000000e+000 1.000000e+000 0.000000e+000 0.000000e+000 0.000000e+000
 0.000000e+000 5.557077e-001 4.442923e-001 0.000000e+000 0.000000e+000
 0.000000e+000 0.000000e+000 6.402642e-001 3.597358e-001 0.000000e+000
 0.000000e+000 0.000000e+000 0.000000e+000 8.565775e-001 1.434224e-001
 0.000000e+000 0.000000e+000 0.000000e+000 0.000000e+000 0.000000e+000
<ENDHMM>
~h "r"
<BEGINHMM>
<NUMSTATES> 5
<STATE> 2
<MEAN> 39
 8.639862e+000 -4.720586e+000 -6.585911e-001 -1.475611e+000 -7.642452e+000 -5.830760e+000 -9.148918e-001 -8.243035e+000 -9.234277e-001 5.212043e+000 -1.204574e+000 -5.820383e+000 6.146323e+001 6.695572e-001 -4.277550e-001 -2.685592e-001 4.013084e-001 -7.240276e-001 -4.246594e-001 5.733948e-001 -3.553883e-001 -9.653370e-001 1.433644e-001 3.612331e-001 3.293257e-001 -2.605784e-001 -3.982050e-001 2.741185e-001 1.175737e-001 -4.270723e-001 5.613991e-001 2.212144e-002 -1.661410e-001 5.739838e-001 2.393319e-001 -3.659532e-001 -9.794579e-002 2.131939e-001 4.729937e-002
<VARIANCE> 39
 4.471450e+001 1.707043e+001 3.516507e+001 4.435749e+001 6.236435e+001 5.211881e+001 3.062634e+001 4.408501e+001 2.734139e+001 1.639475e+001 2.642912e+001 1.925526e+001 1.284480e+001 1.399205e+000 1.348205e+000 1.546549e+000 4.489430e+000 2.830251e+000 2.720475e+000 1.775919e+000 2.347235e+000 2.339795e+000 1.280324e+000 1.972800e+000 1.656632e+000 2.825029e-001 2.201656e-001 1.409062e-001 2.484445e-001 4.007971e-001 4.627859e-001 3.139684e-001 4.074732e-001 4.789209e-001 3.605347e-001 2.809326e-001 3.440154e-001 2.995510e-001 5.499501e-002
<GCONST> 1.061051e+002
<STATE> 3
<MEAN> 39
 1.082902e+001 -6.170151e+000 -1.074321e+000 -1.973701e+000 -9.702265e+000 -6.957915e+000 -1.496318e+000 -8.547350e+000 -2.008342e+000 4.900217e+000 -9.084532e-001 -4.890606e+000 6.161749e+001 -1.925757e-001 -8.793003e-002 8.553778e-001 -1.321712e+000 -9.371968e-002 -2.107842e-002 -3.220981e-001 7.549998e-001 1.504577e-001 -6.589217e-001 -5.121592e-001 8.527023e-001 1.710274e-001 -3.017024e-001 8.791160e-002 3.967938e-001 -3.333040e-001 2.062555e-001 -1.640459e-001 -1.662156e-001 4.947320e-001 1.396513e-001 -3.616551e-001 -1.282392e-001 1.497825e-001 1.096235e-001
<VARIANCE> 39
 2.044237e+001 1.583321e+001 2.787605e+001 3.632602e+001 2.340942e+001 6.629877e+001 3.118228e+001 3.165495e+001 1.990470e+001 1.711855e+001 2.480141e+001 1.424897e+001 1.246893e+001 4.037859e-001 9.949605e-001 1.119729e+000 1.463761e+000 1.144910e+000 1.609033e+000 1.190757e+000 1.543600e+000 1.601662e+000 1.315937e+000 1.506290e+000 1.172130e+000 3.952276e-001 5.472225e-002 7.953021e-002 1.472841e-001 2.206562e-001 1.994209e-001 2.694158e-001 2.879542e-001 2.579670e-001 3.340783e-001 1.969053e-001 2.796091e-001 2.322406e-001 3.295925e-002
<GCONST> 9.077325e+001
<STATE> 4
<MEAN> 39
 7.476999e+000 -4.423853e+000 1.291326e+000 -8.499724e+000 -8.860758e+000 -4.568243e+000 -3.111462e-001 -4.819113e+000 -1.750852e+000 -1.178693e+000 -2.544371e+000 -2.075873e+000 6.162958e+001 -6.336526e-001 4.185309e-001 1.119031e+000 -1.109121e+000 3.882982e-001 -5.233876e-001 -1.267777e-001 1.331076e+000 -4.268675e-001 -1.086047e+000 -1.609607e-002 7.912939e-001 -1.455966e-002 -7.134494e-002 6.202800e-002 -5.733358e-003 1.732456e-001 9.932812e-002 -1.844055e-001 1.200936e-001 -4.851070e-002 -2.036729e-001 1.412589e-001 1.484414e-001 -6.229455e-002 -3.013459e-002
<VARIANCE> 39
 2.696759e+001 4.059275e+001 6.284053e+001 4.751786e+001 3.529810e+001 1.247715e+002 3.162837e+001 4.482578e+001 3.084191e+001 3.081764e+001 2.804109e+001 2.689377e+001 2.132536e+001 4.978020e-001 1.004249e+000 1.240356e+000 2.170425e+000 1.377602e+000 2.317292e+000 1.677123e+000 2.236321e+000 1.688032e+000 1.787355e+000 1.393418e+000 1.809741e+000 6.909492e-001 5.538811e-002 1.265680e-001 1.150750e-001 1.976393e-001 1.680223e-001 2.800336e-001 3.159541e-001 3.802627e-001 2.756539e-001 2.673669e-001 2.269145e-001 2.500614e-001 4.624408e-002
<GCONST> 1.008357e+002
<TRANSP> 5
 0.000000e+000 1.000000e+000 0.000000e+000 0.000000e+000 0.000000e+000
 0.000000e+000 5.400769e-001 4.599231e-001 0.000000e+000 0.000000e+000
 0.000000e+000 0.000000e+000 5.447645e-001 4.552355e-001 0.000000e+000
 0.000000e+000 0.000000e+000 0.000000e+000 6.772956e-001 3.227044e-001
 0.000000e+000 0.000000e+000 0.000000e+000 0.000000e+000 0.000000e+000
<ENDHMM>
~h "s"
<BEGINHMM>
<NUMSTATES> 5
<STATE> 2
<MEAN> 39
 -3.456304e+000 2.148679e+000 1.428042e-001 -2.420899e+000 4.828506e+000 -1.496047e+000 2.882633e+000 -2.015343e+000 -3.592334e-001 8.361285e-001 -2.539140e+000 -1.902002e+000 5.701614e+001 -2.222971e+000 2.792237e-001 -4.002888e-001 9.264500e-001 1.274586e+000 1.520357e-001 7.385022e-002 1.445370e+000 8.127992e-001 -2.862016e-001 1.306690e+000 1.853841e-001 2.451412e-001 -1.849472e-001 -1.013650e-001 -7.779580e-002 -1.262222e-001 -1.993626e-001 -1.998820e-001 -7.503083e-002 2.741752e-002 -7.264968e-003 2.681616e-002 2.751431e-003 1.041242e-001 1.342264e-001
<VARIANCE> 39
 5.181538e+001 1.531415e+001 2.187840e+001 4.593599e+001 3.936876e+001 3.361461e+001 2.685290e+001 3.491704e+001 3.032146e+001 2.962092e+001 3.297466e+001 2.167067e+001 3.462387e+001 4.391379e+000 1.434029e+000 2.415602e+000 4.105364e+000 3.071056e+000 3.593488e+000 2.365053e+000 3.426511e+000 2.814780e+000 2.925925e+000 4.123208e+000 2.617233e+000 1.462455e+000 5.862581e-001 2.449811e-001 3.163380e-001 4.546319e-001 4.405822e-001 5.647975e-001 4.424934e-001 6.061434e-001 4.517799e-001 4.788415e-001 4.783249e-001 4.708477e-001 1.525297e-001
<GCONST> 1.182208e+002
<STATE> 3
<MEAN> 39
 -1.274166e+001 3.203026e+000 -2.337817e+000 -2.605634e-001 7.326366e+000 -2.564132e+000 3.504048e+000 3.041575e+000 2.981565e+000 7.184131e-001 1.621794e+000 2.857860e-002 5.906025e+001 -5.382764e-001 9.564690e-003 -2.401735e-001 -5.022035e-003 -2.499186e-001 -3.743598e-001 -3.527394e-002 2.062057e-001 3.033328e-001 1.916527e-002 1.157646e-001 2.263777e-001 2.295142e-001 5.277568e-001 -5.707489e-002 9.616792e-002 -1.880360e-001 -3.171807e-001 -7.204407e-002 -8.660238e-002 -2.742672e-001 -1.827565e-001 -3.367720e-003 -3.018520e-001 -9.908750e-002 -1.329609e-002
<VARIANCE> 39
 2.507336e+001 1.169285e+001 1.621286e+001 1.928513e+001 4.067855e+001 2.189685e+001 2.758134e+001 2.396131e+001 2.122795e+001 2.258482e+001 1.952254e+001 2.213902e+001 1.839815e+001 4.652045e+000 1.115752e+000 1.594875e+000 2.092614e+000 2.149098e+000 2.443190e+000 2.307804e+000 2.764787e+000 2.518598e+000 2.192057e+000 2.679795e+000 2.225470e+000 8.824382e-001 3.455681e-001 1.875811e-001 2.435207e-001 3.808179e-001 4.155587e-001 4.315549e-001 4.250214e-001 4.734723e-001 4.386610e-001 4.473741e-001 4.605480e-001 4.202623e-001 1.468197e-001
<GCONST> 1.076503e+002
<STATE> 4
<MEAN> 39
 -1.063443e+001 2.428752e+000 -2.350406e+000 -1.467889e+000 3.550767e+000 -4.854090e+000 2.276643e+000 1.898386e+000 2.435504e+000 -1.309217e-001 2.148286e-001 -6.112537e-001 6.055470e+001 8.492541e-001 -2.421823e-001 1.930378e-001 -4.784760e-001 -4.588390e-001 -4.235846e-001 -2.185136e-001 -7.395267e-002 -1.060722e-001 -6.208719e-002 -5.574161e-001 -1.739888e-001 1.849937e-001 1.571111e-001 -1.047890e-001 7.820367e-002 -6.697326e-002 -5.953690e-003 8.184415e-003 2.063637e-002 3.228069e-002 -1.293779e-002 1.310605e-002 -6.520281e-002 -1.119624e-002 1.763479e-002
<VARIANCE> 39
 6.762328e+001 1.839680e+001 2.380889e+001 2.759801e+001 5.042854e+001 3.726497e+001 2.378377e+001 2.831365e+001 2.477154e+001 2.004937e+001 2.634318e+001 2.271294e+001 2.113210e+001 3.978642e+000 1.253783e+000 1.540437e+000 1.963802e+000 2.178162e+000 2.875229e+000 2.047967e+000 1.917768e+000 2.232570e+000 1.817578e+000 2.346256e+000 1.632603e+000 1.181232e+000 5.412034e-001 1.713031e-001 2.493725e-001 2.845275e-001 3.297857e-001 4.503496e-001 3.875961e-001 4.345531e-001 4.067755e-001 3.379174e-001 3.815378e-001 2.991855e-001 1.383714e-001
<GCONST> 1.089770e+002
<TRANSP> 5
 0.000000e+000 1.000000e+000 0.000000e+000 0.000000e+000 0.000000e+000
 0.000000e+000 6.511815e-001 3.488185e-001 0.000000e+000 0.000000e+000
 0.000000e+000 0.000000e+000 7.108861e-001 2.891139e-001 0.000000e+000
 0.000000e+000 0.000000e+000 0.000000e+000 8.338785e-001 1.661215e-001
 0.000000e+000 0.000000e+000 0.000000e+000 0.000000e+000 0.000000e+000
<ENDHMM>
~h "t"
<BEGINHMM>
<NUMSTATES> 5
<STATE> 2
<MEAN> 39
 -1.318743e+000 4.459658e-001 2.813330e+000 -1.780259e+000 1.571145e+000 -1.935875e+000 2.816013e+000 -2.450090e+000 -2.618739e-001 1.961882e-001 -3.946501e+000 1.258707e-001 5.348495e+001 -1.018856e+000 -1.204828e-001 6.525396e-002 6.765973e-001 1.553043e-001 1.347854e+000 1.588442e-001 5.147994e-002 6.366009e-001 3.009903e-001 1.139688e+000 3.766662e-001 -1.214540e+000 -1.672995e-001 -2.980911e-001 -1.572353e-001 -4.472866e-001 -1.015970e-001 -6.522746e-002 -6.431628e-002 1.834103e-001 1.739029e-002 -1.111928e-001 1.198631e-001 1.533534e-002 5.085112e-001
<VARIANCE> 39
 2.691311e+001 1.539009e+001 1.685672e+001 3.283636e+001 2.087609e+001 6.161614e+001 2.925036e+001 3.546596e+001 2.951621e+001 2.605806e+001 3.626309e+001 1.821299e+001 5.459486e+001 2.343781e+000 3.071702e+000 2.013402e+000 4.815899e+000 2.349189e+000 3.907366e+000 3.480366e+000 3.378528e+000 2.860783e+000 2.285870e+000 3.060007e+000 1.937774e+000 5.305977e+000 3.864188e-001 3.331375e-001 3.334943e-001 6.494125e-001 3.858656e-001 9.189211e-001 7.344095e-001 6.449544e-001 5.345895e-001 3.992090e-001 5.425169e-001 3.925899e-001 9.675773e-001
<GCONST> 1.210279e+002
<STATE> 3
<MEAN> 39
 -8.296386e+000 -3.397653e+000 2.310410e+000 -6.066776e+000 5.496556e-001 6.779287e-001 8.945261e-001 1.670491e+000 2.817717e+000 7.968880e-002 1.768167e+000 2.735788e+000 5.763580e+001 -1.243304e+000 1.148847e-001 3.900883e-001 -7.839660e-001 -1.263858e-001 -5.460864e-001 -8.359912e-001 1.270157e+000 4.814130e-001 -6.331284e-001 4.543177e-001 4.215529e-001 2.112475e+000 3.059351e-001 3.892351e-001 2.488975e-001 5.554224e-001 1.915611e-001 -1.417428e-001 9.990861e-002 -6.927955e-002 1.080832e-002 -6.519943e-002 -4.059322e-001 -1.555913e-001 -1.469092e-001
<VARIANCE> 39
 2.918692e+001 2.715581e+001 1.818876e+001 3.292990e+001 2.756797e+001 2.856400e+001 2.924691e+001 2.743821e+001 2.158458e+001 2.370632e+001 1.866330e+001 1.780046e+001 4.829855e+001 4.139189e+000 3.691759e+000 2.545967e+000 5.682144e+000 3.341359e+000 3.341345e+000 3.193336e+000 3.673095e+000 2.932808e+000 2.452471e+000 2.621757e+000 1.966296e+000 6.130074e+000 8.424712e-001 7.162438e-001 4.733143e-001 1.195406e+000 7.196458e-001 5.943537e-001 5.812563e-001 6.713580e-001 4.072624e-001 5.112050e-001 4.038399e-001 4.237272e-001 1.214719e+000
<GCONST> 1.237195e+002
<STATE> 4
<MEAN> 39
 -9.841808e+000 -1.028327e+000 3.846178e+000 -3.154920e+000 2.114978e+000 7.112193e-001 -1.272896e-001 4.422419e+000 5.128304e+000 -1.793143e+000 4.768876e-001 2.207367e+000 6.047279e+001 1.135754e+000 2.055319e-001 2.689170e-001 7.701200e-001 2.538634e-001 -9.845465e-002 -9.246945e-002 -3.228391e-001 1.199552e-001 2.211664e-002 -5.726101e-001 -5.681946e-001 -1.615066e-001 3.786229e-001 -1.073228e-001 -1.682760e-001 -4.980237e-002 -5.646084e-002 -1.049200e-002 4.958256e-003 -3.764226e-001 -1.750856e-001 1.450916e-001 -4.844354e-002 -1.794408e-001 -2.487124e-001
<VARIANCE> 39
 4.865613e+001 1.611831e+001 3.582843e+001 5.057395e+001 2.377213e+001 3.136799e+001 2.642206e+001 3.659554e+001 3.614400e+001 2.471932e+001 2.390908e+001 3.321941e+001 3.144901e+001 3.499130e+000 1.819719e+000 3.085788e+000 5.046134e+000 2.763859e+000 2.884677e+000 2.244774e+000 2.903871e+000 2.726032e+000 2.220519e+000 2.088141e+000 2.468688e+000 1.595140e+000 6.176772e-001 2.991633e-001 3.539214e-001 5.407715e-001 3.843051e-001 4.542046e-001 4.585185e-001 6.557094e-001 5.218818e-001 4.445471e-001 3.666321e-001 4.668006e-001 2.702151e-001
<GCONST> 1.178841e+002
<TRANSP> 5
 0.000000e+000 1.000000e+000 0.000000e+000 0.000000e+000 0.000000e+000
 0.000000e+000 7.963635e-001 2.036365e-001 0.000000e+000 0.000000e+000
 0.000000e+000 0.000000e+000 7.391927e-001 2.608072e-001 0.000000e+000
 0.000000e+000 0.000000e+000 0.000000e+000 7.327265e-001 2.672734e-001
 0.000000e+000 0.000000e+000 0.000000e+000 0.000000e+000 0.000000e+000
<ENDHMM>
~h "v"
<BEGINHMM>
<NUMSTATES> 5
<STATE> 2
<MEAN> 39
 6.067476e-002 -3.487194e+000 -9.968506e-001 -4.378422e+000 -1.074712e-001 -2.462021e+000 -2.554862e-001 -4.396818e-001 1.230049e+000 1.008875e+000 -3.095949e+000 -4.336237e+000 6.047456e+001 1.114880e+000 1.846200e-001 -6.613187e-001 -1.000136e+000 -9.529726e-002 2.937768e-001 -4.230295e-001 -7.010984e-001 -2.741746e-001 2.137797e-001 -2.204889e-001 -1.104653e+000 4.016247e-001 -1.235377e-001 -1.018757e-001 -8.563353e-002 -2.563087e-002 9.320534e-002 8.267495e-002 9.355067e-002 -3.989179e-002 -2.027330e-002 -9.753381e-002 -6.138237e-002 -5.696170e-002 1.536093e-001
<VARIANCE> 39
 6.942079e+001 2.310205e+001 3.598241e+001 4.966921e+001 2.603839e+001 5.943671e+001 2.378443e+001 3.320544e+001 2.237199e+001 2.429730e+001 2.855578e+001 4.455865e+001 3.127977e+001 5.777689e+000 2.372392e+000 2.362152e+000 5.102427e+000 2.291618e+000 2.718227e+000 2.148676e+000 3.383617e+000 1.820324e+000 2.152992e+000 2.269938e+000 3.744031e+000 2.334476e+000 9.775827e-001 3.668372e-001 3.545830e-001 6.798294e-001 4.047590e-001 4.629557e-001 4.413904e-001 5.415434e-001 3.340246e-001 3.510824e-001 3.355651e-001 6.740440e-001 2.381249e-001
<GCONST> 1.201070e+002
<STATE> 3
<MEAN> 39
 5.033650e+000 -4.627367e+000 -1.997019e+000 -8.947020e+000 -1.162395e+000 -4.990933e+000 -1.790816e+000 -3.561131e+000 -7.526287e-002 3.965765e-001 -5.531085e+000 -8.360622e+000 6.386948e+001 -2.887696e-001 -2.612526e-001 -2.471581e-001 9.675909e-002 4.485449e-001 3.459766e-001 1.224016e-001 -2.222293e-001 -8.718681e-003 -1.602685e-001 -1.833464e-001 -3.344549e-001 2.481205e-001 -1.203468e-001 1.707298e-002 1.931321e-001 1.845463e-001 4.727723e-002 -1.025155e-001 1.127143e-001 1.190118e-001 -8.263987e-002 -5.686551e-002 1.214198e-002 2.442512e-001 -1.098745e-001
<VARIANCE> 39
 1.556896e+001 2.180652e+001 5.840644e+001 5.080821e+001 2.416135e+001 8.917907e+001 2.823161e+001 3.890114e+001 2.702765e+001 2.543317e+001 2.395682e+001 5.114072e+001 3.352175e+001 8.125265e-001 1.509550e+000 9.130967e-001 1.519421e+000 1.143926e+000 1.888761e+000 1.555881e+000 2.717072e+000 1.434074e+000 1.699788e+000 2.124228e+000 1.373941e+000 1.072461e+000 1.617874e-001 2.033424e-001 1.788710e-001 3.249777e-001 1.886154e-001 3.094268e-001 2.283660e-001 3.988130e-001 2.859778e-001 2.895316e-001 2.825446e-001 2.718238e-001 1.814771e-001
<GCONST> 1.038476e+002
<STATE> 4
<MEAN> 39
 4.270161e+000 -6.622458e+000 -3.902909e+000 -7.567796e+000 1.808471e+000 -2.584459e+000 6.878141e-001 -3.967763e+000 -1.938635e-001 -2.026428e+000 -6.984337e+000 -9.215121e+000 6.397076e+001 -6.435385e-003 2.558631e-001 3.799745e-001 3.792567e-001 -1.234907e-001 -2.248400e-001 7.766828e-002 -6.629968e-002 -1.958606e-001 6.718074e-002 5.680138e-003 2.362065e-001 -3.347082e-001 -6.692612e-003 8.143275e-002 4.596267e-002 1.568197e-002 -3.976804e-002 -1.458109e-002 -2.796522e-003 -1.299392e-002 -3.066119e-002 5.904438e-002 -5.271216e-003 4.831453e-002 -5.544483e-002
<VARIANCE> 39
 1.690387e+001 2.556447e+001 3.302320e+001 3.526894e+001 2.828231e+001 3.762584e+001 2.474726e+001 2.386126e+001 2.008798e+001 3.349998e+001 2.116434e+001 3.366316e+001 3.330231e+001 5.525199e-001 8.806663e-001 5.862048e-001 8.236982e-001 1.045776e+000 1.267236e+000 1.118057e+000 1.483615e+000 1.376494e+000 1.534968e+000 1.121607e+000 9.481704e-001 5.153436e-001 9.327827e-002 1.135127e-001 8.602463e-002 1.281083e-001 1.534327e-001 1.989931e-001 1.758683e-001 2.688549e-001 2.049549e-001 2.282924e-001 1.865579e-001 1.677951e-001 7.449377e-002
<GCONST> 8.950929e+001
<TRANSP> 5
 0.000000e+000 1.000000e+000 0.000000e+000 0.000000e+000 0.000000e+000
 0.000000e+000 7.295685e-001 2.704315e-001 0.000000e+000 0.000000e+000
 0.000000e+000 0.000000e+000 5.921220e-001 4.078780e-001 0.000000e+000
 0.000000e+000 0.000000e+000 0.000000e+000 8.935770e-001 1.064230e-001
 0.000000e+000 0.000000e+000 0.000000e+000 0.000000e+000 0.000000e+000
<ENDHMM>
~h "w"
<BEGINHMM>
<NUMSTATES> 5
<STATE> 2
<MEAN> 39
 3.303822e+000 2.505447e-001 1.103311e+000 -6.080028e+000 -2.391602e+000 -2.212420e+000 -3.587317e-001 -3.463370e+000 -9.399813e-001 1.117645e+000 -4.196393e+000 -2.307365e+000 5.729924e+001 1.078116e+000 7.284154e-001 -9.059450e-001 -1.586968e+000 -5.160767e-001 7.127746e-001 -5.334390e-001 -4.147310e-001 -4.885674e-001 -2.089227e-001 2.650012e-001 -5.327802e-001 4.108668e-001 3.793418e-002 5.262253e-002 -1.537164e-002 -3.133504e-001 -1.407584e-001 8.629467e-002 1.174320e-002 2.129067e-002 -1.663300e-001 -1.443945e-001 1.689252e-001 -2.790492e-002 1.185667e-001
<VARIANCE> 39
 3.610090e+001 3.054348e+001 2.274478e+001 6.097782e+001 3.360181e+001 7.352987e+001 2.962841e+001 3.674602e+001 4.404866e+001 3.575929e+001 3.169718e+001 2.443088e+001 5.149375e+001 2.620674e+000 2.102709e+000 2.034048e+000 5.902278e+000 3.724046e+000 3.838811e+000 2.779728e+000 3.772297e+000 3.608261e+000 3.938517e+000 2.879872e+000 2.025599e+000 2.370953e+000 4.109169e-001 3.272769e-001 3.224990e-001 6.771080e-001 5.231234e-001 5.026813e-001 5.812567e-001 5.749612e-001 6.125175e-001 6.660059e-001 5.061791e-001 3.471511e-001 2.467115e-001
<GCONST> 1.231665e+002
<STATE> 3
<MEAN> 39
 8.437490e+000 1.524102e+000 -2.871566e+000 -1.194454e+001 -6.939444e+000 -1.949943e-001 -2.055038e+000 -6.547528e+000 -3.486981e+000 3.490317e-001 -1.627755e+000 -4.352939e+000 5.975210e+001 3.639844e-001 4.703130e-001 -5.169855e-001 -1.239516e+000 -5.023510e-001 8.867669e-001 1.247708e-001 -3.718063e-002 -5.109918e-001 -6.260424e-001 6.091238e-001 -8.174831e-002 1.190156e-001 -2.225557e-001 -1.769328e-001 1.564028e-001 1.893534e-001 1.278897e-001 -1.529126e-001 8.311720e-002 2.525875e-001 1.682367e-001 -6.803227e-002 -1.020952e-001 7.163400e-003 1.390721e-002
<VARIANCE> 39
 1.201932e+001 4.717002e+001 2.258592e+001 6.113053e+001 2.922031e+001 2.947694e+001 2.524839e+001 3.108752e+001 4.132646e+001 3.548901e+001 3.103126e+001 3.568421e+001 3.118058e+001 6.571549e-001 1.802172e+000 1.164019e+000 2.871572e+000 1.886597e+000 2.341107e+000 2.344762e+000 2.738610e+000 2.310313e+000 3.278370e+000 2.850353e+000 2.453378e+000 1.493846e+000 1.715474e-001 2.161217e-001 1.746547e-001 3.843000e-001 4.271232e-001 3.333810e-001 3.804916e-001 4.814199e-001 3.886132e-001 5.755155e-001 4.767220e-001 4.305238e-001 1.094508e-001
<GCONST> 1.105679e+002
<STATE> 4
<MEAN> 39
 9.765759e+000 5.456172e+000 -3.018942e+000 -1.913954e+001 -8.401569e+000 3.081892e+000 -6.894237e-001 -3.614468e+000 -4.484423e+000 -5.772204e+000 -3.909372e-001 -4.956682e+000 5.949118e+001 -6.650954e-002 -2.551312e-001 -3.263153e-001 -3.474784e-001 1.693355e-001 2.964541e-001 -2.983476e-002 7.987045e-002 2.347139e-001 -4.140545e-002 3.001410e-001 -3.519944e-001 3.106962e-001 -8.954631e-002 -1.348003e-001 -3.698165e-002 1.401444e-001 1.672931e-001 -1.021957e-002 -2.126451e-002 -7.713789e-002 8.786194e-002 1.375099e-001 -8.062869e-002 -9.264455e-002 5.674460e-002
<VARIANCE> 39
 5.670515e+000 1.085976e+001 1.893717e+001 6.076107e+001 1.784124e+001 2.380391e+001 1.890924e+001 3.006177e+001 3.051220e+001 2.434060e+001 2.729779e+001 2.033711e+001 1.480446e+001 3.022157e-001 8.482346e-001 8.754888e-001 1.321296e+000 1.048242e+000 1.160324e+000 9.881781e-001 1.190473e+000 1.174860e+000 1.570064e+000 1.755786e+000 1.504773e+000 6.587992e-001 4.829101e-002 6.034407e-002 8.569005e-002 1.981453e-001 1.353650e-001 1.749102e-001 1.559534e-001 2.048848e-001 1.795754e-001 2.236620e-001 3.522103e-001 2.309954e-001 4.576582e-002
<GCONST> 8.526492e+001
<TRANSP> 5
 0.000000e+000 1.000000e+000 0.000000e+000 0.000000e+000 0.000000e+000
 0.000000e+000 6.969895e-001 3.030105e-001 0.000000e+000 0.000000e+000
 0.000000e+000 0.000000e+000 6.443108e-001 3.556892e-001 0.000000e+000
 0.000000e+000 0.000000e+000 0.000000e+000 8.866311e-001 1.133690e-001
 0.000000e+000 0.000000e+000 0.000000e+000 0.000000e+000 0.000000e+000
<ENDHMM>
~h "y"
<BEGINHMM>
<NUMSTATES> 5
<STATE> 2
<MEAN> 39
 5.503903e-001 1.964632e+000 1.441760e+001 -5.426557e+000 -2.169705e+000 -1.024408e+001 -6.403607e+000 -5.522859e+000 -9.171379e+000 -5.868461e-001 -3.821786e+000 7.879887e-002 6.271964e+001 -2.599635e-001 2.407237e-001 2.316575e+000 -6.828750e-001 -4.260227e-001 -7.286679e-001 9.646042e-002 2.473672e-001 -1.117842e+000 -8.515941e-001 -3.321015e-001 1.033461e+000 1.584792e-001 -2.505722e-002 7.236436e-002 -7.935929e-002 -2.314793e-001 1.534060e-001 1.053342e-001 -6.651724e-002 2.502345e-002 1.372620e-001 -4.258167e-002 -3.761915e-002 1.386242e-001 -1.673801e-002
<VARIANCE> 39
 1.801810e+001 2.199685e+001 5.737381e+001 2.830576e+001 2.007156e+001 2.999677e+001 2.462141e+001 1.780100e+001 5.124187e+001 4.888419e+001 2.029633e+001 1.667900e+001 1.220319e+001 1.168980e+000 1.981731e+000 3.374769e+000 2.609888e+000 2.322472e+000 2.916116e+000 2.035473e+000 2.054434e+000 2.817870e+000 2.475181e+000 2.206571e+000 1.881422e+000 5.311219e-001 1.568199e-001 3.376905e-001 7.299573e-001 3.613411e-001 5.237902e-001 5.856457e-001 5.226974e-001 3.696522e-001 6.573450e-001 4.631226e-001 3.765095e-001 3.213468e-001 1.061845e-001
<GCONST> 1.101395e+002
<STATE> 3
<MEAN> 39
 2.438438e-001 1.816198e+000 1.916421e+001 -1.056594e+001 -3.683591e+000 -1.366646e+001 -7.966673e+000 -2.179195e+000 -8.195952e+000 -4.319842e+000 -5.040680e+000 6.483459e+000 6.420334e+001 2.565476e-001 -8.011525e-001 -1.221039e+000 -5.995043e-001 -2.685860e-001 -4.582581e-001 7.152993e-002 1.017321e+000 9.881404e-001 1.331097e-001 -4.461655e-001 -9.985335e-002 5.430428e-001 7.500589e-002 -1.694013e-001 -4.080403e-001 3.311243e-002 1.280748e-001 1.397853e-001 1.618852e-001 5.267856e-002 8.432744e-002 8.732715e-002 -1.907393e-001 -3.436300e-001 2.831386e-002
<VARIANCE> 39
 4.660675e+000 2.662813e+001 2.877391e+001 1.644550e+001 2.343855e+001 2.553380e+001 1.231942e+001 2.361974e+001 3.280758e+001 1.983400e+001 1.542477e+001 1.449652e+001 1.639424e+001 4.264207e-001 1.811571e+000 3.469634e+000 7.115724e-001 1.964414e+000 1.411769e+000 1.445744e+000 1.845168e+000 2.145236e+000 1.942873e+000 1.716066e+000 2.532237e+000 5.083952e-001 4.303249e-002 1.482483e-001 1.568368e-001 1.408233e-001 4.278027e-001 3.131726e-001 2.012564e-001 4.199095e-001 3.642868e-001 2.800414e-001 2.880127e-001 3.537000e-001 6.125340e-002
<GCONST> 9.356944e+001
<STATE> 4
<MEAN> 39
 4.068134e+000 -9.111404e+000 5.032880e-001 -1.678197e+001 -1.870828e+000 -1.365699e+001 -3.813344e+000 5.923731e+000 -7.718310e-001 -4.049767e-001 -1.572518e+001 -2.057327e+000 6.972968e+001 3.087517e-001 -9.101635e-001 -2.808797e+000 -4.568932e-001 2.781644e+000 2.062339e+000 1.088791e+000 -1.566209e+000 3.018002e-001 -2.070498e-001 -1.541664e+000 -2.267266e+000 2.572433e-001 -1.455206e-001 3.289323e-001 4.357402e-001 1.625895e-001 2.548929e-001 2.295206e-001 -1.298357e-001 -1.129140e+000 -2.564773e-001 -2.097218e-001 7.796783e-001 3.283257e-001 -1.042698e-001
<VARIANCE> 39
 1.817795e+000 6.456252e+000 1.685916e+001 1.769030e+001 2.156556e+001 1.382199e+001 9.843612e+000 1.547989e+001 1.441578e+001 1.538889e+001 2.573741e+001 2.110257e+001 3.712582e+000 1.502573e-001 2.926485e-001 8.727685e-001 6.048546e-001 6.454381e-001 1.245462e+000 9.067786e-001 3.480798e+000 1.544385e+000 1.241515e+000 3.047114e+000 2.133285e+000 1.192483e-001 1.679436e-002 4.040745e-002 6.878196e-002 1.116874e-001 2.493205e-001 2.083988e-001 1.122313e-001 3.593684e-001 2.750856e-001 2.117652e-001 4.096000e-001 2.286986e-001 9.943336e-003
<GCONST> 7.298289e+001
<TRANSP> 5
 0.000000e+000 1.000000e+000 0.000000e+000 0.000000e+000 0.000000e+000
 0.000000e+000 8.436497e-001 1.563503e-001 0.000000e+000 0.000000e+000
 0.000000e+000 0.000000e+000 9.126931e-001 8.730694e-002 0.000000e+000
 0.000000e+000 0.000000e+000 0.000000e+000 7.005885e-001 2.994115e-001
 0.000000e+000 0.000000e+000 0.000000e+000 0.000000e+000 0.000000e+000
<ENDHMM>
~h "z"
<BEGINHMM>
<NUMSTATES> 5
<STATE> 2
<MEAN> 39
 2.190334e+000 4.071612e+000 4.839909e+000 -2.858227e+000 1.808267e+000 -8.781701e+000 -1.704077e+000 -5.664079e+000 -3.485745e+000 1.377392e+000 -4.274047e+000 -2.858630e+000 5.834839e+001 -8.795192e-001 6.388000e-001 -9.419924e-002 1.051687e+000 4.744411e-001 -5.053131e-002 -3.741723e-002 1.926558e-001 3.394305e-001 -3.444292e-001 2.574582e-001 -6.476258e-002 -8.818336e-002 -2.312898e-001 -6.347976e-002 -1.485701e-001 -3.362651e-002 -6.575946e-002 3.062506e-001 2.757914e-001 1.657182e-001 1.393687e-001 -1.647232e-001 9.759592e-002 7.709941e-002 -3.336126e-002
<VARIANCE> 39
 2.195823e+001 1.465674e+001 2.724661e+001 5.140287e+001 3.405312e+001 4.991885e+001 2.714631e+001 3.038943e+001 2.620920e+001 3.758598e+001 2.303453e+001 1.998888e+001 2.113273e+001 2.712331e+000 1.923842e+000 1.815147e+000 3.207587e+000 2.433709e+000 3.704238e+000 2.147043e+000 2.565345e+000 2.123527e+000 2.905338e+000 1.831442e+000 1.324788e+000 1.427495e+000 2.661986e-001 1.839538e-001 2.032294e-001 2.905029e-001 2.915707e-001 4.467381e-001 3.153747e-001 3.707958e-001 3.316590e-001 3.430517e-001 3.350555e-001 2.559902e-001 1.013221e-001
<GCONST> 1.083565e+002
<STATE> 3
<MEAN> 39
 -1.665306e+000 5.584238e+000 3.861663e+000 3.230399e-001 2.276146e+000 -7.626482e+000 4.262939e-002 -3.619658e+000 -9.342290e-001 -7.882509e-001 -3.001729e+000 -1.816728e+000 5.806767e+001 -8.591983e-001 1.510212e-001 -3.625109e-001 4.793436e-001 8.863865e-002 5.517703e-001 5.570606e-001 4.863013e-001 7.059706e-001 -3.317509e-001 1.724051e-001 1.565714e-001 -1.308421e-001 1.940759e-001 -1.695147e-001 6.025274e-002 -2.456353e-001 -1.606547e-001 -1.306880e-001 2.568264e-003 1.698601e-002 -6.573369e-002 5.743900e-002 -4.002282e-002 -1.767736e-002 1.045939e-001
<VARIANCE> 39
 2.287390e+001 2.918400e+001 1.792401e+001 2.642433e+001 4.399538e+001 5.221769e+001 2.220332e+001 2.267763e+001 2.542916e+001 2.357954e+001 2.046628e+001 1.536207e+001 2.266330e+001 1.547977e+000 1.129670e+000 1.383095e+000 1.888321e+000 1.446102e+000 2.371109e+000 1.604511e+000 1.714314e+000 1.701655e+000 1.846118e+000 1.274835e+000 1.309115e+000 4.636626e-001 1.459207e-001 1.431851e-001 1.746230e-001 2.309042e-001 2.485054e-001 3.995852e-001 2.864459e-001 2.890508e-001 2.764916e-001 3.231523e-001 2.671650e-001 2.349674e-001 6.614465e-002
<GCONST> 9.844181e+001
<STATE> 4
<MEAN> 39
 -1.137442e+000 1.269325e+000 3.097180e-001 -5.743093e-001 4.076152e-001 -3.071227e+000 2.125128e+000 -2.285034e+000 1.711883e+000 -2.320655e-001 -1.838677e+000 -3.406144e+000 5.797964e+001 -8.594536e-002 -5.188898e-002 -6.083294e-002 -7.784513e-002 -3.590098e-001 -2.555476e-001 2.859884e-001 4.633858e-002 -5.916687e-002 -8.167561e-002 1.703519e-001 1.402050e-001 8.795143e-002 2.453004e-001 -8.568086e-002 1.731294e-001 -1.458209e-001 -1.197665e-001 -3.009396e-001 -1.494897e-001 -7.382747e-002 -1.971177e-001 5.574949e-002 -6.075269e-002 2.135859e-002 8.771937e-002
<VARIANCE> 39
 4.525649e+001 6.733638e+001 2.773472e+001 2.704967e+001 7.369424e+001 6.302857e+001 2.583942e+001 3.778433e+001 2.872791e+001 3.630386e+001 2.232740e+001 3.937358e+001 4.483681e+001 9.412798e-001 7.374745e-001 1.113501e+000 1.346698e+000 1.157074e+000 2.702229e+000 1.685633e+000 2.048420e+000 1.861488e+000 1.512633e+000 1.257306e+000 1.650939e+000 3.326252e-001 1.418001e-001 1.324584e-001 1.349053e-001 2.417805e-001 2.199182e-001 3.565402e-001 3.174982e-001 3.583883e-001 2.779641e-001 3.108364e-001 2.044443e-001 2.733019e-001 5.181380e-002
<GCONST> 1.018523e+002
<TRANSP> 5
 0.000000e+000 1.000000e+000 0.000000e+000 0.000000e+000 0.000000e+000
 0.000000e+000 7.120488e-001 2.879511e-001 0.000000e+000 0.000000e+000
 0.000000e+000 0.000000e+000 5.973424e-001 4.026576e-001 0.000000e+000
 0.000000e+000 0.000000e+000 0.000000e+000 7.069658e-001 2.930342e-001
 0.000000e+000 0.000000e+000 0.000000e+000 0.000000e+000 0.000000e+000
<ENDHMM>
~h "ah"
<BEGINHMM>
<NUMSTATES> 5
<STATE> 2
<MEAN> 39
 6.476962e+000 -4.195656e+000 -8.454603e+000 -1.864268e+001 7.328469e-002 5.288649e+000 -1.857025e+000 -6.117298e+000 -8.627021e-002 -3.117755e-001 -1.429213e+000 -1.273623e+001 6.647626e+001 -7.867036e-001 -1.271379e+000 -4.245076e-001 9.543294e-001 1.668479e+000 -4.299103e-001 1.481466e-001 -1.346020e-001 7.162416e-001 1.988423e-001 -1.676526e+000 -1.142832e+000 6.795369e-001 5.448321e-002 1.735309e-001 3.357572e-001 2.712471e-001 -1.881012e-001 -3.925255e-001 1.603895e-001 1.416610e-001 -1.499755e-001 -3.155283e-001 -2.385838e-001 4.888665e-001 -2.382793e-001
<VARIANCE> 39
 6.248089e+000 1.849577e+001 1.967748e+001 2.484413e+001 2.327261e+001 4.751786e+001 1.079658e+001 2.044119e+001 1.892447e+001 2.938134e+001 5.839265e+001 2.729641e+001 1.397482e+001 3.413654e-001 6.714299e-001 9.725080e-001 7.846717e-001 9.067575e-001 2.169222e+000 8.554600e-001 1.801410e+000 1.222176e+000 2.014962e+000 2.296543e+000 2.226461e+000 4.692479e-001 4.869468e-002 6.835217e-002 9.041283e-002 1.169131e-001 1.556113e-001 2.554929e-001 1.525054e-001 1.745704e-001 2.017067e-001 3.155809e-001 5.313146e-001 2.645611e-001 3.678018e-002
<GCONST> 8.737312e+001
<STATE> 3
<MEAN> 39
 4.282429e+000 -8.017028e+000 -3.357059e+000 -1.159980e+001 2.368308e+000 -3.815174e+000 1.862120e+000 -3.217033e+000 -1.250673e+000 -4.841277e+000 -8.746230e+000 -8.910121e+000 6.644682e+001 -6.349844e-002 1.998973e-001 1.160498e+000 8.623978e-001 -2.745346e-001 -1.131904e+000 3.511623e-001 2.010971e-001 -5.668017e-001 -4.293171e-001 -1.686078e-001 9.483885e-001 -4.205046e-001 7.334316e-002 2.135077e-001 5.881000e-002 -1.700012e-002 -1.370802e-001 9.512144e-002 -8.412498e-002 -1.005206e-001 -8.680622e-002 1.269933e-001 2.368043e-001 4.270618e-002 -1.261273e-001
<VARIANCE> 39
 3.930556e+000 1.883198e+001 6.014481e+001 1.844688e+001 2.393550e+001 5.595837e+001 1.876952e+001 2.346325e+001 2.546379e+001 2.180371e+001 2.310369e+001 4.588196e+001 1.450266e+001 3.008627e-001 1.439929e+000 1.724604e+000 6.970559e-001 1.805571e+000 1.932143e+000 1.732121e+000 1.966743e+000 1.364237e+000 2.182008e+000 1.806054e+000 2.231720e+000 4.630439e-001 4.290229e-002 1.104381e-001 2.085625e-001 1.086595e-001 2.198835e-001 2.233604e-001 3.059404e-001 2.333309e-001 2.245134e-001 2.942522e-001 1.985405e-001 4.061793e-001 3.387504e-002
<GCONST> 9.236579e+001
<STATE> 4
<MEAN> 39
 8.870570e-001 -1.902112e+000 1.273264e+000 -1.939316e+000 1.389750e+000 -1.020572e+000 3.764086e+000 -4.105398e+000 -1.353818e+000 -1.732426e+000 -4.221478e+000 -3.604004e+000 5.501316e+001 -8.218354e-002 1.385843e-001 2.057139e-001 2.571897e-001 -1.044497e-001 3.443985e-002 1.048327e-001 -1.036498e-002 -6.077348e-002 1.185005e-001 1.935540e-001 2.189353e-001 -3.068165e-001 8.688984e-003 2.061357e-002 -1.622832e-002 -1.717465e-002 -9.886692e-003 2.467800e-002 -3.885661e-002 -3.328945e-003 -4.969846e-004 5.638270e-002 1.895053e-002 -2.328853e-002 -1.039577e-002
<VARIANCE> 39
 1.718630e+001 2.334215e+001 2.871146e+001 3.580334e+001 2.879874e+001 4.248599e+001 1.658270e+001 2.965166e+001 2.461426e+001 3.689937e+001 2.593008e+001 3.369622e+001 5.998156e+001 2.985719e-001 8.247712e-001 1.184948e+000 9.216318e-001 1.337215e+000 1.545366e+000 1.282990e+000 1.889547e+000 1.515168e+000 1.882006e+000 1.381939e+000 1.543973e+000 3.563776e-001 4.910201e-002 9.962862e-002 1.276216e-001 1.478593e-001 2.190548e-001 2.035352e-001 2.309930e-001 3.386577e-001 2.602653e-001 3.423321e-001 2.240464e-001 2.845735e-001 4.009031e-002
<GCONST> 9.332852e+001
<TRANSP> 5
 0.000000e+000 1.000000e+000 0.000000e+000 0.000000e+000 0.000000e+000
 0.000000e+000 6.933292e-001 3.066708e-001 0.000000e+000 0.000000e+000
 0.000000e+000 0.000000e+000 8.370618e-001 1.629382e-001 0.000000e+000
 0.000000e+000 0.000000e+000 0.000000e+000 8.899386e-001 1.100614e-001
 0.000000e+000 0.000000e+000 0.000000e+000 0.000000e+000 0.000000e+000
<ENDHMM>
~h "ao"
<BEGINHMM>
<NUMSTATES> 5
<STATE> 2
<MEAN> 39
 3.793615e+000 1.071614e+000 -6.079245e+000 -1.515709e+001 -1.252560e+000 6.690699e+000 1.658268e+000 -2.891173e+000 -3.443111e-001 -1.843895e+000 -2.624793e+000 -4.022954e+000 5.766390e+001 -2.652290e-001 6.564749e-002 -2.087509e-001 -5.299049e-001 6.551185e-002 4.238080e-001 3.257467e-001 1.715191e-001 -9.652670e-003 -8.139549e-001 4.674654e-002 -2.533784e-002 1.232854e-001 -1.335780e-001 -5.122159e-002 2.015752e-001 3.892201e-001 1.314578e-001 -2.294342e-001 7.137953e-002 9.352047e-002 7.042549e-002 -8.964357e-003 -7.760420e-002 1.326105e-001 -1.215969e-001
<VARIANCE> 39
 2.785038e+001 1.648972e+001 3.461117e+001 1.593122e+002 4.156699e+001 2.522615e+001 1.806525e+001 2.618971e+001 2.277410e+001 2.983710e+001 2.375359e+001 2.754764e+001 7.295884e+001 2.930803e-001 4.333277e-001 6.660018e-001 1.554118e+000 9.535048e-001 1.092821e+000 8.933341e-001 1.301639e+000 1.205917e+000 1.716537e+000 1.137926e+000 8.897420e-001 2.543369e-001 1.270052e-001 1.302054e-001 1.665253e-001 4.050146e-001 1.992217e-001 2.031848e-001 1.809364e-001 2.299913e-001 2.400230e-001 2.380191e-001 2.555312e-001 2.000259e-001 4.581977e-002
<GCONST> 9.226092e+001
<STATE> 3
<MEAN> 39
 5.513729e+000 2.181235e+000 -1.063353e+001 -2.585663e+001 5.828028e-002 9.308144e+000 2.619532e+000 -2.731972e+000 -2.176928e+000 -7.941028e+000 -1.164605e+000 -4.757430e+000 6.358348e+001 1.753364e-002 2.993123e-001 8.994709e-002 -2.010591e-001 -2.368469e-001 -4.766193e-003 1.705382e-001 3.781590e-001 -4.663530e-003 -6.018644e-001 1.083934e-001 7.925731e-002 -2.170670e-001 4.333658e-002 2.151166e-003 6.672081e-002 7.412920e-002 -3.929206e-002 -1.087398e-001 -4.859610e-002 6.718174e-003 -1.407575e-002 1.343284e-001 -3.692294e-002 1.965595e-003 -3.490935e-002
<VARIANCE> 39
 9.233561e+000 1.467021e+001 1.780235e+001 6.587171e+001 4.534557e+001 2.018615e+001 1.583811e+001 3.473707e+001 1.834574e+001 3.755623e+001 1.513096e+001 2.274944e+001 2.515123e+001 1.399655e-001 2.559031e-001 4.276688e-001 5.469666e-001 5.437106e-001 5.692698e-001 5.678194e-001 6.553726e-001 6.178922e-001 8.190682e-001 6.076257e-001 6.758622e-001 1.126414e-001 2.858937e-002 4.306635e-002 6.387558e-002 8.067856e-002 7.928605e-002 9.592161e-002 9.633601e-002 1.131277e-001 1.068833e-001 1.390550e-001 9.559984e-002 1.007425e-001 2.784970e-002
<GCONST> 6.788752e+001
<STATE> 4
<MEAN> 39
 7.221886e+000 5.608669e+000 -5.268073e+000 -2.253720e+001 -4.727547e+000 5.812665e+000 2.807244e+000 1.182441e+000 -3.271117e+000 -7.326253e+000 -2.095783e+000 -4.659872e+000 5.828937e+001 1.120771e-002 5.025122e-002 5.446449e-001 9.489210e-001 8.594865e-002 -4.713196e-001 1.054273e-001 -8.695781e-002 -1.181218e-001 5.746760e-001 -2.533437e-001 1.385446e-002 -4.650479e-001 -7.471468e-002 -7.138354e-002 -5.946707e-004 1.524659e-001 1.079967e-001 -1.265301e-002 -1.244893e-002 -7.606200e-002 7.166370e-002 9.097928e-002 -5.086996e-003 2.931299e-002 2.413908e-002
<VARIANCE> 39
 1.473774e+001 9.325365e+000 2.141451e+001 9.956047e+001 3.744746e+001 2.641726e+001 2.561277e+001 2.215340e+001 2.572472e+001 3.013540e+001 1.645585e+001 2.630989e+001 2.824960e+001 5.441108e-001 4.466044e-001 8.059173e-001 3.425495e+000 1.423946e+000 1.230979e+000 1.216727e+000 1.472473e+000 1.356702e+000 1.385211e+000 1.245354e+000 1.192799e+000 6.828967e-001 8.248458e-002 7.061386e-002 1.395180e-001 3.696414e-001 1.931289e-001 2.174008e-001 2.333142e-001 2.215417e-001 2.048759e-001 2.008916e-001 2.409580e-001 2.007377e-001 1.055748e-001
<GCONST> 9.224751e+001
<TRANSP> 5
 0.000000e+000 1.000000e+000 0.000000e+000 0.000000e+000 0.000000e+000
 0.000000e+000 5.762811e-001 4.237190e-001 0.000000e+000 0.000000e+000
 0.000000e+000 0.000000e+000 8.581403e-001 1.418597e-001 0.000000e+000
 0.000000e+000 0.000000e+000 0.000000e+000 8.907907e-001 1.092093e-001
 0.000000e+000 0.000000e+000 0.000000e+000 0.000000e+000 0.000000e+000
<ENDHMM>
~h "ax"
<BEGINHMM>
<NUMSTATES> 5
<STATE> 2
<MEAN> 39
 -3.640160e+000 -3.605837e+000 6.971849e-001 -2.160458e-001 2.630859e+000 7.686446e-001 4.322889e+000 8.992060e-002 3.123293e+000 2.319458e+000 -4.742774e-001 1.629460e+000 4.994612e+001 5.923893e-002 1.188218e-001 -7.347508e-002 1.097438e-001 -5.688534e-002 2.421532e-001 1.393298e-001 -1.330526e-001 4.978334e-002 5.280917e-002 -7.133408e-004 -5.795865e-002 -1.951527e-001 5.019021e-003 -5.466415e-003 9.830364e-003 -2.575978e-002 2.034169e-002 -2.105244e-002 -4.599123e-002 -6.041979e-004 -1.068418e-002 -1.325288e-002 -1.777085e-002 -4.372183e-003 2.083798e-002
<VARIANCE> 39
 1.247349e+001 1.255189e+001 1.036300e+001 1.236242e+001 1.422890e+001 2.748448e+001 1.935893e+001 2.954365e+001 2.099066e+001 2.054512e+001 2.095961e+001 2.207526e+001 2.339512e+001 2.295222e-001 4.136011e-001 4.911451e-001 6.468728e-001 9.923596e-001 1.229002e+000 1.239341e+000 1.506207e+000 1.481924e+000 1.526262e+000 1.179813e+000 1.321756e+000 2.347443e-001 4.078548e-002 6.372759e-002 9.678531e-002 1.349593e-001 1.824607e-001 2.221405e-001 2.149125e-001 2.788996e-001 2.880641e-001 3.054470e-001 2.204259e-001 2.759820e-001 3.358877e-002
<GCONST> 8.145604e+001
<STATE> 3
<MEAN> 39
 -2.219710e+000 -2.472436e+000 -2.483008e+000 -1.973723e+000 2.367893e+000 3.749692e+000 5.123083e+000 -3.727742e+000 3.206207e+000 6.028461e-001 -1.721882e+000 -3.405991e+000 5.402417e+001 -1.794768e-001 1.202892e-001 6.796881e-002 2.825964e-002 2.195380e-002 3.219005e-002 -1.077824e-001 -8.354282e-002 6.655956e-002 -8.599975e-002 3.388770e-001 2.032947e-001 -7.064264e-002 5.839971e-002 -5.864486e-002 -1.489640e-002 -2.832277e-001 -1.164936e-002 -3.869047e-001 -1.657239e-001 1.666706e-001 -8.635545e-002 -3.403329e-003 -5.497162e-002 5.837092e-002 2.945617e-001
<VARIANCE> 39
 3.655283e+001 1.346435e+001 3.469791e+001 3.441224e+001 1.881813e+001 2.913203e+001 1.888294e+001 3.214142e+001 2.432963e+001 1.904296e+001 2.458660e+001 6.671999e+001 6.496751e+001 6.507261e-001 3.170308e-001 4.602237e-001 6.480578e-001 9.197163e-001 1.410642e+000 1.188322e+000 9.516537e-001 1.249728e+000 1.762588e+000 1.544521e+000 1.293515e+000 5.154887e-001 1.602295e-001 8.634194e-002 1.278265e-001 1.540718e-001 1.784143e-001 2.732697e-001 2.398831e-001 2.214883e-001 2.514530e-001 2.713396e-001 3.321019e-001 2.374405e-001 1.887511e-001
<GCONST> 9.274911e+001
<STATE> 4
<MEAN> 39
 2.238831e+000 -3.106580e+000 -6.064855e+000 -7.030400e+000 2.647238e+000 3.747085e+000 3.271749e+000 -5.599800e+000 2.945975e+000 -2.101472e+000 -2.304775e+000 -9.713735e+000 5.956050e+001 4.784935e-002 2.729518e-002 3.233635e-001 9.791395e-003 3.810869e-002 -3.511180e-001 2.431959e-002 2.358209e-001 -2.401506e-001 -9.994756e-002 -1.564375e-001 3.838880e-001 -5.119342e-002 2.988072e-002 -4.722274e-002 3.139790e-003 -1.101125e-001 1.179392e-002 -2.311359e-001 -7.733306e-002 1.614324e-001 -3.830679e-002 3.420205e-002 -9.232029e-002 2.990816e-003 2.151483e-001
<VARIANCE> 39
 2.083351e+001 2.423958e+001 3.613613e+001 3.884398e+001 1.657242e+001 3.895751e+001 2.195864e+001 3.262703e+001 2.287576e+001 2.312695e+001 3.137181e+001 6.469067e+001 6.600994e+001 5.627038e-001 7.061646e-001 8.957462e-001 1.450457e+000 8.390980e-001 1.872285e+000 1.254755e+000 1.215679e+000 8.450599e-001 1.212774e+000 1.345509e+000 1.154064e+000 9.076211e-001 1.282545e-001 1.150086e-001 1.285537e-001 2.421667e-001 1.445532e-001 3.229634e-001 1.889710e-001 3.041541e-001 1.819422e-001 1.995658e-001 2.747177e-001 2.016779e-001 3.073615e-001
<GCONST> 9.585482e+001
<TRANSP> 5
 0.000000e+000 1.000000e+000 0.000000e+000 0.000000e+000 0.000000e+000
 0.000000e+000 9.190632e-001 8.093686e-002 0.000000e+000 0.000000e+000
 0.000000e+000 0.000000e+000 3.827392e-001 6.172608e-001 0.000000e+000
 0.000000e+000 0.000000e+000 0.000000e+000 6.818478e-001 3.181522e-001
 0.000000e+000 0.000000e+000 0.000000e+000 0.000000e+000 0.000000e+000
<ENDHMM>
~h "ay"
<BEGINHMM>
<NUMSTATES> 5
<STATE> 2
<MEAN> 39
 -2.652642e+000 -1.216349e+000 1.886238e+000 6.110868e-001 2.153519e+000 3.113660e+000 4.337060e+000 -3.881280e+000 1.328306e+000 1.909222e+000 -3.132085e+000 -4.630051e-001 4.888504e+001 -9.028810e-002 -1.314396e-001 -1.534335e-001 -6.469137e-002 8.070648e-002 4.087287e-003 -3.010321e-002 -2.876290e-002 4.064120e-002 -3.722822e-002 -5.251931e-003 -2.406685e-002 6.079755e-002 3.784293e-002 3.398976e-002 3.667811e-002 2.948519e-003 -1.834136e-002 -6.946582e-002 -1.571930e-002 1.275490e-003 -3.064976e-002 -4.734235e-004 -4.110203e-002 -3.110872e-002 2.807826e-002
<VARIANCE> 39
 1.241053e+001 1.397112e+001 1.444772e+001 2.224386e+001 1.434034e+001 2.231639e+001 1.860328e+001 2.529175e+001 1.933638e+001 2.058770e+001 2.706767e+001 1.866008e+001 3.632739e+001 3.982807e-001 5.987517e-001 7.462319e-001 9.917710e-001 1.080978e+000 1.684289e+000 1.532056e+000 1.866230e+000 1.481907e+000 1.740774e+000 1.768570e+000 1.244886e+000 5.657691e-001 6.733557e-002 8.915111e-002 1.276773e-001 1.781538e-001 2.115692e-001 2.679052e-001 2.779028e-001 3.418520e-001 2.810239e-001 3.244239e-001 3.451557e-001 2.778938e-001 5.565090e-002
<GCONST> 8.966313e+001
<STATE> 3
<MEAN> 39
 -9.358319e-001 -3.717387e+000 -8.504246e-001 -4.361608e+000 3.555765e+000 -1.647254e+000 1.607715e+000 -1.834344e+000 6.100659e-001 2.829237e-001 -5.639414e+000 -4.174130e+000 5.900673e+001 2.742071e-001 -6.938137e-001 -5.700439e-001 -6.458855e-001 2.684278e-001 -1.732710e-001 -1.497512e-001 1.530440e-001 8.242409e-002 -4.235929e-001 -4.564115e-001 -6.998918e-001 1.045585e+000 3.546510e-002 8.809789e-002 -1.161972e-004 8.434863e-002 -6.463368e-002 1.566746e-001 9.883340e-002 -1.628854e-001 -8.536588e-003 7.772521e-002 9.758394e-002 4.741223e-002 -1.861730e-001
<VARIANCE> 39
 4.766098e+001 3.419303e+001 3.662079e+001 5.328382e+001 2.124347e+001 4.640486e+001 2.717919e+001 4.988906e+001 2.021169e+001 2.754268e+001 4.327564e+001 4.436302e+001 6.228834e+001 1.586967e+000 1.739515e+000 1.866729e+000 1.604344e+000 1.500729e+000 3.835612e+000 1.980632e+000 3.399860e+000 1.358684e+000 2.639922e+000 3.019869e+000 3.259824e+000 2.362987e+000 2.434816e-001 3.066005e-001 3.048465e-001 2.501454e-001 3.033243e-001 8.006746e-001 4.900424e-001 7.879219e-001 2.965421e-001 4.613419e-001 4.975498e-001 4.385744e-001 2.421216e-001
<GCONST> 1.164977e+002
<STATE> 4
<MEAN> 39
 2.363372e+000 -8.049226e+000 -4.980147e+000 -8.758340e+000 4.164286e+000 -7.767519e-001 2.006440e+000 -3.516185e+000 -2.625813e-001 -4.515547e+000 -7.408652e+000 -8.114005e+000 6.506036e+001 -7.735527e-002 -3.480694e-002 3.413436e-001 1.890515e-001 -3.955704e-001 -4.311056e-001 3.598172e-001 2.458114e-001 -5.043928e-002 -2.209943e-001 5.164109e-002 3.425573e-001 -9.788157e-002 4.573346e-002 9.292524e-002 1.222499e-001 2.558373e-002 -1.065377e-001 -1.140071e-001 1.000552e-002 3.299290e-002 -4.526922e-002 6.567971e-002 1.723994e-002 7.704547e-002 -7.216582e-002
<VARIANCE> 39
 2.025567e+001 2.823321e+001 4.027465e+001 4.435776e+001 3.372618e+001 4.769555e+001 2.602005e+001 2.996124e+001 2.030595e+001 3.043197e+001 2.857622e+001 3.856853e+001 4.480254e+001 5.397206e-001 7.118579e-001 1.361102e+000 7.705798e-001 1.473694e+000 2.295774e+000 1.481649e+000 1.592389e+000 1.180179e+000 1.367415e+000 1.263157e+000 1.322355e+000 4.229274e-001 1.016348e-001 1.144095e-001 1.160459e-001 1.209580e-001 1.683600e-001 2.297829e-001 2.620850e-001 2.506526e-001 1.941661e-001 2.394856e-001 2.044348e-001 1.936668e-001 5.800967e-002
<GCONST> 9.424907e+001
<TRANSP> 5
 0.000000e+000 1.000000e+000 0.000000e+000 0.000000e+000 0.000000e+000
 0.000000e+000 8.200599e-001 1.799401e-001 0.000000e+000 0.000000e+000
 0.000000e+000 0.000000e+000 3.783343e-001 6.216657e-001 0.000000e+000
 0.000000e+000 0.000000e+000 0.000000e+000 8.682765e-001 1.317235e-001
 0.000000e+000 0.000000e+000 0.000000e+000 0.000000e+000 0.000000e+000
<ENDHMM>
~h "eh"
<BEGINHMM>
<NUMSTATES> 5
<STATE> 2
<MEAN> 39
 4.333884e+000 -7.039399e+000 -6.732852e-001 -1.116389e+001 -3.620500e+000 -1.338360e+001 -2.442119e-001 4.436778e+000 2.257466e+000 -3.713709e-006 -1.169447e+001 -3.823623e+000 6.702084e+001 2.827684e-001 -1.706880e+000 -3.129596e-002 -1.096552e+000 -2.352238e-001 1.136529e-001 4.864050e-001 1.211481e+000 -2.502881e-001 -6.546435e-001 -4.734539e-001 -1.646485e-001 1.036237e+000 -6.517515e-001 3.663760e-001 -6.193862e-002 4.542848e-001 4.240906e-001 4.309929e-001 3.384550e-001 -6.031703e-002 -1.414795e-002 -2.524997e-001 4.804059e-001 5.256626e-003 -4.427176e-001
<VARIANCE> 39
 6.254478e+000 1.321912e+001 1.571269e+001 1.538172e+001 1.281999e+001 2.611896e+001 1.364622e+001 1.891401e+001 1.006006e+001 1.726842e+001 1.353670e+001 1.375865e+001 6.787139e+000 1.004565e+000 8.924786e-001 7.433459e-001 1.391136e+000 1.377492e+000 1.621501e+000 1.227728e+000 1.792846e+000 1.080848e+000 1.580848e+000 1.097832e+000 1.052870e+000 9.912153e-001 4.740050e-001 1.160386e-001 1.646190e-001 1.655805e-001 2.191132e-001 4.330645e-001 2.692647e-001 4.239661e-001 1.855467e-001 3.225333e-001 2.417601e-001 1.387541e-001 9.996493e-002
<GCONST> 8.789329e+001
<STATE> 3
<MEAN> 39
 5.122468e+000 -8.458086e+000 -4.193299e-002 -1.128508e+001 -2.098826e+000 -1.233710e+001 2.116033e-001 3.589821e+000 2.357091e+000 -2.651173e+000 -1.020832e+001 -5.203662e+000 6.653877e+001 2.338674e-001 2.612867e-001 4.681833e-003 3.434622e-001 1.498563e-001 3.227334e-001 -4.428395e-001 -6.575834e-001 1.007324e-001 1.092785e-001 4.723389e-001 -3.559669e-001 -4.105056e-001 3.607916e-002 2.072905e-001 -1.876522e-003 1.410809e-001 -9.890800e-003 1.136191e-001 -1.797354e-001 -2.525183e-001 -1.149521e-002 1.812098e-001 1.157112e-001 -5.319276e-002 -1.578971e-001
<VARIANCE> 39
 5.761101e+000 1.195231e+001 1.357269e+001 1.338361e+001 1.218098e+001 2.887919e+001 2.658735e+001 3.205421e+001 1.471989e+001 1.999289e+001 1.773288e+001 1.877964e+001 1.000120e+001 3.043323e-001 9.014520e-001 3.640178e-001 8.833044e-001 4.714578e-001 1.349832e+000 1.850308e+000 2.005939e+000 8.292701e-001 1.227107e+000 1.052769e+000 6.441379e-001 6.496200e-001 5.713387e-002 1.115959e-001 6.301718e-002 1.366995e-001 9.028077e-002 2.221517e-001 2.409253e-001 2.476316e-001 1.889763e-001 1.757722e-001 1.568384e-001 1.243172e-001 8.215490e-002
<GCONST> 7.876770e+001
<STATE> 4
<MEAN> 39
 1.098334e+000 -1.644044e+000 2.361182e+000 -8.436880e-001 1.066028e+000 -7.255650e-001 6.070704e-001 -3.876786e+000 4.550823e-001 1.232177e+000 -6.034328e+000 -2.961733e+000 5.195794e+001 -6.988581e-002 1.808699e-001 6.164712e-004 2.300917e-001 6.733999e-002 3.188744e-001 -2.122049e-002 -2.792756e-001 -8.367216e-002 1.516455e-001 2.321077e-001 -8.156490e-002 -2.832657e-001 -1.145805e-002 -7.248867e-002 -4.207036e-003 -7.766279e-002 -1.835715e-002 -5.350642e-002 5.364455e-002 9.010583e-002 7.205665e-003 -1.539834e-002 -6.324456e-002 3.318632e-003 7.912227e-002
<VARIANCE> 39
 2.336145e+001 1.594903e+001 1.324731e+001 2.454714e+001 1.297725e+001 3.661162e+001 3.413208e+001 2.531365e+001 2.239412e+001 1.953198e+001 4.296603e+001 3.749381e+001 4.810290e+001 3.217176e-001 8.411701e-001 5.389016e-001 8.841242e-001 8.460949e-001 1.634759e+000 1.620173e+000 2.169918e+000 1.431939e+000 1.413559e+000 1.732451e+000 1.186391e+000 5.308238e-001 5.012342e-002 1.320111e-001 8.111671e-002 1.612513e-001 1.614640e-001 2.783160e-001 3.382640e-001 3.667549e-001 2.568129e-001 2.619269e-001 3.092964e-001 1.960577e-001 8.659032e-002
<GCONST> 9.147872e+001
<TRANSP> 5
 0.000000e+000 1.000000e+000 0.000000e+000 0.000000e+000 0.000000e+000
 0.000000e+000 7.201902e-001 2.798098e-001 0.000000e+000 0.000000e+000
 0.000000e+000 0.000000e+000 8.843028e-001 1.156973e-001 0.000000e+000
 0.000000e+000 0.000000e+000 0.000000e+000 8.763818e-001 1.236183e-001
 0.000000e+000 0.000000e+000 0.000000e+000 0.000000e+000 0.000000e+000
<ENDHMM>
~h "ey"
<BEGINHMM>
<NUMSTATES> 5
<STATE> 2
<MEAN> 39
 -1.096408e+000 -2.005808e+000 -9.134927e-001 -2.554586e+000 -4.426997e-001 1.199709e+000 4.140326e+000 -3.589048e+000 2.950531e+000 2.556512e+000 -2.407964e+000 -1.676099e+000 5.047548e+001 -1.860767e-001 -8.781902e-001 -4.890956e-001 2.825280e-002 7.150825e-001 -1.840765e-001 5.548491e-001 6.928437e-001 2.667409e-001 -6.752179e-001 -8.146765e-001 -5.201212e-001 7.005721e-001 1.984179e-001 -1.214741e-001 8.880734e-003 -2.077498e-001 3.976888e-002 -2.218066e-001 -9.500270e-002 -1.446318e-002 -2.825958e-001 -2.512546e-001 -2.272829e-001 -1.054257e-001 4.118554e-001
<VARIANCE> 39
 1.913292e+001 1.644238e+001 3.050634e+001 3.831760e+001 2.670583e+001 3.266146e+001 2.742636e+001 3.655038e+001 3.268965e+001 3.624817e+001 4.149049e+001 3.971860e+001 3.765482e+001 1.699221e+000 1.689764e+000 2.855327e+000 3.678717e+000 2.165349e+000 3.541905e+000 2.454536e+000 3.940800e+000 4.217048e+000 4.306958e+000 2.715009e+000 3.205534e+000 5.055072e+000 2.516198e-001 2.863798e-001 5.250415e-001 4.312410e-001 4.047355e-001 4.536413e-001 4.244041e-001 7.017949e-001 7.084357e-001 7.184781e-001 4.650297e-001 5.792730e-001 4.822966e-001
<GCONST> 1.209454e+002
<STATE> 3
<MEAN> 39
 1.555096e+000 -9.125795e+000 -4.572591e+000 -6.753499e+000 3.461591e+000 -4.505178e+000 4.884700e+000 -4.266084e-001 4.626187e-001 -4.034233e+000 -9.404690e+000 -6.746964e+000 6.260039e+001 7.672952e-001 -1.389919e+000 -1.131389e-001 -1.036743e+000 1.221357e-001 -1.184003e+000 -1.223068e-001 3.768460e-001 -7.532936e-001 -9.385406e-001 -9.981552e-001 -6.822812e-001 2.456156e+000 -1.552387e-001 2.770295e-001 2.944565e-001 1.871431e-001 -2.284610e-001 2.749555e-001 5.927679e-002 -1.724509e-001 1.005577e-001 2.694716e-001 4.265294e-001 3.620607e-001 -4.998717e-001
<VARIANCE> 39
 1.422033e+001 2.681210e+001 2.615026e+001 2.087655e+001 3.128347e+001 4.721930e+001 2.605122e+001 2.542191e+001 2.752875e+001 2.243400e+001 2.072718e+001 3.508282e+001 3.729277e+001 1.448927e+000 1.921472e+000 2.272487e+000 1.946213e+000 2.164665e+000 3.613221e+000 2.056798e+000 2.572165e+000 1.869659e+000 2.562647e+000 2.592109e+000 2.193496e+000 3.432122e+000 2.259387e-001 2.623273e-001 3.372678e-001 2.901362e-001 3.597270e-001 4.938820e-001 3.926809e-001 4.429124e-001 3.342718e-001 4.742218e-001 3.543221e-001 3.437177e-001 4.350942e-001
<GCONST> 1.117154e+002
<STATE> 4
<MEAN> 39
 2.966954e+000 -1.170599e+001 -3.844055e+000 -8.558981e+000 1.603415e+000 -7.375182e+000 7.121174e+000 -4.258078e-001 -8.755202e-001 -8.787513e+000 -1.034276e+001 -5.557703e+000 6.779543e+001 1.037564e-001 4.289514e-001 4.135487e-001 7.754491e-002 -3.695090e-001 -4.695921e-001 -3.190159e-002 9.309287e-002 -1.114219e-002 7.821219e-002 -7.569729e-002 4.412918e-001 -1.405100e-001 -6.095001e-002 2.004355e-001 6.967340e-002 1.256597e-001 2.283695e-002 6.283980e-002 -9.595684e-002 -1.036119e-002 3.591364e-002 1.362265e-001 7.980356e-002 4.134096e-002 -2.358665e-001
<VARIANCE> 39
 5.878693e+000 1.611429e+001 1.476593e+001 1.690561e+001 1.796809e+001 2.623489e+001 1.366801e+001 1.724845e+001 1.441057e+001 1.902353e+001 1.332677e+001 1.878123e+001 1.442534e+001 3.234859e-001 8.920466e-001 6.512833e-001 6.427957e-001 7.300378e-001 8.482428e-001 1.145293e+000 8.228801e-001 7.321276e-001 1.341534e+000 7.635224e-001 6.868572e-001 7.104068e-001 9.645034e-002 8.142002e-002 9.233055e-002 1.440962e-001 1.345462e-001 2.386495e-001 1.839679e-001 1.657703e-001 1.254380e-001 1.707017e-001 2.067063e-001 1.357240e-001 9.568394e-002
<GCONST> 7.765517e+001
<TRANSP> 5
 0.000000e+000 1.000000e+000 0.000000e+000 0.000000e+000 0.000000e+000
 0.000000e+000 8.446011e-001 1.553989e-001 0.000000e+000 0.000000e+000
 0.000000e+000 0.000000e+000 6.429710e-001 3.570289e-001 0.000000e+000
 0.000000e+000 0.000000e+000 0.000000e+000 9.119813e-001 8.801865e-002
 0.000000e+000 0.000000e+000 0.000000e+000 0.000000e+000 0.000000e+000
<ENDHMM>
~h "ia"
<BEGINHMM>
<NUMSTATES> 5
<STATE> 2
<MEAN> 39
 -1.534289e+000 3.358411e+000 3.862398e+000 -1.577653e+000 4.492348e-001 -9.814681e+000 1.457348e-001 -2.318436e+000 -1.779829e+000 -6.337035e-001 -1.641626e+000 -3.066064e-001 5.970916e+001 6.773724e-001 -6.128175e-001 6.844741e-001 -4.523855e-001 -6.834453e-001 -1.286714e+000 -2.983330e-001 2.645653e-001 -4.382596e-001 1.919885e-003 -1.570627e-001 1.123034e-001 5.518065e-001 1.436150e-001 -2.335049e-001 1.166919e-001 -1.960121e-001 -1.199763e-001 -9.408413e-003 4.821049e-003 3.054820e-002 -7.728363e-002 6.799798e-002 -2.326487e-002 6.872505e-002 9.556697e-002
<VARIANCE> 39
 6.154101e+001 3.205365e+001 4.459787e+001 4.225013e+001 6.110305e+001 6.252746e+001 3.285849e+001 2.958607e+001 4.106656e+001 2.378531e+001 1.988376e+001 2.171637e+001 1.860646e+001 3.822500e+000 2.557865e+000 2.729275e+000 2.526035e+000 3.741226e+000 4.740933e+000 2.768997e+000 2.916236e+000 3.146680e+000 1.996797e+000 1.781170e+000 2.347670e+000 1.161329e+000 4.611776e-001 2.888130e-001 3.312547e-001 3.388025e-001 4.198152e-001 8.079431e-001 5.034599e-001 5.037674e-001 5.309733e-001 3.886503e-001 3.548792e-001 3.892366e-001 1.425520e-001
<GCONST> 1.182404e+002
<STATE> 3
<MEAN> 39
 3.670820e+000 -4.859949e+000 1.300212e+001 -8.702902e+000 -7.584726e+000 -1.895258e+001 -1.196757e+000 4.373342e-001 -5.430134e+000 -4.788487e-001 -3.832079e+000 3.105562e+000 6.582428e+001 3.437916e-001 -9.636585e-001 -4.348523e-001 -6.467907e-001 -6.512144e-001 3.924056e-001 1.634960e-001 3.538851e-001 7.035609e-001 1.161284e-001 -1.505861e-001 -1.651642e-002 5.002714e-001 -9.021600e-002 1.778354e-001 -4.428606e-001 2.188482e-001 2.049074e-001 3.705714e-001 -8.164181e-002 -1.008044e-001 2.734173e-001 -7.578156e-003 -4.250947e-002 -3.335164e-001 -1.131710e-001
<VARIANCE> 39
 5.939182e+000 1.150552e+001 3.221437e+001 1.453756e+001 1.485131e+001 2.018555e+001 1.618997e+001 1.458940e+001 2.730829e+001 1.241736e+001 1.255227e+001 1.953818e+001 1.164176e+001 4.017232e-001 8.266011e-001 2.363461e+000 1.183848e+000 1.536359e+000 1.737149e+000 1.284747e+000 1.185538e+000 1.790425e+000 9.606004e-001 1.004959e+000 2.188039e+000 2.903952e-001 1.105031e-001 1.080494e-001 1.512313e-001 1.537765e-001 2.020040e-001 2.788505e-001 2.298998e-001 2.610086e-001 2.363748e-001 1.724955e-001 1.967433e-001 2.271390e-001 3.126591e-002
<GCONST> 8.477231e+001
<STATE> 4
<MEAN> 39
 8.561469e+000 -7.975887e+000 -4.967305e+000 -4.818765e+000 -1.047459e+001 -5.734930e+000 -1.181740e-001 -4.644345e+000 3.282608e+000 3.450206e-001 -1.950534e+000 -7.776279e+000 6.609019e+001 3.850178e-001 1.834233e-001 -1.190219e+000 1.552712e-001 -2.567089e-001 1.214269e+000 3.274223e-001 -1.023274e+000 -2.057477e-001 2.209665e-001 4.605845e-001 -4.531881e-001 -2.302757e-001 -2.795668e-002 1.204438e-001 1.944910e-001 -1.266723e-001 -4.790938e-003 -5.457783e-002 8.510703e-002 -5.720048e-002 -1.755501e-001 -1.659355e-002 1.532192e-002 2.055879e-001 -5.892046e-002
<VARIANCE> 39
 1.084384e+001 1.088552e+001 5.129820e+001 2.775077e+001 2.233113e+001 4.818407e+001 2.377212e+001 4.917786e+001 3.379816e+001 2.106958e+001 4.281960e+001 4.066655e+001 1.143882e+001 3.005085e-001 5.754338e-001 1.521054e+000 1.663718e+000 1.308437e+000 1.459047e+000 1.405039e+000 1.646764e+000 2.457486e+000 1.003360e+000 1.898257e+000 2.742334e+000 1.569257e-001 3.725354e-002 5.000613e-002 1.109235e-001 2.133925e-001 2.287767e-001 2.215221e-001 2.414076e-001 2.842352e-001 2.425726e-001 1.660812e-001 2.787343e-001 2.831080e-001 1.610155e-002
<GCONST> 9.001048e+001
<TRANSP> 5
 0.000000e+000 1.000000e+000 0.000000e+000 0.000000e+000 0.000000e+000
 0.000000e+000 8.456596e-001 1.543404e-001 0.000000e+000 0.000000e+000
 0.000000e+000 0.000000e+000 8.544404e-001 1.455596e-001 0.000000e+000
 0.000000e+000 0.000000e+000 0.000000e+000 9.097654e-001 9.023453e-002
 0.000000e+000 0.000000e+000 0.000000e+000 0.000000e+000 0.000000e+000
<ENDHMM>
~h "ih"
<BEGINHMM>
<NUMSTATES> 5
<STATE> 2
<MEAN> 39
 -1.137725e+001 1.517839e+000 -1.514188e+000 -8.626425e-001 4.606918e+000 -1.074347e+000 4.659678e+000 2.946096e+000 2.590612e+000 -1.470552e-001 -4.382828e-001 1.212758e+000 6.001355e+001 1.359839e+000 -4.557706e-001 8.438874e-001 -1.218681e-001 -5.119884e-001 -1.411641e+000 -7.980129e-001 -1.200100e-001 1.225970e-001 1.236457e-001 -6.724244e-001 -3.927854e-001 1.555380e-001 6.949943e-001 -1.669766e-001 1.472752e-001 -2.851392e-001 -3.322780e-001 -4.888009e-001 -3.762642e-001 -1.455287e-001 -1.942293e-001 1.207148e-001 -2.372202e-001 -1.316725e-001 2.613177e-001
<VARIANCE> 39
 4.144852e+001 1.821035e+001 1.434200e+001 2.777765e+001 2.106927e+001 3.776721e+001 2.018516e+001 1.862531e+001 1.790671e+001 2.360442e+001 1.775955e+001 1.692478e+001 1.482431e+001 9.035328e+000 1.049032e+000 2.098057e+000 4.359121e+000 1.856763e+000 3.372899e+000 2.840569e+000 1.736637e+000 2.373794e+000 2.118813e+000 3.006246e+000 2.039335e+000 1.054955e+000 6.478736e-001 2.113985e-001 3.115506e-001 5.139493e-001 3.343059e-001 5.324070e-001 4.999527e-001 2.984347e-001 4.058902e-001 4.700311e-001 4.192051e-001 3.765076e-001 2.038219e-001
<GCONST> 1.101817e+002
<STATE> 3
<MEAN> 39
 -3.949743e-001 -1.013450e+000 2.160938e+000 -5.198818e+000 -9.087291e-002 -1.311576e+001 -6.155412e-001 4.238331e-001 8.812980e-001 5.467765e-001 -5.132618e+000 -1.737666e+000 6.227897e+001 1.872062e+000 -1.398303e+000 7.273871e-001 -1.013006e+000 -1.737728e+000 -1.611350e+000 -7.143232e-001 9.681283e-004 -3.991866e-001 3.377438e-001 -3.537241e-001 9.226828e-002 1.225012e+000 -7.413157e-001 -2.446418e-002 -1.897155e-001 1.056749e-001 -1.756881e-002 4.857352e-001 4.366656e-001 2.028373e-001 3.263022e-002 -1.550681e-001 4.634174e-001 2.399665e-001 -4.037650e-002
<VARIANCE> 39
 5.236281e+001 2.062066e+001 2.866257e+001 3.359707e+001 3.713451e+001 6.096492e+001 1.718062e+001 2.324739e+001 2.069481e+001 1.894777e+001 2.312887e+001 1.635059e+001 2.335242e+001 7.202435e+000 2.159672e+000 3.216568e+000 3.327672e+000 3.542029e+000 6.317508e+000 2.825160e+000 3.019388e+000 2.606255e+000 2.564245e+000 2.950992e+000 2.314718e+000 1.906910e+000 8.879837e-001 3.199725e-001 4.385788e-001 5.204226e-001 4.466259e-001 7.749760e-001 4.482931e-001 5.153908e-001 4.478571e-001 4.448787e-001 5.224713e-001 4.235373e-001 2.453464e-001
<GCONST> 1.193489e+002
<STATE> 4
<MEAN> 39
 -2.814917e-001 -2.966674e+000 2.414392e+000 -4.273301e+000 -3.336475e+000 -1.220431e+001 9.870964e-001 -1.132772e-001 -2.291728e+000 7.245004e-002 -1.432546e+000 -1.184048e+000 6.258888e+001 -5.892485e-001 2.037699e-001 -2.702323e-001 4.325697e-001 5.305589e-001 4.908012e-001 1.492238e-001 -9.012273e-002 1.871469e-001 1.103388e-001 2.194466e-001 3.379446e-003 -3.151593e-001 -6.520929e-002 6.671674e-002 -1.378645e-002 3.705060e-002 7.454190e-002 4.249353e-002 3.712975e-004 9.887676e-003 3.621531e-002 2.210175e-002 -1.249339e-002 -1.454660e-003 -3.224303e-002
<VARIANCE> 39
 4.364055e+001 2.311483e+001 5.955512e+001 4.363759e+001 8.780308e+001 6.765717e+001 1.800601e+001 3.389519e+001 5.115044e+001 2.448794e+001 2.250465e+001 2.346852e+001 3.661554e+001 1.961045e+000 1.253418e+000 3.161841e+000 1.955195e+000 3.552876e+000 3.449887e+000 1.468785e+000 2.191483e+000 4.725492e+000 1.578279e+000 1.808117e+000 1.397978e+000 1.442971e+000 2.362847e-001 2.032164e-001 5.198305e-001 3.223138e-001 4.746637e-001 5.508866e-001 2.702301e-001 3.673674e-001 7.308691e-001 2.836222e-001 3.354102e-001 2.588878e-001 2.124455e-001
<GCONST> 1.142218e+002
<TRANSP> 5
 0.000000e+000 1.000000e+000 0.000000e+000 0.000000e+000 0.000000e+000
 0.000000e+000 6.878070e-001 3.121930e-001 0.000000e+000 0.000000e+000
 0.000000e+000 0.000000e+000 7.047490e-001 2.952509e-001 0.000000e+000
 0.000000e+000 0.000000e+000 0.000000e+000 9.412775e-001 5.872251e-002
 0.000000e+000 0.000000e+000 0.000000e+000 0.000000e+000 0.000000e+000
<ENDHMM>
~h "iy"
<BEGINHMM>
<NUMSTATES> 5
<STATE> 2
<MEAN> 39
 2.619264e+000 -4.557854e+000 1.722674e+001 -1.073719e+001 -8.551517e+000 -1.808999e+001 -4.103137e+000 -1.001654e+000 -1.064526e+001 -1.004626e+000 -3.699954e+000 4.478977e+000 6.527465e+001 -3.963032e-001 3.921839e-001 8.995734e-001 -5.467681e-001 -2.360309e-001 -1.231878e-001 2.718782e-001 -5.309014e-001 -8.831387e-001 -1.906902e-001 1.580393e-001 6.350392e-001 -3.412361e-002 5.200764e-002 8.933236e-002 -2.867582e-001 1.692212e-001 1.437117e-001 2.613055e-001 -7.002214e-002 -2.272645e-001 1.830054e-001 9.071494e-002 -3.059885e-002 -2.157689e-001 -1.435351e-001
<VARIANCE> 39
 8.334837e+000 1.804571e+001 3.253382e+001 1.725345e+001 2.273075e+001 1.836445e+001 2.947982e+001 2.352942e+001 4.731708e+001 1.493248e+001 1.320794e+001 1.689193e+001 8.373533e+000 6.008654e-001 8.827674e-001 1.520482e+000 7.892264e-001 2.042749e+000 1.373198e+000 1.475357e+000 1.584626e+000 1.862271e+000 1.108146e+000 1.171498e+000 1.578877e+000 3.222198e-001 5.730868e-002 1.038904e-001 1.803418e-001 1.196964e-001 2.552022e-001 2.193423e-001 2.582469e-001 3.373485e-001 2.645632e-001 2.367927e-001 2.091921e-001 2.313116e-001 3.983165e-002
<GCONST> 8.802145e+001
<STATE> 3
<MEAN> 39
 1.686463e+000 -1.217488e+000 1.711854e+001 -1.003104e+001 -7.333798e+000 -1.551216e+001 -2.936797e+000 -5.802442e+000 -1.046775e+001 -2.520210e+000 -2.691131e+000 4.486605e+000 6.240871e+001 -7.966007e-002 6.991640e-001 -1.019334e+000 7.952492e-001 6.486677e-001 9.382973e-001 6.715573e-002 -4.070881e-001 8.151286e-001 -1.822417e-002 6.043134e-002 -7.208853e-001 -5.886849e-001 -5.310646e-002 1.629467e-002 -3.121735e-001 2.280806e-001 1.172468e-001 2.692966e-001 4.330484e-002 1.074845e-001 2.828301e-001 1.167390e-001 -3.882168e-003 -2.039865e-001 -6.315419e-002
<VARIANCE> 39
 8.277127e+000 1.325296e+001 3.306270e+001 2.578330e+001 1.709782e+001 2.745745e+001 1.834991e+001 2.233426e+001 4.271078e+001 1.679411e+001 1.242052e+001 1.801200e+001 1.207543e+001 7.390602e-001 6.848502e-001 2.061757e+000 2.162716e+000 1.485023e+000 2.118366e+000 1.319361e+000 1.706278e+000 2.223150e+000 1.435286e+000 1.084987e+000 1.499077e+000 4.208511e-001 1.450158e-001 1.230035e-001 1.935001e-001 3.120692e-001 2.290366e-001 3.593142e-001 2.222713e-001 3.046758e-001 3.477238e-001 2.232045e-001 1.935296e-001 2.327435e-001 5.448457e-002
<GCONST> 9.273093e+001
<STATE> 4
<MEAN> 39
 -5.440124e-001 3.419931e+000 1.324429e+001 -4.918497e+000 -3.938922e+000 -4.711888e+000 -1.296158e+000 -7.435889e+000 -5.855618e+000 -3.026514e+000 -2.519558e+000 1.598040e+000 5.536007e+001 -1.417480e-001 5.966920e-002 -5.309350e-001 5.133210e-001 4.264415e-001 8.079265e-001 2.358188e-001 6.101205e-002 4.767723e-001 2.154281e-001 -6.423616e-002 -3.351870e-001 -4.827468e-001 -2.584711e-002 -8.911102e-002 -2.703564e-002 -2.106341e-002 -7.747680e-003 -7.950074e-003 1.775510e-002 4.777849e-002 1.788175e-002 4.400418e-002 1.098066e-003 4.379882e-002 1.466925e-002
<VARIANCE> 39
 9.483819e+000 1.472391e+001 4.720410e+001 3.483597e+001 2.711094e+001 5.023486e+001 2.681288e+001 1.844042e+001 2.986113e+001 2.287572e+001 1.440101e+001 1.658423e+001 3.388567e+001 5.071222e-001 7.768090e-001 1.176377e+000 1.218134e+000 1.272165e+000 1.804119e+000 1.068619e+000 1.278691e+000 1.653034e+000 1.368165e+000 1.154758e+000 1.269102e+000 3.626926e-001 6.610266e-002 9.473190e-002 1.439952e-001 1.819586e-001 2.012238e-001 2.710843e-001 1.822523e-001 2.163895e-001 2.354508e-001 2.239939e-001 2.138654e-001 2.268480e-001 3.983708e-002
<GCONST> 8.967397e+001
<TRANSP> 5
 0.000000e+000 1.000000e+000 0.000000e+000 0.000000e+000 0.000000e+000
 0.000000e+000 8.632375e-001 1.367625e-001 0.000000e+000 0.000000e+000
 0.000000e+000 0.000000e+000 7.574137e-001 2.425863e-001 0.000000e+000
 0.000000e+000 0.000000e+000 0.000000e+000 8.889422e-001 1.110578e-001
 0.000000e+000 0.000000e+000 0.000000e+000 0.000000e+000 0.000000e+000
<ENDHMM>
~h "jh"
<BEGINHMM>
<NUMSTATES> 5
<STATE> 2
<MEAN> 39
 -6.758450e+000 -4.159646e+000 -1.208813e+000 -4.478405e-001 3.575394e+000 4.225013e+000 2.724821e+000 2.559108e+000 3.696518e+000 4.469111e+000 -3.993093e-001 8.479477e-001 5.835034e+001 1.381286e-001 -2.305008e-002 6.595063e-002 -5.266699e-001 -3.667815e-001 2.468688e-001 -5.292109e-001 2.575847e-001 4.045466e-001 5.090296e-001 1.392834e-001 -1.248350e-002 7.561012e-001 3.524582e-001 1.935432e-001 1.036660e-001 -3.809825e-001 -8.789778e-002 -9.341636e-002 -1.752637e-001 -3.183852e-001 -2.873439e-001 6.113458e-002 -9.346759e-002 -1.319692e-001 1.786416e-002
<VARIANCE> 39
 3.269044e+001 6.173401e+000 1.646852e+001 5.838362e+001 1.665752e+001 1.297336e+001 1.277430e+001 2.402701e+001 2.896564e+001 1.516449e+001 1.542244e+001 1.217648e+001 4.969774e+001 4.503050e+000 8.325001e-001 1.566504e+000 1.963393e+000 1.067198e+000 1.742617e+000 1.031052e+000 1.833858e+000 2.449303e+000 1.461811e+000 1.864655e+000 1.480090e+000 1.448114e+000 4.443410e-001 5.900050e-002 2.317260e-001 6.497579e-001 2.496410e-001 2.145567e-001 2.906142e-001 2.491008e-001 6.142251e-001 3.134682e-001 2.989016e-001 2.235407e-001 2.016378e-001
<GCONST> 9.950322e+001
<STATE> 3
<MEAN> 39
 7.567830e+000 3.699352e-001 -3.238478e+000 -2.049108e+001 1.136520e+000 4.194488e+000 -4.956437e+000 -1.251532e+000 -6.729244e+000 5.444232e+000 -2.511315e-001 -8.925580e+000 6.605750e+001 6.350246e-001 1.653629e-001 1.848793e-001 -8.195425e-001 -5.123599e-001 -3.501703e-001 -4.977680e-001 -1.653394e-001 -1.200669e+000 5.062998e-002 -1.130217e-001 -6.566973e-001 -2.576903e-002 -3.114498e-001 -4.113660e-002 1.331273e-001 4.738922e-001 1.569395e-002 -1.518331e-001 2.408806e-001 1.047954e-002 1.503362e-001 -1.953932e-001 -1.859051e-001 1.716212e-001 -6.505138e-002
<VARIANCE> 39
 9.243111e+000 3.990909e+000 1.291233e+001 6.124395e+001 1.136835e+001 7.277862e+000 1.773983e+001 2.084585e+001 4.302291e+001 2.969702e+001 3.987023e+001 3.551880e+001 9.086354e+000 2.873528e+000 3.074662e-001 8.355762e-001 7.903725e+000 8.054832e-001 6.330169e-001 2.474973e+000 1.085441e+000 3.116136e+000 2.262486e+000 1.849070e+000 1.604464e+000 6.979905e-001 3.526507e-001 7.743019e-002 1.181954e-001 5.291642e-001 1.420249e-001 1.029939e-001 2.448573e-001 2.692785e-001 3.885674e-001 3.398805e-001 2.934667e-001 2.085674e-001 6.812791e-002
<GCONST> 9.284075e+001
<STATE> 4
<MEAN> 39
 -1.509484e+000 -2.854827e-001 6.683014e+000 -5.150873e+000 -4.171482e+000 -2.395951e+000 -1.310437e+000 -6.940969e+000 -4.312364e+000 4.677789e+000 -6.806809e+000 -6.714765e-001 6.012239e+001 -7.686239e-002 -1.028723e-001 6.136101e-001 8.165608e-001 -2.488271e-001 -6.233493e-001 1.028192e-002 3.960581e-002 2.917129e-002 -2.785564e-001 2.154712e-001 4.192891e-001 2.963699e-002 1.430228e-001 -1.996232e-002 -9.339172e-002 -1.497395e-001 5.813030e-002 3.683270e-002 -6.938487e-002 -1.627701e-002 -8.019898e-002 4.177646e-002 7.841056e-002 -3.508019e-002 -4.217787e-003
<VARIANCE> 39
 9.166370e+001 1.426634e+001 2.408015e+001 5.722237e+001 3.203558e+001 6.654334e+001 5.064750e+001 4.914853e+001 7.964163e+001 3.149968e+001 8.826711e+001 3.377788e+001 3.319576e+001 7.732407e+000 1.659966e+000 1.994968e+000 4.725968e+000 2.763646e+000 6.074627e+000 5.159544e+000 3.816101e+000 4.640982e+000 3.225793e+000 4.769939e+000 2.381793e+000 3.777516e+000 9.837995e-001 3.207559e-001 3.327680e-001 9.610470e-001 5.145410e-001 8.730496e-001 9.749447e-001 6.206772e-001 5.208520e-001 6.411429e-001 7.089233e-001 4.896577e-001 6.073717e-001
<GCONST> 1.317087e+002
<TRANSP> 5
 0.000000e+000 1.000000e+000 0.000000e+000 0.000000e+000 0.000000e+000
 0.000000e+000 7.959702e-001 2.040298e-001 0.000000e+000 0.000000e+000
 0.000000e+000 0.000000e+000 8.657436e-001 1.342564e-001 0.000000e+000
 0.000000e+000 0.000000e+000 0.000000e+000 9.563075e-001 4.369247e-002
 0.000000e+000 0.000000e+000 0.000000e+000 0.000000e+000 0.000000e+000
<ENDHMM>
~h "ng"
<BEGINHMM>
<NUMSTATES> 5
<STATE> 2
<MEAN> 39
 6.158198e+000 -4.893447e+000 -1.157240e+001 -1.319593e+001 9.045813e+000 1.838641e+000 1.881559e+000 -1.154626e+001 -6.610093e+000 -2.031524e+000 -2.538144e+000 -9.171455e+000 6.581509e+001 1.322914e-001 6.514490e-001 -1.504934e-001 3.333311e-001 -2.133496e-001 6.498154e-001 6.499295e-001 -4.163834e-001 -8.928943e-001 2.907228e-001 5.164911e-001 1.291429e-001 -6.249564e-001 -4.712810e-002 8.949033e-003 2.223004e-001 -2.698486e-002 -1.530212e-001 -1.097957e-001 3.960734e-002 1.621598e-001 4.293931e-002 2.833438e-002 -3.127301e-001 1.238447e-001 -1.633401e-002
<VARIANCE> 39
 4.245980e+000 1.368108e+001 1.030965e+001 1.435016e+001 9.544894e+000 1.672438e+001 2.135378e+001 8.311113e+000 3.074577e+001 1.793377e+001 2.645335e+001 1.412094e+001 1.081212e+001 2.640627e-001 3.071780e-001 9.806116e-001 4.813361e-001 8.040419e-001 6.387941e-001 1.170761e+000 1.069029e+000 1.285903e+000 9.374277e-001 2.991611e+000 1.611137e+000 2.108420e-001 3.609760e-002 4.380916e-002 8.099929e-002 6.794298e-002 1.538660e-001 7.665472e-002 1.786413e-001 1.942264e-001 2.265895e-001 1.686944e-001 2.257610e-001 2.025421e-001 2.139550e-002
<GCONST> 7.245530e+001
<STATE> 3
<MEAN> 39
 4.562346e+000 1.192006e+000 -3.954850e-001 -9.927851e+000 2.292510e+000 1.674038e+000 4.583250e+000 -1.068987e+001 -7.632997e+000 8.726873e-001 -1.313279e+001 -4.047094e+000 5.990540e+001 -1.481123e-001 3.880942e-001 1.201666e+000 5.498476e-001 -3.903861e-001 -2.400648e-001 -3.732718e-001 3.895513e-001 5.949035e-001 -5.311564e-002 -8.930977e-001 1.194919e-001 -4.358277e-001 9.324717e-003 -2.436626e-002 -7.728559e-002 1.062189e-001 1.060378e-001 2.126687e-002 -1.127126e-002 3.901228e-002 5.944369e-002 -9.254918e-003 1.761708e-001 -9.210932e-002 -2.411857e-002
<VARIANCE> 39
 4.880149e+000 6.755175e+000 3.366985e+001 1.541859e+001 1.303586e+001 1.819318e+001 2.297708e+001 8.773051e+000 1.637969e+001 1.142327e+001 2.680419e+001 1.737948e+001 6.738894e+000 2.768211e-001 3.159438e-001 9.033126e-001 6.348826e-001 8.904418e-001 1.055549e+000 1.077220e+000 9.375114e-001 1.035594e+000 8.360487e-001 1.394244e+000 1.370251e+000 2.967761e-001 4.514084e-002 6.421094e-002 1.171645e-001 8.711034e-002 1.296040e-001 1.728623e-001 2.177238e-001 1.719352e-001 2.016500e-001 1.552570e-001 1.199075e-001 2.825910e-001 4.052964e-002
<GCONST> 7.416063e+001
<STATE> 4
<MEAN> 39
 2.518426e+000 3.374312e+000 7.032617e+000 -2.178264e-001 3.657839e+000 2.659816e+000 4.298968e+000 -5.917159e+000 -1.707448e+000 1.094940e+000 -1.301756e+001 -3.213643e+000 5.337102e+001 -4.338775e-001 -3.203281e-001 -2.325762e-002 8.373338e-001 3.195851e-001 4.391687e-001 3.517974e-001 5.061533e-001 5.270566e-001 1.557593e-001 7.325012e-001 3.307542e-001 -7.251216e-001 -5.717873e-002 -1.264317e-001 -1.551587e-001 -1.914753e-001 -7.152718e-002 -2.649212e-002 2.932047e-002 -1.782587e-002 -1.256358e-002 6.044119e-002 8.986907e-002 1.146523e-001 3.839366e-002
<VARIANCE> 39
 5.176495e+000 3.804674e+000 6.186353e+000 1.910379e+001 1.268485e+001 1.286892e+001 1.362132e+001 1.752667e+001 1.345945e+001 1.928955e+001 1.375622e+001 1.941367e+001 5.052751e+000 2.738211e-001 3.649109e-001 7.802398e-001 1.834597e+000 1.085869e+000 1.143111e+000 1.636858e+000 1.667914e+000 1.456125e+000 1.675808e+000 1.073998e+000 1.488233e+000 1.280785e-001 2.885161e-002 4.902396e-002 1.073860e-001 3.105647e-001 1.833744e-001 1.897886e-001 3.262484e-001 3.405975e-001 2.748301e-001 3.506704e-001 2.346845e-001 2.977369e-001 2.050962e-002
<GCONST> 7.694434e+001
<TRANSP> 5
 0.000000e+000 1.000000e+000 0.000000e+000 0.000000e+000 0.000000e+000
 0.000000e+000 9.187343e-001 8.126567e-002 0.000000e+000 0.000000e+000
 0.000000e+000 0.000000e+000 9.180956e-001 8.190437e-002 0.000000e+000
 0.000000e+000 0.000000e+000 0.000000e+000 8.678591e-001 1.321409e-001
 0.000000e+000 0.000000e+000 0.000000e+000 0.000000e+000 0.000000e+000
<ENDHMM>
~h "ow"
<BEGINHMM>
<NUMSTATES> 5
<STATE> 2
<MEAN> 39
 -4.265085e-001 -8.987980e-002 -7.775072e-004 -3.511423e+000 3.499165e-001 3.547290e+000 4.155257e+000 -3.204544e+000 1.053363e+000 6.712011e-001 -2.409973e+000 -9.958856e-001 4.974950e+001 -1.294439e-001 -2.145073e-002 6.266514e-002 1.932867e-001 1.382422e-001 4.754698e-003 6.033298e-002 3.178975e-002 2.484557e-003 3.546484e-002 -9.890391e-003 7.220221e-002 -1.623084e-001 -1.448732e-003 -2.754567e-003 2.296701e-003 2.922320e-002 -2.000142e-003 -1.913769e-002 5.567894e-003 -1.887534e-003 -8.472156e-003 -5.565853e-003 5.008135e-003 -6.698506e-003 6.659332e-003
<VARIANCE> 39
 3.005843e+001 1.983958e+001 1.569672e+001 8.704919e+001 3.279295e+001 2.035244e+001 2.240505e+001 2.553133e+001 2.468768e+001 2.915686e+001 2.859622e+001 2.332795e+001 3.196212e+001 2.693588e-001 4.792570e-001 6.359120e-001 1.146615e+000 9.989875e-001 1.189916e+000 1.350074e+000 1.672373e+000 1.468024e+000 1.501979e+000 1.395494e+000 1.231012e+000 1.813209e-001 3.546133e-002 6.618586e-002 1.066971e-001 1.810243e-001 1.630831e-001 2.128331e-001 2.632463e-001 3.085206e-001 2.874783e-001 2.834753e-001 2.708480e-001 2.304849e-001 2.130341e-002
<GCONST> 8.793275e+001
<STATE> 3
<MEAN> 39
 5.326342e+000 2.510591e+000 -3.477606e+000 -1.591286e+001 -3.228284e+000 4.834685e+000 3.073288e-001 -3.223903e+000 -2.393003e+000 -1.606670e+000 -4.641454e-003 -4.470868e+000 5.856775e+001 -4.063863e-002 2.514795e-001 1.817179e-001 6.457909e-002 1.335329e-001 -1.839904e-001 1.116676e-001 3.093791e-001 -2.365005e-001 -4.075377e-001 2.366750e-002 -8.207989e-002 -2.181463e-001 1.545042e-002 -1.030864e-002 7.965762e-003 1.423008e-001 3.432371e-002 -8.735856e-002 2.632494e-002 -1.707214e-002 1.593191e-002 5.474937e-002 -5.088070e-002 -2.366971e-002 -1.802008e-002
<VARIANCE> 39
 2.976307e+001 1.694810e+001 2.841206e+001 1.364248e+002 3.936829e+001 2.672465e+001 3.091108e+001 3.080668e+001 2.919861e+001 5.236640e+001 3.448756e+001 3.341704e+001 6.006235e+001 3.094916e-001 4.405418e-001 5.988724e-001 1.246758e+000 1.194025e+000 8.477116e-001 1.203263e+000 1.197557e+000 1.305474e+000 1.525954e+000 1.184761e+000 1.135962e+000 3.062047e-001 7.428668e-002 8.405989e-002 1.144037e-001 2.069653e-001 1.356280e-001 1.516110e-001 1.949227e-001 2.250235e-001 2.469417e-001 2.603057e-001 2.541385e-001 1.810465e-001 5.519262e-002
<GCONST> 9.180287e+001
<STATE> 4
<MEAN> 39
 6.456618e+000 3.135241e+000 -3.716191e+000 -1.690635e+001 -3.510255e+000 4.872815e+000 3.031131e-001 -2.762700e+000 -3.486904e+000 -2.953063e+000 3.127816e-001 -4.538843e+000 5.854444e+001 -3.726943e-002 7.362782e-002 1.422298e-001 3.181356e-001 2.442635e-001 -1.908102e-001 9.182047e-002 1.097318e-001 -1.581435e-001 -6.286180e-003 -1.474577e-001 -1.672352e-001 -8.501580e-002 -7.069258e-002 -3.555270e-002 3.497706e-002 1.067753e-001 1.628807e-002 -4.236161e-002 4.132174e-002 -2.312764e-002 7.561769e-002 7.859833e-002 -9.414618e-002 8.847681e-003 1.728051e-002
<VARIANCE> 39
 2.676781e+001 1.426543e+001 2.569684e+001 1.228716e+002 3.453314e+001 2.862418e+001 3.048436e+001 2.324433e+001 4.780174e+001 4.941512e+001 3.097584e+001 3.049409e+001 4.583657e+001 1.105228e+000 6.516171e-001 1.170899e+000 3.722744e+000 1.870291e+000 1.258222e+000 1.626084e+000 1.474555e+000 1.804791e+000 2.218793e+000 1.909677e+000 1.577767e+000 1.179467e+000 1.570016e-001 8.636056e-002 1.823317e-001 4.218556e-001 1.912262e-001 1.958770e-001 2.767585e-001 2.725461e-001 3.151456e-001 3.298842e-001 4.323207e-001 2.480160e-001 1.362606e-001
<GCONST> 1.038874e+002
<TRANSP> 5
 0.000000e+000 1.000000e+000 0.000000e+000 0.000000e+000 0.000000e+000
 0.000000e+000 9.300432e-001 6.995680e-002 0.000000e+000 0.000000e+000
 0.000000e+000 0.000000e+000 6.549865e-001 3.450135e-001 0.000000e+000
 0.000000e+000 0.000000e+000 0.000000e+000 8.288891e-001 1.711109e-001
 0.000000e+000 0.000000e+000 0.000000e+000 0.000000e+000 0.000000e+000
<ENDHMM>
~h "th"
<BEGINHMM>
<NUMSTATES> 5
<STATE> 2
<MEAN> 39
 -6.033645e+000 2.924914e-001 8.031705e-001 -6.365194e-001 4.560195e+000 -1.895719e+000 4.217345e+000 -1.368862e-001 1.757460e+000 4.570990e-001 -9.826479e-001 -1.023612e-001 5.473839e+001 -1.437860e+000 2.438465e-001 -5.027607e-001 4.218290e-001 7.206168e-001 1.699564e-002 1.631204e-001 9.718721e-001 6.066475e-001 4.200198e-002 6.727254e-001 2.795208e-001 4.153786e-001 1.568658e-002 -5.856903e-002 -9.947979e-003 -6.831536e-002 -1.051401e-001 -6.585083e-002 -2.920681e-003 -3.068095e-002 -1.310201e-002 2.395391e-002 -4.417198e-002 3.128532e-002 5.921604e-002
<VARIANCE> 39
 3.485226e+001 2.050634e+001 1.808856e+001 2.227007e+001 2.894178e+001 3.063288e+001 2.802088e+001 3.377132e+001 2.891688e+001 2.416605e+001 2.762762e+001 2.204229e+001 4.204274e+001 3.170374e+000 1.316432e+000 1.563656e+000 2.523892e+000 2.354974e+000 3.121864e+000 2.574521e+000 2.725070e+000 2.339731e+000 1.950921e+000 2.182923e+000 2.170564e+000 1.461666e+000 3.772939e-001 2.138753e-001 2.313875e-001 3.676228e-001 4.093861e-001 5.052557e-001 4.965205e-001 4.373222e-001 3.758306e-001 3.415806e-001 3.478622e-001 4.491617e-001 1.416869e-001
<GCONST> 1.108379e+002
<STATE> 3
<MEAN> 39
 -1.488076e+001 3.832398e+000 -2.553638e+000 -2.193745e-001 8.655927e+000 -4.159722e+000 4.551348e+000 5.071442e+000 4.734876e+000 -1.477199e-001 9.386594e-001 7.815939e-001 6.124117e+001 3.513317e-001 -6.574199e-003 2.049001e-001 -2.305495e-001 -1.087763e-002 -1.371915e-001 -2.750800e-001 7.178213e-002 8.949270e-002 -9.257894e-002 -2.389248e-001 -2.174906e-001 7.105188e-002 4.367647e-001 -8.023164e-002 1.498426e-001 -8.527312e-002 -1.703752e-001 -5.724726e-002 -2.018467e-001 -1.962006e-001 -7.429778e-002 3.591901e-002 -1.218440e-001 -1.337527e-001 -3.525286e-002
<VARIANCE> 39
 9.775679e+000 1.099318e+001 1.233062e+001 1.996578e+001 2.720674e+001 1.570294e+001 1.919676e+001 2.119664e+001 1.671549e+001 1.995113e+001 1.581880e+001 1.620097e+001 8.582488e+000 2.247485e+000 8.235090e-001 1.191063e+000 1.493189e+000 1.498299e+000 1.548941e+000 1.841694e+000 1.808667e+000 1.611045e+000 1.787913e+000 1.616734e+000 1.611975e+000 3.206655e-001 2.812563e-001 1.540129e-001 2.028028e-001 2.928171e-001 3.430899e-001 3.058815e-001 3.488275e-001 4.585437e-001 3.153654e-001 3.836713e-001 3.367888e-001 3.102598e-001 5.580320e-002
<GCONST> 9.424032e+001
<STATE> 4
<MEAN> 39
 7.019677e-001 4.292353e-001 3.289604e+000 -4.205606e+000 2.622947e+000 -7.077945e+000 -3.937924e+000 -3.716720e-001 4.050585e+000 1.625401e+000 -4.155703e+000 -4.423291e+000 6.153000e+001 4.015665e+000 -1.766034e+000 8.698997e-001 2.455542e-001 -3.185686e+000 -6.985180e-001 -1.650589e+000 -2.698451e+000 -6.985457e-001 1.463421e+000 -8.572145e-001 -1.113425e+000 2.925360e-001 -4.027455e-001 -2.690997e-001 -4.181888e-001 5.317318e-001 -2.969779e-001 -5.174050e-002 5.949785e-001 -1.912330e-002 -2.938536e-001 9.905169e-002 3.560273e-001 2.148010e-001 -2.674855e-002
<VARIANCE> 39
 5.666700e+001 1.828068e+001 1.596999e+001 1.830540e+001 3.723887e+001 2.977841e+001 3.138497e+001 4.271095e+001 1.565869e+001 2.583205e+001 1.754007e+001 1.713547e+001 1.452162e+001 3.253945e+000 1.845649e+000 2.000294e+000 3.270442e+000 2.798049e+000 2.555629e+000 3.581877e+000 3.562687e+000 1.597621e+000 2.098747e+000 2.367433e+000 1.486411e+000 6.144484e-001 8.605312e-001 3.072881e-001 3.637628e-001 4.856210e-001 7.375240e-001 5.096323e-001 7.222614e-001 1.038083e+000 3.237182e-001 5.493121e-001 3.961645e-001 2.784083e-001 1.200386e-001
<GCONST> 1.126777e+002
<TRANSP> 5
 0.000000e+000 1.000000e+000 0.000000e+000 0.000000e+000 0.000000e+000
 0.000000e+000 8.554092e-001 1.445908e-001 0.000000e+000 0.000000e+000
 0.000000e+000 0.000000e+000 9.050339e-001 9.496614e-002 0.000000e+000
 0.000000e+000 0.000000e+000 0.000000e+000 7.225187e-001 2.774813e-001
 0.000000e+000 0.000000e+000 0.000000e+000 0.000000e+000 0.000000e+000
<ENDHMM>
~h "uh"
<BEGINHMM>
<NUMSTATES> 5
<STATE> 2
<MEAN> 39
 8.738363e+000 8.277224e+000 -9.001648e-001 -1.546323e+001 -7.906243e+000 -3.601282e+000 -3.339409e+000 -5.854045e+000 -1.075481e+001 -3.312964e+000 -6.462804e+000 -3.367718e+000 5.848462e+001 3.356770e-002 2.652474e-002 1.537717e-002 -1.181614e-001 1.253795e-001 -6.513763e-002 1.601842e-001 -1.243619e-001 -2.883382e-001 1.291866e-001 4.477057e-002 7.771500e-002 -2.937800e-002 -2.818789e-002 -6.728726e-002 -3.017507e-003 6.908696e-002 8.472686e-002 -2.081958e-002 -1.888501e-002 -6.641431e-002 2.049091e-002 1.047686e-001 9.048004e-002 -5.410582e-003 -1.042448e-003
<VARIANCE> 39
 4.886512e+000 1.229420e+001 1.006659e+001 4.128413e+001 2.091633e+001 1.419132e+001 2.775523e+001 2.044542e+001 2.876418e+001 2.502777e+001 3.583007e+001 1.521141e+001 1.225019e+001 1.573116e-001 3.619601e-001 4.441741e-001 8.787842e-001 1.146783e+000 7.300242e-001 1.571488e+000 1.378474e+000 1.367128e+000 1.560360e+000 1.775364e+000 9.834237e-001 3.205755e-001 1.929260e-002 4.308720e-002 7.262620e-002 1.282523e-001 1.618104e-001 1.267503e-001 2.409625e-001 2.191279e-001 2.250738e-001 2.310344e-001 2.322417e-001 1.979250e-001 2.576069e-002
<GCONST> 7.789634e+001
<STATE> 3
<MEAN> 39
 7.508312e+000 4.102199e+000 -7.234768e-001 -1.459193e+001 3.809507e-001 -5.045231e+000 -4.302916e+000 -1.169178e+001 -1.296702e+001 4.552783e+000 2.180778e+000 -2.343068e+000 5.983925e+001 -6.876919e-001 -8.232199e-001 6.726416e-001 2.363410e+000 1.274211e+000 -5.835418e-001 -1.057706e+000 -1.523454e-001 2.081417e+000 1.032635e+000 2.021293e-001 -4.513713e-001 -4.074725e-001 -2.315446e-001 1.633460e-001 2.351959e-001 4.812315e-001 -3.230723e-001 3.867097e-001 2.828200e-001 6.122259e-001 6.309253e-001 -5.683662e-001 -6.706798e-001 7.085038e-002 -4.375116e-001
<VARIANCE> 39
