~o
<STREAMINFO> 1 39
<VECSIZE> 39<NULLD><MFCC_D_A_0><DIAGC>
~h "d"
<BEGINHMM>
<NUMSTATES> 5
<STATE> 2
<MEAN> 39
 -3.112883e+000 -8.234145e-001 1.523569e+000 1.294540e-002 1.170509e+000 2.558312e+000 4.699384e+000 -3.392278e+000 2.123408e+000 2.540986e+000 -1.431118e+000 1.350267e+000 4.780266e+001 -2.579452e-002 -7.010697e-002 -1.496976e-001 4.022579e-002 5.212661e-002 3.191807e-002 1.527241e-001 5.273566e-002 2.703906e-002 1.835214e-002 7.242661e-002 4.049860e-002 -8.728680e-002 -7.339052e-004 -1.023715e-003 1.676810e-002 -9.124143e-002 3.680690e-002 -6.946036e-002 -1.375823e-001 3.434316e-002 -3.132590e-002 -2.837714e-002 -1.876186e-002 -3.968487e-002 1.603415e-001
<VARIANCE> 39
 8.504474e+000 5.559421e+000 7.850756e+000 1.178325e+001 1.185633e+001 1.655348e+001 1.789896e+001 2.347825e+001 2.445937e+001 2.179219e+001 1.895773e+001 1.425665e+001 6.328730e+000 5.939081e-001 4.732684e-001 6.671005e-001 8.311624e-001 1.122682e+000 1.243291e+000 1.645956e+000 1.977564e+000 1.573736e+000 1.656622e+000 1.409163e+000 1.321263e+000 4.082494e-001 1.324191e-001 1.129874e-001 1.353281e-001 1.989042e-001 2.230279e-001 2.663315e-001 3.417468e-001 3.726207e-001 2.997656e-001 3.353404e-001 2.732331e-001 2.742557e-001 1.310937e-001
<GCONST> 8.582076e+001
<STATE> 3
<MEAN> 39
 -3.379973e+000 -9.963701e-001 1.542578e+000 4.078360e-001 1.615378e+000 2.479839e+000 4.943709e+000 -2.914570e+000 1.685098e+000 2.079205e+000 -1.641081e+000 9.764584e-001 4.737074e+001 1.789795e-002 -4.105937e-002 -7.413442e-002 -5.947401e-002 8.824959e-002 8.668841e-002 -2.889897e-002 -3.108934e-002 -2.456660e-003 5.012873e-002 -1.293309e-002 -8.119431e-003 2.427849e-002 -2.028872e-003 -2.404893e-002 -3.592233e-003 -9.178942e-002 -3.054294e-003 -8.091265e-002 -8.223053e-002 4.998240e-002 -1.966626e-002 -3.305718e-002 -1.873548e-002 -2.543347e-003 1.423069e-001
<VARIANCE> 39
 7.507775e+000 7.455080e+000 7.281322e+000 9.037921e+000 1.252769e+001 1.560797e+001 1.496990e+001 2.477194e+001 2.299124e+001 2.304896e+001 1.981703e+001 1.419502e+001 4.999714e+000 5.053807e-001 6.089763e-001 6.029015e-001 9.155689e-001 1.084012e+000 1.436502e+000 1.493608e+000 2.001637e+000 1.576640e+000 1.670713e+000 1.458702e+000 1.401129e+000 4.358642e-001 1.119264e-001 1.320949e-001 1.335722e-001 2.047390e-001 2.100166e-001 3.303434e-001 3.167193e-001 4.493503e-001 3.517276e-001 3.572111e-001 3.263415e-001 2.979634e-001 1.753852e-001
<GCONST> 8.664331e+001
<STATE> 4
<MEAN> 39
 -8.331892e-001 -2.522569e+000 3.127062e-001 -4.321627e+000 1.681288e+000 -1.391899e+000 2.481615e+000 -1.593502e+000 2.347725e-001 6.700691e-002 -3.121233e+000 -1.845871e+000 5.708603e+001 4.497066e-003 -7.466566e-003 -8.335931e-003 -2.069039e-002 2.662744e-003 -1.621355e-002 -1.186430e-002 1.656490e-002 -3.179463e-003 -7.368848e-003 -5.698343e-003 7.607094e-003 2.743138e-002 3.110926e-003 -2.252003e-003 1.532987e-003 -7.152123e-003 1.796342e-003 -1.492064e-002 -3.464070e-003 9.294639e-003 1.493970e-004 -4.878048e-003 -9.085964e-003 -5.656953e-003 1.793725e-002
<VARIANCE> 39
 4.381429e+001 3.287178e+001 3.102639e+001 7.110498e+001 3.068529e+001 5.299539e+001 2.850897e+001 3.603328e+001 4.239652e+001 3.108314e+001 3.674080e+001 3.301113e+001 7.217811e+001 1.482630e+000 1.206244e+000 1.218719e+000 2.337628e+000 1.640544e+000 2.143090e+000 1.821973e+000 2.283611e+000 1.955669e+000 1.773296e+000 1.811713e+000 1.723749e+000 1.404615e+000 2.160996e-001 1.803515e-001 1.786976e-001 3.259467e-001 2.602167e-001 3.453642e-001 3.313144e-001 3.930105e-001 3.244182e-001 3.100662e-001 3.187991e-001 3.128213e-001 1.855149e-001
<GCONST> 1.097518e+002
<TRANSP> 5
 0.000000e+000 1.000000e+000 0.000000e+000 0.000000e+000 0.000000e+000
 0.000000e+000 6.711032e-001 3.288969e-001 0.000000e+000 0.000000e+000
 0.000000e+000 0.000000e+000 7.670097e-001 2.329903e-001 0.000000e+000
 0.000000e+000 0.000000e+000 0.000000e+000 9.761518e-001 2.384826e-002
 0.000000e+000 0.000000e+000 0.000000e+000 0.000000e+000 0.000000e+000
<ENDHMM>
~h "f"
<BEGINHMM>
<NUMSTATES> 5
<STATE> 2
<MEAN> 39
 -2.395450e+000 -1.749511e+000 1.377251e-001 -6.991854e-001 2.296617e+000 2.989375e+000 4.197555e+000 -2.736610e+000 1.640355e+000 1.510635e+000 -1.818112e+000 -9.284034e-001 5.123357e+001 -2.211452e-001 -1.828107e-001 -9.979542e-002 1.484781e-001 1.534750e-001 5.312081e-002 4.090111e-002 1.266592e-001 8.252805e-002 4.183235e-002 1.271026e-001 9.863473e-002 6.428783e-002 1.366632e-002 6.861424e-003 2.391512e-002 -1.728528e-002 -2.212008e-002 -4.112504e-002 -1.733930e-002 7.385112e-003 -2.787529e-002 -1.790912e-002 -1.617376e-002 -1.270311e-002 4.297892e-002
<VARIANCE> 39
 2.324438e+001 1.449886e+001 2.280169e+001 3.823660e+001 1.408127e+001 1.748209e+001 1.799338e+001 2.450178e+001 2.071370e+001 2.101181e+001 2.115259e+001 3.275156e+001 4.571735e+001 7.906501e-001 5.905510e-001 7.098086e-001 1.258518e+000 1.130994e+000 1.248322e+000 1.339153e+000 1.556777e+000 1.524657e+000 1.497151e+000 1.356630e+000 1.271097e+000 5.477633e-001 1.194162e-001 9.937625e-002 1.230967e-001 2.049623e-001 2.051313e-001 2.353273e-001 2.539427e-001 2.721828e-001 2.959689e-001 2.819135e-001 2.579606e-001 2.493778e-001 6.694037e-002
<GCONST> 9.152739e+001
<STATE> 3
<MEAN> 39
 -2.804894e+000 -2.881137e+000 -1.189239e+000 -1.380850e+000 2.982118e+000 3.004938e+000 3.084929e+000 -1.537732e+000 1.860136e+000 8.696058e-001 -1.391402e+000 -1.702676e+000 5.480762e+001 -2.611604e-001 -1.718255e-001 -3.938724e-002 1.128071e-001 1.153096e-001 2.106806e-002 -2.351069e-002 1.742024e-001 5.625911e-002 -7.297608e-003 9.379186e-002 4.549256e-002 2.958676e-001 3.901432e-002 1.786971e-002 5.432904e-003 -5.282298e-002 -5.342392e-002 -2.678503e-002 -1.664850e-002 -2.633651e-002 -1.639125e-002 4.689421e-004 -2.357803e-002 -7.382382e-003 -3.976638e-003
<VARIANCE> 39
 3.637827e+001 1.965125e+001 2.648570e+001 6.032212e+001 1.686674e+001 2.030829e+001 1.828356e+001 2.759804e+001 2.145073e+001 2.454592e+001 2.122666e+001 3.639894e+001 5.881994e+001 1.447835e+000 8.697346e-001 9.261358e-001 1.655290e+000 1.408843e+000 1.377636e+000 1.472645e+000 1.705610e+000 1.732934e+000 1.541052e+000 1.419272e+000 1.398517e+000 1.079898e+000 2.365922e-001 1.489490e-001 1.591775e-001 2.774754e-001 2.481066e-001 2.586284e-001 2.711658e-001 3.020253e-001 3.351083e-001 2.917502e-001 2.674410e-001 2.603203e-001 1.104423e-001
<GCONST> 9.975592e+001
<STATE> 4
<MEAN> 39
 -3.268429e+000 -2.768702e+000 -1.303952e+000 -1.583313e+000 2.905256e+000 3.317095e+000 2.491335e+000 -9.718047e-001 1.889222e+000 1.683653e+000 -9.764935e-001 -9.544194e-001 5.528942e+001 3.418437e-001 1.407173e-001 -2.452390e-001 -6.619968e-001 -1.684129e-001 1.612278e-001 -1.358209e-001 -7.119086e-002 -1.739238e-001 -3.156013e-002 1.333611e-002 -1.597490e-001 2.874276e-001 2.244583e-002 1.936862e-002 -2.384851e-002 -7.128064e-002 -2.492742e-002 2.334114e-002 1.842285e-003 1.247650e-003 -1.272860e-002 -3.302284e-002 -2.799218e-003 -1.650544e-002 4.425845e-004
<VARIANCE> 39
 3.824408e+001 1.697125e+001 2.044077e+001 6.706229e+001 1.648354e+001 1.845772e+001 2.000578e+001 2.731600e+001 2.330652e+001 2.116294e+001 1.933423e+001 2.454422e+001 5.670309e+001 3.066813e+000 1.358392e+000 1.213220e+000 4.562263e+000 1.528329e+000 1.512113e+000 1.653797e+000 2.057605e+000 1.996318e+000 1.682476e+000 1.473089e+000 1.544731e+000 8.670484e-001 4.426184e-001 2.295158e-001 1.934651e-001 5.177637e-001 2.830221e-001 2.697691e-001 3.191914e-001 3.790363e-001 3.845920e-001 3.155912e-001 2.829466e-001 2.690323e-001 1.064795e-001
<GCONST> 1.046935e+002
<TRANSP> 5
 0.000000e+000 1.000000e+000 0.000000e+000 0.000000e+000 0.000000e+000
 0.000000e+000 8.426033e-001 1.573967e-001 0.000000e+000 0.000000e+000
 0.000000e+000 0.000000e+000 7.273555e-001 2.726445e-001 0.000000e+000
 0.000000e+000 0.000000e+000 0.000000e+000 9.107655e-001 8.923451e-002
 0.000000e+000 0.000000e+000 0.000000e+000 0.000000e+000 0.000000e+000
<ENDHMM>
~h "k"
<BEGINHMM>
<NUMSTATES> 5
<STATE> 2
<MEAN> 39
 -8.599231e+000 1.126031e+000 -3.474665e-001 1.397151e+000 4.356271e+000 -3.508438e-001 3.539078e+000 -1.351665e+000 3.438110e+000 2.486842e+000 -3.996653e-001 -8.796669e-001 5.426660e+001 -6.072854e-003 2.234031e-002 -2.506742e-002 6.267066e-002 -8.156955e-002 1.107960e-001 1.268904e-001 7.299519e-002 5.422615e-003 2.727263e-002 3.730189e-002 1.026805e-001 -1.709974e-001 9.053049e-002 -1.036859e-002 -9.092854e-003 -6.083022e-002 3.797102e-003 -4.891669e-002 -1.840485e-002 -4.572351e-002 -4.101797e-002 -3.418727e-002 -3.700202e-002 -2.225618e-002 -3.027366e-003
<VARIANCE> 39
 4.950493e+001 1.510557e+001 2.716677e+001 1.954802e+001 4.586484e+001 3.047548e+001 1.885534e+001 2.387955e+001 2.680341e+001 2.006593e+001 2.031787e+001 2.557537e+001 3.706409e+001 6.302954e-001 6.400260e-001 7.458591e-001 8.294437e-001 1.142534e+000 1.461718e+000 1.439825e+000 1.621595e+000 1.570180e+000 1.656121e+000 1.418766e+000 1.371642e+000 4.683086e-001 9.960409e-002 9.840100e-002 1.330822e-001 1.553776e-001 2.182626e-001 2.842436e-001 2.842625e-001 3.231265e-001 3.107556e-001 3.263749e-001 2.687779e-001 2.945568e-001 7.148881e-002
<GCONST> 9.377628e+001
<STATE> 3
<MEAN> 39
 -8.401708e+000 1.112075e+000 -7.349105e-001 1.433908e+000 4.768383e+000 1.094877e-001 3.962524e+000 -1.197066e+000 3.441437e+000 2.401250e+000 -3.087570e-001 -4.279057e-001 5.322756e+001 1.476211e-001 -5.852859e-002 -8.617844e-003 -6.910472e-002 -5.229723e-002 7.176941e-002 1.228377e-001 4.433762e-002 -2.736888e-002 1.642008e-002 -3.147540e-002 5.865501e-002 -1.696298e-001 2.450645e-002 -1.333069e-002 -1.429784e-003 -3.722143e-002 1.577491e-002 -1.832637e-002 -1.985591e-002 -2.404641e-002 -2.156412e-002 5.306687e-003 -1.508379e-002 -8.218500e-003 1.102329e-002
<VARIANCE> 39
 4.439417e+001 1.753649e+001 2.259395e+001 1.626286e+001 3.678845e+001 2.924576e+001 1.947288e+001 2.399646e+001 2.301477e+001 2.061898e+001 1.988542e+001 1.977949e+001 3.677103e+001 5.035157e-001 6.068806e-001 7.870030e-001 8.685026e-001 1.146708e+000 1.506499e+000 1.433196e+000 1.591827e+000 1.570729e+000 1.649826e+000 1.352314e+000 1.367075e+000 5.901358e-001 7.065625e-002 1.029640e-001 1.451042e-001 1.603358e-001 2.218895e-001 2.831887e-001 3.033194e-001 3.059118e-001 3.171649e-001 3.460833e-001 2.570253e-001 2.729862e-001 9.768650e-002
<GCONST> 9.293438e+001
<STATE> 4
<MEAN> 39
 -5.050903e+000 -1.614864e+000 -3.536114e-001 3.679121e-001 3.261945e+000 1.307032e+000 4.961924e+000 -9.566995e-001 3.320201e+000 2.653406e+000 -1.661155e-001 1.071976e+000 5.035549e+001 1.093327e-002 5.562257e-003 -2.169309e-002 -6.431849e-002 3.012180e-002 -2.177349e-003 3.872867e-002 2.047107e-002 -2.879072e-002 -5.163659e-002 1.886410e-003 -2.655368e-002 6.308435e-002 2.085049e-002 1.211691e-002 8.424394e-003 -1.614659e-002 -3.373049e-003 -1.322765e-002 -6.362029e-003 -5.631072e-003 -1.284768e-002 -1.039807e-002 -5.152692e-003 -1.179496e-002 6.035357e-003
<VARIANCE> 39
 2.324714e+001 1.716430e+001 1.186756e+001 1.157150e+001 2.131991e+001 2.354486e+001 1.867311e+001 2.518948e+001 2.239334e+001 2.083240e+001 1.968526e+001 1.734033e+001 2.627157e+001 5.045014e-001 5.326237e-001 7.242969e-001 7.765607e-001 1.003888e+000 1.454520e+000 1.479202e+000 1.568839e+000 1.593291e+000 1.643567e+000 1.265564e+000 1.302430e+000 5.995904e-001 7.766332e-002 8.369537e-002 1.310326e-001 1.417444e-001 1.919471e-001 2.745349e-001 3.061484e-001 3.022677e-001 3.143266e-001 3.363352e-001 2.435610e-001 2.505513e-001 7.405234e-002
<GCONST> 8.849730e+001
<TRANSP> 5
 0.000000e+000 1.000000e+000 0.000000e+000 0.000000e+000 0.000000e+000
 0.000000e+000 7.567359e-001 2.432641e-001 0.000000e+000 0.000000e+000
 0.000000e+000 0.000000e+000 7.152687e-001 2.847313e-001 0.000000e+000
 0.000000e+000 0.000000e+000 0.000000e+000 9.504584e-001 4.954160e-002
 0.000000e+000 0.000000e+000 0.000000e+000 0.000000e+000 0.000000e+000
<ENDHMM>
~h "l"
<BEGINHMM>
<NUMSTATES> 5
<STATE> 2
<MEAN> 39
 6.325941e-001 -3.941220e+000 1.077193e+000 -7.182976e+000 2.108666e+000 -5.395432e+000 3.478822e-001 -1.166004e+000 3.658828e-001 3.570282e+000 -6.371510e+000 -1.334621e+000 6.077820e+001 7.581447e-002 -2.919833e-001 -2.035217e-001 -6.638834e-001 3.047459e-001 -8.656723e-001 -5.962873e-001 1.517902e-001 9.627245e-002 -3.679719e-004 -5.582600e-001 -2.556136e-001 1.283549e+000 6.219122e-002 3.009843e-002 -2.899911e-002 -4.658331e-002 7.796121e-002 1.400369e-001 3.744189e-002 -2.662228e-002 -4.752304e-002 -1.079813e-001 1.724221e-002 -1.421619e-001 4.856207e-002
<VARIANCE> 39
 3.612020e+001 2.981598e+001 3.603780e+001 5.348406e+001 2.596808e+001 6.764659e+001 4.790380e+001 5.358154e+001 5.195066e+001 3.555619e+001 5.691651e+001 3.938320e+001 6.660242e+001 1.793629e+000 1.640369e+000 2.140699e+000 2.678977e+000 2.213615e+000 4.772375e+000 3.729660e+000 3.676577e+000 3.645149e+000 3.020920e+000 3.617215e+000 3.537284e+000 4.835093e+000 3.323045e-001 2.740074e-001 3.107747e-001 4.428602e-001 3.590652e-001 8.316806e-001 6.774179e-001 6.676198e-001 6.967511e-001 5.396489e-001 6.641764e-001 5.917717e-001 7.160396e-001
<GCONST> 1.266775e+002
<STATE> 3
<MEAN> 39
 1.821291e+000 -4.996552e+000 -1.917711e-002 -9.543532e+000 3.943990e+000 -6.004062e+000 -3.219496e-001 -1.002596e+000 2.937824e-001 2.636504e+000 -7.684024e+000 -4.089784e+000 6.481406e+001 4.838235e-001 -8.440194e-003 -2.150736e-001 -7.981651e-001 3.750945e-001 1.277104e-001 -5.538738e-002 -3.776678e-001 -3.932825e-001 -1.570401e-001 -2.353612e-001 -6.540228e-001 7.095583e-001 1.992011e-002 8.727608e-002 -1.794630e-002 -1.948089e-002 -6.206047e-002 1.957065e-001 7.967587e-002 -1.287620e-001 -8.379710e-002 -6.846705e-003 1.295079e-001 7.956222e-002 -1.556564e-001
<VARIANCE> 39
 3.164903e+001 2.887369e+001 5.180070e+001 5.169151e+001 3.576249e+001 6.660495e+001 4.784076e+001 5.165793e+001 5.974386e+001 3.767698e+001 5.438641e+001 4.874681e+001 2.796027e+001 2.213105e+000 1.965744e+000 2.216072e+000 3.067681e+000 2.410937e+000 4.663662e+000 3.395940e+000 4.539631e+000 4.835859e+000 2.865564e+000 3.485943e+000 4.519997e+000 3.007461e+000 3.557148e-001 3.097594e-001 3.250172e-001 4.433894e-001 3.841591e-001 7.383571e-001 6.202128e-001 7.553676e-001 7.838263e-001 5.328126e-001 6.247337e-001 7.051704e-001 4.142079e-001
<GCONST> 1.272024e+002
<STATE> 4
<MEAN> 39
 5.230824e+000 -2.538001e+000 -8.454845e-002 -1.533214e+001 2.512125e+000 -4.787476e+000 -1.563878e+000 -5.503840e+000 -4.590670e+000 2.196899e+000 -8.743650e+000 -4.121492e+000 6.588276e+001 -1.379965e-002 2.326041e-001 2.007008e-002 -3.927620e-002 -7.686693e-002 1.045655e-001 -7.016590e-003 -2.320536e-001 -2.745246e-002 -1.351331e-001 1.310146e-001 1.969910e-001 -1.665194e-001 -5.554882e-002 -7.077323e-003 2.917307e-003 1.160433e-001 5.006736e-003 2.081857e-002 3.562459e-002 6.944596e-002 5.774522e-002 -4.921530e-003 4.473718e-002 1.218729e-002 -4.396543e-002
<VARIANCE> 39
 9.295794e+000 3.446381e+001 9.132423e+001 6.424450e+001 4.676107e+001 8.640269e+001 4.623704e+001 4.129297e+001 5.391281e+001 4.604545e+001 4.636878e+001 4.236412e+001 2.282592e+001 4.739515e-001 9.952978e-001 1.580382e+000 2.091880e+000 1.573575e+000 2.511025e+000 2.069224e+000 2.267717e+000 2.103753e+000 2.089265e+000 1.881346e+000 1.834020e+000 6.065658e-001 8.513185e-002 1.304672e-001 1.695540e-001 2.388506e-001 2.340312e-001 3.103504e-001 3.122337e-001 3.782506e-001 3.208437e-001 3.428356e-001 2.928726e-001 2.955802e-001 6.788626e-002
<GCONST> 1.062843e+002
<TRANSP> 5
 0.000000e+000 1.000000e+000 0.000000e+000 0.000000e+000 0.000000e+000
 0.000000e+000 6.189975e-001 3.810025e-001 0.000000e+000 0.000000e+000
 0.000000e+000 0.000000e+000 7.196618e-001 2.803383e-001 0.000000e+000
 0.000000e+000 0.000000e+000 0.000000e+000 9.174607e-001 8.253929e-002
 0.000000e+000 0.000000e+000 0.000000e+000 0.000000e+000 0.000000e+000
<ENDHMM>
~h "n"
<BEGINHMM>
<NUMSTATES> 5
<STATE> 2
<MEAN> 39
 3.723463e+000 -1.232063e+000 1.647478e+000 -5.034135e+000 -6.629789e-001 -3.756943e+000 1.307710e+000 -4.738556e+000 -2.773028e+000 8.486068e-001 -6.042623e+000 -5.575553e+000 5.907416e+001 2.056350e-001 2.411879e-001 2.386036e-001 5.020676e-002 -1.031990e-001 -1.306132e-001 3.782411e-002 -2.477243e-001 -2.751410e-001 2.966338e-001 -3.319038e-001 -7.447407e-002 -9.284281e-002 -4.810472e-002 -1.178849e-002 -2.126056e-003 -5.804744e-002 2.571687e-002 2.955293e-002 -2.466003e-002 7.209994e-003 2.678131e-002 -1.810505e-002 -1.598475e-002 6.375907e-002 1.554793e-002
<VARIANCE> 39
 3.595119e+001 3.510755e+001 3.684289e+001 5.903499e+001 3.023228e+001 5.369196e+001 3.042996e+001 5.632127e+001 3.211589e+001 5.545781e+001 4.024722e+001 3.745200e+001 4.765092e+001 1.595541e+000 1.559566e+000 2.233383e+000 2.976466e+000 1.839940e+000 2.575999e+000 2.145062e+000 3.612673e+000 2.067499e+000 2.594191e+000 2.350680e+000 1.963195e+000 1.411095e+000 2.114730e-001 2.153481e-001 2.765238e-001 3.622488e-001 2.717479e-001 3.973407e-001 3.655581e-001 5.794000e-001 3.174893e-001 4.091526e-001 3.655156e-001 2.960756e-001 1.356687e-001
<GCONST> 1.145409e+002
<STATE> 3
<MEAN> 39
 4.314961e+000 -9.050066e-001 2.035254e+000 -5.574303e+000 -7.313608e-001 -4.127468e+000 1.131566e+000 -5.353127e+000 -3.563687e+000 1.318472e+000 -7.201132e+000 -5.819434e+000 5.941021e+001 -7.561523e-003 1.126127e-001 6.800999e-002 -5.222403e-003 6.798912e-002 1.024755e-001 2.753931e-002 -1.493781e-001 -9.828276e-002 1.122782e-001 -3.129292e-001 7.294974e-002 -8.137412e-002 -7.911612e-002 -3.212981e-002 -3.280493e-002 -7.090272e-003 3.315048e-002 7.154703e-002 -5.274770e-003 3.342867e-002 7.315559e-002 -5.442108e-002 4.397348e-002 4.989740e-002 2.099217e-003
<VARIANCE> 39
 2.904977e+001 3.369807e+001 4.141553e+001 6.208506e+001 3.138398e+001 5.467913e+001 2.812584e+001 5.718692e+001 3.288309e+001 6.136017e+001 4.796453e+001 3.790966e+001 4.410725e+001 1.394482e+000 1.748522e+000 2.334422e+000 2.895072e+000 1.858255e+000 2.537772e+000 2.020917e+000 4.082991e+000 2.054847e+000 2.914176e+000 2.766375e+000 1.941096e+000 1.252356e+000 1.780071e-001 2.019241e-001 2.719917e-001 3.435071e-001 2.726401e-001 3.731621e-001 3.512092e-001 6.507314e-001 3.112228e-001 4.201302e-001 4.126374e-001 3.126378e-001 1.158934e-001
<GCONST> 1.146125e+002
<STATE> 4
<MEAN> 39
 4.521763e+000 5.227346e-001 3.105829e+000 -5.927174e+000 -1.151074e+000 -3.593874e+000 8.906851e-001 -7.197490e+000 -4.415478e+000 2.708951e+000 -1.007676e+001 -4.794170e+000 5.837171e+001 -2.516619e-001 -1.646805e-002 -3.633643e-002 2.312567e-001 1.790771e-001 2.184310e-001 1.049028e-001 5.119290e-002 2.297197e-001 -7.874933e-002 2.025172e-002 1.494483e-001 -2.040492e-001 -5.765359e-002 -3.475002e-002 -6.158672e-002 -1.488321e-002 4.167530e-002 5.130922e-002 2.211636e-003 7.504131e-002 4.901331e-002 -4.073649e-002 1.304021e-001 1.279333e-002 7.525266e-003
<VARIANCE> 39
 2.340071e+001 3.026455e+001 4.191283e+001 6.684390e+001 3.212112e+001 5.278102e+001 2.797607e+001 5.656512e+001 3.652645e+001 5.829987e+001 7.363744e+001 3.217368e+001 4.420172e+001 8.862181e-001 1.129296e+000 1.728428e+000 1.766574e+000 1.655966e+000 2.355900e+000 1.825320e+000 3.102152e+000 1.765241e+000 2.511231e+000 3.183531e+000 1.615245e+000 7.660046e-001 1.357072e-001 1.432636e-001 2.057264e-001 2.326662e-001 2.563630e-001 2.993591e-001 3.251168e-001 4.924901e-001 2.864058e-001 3.827247e-001 4.364867e-001 2.671244e-001 7.988684e-002
<GCONST> 1.090094e+002
<TRANSP> 5
 0.000000e+000 1.000000e+000 0.000000e+000 0.000000e+000 0.000000e+000
 0.000000e+000 6.062942e-001 3.937057e-001 0.000000e+000 0.000000e+000
 0.000000e+000 0.000000e+000 6.287261e-001 3.712739e-001 0.000000e+000
 0.000000e+000 0.000000e+000 0.000000e+000 8.599135e-001 1.400865e-001
 0.000000e+000 0.000000e+000 0.000000e+000 0.000000e+000 0.000000e+000
<ENDHMM>
~h "r"
<BEGINHMM>
<NUMSTATES> 5
<STATE> 2
<MEAN> 39
 6.289766e+000 -3.221811e+000 -7.121009e-001 -3.029317e+000 -5.442101e+000 -5.813119e+000 -4.464086e-001 -5.761482e+000 -4.263524e-001 2.740673e+000 -1.545232e+000 -4.459081e+000 6.136906e+001 1.156985e-001 -1.428430e-001 -7.607033e-003 3.957704e-002 -2.251694e-001 -3.078995e-002 1.532032e-001 4.060399e-002 -2.173999e-001 -1.033028e-001 1.335860e-001 1.499635e-001 -1.199945e-001 -2.047250e-001 8.237353e-002 1.266554e-001 -1.904185e-001 1.625203e-001 8.904680e-003 -2.855716e-002 2.368581e-001 5.498489e-002 -1.746924e-001 -7.342417e-003 1.257005e-001 2.514956e-002
<VARIANCE> 39
 6.749964e+001 3.479488e+001 4.086735e+001 4.701897e+001 8.092590e+001 6.080043e+001 2.897898e+001 5.187062e+001 3.264289e+001 2.726626e+001 2.858086e+001 2.500673e+001 2.008369e+001 2.413039e+000 1.277898e+000 1.725403e+000 3.274460e+000 3.071293e+000 2.255484e+000 1.737744e+000 3.074500e+000 2.665475e+000 1.707623e+000 1.832856e+000 1.999632e+000 4.167383e-001 2.526256e-001 1.407527e-001 2.438129e-001 4.010889e-001 4.100898e-001 2.968902e-001 3.636765e-001 4.796115e-001 3.800325e-001 3.024302e-001 3.529648e-001 3.094707e-001 4.739027e-002
<GCONST> 1.106466e+002
<STATE> 3
<MEAN> 39
 7.120173e+000 -3.989664e+000 -2.172282e-001 -3.509088e+000 -6.990732e+000 -6.226341e+000 -5.272105e-001 -5.622945e+000 -6.892778e-001 1.860087e+000 -1.517629e+000 -3.798259e+000 6.134362e+001 -1.823017e-001 -1.233330e-003 4.688972e-001 -5.257031e-001 -1.029605e-001 -5.063647e-002 2.082227e-002 4.318606e-001 -1.580336e-001 -4.551565e-001 2.617294e-002 5.027502e-001 -2.990082e-002 -1.557447e-001 5.938495e-002 1.791421e-001 -1.484174e-001 9.750514e-002 -5.811318e-002 -2.877218e-002 1.662619e-001 1.814760e-003 -1.014919e-001 -2.148887e-002 1.047598e-001 3.337682e-002
<VARIANCE> 39
 5.587604e+001 3.460724e+001 4.559527e+001 4.553007e+001 6.019648e+001 7.843783e+001 2.917995e+001 4.828378e+001 2.707700e+001 2.868185e+001 2.720080e+001 2.623295e+001 2.190940e+001 1.703277e+000 1.100516e+000 1.754249e+000 2.789286e+000 2.104190e+000 2.104779e+000 1.633372e+000 3.073915e+000 2.197969e+000 1.759200e+000 1.730507e+000 1.904298e+000 4.866163e-001 1.683944e-001 1.171943e-001 2.132638e-001 3.244107e-001 2.936379e-001 2.817250e-001 3.236296e-001 4.645358e-001 3.752553e-001 3.115068e-001 3.195705e-001 3.120280e-001 4.409875e-002
<GCONST> 1.074910e+002
<STATE> 4
<MEAN> 39
 6.337362e+000 -3.436942e+000 2.295093e+000 -5.648634e+000 -7.417506e+000 -6.469866e+000 -3.413760e-001 -4.625317e+000 -1.445454e+000 4.052489e-002 -1.771222e+000 -1.854086e+000 6.112875e+001 -4.952405e-001 1.974998e-001 7.792478e-001 -7.182943e-001 1.213973e-001 -1.204849e-001 9.751818e-002 6.253690e-001 -3.098624e-001 -4.945751e-001 6.828461e-003 6.398762e-001 -6.885526e-002 -6.424430e-002 4.301282e-002 6.544167e-002 -1.851547e-002 7.121731e-002 -7.921412e-002 1.889507e-002 -2.451500e-003 -1.026698e-001 5.816207e-002 9.970951e-003 2.787171e-002 -5.604560e-003
<VARIANCE> 39
 4.613390e+001 3.786462e+001 7.088066e+001 4.656765e+001 4.797063e+001 1.060329e+002 2.758452e+001 4.404273e+001 2.723983e+001 2.710183e+001 2.402992e+001 3.333846e+001 2.630478e+001 1.087703e+000 1.053845e+000 1.765911e+000 2.488712e+000 1.493033e+000 2.356519e+000 1.700719e+000 2.949567e+000 2.256427e+000 1.984589e+000 1.582967e+000 2.023953e+000 5.559620e-001 1.205555e-001 1.116352e-001 1.735289e-001 2.608773e-001 2.051582e-001 2.879474e-001 3.001676e-001 4.778944e-001 3.410465e-001 3.184200e-001 2.746205e-001 3.067500e-001 4.284730e-002
<GCONST> 1.059873e+002
<TRANSP> 5
 0.000000e+000 1.000000e+000 0.000000e+000 0.000000e+000 0.000000e+000
 0.000000e+000 5.645945e-001 4.354055e-001 0.000000e+000 0.000000e+000
 0.000000e+000 0.000000e+000 5.523657e-001 4.476343e-001 0.000000e+000
 0.000000e+000 0.000000e+000 0.000000e+000 6.533179e-001 3.466821e-001
 0.000000e+000 0.000000e+000 0.000000e+000 0.000000e+000 0.000000e+000
<ENDHMM>
~h "s"
<BEGINHMM>
<NUMSTATES> 5
<STATE> 2
<MEAN> 39
 -5.187788e+000 1.596205e+000 -6.696128e-001 -2.501225e+000 3.805636e+000 -3.079515e+000 3.002009e+000 -9.436585e-002 8.230348e-001 -7.391943e-002 -2.154087e+000 -1.490958e+000 5.880027e+001 -1.047462e+000 8.911309e-002 -1.934315e-001 3.622931e-001 5.193893e-001 -1.379039e-001 -5.365009e-002 7.366856e-001 3.614279e-001 -1.260957e-001 6.127033e-001 7.353608e-002 1.684667e-001 1.848861e-002 -4.340594e-002 -6.047247e-003 -9.750637e-002 -1.399279e-001 -1.096100e-001 -8.198451e-002 -6.155556e-002 -5.659291e-002 2.886250e-002 -4.757051e-002 -1.721655e-002 7.086919e-002
<VARIANCE> 39
 7.578802e+001 2.404357e+001 2.214544e+001 4.186256e+001 4.994946e+001 3.953830e+001 2.512691e+001 3.864053e+001 3.178027e+001 2.774391e+001 3.653138e+001 2.313117e+001 2.964569e+001 5.823718e+000 1.436104e+000 1.902714e+000 3.482469e+000 3.324688e+000 3.112675e+000 2.365800e+000 3.483435e+000 2.470848e+000 2.498528e+000 3.899073e+000 2.249090e+000 1.307924e+000 6.890491e-001 2.045966e-001 2.612213e-001 3.912477e-001 4.506961e-001 5.270873e-001 4.136122e-001 5.640865e-001 4.270431e-001 4.247135e-001 4.625163e-001 3.852299e-001 1.610787e-001
<GCONST> 1.177242e+002
<STATE> 3
<MEAN> 39
 -7.860162e+000 1.692622e+000 -1.372014e+000 -2.065632e+000 4.314155e+000 -3.993685e+000 2.540213e+000 1.299777e+000 1.596328e+000 9.357592e-002 -8.281056e-001 -1.346009e+000 5.964830e+001 -3.618429e-001 -7.064985e-002 -1.244914e-001 -5.031846e-002 -9.976041e-002 -3.519700e-001 -1.754807e-001 2.823883e-001 1.880272e-001 4.902758e-002 1.649905e-001 -2.364270e-002 2.692241e-001 2.051788e-001 -6.544764e-002 2.467752e-002 -1.174086e-001 -1.671309e-001 -1.618255e-002 -1.236605e-002 -9.714479e-002 -4.651133e-002 1.849858e-002 -1.329908e-001 -2.494844e-002 3.916487e-002
<VARIANCE> 39
 7.509612e+001 2.240607e+001 2.285427e+001 3.361308e+001 5.566389e+001 4.166639e+001 2.562949e+001 3.011896e+001 2.808144e+001 2.591776e+001 2.947285e+001 2.434377e+001 2.518917e+001 6.885798e+000 1.474962e+000 1.859119e+000 3.228649e+000 3.062849e+000 3.061265e+000 2.454681e+000 3.136420e+000 2.664177e+000 2.267107e+000 3.360204e+000 2.382259e+000 1.267068e+000 6.289507e-001 2.071269e-001 2.660170e-001 4.148600e-001 4.528030e-001 5.373731e-001 4.308522e-001 5.103765e-001 4.517938e-001 4.238861e-001 4.821829e-001 4.007766e-001 1.619822e-001
<GCONST> 1.167572e+002
<STATE> 4
<MEAN> 39
 -7.415772e+000 1.171194e+000 -1.618214e+000 -2.654225e+000 3.077048e+000 -5.130469e+000 1.915740e+000 1.202037e+000 2.042519e+000 2.595170e-001 -1.128030e+000 -1.536032e+000 6.049113e+001 5.313060e-001 -2.630946e-001 8.204727e-002 -3.624498e-001 -3.575861e-001 -3.044149e-001 -1.777275e-001 4.200562e-002 2.083201e-002 1.149152e-002 -3.291450e-001 -1.343365e-001 2.611894e-001 8.084483e-002 -6.485992e-002 3.120644e-002 -3.908165e-002 -1.269333e-002 3.923511e-002 2.859889e-002 -3.337919e-003 -2.812592e-002 -3.572470e-002 -4.832208e-002 -8.214362e-003 3.355546e-004
<VARIANCE> 39
 9.349214e+001 2.690282e+001 3.168188e+001 4.058291e+001 5.669562e+001 4.840311e+001 2.626975e+001 3.130891e+001 2.744592e+001 2.509716e+001 3.340768e+001 2.754733e+001 2.607563e+001 4.834861e+000 1.604580e+000 1.729405e+000 2.510412e+000 2.459024e+000 2.948702e+000 2.118120e+000 2.502916e+000 2.309331e+000 2.019429e+000 2.644700e+000 1.900391e+000 1.221125e+000 6.475226e-001 2.048347e-001 2.571627e-001 3.764010e-001 4.007596e-001 4.990979e-001 4.076225e-001 4.831639e-001 4.274830e-001 3.939980e-001 4.287175e-001 3.215718e-001 1.512275e-001
<GCONST> 1.151957e+002
<TRANSP> 5
 0.000000e+000 1.000000e+000 0.000000e+000 0.000000e+000 0.000000e+000
 0.000000e+000 6.505578e-001 3.494422e-001 0.000000e+000 0.000000e+000
 0.000000e+000 0.000000e+000 6.795189e-001 3.204811e-001 0.000000e+000
 0.000000e+000 0.000000e+000 0.000000e+000 8.261622e-001 1.738377e-001
 0.000000e+000 0.000000e+000 0.000000e+000 0.000000e+000 0.000000e+000
<ENDHMM>
~h "t"
<BEGINHMM>
<NUMSTATES> 5
<STATE> 2
<MEAN> 39
 -3.183396e+000 -1.036360e+000 2.617660e+000 -3.317947e+000 1.385841e+000 -1.834176e+000 2.484641e+000 -8.186778e-001 5.969094e-001 -1.440796e-001 -3.218688e+000 4.596711e-001 5.607663e+001 -8.067996e-001 -3.025223e-002 5.231050e-002 2.505608e-001 9.499291e-002 7.298653e-001 -7.658864e-002 2.655173e-001 4.679884e-001 1.401244e-001 8.230077e-001 3.038335e-001 -4.195532e-001 -3.183420e-002 -1.164099e-001 -8.377947e-002 -1.525592e-001 -3.667267e-002 -4.464895e-002 -3.388070e-002 5.198151e-002 1.073214e-002 -5.119867e-002 3.581259e-002 -3.477147e-002 2.310552e-001
<VARIANCE> 39
 4.566616e+001 2.783293e+001 2.568692e+001 3.955155e+001 2.597003e+001 6.110769e+001 2.953696e+001 3.802316e+001 3.066940e+001 2.865606e+001 4.133089e+001 2.345327e+001 6.358703e+001 3.023647e+000 2.905880e+000 2.336344e+000 4.835439e+000 2.383023e+000 4.680727e+000 3.366529e+000 3.574688e+000 2.608714e+000 2.691636e+000 3.065993e+000 2.299202e+000 6.636442e+000 4.758076e-001 4.699188e-001 4.009361e-001 7.992767e-001 4.460107e-001 8.451560e-001 6.461287e-001 6.537303e-001 4.681297e-001 4.592226e-001 5.295812e-001 4.331281e-001 9.596022e-001
<GCONST> 1.257171e+002
<STATE> 3
<MEAN> 39
 -6.405948e+000 -2.116834e+000 2.429177e+000 -3.991213e+000 1.314500e+000 -2.611928e-001 1.496964e+000 1.219272e+000 2.278852e+000 -3.081252e-001 -6.133648e-001 1.465759e+000 5.763057e+001 -3.549335e-001 -8.064105e-002 3.807163e-002 -1.309798e-001 4.336275e-002 2.984374e-002 -3.156994e-001 4.572855e-001 3.223824e-001 -1.396619e-001 3.039204e-001 4.054154e-002 6.481845e-001 1.851488e-001 5.071346e-002 8.248474e-003 4.267067e-002 3.339827e-002 -9.713038e-002 -1.934195e-002 -5.398130e-002 -3.677823e-002 -1.325070e-002 -1.386656e-001 -1.017454e-001 7.081290e-002
<VARIANCE> 39
 4.803867e+001 2.804761e+001 2.662830e+001 4.448597e+001 2.777129e+001 3.919102e+001 3.073580e+001 3.849920e+001 2.999291e+001 2.680750e+001 3.347049e+001 2.671478e+001 5.888562e+001 4.722184e+000 3.035488e+000 2.351865e+000 5.813896e+000 2.781187e+000 3.952003e+000 3.194943e+000 3.928123e+000 2.633901e+000 2.784248e+000 3.157117e+000 2.483117e+000 6.557095e+000 7.025621e-001 5.783884e-001 4.423356e-001 1.071084e+000 5.549841e-001 6.732713e-001 6.089362e-001 7.170980e-001 4.572293e-001 5.156562e-001 5.048831e-001 4.466036e-001 1.056838e+000
<GCONST> 1.273873e+002
<STATE> 4
<MEAN> 39
 -5.850745e+000 -2.197178e+000 1.821597e+000 -4.310288e+000 1.814712e+000 6.724583e-002 3.858454e-001 1.935789e+000 2.918569e+000 -1.175580e+000 -7.840847e-001 1.849503e-001 5.994741e+001 7.355338e-001 1.115797e-001 -6.984419e-002 -3.744424e-002 2.184051e-002 -1.111927e-001 -1.970194e-001 -2.185127e-001 -1.142130e-002 -6.894542e-002 -1.882406e-001 -4.622297e-001 2.065897e-001 1.445179e-001 -4.087023e-003 -2.522174e-002 -8.952773e-003 -4.031461e-002 -1.569922e-002 1.372927e-002 -1.375855e-001 -7.576586e-002 6.174162e-002 -2.216189e-002 -4.415010e-002 -1.076246e-001
<VARIANCE> 39
 6.698399e+001 2.835807e+001 3.955742e+001 6.724729e+001 2.859740e+001 4.273822e+001 2.931418e+001 4.006556e+001 3.498878e+001 2.898942e+001 3.385640e+001 3.888159e+001 4.340306e+001 4.040993e+000 2.039764e+000 2.199072e+000 5.070580e+000 2.636557e+000 2.934468e+000 2.584157e+000 3.515380e+000 2.728903e+000 2.494638e+000 2.403673e+000 2.464157e+000 2.952226e+000 6.361321e-001 3.707640e-001 3.482139e-001 7.589402e-001 4.654351e-001 4.586168e-001 4.692031e-001 6.032746e-001 4.881959e-001 4.667588e-001 4.216071e-001 4.286211e-001 4.302993e-001
<GCONST> 1.231028e+002
<TRANSP> 5
 0.000000e+000 1.000000e+000 0.000000e+000 0.000000e+000 0.000000e+000
 0.000000e+000 7.351408e-001 2.648592e-001 0.000000e+000 0.000000e+000
 0.000000e+000 0.000000e+000 7.737030e-001 2.262969e-001 0.000000e+000
 0.000000e+000 0.000000e+000 0.000000e+000 7.754456e-001 2.245543e-001
 0.000000e+000 0.000000e+000 0.000000e+000 0.000000e+000 0.000000e+000
<ENDHMM>
~h "v"
<BEGINHMM>
<NUMSTATES> 5
<STATE> 2
<MEAN> 39
 1.742900e+000 -5.430852e+000 -1.627642e+000 -6.826753e+000 -4.444820e-002 -3.982285e+000 3.781312e-001 -4.134891e-001 9.913999e-001 -2.628332e-001 -5.116487e+000 -5.666041e+000 6.295540e+001 6.707715e-001 1.667643e-001 -2.374523e-001 -4.489270e-001 -5.349488e-003 8.158422e-002 -2.998191e-001 -5.090418e-001 -1.915066e-001 1.000784e-001 -2.798634e-002 -6.598986e-001 1.325088e-001 -6.165440e-002 1.308871e-002 -1.894374e-002 2.945683e-002 6.198897e-002 7.048702e-002 -4.195826e-003 -6.682600e-002 -2.940584e-002 3.224327e-003 1.603781e-002 -2.152148e-002 3.857677e-002
<VARIANCE> 39
 4.956013e+001 2.385684e+001 4.197455e+001 5.491643e+001 2.709246e+001 7.751630e+001 2.403157e+001 3.635753e+001 1.959435e+001 2.384145e+001 3.089890e+001 4.958521e+001 3.978593e+001 4.215652e+000 1.658722e+000 1.801123e+000 3.881857e+000 1.647041e+000 2.152397e+000 1.841773e+000 2.831532e+000 1.576988e+000 1.853189e+000 2.020442e+000 2.917346e+000 1.738228e+000 6.459717e-001 2.492397e-001 2.374562e-001 4.981501e-001 2.663009e-001 3.779844e-001 3.498956e-001 4.462365e-001 2.859990e-001 3.227293e-001 2.880674e-001 4.459888e-001 2.316037e-001
<GCONST> 1.142769e+002
<STATE> 3
<MEAN> 39
 3.692913e+000 -5.561388e+000 -2.174425e+000 -8.077528e+000 4.056237e-001 -4.644286e+000 -3.444837e-001 -2.355458e+000 4.190608e-001 -5.973192e-001 -5.912688e+000 -7.715445e+000 6.342641e+001 5.113992e-002 1.318443e-001 5.556688e-002 1.571945e-001 1.790999e-001 1.067384e-001 -1.438574e-001 -3.670168e-001 -1.074977e-001 3.401561e-002 7.363937e-002 -2.114840e-001 -5.784068e-002 -8.835976e-002 1.791455e-002 5.010521e-002 5.254004e-002 1.572037e-002 -2.112536e-003 3.816653e-002 3.822426e-002 -2.514355e-002 1.513336e-002 2.766371e-004 6.892194e-002 -1.199927e-002
<VARIANCE> 39
 2.646738e+001 2.538075e+001 5.145198e+001 4.718970e+001 2.831857e+001 7.258514e+001 2.624477e+001 3.606290e+001 2.309996e+001 2.546338e+001 2.648337e+001 5.087725e+001 4.228820e+001 1.597315e+000 1.479129e+000 1.257611e+000 2.076202e+000 1.280614e+000 1.984428e+000 1.666016e+000 2.467479e+000 1.473430e+000 1.735294e+000 1.585652e+000 1.701378e+000 1.376078e+000 2.811780e-001 1.957127e-001 1.841826e-001 3.409278e-001 2.010990e-001 3.265927e-001 2.714933e-001 4.049428e-001 2.746636e-001 2.801519e-001 2.379174e-001 2.636936e-001 2.122995e-001
<GCONST> 1.067250e+002
<STATE> 4
<MEAN> 39
 3.602440e+000 -4.915639e+000 -1.541273e+000 -6.335562e+000 6.692801e-001 -4.260201e+000 -5.517908e-001 -3.382892e+000 1.676046e-001 -8.230408e-001 -5.947753e+000 -7.343793e+000 6.213585e+001 -1.031227e-002 3.439642e-001 2.145271e-001 2.733002e-001 -3.232718e-002 5.642295e-002 -4.949062e-002 -1.746130e-001 -1.251861e-001 1.525490e-001 1.150501e-001 2.788531e-002 -3.150182e-001 -1.823210e-002 4.215924e-002 2.343309e-002 -3.469447e-003 -2.743728e-002 -1.017741e-002 2.058588e-002 4.687303e-003 -3.883758e-002 3.716529e-002 -1.900783e-002 2.848693e-002 -1.120055e-002
<VARIANCE> 39
 2.608577e+001 3.007997e+001 3.919536e+001 4.175128e+001 2.422568e+001 4.955656e+001 2.617071e+001 2.866655e+001 2.323068e+001 2.988793e+001 2.496010e+001 4.129399e+001 4.312092e+001 8.799926e-001 1.129094e+000 8.848412e-001 1.260925e+000 1.133378e+000 1.767247e+000 1.463146e+000 2.084133e+000 1.695554e+000 1.774882e+000 1.408336e+000 1.243339e+000 8.764880e-001 1.312277e-001 1.597051e-001 1.278913e-001 1.875215e-001 1.770824e-001 2.673399e-001 2.367502e-001 3.456734e-001 2.735418e-001 2.782373e-001 2.280859e-001 2.035004e-001 1.221262e-001
<GCONST> 9.924387e+001
<TRANSP> 5
 0.000000e+000 1.000000e+000 0.000000e+000 0.000000e+000 0.000000e+000
 0.000000e+000 7.063654e-001 2.936346e-001 0.000000e+000 0.000000e+000
 0.000000e+000 0.000000e+000 6.519656e-001 3.480344e-001 0.000000e+000
 0.000000e+000 0.000000e+000 0.000000e+000 8.162422e-001 1.837577e-001
 0.000000e+000 0.000000e+000 0.000000e+000 0.000000e+000 0.000000e+000
<ENDHMM>
~h "w"
<BEGINHMM>
<NUMSTATES> 5
<STATE> 2
<MEAN> 39
 6.081199e+000 -5.944732e-001 6.010137e-001 -9.183186e+000 -3.151774e+000 -3.408702e+000 -6.855146e-002 -4.014910e+000 -2.683056e+000 -4.485761e-001 -4.693578e+000 -3.380291e+000 6.006427e+001 6.380842e-001 5.099382e-001 -3.803015e-001 -1.080684e+000 -3.496378e-001 3.967852e-001 -3.082074e-001 -2.104752e-001 -3.830178e-001 -1.877608e-001 3.282120e-001 -3.076481e-001 2.044756e-001 -8.331574e-002 -2.650800e-002 -3.932166e-002 -4.388427e-002 1.468453e-002 6.734001e-002 2.020004e-002 3.950669e-002 1.654278e-002 -3.560378e-002 9.446181e-002 -5.735217e-002 3.731462e-002
<VARIANCE> 39
 2.942881e+001 4.690452e+001 2.809504e+001 7.591975e+001 4.129245e+001 7.419971e+001 2.654361e+001 3.607165e+001 4.169164e+001 4.005560e+001 4.234071e+001 2.903708e+001 4.002584e+001 1.773551e+000 1.748121e+000 1.988174e+000 4.617773e+000 2.650677e+000 3.334032e+000 2.348461e+000 3.049189e+000 2.227760e+000 3.011194e+000 2.571095e+000 1.946540e+000 1.933564e+000 2.750909e-001 2.228561e-001 2.514171e-001 5.711619e-001 3.958308e-001 4.899441e-001 3.900812e-001 4.658780e-001 3.892784e-001 5.014203e-001 4.623636e-001 3.153493e-001 1.683703e-001
<GCONST> 1.179392e+002
<STATE> 3
<MEAN> 39
 8.106467e+000 7.379903e-001 -4.708718e-001 -1.261196e+001 -5.128133e+000 -1.573102e+000 -9.203343e-001 -4.762205e+000 -4.209346e+000 -8.714836e-001 -3.118497e+000 -4.636211e+000 6.056718e+001 2.940959e-001 3.177055e-001 -3.312379e-001 -7.914329e-001 -2.491747e-001 4.702155e-001 -1.792411e-001 -1.201289e-001 -2.244515e-001 -2.104984e-001 3.631228e-001 -3.592988e-001 1.592162e-001 -1.346993e-001 -9.596197e-002 1.253755e-002 1.360141e-001 9.386523e-002 -9.560511e-003 2.599316e-002 2.027575e-002 7.033350e-002 2.232838e-003 -2.542874e-002 -1.882125e-002 1.972388e-002
<VARIANCE> 39
 1.880961e+001 4.240848e+001 2.651525e+001 7.798755e+001 3.758901e+001 6.225807e+001 2.270071e+001 3.268293e+001 3.884822e+001 4.251543e+001 3.911409e+001 3.130695e+001 2.475394e+001 1.119808e+000 1.980152e+000 1.588271e+000 3.369240e+000 2.198605e+000 2.812783e+000 2.187695e+000 2.710420e+000 2.261125e+000 3.130000e+000 2.870738e+000 2.207512e+000 1.565355e+000 1.751017e-001 1.957046e-001 2.091116e-001 4.455693e-001 3.430223e-001 4.252418e-001 3.610317e-001 4.456113e-001 3.670388e-001 4.750695e-001 5.172831e-001 3.538891e-001 1.173936e-001
<GCONST> 1.133306e+002
<STATE> 4
<MEAN> 39
 9.144194e+000 4.269405e+000 -1.046629e+000 -1.601548e+001 -7.256544e+000 9.380887e-001 -1.344735e+000 -4.356659e+000 -4.751425e+000 -3.640903e+000 -1.884907e+000 -4.798245e+000 5.890992e+001 -2.129295e-002 -1.757589e-001 -3.259060e-001 -3.118765e-001 1.398322e-001 3.266040e-001 -6.808287e-002 -4.877210e-002 1.287284e-001 -2.633946e-002 1.889431e-001 -2.786021e-001 2.597009e-001 -6.562988e-002 -1.157417e-001 -3.375661e-002 8.205955e-002 9.893984e-002 -1.292567e-002 2.666824e-003 -3.514094e-002 4.894326e-002 5.422520e-002 -4.530735e-002 -4.442333e-002 5.887900e-002
<VARIANCE> 39
 1.111440e+001 2.493327e+001 1.751255e+001 7.290367e+001 2.972009e+001 3.418708e+001 2.312304e+001 2.798391e+001 3.396547e+001 3.952351e+001 3.176748e+001 2.217665e+001 2.571292e+001 5.119106e-001 1.166396e+000 1.023050e+000 1.978724e+000 1.408485e+000 1.694628e+000 1.486223e+000 1.615397e+000 1.653780e+000 2.048609e+000 2.335062e+000 1.648101e+000 8.596185e-001 7.251438e-002 9.484946e-002 1.283006e-001 2.382626e-001 1.998843e-001 2.495123e-001 2.681690e-001 2.718159e-001 2.534091e-001 3.430527e-001 3.927584e-001 2.656009e-001 6.574097e-002
<GCONST> 9.769933e+001
<TRANSP> 5
 0.000000e+000 1.000000e+000 0.000000e+000 0.000000e+000 0.000000e+000
 0.000000e+000 6.470292e-001 3.529707e-001 0.000000e+000 0.000000e+000
 0.000000e+000 0.000000e+000 6.640356e-001 3.359644e-001 0.000000e+000
 0.000000e+000 0.000000e+000 0.000000e+000 8.506776e-001 1.493224e-001
 0.000000e+000 0.000000e+000 0.000000e+000 0.000000e+000 0.000000e+000
<ENDHMM>
~h "y"
<BEGINHMM>
<NUMSTATES> 5
<STATE> 2
<MEAN> 39
 -2.497438e-001 -2.739704e-001 1.614490e+001 -8.476470e+000 -2.909932e+000 -1.179580e+001 -5.826654e+000 -2.560687e+000 -9.187854e+000 -2.177219e+000 -4.031964e+000 1.961012e+000 6.337579e+001 1.710449e-001 9.287933e-002 1.075580e+000 -1.645251e-001 -4.286713e-001 -7.546912e-001 -3.228334e-001 -3.551350e-002 -4.946380e-001 -3.871614e-001 -2.434140e-001 4.103864e-001 4.477988e-001 1.392629e-002 -2.497810e-002 -9.317089e-002 2.407751e-002 2.582651e-002 7.076392e-002 9.761074e-002 3.202079e-002 1.145754e-001 1.614645e-002 -4.788885e-002 5.566535e-002 -8.970080e-002
<VARIANCE> 39
 2.067214e+001 2.213130e+001 9.205625e+001 4.180217e+001 2.574252e+001 4.447916e+001 2.141739e+001 1.867534e+001 3.727404e+001 3.423845e+001 1.586226e+001 2.521602e+001 1.594517e+001 1.349020e+000 1.844424e+000 7.517936e+000 2.904361e+000 2.278938e+000 3.802343e+000 2.125936e+000 1.985601e+000 3.496157e+000 2.357364e+000 1.673256e+000 2.401508e+000 1.772550e+000 2.259173e-001 3.501368e-001 8.667325e-001 3.782463e-001 3.963301e-001 6.102383e-001 3.717306e-001 3.385383e-001 4.956851e-001 4.179021e-001 3.179797e-001 3.893496e-001 1.790975e-001
<GCONST> 1.141446e+002
<STATE> 3
<MEAN> 39
 1.732294e+000 1.875370e-001 1.536000e+001 -9.778764e+000 -2.940689e+000 -1.270127e+001 -7.251248e+000 -2.625862e+000 -6.993589e+000 -2.256514e+000 -4.818907e+000 3.753989e+000 6.396012e+001 1.518141e-001 -3.816370e-001 -8.204239e-001 -2.662201e-001 4.518107e-002 8.976165e-003 1.726637e-001 3.516659e-001 4.513089e-001 8.064510e-002 -3.663336e-001 -2.556585e-001 2.392336e-001 1.670901e-004 -3.724500e-002 -1.509895e-001 1.471571e-002 1.086381e-001 9.595937e-002 6.404397e-002 -6.065781e-002 1.638830e-002 3.566187e-003 -4.854634e-002 -1.285331e-001 6.924577e-003
<VARIANCE> 39
 1.052051e+001 3.151509e+001 7.901640e+001 2.952600e+001 2.026593e+001 3.505685e+001 1.407558e+001 3.150075e+001 2.976238e+001 2.906021e+001 2.180017e+001 3.252974e+001 1.411313e+001 5.766058e-001 1.869291e+000 4.989273e+000 1.182684e+000 2.230861e+000 2.309780e+000 1.487891e+000 2.380283e+000 2.339393e+000 1.821653e+000 2.018345e+000 3.002035e+000 5.254567e-001 7.655983e-002 2.075059e-001 3.973292e-001 1.578991e-001 3.756426e-001 3.703097e-001 2.444581e-001 4.751739e-001 3.883901e-001 2.668070e-001 3.296251e-001 4.007757e-001 6.334135e-002
<GCONST> 1.031452e+002
<STATE> 4
<MEAN> 39
 3.991055e+000 -2.077239e+000 3.379780e+000 -1.394012e+001 -1.040506e+000 -7.284000e+000 -3.702334e+000 -5.590037e+000 -7.587262e+000 2.071444e+000 -1.140919e+001 -2.649770e+000 6.631258e+001 9.722143e-003 -9.645281e-002 -5.873510e-001 1.352422e-001 5.810634e-001 4.646485e-001 3.272934e-001 -6.415211e-001 7.316878e-002 -1.715168e-001 -1.398022e-001 -3.770302e-001 -7.841583e-002 -4.018211e-004 5.533284e-002 9.689901e-002 5.964022e-002 -1.493477e-002 4.264022e-002 -3.235120e-002 -6.639829e-002 -1.983681e-002 -3.295811e-002 1.407106e-001 3.097816e-002 -5.407048e-002
<VARIANCE> 39
 7.985320e+000 4.476666e+001 1.369673e+002 2.940836e+001 5.573381e+001 4.763456e+001 2.741643e+001 6.954403e+001 6.213490e+001 3.777591e+001 6.172898e+001 3.916908e+001 1.681872e+001 3.737042e-001 1.050267e+000 3.783942e+000 9.830821e-001 3.246682e+000 2.578124e+000 1.412801e+000 3.941456e+000 2.818653e+000 1.821348e+000 5.019413e+000 2.794500e+000 5.149471e-001 4.475644e-002 9.654859e-002 2.516640e-001 1.268561e-001 4.008121e-001 2.286476e-001 2.294085e-001 5.700766e-001 3.663983e-001 2.947072e-001 6.878200e-001 3.982186e-001 3.524047e-002
<GCONST> 1.073230e+002
<TRANSP> 5
 0.000000e+000 1.000000e+000 0.000000e+000 0.000000e+000 0.000000e+000
 0.000000e+000 9.176453e-001 8.235466e-002 0.000000e+000 0.000000e+000
 0.000000e+000 0.000000e+000 9.411952e-001 5.880480e-002 0.000000e+000
 0.000000e+000 0.000000e+000 0.000000e+000 8.890495e-001 1.109504e-001
 0.000000e+000 0.000000e+000 0.000000e+000 0.000000e+000 0.000000e+000
<ENDHMM>
~h "z"
<BEGINHMM>
<NUMSTATES> 5
<STATE> 2
<MEAN> 39
 2.318245e+000 1.447384e+000 3.589176e+000 -3.496170e+000 -1.022068e+000 -9.027925e+000 4.132755e-002 -3.559923e+000 -1.464388e+000 -9.096127e-001 -3.737008e+000 -2.954803e+000 6.020224e+001 -1.500574e-001 1.159341e-001 -4.045970e-003 3.526065e-001 -1.866644e-001 -1.159229e-001 4.196657e-002 5.119990e-002 1.008204e-001 -4.711453e-002 1.917794e-001 1.126171e-001 1.363667e-001 -7.206607e-002 -2.311665e-002 -5.180708e-002 -2.236482e-002 -1.379551e-002 1.465172e-001 8.761876e-002 4.296029e-002 2.651535e-002 -1.458159e-002 4.424137e-002 1.551969e-002 -2.467424e-002
<VARIANCE> 39
 3.070973e+001 4.131095e+001 3.720742e+001 4.974051e+001 5.360638e+001 6.112743e+001 2.443715e+001 2.993809e+001 3.129214e+001 3.009488e+001 2.281755e+001 2.469290e+001 3.121464e+001 1.842516e+000 1.843232e+000 1.709323e+000 2.220554e+000 2.333249e+000 3.224854e+000 1.641840e+000 2.094979e+000 1.755209e+000 1.847293e+000 1.500182e+000 1.707075e+000 8.484665e-001 2.189914e-001 1.737395e-001 1.824735e-001 2.036469e-001 2.686349e-001 4.092393e-001 2.873795e-001 3.233972e-001 2.772400e-001 2.636255e-001 2.848035e-001 2.720267e-001 6.124625e-002
<GCONST> 1.063093e+002
<STATE> 3
<MEAN> 39
 2.026656e+000 8.771446e-001 2.913560e+000 -2.897709e+000 -1.875261e+000 -8.411880e+000 3.304490e-001 -3.056590e+000 -5.967046e-001 -9.517845e-001 -3.312435e+000 -3.219973e+000 6.075292e+001 -1.715083e-001 -1.660295e-002 -2.080456e-001 2.500401e-001 -2.288222e-001 2.075193e-001 1.310605e-001 7.591902e-002 1.693699e-001 -3.156771e-002 2.178781e-001 -1.835224e-002 5.325959e-002 2.127983e-002 -4.653458e-002 -5.844665e-003 -5.901620e-002 -3.651054e-002 1.703296e-002 2.551655e-002 8.403112e-003 -2.478954e-002 6.370286e-005 1.515407e-002 6.735752e-003 3.490671e-003
<VARIANCE> 39
 3.654882e+001 5.425277e+001 3.783221e+001 3.714103e+001 6.541005e+001 5.920433e+001 2.201363e+001 3.158050e+001 3.168430e+001 2.713611e+001 2.213536e+001 2.907046e+001 3.331210e+001 1.475688e+000 1.482360e+000 1.601699e+000 1.942521e+000 1.923632e+000 2.658160e+000 1.382880e+000 2.005669e+000 1.820221e+000 1.604741e+000 1.398932e+000 1.924963e+000 6.064611e-001 1.643046e-001 1.580529e-001 1.742124e-001 1.986013e-001 2.660273e-001 3.878106e-001 2.544016e-001 2.902310e-001 2.567939e-001 2.657037e-001 2.516449e-001 2.894130e-001 5.374043e-002
<GCONST> 1.040648e+002
<STATE> 4
<MEAN> 39
 2.717322e+000 -3.366053e-001 1.091982e-001 -2.434860e+000 -3.918472e+000 -5.873310e+000 7.376060e-001 -3.801805e+000 7.060987e-001 -5.639120e-001 -2.217868e+000 -4.682419e+000 6.131052e+001 7.903190e-002 -1.887680e-002 -2.048523e-001 -2.763014e-002 -3.358564e-001 9.448720e-002 1.091434e-001 -1.760057e-001 -1.451703e-001 4.215045e-002 2.479920e-001 8.907171e-002 5.182643e-002 8.417862e-002 -3.268328e-002 8.017291e-002 -1.138048e-001 -2.763965e-002 -8.974733e-002 -3.027070e-002 -1.476759e-002 -8.316225e-002 -1.172101e-003 -2.016130e-002 3.661010e-002 2.808229e-002
<VARIANCE> 39
 5.493539e+001 6.426788e+001 4.397356e+001 3.256546e+001 8.083991e+001 5.846497e+001 1.994878e+001 3.570905e+001 3.797228e+001 2.692972e+001 2.257797e+001 4.192758e+001 3.465548e+001 1.228831e+000 1.226284e+000 1.488480e+000 1.762085e+000 1.591105e+000 2.675640e+000 1.417379e+000 2.047019e+000 1.928489e+000 1.548743e+000 1.299476e+000 2.111971e+000 4.534375e-001 1.458373e-001 1.399397e-001 1.485446e-001 2.097209e-001 2.451492e-001 3.481175e-001 2.636926e-001 3.144164e-001 2.374271e-001 2.717378e-001 2.199076e-001 2.897545e-001 4.569498e-002
<GCONST> 1.037806e+002
<TRANSP> 5
 0.000000e+000 1.000000e+000 0.000000e+000 0.000000e+000 0.000000e+000
 0.000000e+000 6.745837e-001 3.254163e-001 0.000000e+000 0.000000e+000
 0.000000e+000 0.000000e+000 6.747782e-001 3.252218e-001 0.000000e+000
 0.000000e+000 0.000000e+000 0.000000e+000 8.092672e-001 1.907328e-001
 0.000000e+000 0.000000e+000 0.000000e+000 0.000000e+000 0.000000e+000
<ENDHMM>
~h "ah"
<BEGINHMM>
<NUMSTATES> 5
<STATE> 2
<MEAN> 39
 5.688749e+000 -4.535995e+000 -2.165702e+000 -1.331789e+001 -1.189349e+000 -2.315230e+000 -5.220263e-001 -5.282437e+000 -3.029737e+000 -2.195578e+000 -5.122400e+000 -7.413677e+000 6.537666e+001 -2.640210e-001 -3.581743e-001 2.343711e-002 4.807631e-001 4.144586e-001 -3.145453e-001 7.122106e-002 -6.708184e-002 7.486255e-002 4.901459e-003 -3.911253e-001 -2.224227e-001 1.194010e-001 2.161621e-002 9.178916e-002 1.062487e-001 8.120596e-002 -5.005962e-002 -7.655352e-002 8.018265e-003 1.774353e-003 -4.895444e-002 -1.437976e-002 -6.020891e-002 9.189841e-002 -1.012640e-001
<VARIANCE> 39
 1.092424e+001 3.639514e+001 8.115537e+001 4.537112e+001 4.109412e+001 8.480400e+001 2.514740e+001 3.682491e+001 3.228834e+001 3.482552e+001 5.186538e+001 5.081432e+001 2.604306e+001 5.472949e-001 2.105526e+000 2.739602e+000 1.439429e+000 2.479670e+000 2.834841e+000 2.133056e+000 3.031022e+000 2.071642e+000 2.447322e+000 2.800939e+000 3.168664e+000 1.040063e+000 6.230468e-002 1.780506e-001 2.430751e-001 1.848191e-001 2.968355e-001 3.269735e-001 3.449697e-001 4.684800e-001 3.079998e-001 3.605137e-001 4.386323e-001 4.273358e-001 7.119390e-002
<GCONST> 1.099253e+002
<STATE> 3
<MEAN> 39
 5.059754e+000 -5.033248e+000 -2.005760e+000 -1.091787e+001 3.906764e-002 -3.348828e+000 6.855173e-001 -4.838158e+000 -2.567557e+000 -3.202887e+000 -6.381273e+000 -8.175764e+000 6.426554e+001 -9.319410e-002 1.508188e-001 5.089868e-001 7.640481e-001 1.267491e-001 -5.063397e-001 7.980398e-002 -1.713948e-001 -1.838655e-001 -1.153397e-002 -3.282994e-001 1.768496e-001 -3.284912e-001 3.518022e-002 1.046723e-001 3.046638e-002 3.959818e-002 -5.245104e-002 9.814145e-003 3.300677e-003 -4.665658e-002 -2.235830e-002 3.780632e-002 5.040062e-002 6.012908e-002 -8.324274e-002
<VARIANCE> 39
 8.906578e+000 3.314391e+001 7.654395e+001 4.440356e+001 2.922135e+001 7.383379e+001 2.522191e+001 3.322343e+001 2.933349e+001 2.986773e+001 3.551451e+001 4.694728e+001 2.836228e+001 4.847533e-001 1.843681e+000 2.289675e+000 1.296296e+000 2.015631e+000 2.461754e+000 2.017877e+000 2.659457e+000 1.704637e+000 2.278578e+000 2.311392e+000 3.043047e+000 7.891639e-001 5.624429e-002 1.500499e-001 2.601868e-001 1.720358e-001 2.491390e-001 2.890149e-001 3.454318e-001 3.500972e-001 2.497257e-001 3.187129e-001 3.207133e-001 4.481592e-001 5.733555e-002
<GCONST> 1.048174e+002
<STATE> 4
<MEAN> 39
 3.121579e+000 -2.597519e+000 -2.941492e-001 -4.951863e+000 8.955526e-001 -2.239536e+000 2.376092e+000 -5.138448e+000 -2.518650e+000 -3.370531e+000 -6.065318e+000 -6.042164e+000 5.935450e+001 -7.266915e-002 1.644288e-001 3.168905e-001 4.919252e-001 -3.559222e-002 -1.190283e-001 1.491439e-001 -6.279837e-004 -8.388351e-002 6.044600e-002 -7.441198e-003 2.219260e-001 -3.587570e-001 2.688780e-003 3.195306e-002 6.490023e-003 -1.001179e-002 -2.136379e-002 2.913979e-002 -1.190507e-002 7.836739e-003 5.918301e-003 4.268999e-002 4.594905e-002 1.502006e-002 -2.679100e-002
<VARIANCE> 39
 1.871339e+001 3.137898e+001 5.193042e+001 5.964241e+001 3.211900e+001 5.388972e+001 2.008862e+001 3.320792e+001 2.323513e+001 3.174917e+001 2.613573e+001 3.521540e+001 5.421914e+001 3.974630e-001 9.841005e-001 1.464245e+000 1.161432e+000 1.551978e+000 1.856397e+000 1.310971e+000 1.996371e+000 1.303901e+000 1.971865e+000 1.496661e+000 1.820834e+000 4.930975e-001 5.513103e-002 1.046397e-001 1.616853e-001 1.735662e-001 2.230542e-001 2.158527e-001 2.284503e-001 3.047031e-001 2.284583e-001 2.977929e-001 2.259382e-001 3.003754e-001 5.108083e-002
<GCONST> 9.754468e+001
<TRANSP> 5
 0.000000e+000 1.000000e+000 0.000000e+000 0.000000e+000 0.000000e+000
 0.000000e+000 8.340912e-001 1.659088e-001 0.000000e+000 0.000000e+000
 0.000000e+000 0.000000e+000 7.929100e-001 2.070899e-001 0.000000e+000
 0.000000e+000 0.000000e+000 0.000000e+000 8.723714e-001 1.276286e-001
 0.000000e+000 0.000000e+000 0.000000e+000 0.000000e+000 0.000000e+000
<ENDHMM>
~h "ao"
<BEGINHMM>
<NUMSTATES> 5
<STATE> 2
<MEAN> 39
 3.068942e+000 1.423856e+000 -4.953449e+000 -1.463592e+001 -1.212756e+000 5.878147e+000 3.044361e+000 -2.707389e+000 -2.812534e-001 -2.197240e+000 -2.626419e+000 -4.301295e+000 5.635215e+001 -1.028270e-001 7.453300e-002 -4.784752e-002 -1.951021e-001 6.882671e-003 1.255469e-001 1.491697e-001 8.482464e-002 -2.168727e-002 -3.569920e-001 2.633189e-002 9.086552e-002 -5.130863e-002 -5.459970e-002 -1.984124e-002 7.501969e-002 1.666284e-001 2.428475e-002 -1.000967e-001 -1.053394e-002 3.564626e-002 4.574370e-002 2.919650e-002 -1.524258e-002 6.086943e-002 -4.704662e-002
<VARIANCE> 39
 2.886464e+001 1.864323e+001 3.484385e+001 1.650273e+002 4.641611e+001 2.501609e+001 2.109966e+001 3.216988e+001 2.285036e+001 3.945725e+001 2.107927e+001 2.903077e+001 6.525493e+001 3.663575e-001 4.186624e-001 7.068702e-001 1.541306e+000 9.175936e-001 1.053652e+000 9.936863e-001 1.249782e+000 1.217482e+000 1.596831e+000 1.138206e+000 1.007312e+000 2.554134e-001 9.351452e-002 8.646075e-002 1.224011e-001 2.530125e-001 1.533282e-001 1.874155e-001 1.912510e-001 2.055116e-001 2.313301e-001 2.376208e-001 2.140428e-001 1.930040e-001 3.782575e-002
<GCONST> 9.098847e+001
<STATE> 3
<MEAN> 39
 3.512493e+000 1.040869e+000 -6.141500e+000 -1.721054e+001 -2.330457e-001 6.561464e+000 2.500394e+000 -2.428175e+000 -1.025986e+000 -3.715689e+000 -2.184359e+000 -3.838831e+000 5.836292e+001 -3.354492e-002 1.739528e-001 2.351800e-002 -1.288924e-001 -9.865134e-002 -6.097010e-002 1.168666e-001 1.445510e-001 -3.171550e-002 -3.066780e-001 4.521054e-002 1.904768e-001 -1.174741e-001 6.163632e-004 -2.222697e-002 3.942628e-002 8.706336e-002 -3.501275e-003 -9.649993e-002 -4.870356e-002 1.279376e-002 1.586402e-002 8.059984e-002 -1.633590e-002 2.235140e-002 -7.589573e-003
<VARIANCE> 39
 2.783539e+001 1.821682e+001 3.502724e+001 1.824443e+002 4.611106e+001 2.676508e+001 1.904883e+001 3.460869e+001 2.302008e+001 4.223816e+001 1.867878e+001 2.955668e+001 7.058446e+001 2.647649e-001 3.753130e-001 6.209738e-001 1.031179e+000 8.234218e-001 9.298095e-001 9.216298e-001 1.091284e+000 1.030106e+000 1.325379e+000 9.769927e-001 9.301420e-001 2.723079e-001 4.841542e-002 6.859399e-002 1.001209e-001 1.425101e-001 1.446152e-001 1.511081e-001 1.836927e-001 1.864665e-001 1.810621e-001 2.249979e-001 1.736783e-001 1.689362e-001 5.665853e-002
<GCONST> 8.687205e+001
<STATE> 4
<MEAN> 39
 5.059988e+000 3.547252e+000 -5.725201e+000 -1.958840e+001 -1.633441e+000 6.104959e+000 3.199427e+000 -7.774740e-001 -1.825515e+000 -5.825505e+000 -1.961689e+000 -3.717990e+000 5.831658e+001 -4.848644e-002 6.338142e-002 3.325098e-001 5.180589e-001 -2.729733e-002 -2.508991e-001 3.877511e-002 3.966224e-002 -2.624035e-002 1.906615e-001 -6.318488e-002 7.090972e-002 -3.133567e-001 -2.500310e-002 -3.006505e-002 9.954186e-003 7.252229e-002 4.102237e-002 -2.686984e-002 -1.789712e-002 -3.009525e-002 1.940040e-002 6.317063e-002 -9.505942e-003 -1.106887e-003 1.159359e-002
<VARIANCE> 39
 2.287581e+001 1.904605e+001 3.392242e+001 1.546676e+002 4.476730e+001 2.572717e+001 2.363135e+001 3.003621e+001 2.823733e+001 4.464010e+001 1.626481e+001 2.670061e+001 4.717995e+001 5.269498e-001 5.631704e-001 7.757198e-001 2.643956e+000 1.259128e+000 1.120249e+000 1.109707e+000 1.339109e+000 1.242345e+000 1.510424e+000 1.162152e+000 1.151506e+000 5.765445e-001 7.349455e-002 8.266228e-002 1.228171e-001 2.854413e-001 1.916306e-001 1.857536e-001 2.055758e-001 2.234215e-001 2.023712e-001 2.091282e-001 2.192203e-001 1.895867e-001 7.772329e-002
<GCONST> 9.384592e+001
<TRANSP> 5
 0.000000e+000 1.000000e+000 0.000000e+000 0.000000e+000 0.000000e+000
 0.000000e+000 8.441293e-001 1.558706e-001 0.000000e+000 0.000000e+000
 0.000000e+000 0.000000e+000 7.407348e-001 2.592653e-001 0.000000e+000
 0.000000e+000 0.000000e+000 0.000000e+000 9.394149e-001 6.058507e-002
 0.000000e+000 0.000000e+000 0.000000e+000 0.000000e+000 0.000000e+000
<ENDHMM>
~h "ax"
<BEGINHMM>
<NUMSTATES> 5
<STATE> 2
<MEAN> 39
 -2.319556e+000 -3.896445e+000 3.984910e-001 -1.514285e+000 2.697625e+000 6.118313e-001 3.855185e+000 -1.827305e-001 3.984995e+000 2.354902e+000 -1.198246e+000 -7.231365e-002 5.164642e+001 -1.785791e-002 8.429070e-002 -9.215143e-002 6.659967e-002 -9.355434e-002 1.329214e-001 6.323753e-002 -2.097752e-002 7.976523e-002 7.674360e-002 1.233118e-001 8.186642e-002 -1.736427e-001 1.706354e-002 9.577670e-003 1.242075e-002 -2.199979e-002 3.327812e-003 -4.160172e-002 -3.274735e-002 -2.575241e-003 -2.136657e-002 2.612358e-003 -3.831140e-002 1.500790e-002 1.980982e-002
<VARIANCE> 39
 1.484190e+001 1.655190e+001 1.741535e+001 2.137201e+001 1.905450e+001 2.875871e+001 2.152949e+001 3.167675e+001 1.834142e+001 2.240022e+001 2.666437e+001 4.309146e+001 4.280927e+001 3.069261e-001 5.100996e-001 6.253993e-001 7.430741e-001 1.171222e+000 1.617137e+000 1.284373e+000 1.652002e+000 1.485976e+000 1.623488e+000 1.471585e+000 1.307136e+000 3.864820e-001 6.244514e-002 7.809916e-002 1.193214e-001 1.464952e-001 2.140835e-001 2.931240e-001 2.096697e-001 3.169485e-001 2.876732e-001 3.185942e-001 2.862831e-001 2.531213e-001 5.770733e-002
<GCONST> 8.939146e+001
<STATE> 3
<MEAN> 39
 -3.719476e-001 -3.716903e+000 -1.844600e+000 -3.194177e+000 2.961642e+000 2.385433e+000 4.307460e+000 -1.989323e+000 3.213035e+000 1.099771e+000 -3.089329e+000 -3.683744e+000 5.466252e+001 -8.204280e-002 1.169365e-001 6.776816e-002 9.281415e-002 -1.091641e-001 -7.687387e-002 2.310121e-002 6.156162e-002 4.128732e-002 1.418235e-001 3.997584e-002 2.512260e-001 -7.247872e-002 2.327927e-002 -3.102709e-002 2.586410e-002 -1.168303e-001 1.086480e-003 -1.789414e-001 -4.946748e-002 3.832847e-002 -8.147621e-002 -1.021609e-002 -1.004768e-001 4.000836e-003 1.254553e-001
<VARIANCE> 39
 2.133192e+001 2.295147e+001 2.099525e+001 4.096818e+001 1.963544e+001 3.806401e+001 2.105988e+001 3.200488e+001 1.919477e+001 2.461807e+001 3.744877e+001 6.391671e+001 9.455495e+001 4.630778e-001 6.777898e-001 6.085288e-001 7.948117e-001 1.201864e+000 1.866587e+000 1.281235e+000 1.790744e+000 1.440142e+000 1.564999e+000 1.460275e+000 1.274448e+000 7.588050e-001 1.094714e-001 1.018234e-001 1.148613e-001 1.445290e-001 2.227169e-001 3.265821e-001 2.214796e-001 3.345713e-001 3.042751e-001 2.774262e-001 2.983868e-001 2.730067e-001 1.530400e-001
<GCONST> 9.648180e+001
<STATE> 4
<MEAN> 39
 1.596956e+000 -4.656144e+000 -2.999666e+000 -6.661104e+000 3.683041e+000 -2.048049e-001 4.012690e+000 -2.754676e+000 3.438370e+000 -1.530461e+000 -4.978743e+000 -6.438557e+000 5.995940e+001 -1.146056e-003 -2.307460e-003 2.267485e-001 -6.632123e-002 -2.879206e-002 -4.184611e-001 5.548991e-002 2.024152e-001 -1.032190e-001 9.135291e-003 -1.672968e-001 2.632858e-001 1.200609e-001 4.228877e-002 -9.158958e-003 2.922916e-002 -1.017340e-001 -8.320009e-003 -1.144878e-001 -1.980958e-002 2.199145e-002 -4.992072e-002 -8.017693e-003 -5.736824e-002 -3.692662e-002 1.219149e-001
<VARIANCE> 39
 2.204165e+001 3.042343e+001 2.662301e+001 4.193427e+001 1.868681e+001 6.351862e+001 2.225918e+001 3.688742e+001 2.429495e+001 2.664963e+001 4.816689e+001 7.356213e+001 7.538240e+001 6.027577e-001 8.272705e-001 1.227660e+000 1.576428e+000 1.142408e+000 2.338507e+000 1.587711e+000 1.737279e+000 1.564496e+000 1.549610e+000 1.709229e+000 1.501888e+000 1.834830e+000 1.145382e-001 1.204061e-001 1.879388e-001 2.487084e-001 2.029240e-001 3.323853e-001 2.533832e-001 2.965150e-001 3.194576e-001 2.433256e-001 3.189810e-001 2.564020e-001 2.796471e-001
<GCONST> 1.033943e+002
<TRANSP> 5
 0.000000e+000 1.000000e+000 0.000000e+000 0.000000e+000 0.000000e+000
 0.000000e+000 8.430339e-001 1.569661e-001 0.000000e+000 0.000000e+000
 0.000000e+000 0.000000e+000 5.257047e-001 4.742952e-001 0.000000e+000
 0.000000e+000 0.000000e+000 0.000000e+000 7.030487e-001 2.969513e-001
 0.000000e+000 0.000000e+000 0.000000e+000 0.000000e+000 0.000000e+000
<ENDHMM>
~h "ay"
<BEGINHMM>
<NUMSTATES> 5
<STATE> 2
<MEAN> 39
 -1.707128e+000 -2.801227e+000 6.519926e-002 -1.990378e+000 2.491819e+000 2.308431e+000 3.842285e+000 -3.564904e+000 9.327412e-001 9.162216e-001 -3.830603e+000 -1.876936e+000 5.285992e+001 -7.366674e-002 -2.269135e-001 -1.430525e-001 -1.494967e-001 1.108673e-001 -1.736119e-001 -1.030563e-001 1.778853e-001 5.025630e-002 -1.237688e-001 -1.276135e-002 -1.436987e-001 3.814270e-001 3.758348e-002 1.750622e-002 5.757229e-002 6.764601e-003 -6.954753e-003 -5.044704e-002 6.421290e-003 6.533575e-003 -2.005157e-002 2.059973e-002 -4.839685e-002 -3.414492e-002 1.217930e-002
<VARIANCE> 39
 2.328060e+001 2.237692e+001 2.859266e+001 4.315169e+001 1.943540e+001 3.264782e+001 2.229234e+001 3.250385e+001 1.906337e+001 2.538179e+001 3.157597e+001 3.719807e+001 8.154945e+001 7.928206e-001 6.326188e-001 8.985053e-001 1.382166e+000 1.152521e+000 2.187370e+000 1.620720e+000 1.999955e+000 1.320254e+000 1.604639e+000 1.811671e+000 1.561582e+000 1.601755e+000 1.273054e-001 1.113255e-001 1.522113e-001 1.696983e-001 2.157386e-001 3.175159e-001 3.002818e-001 3.415240e-001 2.565472e-001 2.902316e-001 3.339688e-001 2.887470e-001 1.152381e-001
<GCONST> 9.966172e+001
<STATE> 3
<MEAN> 39
 -9.687247e-001 -4.685852e+000 -1.615914e+000 -4.264343e+000 3.338309e+000 5.789043e-001 2.599676e+000 -2.275966e+000 8.274616e-001 -4.896801e-001 -4.592898e+000 -3.762424e+000 5.747269e+001 7.396583e-002 -2.640002e-001 -5.685417e-002 -1.729981e-001 9.723011e-002 -2.104645e-001 -1.923831e-002 1.795838e-001 3.188014e-002 -1.346812e-001 -1.833982e-001 -2.787938e-001 4.474432e-001 2.257732e-002 2.700601e-002 2.233309e-002 4.770526e-002 -3.504425e-002 3.479470e-002 7.170431e-002 -6.596588e-002 5.547922e-003 3.236273e-002 -1.062666e-002 3.316560e-002 -9.984405e-002
<VARIANCE> 39
 3.355197e+001 2.777925e+001 3.482781e+001 5.200955e+001 2.369014e+001 3.937770e+001 2.500083e+001 3.942909e+001 1.817460e+001 2.561371e+001 3.752803e+001 5.053544e+001 8.990987e+001 1.153135e+000 9.104757e-001 1.080547e+000 1.451962e+000 1.289834e+000 2.327523e+000 1.611414e+000 2.228394e+000 1.223610e+000 1.489304e+000 2.169391e+000 2.218025e+000 1.847281e+000 1.705354e-001 1.450973e-001 1.830571e-001 1.848630e-001 2.228716e-001 4.518132e-001 3.287954e-001 4.166423e-001 2.426290e-001 2.697450e-001 3.590368e-001 3.180455e-001 1.577324e-001
<GCONST> 1.054875e+002
<STATE> 4
<MEAN> 39
 1.019628e+000 -5.783008e+000 -2.032862e+000 -6.325384e+000 3.255215e+000 -8.931768e-001 2.113519e+000 -2.762734e+000 1.494950e-001 -2.146839e+000 -6.200596e+000 -5.647421e+000 6.118549e+001 2.525388e-002 -5.010116e-002 1.368771e-001 1.091988e-001 -1.673130e-001 -2.116280e-001 1.853207e-001 9.142509e-002 -6.431551e-003 -1.297073e-001 -7.229583e-002 7.771431e-002 8.735452e-003 4.444168e-003 6.382369e-002 5.326366e-002 2.369826e-002 -6.724387e-002 -3.193500e-002 5.781968e-003 -1.826243e-003 -1.691986e-002 2.657910e-002 3.044598e-002 6.183109e-002 -6.781870e-002
<VARIANCE> 39
 2.987824e+001 3.640076e+001 4.899909e+001 5.308275e+001 3.429708e+001 4.721899e+001 2.798742e+001 3.602735e+001 2.484188e+001 3.323433e+001 3.552674e+001 5.234873e+001 7.828745e+001 8.988515e-001 1.023770e+000 1.333806e+000 1.362160e+000 1.673414e+000 2.280078e+000 1.677157e+000 2.256152e+000 1.485598e+000 1.560269e+000 1.578681e+000 1.778284e+000 1.053470e+000 1.517359e-001 1.525119e-001 1.596852e-001 2.143032e-001 2.431187e-001 3.310194e-001 2.866355e-001 3.918144e-001 2.503141e-001 2.572576e-001 2.966232e-001 2.875073e-001 1.399803e-001
<GCONST> 1.055339e+002
<TRANSP> 5
 0.000000e+000 1.000000e+000 0.000000e+000 0.000000e+000 0.000000e+000
 0.000000e+000 7.266036e-001 2.733963e-001 0.000000e+000 0.000000e+000
 0.000000e+000 0.000000e+000 6.331294e-001 3.668706e-001 0.000000e+000
 0.000000e+000 0.000000e+000 0.000000e+000 8.691102e-001 1.308898e-001
 0.000000e+000 0.000000e+000 0.000000e+000 0.000000e+000 0.000000e+000
<ENDHMM>
~h "eh"
<BEGINHMM>
<NUMSTATES> 5
<STATE> 2
<MEAN> 39
 3.659728e+000 -6.941616e+000 -1.017686e-001 -1.007842e+001 -2.965529e+000 -1.197877e+001 4.795101e-001 3.876074e+000 1.997202e+000 -5.340754e-001 -1.024127e+001 -3.364299e+000 6.555431e+001 2.207642e-001 -7.138301e-001 1.600120e-002 -3.577527e-001 1.062432e-002 1.286786e-001 1.995846e-001 4.504987e-001 -2.117719e-001 -4.312187e-001 -1.979015e-001 -2.184447e-001 3.050644e-001 -2.401989e-001 2.939799e-001 -1.805039e-002 2.308480e-001 1.839267e-001 1.295904e-001 4.386813e-002 -1.505174e-001 -4.258990e-003 -7.755508e-002 2.479462e-001 -3.863816e-003 -2.410463e-001
<VARIANCE> 39
 1.760063e+001 2.031630e+001 1.222417e+001 3.155626e+001 1.341572e+001 3.919080e+001 2.096351e+001 3.238170e+001 1.242522e+001 1.859699e+001 2.800714e+001 1.924171e+001 2.917584e+001 1.168677e+000 1.510229e+000 5.956076e-001 1.616585e+000 1.079217e+000 1.698184e+000 1.636274e+000 2.565901e+000 9.423317e-001 1.476806e+000 1.260384e+000 9.267417e-001 9.291888e-001 3.768147e-001 1.617818e-001 1.118030e-001 2.584256e-001 2.111720e-001 3.308227e-001 3.102037e-001 4.094726e-001 1.834773e-001 2.902242e-001 2.179205e-001 1.582924e-001 1.289079e-001
<GCONST> 9.497108e+001
<STATE> 3
<MEAN> 39
 4.131158e+000 -7.009316e+000 3.652095e-002 -9.721938e+000 -2.384062e+000 -1.123422e+001 6.435689e-002 3.077182e+000 1.669616e+000 -1.067935e+000 -9.716687e+000 -4.146792e+000 6.493489e+001 1.729890e-001 -3.065308e-002 4.352299e-002 7.992125e-002 1.413018e-001 2.466690e-001 -1.297972e-001 -2.562330e-001 -1.528977e-001 -1.959209e-001 2.271887e-001 -2.946202e-001 -1.710317e-001 -1.618360e-002 1.908727e-001 4.303205e-003 1.012680e-001 3.887646e-002 3.373642e-002 -8.854045e-002 -1.968156e-001 1.981588e-002 8.469074e-002 1.433654e-001 -2.468654e-002 -1.232045e-001
<VARIANCE> 39
 1.789249e+001 2.099082e+001 1.172595e+001 3.166140e+001 1.345552e+001 3.927201e+001 2.682648e+001 4.415210e+001 1.466159e+001 1.872967e+001 3.059026e+001 2.160476e+001 3.052099e+001 6.403071e-001 1.313345e+000 5.349334e-001 1.302471e+000 7.796420e-001 1.760367e+000 1.812764e+000 2.567734e+000 9.842758e-001 1.422805e+000 1.253144e+000 8.314741e-001 8.047630e-001 1.541117e-001 1.792547e-001 8.704709e-002 2.505128e-001 1.427004e-001 2.699212e-001 2.830293e-001 3.982674e-001 2.022702e-001 2.384018e-001 2.043709e-001 1.514660e-001 1.225149e-001
<GCONST> 9.241669e+001
<STATE> 4
<MEAN> 39
 1.646049e+000 -2.897383e+000 1.674266e+000 -3.391408e+000 -5.022579e-002 -4.596666e+000 3.459475e-001 -2.356637e+000 5.422493e-001 -7.203592e-002 -7.884761e+000 -3.797937e+000 5.634249e+001 -1.373220e-002 9.935107e-002 1.370546e-002 1.514933e-001 7.662735e-002 2.132888e-001 -7.997540e-002 -2.047149e-001 -2.574881e-002 5.793428e-002 2.230647e-001 -1.243541e-001 -2.331668e-001 1.565519e-002 1.707081e-002 -5.904127e-003 -7.034136e-003 -6.668624e-003 -1.073958e-002 -2.489955e-002 -2.352729e-002 1.868784e-002 4.235031e-002 8.954532e-003 -2.089193e-002 1.954996e-003
<VARIANCE> 39
 2.900320e+001 2.461283e+001 1.367590e+001 4.415580e+001 1.530605e+001 5.393820e+001 2.950105e+001 4.794102e+001 1.782563e+001 1.844042e+001 3.753044e+001 2.715041e+001 7.234679e+001 6.023726e-001 9.023336e-001 5.612038e-001 1.047767e+000 1.001729e+000 1.503290e+000 1.650066e+000 2.526534e+000 1.387615e+000 1.426342e+000 1.895755e+000 1.209658e+000 6.151333e-001 8.999089e-002 1.500369e-001 8.547506e-002 1.969798e-001 2.040404e-001 2.586511e-001 3.086011e-001 4.156040e-001 2.639084e-001 2.636043e-001 3.207054e-001 2.135008e-001 9.998037e-002
<GCONST> 9.631392e+001
<TRANSP> 5
 0.000000e+000 1.000000e+000 0.000000e+000 0.000000e+000 0.000000e+000
 0.000000e+000 6.155541e-001 3.844458e-001 0.000000e+000 0.000000e+000
 0.000000e+000 0.000000e+000 6.282988e-001 3.717012e-001 0.000000e+000
 0.000000e+000 0.000000e+000 0.000000e+000 8.707389e-001 1.292612e-001
 0.000000e+000 0.000000e+000 0.000000e+000 0.000000e+000 0.000000e+000
<ENDHMM>
~h "ey"
<BEGINHMM>
<NUMSTATES> 5
<STATE> 2
<MEAN> 39
 -2.501390e-001 -4.669120e+000 -2.299495e+000 -4.416747e+000 6.022791e-001 -5.010391e-001 4.133042e+000 -2.377384e+000 2.140177e+000 -7.910416e-001 -4.660481e+000 -3.535003e+000 5.575097e+001 -4.912399e-003 -7.068623e-001 -2.084323e-001 -1.266916e-001 3.171454e-001 -4.556051e-001 2.905618e-001 4.475874e-001 -9.140165e-002 -5.635419e-001 -5.036888e-001 -2.561043e-001 8.391108e-001 8.883774e-002 -1.165266e-002 7.034525e-002 -4.936370e-002 -2.659146e-002 -1.166048e-001 -4.190629e-002 2.300723e-003 -1.289005e-001 -6.581843e-002 -3.074341e-002 9.029906e-003 1.248320e-001
<VARIANCE> 39
 2.364948e+001 3.711105e+001 3.052097e+001 4.037590e+001 2.867160e+001 3.986343e+001 2.532445e+001 2.875202e+001 2.719859e+001 4.883846e+001 4.446762e+001 4.156105e+001 8.300079e+001 1.515460e+000 1.760318e+000 2.281746e+000 2.490909e+000 2.059900e+000 3.024254e+000 2.185408e+000 2.435531e+000 2.895410e+000 3.911728e+000 2.359375e+000 2.626220e+000 4.562239e+000 2.322564e-001 2.836589e-001 3.979441e-001 3.340023e-001 3.290519e-001 4.460119e-001 3.849294e-001 4.449093e-001 5.132248e-001 6.291764e-001 4.254686e-001 4.733869e-001 5.715654e-001
<GCONST> 1.186107e+002
<STATE> 3
<MEAN> 39
 6.075068e-001 -8.129955e+000 -2.805789e+000 -5.991951e+000 1.844301e+000 -3.326445e+000 5.170526e+000 -9.810261e-001 8.257459e-001 -4.106266e+000 -6.997554e+000 -4.550771e+000 6.100306e+001 2.479499e-001 -5.482821e-001 2.624205e-002 -3.480060e-001 5.996548e-002 -6.723634e-001 1.340148e-001 2.861803e-001 -2.911895e-001 -5.951017e-001 -4.651846e-001 -1.368710e-001 1.005699e+000 2.123467e-002 7.760035e-002 5.663792e-002 1.156804e-002 -5.563886e-002 2.346341e-002 -1.364501e-002 -2.884235e-002 2.967345e-003 6.526643e-002 4.138094e-002 4.887802e-002 -9.000642e-002
<VARIANCE> 39
 2.012907e+001 4.128008e+001 2.484595e+001 3.186558e+001 2.454193e+001 4.370317e+001 2.187507e+001 2.210185e+001 2.563799e+001 4.584835e+001 3.529912e+001 3.496030e+001 8.509293e+001 1.300927e+000 1.978202e+000 1.927727e+000 2.083732e+000 1.705791e+000 2.967555e+000 1.767274e+000 2.019601e+000 1.804226e+000 2.540299e+000 2.079389e+000 2.211176e+000 4.201221e+000 2.267952e-001 2.698774e-001 3.211993e-001 3.035885e-001 2.774214e-001 4.268688e-001 3.290264e-001 3.674186e-001 3.242859e-001 4.432946e-001 3.638091e-001 3.862209e-001 5.079758e-001
<GCONST> 1.126302e+002
<STATE> 4
<MEAN> 39
 2.177011e+000 -9.173053e+000 -1.952015e+000 -7.133270e+000 1.042682e+000 -5.996349e+000 6.136761e+000 -6.601213e-001 -6.060210e-001 -6.489330e+000 -9.107328e+000 -3.994657e+000 6.366110e+001 4.702280e-002 3.401250e-001 3.396291e-001 5.100149e-002 -2.026016e-001 -3.240042e-001 -5.819711e-002 1.394904e-001 -2.805495e-002 1.112390e-001 -9.796485e-002 2.292909e-001 -1.262233e-001 -7.240853e-002 1.074946e-001 3.364737e-002 8.297279e-002 3.128351e-002 1.147362e-001 -4.900979e-002 -3.198443e-002 2.682571e-002 8.712440e-002 8.986054e-002 1.615401e-002 -1.598543e-001
<VARIANCE> 39
 1.610734e+001 3.267401e+001 2.065785e+001 3.071622e+001 2.081740e+001 4.377460e+001 2.077616e+001 1.881035e+001 1.937286e+001 4.110876e+001 2.233467e+001 2.352304e+001 6.695023e+001 8.616756e-001 1.486504e+000 1.086122e+000 1.376722e+000 1.175526e+000 1.983434e+000 1.475907e+000 1.317533e+000 1.117480e+000 1.740830e+000 1.447894e+000 1.152982e+000 1.792648e+000 1.642424e-001 1.549016e-001 1.590809e-001 2.184123e-001 1.968005e-001 4.005942e-001 2.621088e-001 2.463143e-001 1.908424e-001 2.607943e-001 2.602834e-001 1.968228e-001 1.823603e-001
<GCONST> 9.826506e+001
<TRANSP> 5
 0.000000e+000 1.000000e+000 0.000000e+000 0.000000e+000 0.000000e+000
 0.000000e+000 7.704875e-001 2.295124e-001 0.000000e+000 0.000000e+000
 0.000000e+000 0.000000e+000 7.888145e-001 2.111854e-001 0.000000e+000
 0.000000e+000 0.000000e+000 0.000000e+000 8.942806e-001 1.057194e-001
 0.000000e+000 0.000000e+000 0.000000e+000 0.000000e+000 0.000000e+000
<ENDHMM>
~h "ia"
<BEGINHMM>
<NUMSTATES> 5
<STATE> 2
<MEAN> 39
 1.747326e+000 8.956857e-001 5.122201e+000 -4.849031e+000 -3.058885e+000 -1.060916e+001 -5.446368e-001 -3.432588e+000 -3.385149e+000 6.320131e-002 -2.066506e+000 -5.699990e-001 6.212996e+001 3.770350e-001 -4.855816e-001 3.570411e-001 -4.795766e-001 -4.857262e-001 -6.472360e-001 -1.696460e-001 1.914840e-001 -1.926869e-001 -4.578336e-003 -3.580774e-002 1.599663e-001 3.943227e-001 4.045412e-002 -7.320490e-002 -2.947137e-002 -4.791026e-002 -2.521007e-002 3.110840e-002 -7.504737e-003 2.856851e-002 5.767109e-002 7.934204e-003 -5.739057e-002 -3.462080e-002 2.224506e-002
<VARIANCE> 39
 4.982908e+001 4.619351e+001 6.488552e+001 5.054681e+001 6.737955e+001 8.476298e+001 2.924049e+001 3.605434e+001 4.201280e+001 2.638519e+001 2.162322e+001 2.995445e+001 2.826971e+001 2.757057e+000 2.466763e+000 2.607412e+000 2.720329e+000 2.975819e+000 4.426915e+000 2.541553e+000 2.175243e+000 2.606967e+000 2.069851e+000 1.452729e+000 2.143309e+000 8.776157e-001 3.242814e-001 2.663704e-001 3.182792e-001 3.652589e-001 3.355368e-001 6.254200e-001 4.433955e-001 3.691041e-001 3.895383e-001 3.435694e-001 2.707691e-001 3.489664e-001 9.063292e-002
<GCONST> 1.160625e+002
<STATE> 3
<MEAN> 39
 4.240381e+000 -3.137987e+000 6.045433e+000 -6.940276e+000 -6.741619e+000 -1.301310e+001 -1.168625e+000 -2.246453e+000 -3.134549e+000 9.137750e-002 -2.751374e+000 -8.539238e-001 6.473750e+001 4.566282e-001 -5.750464e-001 -3.443804e-001 -3.776483e-001 -4.886183e-001 1.868786e-001 1.474069e-002 6.021541e-002 2.379589e-001 6.687902e-002 -8.658383e-002 -1.323098e-001 2.743147e-001 -5.481841e-002 6.123092e-002 -1.688396e-001 7.620969e-002 9.803982e-002 1.920485e-001 1.634877e-002 -2.915099e-002 1.004246e-001 -8.322072e-003 -1.813573e-002 -8.060175e-002 -5.602326e-002
<VARIANCE> 39
 2.732392e+001 3.921809e+001 7.987125e+001 3.690373e+001 4.399206e+001 8.162823e+001 2.561123e+001 4.223863e+001 4.183403e+001 2.405587e+001 2.146876e+001 4.028461e+001 2.401549e+001 1.418982e+000 1.814869e+000 3.203699e+000 2.275231e+000 2.350387e+000 3.685024e+000 1.795807e+000 2.259813e+000 2.567333e+000 1.426064e+000 1.578044e+000 2.512312e+000 6.509516e-001 1.953903e-001 1.853546e-001 2.824036e-001 2.910937e-001 2.886091e-001 4.620214e-001 3.393539e-001 3.451349e-001 3.550133e-001 2.380963e-001 2.602772e-001 3.662629e-001 4.834655e-002
<GCONST> 1.095820e+002
<STATE> 4
<MEAN> 39
 7.452143e+000 -5.786480e+000 -1.826416e+000 -5.998768e+000 -9.969388e+000 -7.311608e+000 5.060050e-001 -4.820300e+000 3.679423e-001 -2.658802e-001 -1.504047e+000 -4.735170e+000 6.527291e+001 2.408850e-001 8.728631e-002 -8.286005e-001 -6.666336e-002 -8.407726e-002 8.809798e-001 1.966882e-001 -4.270649e-001 1.294527e-001 6.999978e-002 1.237593e-001 -2.726611e-001 -1.502226e-001 -4.096213e-002 8.246852e-002 4.184985e-002 -2.087785e-002 7.709212e-002 2.577669e-002 8.010594e-003 -1.371971e-002 -3.294887e-002 -2.063964e-002 -2.017501e-002 3.069862e-002 -5.042179e-002
<VARIANCE> 39
 1.802065e+001 2.753094e+001 8.941064e+001 3.846729e+001 3.184986e+001 8.370424e+001 2.315724e+001 5.304556e+001 5.019445e+001 2.275423e+001 3.242596e+001 5.091079e+001 1.752858e+001 6.100250e-001 1.011317e+000 2.268657e+000 2.155952e+000 1.866594e+000 1.957303e+000 1.619320e+000 2.196530e+000 2.488787e+000 1.249175e+000 1.999044e+000 2.663199e+000 3.509958e-001 7.731155e-002 8.598500e-002 1.841056e-001 2.623073e-001 2.615331e-001 2.691719e-001 2.879089e-001 3.221510e-001 2.831697e-001 2.169635e-001 2.745869e-001 3.248082e-001 2.539617e-002
<GCONST> 1.018156e+002
<TRANSP> 5
 0.000000e+000 1.000000e+000 0.000000e+000 0.000000e+000 0.000000e+000
 0.000000e+000 7.682109e-001 2.317890e-001 0.000000e+000 0.000000e+000
 0.000000e+000 0.000000e+000 7.837301e-001 2.162698e-001 0.000000e+000
 0.000000e+000 0.000000e+000 0.000000e+000 8.821228e-001 1.178772e-001
 0.000000e+000 0.000000e+000 0.000000e+000 0.000000e+000 0.000000e+000
<ENDHMM>
~h "ih"
<BEGINHMM>
<NUMSTATES> 5
<STATE> 2
<MEAN> 39
 -7.372508e+000 1.409169e+000 -6.005626e-001 -2.887749e+000 2.562110e+000 -4.693299e+000 3.425895e+000 1.603970e+000 9.582219e-001 -5.249270e-001 -9.908256e-001 -2.223478e-001 6.068433e+001 2.873018e-002 -2.744030e-001 2.956333e-001 2.507691e-001 -1.731187e-001 -4.836988e-001 -1.316130e-001 1.747893e-001 2.034724e-001 -3.430470e-003 -7.487679e-002 -2.410473e-002 1.843610e-001 1.493756e-001 -8.312298e-002 1.092947e-002 -7.159745e-002 -8.847371e-002 -1.194120e-001 -7.353377e-002 -4.513683e-002 -3.969111e-002 2.341567e-002 -6.861379e-002 -1.598859e-002 5.812649e-002
<VARIANCE> 39
 8.272227e+001 2.389514e+001 3.036630e+001 4.273861e+001 5.373259e+001 6.717393e+001 2.489354e+001 2.430523e+001 3.113209e+001 2.495387e+001 2.628920e+001 2.099138e+001 2.526509e+001 6.735232e+000 1.544554e+000 2.249031e+000 4.616480e+000 2.848993e+000 4.204409e+000 2.617825e+000 2.419934e+000 2.775354e+000 2.233999e+000 2.999405e+000 1.993993e+000 1.497500e+000 7.755811e-001 2.084915e-001 3.377214e-001 5.342972e-001 4.113320e-001 6.138445e-001 4.658602e-001 4.312417e-001 4.328091e-001 4.681086e-001 4.930812e-001 3.894832e-001 2.254461e-001
<GCONST> 1.190058e+002
<STATE> 3
<MEAN> 39
 -4.946360e+000 -4.692281e-001 7.755328e-001 -3.202643e+000 7.927513e-001 -8.982432e+000 2.124267e+000 1.437904e+000 3.596586e-001 -1.941982e-001 -2.087838e+000 -6.092007e-001 6.183914e+001 3.549786e-001 -3.442712e-001 1.672140e-001 -4.056260e-002 -3.029506e-001 -4.851449e-001 -1.752145e-001 3.097990e-003 4.456990e-002 7.660884e-002 -1.330359e-001 -2.505833e-002 1.899899e-001 -1.688943e-002 -9.484465e-003 -3.187915e-002 -3.023946e-002 -3.351892e-002 4.866615e-002 3.606300e-002 -3.656356e-003 -1.403852e-002 8.819082e-003 4.046412e-002 2.799344e-002 -5.070614e-003
<VARIANCE> 39
 7.494859e+001 2.901738e+001 3.721089e+001 4.168380e+001 6.163651e+001 8.974474e+001 2.600422e+001 2.355011e+001 3.830262e+001 2.317534e+001 2.879971e+001 2.061356e+001 2.645409e+001 6.063001e+000 2.006446e+000 3.126467e+000 3.583634e+000 3.841255e+000 5.364981e+000 2.580250e+000 2.334278e+000 3.669734e+000 2.045480e+000 2.821622e+000 2.033635e+000 1.871959e+000 7.424719e-001 2.808919e-001 4.532174e-001 5.204669e-001 4.835622e-001 7.730047e-001 4.847168e-001 4.087397e-001 6.064204e-001 4.228303e-001 5.207238e-001 4.001426e-001 2.545030e-001
<GCONST> 1.224078e+002
<STATE> 4
<MEAN> 39
 -2.445723e+000 -1.522947e+000 1.176768e+000 -3.361134e+000 -9.549889e-001 -1.027069e+001 1.353851e+000 3.312865e-002 -5.562039e-001 2.095033e-001 -1.533769e+000 -8.934113e-001 6.198031e+001 -2.111994e-001 5.825517e-002 -8.250941e-002 1.673927e-001 2.171660e-001 2.008179e-001 7.317923e-003 -5.435892e-002 1.240264e-001 1.063430e-001 8.410895e-002 -1.217728e-002 -1.111533e-001 -2.095980e-002 1.733541e-002 -1.057079e-003 3.801375e-003 4.257242e-003 2.162682e-002 1.077595e-002 9.059363e-003 3.768186e-003 7.508066e-003 1.259919e-003 7.577049e-003 -9.730192e-003
<VARIANCE> 39
 7.216002e+001 2.751023e+001 5.559221e+001 4.436235e+001 8.725700e+001 7.445748e+001 2.409052e+001 3.114968e+001 4.894541e+001 2.572849e+001 2.733933e+001 2.436634e+001 2.876857e+001 3.235369e+000 1.390873e+000 2.971534e+000 2.256881e+000 3.766624e+000 3.582196e+000 1.992626e+000 2.280520e+000 3.984388e+000 1.796880e+000 2.145975e+000 1.668809e+000 1.363436e+000 3.751307e-001 1.956739e-001 4.704474e-001 3.456323e-001 4.756563e-001 5.324640e-001 3.758415e-001 3.991809e-001 6.289666e-001 3.311668e-001 3.993049e-001 3.073607e-001 1.822331e-001
<GCONST> 1.174897e+002
<TRANSP> 5
 0.000000e+000 1.000000e+000 0.000000e+000 0.000000e+000 0.000000e+000
 0.000000e+000 7.557796e-001 2.442204e-001 0.000000e+000 0.000000e+000
 0.000000e+000 0.000000e+000 8.114747e-001 1.885253e-001 0.000000e+000
 0.000000e+000 0.000000e+000 0.000000e+000 9.524680e-001 4.753201e-002
 0.000000e+000 0.000000e+000 0.000000e+000 0.000000e+000 0.000000e+000
<ENDHMM>
~h "iy"
<BEGINHMM>
<NUMSTATES> 5
<STATE> 2
<MEAN> 39
 1.936250e+000 -2.823776e+000 1.465387e+001 -9.513539e+000 -6.370637e+000 -1.539565e+001 -4.318466e+000 -3.192603e+000 -9.958982e+000 -6.201050e-001 -3.900492e+000 2.576378e+000 6.375884e+001 -3.128332e-001 3.066713e-001 6.311185e-001 -3.472925e-001 -1.734743e-001 1.565759e-003 1.774505e-001 -2.646631e-001 -5.231621e-001 -2.264575e-001 1.857478e-001 4.025112e-001 -8.669970e-002 3.436033e-002 3.818002e-002 -1.788059e-001 1.099767e-001 7.667367e-002 1.560660e-001 -2.454143e-003 -1.187757e-001 1.129483e-001 7.228643e-002 -2.822422e-002 -1.279171e-001 -7.733520e-002
<VARIANCE> 39
 2.101906e+001 2.952272e+001 5.108436e+001 3.276215e+001 4.295618e+001 4.678912e+001 3.314234e+001 3.629855e+001 5.692833e+001 2.265403e+001 1.942767e+001 2.875403e+001 1.908218e+001 1.113948e+000 1.246570e+000 2.171576e+000 1.803639e+000 2.599107e+000 2.116045e+000 1.696769e+000 2.414806e+000 2.682546e+000 1.689198e+000 1.594131e+000 2.140100e+000 6.860991e-001 1.186715e-001 1.576303e-001 2.013459e-001 2.274378e-001 3.238184e-001 2.861653e-001 3.063581e-001 4.033646e-001 3.908730e-001 3.236877e-001 2.699786e-001 3.247319e-001 6.885453e-002
<GCONST> 1.051260e+002
<STATE> 3
<MEAN> 39
 1.110377e+000 -8.483538e-001 1.462915e+001 -8.553911e+000 -6.207644e+000 -1.332334e+001 -2.350462e+000 -4.818503e+000 -8.653896e+000 -1.812291e+000 -2.696841e+000 3.018676e+000 6.148707e+001 -1.708460e-001 3.728804e-001 -4.491917e-001 3.425899e-001 3.487656e-001 7.298853e-001 1.645791e-001 -2.782815e-001 4.012274e-001 -2.499455e-002 1.404524e-002 -2.956963e-001 -4.158434e-001 1.586993e-003 -8.160135e-003 -1.978693e-001 8.749750e-002 6.017276e-002 1.422631e-001 3.172893e-003 3.359079e-002 1.461666e-001 3.121595e-002 -2.119108e-002 -8.828021e-002 -3.143151e-002
<VARIANCE> 39
 1.684103e+001 2.612438e+001 5.360426e+001 3.552745e+001 3.193856e+001 5.348238e+001 2.210353e+001 3.427668e+001 5.272017e+001 2.303889e+001 1.733188e+001 2.593900e+001 2.582178e+001 1.214206e+000 1.222677e+000 2.237111e+000 2.307539e+000 1.788043e+000 2.509227e+000 1.439132e+000 2.304060e+000 2.803541e+000 1.571047e+000 1.224877e+000 1.861143e+000 7.672520e-001 1.728531e-001 1.614205e-001 2.424899e-001 3.300296e-001 2.503979e-001 3.948146e-001 2.716294e-001 3.560026e-001 3.711419e-001 2.732094e-001 2.258880e-001 3.077320e-001 1.005780e-001
<GCONST> 1.046226e+002
<STATE> 4
<MEAN> 39
 9.949056e-002 2.617895e+000 1.328640e+001 -5.687021e+000 -4.433866e+000 -6.225135e+000 -1.471422e+000 -6.600938e+000 -5.714634e+000 -2.529057e+000 -2.693427e+000 1.608098e+000 5.691049e+001 -1.036685e-001 4.658693e-002 -6.484370e-001 4.447211e-001 4.161841e-001 8.698139e-001 2.238169e-001 4.083396e-002 5.111205e-001 1.864378e-001 -9.475727e-002 -3.233190e-001 -4.613672e-001 -9.946421e-003 -4.954160e-002 -5.311131e-002 -2.262306e-002 -3.475201e-003 2.461060e-002 1.530218e-002 3.657932e-002 8.399229e-003 3.220762e-002 -1.006079e-003 1.865210e-002 3.529378e-003
<VARIANCE> 39
 1.414472e+001 2.418400e+001 5.051628e+001 3.528271e+001 2.951856e+001 6.377108e+001 2.457230e+001 2.747912e+001 3.404195e+001 2.451043e+001 1.684451e+001 2.071780e+001 3.586277e+001 8.282771e-001 1.009310e+000 1.425884e+000 1.557609e+000 1.362181e+000 2.012195e+000 1.153837e+000 1.680203e+000 1.690043e+000 1.463885e+000 1.185576e+000 1.282870e+000 5.540558e-001 1.143507e-001 1.286215e-001 1.843392e-001 2.420868e-001 2.358734e-001 3.432120e-001 2.122190e-001 2.696543e-001 2.814880e-001 2.537074e-001 2.247008e-001 2.368588e-001 7.777900e-002
<GCONST> 9.740868e+001
<TRANSP> 5
 0.000000e+000 1.000000e+000 0.000000e+000 0.000000e+000 0.000000e+000
 0.000000e+000 8.579758e-001 1.420242e-001 0.000000e+000 0.000000e+000
 0.000000e+000 0.000000e+000 7.602367e-001 2.397633e-001 0.000000e+000
 0.000000e+000 0.000000e+000 0.000000e+000 8.795069e-001 1.204931e-001
 0.000000e+000 0.000000e+000 0.000000e+000 0.000000e+000 0.000000e+000
<ENDHMM>
~h "jh"
<BEGINHMM>
<NUMSTATES> 5
<STATE> 2
<MEAN> 39
 -6.240042e+000 -3.159052e+000 -5.749702e-001 1.002539e+000 4.664667e+000 5.085878e+000 3.384493e+000 2.325327e+000 3.470510e+000 2.781803e+000 -6.527439e-001 5.928094e-001 5.786240e+001 1.634278e-001 -3.256906e-002 -8.830951e-002 -2.128362e-001 4.193873e-002 1.080457e-001 -3.785814e-001 1.233228e-001 2.400384e-002 1.559434e-001 1.811364e-001 -1.509223e-001 8.231648e-001 2.072832e-001 3.979640e-002 2.284077e-002 -2.022812e-001 -1.917697e-002 -1.378757e-001 -1.619068e-001 -9.297752e-002 -1.123849e-001 4.824905e-002 -1.100033e-002 -1.757368e-002 1.648776e-002
<VARIANCE> 39
 2.997898e+001 8.315130e+000 1.490222e+001 5.837981e+001 1.722386e+001 1.168068e+001 1.232870e+001 2.090827e+001 3.885905e+001 1.699744e+001 1.835979e+001 1.785052e+001 6.301723e+001 2.657556e+000 8.331720e-001 1.179698e+000 2.184653e+000 1.820171e+000 1.393915e+000 1.708088e+000 1.390487e+000 2.614053e+000 2.210936e+000 1.778974e+000 1.756855e+000 1.782926e+000 3.909945e-001 1.423089e-001 2.034359e-001 4.690605e-001 3.758676e-001 1.829187e-001 3.574964e-001 2.799657e-001 5.821288e-001 5.007750e-001 2.942495e-001 2.392465e-001 2.720123e-001
<GCONST> 1.028536e+002
<STATE> 3
<MEAN> 39
 5.592063e+000 1.339863e-001 -3.621826e+000 -1.780427e+001 2.329128e+000 4.144810e+000 -3.492416e+000 -1.175776e+000 -3.442398e+000 5.324831e+000 2.844144e-001 -5.871488e+000 6.636395e+001 1.177003e+000 2.879380e-001 -1.081244e-001 -1.591619e+000 -2.597779e-001 -1.234802e-001 -5.181552e-001 -2.969722e-001 -8.740143e-001 1.231575e-001 1.014173e-002 -6.029661e-001 7.599671e-002 -1.792006e-001 1.684183e-004 6.441338e-002 2.338229e-001 -1.477925e-002 -6.999989e-002 1.036720e-001 5.226817e-002 -6.657480e-002 -1.100458e-001 -1.001826e-001 3.906017e-002 -7.723776e-002
<VARIANCE> 39
 3.786283e+001 9.117983e+000 9.875131e+000 1.105505e+002 1.162830e+001 7.791480e+000 1.634768e+001 2.051819e+001 3.896734e+001 2.839337e+001 3.338326e+001 4.050454e+001 6.068385e+000 3.813118e+000 5.965475e-001 9.545535e-001 7.872259e+000 9.011833e-001 8.423034e-001 2.215807e+000 1.438628e+000 2.413338e+000 2.485630e+000 1.388954e+000 1.540667e+000 6.097550e-001 5.505816e-001 9.928963e-002 1.440929e-001 1.051204e+000 1.653015e-001 1.369716e-001 3.568315e-001 2.570452e-001 4.307470e-001 3.820152e-001 1.867136e-001 2.093024e-001 7.385467e-002
<GCONST> 9.801701e+001
<STATE> 4
<MEAN> 39
 1.538293e+000 -2.583137e-001 4.724475e+000 -7.604757e+000 -2.752186e+000 -2.237443e+000 -1.919549e+000 -6.776421e+000 -5.355511e+000 4.848420e+000 -6.157800e+000 -1.384729e+000 6.073539e+001 1.146958e-002 -2.491809e-002 3.877729e-001 2.959818e-001 -1.610978e-001 -3.190952e-001 -7.434601e-002 -1.333453e-001 -1.823352e-001 -4.867676e-002 1.520583e-001 1.558954e-001 -5.259497e-002 5.422446e-003 -9.856583e-003 -1.334152e-002 -3.716544e-002 2.943441e-002 -1.432249e-005 -5.354163e-003 2.264676e-002 2.990587e-003 -7.689227e-003 9.160206e-003 1.733220e-003 -3.262097e-004
<VARIANCE> 39
 8.031517e+001 1.438938e+001 3.870815e+001 7.999234e+001 3.203882e+001 5.504540e+001 4.613082e+001 4.386052e+001 7.110681e+001 2.644601e+001 9.282125e+001 3.683402e+001 3.321178e+001 5.472609e+000 1.228620e+000 1.833607e+000 4.819801e+000 2.279411e+000 4.810312e+000 3.955063e+000 3.466024e+000 4.233581e+000 2.693668e+000 4.524064e+000 2.251736e+000 2.544500e+000 7.438794e-001 2.403582e-001 2.866297e-001 7.501988e-001 4.076325e-001 6.853678e-001 7.769151e-001 5.600486e-001 5.122269e-001 4.954807e-001 6.930459e-001 4.261405e-001 4.030229e-001
<GCONST> 1.269555e+002
<TRANSP> 5
 0.000000e+000 1.000000e+000 0.000000e+000 0.000000e+000 0.000000e+000
 0.000000e+000 8.190476e-001 1.809524e-001 0.000000e+000 0.000000e+000
 0.000000e+000 0.000000e+000 8.531110e-001 1.468890e-001 0.000000e+000
 0.000000e+000 0.000000e+000 0.000000e+000 9.718687e-001 2.813132e-002
 0.000000e+000 0.000000e+000 0.000000e+000 0.000000e+000 0.000000e+000
<ENDHMM>
~h "ng"
<BEGINHMM>
<NUMSTATES> 5
<STATE> 2
<MEAN> 39
 5.738507e+000 -3.954479e+000 -9.012506e+000 -1.259247e+001 8.202675e+000 1.554951e+000 2.112441e+000 -1.090644e+001 -6.159852e+000 -1.659409e+000 -5.255962e+000 -7.849774e+000 6.492603e+001 3.578110e-002 5.084921e-001 2.798024e-002 2.523395e-001 -7.238739e-002 4.959415e-001 4.174613e-001 -2.704037e-001 -5.311326e-001 2.667406e-001 3.785042e-001 7.542746e-002 -5.176403e-001 -3.961739e-002 -5.354234e-003 1.288539e-001 -2.160322e-002 -1.173446e-001 -9.581177e-002 6.340859e-003 1.493110e-001 5.396730e-002 1.426147e-002 -1.221473e-001 6.504300e-002 2.100202e-003
<VARIANCE> 39
 4.927756e+000 1.853399e+001 3.668606e+001 2.362168e+001 1.590495e+001 2.200166e+001 2.251611e+001 1.185816e+001 2.990343e+001 2.164579e+001 4.389423e+001 1.906578e+001 1.727959e+001 2.911072e-001 3.216071e-001 1.357513e+000 4.726194e-001 1.015308e+000 9.379350e-001 1.230147e+000 1.488283e+000 1.426750e+000 9.842241e-001 2.528351e+000 1.434247e+000 1.872987e-001 3.500036e-002 4.466413e-002 1.064065e-001 8.360299e-002 1.455873e-001 1.050055e-001 1.874987e-001 1.899905e-001 1.845101e-001 1.698591e-001 2.059012e-001 2.198488e-001 2.318976e-002
<GCONST> 7.912879e+001
<STATE> 3
<MEAN> 39
 4.829535e+000 1.093316e+000 -8.725335e-001 -8.938969e+000 3.151654e+000 2.181567e+000 4.504704e+000 -1.026517e+001 -6.813231e+000 7.916707e-001 -1.138750e+001 -4.512360e+000 5.941218e+001 -2.060489e-001 2.888088e-001 8.750957e-001 6.105250e-001 -1.566000e-001 -4.224392e-004 -4.861299e-002 3.174993e-001 4.207654e-001 -1.493926e-002 -5.303181e-001 2.672051e-001 -4.917591e-001 -1.684249e-002 -4.084685e-002 -2.763135e-002 4.447664e-002 3.469146e-002 1.044766e-002 -5.797327e-003 2.285660e-002 4.587392e-002 -6.015834e-003 8.122300e-002 -3.121016e-003 -1.486525e-002
<VARIANCE> 39
 5.053792e+000 9.733523e+000 5.426548e+001 2.743876e+001 1.472528e+001 1.764372e+001 1.847150e+001 1.234205e+001 2.078415e+001 1.403817e+001 4.321921e+001 2.000922e+001 1.196057e+001 2.388806e-001 3.088762e-001 9.292810e-001 9.798818e-001 1.014778e+000 1.164729e+000 1.324649e+000 1.003756e+000 1.004816e+000 8.612931e-001 1.718672e+000 1.216027e+000 2.553348e-001 3.634042e-002 5.216287e-002 1.257991e-001 1.371090e-001 1.456200e-001 1.679325e-001 1.996520e-001 1.926994e-001 1.699376e-001 1.651096e-001 1.568102e-001 2.366514e-001 3.080842e-002
<GCONST> 7.812291e+001
<STATE> 4
<MEAN> 39
 1.853363e+000 2.619659e+000 6.130604e+000 -1.130913e+000 3.560488e+000 2.758375e+000 4.484325e+000 -5.637863e+000 -2.237623e+000 7.145125e-001 -1.286017e+001 -3.172350e+000 5.342191e+001 -2.912128e-001 -1.939411e-001 -7.648129e-003 4.909124e-001 3.167490e-003 1.521650e-001 2.705178e-001 3.893987e-001 4.323745e-001 1.132289e-001 5.205244e-001 3.139011e-001 -5.488347e-001 -1.112846e-002 -5.971406e-002 -1.112217e-001 -1.049337e-001 -2.944509e-002 8.678087e-003 3.541379e-002 -2.331268e-002 -1.904683e-003 5.406683e-002 5.011140e-002 2.734369e-002 2.673471e-002
<VARIANCE> 39
 5.845162e+000 4.344928e+000 1.005508e+001 2.645967e+001 1.164082e+001 1.132538e+001 1.659198e+001 1.580604e+001 1.872850e+001 1.525055e+001 1.896497e+001 2.171378e+001 1.003345e+001 2.331925e-001 3.852537e-001 7.286157e-001 1.233106e+000 8.239495e-001 8.906736e-001 1.689616e+000 1.460791e+000 1.494590e+000 1.634371e+000 1.360627e+000 1.449168e+000 1.149469e-001 2.461186e-002 4.840259e-002 9.533235e-002 2.397173e-001 1.503951e-001 1.860804e-001 3.389527e-001 2.866392e-001 2.801565e-001 3.472646e-001 2.365211e-001 2.934473e-001 1.925754e-002
<GCONST> 7.704691e+001
<TRANSP> 5
 0.000000e+000 1.000000e+000 0.000000e+000 0.000000e+000 0.000000e+000
 0.000000e+000 9.065783e-001 9.342171e-002 0.000000e+000 0.000000e+000
 0.000000e+000 0.000000e+000 9.197922e-001 8.020778e-002 0.000000e+000
 0.000000e+000 0.000000e+000 0.000000e+000 8.386707e-001 1.613293e-001
 0.000000e+000 0.000000e+000 0.000000e+000 0.000000e+000 0.000000e+000
<ENDHMM>
~h "ow"
<BEGINHMM>
<NUMSTATES> 5
<STATE> 2
<MEAN> 39
 -2.002439e-001 -2.457836e-001 -3.690324e-001 -4.225543e+000 -4.538506e-002 3.865527e+000 3.827645e+000 -3.215028e+000 1.119765e+000 1.946395e-001 -1.750986e+000 -1.052738e+000 5.067118e+001 -1.303923e-001 -2.523104e-002 5.276657e-002 1.418735e-001 9.855005e-002 -8.421695e-003 2.896955e-002 6.804504e-002 7.377205e-003 1.656700e-002 -1.420959e-002 1.066963e-001 -1.259418e-001 1.403839e-002 -5.418416e-004 7.434731e-003 2.257866e-002 -4.026909e-003 -1.926019e-002 3.503013e-003 -1.578994e-002 -1.354674e-002 1.281144e-002 -1.421721e-002 -1.265255e-002 1.503367e-003
<VARIANCE> 39
 3.272279e+001 1.980366e+001 2.027482e+001 9.984509e+001 3.807680e+001 2.402820e+001 1.994029e+001 2.779982e+001 2.371964e+001 3.256048e+001 2.950918e+001 2.603587e+001 4.272714e+001 3.699001e-001 5.615761e-001 6.443590e-001 1.379676e+000 1.085178e+000 1.217443e+000 1.309842e+000 1.747070e+000 1.541533e+000 1.603796e+000 1.401572e+000 1.220917e+000 2.995892e-001 5.348483e-002 7.796586e-002 1.069072e-001 1.945241e-001 1.824391e-001 2.136075e-001 2.594874e-001 3.185811e-001 2.955085e-001 2.861976e-001 2.692972e-001 2.273634e-001 3.274239e-002
<GCONST> 9.183025e+001
<STATE> 3
<MEAN> 39
 3.451600e-001 -9.467362e-002 -1.231377e+000 -5.912329e+000 -7.876155e-001 3.809051e+000 3.085538e+000 -2.984266e+000 6.231984e-001 -3.166978e-001 -9.777690e-001 -1.421690e+000 5.381163e+001 -8.321073e-002 1.163675e-001 1.041640e-001 8.814453e-002 9.953476e-002 -5.500869e-002 4.575023e-002 7.669736e-002 -1.061208e-001 4.379102e-002 -9.123828e-002 3.769839e-002 -8.276637e-002 4.540653e-002 -9.478900e-003 1.007041e-002 2.502502e-002 9.795560e-003 -6.165596e-002 8.106775e-003 -2.099616e-002 -1.105142e-002 3.496579e-002 -3.363689e-002 -4.811688e-002 1.437351e-002
<VARIANCE> 39
 5.157360e+001 2.128739e+001 2.325507e+001 1.170574e+002 4.347794e+001 3.033007e+001 2.308681e+001 3.268180e+001 2.791462e+001 3.759240e+001 3.387278e+001 2.857525e+001 6.085320e+001 6.092807e-001 6.329078e-001 7.501245e-001 1.498249e+000 1.349077e+000 1.349260e+000 1.525862e+000 1.862951e+000 1.456199e+000 1.599753e+000 1.510419e+000 1.284284e+000 4.839855e-001 1.154140e-001 9.972301e-002 1.186626e-001 2.400733e-001 2.087316e-001 2.186213e-001 3.087144e-001 3.394279e-001 2.860176e-001 2.768262e-001 2.829428e-001 2.165190e-001 6.515270e-002
<GCONST> 9.850220e+001
<STATE> 4
<MEAN> 39
 2.052413e+000 1.500457e+000 -1.593342e+000 -8.548124e+000 -9.047452e-001 3.668397e+000 2.138162e+000 -2.765948e+000 -6.713322e-001 -3.865332e-001 -9.179189e-001 -2.503579e+000 5.563892e+001 5.323834e-002 8.750459e-002 7.192690e-002 4.794025e-002 1.320272e-001 -1.309675e-001 -1.177921e-002 4.842372e-002 -1.213033e-001 1.221378e-001 -8.899774e-002 -1.183800e-001 5.305868e-003 1.305634e-002 -3.505219e-003 4.859721e-003 -8.085901e-003 7.982144e-003 -2.942128e-002 -3.304590e-003 5.627778e-005 8.229802e-003 7.520751e-004 -3.120589e-002 -3.392506e-002 2.995303e-002
<VARIANCE> 39
 5.373890e+001 2.206410e+001 2.572740e+001 1.416588e+002 4.111709e+001 2.530481e+001 2.895797e+001 2.880755e+001 3.507630e+001 4.555098e+001 3.566608e+001 2.914439e+001 6.557842e+001 1.684940e+000 8.174819e-001 9.490996e-001 3.586079e+000 1.697758e+000 1.433764e+000 1.972544e+000 1.857894e+000 1.725589e+000 1.906425e+000 1.846492e+000 1.450713e+000 8.424320e-001 2.311920e-001 1.263618e-001 1.435999e-001 4.575819e-001 2.567733e-001 2.414332e-001 3.640632e-001 3.581886e-001 3.167939e-001 3.169315e-001 3.303415e-001 2.298122e-001 9.501574e-002
<GCONST> 1.065704e+002
<TRANSP> 5
 0.000000e+000 1.000000e+000 0.000000e+000 0.000000e+000 0.000000e+000
 0.000000e+000 8.934090e-001 1.065911e-001 0.000000e+000 0.000000e+000
 0.000000e+000 0.000000e+000 6.747959e-001 3.252040e-001 0.000000e+000
 0.000000e+000 0.000000e+000 0.000000e+000 8.087515e-001 1.912485e-001
 0.000000e+000 0.000000e+000 0.000000e+000 0.000000e+000 0.000000e+000
<ENDHMM>
~h "th"
<BEGINHMM>
<NUMSTATES> 5
<STATE> 2
<MEAN> 39
 -7.908148e+000 1.589436e+000 -2.090051e-001 -1.923987e+000 5.410584e+000 -4.041837e+000 3.409027e+000 1.625814e+000 2.045096e+000 -2.872630e-001 -1.185626e+000 -5.928623e-001 5.911643e+001 -7.896510e-001 2.285282e-001 -1.515860e-001 3.630021e-001 3.555598e-001 -8.002815e-002 -1.413941e-001 5.977614e-001 3.742471e-001 9.967329e-002 3.538134e-001 9.215187e-002 2.463435e-001 7.898305e-002 -6.393490e-002 -6.546623e-003 -4.004300e-002 -8.469740e-002 -1.829568e-002 -2.777318e-002 -8.014337e-002 -3.225878e-002 2.668312e-002 -3.370174e-002 -1.270668e-002 -3.798137e-003
<VARIANCE> 39
 6.864783e+001 2.268040e+001 2.522633e+001 3.514388e+001 4.760016e+001 3.681641e+001 2.942311e+001 3.952248e+001 3.359874e+001 2.445928e+001 2.690640e+001 2.587211e+001 3.579596e+001 4.761405e+000 1.484181e+000 1.980363e+000 3.039310e+000 2.948576e+000 3.213398e+000 2.627262e+000 3.185072e+000 2.391526e+000 2.053873e+000 2.740061e+000 2.526503e+000 1.132597e+000 4.725674e-001 2.118862e-001 2.727224e-001 4.285642e-001 4.242828e-001 5.299891e-001 4.549065e-001 5.075020e-001 3.958117e-001 3.950521e-001 4.557953e-001 4.551325e-001 1.032419e-001
<GCONST> 1.158465e+002
<STATE> 3
<MEAN> 39
 -9.814082e+000 2.014376e+000 -5.974715e-001 -1.257425e+000 6.214553e+000 -4.920074e+000 2.636859e+000 3.171300e+000 3.440589e+000 -3.956389e-002 -6.297581e-001 -5.057145e-001 6.022792e+001 4.411099e-001 -1.514502e-001 1.699237e-001 4.098069e-002 -3.434061e-001 -2.129660e-001 -3.737238e-001 -1.549200e-001 8.438955e-002 1.508028e-001 -8.420547e-002 -1.618122e-001 1.010375e-001 2.050120e-001 -8.367919e-002 2.695233e-002 8.756664e-003 -1.473977e-001 -3.680457e-002 -1.538770e-002 -1.408790e-001 -7.332832e-002 3.092691e-002 -5.087242e-002 -4.284582e-002 -1.144614e-002
<VARIANCE> 39
 7.038849e+001 2.084507e+001 2.419681e+001 2.604397e+001 4.640198e+001 2.747795e+001 3.221223e+001 3.614649e+001 2.561480e+001 2.256968e+001 2.333681e+001 2.355371e+001 2.071821e+001 5.365796e+000 1.538522e+000 1.966511e+000 2.248017e+000 3.355598e+000 2.468489e+000 2.886662e+000 3.820912e+000 2.124916e+000 2.150758e+000 2.191353e+000 2.067616e+000 7.047896e-001 4.748731e-001 2.054306e-001 3.223076e-001 4.105911e-001 4.348496e-001 4.382458e-001 5.303386e-001 6.173435e-001 3.835078e-001 4.224911e-001 3.919323e-001 3.836073e-001 8.336258e-002
<GCONST> 1.127943e+002
<STATE> 4
<MEAN> 39
 -5.586717e+000 7.948777e-001 4.422690e-001 -1.371784e+000 3.489938e+000 -6.142834e+000 5.215298e-001 1.206019e+000 3.380803e+000 5.617952e-001 -1.649193e+000 -1.882255e+000 6.056179e+001 1.483727e+000 -5.911409e-001 3.059917e-001 1.638968e-001 -1.042845e+000 -4.236038e-001 -4.955661e-001 -7.708208e-001 -3.195063e-001 4.089370e-001 -2.144406e-001 -3.903453e-001 9.269696e-002 1.067008e-002 -6.528980e-002 -4.946588e-002 6.089601e-002 -6.261642e-002 -3.916996e-002 7.231168e-002 -3.744368e-003 -8.475593e-002 5.840333e-003 5.278938e-002 1.825055e-002 -3.312696e-003
<VARIANCE> 39
 1.096710e+002 2.539192e+001 2.496059e+001 2.343045e+001 5.495974e+001 2.741975e+001 3.679898e+001 4.839010e+001 2.220294e+001 2.530304e+001 2.302687e+001 2.294426e+001 1.752081e+001 5.055802e+000 1.811267e+000 1.954684e+000 2.431231e+000 3.778177e+000 2.134872e+000 2.939651e+000 4.233411e+000 2.094213e+000 2.409721e+000 2.037277e+000 1.651970e+000 5.804947e-001 6.345786e-001 2.395465e-001 3.575544e-001 4.514343e-001 5.370075e-001 3.941289e-001 5.907526e-001 7.342167e-001 3.669139e-001 4.701293e-001 3.909486e-001 3.120264e-001 8.703986e-002
<GCONST> 1.145196e+002
<TRANSP> 5
 0.000000e+000 1.000000e+000 0.000000e+000 0.000000e+000 0.000000e+000
 0.000000e+000 8.152963e-001 1.847037e-001 0.000000e+000 0.000000e+000
 0.000000e+000 0.000000e+000 8.012748e-001 1.987252e-001 0.000000e+000
 0.000000e+000 0.000000e+000 0.000000e+000 8.502326e-001 1.497674e-001
 0.000000e+000 0.000000e+000 0.000000e+000 0.000000e+000 0.000000e+000
<ENDHMM>
~h "uh"
<BEGINHMM>
<NUMSTATES> 5
<STATE> 2
<MEAN> 39
 7.531217e+000 7.011285e+000 -3.010171e-002 -1.454886e+001 -7.052518e+000 -3.079454e+000 -4.490131e+000 -5.760239e+000 -9.267421e+000 -1.155644e+000 -6.637273e+000 -3.822051e+000 5.812132e+001 2.979892e-002 1.206294e-001 1.523497e-002 -8.368983e-002 -4.010338e-002 -7.056848e-002 8.120977e-002 -1.161319e-001 -2.071704e-001 -1.635241e-002 -1.038384e-002 5.299695e-002 -1.055162e-001 -2.973091e-002 -4.873574e-002 6.788787e-003 5.759438e-002 5.448106e-002 -2.150656e-002 1.747968e-002 7.704669e-003 4.249454e-002 3.320110e-002 3.100245e-002 1.199539e-002 -3.881559e-003
<VARIANCE> 39
 1.196931e+001 1.711269e+001 1.588944e+001 4.844561e+001 2.646173e+001 2.206110e+001 3.817721e+001 2.551661e+001 3.716520e+001 4.031540e+001 5.192005e+001 2.165510e+001 2.244648e+001 4.490553e-001 5.863833e-001 7.139751e-001 1.765716e+000 1.514047e+000 1.166411e+000 2.151038e+000 1.614793e+000 1.917584e+000 2.092587e+000 2.570235e+000 1.331214e+000 6.074656e-001 6.297073e-002 7.715584e-002 1.134475e-001 2.168972e-001 2.285519e-001 1.697092e-001 3.259091e-001 2.630877e-001 2.823968e-001 3.471597e-001 3.702074e-001 2.495790e-001 4.927370e-002
<GCONST> 9.472473e+001
<STATE> 3
<MEAN> 39
 6.423837e+000 5.012491e+000 1.100639e-001 -1.423038e+001 -3.213677e+000 -2.387624e+000 -3.329260e+000 -7.337655e+000 -9.845699e+000 6.115602e-001 -1.934823e+000 -2.119777e+000 5.706005e+001 -3.020122e-001 -3.815226e-001 2.449144e-001 8.307506e-001 6.664906e-001 -9.944689e-003 -1.552644e-001 -1.847808e-001 5.986878e-001 3.861780e-001 4.128263e-001 -3.982579e-002 -1.731802e-001 -8.869522e-002 2.526214e-002 8.517358e-002 1.964216e-001 -6.914772e-002 1.301292e-001 9.776125e-002 1.415059e-001 2.183071e-001 -1.219210e-001 -1.639502e-001 1.727041e-002 -1.718227e-001
<VARIANCE> 39
